<?xml version="1.0" encoding="UTF-8"?>
<!-- This network was created in GeNIe Academic, which can be used for academic teaching and research purposes only -->
<smile version="1.0" id="Network1" numsamples="10000" discsamples="10000">
	<nodes>
		<cpt id="Age">
			<state id="Age_12" />
			<state id="Age_13" />
			<state id="Age_14" />
			<state id="Age_15" />
			<state id="Age_16" />
			<probabilities>0.2 0.2 0.2 0.2 0.2</probabilities>
			<property id="DSL_OUTCOME_ORDER">1</property>
		</cpt>
		<cpt id="Gender">
			<state id="Male" />
			<state id="Female" />
			<state id="NonBinary" />
			<probabilities>0.48 0.48 0.04</probabilities>
		</cpt>
		<cpt id="Family_Support">
			<state id="State0" />
			<state id="State1" />
			<state id="State2" />
			<parents>Gender Age</parents>
			<probabilities>0.06116765733856575 0.08774397593096048 0.8510883667304738 1.821620734966625e-05 0.1077898707585751 0.8921919130340753 0.06196495650455087 0.2557502075522437 0.6822848359432055 0.07200943899497964 0.153748139428369 0.7742424215766514 0.02344309105619845 0.1601623402224464 0.8163945687213553 0.196573829540207 0.2017978257341622 0.601628344725631 0.1960478918656038 0.2477504075393009 0.5562017005950951 0.1604665494586338 0.2412966816771073 0.5982367688642589 0.1636302322721654 0.2789141155443905 0.5574556521834443 0.07586104547823277 0.2387033627646374 0.6854355917571298 0.316611883765027 0.327251857936224 0.356136258298749 0.121759413178256 0.1896810839505479 0.688559502871196 0.1165869293591153 0.261578740004613 0.6218343306362718 0.15339981837761 0.2200620230523764 0.6265381585700137 0.699445923164372 0.1936585193579027 0.1068955574777253</probabilities>
			<property id="DSL_OUTCOME_ORDER">1</property>
		</cpt>
		<cpt id="Social_Support">
			<state id="State0" />
			<state id="State1" />
			<state id="State2" />
			<probabilities>0.0585920428067957 0.2549689931738616 0.6864389640193427</probabilities>
			<property id="DSL_OUTCOME_ORDER">1</property>
		</cpt>
		<cpt id="Hours_Internet">
			<state id="State0" />
			<state id="State1" />
			<state id="State2" />
			<state id="State3" />
			<state id="State4" />
			<parents>Family_Support Social_Support Age</parents>
			<probabilities>0.8924904337195236 0.07193968276071637 0.01185662783991998 0.01185662783991998 0.01185662783991998 0.4667951716157596 0.1333012070960601 0.1333012070960601 0.1333012070960601 0.1333012070960601 0.2 0.2 0.2 0.2 0.2 0.01490314234433122 0.05228316784482898 0.4200224206631856 0.4978881268033229 0.01490314234433122 0.4995493749093314 0.01880414224142146 0.1633645146868502 0.3150874901333275 0.003194478029069488 0.02753288670499182 0.4660102535587146 0.05014322792153727 0.4287807451097644 0.02753288670499182 0.4827404233689692 0.1172298396612813 0.1655700576471869 0.1172298396612813 0.1172298396612813 0.163570768676884 0.163570768676884 0.3457169252924637 0.163570768676884 0.163570768676884 0.0765686978353568 0.0765686978353568 0.4607877699420219 0.3095061365519077 0.0765686978353568 0.01750844267414943 0.01750844267414943 0.2509462429209764 0.3570184358653624 0.3570184358653624 0.1465978773388314 0.05837907354617879 0.7141721753500693 0.04042543688246027 0.04042543688246027 0.09032945619855368 0.1364644582308224 0.3414383146860351 0.3414383146860351 0.09032945619855368 0.06475212038568953 0.07664021197021686 0.06475212038568953 0.7291034268727145 0.06475212038568953 0.4692950835465943 0.04192662951515281 0.4322580465095572 0.02826012021434781 0.02826012021434781 0.1685818608773177 0.3256725564907291 0.1685818608773177 0.1685818608773177 0.1685818608773177 0.2607292815618798 0.5940626148952131 0.04840270118096901 0.04840270118096901 0.04840270118096901 0.8481460491729124 0.05910094539900067 0.05910094539900067 0.01682603001454319 0.01682603001454319 0.05925925925925928 0.05925925925925928 0.05925925925925928 0.7629629629629631 0.05925925925925928 0.08 0.08 0.4799999999999999 0.28 0.08 0.2 0.2 0.2 0.2 0.2 0.1994963562821276 0.2337748441527342 0.2857672995358789 0.2777576957286749 0.003203804300584411 0.3716067843555375 0.002405729495466823 0.3840275713880854 0.239655939860536 0.002303974900374318 0.02070333397777453 0.4705318594801303 0.4878653024860074 0.0177604812692411 0.003139022786846639 0.1690856278823502 0.0513464231644788 0.397547468701552 0.3818601187850622 0.0001603614665567255 0.367771763103201 0.4130801340938849 0.02755158969253573 0.1905917782738988 0.001004734836479585 0.003089332431766847 0.5396673420126492 0.01069579305065706 0.4434582000731602 0.003089332431766847 0.03004417728680548 0.03004417728680548 0.750631177364557 0.1592362907750265 0.03004417728680548 0.006148951048685255 0.02293366553457562 0.2915551578536154 0.6732132745144385 0.006148951048685255 0.02088907454075525 0.02088907454075525 0.02236105145448211 0.9300782680330214 0.005782531430986051 0.006962714369878769 0.4008686043470315 0.5107548068456375 0.0744511600675736 0.006962714369878769 0.5305130196745883 0.0722287662039095 0.2528006817136832 0.0722287662039095 0.0722287662039095 0.2812817335325703 0.1105720409949891 0.3870021434824621 0.1105720409949891 0.1105720409949891 0.1756422724403674 0.323391611331456 0.08878725244836023 0.323391611331456 0.08878725244836023 0.150853338730393 0.6088966349478386 0.08008334210725616 0.08008334210725616 0.08008334210725616 0.01203916062587359 0.2771686619854835 0.386112255141757 0.3169802327587307 0.007699689488155219 0.003770542011145366 0.1557342542623059 0.6941410460558899 0.1454184857163238 0.000935671954334895 0.001297231618579601 0.2549020584723508 0.7266573669626567 0.0159781601105025 0.001165182835910584 0.0770961810312398 0.151274726841069 0.07221978209538515 0.6832912951119727 0.01611801492033346 0.0005920879984571572 0.003244469424993994 0.2225311941813861 0.7731142368701603 0.0005180115250023834 0.01312585533349589 0.3087252840296113 0.3833031996401832 0.2916359437929175 0.003209717203792112 5.072861560741832e-05 0.4628459504430547 0.4125931591971587 0.1244846213789292 2.554036524990187e-05 0.1641623301481815 0.550223713846101 0.1877580489645881 0.09782559591421822 3.031112691109281e-05 0.06842852810477415 0.3379983868415525 0.1409063950734334 0.4526115961653666 5.509381487326954e-05 2.80913496521134e-05 0.3136558746781462 0.4925696320361089 0.1937294624642801 1.69394718128384e-05 0.1867610033148356 0.2471533071055199 0.04370059016913121 0.522309226170063 7.587324045045592e-05</probabilities>
			<property id="DSL_OUTCOME_ORDER">1</property>
		</cpt>
		<cpt id="Conscientiousness_BF">
			<state id="State0" />
			<state id="State1" />
			<state id="State2" />
			<probabilities>0.2261904340393644 0.3781572857025771 0.3956522802580584</probabilities>
		</cpt>
		<cpt id="Agreeableness_BF">
			<state id="State0" />
			<state id="State1" />
			<state id="State2" />
			<probabilities>0.3636645497441662 0.4770187244605243 0.1593167257953095</probabilities>
		</cpt>
		<cpt id="Neuroticism_BF">
			<state id="State0" />
			<state id="State1" />
			<state id="State2" />
			<probabilities>0.3840579706581428 0.4354037643284508 0.1805382650134064</probabilities>
		</cpt>
		<cpt id="CT_risk">
			<state id="State0" />
			<state id="State1" />
			<parents>Neuroticism_BF Conscientiousness_BF Agreeableness_BF Social_Support Family_Support Hours_Internet Gender Age</parents>
			<probabilities>0.7 0.3 0.7 0.3 0.7 0.3 0.7 0.3 0.7 0.3 0.7 0.3 0.7 0.3 0.7 0.3 0.7 0.3 0.7 0.3 0.7 0.3 0.7 0.3 0.7 0.3 0.7 0.3 0.7 0.3 0.7 0.3 0.7 0.3 0.7 0.3 0.7 0.3 0.7 0.3 0.7 0.3 0.7 0.3 0.7 0.3 0.7 0.3 0.7 0.3 0.7 0.3 0.7 0.3 0.7 0.3 0.7 0.3 0.7 0.3 0.7 0.3 0.7 0.3 0.7 0.3 0.7 0.3 0.7 0.3 0.7 0.3 0.7 0.3 0.7 0.3 0.7 0.3 0.7 0.3 0.7 0.3 0.7 0.3 0.7 0.3 0.7 0.3 0.7 0.3 0.7 0.3 0.7 0.3 0.7 0.3 0.7 0.3 0.7 0.3 0.7 0.3 0.7 0.3 0.7 0.3 0.7 0.3 0.7 0.3 0.7 0.3 0.7 0.3 0.7 0.3 0.7 0.3 0.7 0.3 0.7 0.3 0.7 0.3 0.7 0.3 0.7 0.3 0.7 0.3 0.7 0.3 0.7 0.3 0.7 0.3 0.7 0.3 0.7 0.3 0.7 0.3 0.7 0.3 0.7 0.3 0.7 0.3 0.7 0.3 0.7 0.3 0.7 0.3 0.7 0.3 0.7 0.3 0.7 0.3 0.7 0.3 0.7 0.3 0.7 0.3 0.7 0.3 0.7 0.3 0.7 0.3 0.7 0.3 0.7 0.3 0.7 0.3 0.7 0.3 0.7 0.3 0.7 0.3 0.7 0.3 0.7 0.3 0.7 0.3 0.7 0.3 0.7 0.3 0.7 0.3 0.7 0.3 0.7 0.3 0.7 0.3 0.7 0.3 0.7 0.3 0.7 0.3 0.7 0.3 0.7 0.3 0.7 0.3 0.7 0.3 0.7 0.3 0.7 0.3 0.7 0.3 0.7 0.3 0.7 0.3 0.7 0.3 0.7 0.3 0.7 0.3 0.7 0.3 0.7 0.3 0.7 0.3 0.7 0.3 0.7 0.3 0.7 0.3 0.7 0.3 0.7 0.3 0.7 0.3 0.7 0.3 0.7 0.3 0.7 0.3 0.7 0.3 0.7 0.3 0.7 0.3 0.7 0.3 0.7 0.3 0.7 0.3 0.7 0.3 0.7 0.3 0.7 0.3 0.7 0.3 0.7 0.3 0.7 0.3 0.7 0.3 0.7 0.3 0.7 0.3 0.7 0.3 0.7 0.3 0.7 0.3 0.7 0.3 0.7 0.3 0.7 0.3 0.7 0.3 0.7 0.3 0.7 0.3 0.7 0.3 0.7 0.3 0.7 0.3 0.7 0.3 0.7 0.3 0.7 0.3 0.7 0.3 0.7 0.3 0.7 0.3 0.7 0.3 0.7 0.3 0.7 0.3 0.7 0.3 0.7 0.3 0.7 0.3 0.7 0.3 0.7 0.3 0.7 0.3 0.7 0.3 0.7 0.3 0.7 0.3 0.7 0.3 0.7 0.3 0.7 0.3 0.7 0.3 0.7 0.3 0.7 0.3 0.7 0.3 0.7 0.3 0.7 0.3 0.7 0.3 0.7 0.3 0.7 0.3 0.7 0.3 0.7 0.3 0.7 0.3 0.7 0.3 0.7 0.3 0.7 0.3 0.7 0.3 0.7 0.3 0.7 0.3 0.7 0.3 0.7 0.3 0.7 0.3 0.7 0.3 0.7 0.3 0.7 0.3 0.7 0.3 0.7 0.3 0.7 0.3 0.7 0.3 0.7 0.3 0.7 0.3 0.7 0.3 0.7 0.3 0.7 0.3 0.7 0.3 0.7 0.3 0.7 0.3 0.7 0.3 0.7 0.3 0.7 0.3 0.7 0.3 0.7 0.3 0.7 0.3 0.7 0.3 0.7 0.3 0.7 0.3 0.7 0.3 0.7 0.3 0.7 0.3 0.7 0.3 0.7 0.3 0.7 0.3 0.7 0.3 0.7 0.3 0.7 0.3 0.7 0.3 0.7 0.3 0.7 0.3 0.7 0.3 0.7 0.3 0.7 0.3 0.7 0.3 0.7 0.3 0.7 0.3 0.7 0.3 0.7 0.3 0.7 0.3 0.7 0.3 0.7 0.3 0.7 0.3 0.7 0.3 0.7 0.3 0.7 0.3 0.7 0.3 0.7 0.3 0.7 0.3 0.7 0.3 0.7 0.3 0.7 0.3 0.7 0.3 0.7 0.3 0.7 0.3 0.7 0.3 0.7 0.3 0.7 0.3 0.7 0.3 0.7 0.3 0.7 0.3 0.7 0.3 0.7 0.3 0.7 0.3 0.7 0.3 0.7 0.3 0.7 0.3 0.7 0.3 0.7 0.3 0.7 0.3 0.7 0.3 0.7 0.3 0.7 0.3 0.7 0.3 0.7 0.3 0.7 0.3 0.7 0.3 0.7 0.3 0.7 0.3 0.7 0.3 0.7 0.3 0.7 0.3 0.7 0.3 0.7 0.3 0.7 0.3 0.7 0.3 0.7 0.3 0.7 0.3 0.7 0.3 0.7 0.3 0.7 0.3 0.7 0.3 0.7 0.3 0.7 0.3 0.7 0.3 0.7 0.3 0.7 0.3 0.7 0.3 0.7 0.3 0.7 0.3 0.7 0.3 0.7259466712911098 0.2740533287088903 0.7 0.3 0.7 0.3 0.7 0.3 0.7 0.3 0.7 0.3 0.7768882548463663 0.2231117451536337 0.7 0.3 0.7 0.3 0.7 0.3 0.7 0.3 0.7 0.3 0.7 0.3 0.7 0.3 0.7 0.3 0.7651885334449331 0.2348114665550669 0.7 0.3 0.7 0.3 0.7 0.3 0.7 0.3 0.7 0.3 0.7 0.3 0.7 0.3 0.7 0.3 0.7 0.3 0.7 0.3 0.7 0.3 0.7 0.3 0.7 0.3 0.7 0.3 0.8610181071934405 0.1389818928065596 0.4685125674423751 0.531487432557625 0.3416517026721012 0.6583482973278989 0.7 0.3 0.7 0.3 0.7 0.3 0.7955254952817388 0.2044745047182613 0.7 0.3 0.7 0.3 0.7 0.3 0.7 0.3 0.7 0.3 0.7 0.3 0.7 0.3 0.7 0.3 0.7621080256812686 0.2378919743187315 0.7 0.3 0.7 0.3 0.7 0.3 0.7 0.3 0.7 0.3 0.7 0.3 0.7 0.3 0.7 0.3 0.7 0.3 0.7 0.3 0.7 0.3 0.7 0.3 0.7 0.3 0.7 0.3 0.7018856338219918 0.2981143661780083 0.7 0.3 0.7 0.3 0.7 0.3 0.7 0.3 0.7 0.3 0.7 0.3 0.7 0.3 0.7 0.3 0.7 0.3 0.7 0.3 0.7 0.3 0.7 0.3 0.7 0.3 0.7 0.3 0.7 0.3 0.711831112395103 0.288168887604897 0.7 0.3 0.7 0.3 0.7 0.3 0.7 0.3 0.7 0.3 0.7 0.3 0.7 0.3 0.7 0.3 0.7 0.3 0.7 0.3 0.7 0.3 0.7 0.3 0.7995167805401628 0.2004832194598374 0.7 0.3 0.779274177716396 0.2207258222836042 0.7 0.3 0.7 0.3 0.7 0.3 0.7 0.3 0.7 0.3 0.7 0.3 0.7 0.3 0.7 0.3 0.7 0.3 0.7 0.3 0.7 0.3 0.6268404365262972 0.3731595634737028 0.7 0.3 0.7 0.3 0.7971221430540439 0.2028778569459561 0.7 0.3 0.7 0.3 0.7 0.3 0.7 0.3 0.7 0.3 0.7 0.3 0.7 0.3 0.7 0.3 0.7 0.3 0.7 0.3 0.7 0.3 0.7 0.3 0.7 0.3 0.7 0.3 0.275321215492529 0.7246787845074709 0.7 0.3 0.7 0.3 0.7997466437523419 0.2002533562476582 0.7 0.3 0.7 0.3 0.7 0.3 0.7 0.3 0.7 0.3 0.7 0.3 0.7 0.3 0.7 0.3 0.7 0.3 0.7 0.3 0.7 0.3 0.7029687917256068 0.2970312082743932 0.7 0.3 0.7 0.3 0.7 0.3 0.7 0.3 0.7 0.3 0.7 0.3 0.7 0.3 0.7 0.3 0.7 0.3 0.7 0.3 0.6135038256636024 0.3864961743363977 0.7 0.3 0.7 0.3 0.7 0.3 0.7 0.3 0.7 0.3 0.7 0.3 0.7 0.3 0.7 0.3 0.7 0.3 0.7 0.3 0.7 0.3 0.7 0.3 0.7 0.3 0.7 0.3 0.7 0.3 0.7 0.3 0.7 0.3 0.7 0.3 0.7 0.3 0.7 0.3 0.7 0.3 0.7 0.3 0.7 0.3 0.7 0.3 0.7 0.3 0.7 0.3 0.7 0.3 0.7 0.3 0.7 0.3 0.7 0.3 0.7 0.3 0.7 0.3 0.7 0.3 0.7 0.3 0.7 0.3 0.7 0.3 0.7 0.3 0.7 0.3 0.7 0.3 0.7 0.3 0.7 0.3 0.7 0.3 0.7 0.3 0.7 0.3 0.7 0.3 0.7 0.3 0.7 0.3 0.7 0.3 0.7 0.3 0.7 0.3 0.7 0.3 0.7 0.3 0.7 0.3 0.7 0.3 0.7 0.3 0.7 0.3 0.7 0.3 0.7 0.3 0.7 0.3 0.7 0.3 0.7 0.3 0.7 0.3 0.7 0.3 0.7 0.3 0.7 0.3 0.7 0.3 0.7 0.3 0.7 0.3 0.7 0.3 0.7 0.3 0.7 0.3 0.7 0.3 0.7 0.3 0.7 0.3 0.7 0.3 0.7 0.3 0.7 0.3 0.6724035709887659 0.3275964290112341 0.6967088781152486 0.3032911218847514 0.7 0.3 0.7 0.3 0.6997141863453418 0.3002858136546582 0.6755364552922386 0.3244635447077615 0.6960876255008621 0.3039123744991378 0.7 0.3 0.7 0.3 0.7 0.3 0.6976631588938199 0.3023368411061801 0.6998697753536903 0.3001302246463096 0.7 0.3 0.7 0.3 0.7 0.3 0.6724035709887659 0.3275964290112341 0.6795014116052338 0.3204985883947662 0.7 0.3 0.7 0.3 0.6988494750716746 0.3011505249283254 0.6755364552922386 0.3244635447077615 0.6755011690329742 0.3244988309670258 0.7 0.3 0.7 0.3 0.7 0.3 0.6976631588938199 0.3023368411061801 0.6992120439395014 0.3007879560604985 0.7 0.3 0.7 0.3 0.7 0.3 0.5640689003873415 0.4359310996126585 0.6197300656557594 0.3802699343442407 0.7 0.3 0.7 0.3 0.696283256730566 0.3037167432694341 0.6749152777647328 0.3250847222352672 0.6031951551193344 0.3968048448806657 0.7 0.3 0.7 0.3 0.7 0.3 0.6976054276555838 0.3023945723444163 0.6971374759257309 0.3028625240742691 0.7 0.3 0.7 0.3 0.7 0.3 0.3803976079675742 0.6196023920324258 0.6681231514859649 0.3318768485140351 0.7 0.3 0.7 0.3 0.8587307187917742 0.1412692812082257 0.4498988006998855 0.5501011993001146 0.6617925914161054 0.3382074085838947 0.7 0.3 0.7 0.3 0.7 0.3 0.6780758317121207 0.3219241682878793 0.6987955901340552 0.3012044098659448 0.7 0.3 0.7 0.3 0.7 0.3 0.6924706726710086 0.3075293273289915 0.6967088781152486 0.3032911218847514 0.7 0.3 0.7 0.3 0.6997141863453418 0.3002858136546582 0.6933058284872932 0.3066941715127068 0.6960876255008621 0.3039123744991378 0.7 0.3 0.7 0.3 0.7 0.3 0.6993468068562414 0.3006531931437587 0.6998697753536903 0.3001302246463096 0.6998850649901933 0.3001149350098067 0.7358071448252157 0.2641928551747844 0.6986199832080746 0.3013800167919254 0.7010206016316891 0.298979398368311 0.6644366216467691 0.335563378353231 0.7014146854240713 0.2985853145759288 0.7 0.3 0.7 0.3 0.7 0.3 0.7401024911925345 0.2598975088074656 0.7 0.3 0.7 0.3 0.7 0.3 0.7 0.3 0.7 0.3 0.8468127821720109 0.1531872178279892 0.8597387665346589 0.1402612334653412 0.3284142490852101 0.6715857509147899 0.6926283544744362 0.3073716455255638 0.6365025146933102 0.3634974853066898 0.8006425802213873 0.1993574197786126 0.7 0.3 0.7 0.3 0.7 0.3 0.7577219918218264 0.2422780081781736 0.7 0.3 0.7 0.3 0.7 0.3 0.7 0.3 0.7 0.3 0.6950575505546503 0.3049424494453497 0.745811200243647 0.2541887997563529 0.7279888049416637 0.2720111950583363 0.2380362792698609 0.7619637207301391 0.6199774958686183 0.3800225041313818 0.7956071324795146 0.2043928675204854 0.7 0.3 0.7 0.3 0.7 0.3 0.7402989734807897 0.2597010265192102 0.7 0.3 0.7 0.3 0.6978888204053493 0.3021111795946507 0.7 0.3 0.7 0.3 0.6988184544274977 0.3011815455725023 0.7342710883718413 0.2657289116281588 0.4646890254916404 0.5353109745083596 0.7332630993220477 0.2667369006779524 0.1817722485168374 0.8182277514831627 0.7295764866527323 0.2704235133472676 0.7 0.3 0.7 0.3 0.7 0.3 0.7943022892845567 0.2056977107154433 0.7 0.3 0.7 0.3 0.7 0.3 0.7 0.3 0.7 0.3 0.6999208953116299 0.3000791046883701 0.7008859442532452 0.2991140557467548 0.6999184799282107 0.3000815200717894 0.7008088520701912 0.2991911479298089 0.6982837844557415 0.3017162155442585 0.7009733097788396 0.2990266902211603 0.7 0.3 0.7 0.3 0.7 0.3 0.7009111884963725 0.2990888115036274 0.7 0.3 0.7 0.3 0.7 0.3 0.7 0.3 0.7 0.3 0.7 0.3 0.7 0.3 0.7 0.3 0.7 0.3 0.7 0.3 0.7 0.3 0.7 0.3 0.7 0.3 0.7 0.3 0.7 0.3 0.7 0.3 0.7 0.3 0.7 0.3 0.7 0.3 0.7 0.3 0.7 0.3 0.7 0.3 0.7 0.3 0.7 0.3 0.7 0.3 0.7 0.3 0.7 0.3 0.7 0.3 0.7 0.3 0.7 0.3 0.7 0.3 0.7 0.3 0.7 0.3 0.7 0.3 0.7 0.3 0.7 0.3 0.7 0.3 0.7 0.3 0.7 0.3 0.7 0.3 0.7 0.3 0.7 0.3 0.7 0.3 0.7 0.3 0.7 0.3 0.7 0.3 0.7 0.3 0.7 0.3 0.7 0.3 0.7 0.3 0.7 0.3 0.7 0.3 0.7 0.3 0.7 0.3 0.7 0.3 0.7 0.3 0.7 0.3 0.7 0.3 0.7 0.3 0.7 0.3 0.7 0.3 0.7 0.3 0.7 0.3 0.7 0.3 0.7 0.3 0.7 0.3 0.7 0.3 0.7 0.3 0.7 0.3 0.7 0.3 0.7 0.3 0.7 0.3 0.7 0.3 0.7 0.3 0.7 0.3 0.7 0.3 0.7 0.3 0.7 0.3 0.7 0.3 0.7 0.3 0.7 0.3 0.7 0.3 0.7 0.3 0.7 0.3 0.7 0.3 0.7 0.3 0.7 0.3 0.7 0.3 0.7 0.3 0.7 0.3 0.7 0.3 0.7 0.3 0.7 0.3 0.7 0.3 0.7 0.3 0.7 0.3 0.7 0.3 0.7 0.3 0.7 0.3 0.7 0.3 0.7 0.3 0.7 0.3 0.7 0.3 0.7 0.3 0.7 0.3 0.7 0.3 0.7 0.3 0.7 0.3 0.7 0.3 0.7 0.3 0.7 0.3 0.7 0.3 0.7 0.3 0.7 0.3 0.7 0.3 0.7 0.3 0.7 0.3 0.7 0.3 0.7 0.3 0.7 0.3 0.7 0.3 0.7 0.3 0.7 0.3 0.4685125674423751 0.531487432557625 0.7 0.3 0.7 0.3 0.7 0.3 0.7 0.3 0.7 0.3 0.7 0.3 0.7 0.3 0.7 0.3 0.7 0.3 0.7 0.3 0.7 0.3 0.7 0.3 0.7 0.3 0.7 0.3 0.7 0.3 0.7 0.3 0.7 0.3 0.7 0.3 0.7 0.3 0.7 0.3 0.7 0.3 0.7 0.3 0.7 0.3 0.7 0.3 0.7 0.3 0.7 0.3 0.7 0.3 0.7 0.3 0.7 0.3 0.7 0.3 0.7 0.3 0.7 0.3 0.7 0.3 0.7 0.3 0.7 0.3 0.7 0.3 0.7 0.3 0.7 0.3 0.7 0.3 0.7 0.3 0.7 0.3 0.7 0.3 0.7 0.3 0.7 0.3 0.7 0.3 0.7 0.3 0.7 0.3 0.7 0.3 0.7 0.3 0.7 0.3 0.7 0.3 0.7 0.3 0.7 0.3 0.7 0.3 0.7 0.3 0.7 0.3 0.7 0.3 0.7 0.3 0.7 0.3 0.7 0.3 0.7 0.3 0.7 0.3 0.7 0.3 0.7 0.3 0.7 0.3 0.7 0.3 0.7 0.3 0.7 0.3 0.7 0.3 0.7 0.3 0.7 0.3 0.7 0.3 0.7 0.3 0.7 0.3 0.7 0.3 0.7 0.3 0.7 0.3 0.7 0.3 0.7 0.3 0.7 0.3 0.7 0.3 0.7 0.3 0.7 0.3 0.7 0.3 0.7 0.3 0.7 0.3 0.7 0.3 0.7 0.3 0.7 0.3 0.7 0.3 0.7 0.3 0.7 0.3 0.7 0.3 0.7 0.3 0.7 0.3 0.7 0.3 0.7 0.3 0.7 0.3 0.7 0.3 0.7 0.3 0.7 0.3 0.7 0.3 0.7 0.3 0.7 0.3 0.7 0.3 0.7 0.3 0.7 0.3 0.7 0.3 0.7 0.3 0.7 0.3 0.7 0.3 0.7 0.3 0.7 0.3 0.7 0.3 0.7 0.3 0.7 0.3 0.7 0.3 0.7 0.3 0.7 0.3 0.7 0.3 0.7 0.3 0.7 0.3 0.7 0.3 0.7 0.3 0.7 0.3 0.7 0.3 0.7 0.3 0.7 0.3 0.7 0.3 0.7 0.3 0.7 0.3 0.7 0.3 0.7 0.3 0.7 0.3 0.7 0.3 0.7 0.3 0.7 0.3 0.7 0.3 0.7 0.3 0.7 0.3 0.7 0.3 0.7 0.3 0.7 0.3 0.7 0.3 0.7 0.3 0.7 0.3 0.7 0.3 0.7 0.3 0.7 0.3 0.7 0.3 0.7 0.3 0.7 0.3 0.7 0.3 0.7 0.3 0.7 0.3 0.7 0.3 0.6819307957031879 0.3180692042968121 0.7 0.3 0.7 0.3 0.7 0.3 0.7 0.3 0.7 0.3 0.7 0.3 0.7 0.3 0.7 0.3 0.7 0.3 0.7 0.3 0.7 0.3 0.7 0.3 0.7 0.3 0.7 0.3 0.7 0.3 0.7 0.3 0.7 0.3 0.7 0.3 0.7 0.3 0.7 0.3 0.7 0.3 0.7 0.3 0.7 0.3 0.7 0.3 0.7 0.3 0.7 0.3 0.7 0.3 0.7 0.3 0.7 0.3 0.7 0.3 0.7 0.3 0.7 0.3 0.7 0.3 0.7 0.3 0.7 0.3 0.7 0.3 0.7 0.3 0.7 0.3 0.7 0.3 0.7 0.3 0.7 0.3 0.7 0.3 0.7 0.3 0.7 0.3 0.7 0.3 0.7 0.3 0.7 0.3 0.7 0.3 0.7 0.3 0.7 0.3 0.7 0.3 0.7 0.3 0.7 0.3 0.7 0.3 0.7 0.3 0.7 0.3 0.7 0.3 0.7 0.3 0.7 0.3 0.7 0.3 0.7 0.3 0.7 0.3 0.7 0.3 0.7 0.3 0.7 0.3 0.7 0.3 0.7 0.3 0.7 0.3 0.7 0.3 0.7 0.3 0.7 0.3 0.7 0.3 0.7910272467595386 0.2089727532404616 0.7 0.3 0.7 0.3 0.7 0.3 0.7 0.3 0.7 0.3 0.7 0.3 0.7 0.3 0.7 0.3 0.7 0.3 0.7 0.3 0.7 0.3 0.7 0.3 0.7 0.3 0.7 0.3 0.7 0.3 0.7 0.3 0.7 0.3 0.7 0.3 0.7 0.3 0.7 0.3 0.7 0.3 0.7 0.3 0.7 0.3 0.7 0.3 0.7 0.3 0.7 0.3 0.7 0.3 0.6987650221203437 0.3012349778796563 0.7 0.3 0.6958480228864765 0.3041519771135235 0.7 0.3 0.7 0.3 0.7 0.3 0.7162764261587978 0.2837235738412022 0.7 0.3 0.7 0.3 0.7 0.3 0.7 0.3 0.7 0.3 0.7 0.3 0.7 0.3 0.7 0.3 0.6182615193647907 0.3817384806352093 0.7 0.3 0.6769554955277034 0.3230445044722967 0.7974681469995032 0.2025318530004968 0.7 0.3 0.7 0.3 0.730413234055142 0.269586765944858 0.7 0.3 0.7 0.3 0.7 0.3 0.7 0.3 0.7 0.3 0.7 0.3 0.7 0.3 0.7 0.3 0.3676828470803273 0.6323171529196726 0.7 0.3 0.5069981305114091 0.493001869488591 0.7994414113125988 0.2005585886874014 0.7 0.3 0.7 0.3 0.7132423424312919 0.2867576575687081 0.7 0.3 0.7 0.3 0.7 0.3 0.7 0.3 0.7 0.3 0.7 0.3 0.7 0.3 0.7986393615053068 0.2013606384946932 0.6845172317648095 0.3154827682351907 0.7 0.3 0.448957525912023 0.5510424740879771 0.7 0.3 0.7 0.3 0.7 0.3 0.7604804335028901 0.2395195664971098 0.7 0.3 0.7 0.3 0.7 0.3 0.7 0.3 0.7 0.3 0.7 0.3 0.7 0.3 0.7 0.3 0.698890916978064 0.3011090830219358 0.7 0.3 0.6963690573076117 0.3036309426923883 0.7 0.3 0.7 0.3 0.7 0.3 0.7035473984338827 0.2964526015661174 0.7 0.3 0.7 0.3 0.7 0.3 0.7 0.3 0.7 0.3 0.7 0.3 0.7 0.3 0.7 0.3 0.7 0.3 0.7 0.3 0.7 0.3 0.7 0.3 0.7 0.3 0.7 0.3 0.7 0.3 0.7 0.3 0.7 0.3 0.7 0.3 0.7 0.3 0.7 0.3 0.7 0.3 0.7 0.3 0.7 0.3 0.7 0.3 0.7 0.3 0.7 0.3 0.7 0.3 0.7 0.3 0.7 0.3 0.7 0.3 0.7 0.3 0.7 0.3 0.7 0.3 0.7 0.3 0.7 0.3 0.7 0.3 0.7 0.3 0.7 0.3 0.7 0.3 0.7 0.3 0.7 0.3 0.7 0.3 0.7 0.3 0.7 0.3 0.7 0.3 0.7 0.3 0.7 0.3 0.7 0.3 0.7 0.3 0.7 0.3 0.7 0.3 0.7 0.3 0.7 0.3 0.7 0.3 0.7 0.3 0.7 0.3 0.7 0.3 0.7 0.3 0.7 0.3 0.7 0.3 0.7 0.3 0.7 0.3 0.7 0.3 0.7 0.3 0.7 0.3 0.7 0.3 0.7 0.3 0.7 0.3 0.7 0.3 0.7 0.3 0.7 0.3 0.7 0.3 0.7 0.3 0.7 0.3 0.7 0.3 0.7 0.3 0.7 0.3 0.7 0.3 0.7 0.3 0.7 0.3 0.7 0.3 0.7 0.3 0.7 0.3 0.7 0.3 0.6857782314049967 0.3142217685950034 0.7245913793175631 0.2754086206824369 0.7 0.3 0.7 0.3 0.7 0.3 0.7 0.3 0.6713931152421104 0.3286068847578895 0.7 0.3 0.7 0.3 0.7 0.3 0.7 0.3 0.7 0.3 0.7 0.3 0.7 0.3 0.7 0.3 0.6460714002856451 0.3539285997143549 0.7245913793175631 0.2754086206824369 0.7 0.3 0.7 0.3 0.7 0.3 0.7 0.3 0.6713931152421104 0.3286068847578895 0.7 0.3 0.7 0.3 0.7 0.3 0.7 0.3 0.7 0.3 0.7 0.3 0.7 0.3 0.7 0.3 0.5462386594053824 0.4537613405946177 0.72528278890798 0.27471721109202 0.7974681469995032 0.2025318530004968 0.7 0.3 0.7 0.3 0.7 0.3 0.6709796461440296 0.3290203538559704 0.7 0.3 0.7 0.3 0.7 0.3 0.7 0.3 0.7 0.3 0.7 0.3 0.7 0.3 0.7 0.3 0.3785429575798611 0.6214570424201389 0.8837593364215203 0.1162406635784798 0.7 0.3 0.7 0.3 0.7 0.3 0.7 0.3 0.6815033872997053 0.3184966127002947 0.7995167805401628 0.2004832194598374 0.7 0.3 0.7 0.3 0.7 0.3 0.7 0.3 0.7 0.3 0.7 0.3 0.7 0.3 0.6857782314049967 0.3142217685950034 0.7070615785571116 0.2929384214428884 0.7 0.3 0.7 0.3 0.7 0.3 0.7 0.3 0.6922113170593808 0.3077886829406192 0.7 0.3 0.7 0.3 0.7 0.3 0.7 0.3 0.7 0.3 0.7 0.3 0.7041268369191284 0.2958731630808716 0.6081895069366392 0.3918104930633609 0.7315557892001842 0.2684442107998158 0.702613229884562 0.2973867701154381 0.5975939982629449 0.4024060017370551 0.7 0.3 0.6900241041594408 0.3099758958405592 0.7 0.3 0.7 0.3 0.7 0.3 0.7 0.3 0.6990873124663345 0.3009126875336655 0.7 0.3 0.7 0.3 0.7 0.3 0.826163920388565 0.1738360796114351 0.7242169718022062 0.2757830281977938 0.7 0.3 0.7387327302554387 0.2612672697445614 0.7469511482965702 0.2530488517034298 0.7 0.3 0.7854015355559417 0.2145984644440584 0.7 0.3 0.7 0.3 0.7 0.3 0.7 0.3 0.6977054773610352 0.3022945226389648 0.7 0.3 0.7 0.3 0.7 0.3 0.7507493237414615 0.2492506762585385 0.7147737806780046 0.2852262193219954 0.7 0.3 0.5953507949952147 0.4046492050047854 0.4270626166486391 0.5729373833513609 0.7 0.3 0.684878204225536 0.315121795774464 0.7 0.3 0.7 0.3 0.7974681469995032 0.2025318530004968 0.7 0.3 0.6986260280713593 0.3013739719286407 0.7 0.3 0.7 0.3 0.7 0.3 0.6671041089686188 0.3328958910313812 0.63822613230317 0.3617738676968298 0.6245592826529321 0.3754407173470679 0.654249719667902 0.345750280332098 0.2247623840027489 0.7752376159972511 0.7 0.3 0.4562214148091382 0.5437785851908618 0.4064562676335199 0.5935437323664801 0.7 0.3 0.7 0.3 0.7 0.3 0.6987081205236962 0.3012918794763038 0.703607724310521 0.2963922756894791 0.7 0.3 0.7 0.3 0.700918280822781 0.299081719177219 0.7005325839298163 0.2994674160701836 0.7 0.3 0.7007894818100698 0.2992105181899301 0.6977476728031021 0.3022523271968979 0.7 0.3 0.6994791394261289 0.3005208605738711 0.7 0.3 0.7 0.3 0.7 0.3 0.7 0.3 0.6999516996077308 0.3000483003922692 0.7 0.3 0.7 0.3 0.7 0.3 0.7 0.3 0.7 0.3 0.7 0.3 0.7 0.3 0.7 0.3 0.7 0.3 0.7 0.3 0.7 0.3 0.7 0.3 0.7 0.3 0.7 0.3 0.7 0.3 0.7 0.3 0.7 0.3 0.7 0.3 0.7 0.3 0.7 0.3 0.7 0.3 0.7 0.3 0.7 0.3 0.7 0.3 0.7 0.3 0.7 0.3 0.7 0.3 0.7 0.3 0.7 0.3 0.7 0.3 0.7 0.3 0.7 0.3 0.7 0.3 0.7 0.3 0.7 0.3 0.7 0.3 0.7 0.3 0.7 0.3 0.7 0.3 0.7 0.3 0.7 0.3 0.7 0.3 0.7 0.3 0.7 0.3 0.7 0.3 0.7 0.3 0.7 0.3 0.7 0.3 0.7 0.3 0.7 0.3 0.7 0.3 0.7 0.3 0.7 0.3 0.7 0.3 0.7 0.3 0.7 0.3 0.7 0.3 0.7 0.3 0.7 0.3 0.7 0.3 0.7 0.3 0.7 0.3 0.7 0.3 0.7 0.3 0.7 0.3 0.7 0.3 0.7 0.3 0.7 0.3 0.7 0.3 0.7 0.3 0.7 0.3 0.7 0.3 0.7 0.3 0.7 0.3 0.7 0.3 0.7 0.3 0.7 0.3 0.7 0.3 0.7 0.3 0.7 0.3 0.7 0.3 0.7 0.3 0.7 0.3 0.7 0.3 0.7 0.3 0.7 0.3 0.7 0.3 0.7 0.3 0.7 0.3 0.7 0.3 0.7 0.3 0.7 0.3 0.7 0.3 0.7 0.3 0.7 0.3 0.7 0.3 0.7 0.3 0.7 0.3 0.7 0.3 0.7 0.3 0.7 0.3 0.7 0.3 0.7 0.3 0.7 0.3 0.7 0.3 0.7 0.3 0.7 0.3 0.7 0.3 0.7 0.3 0.7 0.3 0.7 0.3 0.7 0.3 0.7 0.3 0.7 0.3 0.7 0.3 0.7 0.3 0.7 0.3 0.7 0.3 0.7 0.3 0.7 0.3 0.7 0.3 0.7 0.3 0.7 0.3 0.7 0.3 0.7 0.3 0.7 0.3 0.7 0.3 0.7 0.3 0.7 0.3 0.7 0.3 0.7 0.3 0.7 0.3 0.7 0.3 0.7 0.3 0.7 0.3 0.7 0.3 0.7 0.3 0.7 0.3 0.7 0.3 0.7 0.3 0.7 0.3 0.7 0.3 0.7 0.3 0.7 0.3 0.7 0.3 0.7 0.3 0.7 0.3 0.7 0.3 0.7 0.3 0.7 0.3 0.7 0.3 0.7 0.3 0.7 0.3 0.7 0.3 0.7 0.3 0.7 0.3 0.7 0.3 0.7 0.3 0.7 0.3 0.7 0.3 0.7 0.3 0.7 0.3 0.7 0.3 0.7 0.3 0.7 0.3 0.7 0.3 0.7 0.3 0.7 0.3 0.7 0.3 0.7 0.3 0.7 0.3 0.7 0.3 0.7 0.3 0.7 0.3 0.7 0.3 0.7 0.3 0.7 0.3 0.7 0.3 0.7 0.3 0.7 0.3 0.7 0.3 0.7 0.3 0.7 0.3 0.7 0.3 0.4670041927868556 0.5329958072131443 0.7 0.3 0.7 0.3 0.7 0.3 0.7 0.3 0.7 0.3 0.7 0.3 0.7 0.3 0.7 0.3 0.7 0.3 0.7 0.3 0.7 0.3 0.7 0.3 0.7 0.3 0.7 0.3 0.7 0.3 0.7 0.3 0.7 0.3 0.7 0.3 0.7 0.3 0.7 0.3 0.7 0.3 0.7 0.3 0.7 0.3 0.7 0.3 0.7 0.3 0.7 0.3 0.7 0.3 0.7 0.3 0.7 0.3 0.7 0.3 0.7 0.3 0.7 0.3 0.7 0.3 0.7 0.3 0.7 0.3 0.7 0.3 0.7 0.3 0.7 0.3 0.7 0.3 0.7 0.3 0.7 0.3 0.7 0.3 0.7 0.3 0.7 0.3 0.7 0.3 0.7 0.3 0.7 0.3 0.7 0.3 0.7 0.3 0.7 0.3 0.7 0.3 0.7 0.3 0.7 0.3 0.7 0.3 0.7 0.3 0.7 0.3 0.7 0.3 0.7 0.3 0.7 0.3 0.7 0.3 0.7 0.3 0.7 0.3 0.7 0.3 0.7 0.3 0.7 0.3 0.7 0.3 0.7 0.3 0.7 0.3 0.7 0.3 0.7 0.3 0.7 0.3 0.7 0.3 0.7 0.3 0.7 0.3 0.7 0.3 0.7 0.3 0.7 0.3 0.7 0.3 0.7 0.3 0.7 0.3 0.7 0.3 0.7 0.3 0.7 0.3 0.7 0.3 0.7 0.3 0.7 0.3 0.7 0.3 0.7 0.3 0.7 0.3 0.7 0.3 0.7 0.3 0.7 0.3 0.7 0.3 0.7 0.3 0.7 0.3 0.7 0.3 0.7 0.3 0.7 0.3 0.7 0.3 0.7 0.3 0.7 0.3 0.7 0.3 0.7 0.3 0.7 0.3 0.7 0.3 0.7 0.3 0.7 0.3 0.7 0.3 0.7 0.3 0.7 0.3 0.7 0.3 0.7 0.3 0.7 0.3 0.7 0.3 0.7 0.3 0.7 0.3 0.7 0.3 0.7 0.3 0.7 0.3 0.7 0.3 0.7 0.3 0.7 0.3 0.7 0.3 0.7 0.3 0.7 0.3 0.7 0.3 0.7 0.3 0.7 0.3 0.7 0.3 0.7 0.3 0.7 0.3 0.7 0.3 0.7 0.3 0.7 0.3 0.7 0.3 0.7 0.3 0.7 0.3 0.7 0.3 0.7 0.3 0.7 0.3 0.7 0.3 0.7 0.3 0.7 0.3 0.7 0.3 0.7 0.3 0.7 0.3 0.7 0.3 0.7 0.3 0.7 0.3 0.7 0.3 0.7 0.3 0.7 0.3 0.7 0.3 0.7 0.3 0.7 0.3 0.7 0.3 0.7 0.3 0.7 0.3 0.7 0.3 0.7 0.3 0.7 0.3 0.7 0.3 0.7 0.3 0.7 0.3 0.7 0.3 0.7 0.3 0.7 0.3 0.7 0.3 0.7 0.3 0.7 0.3 0.7 0.3 0.7 0.3 0.6925936012607463 0.3074063987392537 0.7 0.3 0.7 0.3 0.7 0.3 0.7 0.3 0.7 0.3 0.7 0.3 0.7 0.3 0.7 0.3 0.7 0.3 0.7 0.3 0.7 0.3 0.7 0.3 0.7 0.3 0.7 0.3 0.7 0.3 0.7 0.3 0.7 0.3 0.7 0.3 0.7 0.3 0.7 0.3 0.7 0.3 0.7 0.3 0.7055648228753674 0.2944351771246326 0.7 0.3 0.7 0.3 0.7 0.3 0.7 0.3 0.7 0.3 0.7 0.3 0.7 0.3 0.7 0.3 0.7 0.3 0.7 0.3 0.7 0.3 0.7 0.3 0.7 0.3 0.7 0.3 0.710510120196245 0.289489879803755 0.7 0.3 0.7 0.3 0.7 0.3 0.7 0.3 0.7 0.3 0.7 0.3 0.7 0.3 0.7 0.3 0.7 0.3 0.7 0.3 0.7 0.3 0.7 0.3 0.7 0.3 0.7 0.3 0.7045180264949205 0.2954819735050795 0.2221788082653575 0.7778211917346425 0.7 0.3 0.7 0.3 0.7 0.3 0.7 0.3 0.7 0.3 0.7 0.3 0.7 0.3 0.7 0.3 0.7 0.3 0.7 0.3 0.7 0.3 0.7 0.3 0.7 0.3 0.7214923164051397 0.2785076835948604 0.7 0.3 0.7 0.3 0.7 0.3 0.7 0.3 0.7 0.3 0.7 0.3 0.7 0.3 0.7 0.3 0.7 0.3 0.7 0.3 0.7 0.3 0.7 0.3 0.7 0.3 0.7 0.3 0.7012028190703069 0.2987971809296932 0.7 0.3 0.7 0.3 0.7 0.3 0.7 0.3 0.7 0.3 0.7 0.3 0.7 0.3 0.7 0.3 0.7 0.3 0.7 0.3 0.7 0.3 0.7 0.3 0.7 0.3 0.7 0.3 0.7 0.3 0.7 0.3 0.7 0.3 0.7 0.3 0.7 0.3 0.7 0.3 0.7 0.3 0.7 0.3 0.7 0.3 0.7 0.3 0.7 0.3 0.7 0.3 0.7 0.3 0.7 0.3 0.7 0.3 0.7 0.3 0.7 0.3 0.7 0.3 0.7 0.3 0.7 0.3 0.7 0.3 0.7 0.3 0.7 0.3 0.7 0.3 0.7 0.3 0.7 0.3 0.7 0.3 0.7 0.3 0.7 0.3 0.7 0.3 0.7 0.3 0.7 0.3 0.7 0.3 0.7 0.3 0.7 0.3 0.7 0.3 0.7 0.3 0.7 0.3 0.7 0.3 0.7 0.3 0.7 0.3 0.7 0.3 0.7 0.3 0.7 0.3 0.7 0.3 0.7 0.3 0.7 0.3 0.7 0.3 0.7 0.3 0.7 0.3 0.7 0.3 0.7 0.3 0.7 0.3 0.7 0.3 0.7 0.3 0.7 0.3 0.7 0.3 0.7 0.3 0.7 0.3 0.7 0.3 0.7 0.3 0.7 0.3 0.7 0.3 0.7 0.3 0.7 0.3 0.7 0.3 0.7 0.3 0.7 0.3 0.7 0.3 0.7 0.3 0.7 0.3 0.7 0.3 0.7 0.3 0.7 0.3 0.7 0.3 0.7 0.3 0.7 0.3 0.7 0.3 0.7 0.3 0.7 0.3 0.7 0.3 0.7 0.3 0.7 0.3 0.7 0.3 0.7 0.3 0.7 0.3 0.7 0.3 0.7 0.3 0.7 0.3 0.7 0.3 0.7 0.3 0.7 0.3 0.7 0.3 0.7 0.3 0.7 0.3 0.7 0.3 0.7 0.3 0.7 0.3 0.7 0.3 0.7 0.3 0.7 0.3 0.7 0.3 0.7 0.3 0.7 0.3 0.7 0.3 0.7 0.3 0.7 0.3 0.7 0.3 0.7 0.3 0.7 0.3 0.7 0.3 0.7 0.3 0.7 0.3 0.7 0.3 0.7 0.3 0.7 0.3 0.7 0.3 0.7 0.3 0.7 0.3 0.7 0.3 0.7 0.3 0.7 0.3 0.7 0.3 0.7 0.3 0.7 0.3 0.7 0.3 0.7 0.3 0.7 0.3 0.7 0.3 0.7 0.3 0.7 0.3 0.7 0.3 0.7 0.3 0.7 0.3 0.7 0.3 0.7 0.3 0.7 0.3 0.7 0.3 0.7 0.3 0.7 0.3 0.7 0.3 0.7 0.3 0.7 0.3 0.7 0.3 0.7 0.3 0.7 0.3 0.7 0.3 0.7 0.3 0.7001638248603682 0.2998361751396318 0.7025618978380653 0.2974381021619348 0.7019544140821031 0.298045585917897 0.7000944855524585 0.2999055144475415 0.7020075738966071 0.2979924261033929 0.7 0.3 0.7 0.3 0.7931931100302864 0.2068068899697137 0.7 0.3 0.7 0.3 0.7 0.3 0.7 0.3 0.7 0.3 0.7 0.3 0.7 0.3 0.7069808018560111 0.2930191981439889 0.7063691512110583 0.2936308487889417 0.7039981853397813 0.2960018146602187 0.7039547854075073 0.2960452145924927 0.7034429390619262 0.2965570609380738 0.7 0.3 0.7 0.3 0.7 0.3 0.7 0.3 0.7 0.3 0.7 0.3 0.7 0.3 0.7 0.3 0.7 0.3 0.7 0.3 0.7068749150882503 0.2931250849117498 0.7038423594936948 0.2961576405063053 0.4879271539685124 0.5120728460314876 0.8010487982874377 0.1989512017125623 0.704252841090711 0.295747158909289 0.7 0.3 0.7 0.3 0.7 0.3 0.7 0.3 0.799619618114238 0.200380381885762 0.7 0.3 0.7 0.3 0.7 0.3 0.7 0.3 0.7 0.3 0.7016749923378698 0.2983250076621303 0.7036151593672239 0.2963848406327762 0.704655027809452 0.2953449721905481 0.2668240656312387 0.7331759343687613 0.7048703632947907 0.2951296367052094 0.7 0.3 0.7 0.3 0.7 0.3 0.7 0.3 0.7 0.3 0.7 0.3 0.7 0.3 0.7 0.3 0.7 0.3 0.7 0.3 0.7001127741815234 0.2998872258184767 0.7001365296502037 0.2998634703497963 0.70011621623372 0.2998837837662801 0.700074854931611 0.299925145068389 0.7001029679273146 0.2998970320726853 0.7 0.3 0.7 0.3 0.7 0.3 0.7 0.3 0.7 0.3 0.7 0.3 0.7 0.3 0.7 0.3 0.7 0.3 0.7 0.3 0.7059372956482011 0.2940627043517989 0.7012645039944139 0.2987354960055862 0.7006514879446244 0.2993485120553757 0.7003110812455096 0.2996889187544904 0.7110112389651737 0.2889887610348264 0.7113247274903464 0.2886752725096536 0.7101126919791424 0.2898873080208576 0.7020277748713161 0.2979722251286839 0.7010963259333358 0.2989036740666642 0.7224576202589142 0.2775423797410857 0.7025511816979031 0.2974488183020969 0.7010087221655522 0.2989912778344478 0.700902902792689 0.2990970972073111 0.7001370712903645 0.2998629287096355 0.7121865391777568 0.2878134608222432 0.7030151088421175 0.2969848911578825 0.7003617260073188 0.2996382739926812 0.7006514879446244 0.2993485120553757 0.7010896513091794 0.2989103486908206 0.8053583750677985 0.1946416249322017 0.7057824637850788 0.2942175362149212 0.7029294957556372 0.2970705042443627 0.7020277748713161 0.2979722251286839 0.7038256275456926 0.2961743724543074 0.7229350328358972 0.2770649671641028 0.7012912737131902 0.2987087262868097 0.7002884552148163 0.2997115447851837 0.700902902792689 0.2990970972073111 0.7004805327696746 0.2995194672303255 0.7124519939737239 0.2875480060262761 0.7004993401321163 0.2995006598678837 0.7003617260073188 0.2996382739926812 0.7006514879446244 0.2993485120553757 0.7018048615651 0.2981951384348999 0.7064573091794246 0.2935426908205754 0.7009620167592657 0.2990379832407342 0.7029294957556372 0.2970705042443627 0.7020277748713161 0.2979722251286839 0.7063142921853676 0.2936857078146324 0.7133086781659871 0.286691321834013 0.7002132560736395 0.2997867439263606 0.7002884552148163 0.2997115447851837 0.700902902792689 0.2990970972073111 0.700796552521552 0.299203447478448 0.7071539359244453 0.2928460640755547 0.7004993401321163 0.2995006598678837 0.7003617260073188 0.2996382739926812 0.7006514879446244 0.2993485120553757 0.7026494063282331 0.2973505936717669 0.7110112389651737 0.2889887610348264 0.7009620167592657 0.2990379832407342 0.7029294957556372 0.2970705042443627 0.7020277748713161 0.2979722251286839 0.7092297896736924 0.2907702103263075 0.7224576202589142 0.2775423797410857 0.7002132560736395 0.2997867439263606 0.7002884552148163 0.2997115447851837 0.700902902792689 0.2990970972073111 0.7011703558165637 0.2988296441834364 0.7121865391777568 0.2878134608222432 0.7004993401321163 0.2995006598678837 0.7003617260073188 0.2996382739926812 0.7006514879446244 0.2993485120553757 0.7003110812455096 0.2996889187544904 0.7018544891851543 0.2981455108148457 0.7009620167592657 0.2990379832407342 0.7029294957556372 0.2970705042443627 0.7020277748713161 0.2979722251286839 0.7010963259333358 0.2989036740666642 0.7038608761894206 0.2961391238105794 0.7002132560736395 0.2997867439263606 0.7002884552148163 0.2997115447851837 0.700902902792689 0.2990970972073111 0.7001370712903645 0.2998629287096355 0.7020566136715642 0.2979433863284358 0.7 0.3 0.7 0.3 0.7 0.3 0.7 0.3 0.7 0.3 0.7 0.3 0.7 0.3 0.7 0.3 0.7 0.3 0.7 0.3 0.7 0.3 0.7 0.3 0.7 0.3 0.7 0.3 0.7 0.3 0.7 0.3 0.7 0.3 0.7 0.3 0.7 0.3 0.7 0.3 0.7 0.3 0.7 0.3 0.7 0.3 0.7 0.3 0.7 0.3 0.7 0.3 0.7 0.3 0.7 0.3 0.7 0.3 0.7 0.3 0.7 0.3 0.7 0.3 0.7 0.3 0.7 0.3 0.7 0.3 0.7 0.3 0.7 0.3 0.7 0.3 0.7 0.3 0.7 0.3 0.7 0.3 0.7 0.3 0.7 0.3 0.7 0.3 0.7 0.3 0.7 0.3 0.7 0.3 0.2078072603073896 0.7921927396926104 0.7 0.3 0.7 0.3 0.7 0.3 0.7 0.3 0.7 0.3 0.7 0.3 0.7 0.3 0.7 0.3 0.7 0.3 0.7 0.3 0.7 0.3 0.7 0.3 0.7 0.3 0.7 0.3 0.7 0.3 0.7 0.3 0.7 0.3 0.7 0.3 0.7 0.3 0.7 0.3 0.7 0.3 0.7 0.3 0.7 0.3 0.7 0.3 0.7 0.3 0.7 0.3 0.7 0.3 0.7 0.3 0.7 0.3 0.7 0.3 0.7 0.3 0.7 0.3 0.7 0.3 0.7 0.3 0.7 0.3 0.7 0.3 0.7 0.3 0.7 0.3 0.7 0.3 0.7 0.3 0.7 0.3 0.7 0.3 0.7 0.3 0.7 0.3 0.7 0.3 0.7 0.3 0.7 0.3 0.7 0.3 0.7 0.3 0.7 0.3 0.7 0.3 0.7 0.3 0.7 0.3 0.7 0.3 0.7 0.3 0.7 0.3 0.7 0.3 0.7 0.3 0.7 0.3 0.7 0.3 0.7 0.3 0.7 0.3 0.7 0.3 0.7 0.3 0.7 0.3 0.7 0.3 0.7 0.3 0.7 0.3 0.7 0.3 0.7 0.3 0.7 0.3 0.7 0.3 0.7 0.3 0.7 0.3 0.7 0.3 0.7 0.3 0.7 0.3 0.7 0.3 0.7 0.3 0.7 0.3 0.7 0.3 0.7 0.3 0.7 0.3 0.7 0.3 0.7 0.3 0.7 0.3 0.7 0.3 0.7 0.3 0.7 0.3 0.7 0.3 0.7 0.3 0.7 0.3 0.7 0.3 0.7 0.3 0.7 0.3 0.7 0.3 0.7 0.3 0.7 0.3 0.7 0.3 0.7 0.3 0.7 0.3 0.7 0.3 0.7 0.3 0.7 0.3 0.7 0.3 0.7 0.3 0.7 0.3 0.7 0.3 0.7 0.3 0.7 0.3 0.7126897442645643 0.2873102557354357 0.7 0.3 0.7 0.3 0.7 0.3 0.7 0.3 0.7 0.3 0.7 0.3 0.7 0.3 0.7 0.3 0.7 0.3 0.7 0.3 0.7 0.3 0.7 0.3 0.7 0.3 0.7 0.3 0.7126897442645643 0.2873102557354357 0.7 0.3 0.7 0.3 0.7 0.3 0.7 0.3 0.7 0.3 0.7 0.3 0.7 0.3 0.7 0.3 0.7 0.3 0.7 0.3 0.7 0.3 0.7 0.3 0.7 0.3 0.7 0.3 0.7484792991923245 0.2515207008076755 0.7 0.3 0.7 0.3 0.7 0.3 0.7 0.3 0.7 0.3 0.7 0.3 0.7 0.3 0.7 0.3 0.7 0.3 0.7 0.3 0.7 0.3 0.7 0.3 0.7 0.3 0.7 0.3 0.7429510308220778 0.2570489691779223 0.7 0.3 0.7 0.3 0.7 0.3 0.7 0.3 0.7 0.3 0.7 0.3 0.7 0.3 0.7 0.3 0.7 0.3 0.7 0.3 0.7 0.3 0.7 0.3 0.7 0.3 0.7 0.3 0.7126897442645643 0.2873102557354357 0.7 0.3 0.7 0.3 0.7 0.3 0.7 0.3 0.7 0.3 0.7 0.3 0.7 0.3 0.7 0.3 0.6929013674863932 0.3070986325136068 0.6643368378760192 0.3356631621239808 0.7 0.3 0.7 0.3 0.7 0.3 0.7 0.3 0.7 0.3 0.7 0.3 0.7 0.3 0.7 0.3 0.7 0.3 0.7 0.3 0.7 0.3 0.7 0.3 0.7 0.3 0.7643498955113468 0.2356501044886533 0.5916778224355431 0.4083221775644568 0.7 0.3 0.7 0.3 0.7 0.3 0.7 0.3 0.4728814737775608 0.5271185262224393 0.7975182841736386 0.2024817158263616 0.7 0.3 0.7 0.3 0.7 0.3 0.7 0.3 0.7 0.3 0.755617170341473 0.244382829658527 0.4705244831269636 0.5294755168730365 0.7650747426525731 0.2349252573474268 0.3356330483235528 0.6643669516764472 0.5973192824646525 0.4026807175353475 0.7 0.3 0.7 0.3 0.7 0.3 0.7242919759259033 0.2757080240740967 0.7928275066515393 0.2071724933484607 0.7 0.3 0.7 0.3 0.7 0.3 0.7 0.3 0.7 0.3 0.7 0.3 0.7 0.3 0.6935742408611809 0.3064257591388191 0.5980725185756827 0.4019274814243173 0.7 0.3 0.7 0.3 0.7 0.3 0.7 0.3 0.7 0.3 0.7 0.3 0.7 0.3 0.7 0.3 0.7 0.3 0.7 0.3 0.7 0.3 0.7 0.3 0.7 0.3 0.6989929986739483 0.3010070013260517 0.6977575946390679 0.3022424053609321 0.7 0.3 0.7 0.3 0.7 0.3 0.7 0.3 0.7 0.3 0.7 0.3 0.7 0.3 0.7 0.3 0.7 0.3 0.7 0.3 0.7 0.3 0.7298260418050051 0.270173958194995 0.7065611963042167 0.2934388036957833 0.7559404862650186 0.2440595137349812 0.7069120359345282 0.2930879640654717 0.7353192899005909 0.2646807100994091 0.7 0.3 0.7 0.3 0.7 0.3 0.7 0.3 0.7 0.3 0.7 0.3 0.7 0.3 0.7 0.3 0.7 0.3 0.7 0.3 0.390066806943667 0.6099331930563331 0.7 0.3 0.7 0.3 0.7945792774884912 0.2054207225115089 0.8063060131008629 0.1936939868991372 0.7 0.3 0.7 0.3 0.7 0.3 0.7 0.3 0.7 0.3 0.7 0.3 0.7 0.3 0.7 0.3 0.7 0.3 0.7 0.3 0.7 0.3 0.7 0.3 0.7 0.3 0.4839267301610898 0.5160732698389103 0.7419048633335003 0.2580951366664998 0.7 0.3 0.7 0.3 0.7 0.3 0.7 0.3 0.7 0.3 0.7 0.3 0.7 0.3 0.7 0.3 0.7 0.3 0.7 0.3 0.7 0.3 0.7 0.3 0.7 0.3 0.6767011865871678 0.3232988134128321 0.8175023174786004 0.1824976825213996 0.7 0.3 0.7 0.3 0.8622565002269178 0.1377434997730822 0.7 0.3 0.7 0.3 0.7 0.3 0.7 0.3 0.7 0.3 0.7 0.3 0.7 0.3 0.7 0.3 0.7 0.3 0.7 0.3 0.6988110272767835 0.3011889727232166 0.7020681974560313 0.2979318025439687 0.7 0.3 0.7 0.3 0.7 0.3 0.7 0.3 0.7 0.3 0.7 0.3 0.7 0.3 0.7 0.3 0.7 0.3 0.7 0.3 0.7096296516231889 0.290370348376811 0.7007116063443245 0.2992883936556756 0.7008776397940544 0.2991223602059456 0.7056632390037083 0.2943367609962917 0.7039587416401708 0.2960412583598293 0.7 0.3 0.7 0.3 0.7 0.3 0.7 0.3 0.7 0.3 0.7 0.3 0.7 0.3 0.7 0.3 0.7 0.3 0.7 0.3 0.703966952751566 0.2960330472484341 0.7010605288741681 0.2989394711258319 0.7010384643993498 0.2989615356006502 0.7024177980658627 0.2975822019341373 0.707582860428516 0.292417139571484 0.7 0.3 0.7 0.3 0.7 0.3 0.7 0.3 0.7 0.3 0.7 0.3 0.7 0.3 0.7 0.3 0.7 0.3 0.7 0.3 0.7096296516231889 0.290370348376811 0.7025105890740967 0.2974894109259033 0.7008776397940544 0.2991223602059456 0.7056632390037083 0.2943367609962917 0.7039587416401708 0.2960412583598293 0.7 0.3 0.7 0.3 0.7 0.3 0.7 0.3 0.7 0.3 0.7 0.3 0.7 0.3 0.7 0.3 0.7 0.3 0.7 0.3 0.7027669409856968 0.2972330590143032 0.7025105890740967 0.2974894109259033 0.7053111308894994 0.2946888691105006 0.7016325453031054 0.2983674546968947 0.7039587416401708 0.2960412583598293 0.7 0.3 0.7 0.3 0.7 0.3 0.7 0.3 0.7 0.3 0.7 0.3 0.7 0.3 0.7 0.3 0.7 0.3 0.7 0.3 0.7027669409856968 0.2972330590143032 0.7007116063443245 0.2992883936556756 0.7008776397940544 0.2991223602059456 0.7016325453031054 0.2983674546968947 0.7039587416401708 0.2960412583598293 0.7 0.3 0.7 0.3 0.7 0.3 0.7 0.3 0.7 0.3 0.7 0.3 0.7 0.3 0.7 0.3 0.7 0.3 0.7 0.3 0.7 0.3 0.7 0.3 0.7 0.3 0.7 0.3 0.7 0.3 0.7 0.3 0.7 0.3 0.7 0.3 0.7 0.3 0.7 0.3 0.7 0.3 0.7 0.3 0.7 0.3 0.7 0.3 0.7 0.3 0.7 0.3 0.7 0.3 0.7 0.3 0.7 0.3 0.7 0.3 0.7 0.3 0.7 0.3 0.7 0.3 0.7 0.3 0.7 0.3 0.7 0.3 0.7 0.3 0.7 0.3 0.7 0.3 0.7 0.3 0.7 0.3 0.7 0.3 0.5934176774642073 0.4065823225357927 0.7 0.3 0.7974681469995032 0.2025318530004968 0.7 0.3 0.7 0.3 0.5426671507484446 0.4573328492515554 0.7 0.3 0.7 0.3 0.7 0.3 0.7 0.3 0.6958674778420164 0.3041325221579836 0.7 0.3 0.7 0.3 0.7 0.3 0.7 0.3 0.2076574137323773 0.7923425862676229 0.7 0.3 0.7 0.3 0.7976788145512123 0.2023211854487877 0.7 0.3 0.7 0.3 0.7 0.3 0.7 0.3 0.7 0.3 0.7 0.3 0.7 0.3 0.7 0.3 0.7 0.3 0.7 0.3 0.7 0.3 0.7 0.3 0.7 0.3 0.7 0.3 0.7 0.3 0.7 0.3 0.7 0.3 0.7 0.3 0.7 0.3 0.7 0.3 0.7 0.3 0.7 0.3 0.7 0.3 0.7 0.3 0.7 0.3 0.7844925000528944 0.2155074999471057 0.7 0.3 0.7018829986316198 0.2981170013683802 0.4728814737775608 0.5271185262224393 0.7001732154332145 0.2998267845667856 0.706795634646883 0.2932043653531169 0.7038585919100533 0.2961414080899467 0.7001008732532145 0.2998991267467856 0.7079671061505849 0.2920328938494153 0.7 0.3 0.7 0.3 0.7 0.3 0.7 0.3 0.7 0.3 0.7 0.3 0.8039067111625053 0.1960932888374946 0.7 0.3 0.940999044575926 0.05900095542407387 0.7 0.3 0.8751630106293347 0.1248369893706655 0.808476568977884 0.191523431022116 0.7132205356090155 0.2867794643909845 0.71217171796881 0.28782828203119 0.7113059773271588 0.2886940226728412 0.7999986010976327 0.2000013989023673 0.7 0.3 0.7 0.3 0.7 0.3 0.7 0.3 0.7 0.3 0.7807563228058008 0.2192436771941993 0.7 0.3 0.9068061896313159 0.09319381036868413 0.7 0.3 0.4216316216018173 0.5783683783981827 0.7086759984514513 0.2913240015485487 0.7096205546182441 0.2903794453817559 0.7196352127905117 0.2803647872094882 0.7057846072644625 0.2942153927355374 0.4670392487998085 0.5329607512001916 0.7 0.3 0.7 0.3 0.7 0.3 0.7 0.3 0.8379566838909986 0.1620433161090014 0.7750088170537004 0.2249911829462996 0.7 0.3 0.8167702188377064 0.1832297811622937 0.5973102633751617 0.4026897366248383 0.3763179212560019 0.6236820787439979 0.7061581657358006 0.2938418342641995 0.7169056905474434 0.2830943094525566 0.7084432070182647 0.2915567929817353 0.813203397649171 0.1867966023508289 0.7 0.3 0.7 0.3 0.7 0.3 0.7 0.3 0.7 0.3 0.7 0.3 0.701282451643923 0.298717548356077 0.7 0.3 0.7014542307483705 0.2985457692516295 0.7 0.3 0.7001189737111519 0.2998810262888481 0.7001383578007628 0.2998616421992371 0.7001180022037277 0.2998819977962722 0.7000797766621237 0.2999202233378764 0.7001088650469744 0.2998911349530256 0.7 0.3 0.7 0.3 0.7 0.3 0.7 0.3 0.7 0.3 0.7 0.3 0.7 0.3 0.7 0.3 0.7 0.3 0.7 0.3 0.7 0.3 0.7 0.3 0.7 0.3 0.7 0.3 0.7 0.3 0.7 0.3 0.7 0.3 0.7 0.3 0.7 0.3 0.7 0.3 0.7 0.3 0.7 0.3 0.7 0.3 0.7 0.3 0.7 0.3 0.7 0.3 0.7 0.3 0.7 0.3 0.7 0.3 0.7 0.3 0.7 0.3 0.7 0.3 0.7 0.3 0.7 0.3 0.7 0.3 0.7 0.3 0.7 0.3 0.7 0.3 0.7 0.3 0.7 0.3 0.7 0.3 0.7 0.3 0.7 0.3 0.7 0.3 0.7 0.3 0.7 0.3 0.7 0.3 0.7 0.3 0.7 0.3 0.7 0.3 0.7 0.3 0.7 0.3 0.7 0.3 0.7 0.3 0.7 0.3 0.7 0.3 0.7 0.3 0.7 0.3 0.7 0.3 0.7 0.3 0.7 0.3 0.7 0.3 0.7 0.3 0.7 0.3 0.7 0.3 0.7 0.3 0.7 0.3 0.7 0.3 0.7 0.3 0.7 0.3 0.7 0.3 0.7 0.3 0.7 0.3 0.7 0.3 0.7 0.3 0.7 0.3 0.7 0.3 0.7 0.3 0.7 0.3 0.7 0.3 0.7 0.3 0.7 0.3 0.7 0.3 0.7 0.3 0.7 0.3 0.7 0.3 0.7 0.3 0.7 0.3 0.7 0.3 0.7 0.3 0.7 0.3 0.7 0.3 0.7 0.3 0.7 0.3 0.7 0.3 0.7 0.3 0.7 0.3 0.7 0.3 0.7 0.3 0.7 0.3 0.7 0.3 0.7 0.3 0.7 0.3 0.7 0.3 0.7 0.3 0.7 0.3 0.7 0.3 0.7 0.3 0.7 0.3 0.7 0.3 0.7 0.3 0.7 0.3 0.7 0.3 0.7 0.3 0.7 0.3 0.7 0.3 0.7 0.3 0.7 0.3 0.7 0.3 0.7 0.3 0.7 0.3 0.7 0.3 0.7 0.3 0.7 0.3 0.7 0.3 0.7 0.3 0.7 0.3 0.7 0.3 0.7 0.3 0.7 0.3 0.7 0.3 0.7 0.3 0.7 0.3 0.7 0.3 0.7 0.3 0.7 0.3 0.7 0.3 0.7 0.3 0.7 0.3 0.7 0.3 0.7 0.3 0.7 0.3 0.7 0.3 0.7 0.3 0.7 0.3 0.7 0.3 0.7 0.3 0.7 0.3 0.7 0.3 0.7 0.3 0.7 0.3 0.7 0.3 0.7 0.3 0.7 0.3 0.7 0.3 0.7 0.3 0.7 0.3 0.7 0.3 0.7 0.3 0.7 0.3 0.7 0.3 0.7 0.3 0.7 0.3 0.7 0.3 0.7 0.3 0.7 0.3 0.7 0.3 0.7 0.3 0.7 0.3 0.7 0.3 0.7 0.3 0.7 0.3 0.7992811008304181 0.200718899169582 0.7 0.3 0.7 0.3 0.7 0.3 0.7 0.3 0.7 0.3 0.7 0.3 0.7 0.3 0.7 0.3 0.7 0.3 0.7 0.3 0.7 0.3 0.7 0.3 0.7 0.3 0.7 0.3 0.7 0.3 0.7 0.3 0.7 0.3 0.7 0.3 0.7 0.3 0.7 0.3 0.7 0.3 0.7 0.3 0.7 0.3 0.7 0.3 0.7 0.3 0.7 0.3 0.7 0.3 0.7 0.3 0.7 0.3 0.7 0.3 0.7 0.3 0.7 0.3 0.7 0.3 0.7 0.3 0.7 0.3 0.7 0.3 0.7 0.3 0.7 0.3 0.7 0.3 0.7 0.3 0.7 0.3 0.7 0.3 0.7 0.3 0.7 0.3 0.7 0.3 0.7 0.3 0.7 0.3 0.7 0.3 0.7 0.3 0.7 0.3 0.7 0.3 0.7 0.3 0.7 0.3 0.7 0.3 0.7 0.3 0.7 0.3 0.7 0.3 0.7 0.3 0.7 0.3 0.7 0.3 0.7 0.3 0.7 0.3 0.7 0.3 0.7 0.3 0.7 0.3 0.7 0.3 0.7 0.3 0.7 0.3 0.7 0.3 0.7 0.3 0.7 0.3 0.7 0.3 0.7 0.3 0.7 0.3 0.7 0.3 0.7 0.3 0.7 0.3 0.7 0.3 0.7 0.3 0.7 0.3 0.7 0.3 0.7 0.3 0.7 0.3 0.7 0.3 0.7 0.3 0.7 0.3 0.7 0.3 0.7 0.3 0.7 0.3 0.7 0.3 0.7 0.3 0.7 0.3 0.7 0.3 0.7 0.3 0.7 0.3 0.7 0.3 0.7 0.3 0.7 0.3 0.7 0.3 0.7 0.3 0.7 0.3 0.7 0.3 0.7 0.3 0.7 0.3 0.7 0.3 0.7 0.3 0.7 0.3 0.7 0.3 0.7 0.3 0.7 0.3 0.7 0.3 0.7 0.3 0.7 0.3 0.7 0.3 0.7 0.3 0.7 0.3 0.7 0.3 0.7 0.3 0.7 0.3 0.7 0.3 0.7 0.3 0.7 0.3 0.7 0.3 0.7 0.3 0.7 0.3 0.7 0.3 0.7 0.3 0.7 0.3 0.7 0.3 0.7 0.3 0.7 0.3 0.7 0.3 0.7 0.3 0.6389781755632203 0.3610218244367797 0.7 0.3 0.317189252565862 0.6828107474341379 0.7 0.3 0.7 0.3 0.7 0.3 0.7 0.3 0.7 0.3 0.7 0.3 0.7 0.3 0.7 0.3 0.7 0.3 0.7 0.3 0.7 0.3 0.2533700783817766 0.7466299216182234 0.6935982366593701 0.3064017633406299 0.7 0.3 0.7 0.3 0.7 0.3 0.7 0.3 0.7 0.3 0.7 0.3 0.7 0.3 0.7 0.3 0.7 0.3 0.7 0.3 0.7 0.3 0.7 0.3 0.7 0.3 0.7 0.3 0.6034603195227496 0.3965396804772504 0.3663950014471549 0.6336049985528451 0.8380078479083037 0.1619921520916962 0.7 0.3 0.7 0.3 0.7 0.3 0.7 0.3 0.7 0.3 0.7 0.3 0.7 0.3 0.7 0.3 0.7 0.3 0.7 0.3 0.7 0.3 0.7 0.3 0.5823587426671275 0.4176412573328726 0.7 0.3 0.7 0.3 0.7 0.3 0.7 0.3 0.7995167805401628 0.2004832194598374 0.7 0.3 0.8622565002269178 0.1377434997730822 0.7 0.3 0.7 0.3 0.7 0.3 0.7 0.3 0.7 0.3 0.7 0.3 0.7 0.3 0.6938715461657324 0.3061284538342675 0.7 0.3 0.7 0.3 0.7 0.3 0.7 0.3 0.7 0.3 0.7 0.3 0.7 0.3 0.7 0.3 0.7 0.3 0.7 0.3 0.7 0.3 0.7 0.3 0.7 0.3 0.6731182337674833 0.3268817662325167 0.7 0.3 0.7164985092427416 0.2835014907572584 0.7 0.3 0.7 0.3 0.7 0.3 0.7 0.3 0.7 0.3 0.7 0.3 0.7997466437523419 0.2002533562476582 0.7 0.3 0.7 0.3 0.7 0.3 0.7 0.3 0.7 0.3 0.2098458948625348 0.7901541051374653 0.5957629184911428 0.4042370815088572 0.7832309440779297 0.2167690559220703 0.7860748621375986 0.2139251378624014 0.6305105478353549 0.3694894521646452 0.7 0.3 0.7997466437523419 0.2002533562476582 0.7 0.3 0.7 0.3 0.7 0.3 0.7 0.3 0.7 0.3 0.7 0.3 0.7 0.3 0.7 0.3 0.6140976297310916 0.3859023702689085 0.5201060538950014 0.4798939461049987 0.7134241941033795 0.2865758058966205 0.9090842641846458 0.0909157358153542 0.7 0.3 0.7 0.3 0.7 0.3 0.7 0.3 0.7 0.3 0.7 0.3 0.7 0.3 0.7 0.3 0.7 0.3 0.7 0.3 0.7 0.3 0.4288122722808188 0.5711877277191812 0.7 0.3 0.7612111794589623 0.2387888205410375 0.7995167805401628 0.2004832194598374 0.4830385651225663 0.5169614348774336 0.7 0.3 0.7995167805401628 0.2004832194598374 0.7 0.3 0.7 0.3 0.7 0.3 0.7 0.3 0.7 0.3 0.7 0.3 0.7 0.3 0.7 0.3 0.6934347260620882 0.3065652739379119 0.7 0.3 0.7035970521209557 0.2964029478790443 0.7 0.3 0.7 0.3 0.7 0.3 0.7 0.3 0.7 0.3 0.7 0.3 0.7 0.3 0.7 0.3 0.7 0.3 0.7 0.3 0.7 0.3 0.7 0.3 0.7 0.3 0.7 0.3 0.7 0.3 0.7 0.3 0.7 0.3 0.7 0.3 0.7 0.3 0.7 0.3 0.7 0.3 0.7 0.3 0.7 0.3 0.7 0.3 0.7 0.3 0.7 0.3 0.7 0.3 0.7 0.3 0.7 0.3 0.7 0.3 0.7 0.3 0.7 0.3 0.7 0.3 0.7 0.3 0.7 0.3 0.7 0.3 0.7 0.3 0.7 0.3 0.7 0.3 0.7 0.3 0.7 0.3 0.7 0.3 0.7 0.3 0.7 0.3 0.7 0.3 0.7 0.3 0.7 0.3 0.7 0.3 0.7 0.3 0.7 0.3 0.7 0.3 0.7 0.3 0.7 0.3 0.7 0.3 0.7 0.3 0.7 0.3 0.7 0.3 0.7 0.3 0.7 0.3 0.7 0.3 0.7 0.3 0.7 0.3 0.7 0.3 0.7 0.3 0.7 0.3 0.7 0.3 0.7 0.3 0.7 0.3 0.7 0.3 0.7 0.3 0.7 0.3 0.7 0.3 0.7 0.3 0.7 0.3 0.7 0.3 0.7 0.3 0.7 0.3 0.7 0.3 0.7 0.3 0.7 0.3 0.7 0.3 0.7 0.3 0.7 0.3 0.7 0.3 0.7 0.3 0.7 0.3 0.7 0.3 0.7 0.3 0.7178493450162095 0.2821506549837906 0.7 0.3 0.7 0.3 0.7 0.3 0.7 0.3 0.7 0.3 0.7 0.3 0.7 0.3 0.7 0.3 0.7 0.3 0.7 0.3 0.7 0.3 0.7 0.3 0.7 0.3 0.7 0.3 0.7178493450162095 0.2821506549837906 0.7 0.3 0.7 0.3 0.7 0.3 0.7 0.3 0.7 0.3 0.7 0.3 0.7 0.3 0.7 0.3 0.7 0.3 0.7 0.3 0.7 0.3 0.7 0.3 0.7 0.3 0.7 0.3 0.8603280705455973 0.1396719294544028 0.7 0.3 0.7 0.3 0.7 0.3 0.7 0.3 0.8636292933904962 0.1363707066095039 0.7 0.3 0.7 0.3 0.501164382153712 0.498835617846288 0.7 0.3 0.7999951717608691 0.2000048282391309 0.7 0.3 0.7 0.3 0.7 0.3 0.7 0.3 0.8319676167139235 0.1680323832860766 0.7 0.3 0.7 0.3 0.7 0.3 0.7 0.3 0.7 0.3 0.7 0.3 0.7 0.3 0.6978888204053493 0.3021111795946507 0.7 0.3 0.7 0.3 0.7 0.3 0.7 0.3 0.7 0.3 0.7 0.3 0.7178493450162095 0.2821506549837906 0.7 0.3 0.7 0.3 0.7 0.3 0.7 0.3 0.7 0.3 0.7 0.3 0.7 0.3 0.7 0.3 0.7 0.3 0.7 0.3 0.7 0.3 0.7 0.3 0.7 0.3 0.7034374514412359 0.2965625485587641 0.8250054589250693 0.1749945410749307 0.8266196041279072 0.1733803958720927 0.7035200678297975 0.2964799321702025 0.9353621940742713 0.06463780592572863 0.7 0.3 0.7388828907450318 0.2611171092549683 0.7 0.3 0.6974889450252488 0.3025110549747513 0.7 0.3 0.7 0.3 0.7529181268652523 0.2470818731347477 0.7 0.3 0.7 0.3 0.7 0.3 0.7208925661366161 0.2791074338633838 0.8131687802447108 0.1868312197552891 0.7484628398199227 0.2515371601800773 0.9544189794253154 0.04558102057468474 0.6865221408083426 0.3134778591916574 0.8304873336618985 0.1695126663381015 0.7792714900425438 0.2207285099574563 0.9074678671576999 0.09253213284230005 0.8392195414643672 0.160780458535633 0.8159735592113415 0.1840264407886584 0.7 0.3 0.7784382778247553 0.2215617221752448 0.7 0.3 0.7999977476745582 0.2000022523254418 0.7 0.3 0.7420676125800242 0.2579323874199759 0.8016130922704255 0.1983869077295747 0.8990455413586802 0.1009544586413197 0.9245489443817798 0.07545105561822017 0.170116980820716 0.829883019179284 0.7986393615053068 0.2013606384946932 0.7300650079983529 0.2699349920016471 0.7 0.3 0.7702243578561538 0.2297756421438461 0.7597802915687366 0.2402197084312633 0.7 0.3 0.7569945811605509 0.2430054188394491 0.7 0.3 0.7 0.3 0.7 0.3 0.7029387703521573 0.2970612296478426 0.2542700272467265 0.7457299727532735 0.8822288243404445 0.1177711756595555 0.7883325318014378 0.2116674681985622 0.6806178776955455 0.3193821223044545 0.7133772182402655 0.2866227817597345 0.7527667614298651 0.2472332385701349 0.5130977215525843 0.4869022784474157 0.6336035679365636 0.3663964320634364 0.8174602563789666 0.1825397436210334 0.7 0.3 0.7531109159948193 0.2468890840051808 0.7 0.3 0.7 0.3 0.7 0.3 0.700198198477069 0.299801801522931 0.7014326249211192 0.2985673750788808 0.7014823155917194 0.2985176844082807 0.7013536726144701 0.2986463273855297 0.6996120707383091 0.3003879292616909 0.7 0.3 0.7000340138083544 0.2999659861916457 0.7 0.3 0.6980126917213555 0.3019873082786445 0.7 0.3 0.7 0.3 0.7012900410039358 0.2987099589960643 0.7 0.3 0.7 0.3 0.7 0.3 0.7 0.3 0.7 0.3 0.7 0.3 0.7 0.3 0.7 0.3 0.7 0.3 0.7 0.3 0.7 0.3 0.7 0.3 0.7 0.3 0.7 0.3 0.7 0.3 0.7 0.3 0.7 0.3 0.7 0.3 0.7 0.3 0.7 0.3 0.7 0.3 0.7 0.3 0.7 0.3 0.7 0.3 0.7 0.3 0.7 0.3 0.7 0.3 0.7 0.3 0.7 0.3 0.7 0.3 0.7 0.3 0.7 0.3 0.7 0.3 0.7 0.3 0.7 0.3 0.7 0.3 0.7 0.3 0.7 0.3 0.7 0.3 0.7 0.3 0.7 0.3 0.7 0.3 0.7 0.3 0.7 0.3 0.7 0.3 0.7 0.3 0.7 0.3 0.7 0.3 0.7 0.3 0.7 0.3 0.7 0.3 0.7 0.3 0.7 0.3 0.7 0.3 0.7 0.3 0.7 0.3 0.7 0.3 0.7 0.3 0.7 0.3 0.7 0.3 0.7 0.3 0.7 0.3 0.7 0.3 0.7 0.3 0.7 0.3 0.7 0.3 0.7 0.3 0.7 0.3 0.7 0.3 0.7 0.3 0.7 0.3 0.7 0.3 0.7 0.3 0.7 0.3 0.7 0.3 0.7 0.3 0.7 0.3 0.7 0.3 0.7 0.3 0.7 0.3 0.7 0.3 0.7 0.3 0.7 0.3 0.7 0.3 0.7 0.3 0.7 0.3 0.7 0.3 0.7 0.3 0.7 0.3 0.7 0.3 0.7 0.3 0.7 0.3 0.7 0.3 0.7 0.3 0.7 0.3 0.7 0.3 0.7 0.3 0.7 0.3 0.7 0.3 0.7 0.3 0.7 0.3 0.7 0.3 0.7 0.3 0.7 0.3 0.7 0.3 0.7 0.3 0.7 0.3 0.7 0.3 0.7 0.3 0.7 0.3 0.7 0.3 0.7 0.3 0.7 0.3 0.7 0.3 0.7 0.3 0.7 0.3 0.7 0.3 0.7 0.3 0.7 0.3 0.7 0.3 0.7 0.3 0.7 0.3 0.7 0.3 0.7 0.3 0.7 0.3 0.7 0.3 0.7 0.3 0.7 0.3 0.7 0.3 0.7 0.3 0.7 0.3 0.7 0.3 0.7 0.3 0.7 0.3 0.7 0.3 0.7 0.3 0.7 0.3 0.7 0.3 0.7 0.3 0.7 0.3 0.7 0.3 0.7 0.3 0.7 0.3 0.7 0.3 0.7 0.3 0.7 0.3 0.7 0.3 0.7 0.3 0.7 0.3 0.7 0.3 0.7 0.3 0.7 0.3 0.7 0.3 0.7 0.3 0.7 0.3 0.7 0.3 0.7 0.3 0.7 0.3 0.7 0.3 0.7 0.3 0.7 0.3 0.7 0.3 0.7 0.3 0.7 0.3 0.7 0.3 0.7 0.3 0.7 0.3 0.7 0.3 0.7 0.3 0.7 0.3 0.7 0.3 0.7 0.3 0.7 0.3 0.7 0.3 0.7 0.3 0.7 0.3 0.7 0.3 0.7 0.3 0.7 0.3 0.7 0.3 0.7 0.3 0.7 0.3 0.7 0.3 0.7 0.3 0.7 0.3 0.7 0.3 0.7 0.3 0.7 0.3 0.7 0.3 0.7 0.3 0.7 0.3 0.7 0.3 0.7 0.3 0.7 0.3 0.7 0.3 0.7 0.3 0.7 0.3 0.7 0.3 0.7 0.3 0.7 0.3 0.7 0.3 0.7 0.3 0.7 0.3 0.7 0.3 0.7 0.3 0.7 0.3 0.7 0.3 0.7 0.3 0.7 0.3 0.7 0.3 0.7 0.3 0.7 0.3 0.7 0.3 0.7 0.3 0.7 0.3 0.7 0.3 0.7 0.3 0.7 0.3 0.7 0.3 0.7 0.3 0.7 0.3 0.7 0.3 0.7 0.3 0.7 0.3 0.7 0.3 0.7 0.3 0.7 0.3 0.7 0.3 0.7 0.3 0.7 0.3 0.7 0.3 0.7 0.3 0.7 0.3 0.7 0.3 0.7 0.3 0.7 0.3 0.7 0.3 0.7 0.3 0.7 0.3 0.7 0.3 0.7 0.3 0.7 0.3 0.7 0.3 0.7 0.3 0.7 0.3 0.7 0.3 0.7 0.3 0.7 0.3 0.7 0.3 0.7 0.3 0.7 0.3 0.7 0.3 0.7 0.3 0.7 0.3 0.7 0.3 0.7 0.3 0.7 0.3 0.7 0.3 0.7 0.3 0.7 0.3 0.7 0.3 0.7 0.3 0.7 0.3 0.7 0.3 0.7 0.3 0.7 0.3 0.7 0.3 0.7 0.3 0.7 0.3 0.7 0.3 0.7 0.3 0.7 0.3 0.7 0.3 0.7 0.3 0.7 0.3 0.7 0.3 0.7 0.3 0.7 0.3 0.7 0.3 0.7 0.3 0.7 0.3 0.7 0.3 0.7 0.3 0.7 0.3 0.7 0.3 0.7 0.3 0.7 0.3 0.7 0.3 0.7 0.3 0.7 0.3 0.7 0.3 0.7 0.3 0.7 0.3 0.7 0.3 0.7 0.3 0.7 0.3 0.7 0.3 0.7 0.3 0.7 0.3 0.7 0.3 0.7 0.3 0.7 0.3 0.7 0.3 0.7 0.3 0.7285522291439351 0.2714477708560648 0.7 0.3 0.7 0.3 0.7 0.3 0.7 0.3 0.7 0.3 0.7 0.3 0.7 0.3 0.7 0.3 0.7 0.3 0.7 0.3 0.7 0.3 0.7 0.3 0.7 0.3 0.7 0.3 0.7034307948718792 0.2965692051281208 0.7 0.3 0.7 0.3 0.7 0.3 0.7 0.3 0.7 0.3 0.7901089597623858 0.209891040237614 0.7 0.3 0.7 0.3 0.7 0.3 0.7 0.3 0.7 0.3 0.7 0.3 0.7 0.3 0.7 0.3 0.7421341513539835 0.2578658486460165 0.7 0.3 0.7 0.3 0.7 0.3 0.7 0.3 0.7 0.3 0.7 0.3 0.7 0.3 0.7 0.3 0.7 0.3 0.7 0.3 0.7 0.3 0.7 0.3 0.7 0.3 0.7 0.3 0.7495534938926175 0.2504465061073825 0.7 0.3 0.7 0.3 0.7 0.3 0.7 0.3 0.7 0.3 0.7 0.3 0.7 0.3 0.7 0.3 0.7 0.3 0.7 0.3 0.7 0.3 0.7 0.3 0.7 0.3 0.7 0.3 0.7032868882167235 0.2967131117832765 0.7 0.3 0.7 0.3 0.7 0.3 0.7 0.3 0.7 0.3 0.7 0.3 0.7 0.3 0.7 0.3 0.7 0.3 0.7 0.3 0.7 0.3 0.7 0.3 0.7 0.3 0.7 0.3 0.6988549440281231 0.3011450559718769 0.7 0.3 0.7 0.3 0.7 0.3 0.7 0.3 0.7 0.3 0.7 0.3 0.7 0.3 0.7 0.3 0.7 0.3 0.7 0.3 0.7 0.3 0.7 0.3 0.7 0.3 0.7 0.3 0.6679620830521239 0.3320379169478762 0.7 0.3 0.7 0.3 0.7 0.3 0.7 0.3 0.7 0.3 0.7 0.3 0.7 0.3 0.7 0.3 0.7 0.3 0.7 0.3 0.7 0.3 0.7 0.3 0.7 0.3 0.7 0.3 0.6553361218010603 0.3446638781989398 0.7 0.3 0.7 0.3 0.7 0.3 0.7 0.3 0.7 0.3 0.7 0.3 0.7 0.3 0.7 0.3 0.7 0.3 0.7 0.3 0.7 0.3 0.7 0.3 0.7 0.3 0.7 0.3 0.6857763556948059 0.3142236443051942 0.7997466437523419 0.2002533562476582 0.7 0.3 0.7 0.3 0.7 0.3 0.7 0.3 0.7 0.3 0.7 0.3 0.7 0.3 0.7 0.3 0.7 0.3 0.7 0.3 0.7 0.3 0.7 0.3 0.7 0.3 0.698971590531438 0.3010284094685621 0.7 0.3 0.7 0.3 0.7 0.3 0.7 0.3 0.7 0.3 0.7 0.3 0.7 0.3 0.7 0.3 0.7 0.3 0.7 0.3 0.7 0.3 0.7 0.3 0.7 0.3 0.7 0.3 0.7 0.3 0.7 0.3 0.7 0.3 0.7 0.3 0.7 0.3 0.7 0.3 0.7 0.3 0.7 0.3 0.7 0.3 0.7 0.3 0.7 0.3 0.7 0.3 0.7 0.3 0.7 0.3 0.7 0.3 0.7 0.3 0.7 0.3 0.7 0.3 0.7 0.3 0.7 0.3 0.7 0.3 0.7 0.3 0.7 0.3 0.7 0.3 0.7 0.3 0.7 0.3 0.7 0.3 0.7 0.3 0.7 0.3 0.7 0.3 0.7 0.3 0.7 0.3 0.7 0.3 0.7 0.3 0.7 0.3 0.7 0.3 0.7 0.3 0.7 0.3 0.7 0.3 0.7 0.3 0.7 0.3 0.7 0.3 0.7 0.3 0.7 0.3 0.7 0.3 0.7 0.3 0.7 0.3 0.7 0.3 0.7 0.3 0.7 0.3 0.7 0.3 0.7 0.3 0.7 0.3 0.7 0.3 0.7 0.3 0.7 0.3 0.7 0.3 0.7 0.3 0.7 0.3 0.7 0.3 0.7 0.3 0.7 0.3 0.7 0.3 0.7 0.3 0.7 0.3 0.7 0.3 0.7 0.3 0.7 0.3 0.7 0.3 0.7 0.3 0.7 0.3 0.7 0.3 0.7 0.3 0.7 0.3 0.7 0.3 0.7 0.3 0.7 0.3 0.7 0.3 0.7 0.3 0.7 0.3 0.7 0.3 0.7 0.3 0.7 0.3 0.7 0.3 0.7 0.3 0.7 0.3 0.7 0.3 0.7 0.3 0.7 0.3 0.7 0.3 0.7 0.3 0.7 0.3 0.7 0.3 0.7 0.3 0.7 0.3 0.7 0.3 0.7 0.3 0.7 0.3 0.7 0.3 0.7 0.3 0.7 0.3 0.7 0.3 0.7 0.3 0.7 0.3 0.7 0.3 0.7 0.3 0.7 0.3 0.7 0.3 0.7 0.3 0.7 0.3 0.7 0.3 0.7 0.3 0.7 0.3 0.7 0.3 0.7 0.3 0.7 0.3 0.7 0.3 0.7 0.3 0.7 0.3 0.7 0.3 0.7 0.3 0.7 0.3 0.7 0.3 0.7 0.3 0.7 0.3 0.7 0.3 0.7 0.3 0.7 0.3 0.7 0.3 0.7 0.3 0.7 0.3 0.7 0.3 0.7 0.3 0.7 0.3 0.7 0.3 0.7 0.3 0.7 0.3 0.7 0.3 0.7 0.3 0.7 0.3 0.7 0.3 0.7 0.3 0.7 0.3 0.7 0.3 0.7 0.3 0.7 0.3 0.7 0.3 0.7 0.3 0.7 0.3 0.699351690731586 0.300648309268414 0.6896236005387965 0.3103763994612036 0.6921304256735613 0.3078695743264387 0.7001944642124669 0.2998055357875332 0.6919121232890538 0.3080878767109462 0.7 0.3 0.7 0.3 0.7 0.3 0.7004897799349252 0.2995102200650748 0.7 0.3 0.7 0.3 0.7 0.3 0.7 0.3 0.7000322195435824 0.2999677804564176 0.7 0.3 0.6705196023199778 0.3294803976800222 0.8248276054930661 0.1751723945069339 0.6835826852237172 0.3164173147762829 0.7573368163804743 0.2426631836195257 0.7706078399520048 0.2293921600479952 0.7 0.3 0.7 0.3 0.7 0.3 0.7607948123680865 0.2392051876319135 0.7 0.3 0.7 0.3 0.7 0.3 0.7 0.3 0.7053718104628136 0.2946281895371865 0.7 0.3 0.6709997624159061 0.329000237584094 0.6842455939966415 0.3157544060033585 0.6760658721597601 0.3239341278402399 0.7608512949019816 0.2391487050980185 0.6824944981581955 0.3175055018418044 0.7 0.3 0.6652039756133735 0.3347960243866265 0.7 0.3 0.7719992314734972 0.2280007685265029 0.515903539368359 0.4840964606316411 0.7 0.3 0.7 0.3 0.7 0.3 0.7062283938589151 0.2937716061410849 0.7 0.3 0.7963203068940234 0.2036796931059766 0.6852096176478598 0.3147903823521402 0.2032258410254982 0.7967741589745018 0.7295688980877629 0.270431101912237 0.6798354179266566 0.3201645820733435 0.6707344224171197 0.3292655775828804 0.6361136432469902 0.3638863567530098 0.6778120920020083 0.3221879079979917 0.6801363460294795 0.3198636539705205 0.6088982032602346 0.3911017967397654 0.7 0.3 0.7 0.3 0.7 0.3 0.7028950362193682 0.2971049637806318 0.7 0.3 0.6995539375701454 0.3004460624298547 0.6994598513894772 0.3005401486105229 0.6995403077456875 0.3004596922543124 0.7001425337806608 0.2998574662193392 0.6995927639176441 0.300407236082356 0.7 0.3 0.7 0.3 0.7 0.3 0.7003777688700031 0.2996222311299969 0.7 0.3 0.7 0.3 0.7 0.3 0.7 0.3 0.7000247252926816 0.2999752747073184 0.7 0.3 0.7 0.3 0.7 0.3 0.7 0.3 0.7 0.3 0.7 0.3 0.7 0.3 0.7 0.3 0.7 0.3 0.7 0.3 0.7 0.3 0.7 0.3 0.7 0.3 0.7 0.3 0.7 0.3 0.7 0.3 0.7 0.3 0.7 0.3 0.7 0.3 0.7 0.3 0.7 0.3 0.7 0.3 0.7 0.3 0.7 0.3 0.7 0.3 0.7 0.3 0.7 0.3 0.7 0.3 0.7 0.3 0.7 0.3 0.7 0.3 0.7 0.3 0.7 0.3 0.7 0.3 0.7 0.3 0.7 0.3 0.7 0.3 0.7 0.3 0.7 0.3 0.7 0.3 0.7 0.3 0.7 0.3 0.7 0.3 0.7 0.3 0.7 0.3 0.7 0.3 0.7 0.3 0.7 0.3 0.7 0.3 0.7 0.3 0.7 0.3 0.7 0.3 0.7 0.3 0.7 0.3 0.7 0.3 0.7 0.3 0.7 0.3 0.7 0.3 0.7 0.3 0.7 0.3 0.7 0.3 0.7 0.3 0.7 0.3 0.7 0.3 0.7 0.3 0.7 0.3 0.7 0.3 0.7 0.3 0.7 0.3 0.7 0.3 0.7 0.3 0.7 0.3 0.7 0.3 0.7 0.3 0.7 0.3 0.7 0.3 0.7 0.3 0.7 0.3 0.7 0.3 0.7 0.3 0.7 0.3 0.7 0.3 0.7 0.3 0.7 0.3 0.7 0.3 0.7 0.3 0.7 0.3 0.7 0.3 0.7 0.3 0.7 0.3 0.7 0.3 0.7 0.3 0.7 0.3 0.7 0.3 0.7 0.3 0.7 0.3 0.7 0.3 0.7 0.3 0.7 0.3 0.7 0.3 0.7 0.3 0.7 0.3 0.7 0.3 0.7 0.3 0.7 0.3 0.7 0.3 0.7 0.3 0.7 0.3 0.7 0.3 0.7 0.3 0.7 0.3 0.7 0.3 0.7 0.3 0.7 0.3 0.7 0.3 0.7 0.3 0.7 0.3 0.7 0.3 0.7 0.3 0.7 0.3 0.7 0.3 0.7 0.3 0.7 0.3 0.7 0.3 0.7 0.3 0.7 0.3 0.7 0.3 0.7 0.3 0.7 0.3 0.7 0.3 0.7 0.3 0.7 0.3 0.7 0.3 0.7 0.3 0.7 0.3 0.7 0.3 0.7 0.3 0.7 0.3 0.7 0.3 0.7 0.3 0.7 0.3 0.7 0.3 0.7 0.3 0.7 0.3 0.7 0.3 0.7 0.3 0.7 0.3 0.7 0.3 0.7 0.3 0.7 0.3 0.7 0.3 0.7 0.3 0.7 0.3 0.7 0.3 0.7 0.3 0.7 0.3 0.7 0.3 0.7 0.3 0.7 0.3 0.7 0.3 0.7 0.3 0.7 0.3 0.7 0.3 0.7 0.3 0.7 0.3 0.7 0.3 0.7 0.3 0.7 0.3 0.7 0.3 0.7 0.3 0.7 0.3 0.7 0.3 0.7 0.3 0.7 0.3 0.7 0.3 0.7 0.3 0.7 0.3 0.7 0.3 0.7 0.3 0.7 0.3 0.7 0.3 0.7 0.3 0.7 0.3 0.7 0.3 0.7 0.3 0.7 0.3 0.7 0.3 0.7 0.3 0.7 0.3 0.7 0.3 0.4728814737775608 0.5271185262224393 0.7 0.3 0.7 0.3 0.7 0.3 0.7 0.3 0.7 0.3 0.7 0.3 0.7 0.3 0.7 0.3 0.7 0.3 0.7 0.3 0.7 0.3 0.7 0.3 0.7 0.3 0.7 0.3 0.7 0.3 0.7 0.3 0.7 0.3 0.7 0.3 0.7 0.3 0.7 0.3 0.7 0.3 0.7 0.3 0.7 0.3 0.7 0.3 0.7 0.3 0.7 0.3 0.7 0.3 0.7 0.3 0.7 0.3 0.7 0.3 0.7 0.3 0.7 0.3 0.7 0.3 0.7 0.3 0.7 0.3 0.7 0.3 0.7 0.3 0.7 0.3 0.7 0.3 0.7 0.3 0.7 0.3 0.7 0.3 0.7 0.3 0.7 0.3 0.7 0.3 0.7 0.3 0.7 0.3 0.7 0.3 0.7 0.3 0.7 0.3 0.7 0.3 0.7 0.3 0.7 0.3 0.7 0.3 0.7 0.3 0.7 0.3 0.7 0.3 0.7 0.3 0.7 0.3 0.7 0.3 0.7 0.3 0.7 0.3 0.7 0.3 0.7 0.3 0.7 0.3 0.7 0.3 0.7 0.3 0.7 0.3 0.7 0.3 0.7 0.3 0.7 0.3 0.7 0.3 0.7 0.3 0.7 0.3 0.7 0.3 0.7 0.3 0.7 0.3 0.7 0.3 0.7 0.3 0.7 0.3 0.7 0.3 0.7 0.3 0.7 0.3 0.7 0.3 0.7 0.3 0.7 0.3 0.7 0.3 0.7 0.3 0.7 0.3 0.7 0.3 0.7 0.3 0.7 0.3 0.7 0.3 0.7 0.3 0.7 0.3 0.7 0.3 0.7 0.3 0.7 0.3 0.7 0.3 0.7 0.3 0.7 0.3 0.7 0.3 0.7 0.3 0.7 0.3 0.7 0.3 0.7 0.3 0.7 0.3 0.7 0.3 0.7 0.3 0.7 0.3 0.7 0.3 0.7 0.3 0.7 0.3 0.7 0.3 0.7 0.3 0.7 0.3 0.7 0.3 0.7348363706955071 0.2651636293044929 0.7 0.3 0.7 0.3 0.7 0.3 0.7 0.3 0.7058251232050076 0.2941748767949925 0.7 0.3 0.7 0.3 0.7 0.3 0.7 0.3 0.7 0.3 0.7997466437523419 0.2002533562476582 0.7 0.3 0.7 0.3 0.7 0.3 0.7864122634901243 0.2135877365098756 0.7 0.3 0.7 0.3 0.7 0.3 0.7 0.3 0.7562453088835915 0.2437546911164085 0.7 0.3 0.7 0.3 0.7 0.3 0.796799489475302 0.2032005105246981 0.7 0.3 0.6925936012607463 0.3074063987392537 0.7 0.3 0.7 0.3 0.7 0.3 0.7838428880726362 0.2161571119273636 0.7 0.3 0.7 0.3 0.7 0.3 0.7 0.3 0.7557832305930691 0.2442167694069309 0.7 0.3 0.7 0.3 0.7 0.3 0.7 0.3 0.7 0.3 0.7 0.3 0.7 0.3 0.7 0.3 0.7 0.3 0.7319385370794492 0.2680614629205508 0.7 0.3 0.7 0.3 0.7 0.3 0.7 0.3 0.7053169725983268 0.2946830274016732 0.7 0.3 0.7 0.3 0.7 0.3 0.7 0.3 0.7 0.3 0.7 0.3 0.7 0.3 0.7 0.3 0.7 0.3 0.7055703636061063 0.2944296363938938 0.7 0.3 0.7 0.3 0.7 0.3 0.7 0.3 0.7008918886051666 0.2991081113948334 0.7 0.3 0.7 0.3 0.7 0.3 0.7 0.3 0.7 0.3 0.7 0.3 0.7 0.3 0.7 0.3 0.7 0.3 0.7 0.3 0.7 0.3 0.7 0.3 0.7 0.3 0.7 0.3 0.7 0.3 0.7 0.3 0.7 0.3 0.7 0.3 0.7 0.3 0.4806870701106325 0.5193129298893676 0.7 0.3 0.7 0.3 0.7 0.3 0.7 0.3 0.7 0.3 0.7 0.3 0.7 0.3 0.7 0.3 0.7 0.3 0.7 0.3 0.7 0.3 0.7 0.3 0.722299613470008 0.277700386529992 0.7343169234943658 0.2656830765056342 0.7076316425459392 0.2923683574540608 0.8165231491359486 0.1834768508640514 0.8516876268177878 0.1483123731822122 0.7 0.3 0.7 0.3 0.7 0.3 0.7 0.3 0.7 0.3 0.7 0.3 0.7 0.3 0.7 0.3 0.7 0.3 0.7 0.3 0.5201060538950014 0.4798939461049987 0.7 0.3 0.7 0.3 0.2466375424622485 0.7533624575377514 0.7 0.3 0.7 0.3 0.7 0.3 0.7403239925534202 0.2596760074465799 0.7 0.3 0.7 0.3 0.7 0.3 0.7 0.3 0.7 0.3 0.7 0.3 0.7 0.3 0.7 0.3 0.7 0.3 0.7 0.3 0.7 0.3 0.7 0.3 0.7 0.3 0.7 0.3 0.7 0.3 0.7 0.3 0.7 0.3 0.7 0.3 0.7 0.3 0.7 0.3 0.7 0.3 0.7 0.3 0.7 0.3 0.7 0.3 0.7 0.3 0.7 0.3 0.7 0.3 0.7 0.3 0.7 0.3 0.7 0.3 0.866396462256058 0.1336035377439421 0.7 0.3 0.7 0.3 0.7 0.3 0.7 0.3 0.7999993509480983 0.2000006490519017 0.7 0.3 0.7 0.3 0.7 0.3 0.7 0.3 0.7 0.3 0.7 0.3 0.7 0.3 0.7 0.3 0.7 0.3 0.7 0.3 0.7 0.3 0.7 0.3 0.7 0.3 0.7 0.3 0.7 0.3 0.7 0.3 0.7 0.3 0.7 0.3 0.7 0.3 0.7 0.3 0.7 0.3 0.7 0.3 0.7 0.3 0.7 0.3 0.7 0.3 0.7 0.3 0.7 0.3 0.7 0.3 0.7 0.3 0.7 0.3 0.7 0.3 0.7 0.3 0.7 0.3 0.7 0.3 0.7 0.3 0.7 0.3 0.7 0.3 0.7 0.3 0.7 0.3 0.7 0.3 0.7 0.3 0.7 0.3 0.7 0.3 0.7 0.3 0.7 0.3 0.7 0.3 0.7 0.3 0.7 0.3 0.7 0.3 0.7 0.3 0.7 0.3 0.7 0.3 0.7 0.3 0.7 0.3 0.7 0.3 0.7 0.3 0.7 0.3 0.7 0.3 0.7 0.3 0.7 0.3 0.7 0.3 0.7 0.3 0.7 0.3 0.7 0.3 0.7 0.3 0.7 0.3 0.7 0.3 0.7 0.3 0.7 0.3 0.7 0.3 0.7 0.3 0.7 0.3 0.7 0.3 0.7 0.3 0.7 0.3 0.7 0.3 0.7 0.3 0.7 0.3 0.7 0.3 0.7 0.3 0.7 0.3 0.7 0.3 0.7 0.3 0.7 0.3 0.7 0.3 0.7 0.3 0.7 0.3 0.7 0.3 0.7 0.3 0.7 0.3 0.7 0.3 0.7 0.3 0.7 0.3 0.7 0.3 0.7 0.3 0.7 0.3 0.7 0.3 0.7 0.3 0.7 0.3 0.7 0.3 0.7 0.3 0.7 0.3 0.7 0.3 0.7 0.3 0.7 0.3 0.7 0.3 0.7361305906397222 0.2638694093602778 0.7235340115677197 0.2764659884322804 0.7710717159455608 0.2289282840544394 0.9258150691231485 0.07418493087685153 0.7200224518064535 0.2799775481935464 0.7 0.3 0.7 0.3 0.7 0.3 0.7 0.3 0.7 0.3 0.7 0.3 0.7 0.3 0.7 0.3 0.7 0.3 0.7 0.3 0.7 0.3 0.7 0.3 0.7 0.3 0.7 0.3 0.7 0.3 0.7 0.3 0.7 0.3 0.7 0.3 0.7 0.3 0.7 0.3 0.7 0.3 0.7 0.3 0.7 0.3 0.7 0.3 0.7 0.3 0.7 0.3 0.7433376750224178 0.2566623249775822 0.7158354183882319 0.2841645816117681 0.7 0.3 0.8622565002269178 0.1377434997730822 0.7 0.3 0.7 0.3 0.7 0.3 0.7 0.3 0.7 0.3 0.7 0.3 0.7 0.3 0.7 0.3 0.7 0.3 0.7 0.3 0.7 0.3 0.5852965111390829 0.4147034888609171 0.8142007202912479 0.1857992797087521 0.3228201722949273 0.6771798277050728 0.7 0.3 0.7 0.3 0.7 0.3 0.7 0.3 0.8170128777356711 0.1829871222643289 0.7 0.3 0.7 0.3 0.7 0.3 0.7 0.3 0.7037881077250463 0.2962118922749537 0.7 0.3 0.2357130488440252 0.7642869511559748 0.8160514971382136 0.1839485028617865 0.7438983640141204 0.2561016359858797 0.6945123705052738 0.3054876294947262 0.7 0.3 0.731056571700784 0.268943428299216 0.7170916283772646 0.2829083716227354 0.7250351704427904 0.2749648295572096 0.7313945873033376 0.2686054126966624 0.7193311496594429 0.2806688503405571 0.7 0.3 0.7 0.3 0.7 0.3 0.7 0.3 0.7 0.3 0.7 0.3 0.8244510242991487 0.1755489757008513 0.7362343283094021 0.2637656716905979 0.7 0.3 0.7 0.3 0.7 0.3 0.7 0.3 0.7 0.3 0.865921114271367 0.134078885728633 0.7 0.3 0.7 0.3 0.7 0.3 0.7 0.3 0.7 0.3 0.7 0.3 0.7 0.3 0.7011458170429347 0.2988541829570654 0.7009662431716693 0.2990337568283307 0.7 0.3 0.7 0.3 0.7 0.3 0.7 0.3 0.7 0.3 0.7 0.3 0.7 0.3 0.7 0.3 0.7 0.3 0.7 0.3 0.7 0.3 0.7 0.3 0.7 0.3 0.7 0.3 0.7 0.3 0.7 0.3 0.7 0.3 0.7 0.3 0.7 0.3 0.7 0.3 0.7 0.3 0.7 0.3 0.7 0.3 0.7 0.3 0.7 0.3 0.7 0.3 0.7 0.3 0.7 0.3 0.7 0.3 0.7 0.3 0.7 0.3 0.7 0.3 0.7 0.3 0.7 0.3 0.7 0.3 0.7 0.3 0.7 0.3 0.7 0.3 0.7 0.3 0.7 0.3 0.7 0.3 0.7 0.3 0.7 0.3 0.7 0.3 0.7 0.3 0.7 0.3 0.7 0.3 0.7 0.3 0.7 0.3 0.7 0.3 0.7 0.3 0.7 0.3 0.7 0.3 0.7 0.3 0.7 0.3 0.7 0.3 0.7 0.3 0.7 0.3 0.7 0.3 0.7 0.3 0.7 0.3 0.7 0.3 0.7 0.3 0.7 0.3 0.7 0.3 0.7 0.3 0.7 0.3 0.7 0.3 0.7 0.3 0.7 0.3 0.7 0.3 0.7 0.3 0.7 0.3 0.7 0.3 0.7 0.3 0.7 0.3 0.7 0.3 0.7 0.3 0.7 0.3 0.7 0.3 0.7 0.3 0.7 0.3 0.7 0.3 0.7 0.3 0.7 0.3 0.7 0.3 0.7 0.3 0.7 0.3 0.7 0.3 0.7 0.3 0.7 0.3 0.7 0.3 0.7 0.3 0.7 0.3 0.7 0.3 0.7 0.3 0.7 0.3 0.7 0.3 0.7 0.3 0.7 0.3 0.7 0.3 0.7 0.3 0.7 0.3 0.7 0.3 0.7 0.3 0.7 0.3 0.7 0.3 0.7 0.3 0.7 0.3 0.7 0.3 0.7 0.3 0.7 0.3 0.7 0.3 0.7 0.3 0.7 0.3 0.7 0.3 0.7 0.3 0.7 0.3 0.7 0.3 0.7 0.3 0.7 0.3 0.7 0.3 0.7 0.3 0.7 0.3 0.7 0.3 0.7 0.3 0.7 0.3 0.7 0.3 0.7 0.3 0.7 0.3 0.7 0.3 0.7 0.3 0.7 0.3 0.7 0.3 0.7 0.3 0.7 0.3 0.7 0.3 0.7 0.3 0.7 0.3 0.7 0.3 0.7 0.3 0.7 0.3 0.7 0.3 0.7 0.3 0.7 0.3 0.7 0.3 0.7 0.3 0.7 0.3 0.7 0.3 0.7 0.3 0.7 0.3 0.7 0.3 0.7 0.3 0.7 0.3 0.7 0.3 0.7 0.3 0.7 0.3 0.7 0.3 0.7 0.3 0.7 0.3 0.7 0.3 0.7 0.3 0.8003918064883698 0.1996081935116302 0.7571771770028101 0.24282282299719 0.7335062110382277 0.2664937889617723 0.7365949331305601 0.2634050668694399 0.7094453359405591 0.2905546640594409 0.7 0.3 0.7 0.3 0.7 0.3 0.7 0.3 0.7 0.3 0.7 0.3 0.7 0.3 0.7 0.3 0.7 0.3 0.7 0.3 0.7 0.3 0.7 0.3 0.7 0.3 0.7 0.3 0.7 0.3 0.7 0.3 0.7 0.3 0.7 0.3 0.7 0.3 0.7 0.3 0.7 0.3 0.7 0.3 0.7 0.3 0.7 0.3 0.7 0.3 0.4769842352807217 0.5230157647192784 0.7 0.3 0.7 0.3 0.7 0.3 0.7 0.3 0.7 0.3 0.7 0.3 0.7 0.3 0.7 0.3 0.7 0.3 0.7 0.3 0.7 0.3 0.7 0.3 0.7 0.3 0.7 0.3 0.7 0.3 0.7 0.3 0.7 0.3 0.7 0.3 0.7 0.3 0.7 0.3 0.7 0.3 0.7 0.3 0.7 0.3 0.7 0.3 0.7 0.3 0.7 0.3 0.7 0.3 0.7 0.3 0.7 0.3 0.7 0.3 0.7 0.3 0.7 0.3 0.7 0.3 0.7 0.3 0.7 0.3 0.7 0.3 0.7 0.3 0.7 0.3 0.7 0.3 0.7 0.3 0.7 0.3 0.7 0.3 0.7 0.3 0.7 0.3 0.7 0.3 0.7 0.3 0.7 0.3 0.7 0.3 0.7 0.3 0.7 0.3 0.7 0.3 0.7 0.3 0.7 0.3 0.7 0.3 0.7 0.3 0.7 0.3 0.7 0.3 0.7 0.3 0.7 0.3 0.7 0.3 0.7 0.3 0.7 0.3 0.7 0.3 0.7 0.3 0.7 0.3 0.7 0.3 0.7 0.3 0.7 0.3 0.7 0.3 0.7 0.3 0.7 0.3 0.7 0.3 0.7 0.3 0.7 0.3 0.7 0.3 0.7 0.3 0.7 0.3 0.7 0.3 0.7 0.3 0.7 0.3 0.7 0.3 0.7 0.3 0.7 0.3 0.7 0.3 0.7 0.3 0.7 0.3 0.7 0.3 0.7 0.3 0.7 0.3 0.7 0.3 0.7 0.3 0.7 0.3 0.7 0.3 0.7 0.3 0.7 0.3 0.7 0.3 0.7 0.3 0.7 0.3 0.7 0.3 0.7 0.3 0.7 0.3 0.7 0.3 0.7 0.3 0.7 0.3 0.7 0.3 0.7 0.3 0.7 0.3 0.7 0.3 0.7 0.3 0.7 0.3 0.7 0.3 0.7 0.3 0.7 0.3 0.7 0.3 0.7 0.3 0.7 0.3 0.7 0.3 0.7 0.3 0.7 0.3 0.7 0.3 0.7 0.3 0.7 0.3 0.7 0.3 0.7 0.3 0.7 0.3 0.7 0.3 0.7 0.3 0.7 0.3 0.7 0.3 0.7 0.3 0.7 0.3 0.7 0.3 0.7 0.3 0.7 0.3 0.7 0.3 0.7 0.3 0.7 0.3 0.7 0.3 0.7 0.3 0.7894341909766103 0.2105658090233897 0.7 0.3 0.7 0.3 0.7 0.3 0.7 0.3 0.7 0.3 0.7 0.3 0.7 0.3 0.7 0.3 0.7 0.3 0.7 0.3 0.1569445262641765 0.8430554737358236 0.7 0.3 0.7 0.3 0.7 0.3 0.7 0.3 0.7 0.3 0.7 0.3 0.7 0.3 0.7 0.3 0.7 0.3 0.7 0.3 0.7 0.3 0.7 0.3 0.7 0.3 0.7 0.3 0.315154268575781 0.6848457314242189 0.7 0.3 0.7 0.3 0.7 0.3 0.7 0.3 0.7 0.3 0.7 0.3 0.7 0.3 0.7 0.3 0.7 0.3 0.7 0.3 0.7 0.3 0.7 0.3 0.7 0.3 0.7 0.3 0.7 0.3 0.7 0.3 0.7 0.3 0.7 0.3 0.7 0.3 0.7 0.3 0.7 0.3 0.7 0.3 0.7 0.3 0.7 0.3 0.7 0.3 0.7 0.3 0.7 0.3 0.7 0.3 0.7 0.3 0.7 0.3 0.7254805273996394 0.2745194726003607 0.7 0.3 0.7 0.3 0.7 0.3 0.7 0.3 0.7 0.3 0.7 0.3 0.7 0.3 0.7 0.3 0.7 0.3 0.7 0.3 0.7 0.3 0.7 0.3 0.7 0.3 0.3222492298103481 0.6777507701896519 0.7475490990442951 0.2524509009557049 0.7 0.3 0.7 0.3 0.7 0.3 0.7978552220144591 0.2021447779855411 0.7 0.3 0.7 0.3 0.7 0.3 0.7 0.3 0.7 0.3 0.7 0.3 0.7 0.3 0.7 0.3 0.7 0.3 0.7979062869183906 0.2020937130816096 0.721981347879792 0.278018652120208 0.7 0.3 0.7 0.3 0.7 0.3 0.7978552220144591 0.2021447779855411 0.7 0.3 0.7 0.3 0.7901089597623858 0.209891040237614 0.7 0.3 0.7 0.3 0.7 0.3 0.7 0.3 0.7 0.3 0.7 0.3 0.7 0.3 0.8217695360049739 0.178230463995026 0.7 0.3 0.7 0.3 0.7 0.3 0.7 0.3 0.7 0.3 0.7 0.3 0.7 0.3 0.7 0.3 0.7 0.3 0.7 0.3 0.7 0.3 0.7 0.3 0.7 0.3 0.7 0.3 0.7055521876574138 0.2944478123425862 0.7 0.3 0.7 0.3 0.7 0.3 0.7 0.3 0.7 0.3 0.7 0.3 0.7 0.3 0.7 0.3 0.7 0.3 0.7 0.3 0.7 0.3 0.7 0.3 0.7 0.3 0.7 0.3 0.7 0.3 0.7 0.3 0.7 0.3 0.7 0.3 0.7 0.3 0.7 0.3 0.7 0.3 0.7 0.3 0.7 0.3 0.7 0.3 0.7 0.3 0.7 0.3 0.7 0.3 0.7 0.3 0.7 0.3 0.7 0.3 0.7 0.3 0.7 0.3 0.7 0.3 0.7 0.3 0.7 0.3 0.7 0.3 0.7 0.3 0.7 0.3 0.7 0.3 0.7 0.3 0.7 0.3 0.7 0.3 0.7 0.3 0.7 0.3 0.7 0.3 0.7 0.3 0.7 0.3 0.7 0.3 0.7 0.3 0.7 0.3 0.7 0.3 0.7 0.3 0.7 0.3 0.7 0.3 0.7 0.3 0.7 0.3 0.7 0.3 0.7 0.3 0.7 0.3 0.7 0.3 0.7 0.3 0.7 0.3 0.7 0.3 0.7 0.3 0.7 0.3 0.7 0.3 0.7 0.3 0.7 0.3 0.7 0.3 0.7 0.3 0.7 0.3 0.7 0.3 0.7 0.3 0.7 0.3 0.7 0.3 0.7 0.3 0.7 0.3 0.7 0.3 0.7 0.3 0.7 0.3 0.7 0.3 0.7 0.3 0.7 0.3 0.7 0.3 0.7 0.3 0.7 0.3 0.7 0.3 0.7 0.3 0.7 0.3 0.7 0.3 0.7 0.3 0.7040907817812282 0.2959092182187719 0.7 0.3 0.7 0.3 0.7 0.3 0.7 0.3 0.7 0.3 0.7 0.3 0.7 0.3 0.7 0.3 0.7 0.3 0.7 0.3 0.4764963857543352 0.5235036142456647 0.7 0.3 0.7 0.3 0.7 0.3 0.7639346384825164 0.2360653615174836 0.7 0.3 0.7 0.3 0.7 0.3 0.7 0.3 0.7 0.3 0.7 0.3 0.7 0.3 0.7 0.3 0.7 0.3 0.7 0.3 0.7 0.3 0.7 0.3 0.7 0.3 0.7 0.3 0.8099551266079278 0.1900448733920722 0.7 0.3 0.7 0.3 0.865921114271367 0.134078885728633 0.7 0.3 0.7 0.3 0.7 0.3 0.7 0.3 0.7 0.3 0.7 0.3 0.7 0.3 0.7 0.3 0.7 0.3 0.7 0.3 0.7 0.3 0.7369114442515804 0.2630885557484196 0.7 0.3 0.7 0.3 0.7 0.3 0.7 0.3 0.7 0.3 0.7 0.3 0.7 0.3 0.7 0.3 0.7 0.3 0.7 0.3 0.7 0.3 0.7 0.3 0.7 0.3 0.7 0.3 0.7040907817812282 0.2959092182187719 0.7 0.3 0.7 0.3 0.7 0.3 0.7 0.3 0.7 0.3 0.7 0.3 0.7 0.3 0.7 0.3 0.7 0.3 0.7 0.3 0.7019582416647592 0.2980417583352408 0.8823576661299661 0.1176423338700339 0.8035824136402927 0.1964175863597072 0.6982138706002856 0.3017861293997144 0.7076305266836608 0.2923694733163392 0.7 0.3 0.7 0.3 0.7 0.3 0.7 0.3 0.7 0.3 0.7 0.3 0.7 0.3 0.7 0.3 0.7 0.3 0.7 0.3 0.7506415373010473 0.2493584626989528 0.814218026070032 0.1857819739299681 0.7793916453255685 0.2206083546744315 0.6338847497828033 0.3661152502171968 0.7 0.3 0.7766020308666796 0.2233979691333205 0.865921114271367 0.134078885728633 0.7 0.3 0.7 0.3 0.8821221344739698 0.1178778655260302 0.7 0.3 0.7 0.3 0.7 0.3 0.7 0.3 0.7 0.3 0.8245408835160412 0.1754591164839589 0.8347297557194375 0.1652702442805624 0.2115632781218239 0.788436721878176 0.6947284781677094 0.3052715218322907 0.7 0.3 0.7 0.3 0.7 0.3 0.7639779648957716 0.2360220351042283 0.7 0.3 0.7986393615053068 0.2013606384946932 0.7 0.3 0.7 0.3 0.7 0.3 0.7 0.3 0.7 0.3 0.7131193152863656 0.2868806847136345 0.7503849714797537 0.2496150285202463 0.9390760175796585 0.06092398242034143 0.5473957049754926 0.4526042950245074 0.7 0.3 0.7 0.3 0.7 0.3 0.7 0.3 0.7 0.3 0.7 0.3 0.7 0.3 0.7 0.3 0.7 0.3 0.7 0.3 0.7 0.3 0.7009019761029756 0.2990980238970244 0.7016220781660217 0.2983779218339783 0.7 0.3 0.6982872916908827 0.3017127083091174 0.7 0.3 0.7 0.3 0.7 0.3 0.7 0.3 0.7 0.3 0.7 0.3 0.7 0.3 0.7 0.3 0.7 0.3 0.7 0.3 0.7 0.3 0.7 0.3 0.7 0.3 0.7 0.3 0.7 0.3 0.7 0.3 0.7 0.3 0.7 0.3 0.7 0.3 0.7 0.3 0.7 0.3 0.7 0.3 0.7 0.3 0.7 0.3 0.7 0.3 0.7 0.3 0.7 0.3 0.7 0.3 0.7 0.3 0.7 0.3 0.7 0.3 0.7 0.3 0.7 0.3 0.7 0.3 0.7 0.3 0.7 0.3 0.7 0.3 0.7 0.3 0.7 0.3 0.7 0.3 0.7 0.3 0.7 0.3 0.7 0.3 0.7 0.3 0.7 0.3 0.7 0.3 0.7 0.3 0.7 0.3 0.7 0.3 0.7 0.3 0.7 0.3 0.7 0.3 0.7 0.3 0.7 0.3 0.7 0.3 0.7 0.3 0.7 0.3 0.7 0.3 0.7 0.3 0.7 0.3 0.7 0.3 0.7 0.3 0.7 0.3 0.7 0.3 0.7 0.3 0.7 0.3 0.7 0.3 0.7 0.3 0.7 0.3 0.7 0.3 0.7 0.3 0.7 0.3 0.7 0.3 0.7 0.3 0.7 0.3 0.7 0.3 0.7 0.3 0.7 0.3 0.7 0.3 0.7 0.3 0.7 0.3 0.7 0.3 0.7 0.3 0.7 0.3 0.7 0.3 0.7 0.3 0.7 0.3 0.7 0.3 0.7 0.3 0.7 0.3 0.7 0.3 0.7 0.3 0.7 0.3 0.7 0.3 0.7 0.3 0.7 0.3 0.7 0.3 0.7 0.3 0.7 0.3 0.7 0.3 0.7 0.3 0.7 0.3 0.7 0.3 0.7 0.3 0.7 0.3 0.7 0.3 0.7 0.3 0.7 0.3 0.7 0.3 0.7 0.3 0.7 0.3 0.7 0.3 0.7 0.3 0.7 0.3 0.7 0.3 0.7 0.3 0.7 0.3 0.7 0.3 0.7 0.3 0.7 0.3 0.7 0.3 0.7 0.3 0.7 0.3 0.7 0.3 0.7 0.3 0.7 0.3 0.7 0.3 0.7 0.3 0.7 0.3 0.7 0.3 0.7 0.3 0.7 0.3 0.7 0.3 0.7 0.3 0.7 0.3 0.7 0.3 0.7 0.3 0.7 0.3 0.7 0.3 0.7 0.3 0.7 0.3 0.7 0.3 0.7 0.3 0.7 0.3 0.7 0.3 0.7 0.3 0.7 0.3 0.7 0.3 0.7 0.3 0.7 0.3 0.7 0.3 0.7 0.3 0.7 0.3 0.7 0.3 0.7 0.3 0.7 0.3 0.7 0.3 0.7 0.3 0.7 0.3 0.7 0.3 0.7 0.3 0.7 0.3 0.7 0.3 0.7 0.3 0.7 0.3 0.7 0.3 0.7 0.3 0.7 0.3 0.7 0.3 0.7 0.3 0.7 0.3 0.7 0.3 0.7 0.3 0.7 0.3 0.7 0.3 0.7 0.3 0.7 0.3 0.7 0.3 0.7 0.3 0.7 0.3 0.7 0.3 0.7 0.3 0.7 0.3 0.7 0.3 0.7 0.3 0.7 0.3 0.7 0.3 0.7 0.3 0.7 0.3 0.7 0.3 0.7 0.3 0.7 0.3 0.7 0.3 0.7 0.3 0.7 0.3 0.7 0.3 0.7 0.3 0.7 0.3 0.7 0.3 0.7 0.3 0.7 0.3 0.7 0.3 0.7 0.3 0.7 0.3 0.7 0.3 0.7 0.3 0.7 0.3 0.7 0.3 0.7 0.3 0.7 0.3 0.7 0.3 0.7 0.3 0.7 0.3 0.7 0.3 0.7 0.3 0.7 0.3 0.7 0.3 0.7 0.3 0.7 0.3 0.7 0.3 0.7 0.3 0.7 0.3 0.7 0.3 0.7 0.3 0.7 0.3 0.7 0.3 0.7 0.3 0.7 0.3 0.7 0.3 0.7 0.3 0.7 0.3 0.7 0.3 0.7 0.3 0.7 0.3 0.7 0.3 0.7 0.3 0.7 0.3 0.7 0.3 0.7 0.3 0.7 0.3 0.7 0.3 0.7 0.3 0.7 0.3 0.7 0.3 0.7 0.3 0.7 0.3 0.7 0.3 0.7 0.3 0.7 0.3 0.7 0.3 0.7 0.3 0.7 0.3 0.7 0.3 0.7 0.3 0.7 0.3 0.7 0.3 0.7 0.3 0.7 0.3 0.7 0.3 0.7 0.3 0.7 0.3 0.7 0.3 0.7 0.3 0.7 0.3 0.7 0.3 0.7 0.3 0.7 0.3 0.7 0.3 0.7 0.3 0.7 0.3 0.7 0.3 0.7 0.3 0.7 0.3 0.7 0.3 0.7 0.3 0.7 0.3 0.7 0.3 0.7 0.3 0.7 0.3 0.7 0.3 0.7 0.3 0.7 0.3 0.7 0.3 0.7 0.3 0.7 0.3 0.7 0.3 0.7 0.3 0.7 0.3 0.7 0.3 0.7 0.3 0.7 0.3 0.7 0.3 0.7 0.3 0.7 0.3 0.7 0.3 0.7 0.3 0.7 0.3 0.7 0.3 0.7 0.3 0.7 0.3 0.7 0.3 0.7 0.3 0.7 0.3 0.7 0.3 0.7 0.3 0.7 0.3 0.7 0.3 0.7 0.3 0.7 0.3 0.7 0.3 0.7 0.3 0.7 0.3 0.7 0.3 0.7 0.3 0.7 0.3 0.7 0.3 0.7 0.3 0.7 0.3 0.7 0.3 0.6841611172779283 0.3158388827220718 0.7 0.3 0.7 0.3 0.7 0.3 0.7 0.3 0.7 0.3 0.7 0.3 0.7 0.3 0.7 0.3 0.7 0.3 0.7 0.3 0.7 0.3 0.7 0.3 0.7 0.3 0.7 0.3 0.6780457908112166 0.3219542091887834 0.7 0.3 0.7 0.3 0.7 0.3 0.7 0.3 0.7 0.3 0.7 0.3 0.7 0.3 0.7 0.3 0.7 0.3 0.7 0.3 0.7 0.3 0.7 0.3 0.7 0.3 0.7 0.3 0.6574904661568836 0.3425095338431165 0.7 0.3 0.7 0.3 0.7 0.3 0.7 0.3 0.7 0.3 0.7 0.3 0.7 0.3 0.7 0.3 0.7 0.3 0.7 0.3 0.7 0.3 0.7 0.3 0.7 0.3 0.7 0.3 0.678907917527934 0.3210920824720661 0.7 0.3 0.7 0.3 0.7 0.3 0.7 0.3 0.7 0.3 0.7 0.3 0.7 0.3 0.7 0.3 0.7 0.3 0.7 0.3 0.7 0.3 0.7 0.3 0.7 0.3 0.7 0.3 0.6989093101964756 0.3010906898035244 0.7 0.3 0.7 0.3 0.7 0.3 0.7 0.3 0.7 0.3 0.7 0.3 0.7 0.3 0.7 0.3 0.7 0.3 0.7 0.3 0.7 0.3 0.7 0.3 0.7 0.3 0.7 0.3 0.7 0.3 0.7 0.3 0.7 0.3 0.7 0.3 0.7 0.3 0.7 0.3 0.7 0.3 0.7 0.3 0.7 0.3 0.7 0.3 0.7 0.3 0.7 0.3 0.7 0.3 0.7 0.3 0.7 0.3 0.7 0.3 0.799619618114238 0.200380381885762 0.7 0.3 0.7 0.3 0.7 0.3 0.7 0.3 0.7 0.3 0.6623569191533841 0.3376430808466158 0.7995167805401628 0.2004832194598374 0.7 0.3 0.7 0.3 0.7 0.3 0.7 0.3 0.7 0.3 0.7 0.3 0.7 0.3 0.7 0.3 0.7 0.3 0.7 0.3 0.7 0.3 0.7 0.3 0.7 0.3 0.7 0.3 0.7 0.3 0.7 0.3 0.5036612798657949 0.4963387201342051 0.7 0.3 0.7 0.3 0.7 0.3 0.7 0.3 0.7 0.3 0.7 0.3 0.7 0.3 0.7 0.3 0.7 0.3 0.7 0.3 0.7 0.3 0.7 0.3 0.7 0.3 0.7 0.3 0.7 0.3 0.7 0.3 0.7 0.3 0.7 0.3 0.7 0.3 0.7 0.3 0.7 0.3 0.7 0.3 0.7 0.3 0.7 0.3 0.7 0.3 0.7 0.3 0.7 0.3 0.7 0.3 0.7 0.3 0.7 0.3 0.7 0.3 0.7 0.3 0.7 0.3 0.7 0.3 0.7 0.3 0.7 0.3 0.7 0.3 0.7 0.3 0.7 0.3 0.7 0.3 0.7 0.3 0.7 0.3 0.7 0.3 0.7 0.3 0.7 0.3 0.7 0.3 0.7 0.3 0.7 0.3 0.7 0.3 0.7 0.3 0.7 0.3 0.7 0.3 0.7 0.3 0.7 0.3 0.7 0.3 0.7 0.3 0.7 0.3 0.7 0.3 0.7 0.3 0.7 0.3 0.7 0.3 0.7 0.3 0.7 0.3 0.7 0.3 0.7 0.3 0.7 0.3 0.7 0.3 0.7 0.3 0.7 0.3 0.7 0.3 0.7 0.3 0.7 0.3 0.7 0.3 0.7 0.3 0.7 0.3 0.7 0.3 0.7 0.3 0.7 0.3 0.7 0.3 0.7 0.3 0.7 0.3 0.7 0.3 0.7 0.3 0.7 0.3 0.7 0.3 0.7 0.3 0.7 0.3 0.7 0.3 0.7 0.3 0.7 0.3 0.7 0.3 0.7 0.3 0.7 0.3 0.7 0.3 0.7 0.3 0.7 0.3 0.7 0.3 0.7 0.3 0.7 0.3 0.7 0.3 0.7 0.3 0.7 0.3 0.7 0.3 0.7 0.3 0.7 0.3 0.7 0.3 0.7 0.3 0.7 0.3 0.7 0.3 0.7 0.3 0.7 0.3 0.7 0.3 0.7 0.3 0.7 0.3 0.7 0.3 0.7 0.3 0.730511886278479 0.269488113721521 0.7 0.3 0.7 0.3 0.7 0.3 0.7 0.3 0.7 0.3 0.7 0.3 0.7 0.3 0.7 0.3 0.7 0.3 0.7 0.3 0.7 0.3 0.7 0.3 0.7 0.3 0.7 0.3 0.7 0.3 0.7 0.3 0.7 0.3 0.7 0.3 0.7 0.3 0.7 0.3 0.7 0.3 0.7 0.3 0.7 0.3 0.7 0.3 0.7 0.3 0.7 0.3 0.7 0.3 0.7 0.3 0.7 0.3 0.7 0.3 0.7 0.3 0.7 0.3 0.7 0.3 0.7 0.3 0.7 0.3 0.7 0.3 0.7 0.3 0.7 0.3 0.7 0.3 0.7 0.3 0.7 0.3 0.7 0.3 0.7 0.3 0.7 0.3 0.7 0.3 0.7 0.3 0.7 0.3 0.7 0.3 0.7 0.3 0.7 0.3 0.7 0.3 0.7 0.3 0.7 0.3 0.7 0.3 0.7 0.3 0.7 0.3 0.7 0.3 0.7 0.3 0.7 0.3 0.6932069001320015 0.3067930998679985 0.4315272816479913 0.5684727183520087 0.4311391819873542 0.5688608180126459 0.6962136416584315 0.3037863583415685 0.5173806936462736 0.4826193063537265 0.7038166162225304 0.2961833837774696 0.7843058384467396 0.2156941615532602 0.7890312911859182 0.2109687088140819 0.702236500287299 0.297763499712701 0.7585185323555798 0.2414814676444202 0.7000530056296657 0.2999469943703343 0.748793085802141 0.2512069141978591 0.7604114996872778 0.2395885003127221 0.7000330747563774 0.2999669252436226 0.7151879665633146 0.2848120334366853 0.817588291802246 0.182411708197754 0.8751489419440525 0.1248510580559476 0.7207707060593881 0.279229293940612 0.7205528576175702 0.2794471423824298 0.7179721025695397 0.2820278974304603 0.9224534909055424 0.07754650909445766 0.7856303716367774 0.2143696283632227 0.7449997903591873 0.2550002096408127 0.7807277195349805 0.2192722804650195 0.7384769267784201 0.2615230732215799 0.7253918250687882 0.2746081749312118 0.7418213659385903 0.2581786340614098 0.7023181181369118 0.2976818818630882 0.7568603979931677 0.2431396020068322 0.7011626624008641 0.2988373375991359 0.3880589636037047 0.6119410363962952 0.6204336798048777 0.3795663201951224 0.5885441766247339 0.4114558233752662 0.588585715702522 0.411414284297478 0.6269785358087728 0.3730214641912272 0.7 0.3 0.7 0.3 0.7 0.3 0.7 0.3 0.7 0.3 0.7 0.3 0.7 0.3 0.7 0.3 0.7 0.3 0.7 0.3 0.6993509423990258 0.3006490576009742 0.4564936671240346 0.5435063328759654 0.6982217710053943 0.3017782289946058 0.6909364403291948 0.3090635596708052 0.7101017776260707 0.2898982223739293 0.7 0.3 0.7 0.3 0.7 0.3 0.7 0.3 0.7 0.3 0.7 0.3 0.7 0.3 0.7 0.3 0.7 0.3 0.7 0.3 0.7 0.3 0.7 0.3 0.7 0.3 0.7 0.3 0.7 0.3 0.7 0.3 0.7 0.3 0.7 0.3 0.7 0.3 0.7 0.3 0.7 0.3 0.7 0.3 0.7 0.3 0.7 0.3 0.7 0.3 0.7 0.3 0.7 0.3 0.7 0.3 0.7 0.3 0.7 0.3 0.7 0.3 0.7 0.3 0.7 0.3 0.7 0.3 0.7 0.3 0.7 0.3 0.7 0.3 0.7 0.3 0.7 0.3 0.7 0.3 0.7 0.3 0.7 0.3 0.7 0.3 0.7 0.3 0.7 0.3 0.7 0.3 0.7 0.3 0.7 0.3 0.7 0.3 0.7 0.3 0.7 0.3 0.7 0.3 0.7 0.3 0.7 0.3 0.7 0.3 0.7 0.3 0.7 0.3 0.7 0.3 0.7 0.3 0.7 0.3 0.7 0.3 0.7 0.3 0.7 0.3 0.7 0.3 0.7 0.3 0.7 0.3 0.7 0.3 0.7 0.3 0.7 0.3 0.7 0.3 0.7 0.3 0.7 0.3 0.7 0.3 0.7 0.3 0.7 0.3 0.7 0.3 0.7 0.3 0.7 0.3 0.7 0.3 0.7 0.3 0.7 0.3 0.7 0.3 0.7 0.3 0.7 0.3 0.7 0.3 0.7 0.3 0.7 0.3 0.7 0.3 0.7 0.3 0.7 0.3 0.7 0.3 0.7 0.3 0.7 0.3 0.7 0.3 0.7 0.3 0.7 0.3 0.7 0.3 0.7 0.3 0.7 0.3 0.7 0.3 0.4087146993999586 0.5912853006000414 0.7596288923638874 0.2403711076361127 0.7 0.3 0.7 0.3 0.7 0.3 0.7 0.3 0.7 0.3 0.7 0.3 0.7 0.3 0.7 0.3 0.7 0.3 0.7 0.3 0.7 0.3 0.7 0.3 0.7 0.3 0.4087146993999586 0.5912853006000414 0.7265480246667821 0.2734519753332179 0.7 0.3 0.7 0.3 0.7 0.3 0.7 0.3 0.7 0.3 0.7 0.3 0.7 0.3 0.7 0.3 0.7 0.3 0.7 0.3 0.7 0.3 0.7 0.3 0.7 0.3 0.6387574373026574 0.3612425626973426 0.7265480246667821 0.2734519753332179 0.7 0.3 0.7 0.3 0.7 0.3 0.7 0.3 0.7 0.3 0.7 0.3 0.7 0.3 0.7 0.3 0.7 0.3 0.7 0.3 0.7 0.3 0.7 0.3 0.7 0.3 0.6387574373026574 0.3612425626973426 0.7078671158150664 0.2921328841849336 0.7 0.3 0.7 0.3 0.7 0.3 0.7 0.3 0.7 0.3 0.7 0.3 0.7 0.3 0.7 0.3 0.7 0.3 0.7 0.3 0.7 0.3 0.7 0.3 0.7 0.3 0.6387574373026574 0.3612425626973426 0.7078671158150664 0.2921328841849336 0.7 0.3 0.7 0.3 0.7 0.3 0.7 0.3 0.7 0.3 0.7 0.3 0.7 0.3 0.7 0.3 0.7 0.3 0.7 0.3 0.7 0.3 0.7 0.3 0.7 0.3 0.7 0.3 0.7 0.3 0.7 0.3 0.7 0.3 0.7 0.3 0.7 0.3 0.7 0.3 0.7 0.3 0.7 0.3 0.7 0.3 0.7 0.3 0.7 0.3 0.7 0.3 0.7 0.3 0.7 0.3 0.7 0.3 0.7 0.3 0.7 0.3 0.7 0.3 0.7 0.3 0.7 0.3 0.7 0.3 0.7 0.3 0.7 0.3 0.7 0.3 0.7 0.3 0.7 0.3 0.7 0.3 0.7 0.3 0.7 0.3 0.7 0.3 0.7 0.3 0.7 0.3 0.7 0.3 0.7 0.3 0.7 0.3 0.7 0.3 0.7 0.3 0.7 0.3 0.7 0.3 0.7 0.3 0.7 0.3 0.7 0.3 0.7 0.3 0.7 0.3 0.7 0.3 0.7 0.3 0.7 0.3 0.7 0.3 0.7 0.3 0.7 0.3 0.7 0.3 0.7 0.3 0.7 0.3 0.7 0.3 0.7 0.3 0.7 0.3 0.7 0.3 0.7 0.3 0.7 0.3 0.7 0.3 0.7 0.3 0.7 0.3 0.7 0.3 0.7 0.3 0.7 0.3 0.7 0.3 0.7 0.3 0.7 0.3 0.7 0.3 0.7 0.3 0.7 0.3 0.7 0.3 0.7 0.3 0.7 0.3 0.7 0.3 0.7 0.3 0.7 0.3 0.7 0.3 0.7 0.3 0.7 0.3 0.7 0.3 0.7441619583622847 0.2558380416377153 0.7 0.3 0.7 0.3 0.7 0.3 0.7 0.3 0.7 0.3 0.7 0.3 0.7 0.3 0.7 0.3 0.7 0.3 0.7 0.3 0.7 0.3 0.7 0.3 0.7 0.3 0.7 0.3 0.7441619583622847 0.2558380416377153 0.7 0.3 0.7 0.3 0.7 0.3 0.7 0.3 0.7 0.3 0.7 0.3 0.7 0.3 0.7 0.3 0.7 0.3 0.7 0.3 0.7 0.3 0.7 0.3 0.7 0.3 0.7 0.3 0.7785062946297784 0.2214937053702216 0.7 0.3 0.7 0.3 0.7 0.3 0.7 0.3 0.7 0.3 0.7 0.3 0.7 0.3 0.7 0.3 0.7 0.3 0.7 0.3 0.7 0.3 0.7 0.3 0.7 0.3 0.7 0.3 0.7441619583622847 0.2558380416377153 0.7 0.3 0.8600160403174276 0.1399839596825724 0.7 0.3 0.7 0.3 0.7 0.3 0.7 0.3 0.7999894634871665 0.2000105365128335 0.7 0.3 0.7 0.3 0.7 0.3 0.7 0.3 0.7 0.3 0.7 0.3 0.7 0.3 0.7441619583622847 0.2558380416377153 0.7 0.3 0.311551173379835 0.6884488266201649 0.7 0.3 0.7 0.3 0.7 0.3 0.7 0.3 0.4666982938533706 0.5333017061466294 0.6874646737452017 0.3125353262547983 0.7566389222870459 0.2433610777129543 0.6958356303673384 0.3041643696326616 0.7312422721305809 0.2687577278694191 0.7312106715080265 0.2687893284919735 0.7 0.3 0.7 0.3 0.7249140795667665 0.2750859204332335 0.7195588431528803 0.2804411568471196 0.7 0.3 0.7 0.3 0.7 0.3 0.7 0.3 0.7 0.3 0.7 0.3 0.5832432036905895 0.4167567963094106 0.7033896174309128 0.2966103825690873 0.6898294525195546 0.3101705474804454 0.7 0.3 0.7 0.3 0.7 0.3 0.7 0.3 0.7430390616512401 0.2569609383487599 0.7264925131006262 0.2735074868993737 0.5424981445021837 0.4575018554978163 0.7 0.3 0.7 0.3 0.7 0.3 0.7 0.3 0.7 0.3 0.611949905640266 0.388050094359734 0.7416722144404393 0.2583277855595608 0.8253873554010808 0.1746126445989192 0.7 0.3 0.7 0.3 0.7 0.3 0.7 0.3 0.8804689952197776 0.1195310047802225 0.7476216407018639 0.2523783592981361 0.7974226288971578 0.2025773711028422 0.7 0.3 0.7 0.3 0.7086554604165666 0.2913445395834335 0.7 0.3 0.7 0.3 0.6331490856451846 0.3668509143548155 0.7490218754803435 0.2509781245196565 0.4824584320859343 0.5175415679140657 0.7 0.3 0.7 0.3 0.7 0.3 0.7 0.3 0.7228533723524656 0.2771466276475344 0.7255339744558683 0.2744660255441317 0.7974681469995032 0.2025318530004968 0.7 0.3 0.7 0.3 0.7 0.3 0.7 0.3 0.7 0.3 0.6929289981943557 0.3070710018056443 0.7032474273566905 0.2967525726433094 0.6950066753244528 0.3049933246755473 0.7 0.3 0.7 0.3 0.7 0.3 0.7 0.3 0.7040123164371623 0.2959876835628376 0.7014264082661139 0.2985735917338861 0.7 0.3 0.7 0.3 0.7 0.3 0.7 0.3 0.7 0.3 0.7 0.3 0.483704973421975 0.516295026578025 0.6971942898170785 0.3028057101829214 0.7162379619585749 0.2837620380414251 0.7 0.3 0.7 0.3 0.7 0.3 0.7 0.3 0.7035760099834977 0.2964239900165024 0.7 0.3 0.7 0.3 0.7 0.3 0.7 0.3 0.7 0.3 0.7 0.3 0.7 0.3 0.8334869311301173 0.1665130688698828 0.6155149916932626 0.3844850083067375 0.7303423076860578 0.2696576923139423 0.7 0.3 0.7 0.3 0.7 0.3 0.7995167805401628 0.2004832194598374 0.7067001388360673 0.2932998611639328 0.7 0.3 0.7928275066515393 0.2071724933484607 0.7 0.3 0.7 0.3 0.7 0.3 0.7 0.3 0.7 0.3 0.7733541150476222 0.2266458849523778 0.3891845102675646 0.6108154897324354 0.7132109894675207 0.2867890105324793 0.6029653421014489 0.3970346578985511 0.4958462988652698 0.5041537011347301 0.6641020432529301 0.3358979567470699 0.7809827009154809 0.2190172990845193 0.7029079155000209 0.2970920844999792 0.7 0.3 0.7 0.3 0.7 0.3 0.7 0.3 0.7 0.3 0.7 0.3 0.7 0.3 0.2181151106365979 0.7818848893634023 0.6638385731502711 0.3361614268497289 0.7603467391355305 0.2396532608644697 0.7 0.3 0.7 0.3 0.7 0.3 0.7 0.3 0.7134063175027967 0.2865936824972033 0.7 0.3 0.7 0.3 0.7 0.3 0.7 0.3 0.7 0.3 0.7 0.3 0.7 0.3 0.704496192610612 0.2955038073893879 0.6974810162215491 0.3025189837784508 0.703538967663225 0.296461032336775 0.7 0.3 0.7 0.3 0.7 0.3 0.7 0.3 0.7007778738078909 0.2992221261921091 0.7 0.3 0.7 0.3 0.7 0.3 0.7 0.3 0.7 0.3 0.7 0.3 0.7 0.3 0.7 0.3 0.7 0.3 0.7 0.3 0.7 0.3 0.7 0.3 0.7 0.3 0.7 0.3 0.7 0.3 0.7 0.3 0.7 0.3 0.7 0.3 0.7 0.3 0.7 0.3 0.7 0.3 0.7 0.3 0.7 0.3 0.7 0.3 0.7 0.3 0.7 0.3 0.7 0.3 0.7 0.3 0.7 0.3 0.7 0.3 0.7 0.3 0.7 0.3 0.7 0.3 0.7 0.3 0.7 0.3 0.7 0.3 0.7 0.3 0.7 0.3 0.7 0.3 0.7 0.3 0.7 0.3 0.7 0.3 0.7 0.3 0.7 0.3 0.7 0.3 0.7 0.3 0.7 0.3 0.7 0.3 0.7 0.3 0.7 0.3 0.7 0.3 0.7 0.3 0.7 0.3 0.7 0.3 0.7 0.3 0.7 0.3 0.7 0.3 0.7 0.3 0.7 0.3 0.7 0.3 0.7 0.3 0.7 0.3 0.7 0.3 0.7 0.3 0.7 0.3 0.7 0.3 0.7 0.3 0.7 0.3 0.7 0.3 0.7 0.3 0.7 0.3 0.7 0.3 0.7 0.3 0.7 0.3 0.7 0.3 0.7 0.3 0.7 0.3 0.7 0.3 0.7 0.3 0.7 0.3 0.7 0.3 0.7 0.3 0.7062697263014602 0.2937302736985398 0.7 0.3 0.6895485690060015 0.3104514309939986 0.7 0.3 0.7 0.3 0.7 0.3 0.7 0.3 0.6923400407632839 0.3076599592367161 0.7165217040038178 0.2834782959961822 0.7038562932144317 0.2961437067855682 0.7 0.3 0.7 0.3 0.6978974452015245 0.3021025547984755 0.7 0.3 0.7 0.3 0.8095120130629084 0.1904879869370918 0.7 0.3 0.6607546562187293 0.3392453437812707 0.7 0.3 0.7 0.3 0.7997466437523419 0.2002533562476582 0.7 0.3 0.6715369065296047 0.3284630934703953 0.7165217040038178 0.2834782959961822 0.7619082962337224 0.2380917037662776 0.7 0.3 0.7 0.3 0.6920746823653112 0.3079253176346889 0.7 0.3 0.7 0.3 0.7211066897957928 0.2788933102042072 0.7 0.3 0.5909440092190876 0.4090559907809123 0.7 0.3 0.7 0.3 0.7 0.3 0.7 0.3 0.620885868960819 0.3791141310391811 0.7167418136983976 0.2832581863016024 0.8647336690502424 0.1352663309497576 0.7 0.3 0.7 0.3 0.6768087474969656 0.3231912525030344 0.7 0.3 0.7 0.3 0.8575876176434358 0.1424123823565642 0.7 0.3 0.5759287736522022 0.4240712263477979 0.7 0.3 0.4820017296504054 0.5179982703495946 0.7 0.3 0.7 0.3 0.544351064719621 0.4556489352803791 0.7670546629035451 0.2329453370964549 0.7349684097472448 0.2650315902527551 0.7 0.3 0.7 0.3 0.5629888703020333 0.4370111296979667 0.7 0.3 0.7 0.3 0.7062697263014602 0.2937302736985398 0.7 0.3 0.6895485690060015 0.3104514309939986 0.7 0.3 0.7 0.3 0.7 0.3 0.7 0.3 0.6923400407632839 0.3076599592367161 0.7047644730814056 0.2952355269185944 0.7038562932144317 0.2961437067855682 0.7 0.3 0.7 0.3 0.6978974452015245 0.3021025547984755 0.7 0.3 0.7 0.3 0.700573062991568 0.2994269370084321 0.6816439219761017 0.3183560780238984 0.7442975494011301 0.2557024505988699 0.6993636959269582 0.3006363040730418 0.734638411340948 0.265361588659052 0.7 0.3 0.7153367683546957 0.2846632316453043 0.7 0.3 0.7 0.3 0.7161763205893816 0.2838236794106184 0.7 0.3 0.7 0.3 0.7 0.3 0.7 0.3 0.7 0.3 0.736353161154551 0.2636468388454491 0.6132268357951834 0.3867731642048166 0.7428636254630704 0.2571363745369296 0.6911043606730062 0.3088956393269938 0.8192201101316621 0.1807798898683379 0.7 0.3 0.7365597824151449 0.2634402175848551 0.7 0.3 0.794337926362382 0.2056620736376182 0.7271609766077056 0.2728390233922943 0.7 0.3 0.7 0.3 0.7 0.3 0.7 0.3 0.7 0.3 0.5301324964345571 0.4698675035654428 0.6554271167289991 0.3445728832710009 0.8360421675900663 0.1639578324099336 0.6685834243993412 0.3314165756006588 0.7575492268653258 0.2424507731346742 0.7 0.3 0.7226847826764862 0.2773152173235138 0.8243465126288271 0.175653487371173 0.4685125674423751 0.531487432557625 0.8156376241191472 0.1843623758808529 0.7 0.3 0.7 0.3 0.7038815080888189 0.2961184919111812 0.7 0.3 0.7 0.3 0.7056871013269373 0.2943128986730626 0.7820958828044809 0.2179041171955191 0.7563003702470292 0.2436996297529706 0.9245637424655392 0.07543625753446079 0.8843630449089526 0.1156369550910475 0.7126055543582542 0.2873944456417458 0.7446037115415587 0.2553962884584414 0.7322716335384698 0.2677283664615303 0.8061057967210875 0.1938942032789127 0.7665557607368629 0.233444239263137 0.7 0.3 0.7 0.3 0.7 0.3 0.7 0.3 0.7 0.3 0.7003838821393923 0.2996161178606077 0.6980322937659066 0.3019677062340935 0.7013390556252899 0.2986609443747101 0.699492047358887 0.3005079526411129 0.701248499678257 0.2987515003217431 0.7 0.3 0.7008384565455954 0.2991615434544047 0.7 0.3 0.7 0.3 0.7008523421172866 0.2991476578827134 0.7 0.3 0.7 0.3 0.7 0.3 0.7 0.3 0.7 0.3 0.7 0.3 0.7 0.3 0.7 0.3 0.7 0.3 0.7 0.3 0.7 0.3 0.7 0.3 0.7 0.3 0.7 0.3 0.7 0.3 0.7 0.3 0.7 0.3 0.7 0.3 0.7 0.3 0.7 0.3 0.7 0.3 0.7 0.3 0.7 0.3 0.7 0.3 0.7 0.3 0.7 0.3 0.7 0.3 0.7 0.3 0.7 0.3 0.7 0.3 0.7 0.3 0.7 0.3 0.7 0.3 0.7 0.3 0.7 0.3 0.7 0.3 0.7 0.3 0.7 0.3 0.7 0.3 0.7 0.3 0.7 0.3 0.7 0.3 0.7 0.3 0.7 0.3 0.7 0.3 0.7 0.3 0.7 0.3 0.7 0.3 0.7 0.3 0.7 0.3 0.7 0.3 0.7 0.3 0.7 0.3 0.6238693552850209 0.3761306447149791 0.7 0.3 0.7 0.3 0.7 0.3 0.7 0.3 0.3440712908166312 0.6559287091833689 0.7 0.3 0.7 0.3 0.7 0.3 0.7 0.3 0.6679934989938728 0.3320065010061273 0.7 0.3 0.7 0.3 0.7 0.3 0.7 0.3 0.7 0.3 0.7 0.3 0.7 0.3 0.7 0.3 0.7 0.3 0.7 0.3 0.7 0.3 0.7 0.3 0.7 0.3 0.7 0.3 0.7 0.3 0.7 0.3 0.7 0.3 0.7 0.3 0.7 0.3 0.7 0.3 0.7 0.3 0.7 0.3 0.7 0.3 0.7 0.3 0.7 0.3 0.7 0.3 0.7 0.3 0.7 0.3 0.7 0.3 0.7 0.3 0.7 0.3 0.865921114271367 0.134078885728633 0.7 0.3 0.7 0.3 0.7 0.3 0.7 0.3 0.7 0.3 0.7 0.3 0.7 0.3 0.7 0.3 0.7 0.3 0.7 0.3 0.7 0.3 0.7 0.3 0.7 0.3 0.7 0.3 0.7 0.3 0.7 0.3 0.7 0.3 0.7 0.3 0.7 0.3 0.7 0.3 0.7 0.3 0.7 0.3 0.7 0.3 0.7 0.3 0.7 0.3 0.7 0.3 0.7 0.3 0.7 0.3 0.7 0.3 0.7 0.3 0.7 0.3 0.7 0.3 0.4685125674423751 0.531487432557625 0.7 0.3 0.7 0.3 0.7 0.3 0.7 0.3 0.7 0.3 0.7 0.3 0.7 0.3 0.7 0.3 0.7 0.3 0.7 0.3 0.7 0.3 0.7 0.3 0.7 0.3 0.7 0.3 0.7 0.3 0.7 0.3 0.7 0.3 0.7 0.3 0.7 0.3 0.7 0.3 0.7 0.3 0.7 0.3 0.7 0.3 0.7 0.3 0.7 0.3 0.7 0.3 0.7 0.3 0.7 0.3 0.7 0.3 0.7 0.3 0.7 0.3 0.7 0.3 0.7 0.3 0.7 0.3 0.7 0.3 0.7 0.3 0.7 0.3 0.7 0.3 0.7 0.3 0.7 0.3 0.7 0.3 0.7 0.3 0.7 0.3 0.7 0.3 0.7 0.3 0.7 0.3 0.7 0.3 0.7 0.3 0.7 0.3 0.7 0.3 0.7 0.3 0.7 0.3 0.7 0.3 0.7 0.3 0.7 0.3 0.7 0.3 0.7 0.3 0.7 0.3 0.7 0.3 0.7 0.3 0.7 0.3 0.7 0.3 0.7 0.3 0.7 0.3 0.7 0.3 0.7 0.3 0.7 0.3 0.7 0.3 0.7 0.3 0.7 0.3 0.7 0.3 0.7 0.3 0.7 0.3 0.7 0.3 0.7 0.3 0.7 0.3 0.7 0.3 0.7 0.3 0.7 0.3 0.7 0.3 0.7 0.3 0.7 0.3 0.7 0.3 0.7 0.3 0.7 0.3 0.7 0.3 0.7 0.3 0.7 0.3 0.7 0.3 0.7 0.3 0.7 0.3 0.7 0.3 0.7 0.3 0.7 0.3 0.7 0.3 0.7 0.3 0.7 0.3 0.7 0.3 0.7 0.3 0.7 0.3 0.7 0.3 0.7 0.3 0.7 0.3 0.7 0.3 0.7 0.3 0.7 0.3 0.7 0.3 0.7 0.3 0.7 0.3 0.7 0.3 0.7 0.3 0.7 0.3 0.7 0.3 0.7 0.3 0.7 0.3 0.7 0.3 0.7 0.3 0.7 0.3 0.7 0.3 0.7 0.3 0.7 0.3 0.7 0.3 0.7 0.3 0.7 0.3 0.7 0.3 0.7 0.3 0.7 0.3 0.7 0.3 0.7 0.3 0.7 0.3 0.7 0.3 0.7 0.3 0.7 0.3 0.7 0.3 0.7855896017421937 0.2144103982578064 0.7 0.3 0.7 0.3 0.7 0.3 0.7 0.3 0.7 0.3 0.7 0.3 0.7 0.3 0.7 0.3 0.7 0.3 0.7 0.3 0.7 0.3 0.7 0.3 0.7 0.3 0.7 0.3 0.7 0.3 0.7 0.3 0.7 0.3 0.7 0.3 0.7 0.3 0.7 0.3 0.7 0.3 0.7 0.3 0.7 0.3 0.7 0.3 0.7 0.3 0.7 0.3 0.7 0.3 0.7 0.3 0.7 0.3 0.7 0.3 0.7 0.3 0.7 0.3 0.7 0.3 0.7 0.3 0.7 0.3 0.7 0.3 0.7 0.3 0.7 0.3 0.7 0.3 0.7 0.3 0.7 0.3 0.7 0.3 0.7289172756785505 0.2710827243214495 0.7437949892810374 0.2562050107189626 0.6533020027155105 0.3466979972844895 0.7227735734131736 0.2772264265868265 0.7 0.3 0.7 0.3 0.7 0.3 0.7122658880969077 0.2877341119030924 0.7 0.3 0.7 0.3 0.7 0.3 0.7 0.3 0.7010019450939354 0.2989980549060646 0.7 0.3 0.7 0.3 0.7034770926945114 0.2965229073054886 0.7733359220314648 0.2266640779685352 0.3684142864711599 0.6315857135288401 0.7320376440257119 0.2679623559742881 0.7 0.3 0.7 0.3 0.7 0.3 0.816968910227485 0.183031089772515 0.7 0.3 0.7 0.3 0.7 0.3 0.7 0.3 0.7203761949041388 0.2796238050958611 0.7 0.3 0.7 0.3 0.7426537799654619 0.2573462200345381 0.7701406665936255 0.2298593334063745 0.3455293820455415 0.6544706179544585 0.7966563480626736 0.2033436519373266 0.7 0.3 0.7 0.3 0.7 0.3 0.7847184765989811 0.2152815234010189 0.7 0.3 0.7 0.3 0.7 0.3 0.7 0.3 0.7783290972019888 0.2216709027980114 0.7 0.3 0.7 0.3 0.7501514459795205 0.2498485540204796 0.5020931237945863 0.4979068762054137 0.590022793492181 0.409977206507819 0.5858995789867389 0.414100421013261 0.7 0.3 0.7 0.3 0.7 0.3 0.7297191745803238 0.2702808254196763 0.7 0.3 0.7 0.3 0.7 0.3 0.7 0.3 0.7193013777632026 0.2806986222367975 0.7 0.3 0.7 0.3 0.7033312557558007 0.2966687442441994 0.7072613302108668 0.2927386697891332 0.6969321402455276 0.3030678597544724 0.7020352797536705 0.2979647202463295 0.7 0.3 0.7 0.3 0.7 0.3 0.7008737698865097 0.2991262301134903 0.7 0.3 0.7 0.3 0.7 0.3 0.7 0.3 0.7000664803116411 0.2999335196883589 0.7 0.3 0.7 0.3 0.7 0.3 0.7 0.3 0.7 0.3 0.7 0.3 0.7 0.3 0.7017126402200223 0.2982873597799777 0.7 0.3 0.6956386148380647 0.3043613851619353 0.7 0.3 0.7 0.3 0.7 0.3 0.7 0.3 0.7 0.3 0.7 0.3 0.7 0.3 0.7 0.3 0.7 0.3 0.7 0.3 0.7 0.3 0.7 0.3 0.7420576838292405 0.2579423161707595 0.7 0.3 0.67576393731492 0.32423606268508 0.7 0.3 0.7 0.3 0.7 0.3 0.7 0.3 0.7 0.3 0.7 0.3 0.7 0.3 0.7 0.3 0.7 0.3 0.7 0.3 0.7990524558153459 0.2009475441846542 0.7 0.3 0.755769620458559 0.244230379541441 0.7 0.3 0.5472156347698143 0.4527843652301858 0.7 0.3 0.7 0.3 0.7 0.3 0.7 0.3 0.7 0.3 0.7 0.3 0.5361311608980482 0.4638688391019517 0.474176386322035 0.5258236136779649 0.7 0.3 0.2466375424622485 0.7533624575377514 0.7 0.3 0.7616237018294509 0.238376298170549 0.7201056543960982 0.2798943456039018 0.7901089597623858 0.209891040237614 0.8339914554145637 0.1660085445854364 0.7 0.3 0.7032405630468211 0.2967594369531788 0.7 0.3 0.7 0.3 0.7999951455311188 0.2000048544688811 0.7 0.3 0.7 0.3 0.7 0.3 0.7 0.3 0.7 0.3 0.7 0.3 0.7 0.3 0.7015389603213447 0.2984610396786553 0.7 0.3 0.6961860878925373 0.3038139121074626 0.7 0.3 0.7 0.3 0.7 0.3 0.7 0.3 0.7 0.3 0.7 0.3 0.7 0.3 0.7 0.3 0.7 0.3 0.7 0.3 0.7 0.3 0.7 0.3 0.7183610224953476 0.2816389775046524 0.7 0.3 0.7 0.3 0.7 0.3 0.7 0.3 0.7 0.3 0.7 0.3 0.7 0.3 0.7 0.3 0.7 0.3 0.7 0.3 0.7 0.3 0.7 0.3 0.7 0.3 0.7 0.3 0.7272064663656758 0.2727935336343242 0.7 0.3 0.7 0.3 0.7 0.3 0.7 0.3 0.7 0.3 0.7 0.3 0.7 0.3 0.7 0.3 0.7 0.3 0.7 0.3 0.7 0.3 0.7 0.3 0.7 0.3 0.7 0.3 0.7624387439318602 0.2375612560681398 0.7 0.3 0.7 0.3 0.7 0.3 0.7 0.3 0.7 0.3 0.7 0.3 0.7 0.3 0.7 0.3 0.7 0.3 0.7 0.3 0.7 0.3 0.7 0.3 0.7 0.3 0.7 0.3 0.7624387439318602 0.2375612560681398 0.7 0.3 0.7 0.3 0.7 0.3 0.7 0.3 0.7 0.3 0.7 0.3 0.7 0.3 0.7 0.3 0.7 0.3 0.7 0.3 0.7 0.3 0.7 0.3 0.7 0.3 0.7 0.3 0.7183610224953476 0.2816389775046524 0.7 0.3 0.7 0.3 0.7 0.3 0.7 0.3 0.7 0.3 0.7 0.3 0.7 0.3 0.7 0.3 0.7 0.3 0.7 0.3 0.7 0.3 0.7 0.3 0.7 0.3 0.7044910986649061 0.2955089013350939 0.7 0.3 0.7 0.3 0.7 0.3 0.7 0.3 0.7 0.3 0.7 0.3 0.7 0.3 0.7 0.3 0.7 0.3 0.7 0.3 0.7 0.3 0.7 0.3 0.7 0.3 0.7 0.3 0.7461470088819185 0.2538529911180814 0.7 0.3 0.7 0.3 0.7 0.3 0.7 0.3 0.7 0.3 0.7 0.3 0.7 0.3 0.7 0.3 0.7 0.3 0.7 0.3 0.7995167805401628 0.2004832194598374 0.7 0.3 0.7 0.3 0.7 0.3 0.4953911494809213 0.5046088505190787 0.7 0.3 0.7984084237699109 0.2015915762300891 0.7 0.3 0.7 0.3 0.7 0.3 0.7 0.3 0.7 0.3 0.7 0.3 0.7 0.3 0.7 0.3 0.7 0.3 0.7 0.3 0.7 0.3 0.7 0.3 0.7593927321442552 0.2406072678557448 0.7 0.3 0.7 0.3 0.7 0.3 0.7 0.3 0.7 0.3 0.7 0.3 0.7 0.3 0.7 0.3 0.7 0.3 0.7 0.3 0.7 0.3 0.7 0.3 0.7 0.3 0.7 0.3 0.7044910986649061 0.2955089013350939 0.7 0.3 0.7 0.3 0.7 0.3 0.7 0.3 0.7 0.3 0.7 0.3 0.7 0.3 0.7 0.3 0.7 0.3 0.7 0.3 0.6676741007530815 0.3323258992469184 0.5345316502886532 0.4654683497113468 0.7006494502984433 0.2993505497015568 0.5698996366116511 0.4301003633883489 0.7011441225223032 0.2988558774776969 0.7 0.3 0.5801014547289718 0.4198985452710283 0.7 0.3 0.7334475881127605 0.2665524118872395 0.7 0.3 0.7 0.3 0.6906632603271793 0.3093367396728208 0.7 0.3 0.7 0.3 0.8380998598330935 0.1619001401669065 0.6135468010642107 0.3864531989357894 0.8845390124273079 0.115460987572692 0.7259407723202908 0.2740592276797093 0.6200967398518188 0.3799032601481813 0.8146523687739918 0.1853476312260083 0.7894341909766103 0.2105658090233897 0.6533480219529259 0.3466519780470742 0.7 0.3 0.7545237689588608 0.2454762310411392 0.7 0.3 0.7 0.3 0.6966224680775945 0.3033775319224055 0.7 0.3 0.7 0.3 0.372390577358432 0.6276094226415679 0.7702634503564575 0.2297365496435425 0.5008217421634807 0.4991782578365193 0.8181556267963032 0.1818443732036969 0.5143125871573777 0.4856874128426223 0.8527609031545355 0.1472390968454646 0.7265638043468825 0.2734361956531175 0.8037714648239234 0.1962285351760766 0.8369553790101302 0.1630446209898699 0.7777010435746048 0.2222989564253952 0.7 0.3 0.7 0.3 0.6890311058271585 0.3109688941728416 0.7 0.3 0.7 0.3 0.7 0.3 0.8941002053635652 0.105899794636435 0.6254340157691949 0.3745659842308052 0.8036492097385231 0.1963507902614769 0.2076184140184924 0.7923815859815077 0.7114947964298669 0.2885052035701331 0.7 0.3 0.6131014437622274 0.3868985562377726 0.5091138409271388 0.4908861590728612 0.890618848085147 0.109381151914853 0.7 0.3 0.7 0.3 0.693526657486934 0.3064733425130661 0.7 0.3 0.7999967673396879 0.2000032326603123 0.7 0.3 0.6983712921480758 0.3016287078519242 0.6984440616694977 0.3015559383305023 0.7005146360487066 0.2994853639512935 0.6978878458029923 0.3021121541970077 0.7007880498787872 0.2992119501212128 0.7 0.3 0.6987663356243681 0.301233664375632 0.7 0.3 0.701828385553261 0.298171614446739 0.7 0.3 0.7 0.3 0.699905855958791 0.300094144041209 0.7 0.3 0.7 0.3 0.7 0.3 0.7 0.3 0.7 0.3 0.7 0.3 0.7 0.3 0.7 0.3 0.7 0.3 0.7 0.3 0.7 0.3 0.7 0.3 0.7 0.3 0.7 0.3 0.7 0.3 0.7 0.3 0.7 0.3 0.7 0.3 0.7 0.3 0.7 0.3 0.7 0.3 0.7 0.3 0.7 0.3 0.7 0.3 0.7 0.3 0.7 0.3 0.7 0.3 0.7 0.3 0.7 0.3 0.7 0.3 0.7 0.3 0.7 0.3 0.7 0.3 0.7 0.3 0.7 0.3 0.7 0.3 0.7 0.3 0.7 0.3 0.7 0.3 0.7 0.3 0.7 0.3 0.7 0.3 0.7 0.3 0.7 0.3 0.7 0.3 0.7 0.3 0.7 0.3 0.7 0.3 0.7 0.3 0.7 0.3 0.7 0.3 0.7 0.3 0.7 0.3 0.7 0.3 0.7 0.3 0.7 0.3 0.7 0.3 0.7 0.3 0.7 0.3 0.7 0.3 0.7 0.3 0.7 0.3 0.7 0.3 0.7 0.3 0.7 0.3 0.7 0.3 0.7 0.3 0.7 0.3 0.7 0.3 0.7 0.3 0.7 0.3 0.7 0.3 0.7 0.3 0.7 0.3 0.7 0.3 0.7 0.3 0.7 0.3 0.7 0.3 0.7 0.3 0.7 0.3 0.7 0.3 0.7 0.3 0.7 0.3 0.7 0.3 0.7 0.3 0.7 0.3 0.7 0.3 0.7 0.3 0.7 0.3 0.7 0.3 0.7 0.3 0.7 0.3 0.7 0.3 0.7 0.3 0.7 0.3 0.7 0.3 0.7 0.3 0.7 0.3 0.7 0.3 0.7 0.3 0.7 0.3 0.7 0.3 0.7 0.3 0.7 0.3 0.7 0.3 0.7 0.3 0.7 0.3 0.7 0.3 0.7 0.3 0.7 0.3 0.7 0.3 0.7 0.3 0.7 0.3 0.7 0.3 0.7 0.3 0.7 0.3 0.7 0.3 0.7 0.3 0.7 0.3 0.7 0.3 0.7 0.3 0.7 0.3 0.7 0.3 0.7 0.3 0.7 0.3 0.7 0.3 0.7 0.3 0.7 0.3 0.7 0.3 0.7 0.3 0.7 0.3 0.7 0.3 0.7 0.3 0.7 0.3 0.7 0.3 0.7 0.3 0.7 0.3 0.7 0.3 0.7 0.3 0.7 0.3 0.7 0.3 0.7 0.3 0.7 0.3 0.7 0.3 0.7 0.3 0.7 0.3 0.7 0.3 0.7 0.3 0.7 0.3 0.7 0.3 0.7 0.3 0.7 0.3 0.7 0.3 0.7 0.3 0.7 0.3 0.7 0.3 0.7 0.3 0.7 0.3 0.7 0.3 0.7 0.3 0.7 0.3 0.7 0.3 0.7 0.3 0.7 0.3 0.7 0.3 0.7 0.3 0.7 0.3 0.7 0.3 0.7 0.3 0.7 0.3 0.7 0.3 0.7 0.3 0.7 0.3 0.7 0.3 0.7 0.3 0.7 0.3 0.7 0.3 0.7 0.3 0.7 0.3 0.7 0.3 0.7 0.3 0.7 0.3 0.7 0.3 0.7 0.3 0.7 0.3 0.7 0.3 0.7 0.3 0.7 0.3 0.7 0.3 0.7 0.3 0.7 0.3 0.7 0.3 0.7 0.3 0.7 0.3 0.7 0.3 0.7 0.3 0.7 0.3 0.7 0.3 0.7 0.3 0.7 0.3 0.7 0.3 0.7 0.3 0.7 0.3 0.7 0.3 0.7 0.3 0.7 0.3 0.7 0.3 0.7 0.3 0.7 0.3 0.7 0.3 0.7 0.3 0.7 0.3 0.7 0.3 0.7 0.3 0.7 0.3 0.7 0.3 0.7 0.3 0.7 0.3 0.7 0.3 0.7 0.3 0.7 0.3 0.7 0.3 0.7 0.3 0.7 0.3 0.7 0.3 0.7 0.3 0.7 0.3 0.7 0.3 0.7 0.3 0.7 0.3 0.7 0.3 0.7 0.3 0.7 0.3 0.5069647775575943 0.4930352224424057 0.7 0.3 0.7 0.3 0.7 0.3 0.7 0.3 0.6549043553519848 0.3450956446480152 0.7 0.3 0.7 0.3 0.7 0.3 0.7 0.3 0.7 0.3 0.7 0.3 0.7 0.3 0.7 0.3 0.7 0.3 0.6538290885501326 0.3461709114498674 0.7 0.3 0.7 0.3 0.7 0.3 0.7 0.3 0.68934475079541 0.3106552492045899 0.7 0.3 0.7 0.3 0.7 0.3 0.7 0.3 0.7 0.3 0.7 0.3 0.7 0.3 0.7 0.3 0.7 0.3 0.6456421865912843 0.3543578134087157 0.7 0.3 0.7 0.3 0.7 0.3 0.7 0.3 0.687486516142482 0.312513483857518 0.7 0.3 0.7 0.3 0.7 0.3 0.7 0.3 0.7 0.3 0.7 0.3 0.7 0.3 0.7 0.3 0.7 0.3 0.6538290885501326 0.3461709114498674 0.7 0.3 0.7 0.3 0.7 0.3 0.7 0.3 0.68934475079541 0.3106552492045899 0.7 0.3 0.7 0.3 0.7 0.3 0.7 0.3 0.7 0.3 0.7 0.3 0.7 0.3 0.7 0.3 0.7 0.3 0.6538290885501326 0.3461709114498674 0.7 0.3 0.7 0.3 0.7 0.3 0.7 0.3 0.68934475079541 0.3106552492045899 0.7 0.3 0.7 0.3 0.7 0.3 0.7 0.3 0.7 0.3 0.7 0.3 0.7 0.3 0.7 0.3 0.7 0.3 0.7 0.3 0.7 0.3 0.7 0.3 0.7 0.3 0.7 0.3 0.7 0.3 0.7 0.3 0.7 0.3 0.7 0.3 0.7 0.3 0.7 0.3 0.7 0.3 0.7 0.3 0.7 0.3 0.7 0.3 0.7 0.3 0.7 0.3 0.7 0.3 0.7 0.3 0.7 0.3 0.7 0.3 0.7 0.3 0.7 0.3 0.7 0.3 0.7 0.3 0.7 0.3 0.7 0.3 0.2129072535341809 0.7870927464658191 0.7 0.3 0.7 0.3 0.7 0.3 0.4680194125067118 0.5319805874932881 0.7 0.3 0.7 0.3 0.7 0.3 0.7 0.3 0.7 0.3 0.7 0.3 0.7 0.3 0.7 0.3 0.7 0.3 0.7 0.3 0.7 0.3 0.7 0.3 0.7 0.3 0.7 0.3 0.7 0.3 0.7 0.3 0.7 0.3 0.7 0.3 0.7 0.3 0.7 0.3 0.7 0.3 0.7 0.3 0.7 0.3 0.7 0.3 0.7 0.3 0.7 0.3 0.7 0.3 0.7 0.3 0.7 0.3 0.7 0.3 0.7 0.3 0.7 0.3 0.7 0.3 0.7 0.3 0.7 0.3 0.7 0.3 0.7 0.3 0.7 0.3 0.7 0.3 0.7 0.3 0.7 0.3 0.7 0.3 0.7 0.3 0.7 0.3 0.7 0.3 0.7 0.3 0.7 0.3 0.7 0.3 0.7 0.3 0.7 0.3 0.7 0.3 0.7 0.3 0.7 0.3 0.7 0.3 0.7 0.3 0.7 0.3 0.7 0.3 0.7 0.3 0.7 0.3 0.7 0.3 0.7 0.3 0.7 0.3 0.7 0.3 0.7 0.3 0.7 0.3 0.7 0.3 0.7 0.3 0.7 0.3 0.7897577489107453 0.2102422510892547 0.7984084237699109 0.2015915762300891 0.7 0.3 0.7 0.3 0.7 0.3 0.7 0.3 0.7 0.3 0.8483063181157643 0.1516936818842357 0.7 0.3 0.7 0.3 0.7 0.3 0.7 0.3 0.7 0.3 0.7 0.3 0.7 0.3 0.7997466437523419 0.2002533562476582 0.7 0.3 0.7 0.3 0.7 0.3 0.7 0.3 0.7 0.3 0.7 0.3 0.7 0.3 0.7 0.3 0.7 0.3 0.7 0.3 0.7 0.3 0.7 0.3 0.7 0.3 0.7 0.3 0.7 0.3 0.7 0.3 0.7 0.3 0.7 0.3 0.7 0.3 0.7 0.3 0.7 0.3 0.7 0.3 0.7 0.3 0.7 0.3 0.7 0.3 0.7 0.3 0.7 0.3 0.7 0.3 0.7 0.3 0.7 0.3 0.7 0.3 0.7 0.3 0.7 0.3 0.7 0.3 0.7 0.3 0.7 0.3 0.7 0.3 0.7 0.3 0.7 0.3 0.7 0.3 0.7 0.3 0.7 0.3 0.7 0.3 0.7 0.3 0.7 0.3 0.7 0.3 0.7 0.3 0.7 0.3 0.7 0.3 0.7 0.3 0.7 0.3 0.7 0.3 0.7 0.3 0.7 0.3 0.7 0.3 0.7 0.3 0.7 0.3 0.7 0.3 0.7 0.3 0.7 0.3 0.7 0.3 0.7 0.3 0.7 0.3 0.7 0.3 0.7 0.3 0.7 0.3 0.7 0.3 0.7 0.3 0.7 0.3 0.7 0.3 0.7 0.3 0.7 0.3 0.7 0.3 0.7 0.3 0.7 0.3 0.7 0.3 0.7 0.3 0.7 0.3 0.7 0.3 0.7 0.3 0.7 0.3 0.7 0.3 0.7 0.3 0.7 0.3 0.7 0.3 0.7 0.3 0.7 0.3 0.7 0.3 0.7 0.3 0.7 0.3 0.7 0.3 0.7 0.3 0.7 0.3 0.7 0.3 0.7 0.3 0.7 0.3 0.7 0.3 0.7 0.3 0.7 0.3 0.7 0.3 0.7 0.3 0.7 0.3 0.7 0.3 0.7 0.3 0.7 0.3 0.7 0.3 0.7 0.3 0.7 0.3 0.7 0.3 0.7 0.3 0.7 0.3 0.7 0.3 0.7 0.3 0.7 0.3 0.7 0.3 0.7 0.3 0.7 0.3 0.7 0.3 0.7 0.3 0.7 0.3 0.7 0.3 0.7 0.3 0.7 0.3 0.7 0.3 0.7 0.3 0.7 0.3 0.7 0.3 0.7 0.3 0.7 0.3 0.7 0.3 0.7 0.3 0.7 0.3 0.7 0.3 0.7 0.3 0.7 0.3 0.7 0.3 0.7 0.3 0.7 0.3 0.7 0.3 0.7 0.3 0.7 0.3 0.7 0.3 0.7 0.3 0.7 0.3 0.7 0.3 0.7 0.3 0.7 0.3 0.7 0.3 0.7978552220144591 0.2021447779855411 0.7 0.3 0.7 0.3 0.7 0.3 0.7 0.3 0.7855896017421937 0.2144103982578064 0.7 0.3 0.7 0.3 0.7 0.3 0.7 0.3 0.7 0.3 0.7 0.3 0.7 