<?xml version="1.0" encoding="UTF-8"?>
<!-- This network was created in GeNIe Academic, which can be used for academic teaching and research purposes only -->
<smile version="1.0" id="Network1" numsamples="10000" discsamples="10000">
	<nodes>
		<cpt id="Age">
			<state id="Age_12" />
			<state id="Age_13" />
			<state id="Age_14" />
			<state id="Age_15" />
			<state id="Age_16" />
			<probabilities>0.2 0.2 0.2 0.2 0.2</probabilities>
			<property id="DSL_OUTCOME_ORDER">1</property>
		</cpt>
		<cpt id="Gender">
			<state id="Male" />
			<state id="Female" />
			<state id="NonBinary" />
			<probabilities>0.48 0.48 0.04</probabilities>
		</cpt>
		<cpt id="Family_Support">
			<state id="State0" />
			<state id="State1" />
			<state id="State2" />
			<parents>Gender Age</parents>
			<probabilities>0.06679549400113756 0.02776488130156247 0.9054396246973 0.0001856935067768903 0.06982355477409914 0.9299907517191239 0.06225224208583743 0.2552473170372836 0.6825004408768789 0.07141097830442354 0.1591127301404131 0.7694762915551634 0.02294450893957789 0.1647378580531888 0.8123176330072333 0.2597153518395725 0.2933226780772787 0.4469619700831488 0.1751962317093298 0.3181465275801063 0.5066572407105638 0.01768539269235181 0.3411960150945399 0.6411185922131082 0.3460579693901455 0.1458145002855735 0.508127530324281 0.5425471460400386 0.220929853692094 0.2365230002678674 0.2062238117360581 0.09224587351601311 0.7015303147479288 0.1115067609167675 0.2028143921041428 0.6856788469790897 0.1914682479174842 0.1900836473754718 0.6184481047070438 0.1692020224748847 0.3158784643836659 0.5149195131414493 0.1131946596277961 0.2202613628306567 0.6665439775415472</probabilities>
			<property id="DSL_OUTCOME_ORDER">1</property>
		</cpt>
		<cpt id="Social_Support">
			<state id="State0" />
			<state id="State1" />
			<state id="State2" />
			<probabilities>0.04646329203580261 0.2440105932531862 0.7095261147110111</probabilities>
			<property id="DSL_OUTCOME_ORDER">1</property>
		</cpt>
		<cpt id="Hours_Internet">
			<state id="State0" />
			<state id="State1" />
			<state id="State2" />
			<state id="State3" />
			<state id="State4" />
			<parents>Family_Support Social_Support Age</parents>
			<probabilities>0.7665927788887625 0.1581235471493732 0.02509455798728807 0.02509455798728807 0.02509455798728807 0.4666666666666666 0.1333333333333334 0.1333333333333334 0.1333333333333334 0.1333333333333334 0.2 0.2 0.2 0.2 0.2 0.02222222222222222 0.07777777777777774 0.4666666666666667 0.4111111111111111 0.02222222222222222 0.484988968940135 0.05349825352781926 0.130556803774879 0.3221360993932491 0.008819874363917526 0.03925037317264402 0.3685477566595139 0.05188865668191123 0.501062840313287 0.03925037317264402 0.5141542793570337 0.1152852365725204 0.1399900109254052 0.1152852365725204 0.1152852365725204 0.1096596082185361 0.1096596082185361 0.1359265125808249 0.5350946627635667 0.1096596082185361 0.05858782464389398 0.05858782464389398 0.765648701424424 0.05858782464389398 0.05858782464389398 0.04602063523222649 0.04602063523222649 0.1045314593662308 0.4083568708831874 0.3950703992861287 0.2529455146959918 0.07008865695517286 0.5739943513239983 0.05148573851241844 0.05148573851241844 0.06050553364373391 0.09791103734823509 0.720572361720563 0.06050553364373391 0.06050553364373391 0.06560607609328757 0.07933373200330193 0.06560607609328757 0.7238480397168352 0.06560607609328757 0.3714303532232361 0.06078648718471964 0.4825414643343473 0.04262084762884844 0.04262084762884844 0.1685647651844481 0.3257409392622077 0.1685647651844481 0.1685647651844481 0.1685647651844481 0.5715735442426424 0.1071066139393394 0.1071066139393394 0.1071066139393394 0.1071066139393394 0.893828367077337 0.05729700346267794 0.01629154315332835 0.01629154315332835 0.01629154315332835 0.08888888888888892 0.08888888888888892 0.08888888888888892 0.6444444444444444 0.08888888888888892 0.08000000000000002 0.08000000000000002 0.48 0.2800000000000001 0.08000000000000002 0.2 0.2 0.2 0.2 0.2 0.2108985047314823 0.3208175584803527 0.4432621687000597 0.01251088404405265 0.01251088404405265 0.4219758148187114 0.005651947267449045 0.444911204943861 0.1221442539576488 0.00531677901232978 0.01672969625185615 0.5089248914825902 0.4414456299782055 0.02817176387054752 0.004728018416800555 0.1730802397136405 0.05174494845984975 0.3800143525426723 0.394209634059447 0.0009508252243902624 0.2116559116011411 0.610488979463339 0.05003945856218547 0.1251947141899005 0.002620936183433734 0.01427617684725639 0.4676731293544983 0.05178835813486142 0.4519861588161275 0.01427617684725639 0.03895132710130531 0.03895132710130531 0.6382438592671194 0.2449021594289646 0.03895132710130531 0.008398214760069954 0.008398214760069954 0.3627024360009501 0.6121029197188399 0.008398214760069954 0.01021904749439971 0.03642035183069189 0.04221945199265302 0.9009221011878558 0.01021904749439971 0.0124387561515534 0.2779474911316699 0.5833758179329306 0.1137991786322928 0.0124387561515534 0.5202485299986508 0.07380791846174604 0.2583277146161111 0.07380791846174604 0.07380791846174604 0.2274120653620186 0.1188596822519971 0.41600888788199 0.1188596822519971 0.1188596822519971 0.1276104467802877 0.3500626565203434 0.08613212008951274 0.3500626565203434 0.08613212008951274 0.488391611242618 0.1279020971893456 0.1279020971893456 0.1279020971893456 0.1279020971893456 0.02319340419803936 0.2460333137951948 0.3977920693697506 0.3145632174421528 0.01841799519486246 0.004771259143796535 0.1273892788526679 0.7108228493195069 0.153563716858115 0.003452895825913752 0.002726817235338369 0.27262228081072 0.6882008382086543 0.03415562045244402 0.002294443292843319 0.02317477563425175 0.1525384243985239 0.05416887683789887 0.7549965286927632 0.01512139443656234 0.002404895171079036 0.01155390707403644 0.2044753562734977 0.7796767726291268 0.00188906885225996 0.01957914296334008 0.3150608828361725 0.4473792347197472 0.2137088323069536 0.004271907173786713 0.0005919530602762378 0.4364768002742437 0.4495765433946335 0.1132445916242709 0.0001101116465756549 0.08803953380399615 0.6090771831599517 0.227250707175748 0.07547783724051112 0.0001547386197929332 0.05620071657685571 0.3455932053660121 0.1392155562511376 0.4586716935580383 0.0003188282479563457 0.0002263306162497266 0.2738995297381535 0.5036059666900987 0.2221021865840466 0.0001659863714515273 0.1728918422192198 0.2796124823458707 0.03033752508346589 0.51691805841335 0.0002400919380937143</probabilities>
			<property id="DSL_OUTCOME_ORDER">1</property>
		</cpt>
		<cpt id="CB_Offending">
			<state id="State0" />
			<state id="State1" />
			<parents>Social_Support Family_Support Hours_Internet Gender Age</parents>
			<probabilities>0.6665658801413283 0.3334341198586716 0.9 0.1 0.9 0.1 0.9 0.1 0.7424111702236892 0.2575888297763108 0.9333333333333332 0.06666666666666667 0.9333333333333332 0.06666666666666667 0.9090909090909091 0.09090909090909091 0.9 0.1 0.926712155150559 0.07328784484944093 0.9109911084951381 0.08900889150486185 0.9 0.1 0.8181818181818181 0.1818181818181818 0.9 0.1 0.6125591010172342 0.3874408989827659 0.9182413334302139 0.08175866656978614 0.9 0.1 0.9 0.1 0.9 0.1 0.9366708048611037 0.06332919513889644 0.95 0.05 0.9 0.1 0.9090909090909091 0.09090909090909091 0.9333333333333332 0.06666666666666667 0.9137732177615642 0.08622678223843593 0.9 0.1 0.9 0.1 0.8181818181818181 0.1818181818181818 0.9 0.1 0.9072574788920619 0.09274252110793811 0.9025199586815321 0.09748004131846781 0.9 0.1 0.9 0.1 0.7333333333333334 0.2666666666666667 0.9043905909777323 0.09560940902226767 0.9 0.1 0.9 0.1 0.9090909090909091 0.09090909090909091 0.6 0.4 0.8855919693925491 0.1144080306074509 0.9 0.1 0.9 0.1 0.8181818181818181 0.1818181818181818 0.9 0.1 0.7382785828351246 0.2617214171648754 0.9025199586815321 0.09748004131846781 0.9 0.1 0.9 0.1 0.8401140614495612 0.1598859385504387 0.7426550458506473 0.2573449541493526 0.9 0.1 0.9 0.1 0.9090909090909091 0.09090909090909091 0.8570578226780055 0.1429421773219946 0.4908839844870737 0.5091160155129263 0.9 0.1 0.9 0.1 0.8181818181818181 0.1818181818181818 0.8731527747233347 0.1268472252766654 0.9069157726421624 0.09308422735783756 0.9025199586815321 0.09748004131846781 0.9 0.1 0.9 0.1 0.9 0.1 0.9012952885441345 0.09870471145586544 0.9 0.1 0.9 0.1 0.9090909090909091 0.09090909090909091 0.9 0.1 0.9024458987170549 0.09755410128294517 0.9 0.1 0.9 0.1 0.8181818181818181 0.1818181818181818 0.9 0.1 0.9011952953459003 0.0988047046540997 0.7185872596785696 0.2814127403214304 0.6309526925991013 0.3690473074008987 0.9 0.1 0.9 0.1 0.9 0.1 0.9 0.1 0.4 0.6 0.9 0.1 0.9 0.1 0.8181818181818181 0.1818181818181818 0.9333333333333332 0.06666666666666667 0.9 0.1 0.9 0.1 0.9 0.1 0.9 0.1 0.8876141114785758 0.1123858885214243 0.9068475913389836 0.09315240866101636 0.9 0.1 0.9 0.1 0.9 0.1 0.9 0.1 0.6 0.4 0.9 0.1 0.9 0.1 0.8181818181818181 0.1818181818181818 0.9 0.1 0.9 0.1 0.9 0.1 0.9 0.1 0.9 0.1 0.8876141114785758 0.1123858885214243 0.9019546163526484 0.0980453836473516 0.9 0.1 0.9 0.1 0.9 0.1 0.9 0.1 0.9 0.1 0.9 0.1 0.9333333333333332 0.06666666666666667 0.8181818181818181 0.1818181818181818 0.9 0.1 0.9 0.1 0.9 0.1 0.6 0.4 0.9 0.1 0.8876141114785758 0.1123858885214243 0.9019546163526484 0.0980453836473516 0.7333333333333334 0.2666666666666667 0.6 0.4 0.9 0.1 0.9 0.1 0.9 0.1 0.9 0.1 0.9 0.1 0.8181818181818181 0.1818181818181818 0.9 0.1 0.9 0.1 0.9 0.1 0.9 0.1 0.9 0.1 0.8876141114785758 0.1123858885214243 0.9019546163526484 0.0980453836473516 0.9 0.1 0.9 0.1 0.9 0.1 0.9 0.1 0.9 0.1 0.9 0.1 0.9 0.1 0.8181818181818181 0.1818181818181818 0.9 0.1 0.9 0.1 0.9 0.1 0.9 0.1 0.9 0.1 0.7591397078409218 0.2408602921590783 0.8544761089789904 0.1455238910210096 0.8874844714937693 0.1125155285062308 0.7775772236401042 0.2224227763598957 0.889856376475584 0.1101436235244159 0.9 0.1 0.9 0.1 0.8721962745617187 0.1278037254382813 0.690168832210069 0.3098311677899311 0.9 0.1 0.9 0.1 0.9 0.1 0.9 0.1 0.9 0.1 0.9 0.1 0.9 0.1 0.9 0.1 0.9333333333333332 0.06666666666666667 0.9 0.1 0.8822426853044121 0.1177573146955879 0.9 0.1 0.9 0.1 0.7437238850854934 0.2562761149145066 0.8579658405791332 0.1420341594208668 0.6222222222222221 0.3777777777777778 0.9 0.1 0.9 0.1 0.9 0.1 0.9 0.1 0.9 0.1 0.9333333333333332 0.06666666666666667 0.9333333333333332 0.06666666666666667 0.9 0.1 0.9 0.1 0.8622893669622832 0.1377106330377169 0.9 0.1 0.9 0.1 0.8789624209076194 0.1210375790923806 0.8579658405791332 0.1420341594208668 0.9333333333333332 0.06666666666666667 0.9 0.1 0.9 0.1 0.9 0.1 0.9 0.1 0.6 0.4 0.9 0.1 0.9 0.1 0.6 0.4 0.9 0.1 0.4977789670278462 0.5022210329721539 0.9 0.1 0.9 0.1 0.7437238850854934 0.2562761149145066 0.8579658405791332 0.1420341594208668 0.9 0.1 0.9 0.1 0.9 0.1 0.9 0.1 0.9 0.1 0.9 0.1 0.9 0.1 0.9 0.1 0.9 0.1 0.9 0.1 0.8918934081429329 0.108106591857067 0.9 0.1 0.9 0.1 0.8789624209076194 0.1210375790923806 0.8579658405791332 0.1420341594208668 0.9 0.1 0.9 0.1 0.9 0.1 0.9 0.1 0.9 0.1 0.9 0.1 0.8846909604475518 0.1153090395524482 0.9333333333333332 0.06666666666666667 0.9 0.1 0.8957912606308064 0.1042087393691937 0.9 0.1 0.9 0.1 0.7148230188090527 0.2851769811909473 0.8644904257730315 0.1355095742269685 0.9080900393110879 0.09190996068891213 0.904837287547923 0.09516271245207705 0.9 0.1 0.9 0.1 0.90443450795467 0.09556549204533012 0.8920867575762395 0.1079132424237606 0.9 0.1 0.8080526573109704 0.1919473426890297 0.9 0.1 0.9 0.1 0.8957912606308064 0.1042087393691937 0.9 0.1 0.6532954712831713 0.3467045287168286 0.8845680628218556 0.1154319371781444 0.8644904257730315 0.1355095742269685 0.9080900393110879 0.09190996068891213 0.904837287547923 0.09516271245207705 0.8851562917820992 0.1148437082179008 0.9 0.1 0.90443450795467 0.09556549204533012 0.8920867575762395 0.1079132424237606 0.9 0.1 0.8800341399033329 0.119965860096667 0.9 0.1 0.9 0.1 0.5643756647868109 0.4356243352131891 0.9 0.1 0.8964218167708339 0.103578183229166 0.8740919566442031 0.1259080433557968 0.8526870779752751 0.147312922024725 0.6398140874397813 0.3601859125602187 0.8927579481376365 0.1072420518623635 0.9047137433476133 0.0952862566523866 0.902584154127381 0.09741584587261887 0.909156653617292 0.09084334638270802 0.6262600444001692 0.3737399555998309 0.91504670524517 0.08495329475483002 0.7493413638646947 0.2506586361353052 0.9 0.1 0.9 0.1 0.8957912606308064 0.1042087393691937 0.9 0.1 0.6 0.4 0.8845680628218556 0.1154319371781444 0.7682391846772386 0.2317608153227615 0.9080900393110879 0.09190996068891213 0.6271524723950533 0.3728475276049466 0.9333333333333332 0.06666666666666667 0.9 0.1 0.9231911530133853 0.07680884698661458 0.8920867575762395 0.1079132424237606 0.9 0.1 0.8846909604475518 0.1153090395524482 0.9 0.1 0.9 0.1 0.8957912606308064 0.1042087393691937 0.9 0.1 0.9 0.1 0.8845680628218556 0.1154319371781444 0.8644904257730315 0.1355095742269685 0.9080900393110879 0.09190996068891213 0.7522821925036989 0.2477178074963011 0.9 0.1 0.9 0.1 0.90443450795467 0.09556549204533012 0.8920867575762395 0.1079132424237606 0.9 0.1 0.9027463503384461 0.09725364966155389 0.5822240104385942 0.4177759895614058 0.8854802306062051 0.114519769393795 0.6248705003240054 0.3751294996759946 0.603424021324358 0.396575978675642 0.6222222222222221 0.3777777777777778 0.8501129253128378 0.1498870746871623 0.58364029997045 0.41635970002955 0.8966141616791188 0.1033858383208812 0.8327460747182861 0.167253925281714 0.9 0.1 0.5997442645312923 0.4002557354687076 0.9 0.1 0.9 0.1 0.8554988446009117 0.1445011553990881 0.3681361759426854 0.6318638240573146 0.8895870564438804 0.1104129435561197 0.5557981321232183 0.4442018678767817 0.7353158137411777 0.2646841862588223 0.4864816688792226 0.5135183311207774 0.9394136412531484 0.06058635874685148 0.8946968551837321 0.105303144816268 0.9588369510233641 0.04116304897663588 0.9076482438027207 0.09235175619727939 0.354526940725636 0.6454730592743639 0.9 0.1 0.9000118698939586 0.09998813010604131 0.9 0.1 0.9 0.1 0.6369513093917659 0.363048690608234 0.7062758376209418 0.2937241623790582 0.5676399283882482 0.4323600716117519 0.4380658741635974 0.5619341258364027 0.5306866156362929 0.4693133843637071 0.9728072928394664 0.02719270716053355 0.6 0.4 0.813764033649531 0.186235966350469 0.5287452147173196 0.4712547852826804 0.6273191510655005 0.3726808489344995 0.9453754460264191 0.05462455397358094 0.9333333333333332 0.06666666666666667 0.5997425402170273 0.4002574597829726 0.899497800165553 0.100502199834447 0.6 0.4 0.8919671780203295 0.1080328219796705 0.9006695187814316 0.09933048121856844 0.7776927580262579 0.2223072419737421 0.9226347483132282 0.07736525168677172 0.6238365209573765 0.3761634790426235 0.6163571244813814 0.3836428755186187 0.9 0.1 0.6470447531111754 0.3529552468888247 0.8836725663788341 0.1163274336211659 0.9625332831446575 0.03746671685534256 0.9258579565593578 0.07414204344064232 0.9 0.1 0.9001212174007746 0.0998787825992254 0.9 0.1 0.45 0.55 0.8783526352874174 0.1216473647125825 0.9006695187814316 0.09933048121856844 0.8902573237544894 0.1097426762455107 0.8962091432781384 0.1037908567218617 0.8988357580845334 0.1011642419154667 0.9012510022289763 0.09874899777102389 0.9 0.1 0.8937223245363296 0.1062776754636705 0.8977127552765741 0.1022872447234259 0.8994020743578185 0.1005979256421816 0.8993482923895663 0.1006517076104338 0.9 0.1 0.9000111564680471 0.09998884353195302 0.9 0.1 0.9 0.1 0.8996071626845621 0.1003928373154379 0.9040345280364028 0.09596547196359723 0.9045009402869623 0.09549905971303774 0.8979493366922841 0.102050663307716 0.9025648513402283 0.09743514865977175 0.9203694712630401 0.07963052873695974 0.90398690684578 0.09601309315422002 0.8969883041824915 0.1030116958175085 0.9018454717127278 0.09815452828727213 0.9008957525165547 0.09910424748344522 0.9333333333333332 0.06666666666666667 0.8995769350566183 0.1004230649433817 0.9003381368316916 0.09966186316830827 0.9005058111756485 0.09949418882435145 0.9002133117064033 0.09978668829359663 0.9002950840075136 0.09970491599248632 0.4102247914231667 0.5897752085768334 0.8485526658488641 0.1514473341511359 0.6820459349647896 0.3179540650352102 0.9467463433577561 0.05325365664224391 0.4267875165685769 0.5732124834314231 0.9267419444230758 0.07325805557692415 0.7857883913770564 0.2142116086229436 0.9127078466596125 0.08729215334038744 0.9046000455158659 0.09539995448413396 0.95 0.05 0.8819678627585769 0.1180321372414232 0.6274951093860172 0.3725048906139829 0.9036275340106603 0.09637246598933966 0.9010403951641129 0.09895960483588696 0.9007100359255061 0.09928996407449395 0.3224918734967778 0.6775081265032222 0.2374146162555966 0.7625853837444032 0.9181197075915598 0.0818802924084403 0.4480183337043277 0.5519816662956722 0.3419275336064947 0.6580724663935051 0.9501626667095073 0.04983733329049267 0.9004962071870699 0.09950379281293018 0.9041780566113279 0.09582194338867206 0.783848235594589 0.2161517644054108 0.95 0.05 0.6235728644459682 0.3764271355540318 0.9327386090199197 0.06726139098008027 0.901153954446233 0.09884604555376686 0.904937419707187 0.09506258029281289 0.600752250235189 0.399247749764811 0.4224957988156676 0.5775042011843324 0.6372626873626334 0.3627373126373667 0.8413747138428962 0.1586252861571039 0.2187173744961922 0.7812826255038079 0.7504901958747204 0.2495098041252798 0.8748904977709476 0.1251095022290523 0.9144997005865821 0.0855002994134178 0.8170573443684463 0.1829426556315537 0.6358005373262887 0.3641994626737112 0.45 0.55 0.8744055869240388 0.1255944130759611 0.9038875555034207 0.0961124444965793 0.6048821656046983 0.3951178343953015 0.601810516610656 0.398189483389344 0.9010092729914801 0.09899072700851984 0.8974576817707711 0.1025423182292289 0.9007690849754415 0.09923091502455857 0.891006079587868 0.1089939204121318 0.8977154465615453 0.1022845534384548 0.9009169591978011 0.09908304080219892 0.9029143466191887 0.09708565338081128 0.8974798017715991 0.1025201982284009 0.9012151936158891 0.09878480638411088 0.9007001360162407 0.09929986398375935 0.9 0.1 0.8996944405935619 0.1003055594064381 0.9002843551030136 0.09971564489698645 0.9003324048428117 0.09966759515718837 0.9001672223378593 0.0998327776621407 0.9000634221494693 0.09993657785053056 0.9365574576337445 0.06344254236625556 0.9004691175390243 0.09953088246097584 0.9004879421285918 0.0995120578714082 0.9027217291549696 0.09727827084503048 0.9024780564415258 0.09752194355847423 0.6751712634299506 0.3248287365700495 0.8995304242427958 0.1004695757572042 0.9 0.1 0.6222222222222221 0.3777777777777778 0.9 0.1 0.909996077716843 0.09000392228315691 0.8943711653168498 0.1056288346831503 0.9 0.1 0.9 0.1 0.9 0.1 0.9020894008038045 0.09791059919619538 0.9007601704789095 0.09923982952109056 0.9005896089071304 0.09941039109286955 0.9011215566047825 0.09887844339521752 0.9047110304014503 0.0952889695985497 0.8793072541888264 0.1206927458111736 0.907774170950184 0.09222582904981599 0.9040166180460731 0.09598338195392694 0.9078537504861061 0.09214624951389391 0.9156937648442366 0.08430623515576334 0.9025683665998802 0.09743163340011986 0.8905082574501318 0.1094917425498681 0.9 0.1 0.9 0.1 0.9 0.1 0.9052666110239892 0.09473338897601077 0.9018638092952997 0.09813619070470031 0.9004879421285918 0.0995120578714082 0.9027217291549696 0.09727827084503048 0.9024780564415258 0.09752194355847423 0.5890948435293462 0.4109051564706538 0.6549841048928641 0.3450158951071359 0.9 0.1 0.9333333333333332 0.06666666666666667 0.9 0.1 0.9244969312975945 0.07550306870240553 0.6120532297185741 0.3879467702814259 0.9 0.1 0.6 0.4 0.9 0.1 0.9015487854197461 0.09845121458025373 0.9004691175390243 0.09953088246097584 0.7367849796306796 0.2632150203693204 0.9007882299687952 0.09921177003120493 0.9024780564415258 0.09752194355847423 0.8783155612445833 0.1216844387554166 0.8995304242427958 0.1004695757572042 0.9333333333333332 0.06666666666666667 0.9 0.1 0.9 0.1 0.901870694181468 0.0981293058185319 0.8943711653168498 0.1056288346831503 0.9 0.1 0.9 0.1 0.9 0.1 0.9015487854197461 0.09845121458025373 0.9004691175390243 0.09953088246097584 0.9004879421285918 0.0995120578714082 0.9007882299687952 0.09921177003120493 0.9024780564415258 0.09752194355847423 0.8783155612445833 0.1216844387554166 0.8995304242427958 0.1004695757572042 0.9 0.1 0.9 0.1 0.9 0.1 0.901870694181468 0.0981293058185319 0.8943711653168498 0.1056288346831503 0.9 0.1 0.9 0.1 0.9 0.1 0.8922197054079271 0.1077802945920729 0.8979258007155642 0.1020741992844358 0.8959469749708573 0.1040530250291428 0.9011058065235796 0.09889419347642039 0.8975173648121543 0.1024826351878459 0.9000060111379496 0.09999398886205044 0.8815237666145606 0.1184762333854394 0.885957276288921 0.1140427237110792 0.9015940922474235 0.0984059077525767 0.8851046575771179 0.1148953424228821 0.9 0.1 0.9 0.1 0.9 0.1 0.8988010317568051 0.1011989682431948 0.9004712033932319 0.0995287966067679 0.5095977633956961 0.4904022366043039 0.8979258007155642 0.1020741992844358 0.8959469749708573 0.1040530250291428 0.9332658851944279 0.06673411480557212 0.5563729140341839 0.443627085965816 0.9506159509127858 0.04938404908721415 0.8815237666145606 0.1184762333854394 0.885957276288921 0.1140427237110792 0.9066910296040224 0.09330897039597762 0.8176360889468042 0.1823639110531958 0.9 0.1 0.9 0.1 0.9 0.1 0.8956081533991447 0.1043918466008554 0.9135433621453558 0.08645663785464416 0.8646285643295898 0.1353714356704102 0.7238390139321141 0.2761609860678859 0.5452705079519422 0.4547294920480579 0.5944292777262623 0.4055707222737378 0.3991768378641899 0.6008231621358101 0.9336430252780994 0.06635697472190062 0.5268807290383261 0.4731192709616739 0.6367647509190765 0.3632352490809235 0.9057784895088556 0.09422151049114438 0.8472919961053854 0.1527080038946146 0.9 0.1 0.9 0.1 0.5979349379544193 0.4020650620455806 0.8947833610365368 0.1052166389634631 0.6598827695845836 0.3401172304154165 0.6560217843805257 0.3439782156194743 0.5300196553143025 0.4699803446856975 0.411611065631547 0.588388934368453 0.3333130987155126 0.6666869012844875 0.5546623637654589 0.4453376362345411 0.8402986381349875 0.1597013618650125 0.7720750321368752 0.2279249678631248 0.6106833265936399 0.3893166734063602 0.681131128650276 0.3188688713497239 0.8450649142442833 0.1549350857557167 0.9 0.1 0.9 0.1 0.6 0.4 0.6045393054858659 0.3954606945141341 0.9047757462585175 0.09522425374148248 0.8922197054079271 0.1077802945920729 0.8979258007155642 0.1020741992844358 0.8959469749708573 0.1040530250291428 0.9011058065235796 0.09889419347642039 0.8975173648121543 0.1024826351878459 0.9000060111379496 0.09999398886205044 0.8815237666145606 0.1184762333854394 0.885957276288921 0.1140427237110792 0.9015940922474235 0.0984059077525767 0.8851046575771179 0.1148953424228821 0.9 0.1 0.9 0.1 0.9 0.1 0.8988010317568051 0.1011989682431948 0.9004712033932319 0.0995287966067679 0.8567976364334059 0.1432023635665941 0.3538089672633985 0.6461910327366014 0.5831933799792267 0.4168066200207733 0.8905389348711628 0.1094610651288373 0.3935773385518285 0.6064226614481716 0.9329086026509529 0.06709139734904709 0.6967500750053299 0.3032499249946701 0.8114097826335381 0.1885902173664618 0.9021371361362907 0.09786286386370933 0.4966578645355154 0.5033421354644847 0.9000006789319933 0.09999932106800674 0.8046050287827995 0.1953949712172005 0.8991862295326326 0.1008137704673674 0.9000144083456586 0.09998559165434145 0.9235219812347192 0.07647801876528088 0.1509794782981751 0.849020521701825 0.0623330901059988 0.9376669098940011 0.6455448065578777 0.3544551934421223 0.4829780625269951 0.5170219374730048 0.4426632111371635 0.5573367888628366 0.581342652809288 0.418657347190712 0.9588262396748416 0.04117376032515836 0.9054221078458503 0.09457789215414968 0.4469621211039182 0.5530378788960819 0.4149746757309055 0.5850253242690946 0.3221021124157372 0.6778978875842628 0.3062040490258195 0.6937959509741806 0.4668422461806886 0.5331577538193113 0.4622636481880127 0.5377363518119871 0.6852274751552642 0.3147725248447359 0.1118560799824529 0.8881439200175471 0.2893311947732589 0.7106688052267411 0.2965268328785494 0.7034731671214506 0.1428117399883143 0.8571882600116856 0.4635754041615516 0.5364245958384484 0.8549806827059029 0.1450193172940971 0.9384201632984227 0.06157983670157732 0.9579633483360229 0.04203665166397712 0.3495963344338931 0.6504036655661068 0.8293746503220534 0.1706253496779466 0.4628212271574073 0.5371787728425926 0.4596835885030091 0.5403164114969909 0.5629888719214523 0.4370111280785477 0.5116974942118669 0.4883025057881329 0.8919265025651075 0.1080734974348925 0.6007367303865628 0.3992632696134372 0.529561422281836 0.4704385777181639 0.3950721223783199 0.6049278776216802 0.7942276925525967 0.2057723074474032 0.5941356079246728 0.4058643920753272 0.4353975979168064 0.5646024020831936 0.9306575258069111 0.06934247419308896 0.7571561154382611 0.2428438845617388 0.9758393621019688 0.02416063789803119 0.4694836233123279 0.5305163766876722 0.9553833357803709 0.04461666421962902 0.8126758481512788 0.1873241518487212 0.2838669243216395 0.7161330756783604 0.4458204533812146 0.5541795466187855 0.3664531177266827 0.6335468822733172 0.8985227042171765 0.1014772957828234 0.8957907304652719 0.1042092695347282 0.8962101506761815 0.1037898493238185 0.8966885520337007 0.1033114479662991 0.8990346060427284 0.1009653939572716 0.8988528407747169 0.1011471592252831 0.8992663287986864 0.1007336712013135 0.8950541659890991 0.1049458340109009 0.9012299598015219 0.09877004019847831 0.8993007689675981 0.100699231032402 0.9000004059504916 0.09999959404950853 0.8982723009359629 0.1017276990640372 0.8999535877013969 0.1000464122986031 0.900013307097679 0.09998669290232105 0.8999747702602523 0.1000252297397476</probabilities>
		</cpt>
		<cpt id="Migratory_background">
			<state id="State0" />
			<state id="State1" />
			<state id="State2" />
			<probabilities>0.6805869373813237 0.1437153660922875 0.1756976965263889</probabilities>
			<property id="DSL_OUTCOME_ORDER">1</property>
		</cpt>
		<cpt id="Conscientiousness_BF">
			<state id="State0" />
			<state id="State1" />
			<state id="State2" />
			<probabilities>0.221387832854752 0.3802486868592905 0.3983634802859575</probabilities>
		</cpt>
		<cpt id="Agreeableness_BF">
			<state id="State0" />
			<state id="State1" />
			<state id="State2" />
			<probabilities>0.3803612942340944 0.4456267538802625 0.1740119518856431</probabilities>
		</cpt>
		<cpt id="Neuroticism_BF">
			<state id="State0" />
			<state id="State1" />
			<state id="State2" />
			<probabilities>0.3938258314789836 0.4175734416322521 0.1886007268887643</probabilities>
		</cpt>
		<cpt id="FN_risk">
			<state id="State0" />
			<state id="State1" />
			<parents>Migratory_background Neuroticism_BF Conscientiousness_BF Agreeableness_BF CB_Offending Social_Support Family_Support Hours_Internet Gender Age</parents>
			<probabilities>0.7 0.3 0.7 0.3 0.7 0.3 0.7 0.3 0.7 0.3 0.7 0.3 0.7 0.3 0.7 0.3 0.7 0.3 0.7 0.3 0.7 0.3 0.7 0.3 0.7 0.3 0.7 0.3 0.7 0.3 0.7 0.3 0.7 0.3 0.7 0.3 0.7 0.3 0.7 0.3 0.7 0.3 0.7 0.3 0.7 0.3 0.7 0.3 0.7 0.3 0.7 0.3 0.7 0.3 0.7 0.3 0.7 0.3 0.7 0.3 0.7 0.3 0.7 0.3 0.7 0.3 0.7 0.3 0.7 0.3 0.7 0.3 0.7 0.3 0.7 0.3 0.7 0.3 0.7 0.3 0.7 0.3 0.7 0.3 0.7 0.3 0.7 0.3 0.7 0.3 0.7 0.3 0.7 0.3 0.7 0.3 0.7 0.3 0.7 0.3 0.7 0.3 0.7 0.3 0.7 0.3 0.7 0.3 0.7 0.3 0.7 0.3 0.7 0.3 0.7 0.3 0.7 0.3 0.7 0.3 0.7 0.3 0.7 0.3 0.7 0.3 0.7 0.3 0.7 0.3 0.7 0.3 0.7 0.3 0.7 0.3 0.7 0.3 0.7 0.3 0.7 0.3 0.7 0.3 0.7 0.3 0.7 0.3 0.7 0.3 0.7 0.3 0.7 0.3 0.7 0.3 0.7 0.3 0.7 0.3 0.7 0.3 0.7 0.3 0.7 0.3 0.7 0.3 0.7 0.3 0.7 0.3 0.7 0.3 0.7 0.3 0.7 0.3 0.7 0.3 0.7 0.3 0.7 0.3 0.7 0.3 0.7 0.3 0.7 0.3 0.7 0.3 0.7 0.3 0.7 0.3 0.7 0.3 0.7 0.3 0.7 0.3 0.7 0.3 0.7 0.3 0.7 0.3 0.7 0.3 0.7 0.3 0.7 0.3 0.7 0.3 0.7 0.3 0.7 0.3 0.7 0.3 0.7 0.3 0.7 0.3 0.7 0.3 0.7 0.3 0.7 0.3 0.7 0.3 0.7 0.3 0.7 0.3 0.7 0.3 0.7 0.3 0.7 0.3 0.7 0.3 0.7 0.3 0.7 0.3 0.7 0.3 0.7 0.3 0.7 0.3 0.7 0.3 0.7 0.3 0.7 0.3 0.7 0.3 0.7 0.3 0.7 0.3 0.7 0.3 0.7 0.3 0.7 0.3 0.7 0.3 0.7 0.3 0.7 0.3 0.7 0.3 0.7 0.3 0.7 0.3 0.7 0.3 0.7 0.3 0.7 0.3 0.7 0.3 0.7 0.3 0.7 0.3 0.7 0.3 0.7 0.3 0.7 0.3 0.7 0.3 0.7 0.3 0.7 0.3 0.7 0.3 0.7 0.3 0.7 0.3 0.7 0.3 0.7 0.3 0.7 0.3 0.7 0.3 0.7 0.3 0.7 0.3 0.7 0.3 0.7 0.3 0.7 0.3 0.7 0.3 0.7 0.3 0.7 0.3 0.7 0.3 0.7 0.3 0.7 0.3 0.7 0.3 0.7 0.3 0.7 0.3 0.7 0.3 0.7 0.3 0.7 0.3 0.7 0.3 0.7 0.3 0.7 0.3 0.7 0.3 0.7 0.3 0.7 0.3 0.7 0.3 0.7 0.3 0.7 0.3 0.7 0.3 0.7 0.3 0.7 0.3 0.7 0.3 0.7 0.3 0.7 0.3 0.7 0.3 0.7 0.3 0.7 0.3 0.7 0.3 0.7 0.3 0.7 0.3 0.7 0.3 0.7 0.3 0.7 0.3 0.7 0.3 0.7 0.3 0.7 0.3 0.7 0.3 0.7 0.3 0.7 0.3 0.7 0.3 0.7 0.3 0.7 0.3 0.7 0.3 0.7 0.3 0.7 0.3 0.7 0.3 0.7 0.3 0.7 0.3 0.7 0.3 0.7 0.3 0.7 0.3 0.7 0.3 0.7 0.3 0.7 0.3 0.7 0.3 0.7 0.3 0.7 0.3 0.7 0.3 0.7 0.3 0.7 0.3 0.7 0.3 0.7 0.3 0.7 0.3 0.7 0.3 0.7 0.3 0.7 0.3 0.7 0.3 0.7 0.3 0.7 0.3 0.7 0.3 0.7 0.3 0.7 0.3 0.7 0.3 0.7 0.3 0.7 0.3 0.7 0.3 0.7 0.3 0.7 0.3 0.7 0.3 0.7 0.3 0.7 0.3 0.7 0.3 0.7 0.3 0.7 0.3 0.7 0.3 0.7 0.3 0.7 0.3 0.7 0.3 0.7 0.3 0.7 0.3 0.7 0.3 0.7 0.3 0.7 0.3 0.7 0.3 0.7 0.3 0.7 0.3 0.7 0.3 0.7 0.3 0.7 0.3 0.7 0.3 0.7 0.3 0.7 0.3 0.7 0.3 0.7 0.3 0.7 0.3 0.7 0.3 0.7 0.3 0.7 0.3 0.7 0.3 0.7 0.3 0.7 0.3 0.7 0.3 0.7 0.3 0.7 0.3 0.7 0.3 0.7 0.3 0.7 0.3 0.7 0.3 0.7 0.3 0.7 0.3 0.7 0.3 0.7 0.3 0.7 0.3 0.7 0.3 0.7 0.3 0.7 0.3 0.7 0.3 0.7 0.3 0.7 0.3 0.7 0.3 0.7 0.3 0.7 0.3 0.7 0.3 0.7019087342054519 0.2980912657945481 0.7 0.3 0.7 0.3 0.7 0.3 0.7 0.3 0.7 0.3 0.7 0.3 0.7 0.3 0.7 0.3 0.7 0.3 0.7 0.3 0.7 0.3 0.7 0.3 0.7 0.3 0.7 0.3 0.7246888871549687 0.2753111128450313 0.7 0.3 0.7 0.3 0.7 0.3 0.7 0.3 0.7 0.3 0.7 0.3 0.7 0.3 0.7 0.3 0.7 0.3 0.7 0.3 0.7 0.3 0.7 0.3 0.7 0.3 0.7 0.3 0.7659713739838955 0.2340286260161047 0.4693432337605021 0.530656766239498 0.7 0.3 0.7 0.3 0.7 0.3 0.7 0.3 0.7 0.3 0.7712436739839172 0.2287563260160827 0.7 0.3 0.7 0.3 0.7 0.3 0.7 0.3 0.7 0.3 0.7 0.3 0.7 0.3 0.7246446027443689 0.2753553972556311 0.7 0.3 0.7 0.3 0.7 0.3 0.7 0.3 0.7 0.3 0.7 0.3 0.7 0.3 0.7 0.3 0.7 0.3 0.7 0.3 0.7 0.3 0.7 0.3 0.7 0.3 0.7 0.3 0.7005832001996832 0.2994167998003168 0.7 0.3 0.7 0.3 0.7 0.3 0.7 0.3 0.7 0.3 0.7 0.3 0.7 0.3 0.7 0.3 0.7 0.3 0.7 0.3 0.7 0.3 0.7 0.3 0.7 0.3 0.7 0.3 0.7 0.3 0.7158606147561353 0.2841393852438647 0.7 0.3 0.7 0.3 0.7 0.3 0.7 0.3 0.7 0.3 0.7 0.3 0.7 0.3 0.7 0.3 0.7 0.3 0.7 0.3 0.7 0.3 0.7 0.3 0.7 0.3 0.7 0.3 0.7296477186494748 0.2703522813505252 0.7 0.3 0.7 0.3 0.7 0.3 0.7 0.3 0.7 0.3 0.7 0.3 0.7 0.3 0.7 0.3 0.7 0.3 0.7 0.3 0.7 0.3 0.7982842635459076 0.2017157364540923 0.7 0.3 0.7 0.3 0.7363081840089267 0.2636918159910732 0.7 0.3 0.7 0.3 0.7 0.3 0.7 0.3 0.7 0.3 0.7 0.3 0.7 0.3 0.7 0.3 0.7 0.3 0.7 0.3 0.7 0.3 0.7 0.3 0.7 0.3 0.7 0.3 0.4979233018909883 0.5020766981090117 0.7 0.3 0.7 0.3 0.7981860203198484 0.2018139796801516 0.7 0.3 0.7 0.3 0.7 0.3 0.7 0.3 0.7 0.3 0.7 0.3 0.7 0.3 0.7 0.3 0.7 0.3 0.7 0.3 0.7 0.3 0.7034045582360892 0.2965954417639109 0.7 0.3 0.7 0.3 0.7 0.3 0.7 0.3 0.7 0.3 0.7 0.3 0.7 0.3 0.7 0.3 0.7 0.3 0.7 0.3 0.7955188833512709 0.2044811166487292 0.7 0.3 0.7 0.3 0.7 0.3 0.7 0.3 0.7 0.3 0.7 0.3 0.7 0.3 0.7 0.3 0.7 0.3 0.7 0.3 0.7 0.3 0.7 0.3 0.7 0.3 0.7 0.3 0.7 0.3 0.7 0.3 0.7 0.3 0.7 0.3 0.7 0.3 0.7 0.3 0.7 0.3 0.7 0.3 0.7 0.3 0.7 0.3 0.7 0.3 0.7 0.3 0.7 0.3 0.7 0.3 0.7 0.3 0.7 0.3 0.7 0.3 0.7 0.3 0.7 0.3 0.7 0.3 0.7 0.3 0.7 0.3 0.7 0.3 0.7 0.3 0.7 0.3 0.7 0.3 0.7 0.3 0.7 0.3 0.7 0.3 0.7 0.3 0.7 0.3 0.7 0.3 0.7 0.3 0.7 0.3 0.7 0.3 0.7 0.3 0.7 0.3 0.7 0.3 0.7 0.3 0.7 0.3 0.7 0.3 0.7 0.3 0.7 0.3 0.7 0.3 0.7 0.3 0.7 0.3 0.7 0.3 0.7 0.3 0.7 0.3 0.7 0.3 0.7 0.3 0.7 0.3 0.7 0.3 0.7 0.3 0.7 0.3 0.7 0.3 0.7 0.3 0.7 0.3 0.7 0.3 0.7 0.3 0.7 0.3 0.7 0.3 0.7 0.3 0.7035212253452866 0.2964787746547135 0.7 0.3 0.7 0.3 0.7 0.3 0.7 0.3 0.7034469487043666 0.2965530512956333 0.7 0.3 0.7 0.3 0.7 0.3 0.7 0.3 0.7003315878454128 0.2996684121545871 0.7 0.3 0.7 0.3 0.7 0.3 0.7 0.3 0.7129823466431485 0.2870176533568515 0.7 0.3 0.7 0.3 0.7 0.3 0.7 0.3 0.712332090780407 0.2876679092195929 0.7 0.3 0.7 0.3 0.7 0.3 0.7 0.3 0.7011975272590125 0.2988024727409875 0.7 0.3 0.7 0.3 0.7 0.3 0.7 0.3 0.7081269290505763 0.2918730709494238 0.7 0.3 0.7 0.3 0.7 0.3 0.7 0.3 0.7115807630335044 0.2884192369664956 0.7 0.3 0.7 0.3 0.7 0.3 0.7 0.3 0.7011236841279602 0.2988763158720398 0.7 0.3 0.7 0.3 0.7 0.3 0.7 0.3 0.7435857804775914 0.2564142195224086 0.7 0.3 0.7 0.3 0.7 0.3 0.7 0.3 0.7276803763757903 0.2723196236242097 0.7 0.3 0.7 0.3 0.7 0.3 0.7 0.3 0.7042196332772866 0.2957803667227133 0.7 0.3 0.7 0.3 0.7 0.3 0.7 0.3 0.7035212253452866 0.2964787746547135 0.7 0.3 0.7 0.3 0.7 0.3 0.7 0.3 0.7034469487043666 0.2965530512956333 0.7 0.3 0.7 0.3 0.7 0.3 0.7 0.3 0.7003315878454128 0.2996684121545871 0.7 0.3 0.7 0.3 0.7140907510039011 0.2859092489960989 0.7 0.3 0.7010770980593902 0.2989229019406097 0.7 0.3 0.7 0.3 0.7 0.3 0.7 0.3 0.7 0.3 0.7113682530424039 0.2886317469575962 0.7001471500279972 0.2998528499720027 0.7 0.3 0.7 0.3 0.7 0.3 0.7 0.3 0.8425369310330448 0.1574630689669551 0.7567954014473616 0.2432045985526384 0.7997975089393006 0.2002024910606993 0.7476711910033421 0.2523288089966579 0.7 0.3 0.7 0.3 0.7 0.3 0.7 0.3 0.7 0.3 0.7270484752561315 0.2729515247438686 0.7359214349015621 0.2640785650984379 0.7 0.3 0.7 0.3 0.7 0.3 0.7 0.3 0.7 0.3 0.7220385760516602 0.2779614239483398 0.7 0.3 0.8271039580209443 0.1728960419790558 0.7 0.3 0.7 0.3 0.7 0.3 0.7 0.3 0.7 0.3 0.7330118180156364 0.2669881819843635 0.7510440675287495 0.2489559324712506 0.7 0.3 0.7 0.3 0.7 0.3 0.7 0.3 0.7 0.3 0.724868748286403 0.2751312517135969 0.7 0.3 0.7245052294988429 0.2754947705011572 0.7 0.3 0.7 0.3 0.7 0.3 0.7 0.3 0.7 0.3 0.7395281788567907 0.2604718211432093 0.728157230108349 0.2718427698916511 0.7 0.3 0.7 0.3 0.7 0.3 0.7 0.3 0.7 0.3 0.7012398334957033 0.2987601665042967 0.7 0.3 0.700923043189459 0.2990769568105411 0.7 0.3 0.7 0.3 0.7 0.3 0.7 0.3 0.7 0.3 0.7012354996567327 0.2987645003432673 0.7000273783016445 0.2999726216983554 0.7 0.3 0.7 0.3 0.7 0.3 0.7 0.3 0.7 0.3 0.7 0.3 0.7 0.3 0.7 0.3 0.7 0.3 0.7 0.3 0.7 0.3 0.7 0.3 0.7 0.3 0.7 0.3 0.7 0.3 0.7 0.3 0.7 0.3 0.7 0.3 0.7 0.3 0.7 0.3 0.7 0.3 0.7 0.3 0.7 0.3 0.7 0.3 0.7 0.3 0.7 0.3 0.7 0.3 0.7 0.3 0.7 0.3 0.7 0.3 0.7 0.3 0.7 0.3 0.7 0.3 0.7 0.3 0.7 0.3 0.7 0.3 0.7 0.3 0.7 0.3 0.7 0.3 0.7 0.3 0.7 0.3 0.7 0.3 0.7 0.3 0.7 0.3 0.7 0.3 0.7 0.3 0.7 0.3 0.7 0.3 0.7 0.3 0.7 0.3 0.7 0.3 0.7 0.3 0.7 0.3 0.7 0.3 0.7 0.3 0.7 0.3 0.7 0.3 0.7 0.3 0.7 0.3 0.7 0.3 0.7 0.3 0.7 0.3 0.7 0.3 0.7 0.3 0.7 0.3 0.7 0.3 0.7 0.3 0.7 0.3 0.7 0.3 0.7 0.3 0.7 0.3 0.7 0.3 0.7 0.3 0.7 0.3 0.7 0.3 0.7 0.3 0.7 0.3 0.7 0.3 0.7 0.3 0.7 0.3 0.7 0.3 0.7 0.3 0.7 0.3 0.7 0.3 0.7 0.3 0.7 0.3 0.7 0.3 0.7 0.3 0.7 0.3 0.7 0.3 0.7 0.3 0.7 0.3 0.7 0.3 0.7 0.3 0.7 0.3 0.7 0.3 0.7 0.3 0.7 0.3 0.7 0.3 0.7 0.3 0.7 0.3 0.7 0.3 0.7 0.3 0.7 0.3 0.7 0.3 0.7 0.3 0.7 0.3 0.7 0.3 0.7 0.3 0.7 0.3 0.7 0.3 0.7 0.3 0.7 0.3 0.7 0.3 0.7 0.3 0.7 0.3 0.7 0.3 0.7 0.3 0.7 0.3 0.7 0.3 0.7 0.3 0.7 0.3 0.7 0.3 0.7 0.3 0.7 0.3 0.7 0.3 0.7 0.3 0.7 0.3 0.7 0.3 0.7 0.3 0.7 0.3 0.7 0.3 0.7 0.3 0.7 0.3 0.7 0.3 0.7 0.3 0.7 0.3 0.7 0.3 0.7 0.3 0.7 0.3 0.7 0.3 0.7 0.3 0.7 0.3 0.7 0.3 0.7 0.3 0.7 0.3 0.7 0.3 0.7 0.3 0.7 0.3 0.7 0.3 0.7 0.3 0.7 0.3 0.7 0.3 0.7 0.3 0.7 0.3 0.7 0.3 0.7 0.3 0.7 0.3 0.7 0.3 0.7 0.3 0.7 0.3 0.7 0.3 0.7 0.3 0.7 0.3 0.7 0.3 0.7 0.3 0.7 0.3 0.7 0.3 0.7 0.3 0.7 0.3 0.7 0.3 0.7 0.3 0.7 0.3 0.7 0.3 0.7 0.3 0.7 0.3 0.7 0.3 0.7 0.3 0.7 0.3 0.7 0.3 0.7 0.3 0.7 0.3 0.7 0.3 0.7 0.3 0.7 0.3 0.7 0.3 0.7 0.3 0.7 0.3 0.7 0.3 0.7 0.3 0.7 0.3 0.7 0.3 0.7 0.3 0.7 0.3 0.7 0.3 0.7 0.3 0.7 0.3 0.7 0.3 0.7 0.3 0.7 0.3 0.7 0.3 0.7 0.3 0.7 0.3 0.7 0.3 0.7 0.3 0.7 0.3 0.7 0.3 0.7 0.3 0.7 0.3 0.7 0.3 0.7 0.3 0.7 0.3 0.7 0.3 0.7 0.3 0.7 0.3 0.7 0.3 0.7 0.3 0.7 0.3 0.7 0.3 0.7 0.3 0.7 0.3 0.7 0.3 0.7 0.3 0.7 0.3 0.7 0.3 0.7 0.3 0.7 0.3 0.7 0.3 0.7 0.3 0.7 0.3 0.7 0.3 0.7 0.3 0.7 0.3 0.7 0.3 0.7 0.3 0.7 0.3 0.7 0.3 0.7 0.3 0.7 0.3 0.7 0.3 0.7 0.3 0.7 0.3 0.7 0.3 0.7 0.3 0.7 0.3 0.7 0.3 0.7 0.3 0.7 0.3 0.7 0.3 0.7 0.3 0.7 0.3 0.7 0.3 0.7 0.3 0.7 0.3 0.7 0.3 0.7 0.3 0.7 0.3 0.7 0.3 0.7 0.3 0.7 0.3 0.7 0.3 0.7 0.3 0.7 0.3 0.7 0.3 0.7 0.3 0.7 0.3 0.7 0.3 0.7 0.3 0.7 0.3 0.7 0.3 0.7 0.3 0.7 0.3 0.7 0.3 0.7 0.3 0.7 0.3 0.7 0.3 0.7 0.3 0.7 0.3 0.7 0.3 0.7 0.3 0.7 0.3 0.7 0.3 0.7 0.3 0.7 0.3 0.7 0.3 0.7 0.3 0.7 0.3 0.7 0.3 0.7 0.3 0.7 0.3 0.7 0.3 0.7 0.3 0.7 0.3 0.7 0.3 0.7 0.3 0.7 0.3 0.7 0.3 0.7 0.3 0.7 0.3 0.7 0.3 0.7 0.3 0.7 0.3 0.7 0.3 0.7 0.3 0.7 0.3 0.7 0.3 0.7 0.3 0.7160946363934609 0.2839053636065391 0.7 0.3 0.7 0.3 0.7 0.3 0.7 0.3 0.7 0.3 0.7 0.3 0.7 0.3 0.7 0.3 0.7 0.3 0.7 0.3 0.7 0.3 0.7 0.3 0.7 0.3 0.7 0.3 0.7202254934987636 0.2797745065012363 0.7 0.3 0.7 0.3 0.7 0.3 0.7 0.3 0.7 0.3 0.7 0.3 0.7 0.3 0.7 0.3 0.7 0.3 0.7 0.3 0.7 0.3 0.7 0.3 0.7 0.3 0.7 0.3 0.754912002037896 0.245087997962104 0.7 0.3 0.6042444155028125 0.3957555844971876 0.7 0.3 0.7 0.3 0.7 0.3 0.7 0.3 0.7 0.3 0.7 0.3 0.7 0.3 0.7 0.3 0.7 0.3 0.7 0.3 0.7 0.3 0.7 0.3 0.7031545905100349 0.296845409489965 0.7 0.3 0.7 0.3 0.7 0.3 0.7 0.3 0.7 0.3 0.7 0.3 0.7 0.3 0.7 0.3 0.7 0.3 0.7 0.3 0.7 0.3 0.7 0.3 0.7 0.3 0.7 0.3 0.7004835475685253 0.2995164524314747 0.7 0.3 0.7 0.3 0.7 0.3 0.7 0.3 0.7 0.3 0.7 0.3 0.7 0.3 0.7 0.3 0.7 0.3 0.7 0.3 0.7 0.3 0.7 0.3 0.7 0.3 0.7 0.3 0.7 0.3 0.6993347937115869 0.3006652062884132 0.7 0.3 0.7 0.3 0.7 0.3 0.7 0.3 0.7 0.3 0.7 0.3 0.7 0.3 0.7 0.3 0.7 0.3 0.7 0.3 0.7 0.3 0.7 0.3 0.7 0.3 0.7 0.3 0.6130577875923522 0.3869422124076479 0.7 0.3 0.7 0.3 0.7 0.3 0.7 0.3 0.7 0.3 0.7 0.3 0.7 0.3 0.7 0.3 0.7 0.3 0.7 0.3 0.7 0.3 0.7 0.3 0.7 0.3 0.7 0.3 0.5523911303089484 0.4476088696910516 0.7 0.3 0.7 0.3 0.7 0.3 0.7 0.3 0.7 0.3 0.7 0.3 0.7 0.3 0.7 0.3 0.7 0.3 0.7 0.3 0.7 0.3 0.7 0.3 0.7 0.3 0.7 0.3 0.4828602289811012 0.517139771018899 0.7 0.3 0.7 0.3 0.7 0.3 0.7 0.3 0.7 0.3 0.7 0.3 0.7 0.3 0.7 0.3 0.7 0.3 0.7 0.3 0.7 0.3 0.7 0.3 0.7 0.3 0.7 0.3 0.6998195725068834 0.3001804274931164 0.7 0.3 0.7 0.3 0.7 0.3 0.7 0.3 0.7 0.3 0.7 0.3 0.7 0.3 0.7 0.3 0.7 0.3 0.7 0.3 0.7 0.3 0.7 0.3 0.7 0.3 0.7 0.3 0.7 0.3 0.7 0.3 0.7 0.3 0.7 0.3 0.7 0.3 0.7 0.3 0.7 0.3 0.7 0.3 0.7 0.3 0.7 0.3 0.7 0.3 0.7 0.3 0.7 0.3 0.7 0.3 0.7 0.3 0.7 0.3 0.7 0.3 0.7 0.3 0.7 0.3 0.7 0.3 0.7 0.3 0.7 0.3 0.7 0.3 0.7 0.3 0.7 0.3 0.7 0.3 0.7 0.3 0.7 0.3 0.7 0.3 0.7 0.3 0.7 0.3 0.7 0.3 0.7 0.3 0.7 0.3 0.7 0.3 0.7 0.3 0.7 0.3 0.7 0.3 0.7 0.3 0.7 0.3 0.7 0.3 0.7 0.3 0.7 0.3 0.7 0.3 0.7 0.3 0.7 0.3 0.7 0.3 0.7 0.3 0.7 0.3 0.7 0.3 0.7 0.3 0.7 0.3 0.7 0.3 0.7 0.3 0.7 0.3 0.7 0.3 0.7 0.3 0.7 0.3 0.7 0.3 0.7 0.3 0.7 0.3 0.7 0.3 0.7 0.3 0.7 0.3 0.7 0.3 0.7 0.3 0.7 0.3 0.7 0.3 0.7 0.3 0.7 0.3 0.7 0.3 0.7 0.3 0.7 0.3 0.7 0.3 0.7003119044364837 0.2996880955635163 0.7009459096389341 0.2990540903610659 0.7 0.3 0.7 0.3 0.7 0.3 0.7001869096077166 0.2998130903922834 0.7011662270192698 0.2988337729807302 0.7 0.3 0.7 0.3 0.7 0.3 0.7000190529357906 0.2999809470642094 0.7000358250690772 0.2999641749309227 0.7 0.3 0.7 0.3 0.7 0.3 0.7007474715472316 0.2992525284527685 0.7023744920859827 0.2976255079140174 0.7 0.3 0.7 0.3 0.7 0.3 0.7006293980897595 0.2993706019102405 0.70677206960838 0.29322793039162 0.7 0.3 0.7 0.3 0.7 0.3 0.7000676169163115 0.2999323830836886 0.70013286743789 0.29986713256211 0.7 0.3 0.7 0.3 0.7 0.3 0.8038926416601599 0.1961073583398402 0.7573947773648095 0.2426052226351904 0.7 0.3 0.7 0.3 0.7 0.3 0.7007360850865719 0.2992639149134281 0.722289693640869 0.277710306359131 0.7 0.3 0.7 0.3 0.7 0.3 0.7000783715563568 0.2999216284436433 0.7005461932195307 0.2994538067804693 0.7 0.3 0.7 0.3 0.7 0.3 0.7788704692677922 0.2211295307322077 0.7242949437139056 0.2757050562860944 0.7 0.3 0.7 0.3 0.7 0.3 0.7294301567774344 0.2705698432225657 0.7103360867157695 0.2896639132842305 0.7 0.3 0.7 0.3 0.7 0.3 0.7009990727459918 0.2990009272540082 0.7002411500852929 0.2997588499147072 0.7 0.3 0.7 0.3 0.7 0.3 0.7003119044364837 0.2996880955635163 0.7009459096389341 0.2990540903610659 0.7 0.3 0.7 0.3 0.7 0.3 0.7001869096077166 0.2998130903922834 0.7011662270192698 0.2988337729807302 0.7 0.3 0.7 0.3 0.7 0.3 0.7000190529357906 0.2999809470642094 0.7000358250690772 0.2999641749309227 0.7 0.3 0.6867168316916343 0.3132831683083657 0.7 0.3 0.7 0.3 0.7 0.3 0.7001394510890226 0.2998605489109774 0.7 0.3 0.7 0.3 0.7 0.3 0.7 0.3 0.7 0.3 0.7 0.3 0.7 0.3 0.7 0.3 0.6954564748298306 0.3045435251701692 0.7 0.3 0.546109718521875 0.453890281478125 0.4710678901339105 0.5289321098660895 0.7 0.3 0.7 0.3 0.7005731536143679 0.2994268463856322 0.7 0.3 0.7 0.3 0.7 0.3 0.7 0.3 0.7 0.3 0.7 0.3 0.7 0.3 0.7 0.3 0.6685371910483318 0.3314628089516682 0.7 0.3 0.660679565074678 0.339320434925322 0.7 0.3 0.7991596832285546 0.2008403167714454 0.7 0.3 0.7056943910453383 0.2943056089546618 0.7 0.3 0.7 0.3 0.7 0.3 0.7 0.3 0.7 0.3 0.7 0.3 0.7 0.3 0.7 0.3 0.6988820361199987 0.3011179638800014 0.7 0.3 0.6917814890388372 0.3082185109611628 0.7 0.3 0.7 0.3 0.7 0.3 0.7036523101022709 0.2963476898977291 0.7 0.3 0.7 0.3 0.7 0.3 0.7 0.3 0.7 0.3 0.7 0.3 0.7 0.3 0.7 0.3 0.5730774071225964 0.4269225928774037 0.7 0.3 0.6999963231716488 0.3000036768283512 0.7 0.3 0.7 0.3 0.7 0.3 0.7000473867404372 0.2999526132595629 0.7 0.3 0.7 0.3 0.7 0.3 0.7 0.3 0.7 0.3 0.7 0.3 0.7 0.3 0.7 0.3 0.699991831222549 0.3000081687774509 0.7 0.3 0.7 0.3 0.7 0.3 0.7 0.3 0.7 0.3 0.7 0.3 0.7 0.3 0.7 0.3 0.7 0.3 0.7 0.3 0.7 0.3 0.7 0.3 0.7 0.3 0.7 0.3 0.7 0.3 0.7 0.3 0.7 0.3 0.7 0.3 0.7 0.3 0.7 0.3 0.7 0.3 0.7 0.3 0.7 0.3 0.7 0.3 0.7 0.3 0.7 0.3 0.7 0.3 0.7 0.3 0.7 0.3 0.7 0.3 0.7 0.3 0.7 0.3 0.7 0.3 0.7 0.3 0.7 0.3 0.7 0.3 0.7 0.3 0.7 0.3 0.7 0.3 0.7 0.3 0.7 0.3 0.7 0.3 0.7 0.3 0.7 0.3 0.7 0.3 0.7 0.3 0.7 0.3 0.7 0.3 0.7 0.3 0.7 0.3 0.7 0.3 0.7 0.3 0.7 0.3 0.7 0.3 0.7 0.3 0.7 0.3 0.7 0.3 0.7 0.3 0.7 0.3 0.7 0.3 0.7 0.3 0.7 0.3 0.7 0.3 0.7 0.3 0.7 0.3 0.7 0.3 0.7 0.3 0.7 0.3 0.7 0.3 0.7 0.3 0.7 0.3 0.7 0.3 0.7 0.3 0.7 0.3 0.7 0.3 0.7 0.3 0.7 0.3 0.7 0.3 0.7 0.3 0.7 0.3 0.7 0.3 0.7 0.3 0.7 0.3 0.7 0.3 0.7 0.3 0.7 0.3 0.7 0.3 0.7 0.3 0.7 0.3 0.7 0.3 0.7 0.3 0.7 0.3 0.7 0.3 0.7 0.3 0.7 0.3 0.7 0.3 0.7 0.3 0.7 0.3 0.7 0.3 0.7 0.3 0.7 0.3 0.7 0.3 0.7 0.3 0.7 0.3 0.7 0.3 0.7 0.3 0.7 0.3 0.7 0.3 0.7 0.3 0.7 0.3 0.7 0.3 0.7 0.3 0.7 0.3 0.7 0.3 0.7 0.3 0.7 0.3 0.7 0.3 0.7 0.3 0.7 0.3 0.7 0.3 0.7 0.3 0.7 0.3 0.7 0.3 0.7 0.3 0.7 0.3 0.7 0.3 0.7 0.3 0.7 0.3 0.7 0.3 0.7 0.3 0.7 0.3 0.7 0.3 0.7 0.3 0.7 0.3 0.7 0.3 0.7 0.3 0.7 0.3 0.7 0.3 0.7 0.3 0.7 0.3 0.7 0.3 0.7 0.3 0.7 0.3 0.7 0.3 0.7 0.3 0.7 0.3 0.7 0.3 0.7 0.3 0.7 0.3 0.7 0.3 0.7 0.3 0.7 0.3 0.7 0.3 0.7 0.3 0.7 0.3 0.7 0.3 0.7 0.3 0.7 0.3 0.7 0.3 0.7 0.3 0.7 0.3 0.7 0.3 0.7 0.3 0.7 0.3 0.7 0.3 0.7 0.3 0.7 0.3 0.7 0.3 0.7 0.3 0.7 0.3 0.7 0.3 0.7 0.3 0.7 0.3 0.7 0.3 0.7 0.3 0.7 0.3 0.7 0.3 0.7 0.3 0.7 0.3 0.7 0.3 0.7 0.3 0.7 0.3 0.7 0.3 0.7 0.3 0.7 0.3 0.7 0.3 0.7 0.3 0.7 0.3 0.7 0.3 0.7 0.3 0.7 0.3 0.7 0.3 0.7 0.3 0.7 0.3 0.7 0.3 0.7 0.3 0.7 0.3 0.7 0.3 0.7 0.3 0.7 0.3 0.7 0.3 0.7 0.3 0.7 0.3 0.7 0.3 0.7 0.3 0.7 0.3 0.7 0.3 0.7 0.3 0.7 0.3 0.7 0.3 0.7 0.3 0.7 0.3 0.7 0.3 0.7 0.3 0.7 0.3 0.7 0.3 0.7 0.3 0.7 0.3 0.7 0.3 0.7 0.3 0.7 0.3 0.7 0.3 0.7 0.3 0.7 0.3 0.7 0.3 0.7 0.3 0.7 0.3 0.7 0.3 0.7 0.3 0.7 0.3 0.7 0.3 0.7 0.3 0.7 0.3 0.7 0.3 0.7 0.3 0.7 0.3 0.7 0.3 0.7 0.3 0.7 0.3 0.7 0.3 0.7 0.3 0.7 0.3 0.7 0.3 0.7 0.3 0.7 0.3 0.7 0.3 0.7 0.3 0.7 0.3 0.7 0.3 0.7 0.3 0.7 0.3 0.7 0.3 0.7 0.3 0.7 0.3 0.7 0.3 0.7 0.3 0.7 0.3 0.7 0.3 0.7 0.3 0.7 0.3 0.7 0.3 0.7 0.3 0.7 0.3 0.7 0.3 0.7 0.3 0.7 0.3 0.7 0.3 0.7 0.3 0.7 0.3 0.7 0.3 0.7 0.3 0.7 0.3 0.7 0.3 0.7 0.3 0.7 0.3 0.7 0.3 0.7 0.3 0.7 0.3 0.7 0.3 0.7 0.3 0.7999979679898291 0.2000020320101707 0.7 0.3 0.7 0.3 0.7 0.3 0.7 0.3 0.7 0.3 0.7 0.3 0.7 0.3 0.7 0.3 0.7 0.3 0.7 0.3 0.7 0.3 0.7 0.3 0.7 0.3 0.7 0.3 0.7 0.3 0.7 0.3 0.7 0.3 0.7 0.3 0.7 0.3 0.7 0.3 0.7 0.3 0.7 0.3 0.7 0.3 0.7 0.3 0.7 0.3 0.7 0.3 0.7 0.3 0.7 0.3 0.7 0.3 0.7 0.3 0.7 0.3 0.7 0.3 0.7 0.3 0.7 0.3 0.7 0.3 0.7 0.3 0.7 0.3 0.7 0.3 0.7 0.3 0.7 0.3 0.7 0.3 0.7 0.3 0.7 0.3 0.7 0.3 0.7 0.3 0.7 0.3 0.7 0.3 0.7 0.3 0.7 0.3 0.7 0.3 0.7 0.3 0.7 0.3 0.7 0.3 0.7 0.3 0.7 0.3 0.7 0.3 0.7 0.3 0.7 0.3 0.7 0.3 0.7 0.3 0.7 0.3 0.7 0.3 0.7 0.3 0.7 0.3 0.7 0.3 0.7 0.3 0.7 0.3 0.7986553478497554 0.2013446521502445 0.7 0.3 0.7 0.3 0.7 0.3 0.7 0.3 0.7 0.3 0.7 0.3 0.7 0.3 0.7 0.3 0.7 0.3 0.7 0.3 0.7 0.3 0.7 0.3 0.7 0.3 0.7 0.3 0.7 0.3 0.7 0.3 0.7 0.3 0.7 0.3 0.7 0.3 0.7 0.3 0.7 0.3 0.7 0.3 0.7 0.3 0.7 0.3 0.7 0.3 0.7 0.3 0.7 0.3 0.7 0.3 0.7 0.3 0.7030610624514021 0.2969389375485979 0.7 0.3 0.7 0.3 0.7 0.3 0.7 0.3 0.7 0.3 0.7 0.3 0.7 0.3 0.7 0.3 0.7 0.3 0.7 0.3 0.7 0.3 0.7 0.3 0.7 0.3 0.7 0.3 0.7153712190236347 0.2846287809763654 0.7 0.3 0.7 0.3 0.7 0.3 0.7 0.3 0.7 0.3 0.7 0.3 0.7 0.3 0.7 0.3 0.7 0.3 0.7 0.3 0.7 0.3 0.7 0.3 0.7978773151114568 0.2021226848885432 0.7 0.3 0.7417143851587785 0.2582856148412215 0.7997729562488722 0.2002270437511277 0.7 0.3 0.7 0.3 0.7 0.3 0.7 0.3 0.7 0.3 0.7 0.3 0.7 0.3 0.7 0.3 0.7 0.3 0.7 0.3 0.7986553478497554 0.2013446521502445 0.7 0.3 0.7 0.3 0.7390488593712473 0.2609511406287527 0.7 0.3 0.7 0.3 0.7 0.3 0.7 0.3 0.7 0.3 0.7 0.3 0.7 0.3 0.7 0.3 0.7 0.3 0.7 0.3 0.7 0.3 0.7 0.3 0.7 0.3 0.7 0.3 0.7023889232024134 0.2976110767975866 0.7 0.3 0.7 0.3 0.7 0.3 0.7 0.3 0.7 0.3 0.7 0.3 0.7 0.3 0.7 0.3 0.7 0.3 0.7 0.3 0.7 0.3 0.7 0.3 0.7 0.3 0.7 0.3 0.7 0.3 0.7 0.3 0.7 0.3 0.7 0.3 0.7 0.3 0.7 0.3 0.7 0.3 0.7 0.3 0.7 0.3 0.7 0.3 0.7 0.3 0.7 0.3 0.7 0.3 0.7 0.3 0.7 0.3 0.7 0.3 0.7 0.3 0.7 0.3 0.7 0.3 0.7 0.3 0.7 0.3 0.7 0.3 0.7 0.3 0.7 0.3 0.7 0.3 0.7 0.3 0.7 0.3 0.7 0.3 0.7 0.3 0.7 0.3 0.7 0.3 0.7 0.3 0.7 0.3 0.7 0.3 0.7 0.3 0.7 0.3 0.7 0.3 0.7 0.3 0.7 0.3 0.7 0.3 0.7 0.3 0.7 0.3 0.7 0.3 0.7 0.3 0.7 0.3 0.7 0.3 0.7 0.3 0.7 0.3 0.7 0.3 0.7 0.3 0.7 0.3 0.7 0.3 0.7 0.3 0.7 0.3 0.7 0.3 0.7 0.3 0.7 0.3 0.7 0.3 0.7 0.3 0.7 0.3 0.7 0.3 0.7 0.3 0.7 0.3 0.7 0.3 0.7 0.3 0.7 0.3 0.7 0.3 0.7 0.3 0.7 0.3 0.7 0.3 0.7 0.3 0.7 0.3 0.7 0.3 0.7 0.3 0.7066982085792969 0.2933017914207032 0.7062926794727356 0.2937073205272645 0.7 0.3 0.7 0.3 0.7 0.3 0.7 0.3 0.684714521698592 0.3152854783014079 0.7 0.3 0.7 0.3 0.7 0.3 0.7 0.3 0.7 0.3 0.7 0.3 0.7 0.3 0.7 0.3 0.7066982085792969 0.2933017914207032 0.7228368933185619 0.2771631066814381 0.7 0.3 0.7 0.3 0.7 0.3 0.7 0.3 0.6406467384536995 0.3593532615463006 0.7 0.3 0.7 0.3 0.7 0.3 0.7 0.3 0.7 0.3 0.7 0.3 0.7 0.3 0.7 0.3 0.7470913139262575 0.2529086860737426 0.714414889790958 0.285585110209042 0.7 0.3 0.7 0.3 0.7 0.3 0.7 0.3 0.6446225904626643 0.3553774095373357 0.7 0.3 0.7 0.3 0.7 0.3 0.7 0.3 0.7 0.3 0.7 0.3 0.7 0.3 0.7 0.3 0.7589799099228849 0.2410200900771151 0.7722357560831364 0.2277642439168636 0.7 0.3 0.7 0.3 0.7 0.3 0.7 0.3 0.5521516715003054 0.4478483284996947 0.7937135102202248 0.206286489779775 0.7 0.3 0.7 0.3 0.7 0.3 0.7 0.3 0.7 0.3 0.7 0.3 0.7 0.3 0.7066982085792969 0.2933017914207032 0.7062926794727356 0.2937073205272645 0.7 0.3 0.7 0.3 0.7 0.3 0.7 0.3 0.684714521698592 0.3152854783014079 0.7 0.3 0.7 0.3 0.7 0.3 0.7 0.3 0.7 0.3 0.7 0.3 0.7095746968825822 0.2904253031174177 0.7324775886712426 0.2675224113287574 0.7307289075650737 0.2692710924349264 0.7019951656103262 0.2980048343896738 0.6961377817767778 0.3038622182232223 0.7 0.3 0.7 0.3 0.7 0.3 0.7 0.3 0.7 0.3 0.7 0.3 0.7 0.3 0.7 0.3 0.7 0.3 0.7 0.3 0.7986553478497554 0.2013446521502445 0.7 0.3 0.7 0.3 0.7 0.3 0.6475683087847738 0.3524316912152263 0.7 0.3 0.7818957079108844 0.2181042920891156 0.7 0.3 0.7 0.3 0.7 0.3 0.7 0.3 0.7 0.3 0.7 0.3 0.7 0.3 0.7 0.3 0.7 0.3 0.7 0.3 0.7 0.3 0.7 0.3 0.7418816155319533 0.2581183844680467 0.7 0.3 0.7 0.3 0.7 0.3 0.7 0.3 0.7812488069442122 0.2187511930557878 0.7 0.3 0.7 0.3 0.7 0.3 0.7 0.3 0.7 0.3 0.7 0.3 0.7 0.3 0.7 0.3 0.7 0.3 0.6332793821007907 0.3667206178992093 0.7 0.3 0.7 0.3 0.5052792924848115 0.4947207075151885 0.7 0.3 0.7 0.3 0.7 0.3 0.7 0.3 0.7 0.3 0.7 0.3 0.7 0.3 0.7 0.3 0.7 0.3 0.7 0.3 0.7 0.3 0.6973811703593231 0.3026188296406769 0.7 0.3 0.7 0.3 0.7 0.3 0.7 0.3 0.7 0.3 0.7 0.3 0.7 0.3 0.7 0.3 0.7 0.3 0.7 0.3 0.7 0.3 0.7 0.3 0.7 0.3 0.7 0.3 0.7 0.3 0.7 0.3 0.7 0.3 0.7 0.3 0.7 0.3 0.7 0.3 0.7 0.3 0.7 0.3 0.7 0.3 0.7 0.3 0.7 0.3 0.7 0.3 0.7 0.3 0.7 0.3 0.7 0.3 0.7 0.3 0.7 0.3 0.7 0.3 0.7 0.3 0.7 0.3 0.7 0.3 0.7 0.3 0.7 0.3 0.7 0.3 0.7 0.3 0.7 0.3 0.7 0.3 0.7 0.3 0.7 0.3 0.7 0.3 0.7 0.3 0.7 0.3 0.7 0.3 0.7 0.3 0.7 0.3 0.7 0.3 0.7 0.3 0.7 0.3 0.7 0.3 0.7 0.3 0.7 0.3 0.7 0.3 0.7 0.3 0.7 0.3 0.7 0.3 0.7 0.3 0.7 0.3 0.7 0.3 0.7 0.3 0.7 0.3 0.7 0.3 0.7 0.3 0.7 0.3 0.7 0.3 0.7 0.3 0.7 0.3 0.7 0.3 0.7 0.3 0.7 0.3 0.7 0.3 0.7 0.3 0.7 0.3 0.7 0.3 0.7 0.3 0.7 0.3 0.7 0.3 0.7 0.3 0.7 0.3 0.7 0.3 0.7 0.3 0.7 0.3 0.7 0.3 0.7 0.3 0.7 0.3 0.7 0.3 0.7 0.3 0.7 0.3 0.7 0.3 0.7 0.3 0.7 0.3 0.7 0.3 0.7 0.3 0.7 0.3 0.7 0.3 0.7 0.3 0.7 0.3 0.7 0.3 0.7 0.3 0.7 0.3 0.7 0.3 0.7 0.3 0.7 0.3 0.7 0.3 0.7 0.3 0.7 0.3 0.7 0.3 0.7 0.3 0.7 0.3 0.7 0.3 0.7 0.3 0.7 0.3 0.7 0.3 0.7 0.3 0.7 0.3 0.7 0.3 0.7 0.3 0.7 0.3 0.7 0.3 0.7 0.3 0.7 0.3 0.7 0.3 0.7 0.3 0.7 0.3 0.7 0.3 0.4668389418845006 0.5331610581154995 0.7 0.3 0.7 0.3 0.7 0.3 0.7 0.3 0.7 0.3 0.7 0.3 0.7 0.3 0.7 0.3 0.7 0.3 0.7 0.3 0.7 0.3 0.7 0.3 0.7 0.3 0.7 0.3 0.7 0.3 0.7 0.3 0.7 0.3 0.7 0.3 0.7 0.3 0.7 0.3 0.7 0.3 0.7 0.3 0.7 0.3 0.7 0.3 0.7 0.3 0.7 0.3 0.7 0.3 0.7 0.3 0.7 0.3 0.7 0.3 0.7 0.3 0.7 0.3 0.7 0.3 0.7 0.3 0.7 0.3 0.7 0.3 0.7 0.3 0.7 0.3 0.7 0.3 0.7 0.3 0.7 0.3 0.7 0.3 0.7 0.3 0.7 0.3 0.7 0.3 0.7 0.3 0.7 0.3 0.7 0.3 0.7 0.3 0.7 0.3 0.7 0.3 0.7 0.3 0.7 0.3 0.7 0.3 0.7 0.3 0.7 0.3 0.7 0.3 0.7 0.3 0.7 0.3 0.7 0.3 0.7 0.3 0.7 0.3 0.7 0.3 0.7 0.3 0.7 0.3 0.7 0.3 0.7 0.3 0.7 0.3 0.7 0.3 0.7 0.3 0.7 0.3 0.7 0.3 0.7 0.3 0.7 0.3 0.7 0.3 0.7 0.3 0.7 0.3 0.7 0.3 0.7 0.3 0.7 0.3 0.7 0.3 0.7 0.3 0.7 0.3 0.7 0.3 0.7 0.3 0.7 0.3 0.7 0.3 0.7 0.3 0.7 0.3 0.7 0.3 0.7 0.3 0.7 0.3 0.7 0.3 0.7 0.3 0.7 0.3 0.7 0.3 0.7 0.3 0.7 0.3 0.7 0.3 0.7 0.3 0.7 0.3 0.7 0.3 0.7 0.3 0.7 0.3 0.7 0.3 0.7 0.3 0.7 0.3 0.7 0.3 0.7 0.3 0.7 0.3 0.7 0.3 0.7 0.3 0.7 0.3 0.7 0.3 0.7 0.3 0.7 0.3 0.7 0.3 0.7 0.3 0.7 0.3 0.7 0.3 0.7 0.3 0.7 0.3 0.7 0.3 0.7 0.3 0.7 0.3 0.7 0.3 0.7 0.3 0.7 0.3 0.7 0.3 0.7 0.3 0.7 0.3 0.7 0.3 0.7 0.3 0.7 0.3 0.7 0.3 0.7 0.3 0.7 0.3 0.7 0.3 0.7 0.3 0.7 0.3 0.7 0.3 0.7 0.3 0.7 0.3 0.7 0.3 0.7 0.3 0.7 0.3 0.7 0.3 0.7 0.3 0.7 0.3 0.7 0.3 0.7 0.3 0.7 0.3 0.7 0.3 0.7 0.3 0.7 0.3 0.7 0.3 0.4673264205072719 0.5326735794927281 0.7 0.3 0.7 0.3 0.7 0.3 0.7 0.3 0.7 0.3 0.7 0.3 0.7 0.3 0.7 0.3 0.7 0.3 0.7 0.3 0.7 0.3 0.7 0.3 0.7 0.3 0.7 0.3 0.7 0.3 0.7 0.3 0.7 0.3 0.7 0.3 0.7 0.3 0.7 0.3 0.7 0.3 0.7 0.3 0.7 0.3 0.7 0.3 0.7 0.3 0.7 0.3 0.7 0.3 0.7 0.3 0.7 0.3 0.7 0.3 0.7 0.3 0.7 0.3 0.7 0.3 0.7 0.3 0.7 0.3 0.7 0.3 0.7 0.3 0.7 0.3 0.7 0.3 0.7 0.3 0.7 0.3 0.7 0.3 0.7 0.3 0.7 0.3 0.7 0.3 0.7 0.3 0.7 0.3 0.7 0.3 0.7 0.3 0.7 0.3 0.7 0.3 0.7 0.3 0.7 0.3 0.7 0.3 0.7 0.3 0.7 0.3 0.7 0.3 0.7 0.3 0.7 0.3 0.7 0.3 0.7 0.3 0.7 0.3 0.7 0.3 0.7 0.3 0.7 0.3 0.7 0.3 0.7 0.3 0.7 0.3 0.7 0.3 0.7 0.3 0.7 0.3 0.7 0.3 0.7 0.3 0.7 0.3 0.7 0.3 0.7 0.3 0.7 0.3 0.7 0.3 0.7 0.3 0.7 0.3 0.7 0.3 0.7 0.3 0.7 0.3 0.7 0.3 0.7 0.3 0.7 0.3 0.7 0.3 0.7 0.3 0.7 0.3 0.7 0.3 0.7 0.3 0.7 0.3 0.7 0.3 0.7 0.3 0.7 0.3 0.7 0.3 0.7 0.3 0.7 0.3 0.7 0.3 0.7 0.3 0.7 0.3 0.7 0.3 0.6999638505146241 0.3000361494853759 0.7 0.3 0.7 0.3 0.7 0.3 0.7 0.3 0.7 0.3 0.7 0.3 0.7 0.3 0.7 0.3 0.7 0.3 0.7 0.3 0.7 0.3 0.7 0.3 0.7 0.3 0.7 0.3 0.6999050556551114 0.3000949443448885 0.7 0.3 0.7 0.3 0.7 0.3 0.7 0.3 0.7 0.3 0.7 0.3 0.7 0.3 0.7 0.3 0.7 0.3 0.7 0.3 0.7 0.3 0.7 0.3 0.7996310251092273 0.2003689748907726 0.7 0.3 0.6819799608094385 0.3180200391905615 0.7 0.3 0.7 0.3 0.7 0.3 0.7 0.3 0.7 0.3 0.7 0.3 0.7 0.3 0.7 0.3 0.7 0.3 0.7 0.3 0.7 0.3 0.7 0.3 0.7 0.3 0.7 0.3 0.5876244711392019 0.412375528860798 0.7 0.3 0.7 0.3 0.7 0.3 0.7 0.3 0.7 0.3 0.7 0.3 0.7 0.3 0.7 0.3 0.7 0.3 0.7 0.3 0.7 0.3 0.7 0.3 0.7 0.3 0.7 0.3 0.6999701918659692 0.3000298081340309 0.7 0.3 0.7 0.3 0.7 0.3 0.7 0.3 0.7 0.3 0.7 0.3 0.7 0.3 0.7 0.3 0.7 0.3 0.7 0.3 0.7 0.3 0.7 0.3 0.7 0.3 0.7 0.3 0.7 0.3 0.7 0.3 0.7 0.3 0.7 0.3 0.7 0.3 0.7 0.3 0.7 0.3 0.7 0.3 0.7 0.3 0.7 0.3 0.7 0.3 0.7 0.3 0.7 0.3 0.7 0.3 0.7 0.3 0.7 0.3 0.7 0.3 0.7 0.3 0.7 0.3 0.7 0.3 0.7 0.3 0.7 0.3 0.7 0.3 0.7 0.3 0.7 0.3 0.7 0.3 0.7 0.3 0.7 0.3 0.7 0.3 0.7 0.3 0.7 0.3 0.7 0.3 0.7 0.3 0.7 0.3 0.7 0.3 0.7 0.3 0.7 0.3 0.7 0.3 0.7 0.3 0.7 0.3 0.7 0.3 0.7 0.3 0.7 0.3 0.7 0.3 0.7 0.3 0.7 0.3 0.7 0.3 0.7 0.3 0.7 0.3 0.7 0.3 0.7 0.3 0.7 0.3 0.7 0.3 0.7 0.3 0.7 0.3 0.7 0.3 0.7 0.3 0.7 0.3 0.7 0.3 0.7 0.3 0.7 0.3 0.7 0.3 0.7 0.3 0.7 0.3 0.7 0.3 0.7 0.3 0.7 0.3 0.7 0.3 0.7 0.3 0.7 0.3 0.7 0.3 0.7 0.3 0.7 0.3 0.7 0.3 0.7005764581144543 0.2994235418855457 0.7004029350836933 0.2995970649163066 0.7 0.3 0.7 0.3 0.7 0.3 0.7 0.3 0.7 0.3 0.7 0.3 0.7 0.3 0.7 0.3 0.7 0.3 0.7 0.3 0.7 0.3 0.7 0.3 0.7 0.3 0.7005764581144543 0.2994235418855457 0.7009653890139491 0.2990346109860509 0.7 0.3 0.7 0.3 0.7 0.3 0.7 0.3 0.7 0.3 0.7 0.3 0.7 0.3 0.7 0.3 0.7 0.3 0.7 0.3 0.7 0.3 0.7 0.3 0.7 0.3 0.7381758621669386 0.2618241378330614 0.7067204265575886 0.2932795734424115 0.7 0.3 0.7 0.3 0.7 0.3 0.7 0.3 0.7 0.3 0.7 0.3 0.7 0.3 0.7 0.3 0.7 0.3 0.7 0.3 0.7 0.3 0.7 0.3 0.7 0.3 0.7775132697395085 0.2224867302604916 0.7960595974973174 0.2039404025026826 0.7 0.3 0.7 0.3 0.7 0.3 0.7 0.3 0.4913631891623507 0.5086368108376492 0.7 0.3 0.7 0.3 0.7 0.3 0.7 0.3 0.7 0.3 0.7 0.3 0.7 0.3 0.7 0.3 0.7005764581144543 0.2994235418855457 0.7004029350836933 0.2995970649163066 0.7 0.3 0.7 0.3 0.7 0.3 0.7 0.3 0.7 0.3 0.7 0.3 0.7 0.3 0.7 0.3 0.7 0.3 0.7 0.3 0.7 0.3 0.7 0.3 0.677552975366785 0.322447024633215 0.7 0.3 0.7 0.3 0.6541920476621838 0.3458079523378163 0.7 0.3 0.6634112960369475 0.3365887039630526 0.7 0.3 0.7 0.3 0.7 0.3 0.7 0.3 0.6988458974934803 0.3011541025065198 0.7 0.3 0.7 0.3 0.7 0.3 0.7 0.3 0.6891447096092733 0.3108552903907267 0.7 0.3 0.7 0.3 0.6386388487112499 0.3613611512887501 0.7 0.3 0.6869832073718967 0.3130167926281033 0.7 0.3 0.7 0.3 0.7 0.3 0.7 0.3 0.6900666347914656 0.3099333652085345 0.7 0.3 0.7 0.3 0.7 0.3 0.7 0.3 0.5751334995624998 0.4248665004375002 0.7 0.3 0.7 0.3 0.6427003979184223 0.3572996020815777 0.7 0.3 0.6868607334109927 0.3131392665890073 0.7 0.3 0.7 0.3 0.7194251303143262 0.2805748696856739 0.7 0.3 0.6966756831242605 0.3033243168757394 0.7 0.3 0.7 0.3 0.7 0.3 0.7 0.3 0.6446189522676988 0.3553810477323011 0.7138172971020894 0.2861827028979106 0.7 0.3 0.3768810258125039 0.6231189741874962 0.7 0.3 0.687805447070152 0.312194552929848 0.7697428591472062 0.2302571408527938 0.7 0.3 0.7 0.3 0.7 0.3 0.6972746964579307 0.3027253035420692 0.8039534508336406 0.1960465491663595 0.7 0.3 0.7 0.3 0.7 0.3 0.6989294152292106 0.3010705847707895 0.7 0.3 0.7 0.3 0.6999198719414959 0.3000801280585041 0.7 0.3 0.6992868992761628 0.3007131007238372 0.7 0.3 0.7 0.3 0.7 0.3 0.7 0.3 0.6999237648449629 0.3000762351550372 0.7 0.3 0.7 0.3 0.7 0.3 0.7 0.3 0.7 0.3 0.7 0.3 0.7 0.3 0.7 0.3 0.7 0.3 0.7 0.3 0.7 0.3 0.7 0.3 0.7 0.3 0.7 0.3 0.7 0.3 0.7 0.3 0.7 0.3 0.7 0.3 0.7 0.3 0.7 0.3 0.7 0.3 0.7 0.3 0.7 0.3 0.7 0.3 0.7 0.3 0.7 0.3 0.7 0.3 0.7 0.3 0.7 0.3 0.7 0.3 0.7 0.3 0.7 0.3 0.7 0.3 0.7 0.3 0.7 0.3 0.7 0.3 0.7 0.3 0.7 0.3 0.7 0.3 0.7 0.3 0.7 0.3 0.7 0.3 0.7 0.3 0.7 0.3 0.7 0.3 0.7 0.3 0.7 0.3 0.7 0.3 0.7 0.3 0.7 0.3 0.7 0.3 0.7 0.3 0.7 0.3 0.7 0.3 0.7 0.3 0.7 0.3 0.7 0.3 0.7 0.3 0.7 0.3 0.7 0.3 0.7 0.3 0.7 0.3 0.7 0.3 0.7 0.3 0.7 0.3 0.7 0.3 0.7 0.3 0.7 0.3 0.7 0.3 0.7 0.3 0.7 0.3 0.7 0.3 0.7 0.3 0.7 0.3 0.7 0.3 0.7 0.3 0.7 0.3 0.7 0.3 0.7 0.3 0.7 0.3 0.7 0.3 0.7 0.3 0.7 0.3 0.7 0.3 0.7 0.3 0.7 0.3 0.7 0.3 0.7 0.3 0.7 0.3 0.7 0.3 0.7 0.3 0.7 0.3 0.7 0.3 0.7 0.3 0.7 0.3 0.7 0.3 0.7 0.3 0.7 0.3 0.7 0.3 0.7 0.3 0.7 0.3 0.7 0.3 0.7 0.3 0.7 0.3 0.7 0.3 0.7 0.3 0.7 0.3 0.7 0.3 0.7 0.3 0.7 0.3 0.7 0.3 0.7 0.3 0.7 0.3 0.7 0.3 0.7 0.3 0.7 0.3 0.7 0.3 0.7 0.3 0.7 0.3 0.7 0.3 0.7 0.3 0.7 0.3 0.7 0.3 0.7 0.3 0.7 0.3 0.7 0.3 0.7 0.3 0.7 0.3 0.7 0.3 0.7 0.3 0.7 0.3 0.7 0.3 0.7 0.3 0.7 0.3 0.7 0.3 0.7 0.3 0.7 0.3 0.7 0.3 0.7 0.3 0.7 0.3 0.7 0.3 0.7 0.3 0.7 0.3 0.7 0.3 0.7 0.3 0.7 0.3 0.7 0.3 0.7 0.3 0.7 0.3 0.7 0.3 0.7 0.3 0.7 0.3 0.7 0.3 0.7 0.3 0.7 0.3 0.7 0.3 0.7 0.3 0.7 0.3 0.7 0.3 0.7 0.3 0.7 0.3 0.7 0.3 0.7 0.3 0.7 0.3 0.7 0.3 0.7 0.3 0.7 0.3 0.7 0.3 0.7 0.3 0.7 0.3 0.7 0.3 0.7 0.3 0.7 0.3 0.7 0.3 0.7 0.3 0.7 0.3 0.7 0.3 0.7 0.3 0.7 0.3 0.7 0.3 0.7 0.3 0.7 0.3 0.7 0.3 0.7 0.3 0.4668086582539716 0.5331913417460283 0.7 0.3 0.7 0.3 0.7 0.3 0.7 0.3 0.7 0.3 0.7 0.3 0.7 0.3 0.7 0.3 0.7 0.3 0.7 0.3 0.7 0.3 0.7 0.3 0.7 0.3 0.7 0.3 0.7 0.3 0.7 0.3 0.7 0.3 0.7 0.3 0.7 0.3 0.7 0.3 0.7 0.3 0.7 0.3 0.7 0.3 0.7 0.3 0.7 0.3 0.7 0.3 0.7 0.3 0.7 0.3 0.7 0.3 0.7 0.3 0.7 0.3 0.7 0.3 0.7 0.3 0.7 0.3 0.7 0.3 0.7 0.3 0.7 0.3 0.7 0.3 0.7 0.3 0.7 0.3 0.7 0.3 0.7 0.3 0.7 0.3 0.7 0.3 0.7 0.3 0.7 0.3 0.7 0.3 0.7 0.3 0.7 0.3 0.7 0.3 0.7 0.3 0.7 0.3 0.7 0.3 0.7 0.3 0.7 0.3 0.7 0.3 0.7 0.3 0.7 0.3 0.7 0.3 0.7 0.3 0.7 0.3 0.7 0.3 0.7 0.3 0.7 0.3 0.7 0.3 0.7 0.3 0.7 0.3 0.7 0.3 0.7 0.3 0.7 0.3 0.7 0.3 0.7 0.3 0.7 0.3 0.7 0.3 0.7 0.3 0.7 0.3 0.7 0.3 0.7 0.3 0.7 0.3 0.7 0.3 0.7 0.3 0.7 0.3 0.7 0.3 0.7 0.3 0.7 0.3 0.7 0.3 0.7 0.3 0.7 0.3 0.7 0.3 0.7 0.3 0.7 0.3 0.7 0.3 0.7 0.3 0.7 0.3 0.7 0.3 0.7 0.3 0.7 0.3 0.7 0.3 0.7 0.3 0.7 0.3 0.7 0.3 0.7 0.3 0.7 0.3 0.7 0.3 0.7 0.3 0.7 0.3 0.7 0.3 0.7 0.3 0.7 0.3 0.7 0.3 0.7 0.3 0.7 0.3 0.7 0.3 0.7 0.3 0.7 0.3 0.7 0.3 0.7 0.3 0.7 0.3 0.7 0.3 0.7 0.3 0.7 0.3 0.7 0.3 0.7 0.3 0.7 0.3 0.7 0.3 0.7 0.3 0.7 0.3 0.7 0.3 0.7 0.3 0.7 0.3 0.7 0.3 0.7 0.3 0.7 0.3 0.7 0.3 0.7 0.3 0.7 0.3 0.7 0.3 0.7 0.3 0.7 0.3 0.7 0.3 0.7 0.3 0.7 0.3 0.7 0.3 0.7 0.3 0.7 0.3 0.7 0.3 0.7 0.3 0.7 0.3 0.7 0.3 0.7 0.3 0.7 0.3 0.7 0.3 0.7 0.3 0.7 0.3 0.7 0.3 0.7 0.3 0.7 0.3 0.7 0.3 0.7 0.3 0.7 0.3 0.7 0.3 0.7 0.3 0.7 0.3 0.7 0.3 0.7 0.3 0.7 0.3 0.7 0.3 0.7 0.3 0.7 0.3 0.7 0.3 0.7 0.3 0.7 0.3 0.7 0.3 0.7 0.3 0.7 0.3 0.7 0.3 0.7 0.3 0.7 0.3 0.7 0.3 0.7 0.3 0.7 0.3 0.7 0.3 0.7 0.3 0.7 0.3 0.7 0.3 0.7 0.3 0.7 0.3 0.7 0.3 0.7 0.3 0.7 0.3 0.7 0.3 0.7 0.3 0.7 0.3 0.7 0.3 0.7 0.3 0.7 0.3 0.7 0.3 0.7 0.3 0.7 0.3 0.7 0.3 0.7 0.3 0.7 0.3 0.7 0.3 0.7 0.3 0.7 0.3 0.7 0.3 0.7 0.3 0.7 0.3 0.7 0.3 0.7 0.3 0.7 0.3 0.7 0.3 0.7 0.3 0.7 0.3 0.7 0.3 0.7 0.3 0.7 0.3 0.7 0.3 0.7 0.3 0.7 0.3 0.7 0.3 0.7 0.3 0.7 0.3 0.7 0.3 0.7 0.3 0.7 0.3 0.7 0.3 0.7 0.3 0.7 0.3 0.7 0.3 0.7 0.3 0.7 0.3 0.7 0.3 0.7 0.3 0.7 0.3 0.7 0.3 0.7 0.3 0.7 0.3 0.7 0.3 0.7 0.3 0.7 0.3 0.7 0.3 0.7 0.3 0.7 0.3 0.7 0.3 0.7 0.3 0.7 0.3 0.7 0.3 0.7 0.3 0.7 0.3 0.7 0.3 0.7 0.3 0.7 0.3 0.7 0.3 0.7 0.3 0.7 0.3 0.7 0.3 0.7 0.3 0.7 0.3 0.7 0.3 0.7 0.3 0.7 0.3 0.7 0.3 0.7 0.3 0.7 0.3 0.7 0.3 0.7 0.3 0.7 0.3 0.7 0.3 0.7 0.3 0.7 0.3 0.7 0.3 0.7 0.3 0.7 0.3 0.7 0.3 0.7 0.3 0.7 0.3 0.7 0.3 0.7 0.3 0.7 0.3 0.7 0.3 0.7 0.3 0.7 0.3 0.7 0.3 0.7 0.3 0.7 0.3 0.7 0.3 0.7 0.3 0.7 0.3 0.7 0.3 0.7 0.3 0.7 0.3 0.7 0.3 0.7 0.3 0.7 0.3 0.7 0.3 0.7 0.3 0.7 0.3 0.7 0.3 0.7 0.3 0.7 0.3 0.7 0.3 0.7 0.3 0.7 0.3 0.7 0.3 0.7 0.3 0.7 0.3 0.7 0.3 0.7 0.3 0.7 0.3 0.7 0.3 0.7 0.3 0.7 0.3 0.7 0.3 0.7 0.3 0.7 0.3 0.7 0.3 0.7 0.3 0.7 0.3 0.7 0.3 0.7 0.3 0.7 0.3 0.7 0.3 0.7 0.3 0.7 0.3 0.7 0.3 0.7 0.3 0.7 0.3 0.7 0.3 0.7 0.3 0.7 0.3 0.7 0.3 0.7 0.3 0.7 0.3 0.7 0.3 0.7 0.3 0.7 0.3 0.7 0.3 0.7 0.3 0.7 0.3 0.7 0.3 0.7 0.3 0.7 0.3 0.7 0.3 0.7 0.3 0.7 0.3 0.7 0.3 0.7 0.3 0.7 0.3 0.7 0.3 0.7 0.3 0.7 0.3 0.7 0.3 0.7 0.3 0.7 0.3 0.7 0.3 0.7 0.3 0.7 0.3 0.7 0.3 0.7 0.3 0.7 0.3 0.7 0.3 0.7 0.3 0.7 0.3 0.7 0.3 0.7 0.3 0.7 0.3 0.7 0.3 0.7 0.3 0.7 0.3 0.7 0.3 0.7 0.3 0.7 0.3 0.7 0.3 0.7 0.3 0.7 0.3 0.7 0.3 0.7 0.3 0.7 0.3 0.7 0.3 0.7 0.3 0.7 0.3 0.7 0.3 0.7 0.3 0.7 0.3 0.7 0.3 0.7 0.3 0.7 0.3 0.7 0.3 0.7 0.3 0.7 0.3 0.7 0.3 0.7 0.3 0.7 0.3 0.7 0.3 0.7 0.3 0.7 0.3 0.7 0.3 0.7 0.3 0.7 0.3 0.7 0.3 0.7 0.3 0.7 0.3 0.7 0.3 0.7 0.3 0.7 0.3 0.7 0.3 0.7 0.3 0.7 0.3 0.7 0.3 0.7 0.3 0.7 0.3 0.7 0.3 0.7 0.3 0.7 0.3 0.7 0.3 0.7 0.3 0.7 0.3 0.7008475601731323 0.2991524398268677 0.7030130798799605 0.2969869201200394 0.7028399001636119 0.2971600998363881 0.700174161398077 0.299825838601923 0.7028807414969432 0.2971192585030568 0.7 0.3 0.7 0.3 0.7 0.3 0.7 0.3 0.7 0.3 0.7 0.3 0.7 0.3 0.7 0.3 0.7 0.3 0.7 0.3 0.7114334538952134 0.2885665461047867 0.7131946696190933 0.2868053303809067 0.7052120971040537 0.2947879028959463 0.7061217924841792 0.2938782075158208 0.7037438277587634 0.2962561722412366 0.4667033215752915 0.5332966784247086 0.7 0.3 0.7 0.3 0.7 0.3 0.7 0.3 0.7 0.3 0.7 0.3 0.7 0.3 0.7 0.3 0.7 0.3 0.7100657350938175 0.2899342649061824 0.7047772291707992 0.2952227708292008 0.7047046731488001 0.2952953268511999 0.7103141170395336 0.2896858829604663 0.7053631753581026 0.2946368246418974 0.7 0.3 0.7 0.3 0.7 0.3 0.7 0.3 0.7995062994615857 0.2004937005384144 0.7 0.3 0.7 0.3 0.7 0.3 0.7 0.3 0.7 0.3 0.7029507570349485 0.2970492429650516 0.7054179853630069 0.2945820146369931 0.7094944678648665 0.2905055321351335 0.8027157924567865 0.1972842075432135 0.7046821122147081 0.295317887785292 0.7 0.3 0.7 0.3 0.7 0.3 0.7 0.3 0.7 0.3 0.7 0.3 0.7 0.3 0.7 0.3 0.7 0.3 0.7 0.3 0.7001981617484432 0.2998018382515569 0.7002597546803708 0.2997402453196292 0.7002037324054173 0.2997962675945827 0.7001492146251109 0.299850785374889 0.700202207822411 0.299797792177589 0.7 0.3 0.7 0.3 0.7 0.3 0.7 0.3 0.7 0.3 0.7 0.3 0.7 0.3 0.7 0.3 0.7 0.3 0.7 0.3 0.7 0.3 0.7 0.3 0.7 0.3 0.7 0.3 0.7 0.3 0.7 0.3 0.7 0.3 0.7 0.3 0.7 0.3 0.7 0.3 0.7 0.3 0.7 0.3 0.7 0.3 0.7 0.3 0.7 0.3 0.7 0.3 0.7 0.3 0.7 0.3 0.7 0.3 0.7 0.3 0.7 0.3 0.7 0.3 0.7 0.3 0.7 0.3 0.7 0.3 0.7 0.3 0.7 0.3 0.7 0.3 0.7 0.3 0.7 0.3 0.7 0.3 0.7 0.3 0.7 0.3 0.7 0.3 0.7 0.3 0.7 0.3 0.7 0.3 0.7 0.3 0.7 0.3 0.7 0.3 0.7 0.3 0.7 0.3 0.7 0.3 0.7 0.3 0.7 0.3 0.7 0.3 0.7 0.3 0.7 0.3 0.7 0.3 0.7 0.3 0.7 0.3 0.7 0.3 0.7 0.3 0.7 0.3 0.7 0.3 0.7 0.3 0.7 0.3 0.7 0.3 0.7 0.3 0.7 0.3 0.7 0.3 0.7 0.3 0.7 0.3 0.7 0.3 0.7 0.3 0.7 0.3 0.7 0.3 0.7 0.3 0.7 0.3 0.7 0.3 0.7 0.3 0.7 0.3 0.7 0.3 0.7 0.3 0.7 0.3 0.7 0.3 0.7 0.3 0.7 0.3 0.7 0.3 0.7 0.3 0.7 0.3 0.7 0.3 0.7 0.3 0.7 0.3 0.7 0.3 0.7 0.3 0.7 0.3 0.7 0.3 0.7 0.3 0.7 0.3 0.7 0.3 0.7 0.3 0.7 0.3 0.7 0.3 0.7 0.3 0.7 0.3 0.7 0.3 0.7 0.3 0.7 0.3 0.7 0.3 0.7 0.3 0.7 0.3 0.7 0.3 0.7 0.3 0.7 0.3 0.7 0.3 0.7 0.3 0.7 0.3 0.7 0.3 0.7 0.3 0.7 0.3 0.7 0.3 0.7 0.3 0.7 0.3 0.7 0.3 0.7 0.3 0.7 0.3 0.7 0.3 0.7 0.3 0.7 0.3 0.7 0.3 0.7 0.3 0.7 0.3 0.7 0.3 0.7 0.3 0.7 0.3 0.7 0.3 0.7 0.3 0.7 0.3 0.7 0.3 0.7 0.3 0.7 0.3 0.7 0.3 0.7 0.3 0.7 0.3 0.7 0.3 0.7 0.3 0.7 0.3 0.7 0.3 0.7 0.3 0.7 0.3 0.7 0.3 0.7 0.3 0.7 0.3 0.7 0.3 0.7 0.3 0.7 0.3 0.7 0.3 0.7 0.3 0.7 0.3 0.7 0.3 0.7 0.3 0.7 0.3 0.7 0.3 0.7 0.3 0.7 0.3 0.7 0.3 0.7 0.3 0.7 0.3 0.7 0.3 0.7 0.3 0.7 0.3 0.7 0.3 0.7 0.3 0.7 0.3 0.7 0.3 0.7 0.3 0.7 0.3 0.7 0.3 0.7 0.3 0.7 0.3 0.7 0.3 0.7 0.3 0.7 0.3 0.7 0.3 0.7 0.3 0.7 0.3 0.7 0.3 0.7 0.3 0.7 0.3 0.7 0.3 0.7 0.3 0.7 0.3 0.7 0.3 0.7 0.3 0.7 0.3 0.7 0.3 0.7 0.3 0.7 0.3 0.7 0.3 0.7 0.3 0.7 0.3 0.7 0.3 0.7 0.3 0.7 0.3 0.7 0.3 0.7 0.3 0.7 0.3 0.7 0.3 0.7 0.3 0.7 0.3 0.7 0.3 0.7 0.3 0.7 0.3 0.7 0.3 0.7 0.3 0.7 0.3 0.7 0.3 0.7 0.3 0.7 0.3 0.7 0.3 0.7 0.3 0.7 0.3 0.7 0.3 0.7 0.3 0.7 0.3 0.7 0.3 0.7 0.3 0.7 0.3 0.7 0.3 0.7 0.3 0.7 0.3 0.7 0.3 0.7 0.3 0.7 0.3 0.7 0.3 0.7 0.3 0.7 0.3 0.7 0.3 0.7 0.3 0.7 0.3 0.7 0.3 0.7 0.3 0.7 0.3 0.7 0.3 0.7 0.3 0.7 0.3 0.7 0.3 0.7 0.3 0.7 0.3 0.7 0.3 0.7 0.3 0.7 0.3 0.7 0.3 0.7 0.3 0.7 0.3 0.7 0.3 0.7 0.3 0.7 0.3 0.7 0.3 0.7 0.3 0.7 0.3 0.7 0.3 0.7 0.3 0.7 0.3 0.7 0.3 0.7 0.3 0.7 0.3 0.7 0.3 0.7 0.3 0.7 0.3 0.7 0.3 0.7 0.3 0.7 0.3 0.7 0.3 0.7 0.3 0.7 0.3 0.7 0.3 0.7 0.3 0.7 0.3 0.7 0.3 0.7 0.3 0.7 0.3 0.7 0.3 0.7 0.3 0.7 0.3 0.7 0.3 0.7 0.3 0.7 0.3 0.7 0.3 0.7 0.3 0.7 0.3 0.7 0.3 0.7 0.3 0.7 0.3 0.7 0.3 0.7 0.3 0.7 0.3 0.7 0.3 0.7 0.3 0.7 0.3 0.7 0.3 0.7 0.3 0.7 0.3 0.7 0.3 0.7 0.3 0.7 0.3 0.7 0.3 0.7 0.3 0.7 0.3 0.7 0.3 0.7 0.3 0.7 0.3 0.7 0.3 0.7 0.3 0.7 0.3 0.7 0.3 0.7 0.3 0.7 0.3 0.7 0.3 0.7 0.3 0.7 0.3 0.7 0.3 0.7 0.3 0.7 0.3 0.7 0.3 0.7 0.3 0.7 0.3 0.7 0.3 0.7 0.3 0.7 0.3 0.7 0.3 0.7 0.3 0.7 0.3 0.7 0.3 0.7 0.3 0.7 0.3 0.7 0.3 0.7 0.3 0.7 0.3 0.7 0.3 0.7 0.3 0.7 0.3 0.7 0.3 0.7 0.3 0.7 0.3 0.7 0.3 0.7 0.3 0.7 0.3 0.7 0.3 0.7 0.3 0.7 0.3 0.7 0.3 0.7 0.3 0.7 0.3 0.7 0.3 0.7 0.3 0.7 0.3 0.7 0.3 0.7 0.3 0.7 0.3 0.7 0.3 0.7 0.3 0.7 0.3 0.7 0.3 0.7 0.3 0.7 0.3 0.7 0.3 0.7 0.3 0.7 0.3 0.7 0.3 0.7 0.3 0.7 0.3 0.7 0.3 0.7 0.3 0.7 0.3 0.7 0.3 0.7 0.3 0.7 0.3 0.7 0.3 0.7 0.3 0.7 0.3 0.7 0.3 0.7 0.3 0.7 0.3 0.7 0.3 0.7 0.3 0.6965447355632116 0.3034552644367884 0.7 0.3 0.7 0.3 0.7 0.3 0.7 0.3 0.7 0.3 0.7 0.3 0.7 0.3 0.7 0.3 0.7 0.3 0.7 0.3 0.7 0.3 0.7 0.3 0.7 0.3 0.7 0.3 0.6030553481083828 0.3969446518916172 0.7 0.3 0.7 0.3 0.7 0.3 0.7 0.3 0.7 0.3 0.7 0.3 0.7 0.3 0.7 0.3 0.7 0.3 0.7 0.3 0.7 0.3 0.7 0.3 0.7 0.3 0.7 0.3 0.6934316539408357 0.3065683460591643 0.7 0.3 0.7 0.3 0.7 0.3 0.7 0.3 0.7 0.3 0.7 0.3 0.7 0.3 0.7 0.3 0.7 0.3 0.7 0.3 0.7 0.3 0.7 0.3 0.7 0.3 0.7 0.3 0.5298559974129681 0.4701440025870319 0.7 0.3 0.7 0.3 0.7 0.3 0.7 0.3 0.7 0.3 0.7 0.3 0.7 0.3 0.7 0.3 0.7 0.3 0.7 0.3 0.7 0.3 0.7 0.3 0.7 0.3 0.7 0.3 0.6975993152822055 0.3024006847177944 0.7 0.3 0.7 0.3 0.7 0.3 0.7 0.3 0.7 0.3 0.7 0.3 0.7 0.3 0.7 0.3 0.7 0.3 0.7 0.3 0.7 0.3 0.7 0.3 0.7 0.3 0.7 0.3 0.7 0.3 0.7 0.3 0.7 0.3 0.7 0.3 0.7 0.3 0.7 0.3 0.7 0.3 0.7 0.3 0.7 0.3 0.7 0.3 0.7 0.3 0.7 0.3 0.7 0.3 0.7 0.3 0.7 0.3 0.7 0.3 0.7 0.3 0.7 0.3 0.7 0.3 0.7 0.3 0.7 0.3 0.7 0.3 0.7 0.3 0.7 0.3 0.7 0.3 0.7 0.3 0.7 0.3 0.7 0.3 0.7 0.3 0.7 0.3 0.7 0.3 0.7 0.3 0.7 0.3 0.7 0.3 0.7 0.3 0.7 0.3 0.7 0.3 0.7 0.3 0.7 0.3 0.7 0.3 0.7 0.3 0.7 0.3 0.7 0.3 0.7 0.3 0.7 0.3 0.7 0.3 0.7 0.3 0.7 0.3 0.7 0.3 0.7 0.3 0.7 0.3 0.7 0.3 0.7 0.3 0.7 0.3 0.7 0.3 0.7 0.3 0.7 0.3 0.7 0.3 0.7 0.3 0.7 0.3 0.7 0.3 0.7 0.3 0.7 0.3 0.7 0.3 0.7 0.3 0.7 0.3 0.7 0.3 0.7 0.3 0.7 0.3 0.7 0.3 0.7 0.3 0.7 0.3 0.7 0.3 0.7 0.3 0.7 0.3 0.7 0.3 0.7 0.3 0.7 0.3 0.7 0.3 0.7 0.3 0.7 0.3 0.7 0.3 0.7 0.3 0.7 0.3 0.7 0.3 0.7 0.3 0.7 0.3 0.7 0.3 0.7 0.3 0.7 0.3 0.7 0.3 0.7 0.3 0.7 0.3 0.7 0.3 0.7 0.3 0.7 0.3 0.7 0.3 0.7 0.3 0.7 0.3 0.7 0.3 0.7 0.3 0.7 0.3 0.7 0.3 0.7 0.3 0.7 0.3 0.7 0.3 0.7 0.3 0.7 0.3 0.7 0.3 0.7 0.3 0.7 0.3 0.7 0.3 0.7 0.3 0.7 0.3 0.7 0.3 0.7 0.3 0.7 0.3 0.7 0.3 0.7 0.3 0.7 0.3 0.7 0.3 0.7 0.3 0.7 0.3 0.7 0.3 0.7 0.3 0.7 0.3 0.7 0.3 0.7 0.3 0.7 0.3 0.7 0.3 0.7 0.3 0.7 0.3 0.7 0.3 0.7 0.3 0.7 0.3 0.7 0.3 0.7 0.3 0.7 0.3 0.7 0.3 0.7 0.3 0.7 0.3 0.7 0.3 0.7 0.3 0.7 0.3 0.7 0.3 0.7 0.3 0.7 0.3 0.7 0.3 0.7 0.3 0.7 0.3 0.7 0.3 0.7 0.3 0.7 0.3 0.7 0.3 0.7 0.3 0.7 0.3 0.7 0.3 0.7 0.3 0.7 0.3 0.7 0.3 0.7 0.3 0.7 0.3 0.7 0.3 0.7 0.3 0.7 0.3 0.7 0.3 0.7 0.3 0.7 0.3 0.7 0.3 0.7 0.3 0.7 0.3 0.7 0.3 0.7 0.3 0.7 0.3 0.7 0.3 0.7 0.3 0.7 0.3 0.7 0.3 0.7 0.3 0.7 0.3 0.7 0.3 0.7 0.3 0.7 0.3 0.7 0.3 0.7 0.3 0.7 0.3 0.7 0.3 0.7 0.3 0.7 0.3 0.7 0.3 0.7 0.3 0.7 0.3 0.7 0.3 0.7 0.3 0.7 0.3 0.7 0.3 0.798452347048063 0.2015476529519369 0.7 0.3 0.7 0.3 0.7 0.3 0.7 0.3 0.7 0.3 0.7 0.3 0.7 0.3 0.7 0.3 0.7 0.3 0.7 0.3 0.7 0.3 0.7 0.3 0.7 0.3 0.7 0.3 0.7 0.3 0.7 0.3 0.7 0.3 0.7 0.3 0.7 0.3 0.7 0.3 0.7 0.3 0.7 0.3 0.7 0.3 0.7 0.3 0.7 0.3 0.7 0.3 0.7 0.3 0.7 0.3 0.7 0.3 0.7 0.3 0.7 0.3 0.7 0.3 0.7 0.3 0.7 0.3 0.7 0.3 0.7 0.3 0.7 0.3 0.7 0.3 0.7 0.3 0.7 0.3 0.7 0.3 0.7 0.3 0.7 0.3 0.7 0.3 0.7 0.3 0.7 0.3 0.7 0.3 0.7 0.3 0.7 0.3 0.7 0.3 0.7 0.3 0.7 0.3 0.7 0.3 0.7 0.3 0.7 0.3 0.7 0.3 0.7 0.3 0.7 0.3 0.7 0.3 0.7 0.3 0.7 0.3 0.7 0.3 0.7 0.3 0.7 0.3 0.7 0.3 0.7 0.3 0.7 0.3 0.7 0.3 0.7 0.3 0.7 0.3 0.7 0.3 0.7 0.3 0.7 0.3 0.7 0.3 0.7 0.3 0.7 0.3 0.7 0.3 0.7 0.3 0.7 0.3 0.7 0.3 0.7 0.3 0.7 0.3 0.7 0.3 0.7 0.3 0.7 0.3 0.7 0.3 0.7 0.3 0.7 0.3 0.7 0.3 0.7 0.3 0.7 0.3 0.7 0.3 0.7 0.3 0.7 0.3 0.7 0.3 0.7 0.3 0.7 0.3 0.7 0.3 0.7 0.3 0.7 0.3 0.7 0.3 0.7 0.3 0.7 0.3 0.7 0.3 0.7 0.3 0.7 0.3 0.7 0.3 0.7 0.3 0.7 0.3 0.7 0.3 0.7 0.3 0.7 0.3 0.7 0.3 0.7 0.3 0.7 0.3 0.7 0.3 0.7 0.3 0.7 0.3 0.7 0.3 0.7 0.3 0.7 0.3 0.7 0.3 0.7 0.3 0.7 0.3 0.7 0.3 0.7 0.3 0.7 0.3 0.7 0.3 0.7 0.3 0.7 0.3 0.7 0.3 0.7 0.3 0.7 0.3 0.7 0.3 0.7 0.3 0.7 0.3 0.7 0.3 0.7 0.3 0.7 0.3 0.7 0.3 0.7 0.3 0.7 0.3 0.7 0.3 0.7 0.3 0.7 0.3 0.7 0.3 0.7 0.3 0.7 0.3 0.468316908425702 0.5316830915742979 0.7 0.3 0.7 0.3 0.7 0.3 0.7 0.3 0.7 0.3 0.7 0.3 0.7 0.3 0.7 0.3 0.7 0.3 0.7 0.3 0.7 0.3 0.7 0.3 0.7 0.3 0.7 0.3 0.7 0.3 0.7 0.3 0.7 0.3 0.7 0.3 0.7 0.3 0.7 0.3 0.7 0.3 0.7 0.3 0.7 0.3 0.7 0.3 0.7 0.3 0.7 0.3 0.7 0.3 0.7 0.3 0.7 0.3 0.7 0.3 0.7 0.3 0.7 0.3 0.7 0.3 0.7 0.3 0.7 0.3 0.7 0.3 0.7 0.3 0.7 0.3 0.7 0.3 0.7 0.3 0.7 0.3 0.7 0.3 0.7 0.3 0.7 0.3 0.7 0.3 0.7 0.3 0.7 0.3 0.7 0.3 0.7 0.3 0.7 0.3 0.7 0.3 0.7 0.3 0.7 0.3 0.7 0.3 0.7 0.3 0.7 0.3 0.7 0.3 0.7 0.3 0.7 0.3 0.7 0.3 0.7 0.3 0.7 0.3 0.7 0.3 0.7 0.3 0.7 0.3 0.7 0.3 0.7 0.3 0.7 0.3 0.7 0.3 0.7 0.3 0.7 0.3 0.7 0.3 0.7 0.3 0.7 0.3 0.7 0.3 0.7 0.3 0.7 0.3 0.7 0.3 0.7 0.3 0.7 0.3 0.7 0.3 0.7 0.3 0.7 0.3 0.7 0.3 0.7 0.3 0.7 0.3 0.7 0.3 0.7 0.3 0.7 0.3 0.7 0.3 0.7 0.3 0.7 0.3 0.7 0.3 0.7 0.3 0.7 0.3 0.7 0.3 0.7 0.3 0.7 0.3 0.7 0.3 0.7 0.3 0.7 0.3 0.7 0.3 0.7 0.3 0.7 0.3 0.7 0.3 0.7 0.3 0.7 0.3 0.7 0.3 0.7 0.3 0.7 0.3 0.7120713789275031 0.2879286210724969 0.7 0.3 0.7 0.3 0.7 0.3 0.7 0.3 0.7 0.3 0.7 0.3 0.7 0.3 0.7 0.3 0.7 0.3 0.7 0.3 0.7 0.3 0.7 0.3 0.7 0.3 0.7 0.3 0.7120713789275031 0.2879286210724969 0.7 0.3 0.7 0.3 0.7 0.3 0.7 0.3 0.7 0.3 0.7 0.3 0.7 0.3 0.7 0.3 0.7 0.3 0.7 0.3 0.7 0.3 0.7 0.3 0.7 0.3 0.7 0.3 0.7715897148724492 0.2284102851275508 0.7 0.3 0.7 0.3 0.7 0.3 0.7 0.3 0.7 0.3 0.7 0.3 0.7 0.3 0.7 0.3 0.7 0.3 0.7 0.3 0.7 0.3 0.7 0.3 0.7 0.3 0.7 0.3 0.7120713789275031 0.2879286210724969 0.7 0.3 0.7 0.3 0.7 0.3 0.7 0.3 0.7 0.3 0.7 0.3 0.7 0.3 0.7 0.3 0.7 0.3 0.7 0.3 0.7 0.3 0.7 0.3 0.7 0.3 0.7 0.3 0.7120713789275031 0.2879286210724969 0.7 0.3 0.7 0.3 0.7 0.3 0.7 0.3 0.7 0.3 0.7 0.3 0.7 0.3 0.7 0.3 0.7 0.3 0.7 0.3 0.7 0.3 0.7 0.3 0.7 0.3 0.7 0.3 0.7 0.3 0.7 0.3 0.7 0.3 0.7 0.3 0.7 0.3 0.7 0.3 0.7 0.3 0.7 0.3 0.7 0.3 0.7 0.3 0.7 0.3 0.7 0.3 0.7 0.3 0.7 0.3 0.7 0.3 0.7 0.3 0.5048897015425379 0.4951102984574621 0.7 0.3 0.7 0.3 0.7 0.3 0.7 0.3 0.7 0.3 0.7 0.3 0.7 0.3 0.7 0.3 0.7 0.3 0.5995690850829617 0.4004309149170383 0.7 0.3 0.7 0.3 0.7 0.3 0.7 0.3 0.7 0.3 0.7 0.3 0.7 0.3 0.7 0.3 0.7 0.3 0.7 0.3 0.7 0.3 0.7 0.3 0.7 0.3 0.7 0.3 0.7 0.3 0.7 0.3 0.7 0.3 0.7 0.3 0.7 0.3 0.7 0.3 0.7 0.3 0.7 0.3 0.7 0.3 0.7 0.3 0.7 0.3 0.7 0.3 0.7 0.3 0.7 0.3 0.7 0.3 0.7 0.3 0.7 0.3 0.7 0.3 0.7 0.3 0.7 0.3 0.7 0.3 0.7 0.3 0.7 0.3 0.7 0.3 0.7 0.3 0.7 0.3 0.7 0.3 0.7 0.3 0.7 0.3 0.7035491361869903 0.2964508638130096 0.7 0.3 0.7 0.3 0.7 0.3 0.7 0.3 0.7 0.3 0.7 0.3 0.7 0.3 0.7 0.3 0.7 0.3 0.7 0.3 0.7 0.3 0.7 0.3 0.7 0.3 0.7 0.3 0.7929392780628431 0.207060721937157 0.7 0.3 0.7 0.3 0.7 0.3 0.7 0.3 0.7 0.3 0.7 0.3 0.7 0.3 0.7 0.3 0.7 0.3 0.7 0.3 0.7 0.3 0.7 0.3 0.7 0.3 0.7 0.3 0.6430637189966406 0.3569362810033594 0.7 0.3 0.7 0.3 0.7 0.3 0.7 0.3 0.7 0.3 0.7 0.3 0.7 0.3 0.7 0.3 0.7 0.3 0.7 0.3 0.7 0.3 0.7 0.3 0.7 0.3 0.7 0.3 0.7446698543309794 0.2553301456690206 0.7 0.3 0.7 0.3 0.7 0.3 0.7840386779245062 0.2159613220754937 0.7 0.3 0.7 0.3 0.7 0.3 0.7 0.3 0.7 0.3 0.7 0.3 0.7 0.3 0.7 0.3 0.7 0.3 0.7 0.3 0.7027704244341003 0.2972295755658997 0.7 0.3 0.7 0.3 0.7 0.3 0.7 0.3 0.7 0.3 0.7 0.3 0.7 0.3 0.7 0.3 0.7 0.3 0.7 0.3 0.7 0.3 0.7146354856652194 0.2853645143347806 0.7009421175323923 0.2990578824676077 0.700980001993308 0.299019998006692 0.7055192268963594 0.2944807731036406 0.7050198345135394 0.2949801654864606 0.7 0.3 0.7 0.3 0.7 0.3 0.7 0.3 0.7 0.3 0.7 0.3 0.7 0.3 0.7 0.3 0.7 0.3 0.7 0.3 0.7042254486597781 0.295774551340222 0.7015285461524779 0.298471453847522 0.7011847114772137 0.2988152885227862 0.7022587267258605 0.2977412732741394 0.7096353834289311 0.2903646165710689 0.7 0.3 0.7 0.3 0.7 0.3 0.7 0.3 0.7 0.3 0.7 0.3 0.7 0.3 0.7 0.3 0.7 0.3 0.7 0.3 0.7107975084078656 0.2892024915921345 0.7037655738534779 0.296234426146522 0.700980001993308 0.299019998006692 0.7055192268963594 0.2944807731036406 0.7050198345135394 0.2949801654864606 0.7 0.3 0.7 0.3 0.7 0.3 0.7 0.3 0.7 0.3 0.7 0.3 0.7 0.3 0.7 0.3 0.7 0.3 0.7 0.3 0.7031248703405426 0.2968751296594574 0.7009421175323923 0.2990578824676077 0.7038985122602337 0.2961014877397664 0.701585158111895 0.298414841888105 0.7050198345135394 0.2949801654864606 0.7 0.3 0.7 0.3 0.7 0.3 0.7 0.3 0.7 0.3 0.7 0.3 0.7 0.3 0.7 0.3 0.7 0.3 0.7 0.3 0.7031248703405426 0.2968751296594574 0.7009421175323923 0.2990578824676077 0.700980001993308 0.299019998006692 0.701585158111895 0.298414841888105 0.7050198345135394 0.2949801654864606 0.7 0.3 0.7 0.3 0.7 0.3 0.7 0.3 0.7 0.3 0.7 0.3 0.7 0.3 0.7 0.3 0.7 0.3 0.7 0.3 0.7 0.3 0.7 0.3 0.7 0.3 0.7 0.3 0.7 0.3 0.7 0.3 0.7 0.3 0.7 0.3 0.7 0.3 0.7 0.3 0.7 0.3 0.7 0.3 0.7 0.3 0.7 0.3 0.7 0.3 0.7 0.3 0.7 0.3 0.7 0.3 0.7 0.3 0.7 0.3 0.7 0.3 0.7 0.3 0.7 0.3 0.7 0.3 0.7 0.3 0.7 0.3 0.7 0.3 0.7 0.3 0.7 0.3 0.7 0.3 0.7 0.3 0.7 0.3 0.7 0.3 0.7 0.3 0.7 0.3 0.7 0.3 0.7 0.3 0.7 0.3 0.7 0.3 0.7 0.3 0.7 0.3 0.7 0.3 0.7 0.3 0.7 0.3 0.7 0.3 0.7 0.3 0.7 0.3 0.7998759312914446 0.2001240687085554 0.7 0.3 0.7 0.3 0.7 0.3 0.7 0.3 0.7 0.3 0.7 0.3 0.7 0.3 0.7 0.3 0.7 0.3 0.7 0.3 0.7 0.3 0.7 0.3 0.7 0.3 0.7 0.3 0.7 0.3 0.7 0.3 0.7 0.3 0.7 0.3 0.7 0.3 0.7 0.3 0.7 0.3 0.7 0.3 0.7 0.3 0.7 0.3 0.7 0.3 0.7 0.3 0.7 0.3 0.7 0.3 0.7 0.3 0.7 0.3 0.7021057363198508 0.2978942636801491 0.7 0.3 0.7009068952016597 0.2990931047983403 0.7017129104377329 0.2982870895622672 0.7024695511302673 0.2975304488697327 0.7001679853548457 0.2998320146451543 0.7018855625945625 0.2981144374054375 0.7 0.3 0.7 0.3 0.7 0.3 0.7 0.3 0.7 0.3 0.7 0.3 0.7 0.3 0.7 0.3 0.8330363862622754 0.1669636137377246 0.7 0.3 0.7122162312152576 0.2877837687847425 0.8009107075366193 0.1990892924633807 0.7060152388709333 0.2939847611290668 0.7060568432604218 0.2939431567395782 0.7046171387013795 0.2953828612986205 0.7 0.3 0.7 0.3 0.7 0.3 0.7 0.3 0.7 0.3 0.7 0.3 0.7 0.3 0.7 0.3 0.7980398099126356 0.2019601900873644 0.7 0.3 0.7189119037050387 0.2810880962949613 0.7055953108501147 0.2944046891498852 0.7084812131673249 0.2915187868326752 0.7094630588644538 0.2905369411355462 0.7057018271778234 0.2942981728221766 0.7 0.3 0.7 0.3 0.7 0.3 0.7 0.3 0.7 0.3 0.7840386779245062 0.2159613220754937 0.7 0.3 0.7 0.3 0.7456099837989447 0.2543900162010552 0.7986553478497554 0.2013446521502445 0.7013466372074351 0.2986533627925649 0.7049057268071005 0.2950942731928995 0.7052964210542096 0.2947035789457903 0.706525026796479 0.293474973203521 0.7069197500113956 0.2930802499886044 0.5697822681287242 0.4302177318712757 0.7 0.3 0.7 0.3 0.7 0.3 0.7 0.3 0.7 0.3 0.7 0.3 0.7 0.3 0.7018050734565653 0.2981949265434348 0.7 0.3 0.7001948541159049 0.2998051458840951 0.700201079725392 0.299798920274608 0.7001781835339547 0.2998218164660453 0.7001427466137105 0.2998572533862896 0.7002014837026359 0.2997985162973641 0.7 0.3 0.7 0.3 0.7 0.3 0.7 0.3 0.7 0.3 0.7 0.3 0.7 0.3 0.7 0.3 0.7 0.3 0.7 0.3 0.7 0.3 0.7 0.3 0.7 0.3 0.7 0.3 0.7 0.3 0.7 0.3 0.7 0.3 0.7 0.3 0.7 0.3 0.7 0.3 0.7 0.3 0.7 0.3 0.7 0.3 0.7 0.3 0.7 0.3 0.7 0.3 0.7 0.3 0.7 0.3 0.7 0.3 0.7 0.3 0.7 0.3 0.7 0.3 0.7 0.3 0.7 0.3 0.7 0.3 0.7 0.3 0.7 0.3 0.7 0.3 0.7 0.3 0.7 0.3 0.7 0.3 0.7 0.3 0.7 0.3 0.7 0.3 0.7 0.3 0.7 0.3 0.7 0.3 0.7 0.3 0.7 0.3 0.7 0.3 0.7 0.3 0.7 0.3 0.7 0.3 0.7 0.3 0.7 0.3 0.7 0.3 0.7 0.3 0.7 0.3 0.7 0.3 0.7 0.3 0.7 0.3 0.7 0.3 0.7 0.3 0.7 0.3 0.7 0.3 0.7 0.3 0.7 0.3 0.7 0.3 0.7 0.3 0.7 0.3 0.7 0.3 0.7 0.3 0.7 0.3 0.7 0.3 0.7 0.3 0.7 0.3 0.7 0.3 0.7 0.3 0.7 0.3 0.7 0.3 0.7 0.3 0.7 0.3 0.7 0.3 0.7 0.3 0.7 0.3 0.7 0.3 0.7 0.3 0.7 0.3 0.7 0.3 0.7 0.3 0.7 0.3 0.7 0.3 0.7 0.3 0.7 0.3 0.7 0.3 0.7 0.3 0.7 0.3 0.7 0.3 0.7 0.3 0.7 0.3 0.7 0.3 0.7 0.3 0.7 0.3 0.7 0.3 0.7 0.3 0.7 0.3 0.7 0.3 0.7 0.3 0.7 0.3 0.7 0.3 0.7 0.3 0.7 0.3 0.7 0.3 0.7 0.3 0.7 0.3 0.7 0.3 0.7 0.3 0.7 0.3 0.7 0.3 0.7 0.3 0.7 0.3 0.7 0.3 0.7 0.3 0.7 0.3 0.7 0.3 0.7 0.3 0.7 0.3 0.5098838025778976 0.4901161974221024 0.7 0.3 0.7 0.3 0.7 0.3 0.7 0.3 0.7 0.3 0.7 0.3 0.7 0.3 0.7 0.3 0.7 0.3 0.7 0.3 0.7 0.3 0.7 0.3 0.7 0.3 0.7 0.3 0.7 0.3 0.7 0.3 0.7 0.3 0.7 0.3 0.7 0.3 0.7 0.3 0.7 0.3 0.7 0.3 0.7 0.3 0.7 0.3 0.7 0.3 0.7 0.3 0.7 0.3 0.7 0.3 0.7 0.3 0.7 0.3 0.7 0.3 0.7 0.3 0.7 0.3 0.7 0.3 0.7 0.3 0.7 0.3 0.7 0.3 0.7 0.3 0.7 0.3 0.7 0.3 0.7 0.3 0.7 0.3 0.7 0.3 0.7 0.3 0.7 0.3 0.7 0.3 0.7 0.3 0.7 0.3 0.7 0.3 0.7 0.3 0.7 0.3 0.7 0.3 0.7 0.3 0.7 0.3 0.7 0.3 0.7 0.3 0.7 0.3 0.7 0.3 0.7 0.3 0.7 0.3 0.7 0.3 0.7 0.3 0.7 0.3 0.7 0.3 0.7 0.3 0.7 0.3 0.7 0.3 0.7 0.3 0.7 0.3 0.7 0.3 0.7 0.3 0.7 0.3 0.7 0.3 0.7 0.3 0.7 0.3 0.7 0.3 0.7 0.3 0.7 0.3 0.7 0.3 0.7 0.3 0.7 0.3 0.7 0.3 0.7 0.3 0.7 0.3 0.7 0.3 0.7 0.3 0.7 0.3 0.7 0.3 0.7 0.3 0.7 0.3 0.7 0.3 0.7 0.3 0.7 0.3 0.7 0.3 0.7 0.3 0.7 0.3 0.7 0.3 0.7 0.3 0.7 0.3 0.7 0.3 0.7 0.3 0.7 0.3 0.7 0.3 0.7 0.3 0.7 0.3 0.7 0.3 0.7 0.3 0.7 0.3 0.7 0.3 0.7 0.3 0.7 0.3 0.7 0.3 0.7 0.3 0.7 0.3 0.7 0.3 0.7 0.3 0.7 0.3 0.7 0.3 0.7 0.3 0.7 0.3 0.7 0.3 0.7 0.3 0.7 0.3 0.7 0.3 0.7 0.3 0.7 0.3 0.7 0.3 0.7 0.3 0.7 0.3 0.7 0.3 0.7 0.3 0.7 0.3 0.7 0.3 0.7 0.3 0.7 0.3 0.7 0.3 0.7 0.3 0.7 0.3 0.7 0.3 0.7 0.3 0.7 0.3 0.7 0.3 0.7 0.3 0.7 0.3 0.7 0.3 0.7 0.3 0.7 0.3 0.7 0.3 0.7 0.3 0.7 0.3 0.7 0.3 0.7 0.3 0.7 0.3 0.7 0.3 0.7 0.3 0.7 0.3 0.7 0.3 0.7 0.3 0.7 0.3 0.7 0.3 0.7 0.3 0.7 0.3 0.7 0.3 0.7 0.3 0.7 0.3 0.7 0.3 0.7 0.3 0.7 0.3 0.7 0.3 0.7 0.3 0.7 0.3 0.7 0.3 0.7 0.3 0.7 0.3 0.7 0.3 0.7 0.3 0.7 0.3 0.7 0.3 0.7 0.3 0.6960232981555726 0.3039767018444274 0.7 0.3 0.7 0.3 0.7 0.3 0.7 0.3 0.7 0.3 0.7 0.3 0.7 0.3 0.7 0.3 0.7 0.3 0.7 0.3 0.7 0.3 0.7 0.3 0.7 0.3 0.7 0.3 0.613016546055407 0.3869834539445931 0.7 0.3 0.7 0.3 0.7 0.3 0.7 0.3 0.7 0.3 0.7 0.3 0.7 0.3 0.7 0.3 0.7 0.3 0.7 0.3 0.7 0.3 0.7 0.3 0.7 0.3 0.7 0.3 0.692283807162565 0.3077161928374351 0.7 0.3 0.7 0.3 0.7 0.3 0.7 0.3 0.7 0.3 0.7 0.3 0.7 0.3 0.7 0.3 0.7 0.3 0.7 0.3 0.7 0.3 0.7 0.3 0.7 0.3 0.7 0.3 0.6958416887346688 0.3041583112653312 0.7 0.3 0.7 0.3 0.7 0.3 0.7 0.3 0.7 0.3 0.7 0.3 0.7 0.3 0.7 0.3 0.7 0.3 0.7 0.3 0.7 0.3 0.7 0.3 0.7 0.3 0.7 0.3 0.6990060053122836 0.3009939946877164 0.7 0.3 0.7 0.3 0.7 0.3 0.7 0.3 0.7 0.3 0.7 0.3 0.7 0.3 0.7 0.3 0.7 0.3 0.7 0.3 0.7 0.3 0.7 0.3 0.7 0.3 0.7 0.3 0.7 0.3 0.7 0.3 0.7 0.3 0.7 0.3 0.7 0.3 0.7 0.3 0.7 0.3 0.7 0.3 0.7 0.3 0.7 0.3 0.7 0.3 0.7 0.3 0.7 0.3 0.7986553478497554 0.2013446521502445 0.7 0.3 0.7 0.3 0.7 0.3 0.7 0.3 0.7 0.3 0.7 0.3 0.7 0.3 0.7 0.3 0.7 0.3 0.7 0.3 0.7 0.3 0.7 0.3 0.7 0.3 0.7 0.3 0.7 0.3 0.7 0.3 0.7 0.3 0.6067490121814341 0.393250987818566 0.7 0.3 0.7 0.3 0.7 0.3 0.7 0.3 0.7 0.3 0.7 0.3 0.7 0.3 0.7 0.3 0.7 0.3 0.7 0.3 0.7 0.3 0.7 0.3 0.7 0.3 0.7 0.3 0.7 0.3 0.7 0.3 0.7 0.3 0.7 0.3 0.7 0.3 0.7 0.3 0.7 0.3 0.7 0.3 0.7 0.3 0.5697822681287242 0.4302177318712757 0.7 0.3 0.7 0.3 0.7 0.3 0.7 0.3 0.7 0.3 0.7 0.3 0.7 0.3 0.7 0.3 0.7 0.3 0.7 0.3 0.7 0.3 0.7 0.3 0.7 0.3 0.7 0.3 0.7 0.3 0.7 0.3 0.7 0.3 0.7 0.3 0.7 0.3 0.7 0.3 0.7 0.3 0.7 0.3 0.7 0.3 0.7 0.3 0.7 0.3 0.7 0.3 0.7 0.3 0.7 0.3 0.7 0.3 0.7 0.3 0.7 0.3 0.7 0.3 0.7 0.3 0.7 0.3 0.7 0.3 0.7 0.3 0.7 0.3 0.7 0.3 0.7 0.3 0.7 0.3 0.7 0.3 0.7 0.3 0.7 0.3 0.7 0.3 0.7 0.3 0.7 0.3 0.7 0.3 0.7 0.3 0.7 0.3 0.7 0.3 0.7 0.3 0.7 0.3 0.7 0.3 0.7 0.3 0.7 0.3 0.7 0.3 0.7 0.3 0.7 0.3 0.7 0.3 0.7 0.3 0.7 0.3 0.7 0.3 0.7 0.3 0.7 0.3 0.7 0.3 0.7 0.3 0.7 0.3 0.7 0.3 0.7 0.3 0.7 0.3 0.7 0.3 0.7 0.3 0.7 0.3 0.7 0.3 0.7 0.3 0.7 0.3 0.7 0.3 0.7 0.3 0.7 0.3 0.7 0.3 0.7 0.3 0.7 0.3 0.7 0.3 0.7 0.3 0.7 0.3 0.7 0.3 0.7 0.3 0.7 0.3 0.7 0.3 0.7 0.3 0.7 0.3 0.7 0.3 0.7 0.3 0.7 0.3 0.7 0.3 0.7 0.3 0.7 0.3 0.7 0.3 0.7 0.3 0.7 0.3 0.7 0.3 0.7 0.3 0.7 0.3 0.7 0.3 0.7 0.3 0.7 0.3 0.7 0.3 0.7 0.3 0.7 0.3 0.7 0.3 0.7 0.3 0.7 0.3 0.7 0.3 0.7 0.3 0.7 0.3 0.7 0.3 0.7 0.3 0.7 0.3 0.7 0.3 0.7 0.3 0.7 0.3 0.7 0.3 0.7 0.3 0.7 0.3 0.7 0.3 0.7 0.3 0.7 0.3 0.7 0.3 0.7 0.3 0.7 0.3 0.7 0.3 0.7 0.3 0.7 0.3 0.7 0.3 0.7 0.3 0.7 0.3 0.7 0.3 0.7 0.3 0.7 0.3 0.7999947086159747 0.2000052913840254 0.7 0.3 0.7 0.3 0.7 0.3 0.7 0.3 0.7 0.3 0.7 0.3 0.7 0.3 0.7 0.3 0.7 0.3 0.7 0.3 0.7 0.3 0.7 0.3 0.7 0.3 0.7 0.3 0.7 0.3 0.7 0.3 0.7 0.3 0.7 0.3 0.7 0.3 0.7 0.3 0.7 0.3 0.7 0.3 0.7 0.3 0.7 0.3 0.7 0.3 0.7 0.3 0.7 0.3 0.7 0.3 0.7 0.3 0.7 0.3 0.700082637745208 0.299917362254792 0.7 0.3 0.7 0.3 0.7 0.3 0.7 0.3 0.7 0.3 0.7 0.3 0.6999969639111521 0.3000030360888479 0.6991364634996663 0.3008635365003337 0.6997437298629804 0.3002562701370196 0.69999914810709 0.30000085189291 0.6993532492121495 0.3006467507878505 0.7 0.3 0.7 0.3 0.7 0.3 0.4919969426196023 0.5080030573803977 0.7 0.3 0.7 0.3 0.7 0.3 0.7 0.3 0.7 0.3 0.7 0.3 0.6843089002942883 0.3156910997057117 0.6777627052521812 0.3222372947478188 0.6915091806434472 0.3084908193565528 0.6943841116533178 0.3056158883466821 0.695667389550201 0.3043326104497991 0.7 0.3 0.7 0.3 0.7 0.3 0.8294461587812088 0.1705538412187912 0.7 0.3 0.7983627739292808 0.2016372260707192 0.7 0.3 0.7 0.3 0.7 0.3 0.7 0.3 0.6872129663518375 0.3127870336481625 0.6937579807320893 0.3062420192679107 0.6972331065307676 0.3027668934692323 0.6905657906914343 0.3094342093085655 0.6998400794089205 0.3001599205910795 0.5697822681287242 0.4302177318712757 0.7 0.3 0.7 0.3 0.7290996823542183 0.2709003176457818 0.7 0.3 0.7840386779245062 0.2159613220754937 0.7 0.3 0.7 0.3 0.7 0.3 0.7999922185085402 0.2000077814914598 0.6997406349570796 0.3002593650429204 0.6992903439663143 0.3007096560336857 0.6846334105793923 0.3153665894206077 0.6953174183887544 0.3046825816112455 0.6834642332502897 0.3165357667497105 0.7 0.3 0.7 0.3 0.7 0.3 0.7000570644016848 0.2999429355983153 0.7 0.3 0.7 0.3 0.7 0.3 0.7 0.3 0.7 0.3 0.7 0.3 0.699999435246966 0.3000005647530339 0.6999992110911338 0.3000007889088662 0.6999985580505117 0.3000014419494882 0.699999375231292 0.3000006247687081 0.6999988296048235 0.3000011703951765 0.7 0.3 0.7 0.3 0.7 0.3 0.7 0.3 0.7 0.3 0.7 0.3 0.7 0.3 0.7 0.3 0.7 0.3 0.7 0.3 0.7 0.3 0.7 0.3 0.7 0.3 0.7 0.3 0.7 0.3 0.7 0.3 0.7 0.3 0.7 0.3 0.7 0.3 0.7 0.3 0.7 0.3 0.7 0.3 0.7 0.3 0.7 0.3 0.7 0.3 0.7 0.3 0.7 0.3 0.7 0.3 0.7 0.3 0.7 0.3 0.7 0.3 0.7 0.3 0.7 0.3 0.7 0.3 0.7 0.3 0.7 0.3 0.7 0.3 0.7 0.3 0.7 0.3 0.7 0.3 0.7 0.3 0.7 0.3 0.7 0.3 0.7 0.3 0.7 0.3 0.7 0.3 0.7 0.3 0.7 0.3 0.7 0.3 0.7 0.3 0.7 0.3 0.7 0.3 0.7 0.3 0.7 0.3 0.7 0.3 0.7 0.3 0.7 0.3 0.7 0.3 0.7 0.3 0.7 0.3 0.7 0.3 0.7 0.3 0.7 0.3 0.7 0.3 0.7 0.3 0.7 0.3 0.7 0.3 0.7 0.3 0.7 0.3 0.7 0.3 0.7 0.3 0.7 0.3 0.7 0.3 0.7 0.3 0.7 0.3 0.7 0.3 0.7 0.3 0.7 0.3 0.7 0.3 0.7 0.3 0.7 0.3 0.7 0.3 0.7 0.3 0.7 0.3 0.7 0.3 0.7 0.3 0.7 0.3 0.7 0.3 0.7 0.3 0.7 0.3 0.7 0.3 0.7 0.3 0.7 0.3 0.7 0.3 0.7 0.3 0.7 0.3 0.7 0.3 0.7 0.3 0.7 0.3 0.7 0.3 0.7 0.3 0.7 0.3 0.7 0.3 0.7 0.3 0.7 0.3 0.7 0.3 0.7 0.3 0.7 0.3 0.7 0.3 0.7 0.3 0.7 0.3 0.7 0.3 0.7 0.3 0.7 0.3 0.7 0.3 0.7 0.3 0.7 0.3 0.7 0.3 0.7 0.3 0.7 0.3 0.7 0.3 0.7 0.3 0.7 0.3 0.7 0.3 0.7 0.3 0.7 0.3 0.7 0.3 0.7 0.3 0.7 0.3 0.7 0.3 0.7 0.3 0.7 0.3 0.7 0.3 0.7 0.3 0.7 0.3 0.7 0.3 0.7 0.3 0.7 0.3 0.7 0.3 0.7 0.3 0.7 0.3 0.7 0.3 0.7 0.3 0.7 0.3 0.7 0.3 0.7 0.3 0.7 0.3 0.7 0.3 0.7 0.3 0.7 0.3 0.7 0.3 0.7 0.3 0.7 0.3 0.7 0.3 0.7 0.3 0.7 0.3 0.7 0.3 0.7 0.3 0.7 0.3 0.7 0.3 0.7 0.3 0.7 0.3 0.7 0.3 0.7 0.3 0.7 0.3 0.7 0.3 0.7 0.3 0.7 0.3 0.7 0.3 0.7 0.3 0.7 0.3 0.7 0.3 0.7 0.3 0.7 0.3 0.7 0.3 0.7 0.3 0.7 0.3 0.7 0.3 0.7 0.3 0.7 0.3 0.7 0.3 0.7 0.3 0.7 0.3 0.7 0.3 0.7 0.3 0.7 0.3 0.7 0.3 0.7 0.3 0.7 0.3 0.7 0.3 0.7 0.3 0.7 0.3 0.7 0.3 0.7 0.3 0.7 0.3 0.7 0.3 0.7 0.3 0.7 0.3 0.7 0.3 0.7 0.3 0.7 0.3 0.7 0.3 0.7 0.3 0.7 0.3 0.7 0.3 0.7 0.3 0.7 0.3 0.7 0.3 0.7 0.3 0.7 0.3 0.7 0.3 0.7 0.3 0.7 0.3 0.7 0.3 0.7 0.3 0.7 0.3 0.7 0.3 0.7 0.3 0.7 0.3 0.7 0.3 0.7 0.3 0.7 0.3 0.7 0.3 0.7 0.3 0.7 0.3 0.7 0.3 0.7 0.3 0.7 0.3 0.7 0.3 0.7 0.3 0.7 0.3 0.7 0.3 0.7 0.3 0.7 0.3 0.7 0.3 0.7 0.3 0.7 0.3 0.7 0.3 0.7 0.3 0.7 0.3 0.7 0.3 0.7 0.3 0.7 0.3 0.7 0.3 0.7 0.3 0.7 0.3 0.7 0.3 0.7 0.3 0.7 0.3 0.7 0.3 0.7 0.3 0.7 0.3 0.7 0.3 0.7 0.3 0.7 0.3 0.7 0.3 0.7 0.3 0.7 0.3 0.7 0.3 0.7 0.3 0.7 0.3 0.7 0.3 0.7 0.3 0.7 0.3 0.7 0.3 0.7 0.3 0.7 0.3 0.7 0.3 0.7 0.3 0.7 0.3 0.7 0.3 0.7 0.3 0.7 0.3 0.7 0.3 0.7 0.3 0.7 0.3 0.7 0.3 0.7 0.3 0.7 0.3 0.7 0.3 0.7 0.3 0.7 0.3 0.7 0.3 0.7 0.3 0.7 0.3 0.7 0.3 0.7 0.3 0.7 0.3 0.7 0.3 0.7 0.3 0.7 0.3 0.7 0.3 0.7 0.3 0.7 0.3 0.7 0.3 0.7 0.3 0.7 0.3 0.7 0.3 0.7 0.3 0.7 0.3 0.7 0.3 0.6346880799835448 0.3653119200164552 0.7 0.3 0.7999997652867502 0.2000002347132498 0.7 0.3 0.7 0.3 0.7 0.3 0.7 0.3 0.7 0.3 0.7 0.3 0.7 0.3 0.7 0.3 0.7 0.3 0.7 0.3 0.7 0.3 0.7 0.3 0.6927718536278549 0.3072281463721451 0.7 0.3 0.7 0.3 0.7 0.3 0.7 0.3 0.7 0.3 0.7 0.3 0.7 0.3 0.7 0.3 0.7 0.3 0.7 0.3 0.7 0.3 0.7 0.3 0.7 0.3 0.7 0.3 0.6133248425705207 0.3866751574294794 0.4670946048196307 0.5329053951803694 0.4673579251443305 0.5326420748556696 0.7 0.3 0.7 0.3 0.7 0.3 0.7 0.3 0.7 0.3 0.7 0.3 0.7 0.3 0.7 0.3 0.7 0.3 0.7 0.3 0.7 0.3 0.7 0.3 0.568278486489026 0.431721513510974 0.7 0.3 0.7 0.3 0.7 0.3 0.7 0.3 0.4666844435321677 0.5333155564678324 0.7 0.3 0.7 0.3 0.7 0.3 0.7 0.3 0.7 0.3 0.7 0.3 0.7 0.3 0.7 0.3 0.7 0.3 0.6932031504460521 0.3067968495539479 0.7 0.3 0.7 0.3 0.7 0.3 0.7 0.3 0.7 0.3 0.7 0.3 0.7 0.3 0.7 0.3 0.7 0.3 0.7 0.3 0.7 0.3 0.7 0.3 0.7 0.3 0.7 0.3 0.7 0.3 0.7 0.3 0.7 0.3 0.7 0.3 0.7 0.3 0.7 0.3 0.7 0.3 0.7 0.3 0.7 0.3 0.7 0.3 0.7 0.3 0.7 0.3 0.7 0.3 0.7 0.3 0.7407443857491087 0.2592556142508914 0.5747821305588442 0.4252178694411558 0.6355892342873791 0.3644107657126209 0.7396131153594074 0.2603868846405927 0.6509303400482289 0.3490696599517711 0.7 0.3 0.4682191645017126 0.5317808354982875 0.7 0.3 0.7 0.3 0.7 0.3 0.7 0.3 0.7 0.3 0.7 0.3 0.7 0.3 0.7 0.3 0.798207397362407 0.201792602637593 0.7 0.3 0.7 0.3 0.4866764268660006 0.5133235731339995 0.7 0.3 0.7 0.3 0.7 0.3 0.7 0.3 0.7 0.3 0.7 0.3 0.7 0.3 0.7 0.3 0.7 0.3 0.7 0.3 0.7 0.3 0.7 0.3 0.7 0.3 0.7 0.3 0.479327285057784 0.5206727149422161 0.4907694201440311 0.509230579855969 0.7 0.3 0.7 0.3 0.7 0.3 0.7 0.3 0.7 0.3 0.7 0.3 0.7 0.3 0.7 0.3 0.7 0.3 0.7 0.3 0.7 0.3 0.7 0.3 0.7 0.3 0.7 0.3 0.7 0.3 0.7 0.3 0.7 0.3 0.7 0.3 0.7 0.3 0.7 0.3 0.7 0.3 0.7 0.3 0.7 0.3 0.7 0.3 0.7 0.3 0.7 0.3 0.7 0.3 0.7 0.3 0.7 0.3 0.7 0.3 0.7 0.3 0.7 0.3 0.7 0.3 0.7 0.3 0.7 0.3 0.7 0.3 0.7 0.3 0.7 0.3 0.7 0.3 0.7 0.3 0.7 0.3 0.7 0.3 0.7 0.3 0.7 0.3 0.7 0.3 0.7 0.3 0.7 0.3 0.7 0.3 0.7 0.3 0.7 0.3 0.7 0.3 0.7 0.3 0.7 0.3 0.7 0.3 0.7 0.3 0.7 0.3 0.7 0.3 0.7 0.3 0.7 0.3 0.7 0.3 0.7 0.3 0.7 0.3 0.7 0.3 0.7 0.3 0.7 0.3 0.7 0.3 0.7 0.3 0.7 0.3 0.7 0.3 0.7 0.3 0.7 0.3 0.7 0.3 0.7 0.3 0.7 0.3 0.7 0.3 0.7 0.3 0.7 0.3 0.7 0.3 0.7 0.3 0.7 0.3 0.7 0.3 0.7 0.3 0.7 0.3 0.7 0.3 0.7 0.3 0.7 0.3 0.7 0.3 0.7 0.3 0.7 0.3 0.7 0.3 0.7 0.3 0.7 0.3 0.7 0.3 0.7 0.3 0.7 0.3 0.7 0.3 0.7 0.3 0.7 0.3 0.7 0.3 0.7 0.3 0.7 0.3 0.7099463989212446 0.2900536010787554 0.7 0.3 0.7 0.3 0.7 0.3 0.7 0.3 0.7 0.3 0.7 0.3 0.7 0.3 0.7 0.3 0.7 0.3 0.7 0.3 0.7 0.3 0.7 0.3 0.7 0.3 0.7 0.3 0.7099463989212446 0.2900536010787554 0.7 0.3 0.7 0.3 0.7 0.3 0.7 0.3 0.7 0.3 0.7 0.3 0.7 0.3 0.7 0.3 0.7 0.3 0.7 0.3 0.7 0.3 0.7 0.3 0.7 0.3 0.7 0.3 0.7620513618024067 0.2379486381975932 0.7 0.3 0.7 0.3 0.7 0.3 0.7 0.3 0.4690766899590277 0.5309233100409724 0.7 0.3 0.7 0.3 0.7945489676626517 0.2054510323373482 0.7 0.3 0.7 0.3 0.7 0.3 0.7 0.3 0.7 0.3 0.7 0.3 0.7263868576698043 0.2736131423301957 0.7 0.3 0.7 0.3 0.7 0.3 0.7 0.3 0.7 0.3 0.7 0.3 0.7 0.3 0.7 0.3 0.7 0.3 0.7 0.3 0.7 0.3 0.7 0.3 0.7 0.3 0.7 0.3 0.7099463989212446 0.2900536010787554 0.7 0.3 0.7 0.3 0.7 0.3 0.7 0.3 0.7 0.3 0.7 0.3 0.7 0.3 0.7 0.3 0.7 0.3 0.7 0.3 0.7 0.3 0.7 0.3 0.7 0.3 0.7010242371537765 0.2989757628462236 0.7036382380119093 0.2963617619880907 0.7608443847619013 0.2391556152380989 0.7022478906746588 0.2977521093253413 0.7815442229920657 0.2184557770079344 0.7 0.3 0.7 0.3 0.7 0.3 0.7 0.3 0.7 0.3 0.7 0.3 0.7062495547179046 0.2937504452820954 0.7 0.3 0.7 0.3 0.7 0.3 0.8068043011119551 0.1931956988880449 0.7158678159034112 0.2841321840965888 0.7292435935065046 0.2707564064934955 0.7975303374614818 0.2024696625385182 0.6549282458977749 0.3450717541022251 0.7872130329999349 0.212786967000065 0.7 0.3 0.7665652821895859 0.2334347178104141 0.7948480189851457 0.2051519810148543 0.7 0.3 0.7257839962334036 0.2742160037665964 0.7505130386378509 0.249486961362149 0.7260608832095489 0.2739391167904512 0.7173622941178482 0.2826377058821517 0.7328652617736602 0.2671347382263399 0.712120649036564 0.287879350963436 0.7057645420501566 0.2942354579498434 0.5238581810412777 0.4761418189587223 0.8830440452158237 0.1169559547841763 0.7519150533861931 0.2480849466138068 0.7999922185085402 0.2000077814914598 0.7 0.3 0.7 0.3 0.4753989122616349 0.5246010877383651 0.5779248845843785 0.4220751154156215 0.7 0.3 0.712666906775059 0.287333093224941 0.7 0.3 0.7 0.3 0.7 0.3 0.7035630668189824 0.2964369331810177 0.7065361115228037 0.2934638884771963 0.8770602906002702 0.1229397093997297 0.7483626430813964 0.2516373569186036 0.6426065356421451 0.357393464357855 0.7 0.3 0.7 0.3 0.7945489676626517 0.2054510323373482 0.7 0.3 0.7978864613770533 0.2021135386229465 0.7 0.3 0.711320186747 0.2886798132529999 0.7 0.3 0.7 0.3 0.7 0.3 0.7002395261680608 0.2997604738319392 0.7003139690010696 0.2996860309989304 0.7011856384272013 0.2988143615727988 0.7019270038762384 0.2980729961237616 0.6977447829490275 0.3022552170509724 0.7 0.3 0.7 0.3 0.7 0.3 0.7 0.3 0.7 0.3 0.7 0.3 0.7005168959871049 0.2994831040128951 0.7 0.3 0.7 0.3 0.7 0.3 0.7 0.3 0.7 0.3 0.7 0.3 0.7 0.3 0.7 0.3 0.7 0.3 0.7 0.3 0.7 0.3 0.7 0.3 0.7 0.3 0.7 0.3 0.7 0.3 0.7 0.3 0.7 0.3 0.7 0.3 0.7 0.3 0.7 0.3 0.7 0.3 0.7 0.3 0.7 0.3 0.7 0.3 0.7 0.3 0.7 0.3 0.7 0.3 0.7 0.3 0.7 0.3 0.7 0.3 0.7 0.3 0.7 0.3 0.7 0.3 0.7 0.3 0.7 0.3 0.7 0.3 0.7 0.3 0.7 0.3 0.7 0.3 0.7 0.3 0.7 0.3 0.7 0.3 0.7 0.3 0.7 0.3 0.7 0.3 0.7 0.3 0.7 0.3 0.7 0.3 0.7 0.3 0.7 0.3 0.7 0.3 0.7 0.3 0.7 0.3 0.7 0.3 0.7 0.3 0.7 0.3 0.7 0.3 0.7 0.3 0.7 0.3 0.7 0.3 0.7 0.3 0.7 0.3 0.7 0.3 0.7 0.3 0.7 0.3 0.7 0.3 0.7 0.3 0.7 0.3 0.7 0.3 0.7 0.3 0.7 0.3 0.7 0.3 0.7 0.3 0.7 0.3 0.7 0.3 0.7 0.3 0.7 0.3 0.7 0.3 0.7 0.3 0.7 0.3 0.7 0.3 0.7 0.3 0.7 0.3 0.7 0.3 0.7 0.3 0.7 0.3 0.7 0.3 0.7 0.3 0.7 0.3 0.7 0.3 0.7 0.3 0.7 0.3 0.7 0.3 0.7 0.3 0.7 0.3 0.7 0.3 0.7 0.3 0.7 0.3 0.7 0.3 0.7 0.3 0.7 0.3 0.7 0.3 0.7 0.3 0.7 0.3 0.7 0.3 0.7 0.3 0.7 0.3 0.7 0.3 0.7 0.3 0.7 0.3 0.7 0.3 0.7 0.3 0.7 0.3 0.7 0.3 0.7 0.3 0.7 0.3 0.7 0.3 0.7 0.3 0.7 0.3 0.7 0.3 0.7 0.3 0.7 0.3 0.7 0.3 0.7 0.3 0.7 0.3 0.7 0.3 0.7 0.3 0.7 0.3 0.7 0.3 0.7 0.3 0.7 0.3 0.7 0.3 0.7 0.3 0.7 0.3 0.7 0.3 0.7 0.3 0.7 0.3 0.7 0.3 0.7 0.3 0.7 0.3 0.7 0.3 0.7 0.3 0.7 0.3 0.7 0.3 0.7 0.3 0.7 0.3 0.7 0.3 0.7 0.3 0.7 0.3 0.7 0.3 0.7 0.3 0.7 0.3 0.7 0.3 0.7 0.3 0.7 0.3 0.7 0.3 0.7 0.3 0.7 0.3 0.7 0.3 0.7 0.3 0.7 0.3 0.7 0.3 0.7 0.3 0.7 0.3 0.7 0.3 0.7 0.3 0.7 0.3 0.7 0.3 0.7 0.3 0.7 0.3 0.7 0.3 0.7 0.3 0.7 0.3 0.7 0.3 0.7 0.3 0.7 0.3 0.7 0.3 0.7 0.3 0.7 0.3 0.7 0.3 0.7 0.3 0.7 0.3 0.7 0.3 0.7 0.3 0.7 0.3 0.7 0.3 0.7 0.3 0.7 0.3 0.7 0.3 0.7 0.3 0.7 0.3 0.7 0.3 0.7 0.3 0.7 0.3 0.7 0.3 0.7 0.3 0.7 0.3 0.7 0.3 0.7 0.3 0.7 0.3 0.7 0.3 0.7 0.3 0.7 0.3 0.7 0.3 0.7 0.3 0.7 0.3 0.7 0.3 0.7 0.3 0.7 0.3 0.7 0.3 0.7 0.3 0.7 0.3 0.7 0.3 0.7 0.3 0.7 0.3 0.7 0.3 0.7 0.3 0.7 0.3 0.7 0.3 0.7 0.3 0.7 0.3 0.7 0.3 0.7 0.3 0.7 0.3 0.7 0.3 0.7 0.3 0.7 0.3 0.7 0.3 0.7 0.3 0.7 0.3 0.7 0.3 0.7 0.3 0.7 0.3 0.7 0.3 0.7 0.3 0.7 0.3 0.7 0.3 0.7 0.3 0.7 0.3 0.7 0.3 0.7 0.3 0.7 0.3 0.7 0.3 0.7 0.3 0.7 0.3 0.7 0.3 0.7 0.3 0.7 0.3 0.7 0.3 0.7 0.3 0.7 0.3 0.7 0.3 0.7 0.3 0.7 0.3 0.7 0.3 0.7 0.3 0.7 0.3 0.7 0.3 0.7 0.3 0.7 0.3 0.7 0.3 0.7 0.3 0.7 0.3 0.7 0.3 0.7 0.3 0.7 0.3 0.7 0.3 0.7 0.3 0.7 0.3 0.7 0.3 0.7 0.3 0.7 0.3 0.7 0.3 0.7 0.3 0.7 0.3 0.7 0.3 0.7 0.3 0.7 0.3 0.7 0.3 0.7 0.3 0.7 0.3 0.7 0.3 0.7 0.3 0.7 0.3 0.7 0.3 0.7 0.3 0.7 0.3 0.7 0.3 0.7 0.3 0.7 0.3 0.7 0.3 0.7 0.3 0.7 0.3 0.7 0.3 0.7 0.3 0.7 0.3 0.7 0.3 0.7 0.3 0.7 0.3 0.7 0.3 0.7 0.3 0.7 0.3 0.7 0.3 0.7 0.3 0.7 0.3 0.7 0.3 0.467423281961782 0.5325767180382179 0.7 0.3 0.7 0.3 0.7 0.3 0.7 0.3 0.7 0.3 0.7 0.3 0.7 0.3 0.7 0.3 0.7 0.3 0.7 0.3 0.7 0.3 0.7 0.3 0.7 0.3 0.7 0.3 0.7 0.3 0.7 0.3 0.7 0.3 0.7 0.3 0.7 0.3 0.7 0.3 0.7 0.3 0.7 0.3 0.7 0.3 0.7 0.3 0.7 0.3 0.7 0.3 0.7 0.3 0.7 0.3 0.7999998414934273 0.2000001585065727 0.4726415186225053 0.5273584813774946 0.7 0.3 0.7 0.3 0.7 0.3 0.7 0.3 0.7 0.3 0.7 0.3 0.7 0.3 0.7 0.3 0.7 0.3 0.7 0.3 0.7 0.3 0.7 0.3 0.7 0.3 0.7 0.3 0.7 0.3 0.7 0.3 0.7 0.3 0.7 0.3 0.7 0.3 0.7 0.3 0.7 0.3 0.7 0.3 0.7 0.3 0.7 0.3 0.7 0.3 0.7 0.3 0.7 0.3 0.7 0.3 0.7 0.3 0.7 0.3 0.7 0.3 0.7 0.3 0.7 0.3 0.7 0.3 0.7 0.3 0.7 0.3 0.7 0.3 0.7 0.3 0.7 0.3 0.7 0.3 0.7 0.3 0.7 0.3 0.7 0.3 0.7018930570786762 0.2981069429213239 0.7 0.3 0.7 0.3 0.7 0.3 0.7 0.3 0.7 0.3 0.7 0.3 0.7 0.3 0.7 0.3 0.7 0.3 0.7 0.3 0.7 0.3 0.7 0.3 0.8623048921317376 0.1376951078682624 0.7 0.3 0.7427805928304034 0.2572194071695966 0.7 0.3 0.7 0.3 0.7 0.3 0.7 0.3 0.7 0.3 0.7 0.3 0.7 0.3 0.7 0.3 0.7 0.3 0.7 0.3 0.7 0.3 0.7 0.3 0.7 0.3 0.7 0.3 0.7035664455994602 0.2964335544005397 0.4677555273086027 0.5322444726913973 0.7 0.3 0.7 0.3 0.7 0.3 0.7 0.3 0.7 0.3 0.7 0.3 0.7 0.3 0.7 0.3 0.7 0.3 0.7 0.3 0.7 0.3 0.7 0.3 0.7 0.3 0.7675010229297856 0.2324989770702144 0.7 0.3 0.6524454863004492 0.3475545136995509 0.7 0.3 0.7 0.3 0.7 0.3 0.7 0.3 0.7 0.3 0.7 0.3 0.7 0.3 0.7 0.3 0.7 0.3 0.7 0.3 0.7 0.3 0.7 0.3 0.7013193308327034 0.2986806691672966 0.7 0.3 0.7 0.3 0.7 0.3 0.7 0.3 0.7 0.3 0.7 0.3 0.7 0.3 0.7 0.3 0.7 0.3 0.7 0.3 0.7 0.3 0.7 0.3 0.7 0.3 0.7 0.3 0.7 0.3 0.7 0.3 0.7 0.3 0.7 0.3 0.7 0.3 0.7 0.3 0.7 0.3 0.7 0.3 0.7 0.3 0.7 0.3 0.7 0.3 0.7 0.3 0.7 0.3 0.7 0.3 0.7 0.3 0.7 0.3 0.7 0.3 0.7 0.3 0.7 0.3 0.7 0.3 0.7 0.3 0.7 0.3 0.7 0.3 0.7 0.3 0.7 0.3 0.7 0.3 0.7 0.3 0.7 0.3 0.7 0.3 0.7 0.3 0.7 0.3 0.7 0.3 0.7 0.3 0.7 0.3 0.7 0.3 0.7 0.3 0.7 0.3 0.7 0.3 0.7 0.3 0.7 0.3 0.7 0.3 0.7 0.3 0.7 0.3 0.7 0.3 0.7 0.3 0.7 0.3 0.7 0.3 0.7 0.3 0.7 0.3 0.7 0.3 0.7 0.3 0.7 0.3 0.7 0.3 0.7 0.3 0.7 0.3 0.7 0.3 0.7 0.3 0.7 0.3 0.7 0.3 0.7 0.3 0.7 0.3 0.7 0.3 0.7 0.3 0.7 0.3 0.7 0.3 0.7 0.3 0.7 0.3 0.7 0.3 0.7 0.3 0.7 0.3 0.7 0.3 0.7 0.3 0.7 0.3 0.7 0.3 0.7018197194533264 0.2981802805466736 0.7 0.3 0.7 0.3 0.7 0.3 0.7 0.3 0.7 0.3 0.7 0.3 0.7 0.3 0.7 0.3 0.7 0.3 0.7 0.3 0.7 0.3 0.7 0.3 0.7 0.3 0.7 0.3 0.7018197194533264 0.2981802805466736 0.7 0.3 0.7 0.3 0.7 0.3 0.7 0.3 0.7 0.3 0.7 0.3 0.7 0.3 0.7 0.3 0.7 0.3 0.7 0.3 0.7 0.3 0.7 0.3 0.7 0.3 0.7 0.3 0.7682025355047233 0.2317974644952769 0.7 0.3 0.7 0.3 0.7 0.3 0.7 0.3 0.4694434813102596 0.5305565186897405 0.7 0.3 0.7 0.3 0.7 0.3 0.7 0.3 0.7 0.3 0.7 0.3 0.7 0.3 0.7 0.3 0.7 0.3 0.7438378581985694 0.2561621418014305 0.7 0.3 0.7 0.3 0.7 0.3 0.7 0.3 0.7 0.3 0.7 0.3 0.7 0.3 0.7 0.3 0.7 0.3 0.7 0.3 0.7 0.3 0.7 0.3 0.7 0.3 0.7 0.3 0.7018197194533264 0.2981802805466736 0.7 0.3 0.7 0.3 0.7 0.3 0.7 0.3 0.7 0.3 0.7 0.3 0.7 0.3 0.7 0.3 0.7 0.3 0.7 0.3 0.7 0.3 0.7 0.3 0.7 0.3 0.7 0.3 0.7 0.3 0.7049417545619698 0.2950582454380301 0.6999848888744615 0.3000151111255383 0.801814509884589 0.1981854901154111 0.7 0.3 0.7 0.3 0.7 0.3 0.7 0.3 0.7 0.3 0.7 0.3 0.7063048558698349 0.2936951441301651 0.7 0.3 0.7 0.3 0.7 0.3 0.468689791423368 0.5313102085766319 0.7 0.3 0.7379861998254221 0.2620138001745779 0.6013713456558508 0.3986286543441492 0.7394126774464146 0.2605873225535855 0.6880562021904769 0.3119437978095231 0.6817798102673568 0.3182201897326433 0.6716742950806358 0.3283257049193642 0.7403042564321669 0.2596957435678331 0.592073825877323 0.407926174122677 0.7 0.3 0.7221921471473355 0.2778078528526645 0.7 0.3 0.7 0.3 0.7 0.3 0.7 0.3 0.7 0.3 0.6519004921734286 0.3480995078265714 0.3995509789753453 0.6004490210246548 0.8119788113297522 0.1880211886702479 0.7 0.3 0.7 0.3 0.7 0.3 0.7 0.3 0.6778571609830619 0.322142839016938 0.7 0.3 0.7040239413180297 0.2959760586819704 0.7 0.3 0.7 0.3 0.7 0.3 0.7 0.3 0.7 0.3 0.7094108494978286 0.2905891505021714 0.6706743392452845 0.3293256607547155 0.7626853541709491 0.2373146458290509 0.7 0.3 0.7 0.3 0.7 0.3 0.7 0.3 0.7 0.3 0.7 0.3 0.7029987960770808 0.2970012039229192 0.7 0.3 0.7 0.3 0.7 0.3 0.7 0.3 0.7 0.3 0.7004088447016892 0.2995911552983108 0.6999895404873837 0.3000104595126164 0.7003185651482358 0.2996814348517642 0.7 0.3 0.7 0.3 0.7 0.3 0.7 0.3 0.7 0.3 0.7 0.3 0.7000201575800901 0.2999798424199099 0.7 0.3 0.7 0.3 0.7 0.3 0.7 0.3 0.7 0.3 0.7 0.3 0.7 0.3 0.7 0.3 0.7 0.3 0.7 0.3 0.7 0.3 0.7 0.3 0.7 0.3 0.7 0.3 0.7 0.3 0.7 0.3 0.7 0.3 0.7 0.3 0.7 0.3 0.7 0.3 0.7 0.3 0.7 0.3 0.7 0.3 0.7 0.3 0.7 0.3 0.7 0.3 0.7 0.3 0.7 0.3 0.7 0.3 0.7 0.3 0.7 0.3 0.7 0.3 0.7 0.3 0.7 0.3 0.7 0.3 0.7 0.3 0.7 0.3 0.7 0.3 0.7 0.3 0.7 0.3 0.7 0.3 0.7 0.3 0.7 0.3 0.7 0.3 0.7 0.3 0.7 0.3 0.7 0.3 0.7 0.3 0.7 0.3 0.7 0.3 0.7 0.3 0.7 0.3 0.7 0.3 0.7 0.3 0.7 0.3 0.7 0.3 0.7 0.3 0.7 0.3 0.7 0.3 0.7 0.3 0.7 0.3 0.7 0.3 0.7 0.3 0.7 0.3 0.7 0.3 0.7 0.3 0.7 0.3 0.7 0.3 0.7 0.3 0.7 0.3 0.7 0.3 0.7 0.3 0.7 0.3 0.7 0.3 0.7 0.3 0.7 0.3 0.7 0.3 0.7 0.3 0.7 0.3 0.7 0.3 0.7 0.3 0.7 0.3 0.7 0.3 0.7 0.3 0.7 0.3 0.7 0.3 0.7 0.3 0.7 0.3 0.7 0.3 0.7 0.3 0.7 0.3 0.7 0.3 0.7 0.3 0.7 0.3 0.7 0.3 0.7 0.3 0.7 0.3 0.7 0.3 0.7 0.3 0.7 0.3 0.7 0.3 0.7 0.3 0.7 0.3 0.7 0.3 0.7 0.3 0.7 0.3 0.7 0.3 0.7 0.3 0.7 0.3 0.7 0.3 0.7 0.3 0.7 0.3 0.7 0.3 0.7 0.3 0.7 0.3 0.7 0.3 0.7 0.3 0.7 0.3 0.7 0.3 0.7 0.3 0.7 0.3 0.7 0.3 0.7 0.3 0.7 0.3 0.7 0.3 0.7 0.3 0.7 0.3 0.7 0.3 0.7 0.3 0.7 0.3 0.7 0.3 0.7 0.3 0.7 0.3 0.7 0.3 0.7 0.3 0.7 0.3 0.7 0.3 0.7 0.3 0.7 0.3 0.7 0.3 0.7 0.3 0.7 0.3 0.7 0.3 0.7 0.3 0.7 0.3 0.7 0.3 0.7 0.3 0.7 0.3 0.7 0.3 0.7 0.3 0.7 0.3 0.7 0.3 0.7 0.3 0.7 0.3 0.7 0.3 0.7 0.3 0.7 0.3 0.7 0.3 0.7 0.3 0.7 0.3 0.7 0.3 0.7 0.3 0.7 0.3 0.7 0.3 0.7 0.3 0.7 0.3 0.7 0.3 0.7 0.3 0.7 0.3 0.7 0.3 0.7 0.3 0.7 0.3 0.7 0.3 0.7 0.3 0.7 0.3 0.7 0.3 0.7 0.3 0.7 0.3 0.7 0.3 0.7 0.3 0.7 0.3 0.7 0.3 0.7 0.3 0.7 0.3 0.7 0.3 0.7 0.3 0.7 0.3 0.7 0.3 0.7 0.3 0.7 0.3 0.7 0.3 0.7 0.3 0.7 0.3 0.7 0.3 0.7 0.3 0.7 0.3 0.7 0.3 0.7 0.3 0.7 0.3 0.7 0.3 0.7 0.3 0.7 0.3 0.7 0.3 0.7 0.3 0.7 0.3 0.7 0.3 0.7 0.3 0.7 0.3 0.7 0.3 0.7 0.3 0.7 0.3 0.7 0.3 0.7 0.3 0.7 0.3 0.7 0.3 0.7 0.3 0.7 0.3 0.7 0.3 0.7 0.3 0.7 0.3 0.7 0.3 0.7 0.3 0.7 0.3 0.7 0.3 0.7 0.3 0.7 0.3 0.7 0.3 0.7 0.3 0.7 0.3 0.7 0.3 0.7 0.3 0.7 0.3 0.7 0.3 0.7 0.3 0.7 0.3 0.7 0.3 0.7 0.3 0.7 0.3 0.7 0.3 0.7 0.3 0.7 0.3 0.7 0.3 0.7 0.3 0.7 0.3 0.7 0.3 0.7 0.3 0.7 0.3 0.7 0.3 0.7 0.3 0.7 0.3 0.7 0.3 0.7 0.3 0.7 0.3 0.7 0.3 0.7 0.3 0.7 0.3 0.7 0.3 0.7 0.3 0.7 0.3 0.7 0.3 0.7 0.3 0.7 0.3 0.7 0.3 0.7 0.3 0.7 0.3 0.7 0.3 0.7 0.3 0.7 0.3 0.7 0.3 0.7 0.3 0.7 0.3 0.7 0.3 0.7 0.3 0.7 0.3 0.7 0.3 0.7 0.3 0.7 0.3 0.7 0.3 0.7 0.3 0.7 0.3 0.7 0.3 0.7 0.3 0.7 0.3 0.7 0.3 0.7 0.3 0.7 0.3 0.7 0.3 0.7 0.3 0.7 0.3 0.7 0.3 0.7 0.3 0.7 0.3 0.7 0.3 0.7 0.3 0.7 0.3 0.7 0.3 0.7 0.3 0.7 0.3 0.7 0.3 0.7 0.3 0.7 0.3 0.7 0.3 0.7 0.3 0.7 0.3 0.7299532855591682 0.2700467144408318 0.7 0.3 0.7 0.3 0.7 0.3 0.7 0.3 0.7 0.3 0.7 0.3 0.7 0.3 0.7 0.3 0.7 0.3 0.7 0.3 0.7 0.3 0.7 0.3 0.7 0.3 0.7 0.3 0.703818901103354 0.296181098896646 0.7 0.3 0.7 0.3 0.7 0.3 0.7 0.3 0.7 0.3 0.7 0.3 0.7 0.3 0.7 0.3 0.7 0.3 0.7 0.3 0.7 0.3 0.7 0.3 0.7 0.3 0.7 0.3 0.7381098123964498 0.2618901876035503 0.7 0.3 0.7 0.3 0.7 0.3 0.7 0.3 0.7 0.3 0.7 0.3 0.7 0.3 0.7 0.3 0.7 0.3 0.7 0.3 0.7 0.3 0.7 0.3 0.7 0.3 0.7 0.3 0.7537558487208371 0.246244151279163 0.7 0.3 0.7 0.3 0.7 0.3 0.7 0.3 0.7 0.3 0.7 0.3 0.7 0.3 0.7 0.3 0.7 0.3 0.7 0.3 0.7 0.3 0.7 0.3 0.7 0.3 0.7 0.3 0.7035954104240959 0.2964045895759042 0.7 0.3 0.7 0.3 0.7 0.3 0.7 0.3 0.7 0.3 0.7 0.3 0.7 0.3 0.7 0.3 0.7 0.3 0.7 0.3 0.7 0.3 0.7 0.3 0.7 0.3 0.7 0.3 0.6965111569524722 0.3034888430475278 0.7 0.3 0.7 0.3 0.7 0.3 0.7 0.3 0.7 0.3 0.7 0.3 0.7 0.3 0.7 0.3 0.7 0.3 0.7 0.3 0.7 0.3 0.7 0.3 0.7 0.3 0.7 0.3 0.5926026641801274 0.4073973358198726 0.7 0.3 0.7 0.3 0.7 0.3 0.7 0.3 0.7 0.3 0.7 0.3 0.7 0.3 0.7 0.3 0.7 0.3 0.7 0.3 0.7 0.3 0.7 0.3 0.7 0.3 0.7 0.3 0.5536825557550186 0.4463174442449814 0.7 0.3 0.7 0.3 0.7 0.3 0.7 0.3 0.7 0.3 0.7 0.3 0.7 0.3 0.7 0.3 0.7 0.3 0.7 0.3 0.7 0.3 0.7 0.3 0.7 0.3 0.7 0.3 0.6709315785560407 0.3290684214439594 0.7986553478497554 0.2013446521502445 0.7 0.3 0.7 0.3 0.7 0.3 0.7 0.3 0.7 0.3 0.7 0.3 0.7 0.3 0.7 0.3 0.7 0.3 0.7 0.3 0.7 0.3 0.7 0.3 0.7 0.3 0.6970838664448697 0.3029161335551303 0.7 0.3 0.7 0.3 0.7 0.3 0.7 0.3 0.7 0.3 0.7 0.3 0.7 0.3 0.7 0.3 0.7 0.3 0.7 0.3 0.7 0.3 0.7 0.3 0.7 0.3 0.7 0.3 0.7 0.3 0.7 0.3 0.7 0.3 0.7 0.3 0.7 0.3 0.7 0.3 0.7 0.3 0.7 0.3 0.7 0.3 0.7 0.3 0.7 0.3 0.7 0.3 0.7 0.3 0.7 0.3 0.7 0.3 0.7 0.3 0.7 0.3 0.7 0.3 0.7 0.3 0.7 0.3 0.7 0.3 0.7 0.3 0.7 0.3 0.7 0.3 0.7 0.3 0.7 0.3 0.7 0.3 0.7 0.3 0.7 0.3 0.7 0.3 0.7 0.3 0.7 0.3 0.7 0.3 0.7 0.3 0.7 0.3 0.7 0.3 0.7 0.3 0.7 0.3 0.7 0.3 0.7 0.3 0.7 0.3 0.7 0.3 0.7 0.3 0.7 0.3 0.7 0.3 0.7 0.3 0.7 0.3 0.7 0.3 0.7 0.3 0.7 0.3 0.7 0.3 0.7 0.3 0.7 0.3 0.7 0.3 0.7 0.3 0.7 0.3 0.7 0.3 0.7 0.3 0.7 0.3 0.7 0.3 0.7 0.3 0.7 0.3 0.7 0.3 0.7 0.3 0.7 0.3 0.7 0.3 0.7 0.3 0.7 0.3 0.7 0.3 0.7 0.3 0.7 0.3 0.7 0.3 0.7 0.3 0.7 0.3 0.7 0.3 0.7 0.3 0.7 0.3 0.7 0.3 0.7 0.3 0.7 0.3 0.7 0.3 0.7 0.3 0.7 0.3 0.7 0.3 0.7 0.3 0.7 0.3 0.7 0.3 0.7 0.3 0.7 0.3 0.7 0.3 0.7 0.3 0.7 0.3 0.7 0.3 0.7 0.3 0.7 0.3 0.7 0.3 0.7 0.3 0.7 0.3 0.7 0.3 0.7 0.3 0.7 0.3 0.7 0.3 0.7 0.3 0.7 0.3 0.7 0.3 0.7 0.3 0.7 0.3 0.7 0.3 0.7 0.3 0.7 0.3 0.7 0.3 0.7 0.3 0.7 0.3 0.7 0.3 0.7 0.3 0.7 0.3 0.7 0.3 0.7 0.3 0.7 0.3 0.7 0.3 0.7 0.3 0.7 0.3 0.7 0.3 0.7 0.3 0.7 0.3 0.7 0.3 0.7 0.3 0.7 0.3 0.7 0.3 0.7 0.3 0.7 0.3 0.7 0.3 0.7 0.3 0.7 0.3 0.7 0.3 0.7 0.3 0.7 0.3 0.7 0.3 0.7 0.3 0.7 0.3 0.7 0.3 0.7 0.3 0.7 0.3 0.7 0.3 0.7 0.3 0.7 0.3 0.7 0.3 0.7 0.3 0.7 0.3 0.6997669611230024 0.3002330388769976 0.6991669524188395 0.3008330475811605 0.6992151815413647 0.3007848184586353 0.7004822605600458 0.2995177394399542 0.6992038093096596 0.3007961906903404 0.7 0.3 0.7 0.3 0.7 0.3 0.7004570358761111 0.2995429641238889 0.7 0.3 0.7 0.3 0.7 0.3 0.7 0.3 0.700028085900346 0.2999719140996539 0.7 0.3 0.6967679699333792 0.3032320300666209 0.6962522223825518 0.3037477776174483 0.698550750412506 0.3014492495874939 0.7165888812858826 0.2834111187141174 0.6989629677958082 0.3010370322041918 0.7 0.3 0.7 0.3 0.7 0.3 