<?xml version="1.0" encoding="UTF-8"?>
<!-- This network was created in GeNIe Academic, which can be used for academic teaching and research purposes only -->
<smile version="1.0" id="Network1" numsamples="10000" discsamples="10000">
	<nodes>
		<cpt id="Age">
			<state id="Age_12" />
			<state id="Age_13" />
			<state id="Age_14" />
			<state id="Age_15" />
			<state id="Age_16" />
			<probabilities>0.2 0.2 0.2 0.2 0.2</probabilities>
			<property id="DSL_OUTCOME_ORDER">1</property>
		</cpt>
		<cpt id="Gender">
			<state id="Male" />
			<state id="Female" />
			<state id="NonBinary" />
			<probabilities>0.48 0.48 0.04</probabilities>
		</cpt>
		<cpt id="Self_Esteem">
			<state id="State0" />
			<state id="State1" />
			<state id="State2" />
			<probabilities>0.2131099353321575 0.4247501469723692 0.3621399176954733</probabilities>
			<property id="DSL_OUTCOME_ORDER">1</property>
		</cpt>
		<cpt id="Social_Support">
			<state id="State0" />
			<state id="State1" />
			<state id="State2" />
			<probabilities>0.07289829512051735 0.3586125808348031 0.5684891240446796</probabilities>
			<property id="DSL_OUTCOME_ORDER">1</property>
		</cpt>
		<cpt id="Family_Support">
			<state id="State0" />
			<state id="State1" />
			<state id="State2" />
			<parents>Gender Age</parents>
			<probabilities>0.06872849563518467 0.2268522207582563 0.704419283606559 0.05681626687146841 0.2030141829858314 0.7401695501427002 0.02444338563489649 0.2307013355774028 0.7448552787877006 0.03668942704789682 0.298669945584357 0.6646406273677462 0.07708775237274028 0.3321250897984213 0.5907871578288384 0.1043307077920582 0.2881089437060982 0.6075603485018436 0.1300817924142696 0.3126172912582376 0.5573009163274928 0.07603658184509696 0.3441310848338544 0.5798323333210486 0.1652664404034632 0.3178941698971921 0.5168393896993447 0.07875904467197399 0.3506798701172943 0.5705610852107316 0.136958269702952 0.516788007683502 0.346253722613546 0.1418255343409251 0.1388560906139699 0.719318375045105 0.559982769481691 0.1122165729606764 0.3278006575576324 0.1581700747949965 0.3579991451256129 0.4838307800793906 0.7402802850617825 0.1228195506636442 0.1369001642745732</probabilities>
			<property id="DSL_OUTCOME_ORDER">1</property>
		</cpt>
		<cpt id="Hours_Internet">
			<state id="State0" />
			<state id="State1" />
			<state id="State2" />
			<state id="State3" />
			<state id="State4" />
			<parents>Family_Support Social_Support Age</parents>
			<probabilities>0.4723833466675002 0.3701720711656117 0.05248152738896273 0.05248152738896273 0.05248152738896273 0.3317999946759659 0.3562840819907415 0.1364635318355006 0.1364635318355006 0.03898885966229129 0.1214657455063318 0.5141370179746728 0.1214657455063318 0.1214657455063318 0.1214657455063318 0.1626790924738152 0.177440280800935 0.3301892387989264 0.2837318473819549 0.04595954054436852 0.2639234548860798 0.1407926699284842 0.133066995881064 0.330614614667122 0.1316022646372499 0.08944329224781546 0.3627840160800541 0.09554538334426083 0.3627840160800541 0.08944329224781546 0.5139596539420813 0.265769429903623 0.07614274794928201 0.07206408410250691 0.07206408410250691 0.07676764750605096 0.07676764750605096 0.4803391955629361 0.289357861918911 0.07676764750605096 0.04574446707429825 0.1632728622469702 0.1703655030007409 0.5748727006036926 0.04574446707429825 0.07693504006549727 0.07693504006549727 0.1133003270349828 0.2697373991515758 0.4630921936824469 0.2682651006303155 0.08534356424549842 0.2682651006303155 0.3076662283418307 0.07046000615203976 0.1170624565263872 0.1925112602995487 0.4159586494122353 0.1574051772354417 0.1170624565263872 0.06197109898420706 0.2540523657453834 0.2171501668434036 0.404855269442799 0.06197109898420706 0.2194975710409655 0.2650082715050895 0.2194975710409655 0.2332852388441356 0.06271134756884379 0.1577899681151911 0.2104250437643103 0.1577899681151911 0.3162050518901164 0.1577899681151911 0.2898848282707508 0.2898848282707508 0.06517275759387371 0.2898848282707508 0.06517275759387371 0.5336540835299562 0.199883008529928 0.199883008529928 0.03328994970509393 0.03328994970509393 0.4250174419779133 0.2999995145954809 0.04999549005547128 0.1749920633156632 0.04999549005547128 0.07999467992278042 0.07999467992278042 0.4800194043098213 0.2799965559218375 0.07999467992278042 0.08992709146627692 0.3651093628005846 0.3651093628005846 0.08992709146627692 0.08992709146627692 0.1462833533873066 0.2588226132910975 0.3314881677942925 0.17600437066642 0.08740149486088336 0.1555964652672811 0.06283434919569068 0.229681757101146 0.5346343290325678 0.01725309940331438 0.1000545102335287 0.3087773648057408 0.3948465490147252 0.1808657434876657 0.01545583245833962 0.1201604115608668 0.1623780243574074 0.4055307823832747 0.2816121675368223 0.03031861416162873 0.21052268042817 0.3492432460067454 0.2426889469649448 0.1283339762855337 0.06921115031460613 0.07535437115863759 0.2905803700640064 0.1298044345758103 0.428906453042908 0.07535437115863759 0.1300362413496375 0.1265405103062879 0.329000160352241 0.3782489364646639 0.03617415152716958 0.02641843752277924 0.02641843752277924 0.4521444600307427 0.3289494965694145 0.1660691683542843 0.1891652969592036 0.1298832853516018 0.1302387246142575 0.3625960095392542 0.1881166835356829 0.01875226851699887 0.1613671894990344 0.4097193006221094 0.3914089728448584 0.01875226851699887 0.408768462162016 0.09095869812892061 0.3183554434512221 0.09095869812892061 0.09095869812892061 0.203020028134065 0.12261230336399 0.429143061773965 0.12261230336399 0.12261230336399 0.1281773597605414 0.3492803293808033 0.08663099073892591 0.3492803293808033 0.08663099073892591 0.1592964543751612 0.4536133683965471 0.1290300590760972 0.1290300590760972 0.1290300590760972 0.0709573493670041 0.2234678687124856 0.2234678687124856 0.4209651099098361 0.06114180329818862 0.04985308758577503 0.2658107990279498 0.2902593100832843 0.3208423963268231 0.0732344069761679 0.03745774616343853 0.3436576675638612 0.4566576750519146 0.1526558127974204 0.009571098423365175 0.01560501501605311 0.1829350269206825 0.2847568301576243 0.4257264254400008 0.09097670246563952 0.04486101576550707 0.1873446617960295 0.4083403520833197 0.3483018302875068 0.0111521400676369 0.0618964562611231 0.2406424119854972 0.3784402138488553 0.2683491762842441 0.05067174162028016 0.05738448249000951 0.3350210184120631 0.4089947011691813 0.1709830035750599 0.02761679435368626 0.1294724952336796 0.3413677451759327 0.2344585773890797 0.2495958094041205 0.04510537279718749 0.08840043932001726 0.2173701557081146 0.2901162653062725 0.3422717814072445 0.06184135825835117 0.07644864695221014 0.272572760246206 0.3427105469815319 0.2655228951504113 0.04274515066964071 0.08536499792740937 0.2422402164613238 0.2543142400708149 0.3853265360924575 0.03275400944799461</probabilities>
			<property id="DSL_OUTCOME_ORDER">1</property>
		</cpt>
		<cpt id="Empathy">
			<state id="State0" />
			<state id="State1" />
			<parents>Age Family_Support Social_Support Gender</parents>
			<probabilities>0.6747673305147982 0.3252326694852019 0.8109545096334444 0.1890454903665556 0.5047433364335591 0.4952566635664409 0.7141760850792814 0.2858239149207185 0.4192079910018335 0.5807920089981664 0.5075381105681102 0.4924618894318898 0.7409660311483018 0.2590339688516982 0.3935590650560213 0.6064409349439787 0.5 0.5 0.5918271808722723 0.4081728191277278 0.3627892291437991 0.6372107708562008 0.3288849927394846 0.6711150072605153 0.6656695569594213 0.3343304430405787 0.5432611792752782 0.4567388207247218 0.503467144104345 0.496532855895655 0.3091282820810811 0.6908717179189189 0.2669924707125961 0.733007529287404 0.6666666666666666 0.3333333333333333 0.4547934906446031 0.5452065093553969 0.5 0.5 0.5 0.5 0.5106220858542294 0.4893779141457706 0.3617929141556213 0.6382070858443787 0.5367900278947628 0.4632099721052372 0.4105338188292522 0.5894661811707479 0.3375955996085266 0.6624044003914734 0.6437887682080025 0.3562112317919975 0.5067607444582212 0.4932392555417788 0.8436863025281175 0.1563136974718826 0.5048168341870707 0.4951831658129294 0.8 0.2 0.3333333333333333 0.6666666666666666 0.494488360637363 0.505511639362637 0.5129964899861126 0.4870035100138875 0.3195616333957616 0.6804383666042385 0.5 0.5 0.809094410314105 0.190905589685895 0.8 0.2 0.5 0.5 0.3355288645516064 0.6644711354483935 0.6767904633478058 0.3232095366521943 0.4933606535945617 0.5066393464054383 0.4402236788154403 0.5597763211845597 0.2429430094729006 0.7570569905270993 0.5 0.5 0.306530758409975 0.693469241590025 0.5 0.5 0.5 0.5 0.3989470960878674 0.6010529039121325 0.302152976588851 0.6978470234111488 0.5789212135109603 0.4210787864890398 0.3371372133355904 0.6628627866644095 0.395347957955409 0.604652042044591 0.2197101226459946 0.7802898773540055 0.512712381350854 0.487287618649146 0.6969668829016751 0.3030331170983249 0.3483658168877282 0.6516341831122718 0.6666666666666666 0.3333333333333333 0.5 0.5 0.3695308969387859 0.6304691030612142 0.322989451771701 0.677010548228299 0.1909298331870615 0.8090701668129384 0.6666666666666666 0.3333333333333333 0.6904773676334501 0.3095226323665499 0.8571428571428571 0.1428571428571428 0.5 0.5 0.4929302047386846 0.5070697952613156 0.7453229361349792 0.2546770638650208 0.5043045908698788 0.4956954091301213 0.5235837503438423 0.4764162496561576 0.6532605990521915 0.3467394009478084 0.5014257300238169 0.4985742699761831 0.2390538003965399 0.7609461996034602 0.6666666666666666 0.3333333333333333 0.5 0.5 0.3031822654626434 0.6968177345373565 0.4524264235757048 0.5475735764242953 0.5365745791016834 0.4634254208983166 0.2271453972216904 0.7728546027783096 0.1843740493787066 0.8156259506212933 0.3263534925673895 0.6736465074326105 0.7472150311926156 0.2527849688073845 0.448252498945926 0.5517475010540739 0.4974756799091885 0.5025243200908115 0.5 0.5 0.5833333333333333 0.4166666666666666 0.4861646337631439 0.5138353662368562 0.665595350428888 0.334404649571112 0.5672459202961643 0.4327540797038358 0.5 0.5 0.3668041361742119 0.6331958638257881 0.3333333333333333 0.6666666666666666 0.3333333333333333 0.6666666666666666 0.570212766007142 0.429787233992858 0.57892154998737 0.4210784500126299 0.5 0.5 0.4015346554541646 0.5984653445458356 0.3019747584805895 0.6980252415194106 0.5162095632046997 0.4837904367953003 0.6465004857118281 0.353499514288172 0.6666666666666666 0.3333333333333333 0.5 0.5 0.4777450942641221 0.522254905735878 0.3108632701301458 0.6891367298698542 0.5471408768417281 0.4528591231582719 0.4575420218058459 0.5424579781941541 0.3609760050428389 0.6390239949571611 0.3079334522391588 0.6920665477608412 0.8229045911463286 0.1770954088536713 0.6717968584060152 0.3282031415939847 0.6899678403080481 0.3100321596919519 0.3333333333333333 0.6666666666666666 0.6000000000000001 0.4 0.4569737757974458 0.5430262242025541 0.4701222379964242 0.5298777620035758 0.4687442648184597 0.5312557351815402 0.5 0.5 0.3707169903035257 0.6292830096964744 0.5 0.5 0.5 0.5 0.6792060719992569 0.320793928000743 0.7520015032355514 0.2479984967644486 0.5052348909715051 0.4947651090284949 0.6391116676332635 0.3608883323667365 0.448530093731164 0.5514699062688361 0.5015766444462676 0.4984233555537324 0.3949956370618206 0.6050043629381794 0.75 0.25 0.5 0.5 0.5819367978712628 0.4180632021287372 0.4061532484504776 0.5938467515495224 0.515294642401053 0.4847053575989471 0.3681018756529545 0.6318981243470456 0.3914116290882451 0.608588370911755 0.489246426271591 0.510753573728409</probabilities>
			<property id="DSL_OUTCOME_ORDER">1</property>
		</cpt>
		<cpt id="CB_Offending">
			<state id="State0" />
			<state id="State1" />
			<parents>Self_Esteem Social_Support Family_Support Hours_Internet Gender Age Empathy</parents>
			<probabilities>0.6 0.4 0.6991693205492215 0.3008306794507784 0.9 0.1 0.9 0.1 0.9 0.1 0.9 0.1 0.9 0.1 0.9 0.1 0.9052678813117917 0.0947321186882083 0.9029766231869957 0.09702337681300437 0.9 0.1 0.9 0.1 0.9 0.1 0.9 0.1 0.9 0.1 0.9 0.1 0.6 0.4 0.9 0.1 0.9044289827603322 0.09557101723966777 0.9055055911542584 0.09449440884574145 0.9 0.1 0.9 0.1 0.9 0.1 0.9 0.1 0.9 0.1 0.9 0.1 0.9 0.1 0.9 0.1 0.903591771049352 0.09640822895064798 0.9041256384206618 0.09587436157933801 0.9 0.1 0.7643343379439786 0.2356656620560215 0.9333333333333332 0.06666666666666667 0.9 0.1 0.9 0.1 0.9 0.1 0.9 0.1 0.9 0.1 0.9028788239100111 0.09712117608998894 0.9016108090965409 0.09838919090345899 0.9333333333333332 0.06666666666666667 0.9 0.1 0.9 0.1 0.9 0.1 0.9 0.1 0.9 0.1 0.9 0.1 0.9333333333333332 0.06666666666666667 0.9024116527684791 0.09758834723152082 0.9030118177368589 0.09698818226314106 0.9 0.1 0.9 0.1 0.9 0.1 0.9 0.1 0.9 0.1 0.6 0.4 0.9 0.1 0.9 0.1 0.9019487872123131 0.09805121278768691 0.9022435612957671 0.09775643870423285 0.9 0.1 0.8895440084649811 0.1104559915350189 0.9 0.1 0.9 0.1 0.9 0.1 0.9 0.1 0.9 0.1 0.9 0.1 0.9027220858622316 0.09727791413776837 0.9015221433496162 0.09847785665038379 0.9 0.1 0.9 0.1 0.9 0.1 0.9 0.1 0.9 0.1 0.9 0.1 0.6 0.4 0.9 0.1 0.9022798164010966 0.09772018359890354 0.9028480285100273 0.09715197148997266 0.9 0.1 0.9 0.1 0.9 0.1 0.9 0.1 0.9 0.1 0.9 0.1 0.9 0.1 0.9 0.1 0.901841827972621 0.09815817202737889 0.9021207358041926 0.09787926419580735 0.9 0.1 0.8895440084649811 0.1104559915350189 0.9 0.1 0.6 0.4 0.9 0.1 0.9 0.1 0.9 0.1 0.8829565426551559 0.117043457344844 0.6490566541646249 0.3509433458353752 0.9037035371115366 0.09629646288846332 0.9 0.1 0.9 0.1 0.9 0.1 0.9 0.1 0.9 0.1 0.9 0.1 0.9 0.1 0.7115544916868062 0.2884455083131939 0.9198643210528014 0.08013567894719854 0.9068108033576445 0.09318919664235553 0.9 0.1 0.9 0.1 0.9 0.1 0.9 0.1 0.9 0.1 0.9 0.1 0.9 0.1 0.888297528570855 0.111702471429145 0.9165800462911688 0.08341995370883115 0.9051197719689824 0.09488022803101764 0.9 0.1 0.8895440084649811 0.1104559915350189 0.9 0.1 0.9 0.1 0.9 0.1 0.9 0.1 0.9 0.1 0.9 0.1 0.6048845869088348 0.3951154130911652 0.9015055941385371 0.09849440586146273 0.9 0.1 0.9 0.1 0.9 0.1 0.9 0.1 0.9 0.1 0.9 0.1 0.9 0.1 0.9 0.1 0.9022551984640724 0.0977448015359275 0.9028174336290289 0.09718256637097097 0.9 0.1 0.9 0.1 0.9 0.1 0.9 0.1 0.9 0.1 0.9 0.1 0.9 0.1 0.9 0.1 0.9018218605587468 0.09817813944125325 0.9020978026415888 0.09790219735841119 0.6846205668253449 0.3153794331746552 0.9 0.1 0.9211743323060384 0.07882566769396156 0.9 0.1 0.9 0.1 0.9 0.1 0.9 0.1 0.9 0.1 0.9 0.1 0.9 0.1 0.9 0.1 0.9 0.1 0.9 0.1 0.9 0.1 0.9 0.1 0.9 0.1 0.9 0.1 0.9 0.1 0.9 0.1 0.9 0.1 0.9 0.1 0.9333333333333332 0.06666666666666667 0.9 0.1 0.9 0.1 0.9 0.1 0.9 0.1 0.9 0.1 0.9 0.1 0.9 0.1 0.9 0.1 0.6846205668253449 0.3153794331746552 0.9333333333333332 0.06666666666666667 0.9090320035744083 0.09096799642559168 0.9 0.1 0.9 0.1 0.9 0.1 0.9 0.1 0.9 0.1 0.9 0.1 0.9333333333333332 0.06666666666666667 0.9 0.1 0.9 0.1 0.9 0.1 0.9 0.1 0.9 0.1 0.9 0.1 0.9 0.1 0.9 0.1 0.9 0.1 0.9 0.1 0.9 0.1 0.9 0.1 0.9 0.1 0.9 0.1 0.9 0.1 0.9 0.1 0.9 0.1 0.9 0.1 0.9 0.1 0.9 0.1 0.8753971266316821 0.1246028733683178 0.9 0.1 0.9090320035744083 0.09096799642559168 0.9 0.1 0.9 0.1 0.9 0.1 0.9 0.1 0.9 0.1 0.9 0.1 0.9 0.1 0.9 0.1 0.9 0.1 0.9 0.1 0.9 0.1 0.9 0.1 0.9 0.1 0.9 0.1 0.9333333333333332 0.06666666666666667 0.9 0.1 0.9333333333333332 0.06666666666666667 0.9 0.1 0.9 0.1 0.9 0.1 0.9 0.1 0.9 0.1 0.9 0.1 0.9 0.1 0.6 0.4 0.9 0.1 0.9 0.1 0.6846205668253449 0.3153794331746552 0.8170668838018824 0.1829331161981175 0.9016136487394751 0.09838635126052482 0.9 0.1 0.6 0.4 0.9 0.1 0.9 0.1 0.9 0.1 0.9 0.1 0.9 0.1 0.9 0.1 0.6530206124588384 0.3469793875411615 0.9 0.1 0.9 0.1 0.9 0.1 0.9 0.1 0.9 0.1 0.9 0.1 0.9 0.1 0.9 0.1 0.9 0.1 0.8821036342900178 0.1178963657099822 0.9 0.1 0.9 0.1 0.9 0.1 0.9 0.1 0.9 0.1 0.9 0.1 0.9 0.1 0.9 0.1 0.8753971266316821 0.1246028733683178 0.9 0.1 0.9016136487394751 0.09838635126052482 0.9 0.1 0.9 0.1 0.9 0.1 0.9 0.1 0.9 0.1 0.9 0.1 0.9 0.1 0.9 0.1 0.9 0.1 0.9 0.1 0.9 0.1 0.9 0.1 0.9 0.1 0.9 0.1 0.9 0.1 0.9 0.1 0.9 0.1 0.9 0.1 0.9 0.1 0.9 0.1 0.9 0.1 0.9 0.1 0.9 0.1 0.9 0.1 0.9 0.1 0.9 0.1 0.9 0.1 0.9 0.1 0.9 0.1 0.9 0.1 0.9 0.1 0.9 0.1 0.9 0.1 0.9 0.1 0.9 0.1 0.9 0.1 0.883284148052313 0.1167158519476871 0.9 0.1 0.9 0.1 0.9 0.1 0.9 0.1 0.864883630583116 0.1351163694168841 0.9 0.1 0.9 0.1 0.9 0.1 0.9 0.1 0.9 0.1 0.9 0.1 0.9 0.1 0.9 0.1 0.9 0.1 0.9 0.1 0.9 0.1 0.9 0.1 0.9 0.1 0.9 0.1 0.9 0.1 0.9 0.1 0.9 0.1 0.9 0.1 0.9 0.1 0.9 0.1 0.9 0.1 0.9 0.1 0.9 0.1 0.9 0.1 0.8262827260214983 0.1737172739785016 0.9 0.1 0.9 0.1 0.9 0.1 0.9 0.1 0.7467716439410351 0.253228356058965 0.9 0.1 0.9 0.1 0.9 0.1 0.9 0.1 0.9 0.1 0.9 0.1 0.9 0.1 0.9 0.1 0.9 0.1 0.9 0.1 0.9 0.1 0.9 0.1 0.9 0.1 0.9 0.1 0.9 0.1 0.9 0.1 0.9 0.1 0.9 0.1 0.9333333333333332 0.06666666666666667 0.9 0.1 0.9 0.1 0.9 0.1 0.9 0.1 0.9 0.1 0.8262827260214983 0.1737172739785016 0.9 0.1 0.9 0.1 0.9 0.1 0.9 0.1 0.8784677972808507 0.1215322027191494 0.9 0.1 0.9 0.1 0.9 0.1 0.9 0.1 0.9 0.1 0.9 0.1 0.9 0.1 0.9 0.1 0.9 0.1 0.9 0.1 0.9 0.1 0.9 0.1 0.9 0.1 0.9 0.1 0.9 0.1 0.9 0.1 0.9 0.1 0.9 0.1 0.9 0.1 0.9 0.1 0.6 0.4 0.9 0.1 0.9 0.1 0.9 0.1 0.6994575816117202 0.3005424183882797 0.9 0.1 0.9 0.1 0.9 0.1 0.9 0.1 0.7467716439410351 0.253228356058965 0.9 0.1 0.9 0.1 0.9 0.1 0.9 0.1 0.9 0.1 0.9 0.1 0.9 0.1 0.9 0.1 0.9 0.1 0.9 0.1 0.9 0.1 0.9 0.1 0.9 0.1 0.9 0.1 0.9 0.1 0.9 0.1 0.9 0.1 0.9 0.1 0.9 0.1 0.9 0.1 0.9 0.1 0.9 0.1 0.9 0.1 0.9 0.1 0.8858852885027353 0.1141147114972647 0.9 0.1 0.9 0.1 0.9 0.1 0.9 0.1 0.8784677972808507 0.1215322027191494 0.9 0.1 0.9 0.1 0.9 0.1 0.9 0.1 0.9 0.1 0.9 0.1 0.9 0.1 0.9 0.1 0.9 0.1 0.9 0.1 0.9 0.1 0.9 0.1 0.9 0.1 0.9 0.1 0.9 0.1 0.8782316504666988 0.1217683495333013 0.9 0.1 0.9 0.1 0.9 0.1 0.9 0.1 0.9 0.1 0.8913598855282662 0.1086401144717339 0.9 0.1 0.9 0.1 0.9 0.1 0.9 0.1 0.9 0.1 0.9 0.1 0.6678501807607998 0.3321498192392003 0.8831987088326658 0.1168012911673341 0.9 0.1 0.9 0.1 0.9062729523181461 0.09372704768185376 0.9 0.1 0.9036654260211878 0.09633457397881223 0.9 0.1 0.9 0.1 0.9 0.1 0.9 0.1 0.9 0.1 0.9 0.1 0.9 0.1 0.9 0.1 0.9 0.1 0.9 0.1 0.742733952625906 0.2572660473740939 0.9 0.1 0.9 0.1 0.9 0.1 0.9 0.1 0.9 0.1 0.8620118699227005 0.1379881300772995 0.9 0.1 0.9 0.1 0.9 0.1 0.9 0.1 0.9 0.1 0.9 0.1 0.8179805990257787 0.1820194009742212 0.8831987088326658 0.1168012911673341 0.9 0.1 0.9 0.1 0.9194767268758492 0.08052327312415077 0.9 0.1 0.9036654260211878 0.09633457397881223 0.9 0.1 0.9 0.1 0.9 0.1 0.9 0.1 0.9 0.1 0.9 0.1 0.9 0.1 0.9 0.1 0.9 0.1 0.9 0.1 0.8763831857257981 0.123616814274202 0.9 0.1 0.9 0.1 0.9 0.1 0.9 0.1 0.9 0.1 0.8596499323543665 0.1403500676456334 0.6 0.4 0.9 0.1 0.9 0.1 0.9 0.1 0.9 0.1 0.9 0.1 0.8839728680644314 0.1160271319355686 0.6831778117443065 0.3168221882556935 0.9 0.1 0.9 0.1 0.9201915852185438 0.0798084147814561 0.9 0.1 0.9053401455952106 0.0946598544047893 0.9 0.1 0.9013002839604003 0.09869971603959955 0.9 0.1 0.9011023278725274 0.09889767212747261 0.9 0.1 0.9260938206122428 0.07390617938775718 0.9 0.1 0.9027670732473712 0.09723292675262878 0.9 0.1 0.9086052448405108 0.09139475515948917 0.742733952625906 0.2572660473740939 0.9 0.1 0.9 0.1 0.9 0.1 0.9 0.1 0.9 0.1 0.6476652734577564 0.3523347265422437 0.9 0.1 0.9 0.1 0.9 0.1 0.9 0.1 0.6 0.4 0.9 0.1 0.8849596774517677 0.1150403225482323 0.7996038809408906 0.2003961190591094 0.9 0.1 0.5599999999999999 0.4400000000000001 0.9465602589217755 0.05343974107822431 0.9333333333333332 0.06666666666666667 0.9118639293661331 0.08813607063386675 0.9 0.1 0.9 0.1 0.9 0.1 0.9 0.1 0.9 0.1 0.9 0.1 0.9 0.1 0.9 0.1 0.9 0.1 0.9 0.1 0.8782316504666988 0.1217683495333013 0.9 0.1 0.9 0.1 0.9 0.1 0.9 0.1 0.9 0.1 0.8913598855282662 0.1086401144717339 0.9 0.1 0.9 0.1 0.9 0.1 0.9 0.1 0.9 0.1 0.9 0.1 0.8849596774517677 0.1150403225482323 0.8831987088326658 0.1168012911673341 0.9 0.1 0.9 0.1 0.9062729523181461 0.09372704768185376 0.9 0.1 0.9188890316966555 0.08111096830334442 0.9 0.1 0.9 0.1 0.9 0.1 0.9 0.1 0.9 0.1 0.9 0.1 0.9 0.1 0.9 0.1 0.9 0.1 0.9 0.1 0.8732983456591242 0.1267016543408758 0.9067327788357938 0.0932672211642062 0.900825378101234 0.09917462189876614 0.9031055647824536 0.09689443521754629 0.9008844645897678 0.09911553541023217 0.9 0.1 0.8559580127212093 0.1440419872787907 0.9 0.1 0.8599266641768367 0.1400733358231632 0.6373370694349978 0.3626629305650023 0.6 0.4 0.9066590005277849 0.09334099947221511 0.9 0.1 0.9 0.1 0.9052035754484349 0.09479642455156499 0.9 0.1 0.9290718174700764 0.07092818252992361 0.9189524449291805 0.08104755507081951 0.7880267126199103 0.2119732873800897 0.9094719820420547 0.09052801795794517 0.9 0.1 0.9 0.1 0.9 0.1 0.9 0.1 0.9 0.1 0.9 0.1 0.9 0.1 0.9 0.1 0.9 0.1 0.9 0.1 0.5290548609073661 0.4709451390926339 0.9228042544555032 0.07719574554449682 0.9003347700363582 0.09966522996364187 0.8777885940474072 0.1222114059525928 0.9345792875294971 0.06542071247050278 0.9 0.1 0.8326805697370963 0.1673194302629037 0.9 0.1 0.3846915647446248 0.6153084352553753 0.9271483009659947 0.07285169903400521 0.9 0.1 0.929496900782535 0.07050309921746493 0.9 0.1 0.9 0.1 0.629110292138789 0.3708897078612112 0.9333333333333332 0.06666666666666667 0.685880512803268 0.3141194871967319 0.9241142919486922 0.07588570805130766 0.8281388819673897 0.1718611180326103 0.9148637703711573 0.08513622962884269 0.9 0.1 0.9043690142113038 0.09563098578869624 0.9 0.1 0.9 0.1 0.9 0.1 0.9 0.1 0.9 0.1 0.9 0.1 0.9 0.1 0.9 0.1 0.81899363821024 0.18100636178976 0.9141588533912608 0.08584114660873909 0.9012147468245357 0.09878525317546422 0.8778004080313515 0.1221995919686484 0.9034031274622072 0.09659687253779269 0.9333333333333332 0.06666666666666667 0.8114074061842286 0.1885925938157715 0.9 0.1 0.9130156237490731 0.08698437625092699 0.9432966818362751 0.05670331816372481 0.7 0.3 0.9400348090466162 0.05996519095338379 0.9 0.1 0.9 0.1 0.9179755929269038 0.08202440707309618 0.9 0.1 0.4104394264633719 0.5895605735366282 0.956915322255252 0.04308467774474793 0.8780574777093417 0.1219425222906582 0.9107800003983847 0.08921999960161532 0.9 0.1 0.9 0.1 0.9 0.1 0.9 0.1 0.9 0.1 0.9 0.1 0.9 0.1 0.9 0.1 0.9 0.1 0.9 0.1 0.6009417983412177 0.3990582016587823 0.9370998648399002 0.06290013516009978 0.9027756671871909 0.09722433281280897 0.68604950504296 0.3139504949570399 0.7018758754856919 0.2981241245143081 0.9 0.1 0.8702701926336195 0.1297298073663805 0.9 0.1 0.9352637951912174 0.06473620480878264 0.9118736138100701 0.08812638618992985 0.922080272192117 0.07791972780788298 0.9401761838257577 0.0598238161742422 0.6 0.4 0.91575324607315 0.08424675392684998 0.9090733366531979 0.09092666334680202 0.9051668901544612 0.09483310984553875 0.9224939858703999 0.07750601412960005 0.9546606215612229 0.04533937843877708 0.8884990502266598 0.1115009497733402 0.9377117203941254 0.06228827960587448 0.9037043992584812 0.09629560074151863 0.9 0.1 0.9 0.1 0.9 0.1 0.9 0.1 0.9 0.1 0.9 0.1 0.9 0.1 0.9005146323689531 0.09948536763104684 0.9 0.1 0.8853605597026716 0.1146394402973285 0.9041245081333475 0.09587549186665234 0.9000921276695258 0.099907872330474 0.8946732603648591 0.105326739635141 0.9001375604723618 0.09986243952763812 0.9 0.1 0.8912834034900311 0.1087165965099688 0.9 0.1 0.8892226928417948 0.1107773071582053 0.9364926326804544 0.06350736731954551 0.9 0.1 0.9040781794323468 0.09592182056765311 0.9 0.1 0.9 0.1 0.9008368931330154 0.09916310686698465 0.9 0.1 0.8977532819858945 0.1022467180141054 0.905495315868774 0.09450468413122598 0.8760631954659184 0.1239368045340815 0.9033044357897958 0.0966955642102042 0.9 0.1 0.9 0.1 0.9 0.1 0.9 0.1 0.9 0.1 0.9 0.1 0.9 0.1 0.9 0.1 0.9 0.1 0.9 0.1 0.9 0.1 0.9 0.1 0.9 0.1 0.9 0.1 0.9 0.1 0.9 0.1 0.9021116951066465 0.09788830489335343 0.9 0.1 0.9 0.1 0.9 0.1 0.9 0.1 0.9 0.1 0.9 0.1 0.901796586010253 0.09820341398974686 0.9 0.1 0.9 0.1 0.9021436697016769 0.097856330298323 0.9021236512746765 0.09787634872532336 0.9 0.1 0.9 0.1 0.9004127251311874 0.09958727486881255 0.9 0.1 0.9006931735109031 0.09930682648909692 0.9 0.1 0.900122827739901 0.09987717226009887 0.9 0.1 0.9005282906742879 0.09947170932571212 0.9 0.1 0.9001947486462881 0.09980525135371185 0.9 0.1 0.9 0.1 0.9 0.1 0.95 0.05 0.9 0.1 0.9 0.1 0.9 0.1 0.9372493681788855 0.06275063182111448 0.9 0.1 0.9 0.1 0.9 0.1 0.9 0.1 0.9 0.1 0.9 0.1 0.9402961403348055 0.05970385966519446 0.9 0.1 0.9 0.1 0.9084360147383683 0.09156398526163156 0.9083618011271916 0.0916381988728083 0.95 0.05 0.9 0.1 0.9021661718175077 0.09783382818249235 0.9 0.1 0.9060496717661466 0.09395032823385328 0.9 0.1 0.9014223198054754 0.09857768019452472 0.9 0.1 0.9021739261131232 0.09782607388687672 0.9 0.1 0.9007535494125681 0.09924645058743181 0.9 0.1 0.9 0.1 0.9 0.1 0.95 0.05 0.9333333333333332 0.06666666666666667 0.9 0.1 0.9 0.1 0.9413451016719445 0.05865489832805545 0.9 0.1 0.6 0.4 0.9333333333333332 0.06666666666666667 0.9 0.1 0.9 0.1 0.95 0.05 0.9185078026081753 0.08149219739182462 0.9 0.1 0.9333333333333332 0.06666666666666667 0.9414545463658485 0.05854545363415151 0.9413860637967727 0.05861393620322728 0.9 0.1 0.95 0.05 0.9023615768268726 0.09763842317312739 0.9 0.1 0.9078983012867037 0.09210169871329618 0.9 0.1 0.9021976707310799 0.09780232926892002 0.9 0.1 0.9046310563255632 0.09536894367443682 0.9 0.1 0.9011804553683475 0.09881954463165248 0.9 0.1 0.7 0.3 0.7383732386876167 0.2616267613123834 0.9 0.1 0.9 0.1 0.9333333333333332 0.06666666666666667 0.9 0.1 0.9402834254301387 0.05971657456986126 0.9 0.1 0.6 0.4 0.9 0.1 0.9 0.1 0.7043541448821693 0.2956458551178306 0.9 0.1 0.906976160206572 0.09302383979342793 0.9333333333333332 0.06666666666666667 0.9333333333333332 0.06666666666666667 0.9147085420122428 0.08529145798775715 0.9403195743303912 0.05968042566960877 0.9 0.1 0.9 0.1 0.9026033053146169 0.09739669468538305 0.8970058494767765 0.1029941505232234 0.9027724632257497 0.09722753677425017 0.9 0.1 0.9032531166404115 0.09674688335958845 0.9 0.1 0.9039747071063804 0.09602529289361951 0.9 0.1 0.9008396206712799 0.09916037932872011 0.9 0.1 0.9 0.1 0.9 0.1 0.9 0.1 0.9 0.1 0.9 0.1 0.9 0.1 0.9005325131664967 0.09946748683350329 0.9 0.1 0.9 0.1 0.9 0.1 0.9 0.1 0.9 0.1 0.9 0.1 0.9004645593571698 0.0995354406428301 0.9 0.1 0.9333333333333332 0.06666666666666667 0.9005406942104118 0.09945930578958816 0.9005355718610171 0.09946442813898301 0.9 0.1 0.9 0.1 0.9006053833005644 0.09939461669943549 0.9 0.1 0.9001779202297103 0.09982207977028963 0.9 0.1 0.9007117465566633 0.09928825344333665 0.9 0.1 0.9001318011340456 0.09986819886595455 0.9 0.1 0.9001595105242466 0.09984048947575325 0.9 0.1 0.9333333333333332 0.06666666666666667 0.9 0.1 0.9 0.1 0.9 0.1 0.9 0.1 0.9 0.1 0.9 0.1 0.9 0.1 0.9 0.1 0.9 0.1 0.79072666715652 0.2092733328434801 0.9 0.1 0.9055075753608941 0.09449242463910583 0.9055075753608941 0.09449242463910583 0.9 0.1 0.9 0.1 0.9333333333333332 0.06666666666666667 0.9 0.1 0.9 0.1 0.9 0.1 0.9 0.1 0.9 0.1 0.9 0.1 0.9 0.1 0.902975983753193 0.09702401624680701 0.9 0.1 0.9 0.1 0.9 0.1 0.9 0.1 0.9 0.1 0.9 0.1 0.9 0.1 0.9 0.1 0.9 0.1 0.9 0.1 0.9 0.1 0.9 0.1 0.9 0.1 0.9 0.1 0.9 0.1 0.8772470455344868 0.1227529544655132 0.9 0.1 0.908738219151959 0.09126178084804103 0.908738219151959 0.09126178084804103 0.9 0.1 0.9333333333333332 0.06666666666666667 0.9 0.1 0.9 0.1 0.9 0.1 0.9 0.1 0.9 0.1 0.9 0.1 0.9 0.1 0.9 0.1 0.9112596630061656 0.08874033699383434 0.9 0.1 0.9 0.1 0.9 0.1 0.9 0.1 0.9 0.1 0.9 0.1 0.9 0.1 0.9 0.1 0.9 0.1 0.9 0.1 0.9 0.1 0.9 0.1 0.9 0.1 0.9 0.1 0.9 0.1 0.79072666715652 0.2092733328434801 0.9333333333333332 0.06666666666666667 0.917277035590918 0.08272296440908199 0.917277035590918 0.08272296440908199 0.9 0.1 0.9333333333333332 0.06666666666666667 0.9333333333333332 0.06666666666666667 0.9 0.1 0.9 0.1 0.9 0.1 0.9 0.1 0.9 0.1 0.9 0.1 0.9 0.1 0.9097706782696311 0.09022932173036878 0.9 0.1 0.9 0.1 0.9 0.1 0.9 0.1 0.9 0.1 0.9 0.1 0.9 0.1 0.9 0.1 0.9 0.1 0.9 0.1 0.6 0.4 0.9 0.1 0.9 0.1 0.9 0.1 0.9 0.1 0.764535738086321 0.235464261913679 0.9 0.1 0.907306569445312 0.09269343055468802 0.907306569445312 0.09269343055468802 0.9 0.1 0.9333333333333332 0.06666666666666667 0.9 0.1 0.9333333333333332 0.06666666666666667 0.9 0.1 0.9 0.1 0.9 0.1 0.9 0.1 0.9 0.1 0.9 0.1 0.9169079291624601 0.08309207083753983 0.9 0.1 0.9 0.1 0.9 0.1 0.9 0.1 0.9 0.1 0.9 0.1 0.9 0.1 0.9 0.1 0.9 0.1 0.9 0.1 0.9 0.1 0.9 0.1 0.9 0.1 0.9 0.1 0.9 0.1 0.8819283057893884 0.1180716942106114 0.9 0.1 0.9055075753608941 0.09449242463910583 0.9055075753608941 0.09449242463910583 0.9 0.1 0.9 0.1 0.9 0.1 0.9 0.1 0.9 0.1 0.9 0.1 0.9 0.1 0.9 0.1 0.9 0.1 0.9 0.1 0.902975983753193 0.09702401624680701 0.9 0.1 0.9 0.1 0.9 0.1 0.9 0.1 0.9 0.1 0.9 0.1 0.9 0.1 0.9 0.1 0.9060760648421965 0.09392393515780351 0.9012826797165434 0.09871732028345648 0.9 0.1 0.9 0.1 0.937462597277865 0.06253740272213501 0.9020184321635445 0.09798156783645545 0.9 0.1 0.9 0.1 0.9008589568884887 0.09914104311151119 0.9 0.1 0.8603472350944403 0.1396527649055598 0.8935869066487859 0.106413093351214 0.9001722184455305 0.09982778155446945 0.8347824890231897 0.1652175109768103 0.93859371372922 0.06140628627078003 0.8974946251852725 0.1025053748147276 0.8982023230475087 0.1017976769524913 0.9 0.1 0.9 0.1 0.9 0.1 0.9 0.1 0.9 0.1 0.9 0.1 0.9 0.1 0.9 0.1 0.9 0.1 0.9 0.1 0.9 0.1 0.9 0.1 0.9 0.1 0.9059168480900686 0.09408315190993144 0.9012826797165434 0.09871732028345648 0.9 0.1 0.9 0.1 0.7075054628638148 0.2924945371361852 0.9152446565305697 0.08475534346943024 0.9 0.1 0.9333333333333332 0.06666666666666667 0.9348397040840059 0.06516029591599405 0.9 0.1 0.9171152242371239 0.08288477576287606 0.8935869066487859 0.106413093351214 0.9001722184455305 0.09982778155446945 0.8612386408211863 0.1387613591788136 0.9078625377518409 0.09213746224815901 0.8742128568751868 0.1257871431248131 0.8824275702390952 0.1175724297609047 0.9 0.1 0.9 0.1 0.9 0.1 0.9 0.1 0.9 0.1 0.9 0.1 0.9 0.1 0.9 0.1 0.9 0.1 0.9 0.1 0.9 0.1 0.9 0.1 0.9 0.1 0.9141717541238978 0.08582824587610212 0.918356079624905 0.08164392037509488 0.9 0.1 0.6 0.4 0.9061836051086252 0.09381639489137483 0.673171405244544 0.3268285947554559 0.9 0.1 0.9 0.1 0.9014716354017194 0.09852836459828057 0.9 0.1 0.8703696506857851 0.1296303493142149 0.8225806164115103 0.1774193835884899 0.9507618322620595 0.04923816773794051 0.8610993983144088 0.1389006016855912 0.9078825426477519 0.09211745735224801 0.8074323913107884 0.1925676086892115 0.8429744860668958 0.1570255139331041 0.9 0.1 0.9 0.1 0.9 0.1 0.9 0.1 0.9 0.1 0.9 0.1 0.9 0.1 0.9 0.1 0.9 0.1 0.9 0.1 0.9 0.1 0.95 0.05 0.6 0.4 0.9159248683558376 0.08407513164416239 0.9140202668409046 0.08597973315909527 0.6 0.4 0.9 0.1 0.9156283825517476 0.08437161744825226 0.9307051394042218 0.06929486059577809 0.6 0.4 0.9 0.1 0.93553356976552 0.06446643023447994 0.9 0.1 0.7020026465892942 0.2979973534107058 0.7393872802905233 0.2606127197094768 0.9020946699737878 0.09790533002621221 0.717562228338794 0.282437771661206 0.7260688851966413 0.2739311148033587 0.3829339129820464 0.6170660870179537 0.5320146548811983 0.4679853451188017 0.9 0.1 0.9 0.1 0.9 0.1 0.9 0.1 0.9 0.1 0.9 0.1 0.9 0.1 0.9 0.1 0.9 0.1 0.9 0.1 0.9 0.1 0.9 0.1 0.9 0.1 0.9017574753083318 0.09824252469166805 0.9520640580690047 0.04793594193099525 0.9 0.1 0.9 0.1 0.937441042044737 0.06255895795526298 0.9020184321635445 0.09798156783645545 0.9 0.1 0.9 0.1 0.9008589568884887 0.09914104311151119 0.9 0.1 0.8911408998881978 0.1088591001118021 0.8439123358806265 0.1560876641193735 0.901071884855038 0.09892811514496194 0.8353085347119454 0.1646914652880546 0.9110347409837176 0.08896525901628229 0.8974946251852725 0.1025053748147276 0.8982023230475087 0.1017976769524913 0.9 0.1 0.9 0.1 0.9 0.1 0.9 0.1 0.9 0.1 0.9 0.1 0.9 0.1 0.9 0.1 0.9 0.1 0.9 0.1 0.9307781888868937 0.0692218111131063 0.8892054319198093 0.1107945680801907 0.8960765968163092 0.1039234031836908 0.8612933010003664 0.1387066989996335 0.8949621165612992 0.1050378834387008 0.9 0.1 0.8962284263548448 0.1037715736451551 0.8858696525420628 0.1141303474579371 0.8936776754739794 0.1063223245260207 0.9 0.1 0.887380274214342 0.1126197257856582 0.9 0.1 0.9 0.1 0.6 0.4 0.9041666187785166 0.09583338122148345 0.8467976442532303 0.1532023557467697 0.9036381383879033 0.09636186161209664 0.9035970156366724 0.09640298436332756 0.9 0.1 0.9 0.1 0.9 0.1 0.9 0.1 0.9 0.1 0.8623743883112832 0.1376256116887168 0.9 0.1 0.9 0.1 0.9 0.1 0.9 0.1 0.9 0.1 0.9 0.1 0.9153984364114974 0.08460156358850272 0.7955945911330391 0.2044054088669609 0.8890582072071682 0.1109417927928318 0.7342612893936451 0.265738710606355 0.8867626634166598 0.1132373365833403 0.9 0.1 0.9144518398189172 0.08554816018108283 0.5170785859657222 0.4829214140342779 0.8800653187370665 0.1199346812629334 0.9 0.1 0.768709813180206 0.2312901868197939 0.9333333333333332 0.06666666666666667 0.9 0.1 0.9333333333333332 0.06666666666666667 0.9097146802146221 0.09028531978537785 0.8448005407896693 0.1551994592103307 0.9244970424458544 0.0755029575541456 0.9389575247526385 0.06104247524736148 0.9 0.1 0.6 0.4 0.9 0.1 0.9 0.1 0.9 0.1 0.7399925976485376 0.2600074023514625 0.9 0.1 0.9 0.1 0.9011967762604663 0.09880322373953372 0.9 0.1 0.9 0.1 0.9 0.1 0.8443167192616229 0.1556832807383771 0.7651508539741725 0.2348491460258275 0.8926903908974255 0.1073096091025745 0.843866518624211 0.1561334813757889 0.8816626039054122 0.1183373960945878 0.8015663812504303 0.1984336187495697 0.8809400602889124 0.1190599397110876 0.7543763202913149 0.2456236797086851 0.8788978318863339 0.1211021681136661 0.8567689178605701 0.14323108213943 0.7182468317223838 0.2817531682776162 0.9130598741407587 0.0869401258592412 0.9333333333333332 0.06666666666666667 0.9518120864543943 0.04818791354560571 0.9393264849514736 0.0606735150485264 0.6165685188540452 0.3834314811459547 0.9146210742623482 0.08537892573765171 0.9347902427448027 0.06520975725519715 0.9 0.1 0.952016600177521 0.04798339982247905 0.9 0.1 0.9 0.1 0.9 0.1 0.812387484886001 0.1876125151139989 0.9 0.1 0.9 0.1 0.9 0.1 0.9020341380779361 0.09796586192206391 0.9 0.1 0.9 0.1 0.8814774486880795 0.1185225513119205 0.8607740762465546 0.1392259237534454 0.8921907736126272 0.1078092263873728 0.8001642718620053 0.1998357281379947 0.8777124947107641 0.1222875052892359 0.9333333333333332 0.06666666666666667 0.8857534301173693 0.1142465698826306 0.8322507438482559 0.167749256151744 0.9183138377029794 0.08168616229702069 0.9 0.1 0.8526694523836873 0.1473305476163128 0.9 0.1 0.9 0.1 0.9 0.1 0.9145572380319879 0.08544276196801215 0.8465450899077579 0.1534549100922421 0.9116797937135325 0.08832020628646745 0.9115577751738771 0.08844222482612271 0.6 0.4 0.9333333333333332 0.06666666666666667 0.9333333333333332 0.06666666666666667 0.9 0.1 0.9 0.1 0.8035296496464481 0.1964703503535518 0.9 0.1 0.6 0.4 0.9 0.1 0.9 0.1 0.9 0.1 0.9 0.1 0.8973632505949366 0.1026367494050633 0.8950475902210158 0.104952409778984 0.5976469236382557 0.4023530763617442 0.8888569399494218 0.1111430600505782 0.8965208938131172 0.1034791061868828 0.9 0.1 0.8979222649492904 0.1020777350507095 0.892505465485264 0.107494534514736 0.8976543185288612 0.1023456814711388 0.9 0.1 0.8942535567622926 0.1057464432377073 0.9 0.1 0.9 0.1 0.9 0.1 0.9029486847522677 0.09705131524773228 0.9191371606095353 0.08086283939046474 0.902063401813254 0.09793659818674599 0.9020397404731262 0.09796025952687371 0.9 0.1 0.9 0.1 0.9 0.1 0.9 0.1 0.9 0.1 0.8891194804066598 0.1108805195933402 0.9 0.1 0.9 0.1 0.9 0.1 0.9 0.1 0.9 0.1 0.9 0.1 0.6491379647603899 0.3508620352396102 0.9 0.1 0.9007867961076742 0.09921320389232585 0.9 0.1 0.9001261794917751 0.09987382050822492 0.9 0.1 0.8653219786609906 0.1346780213390093 0.9 0.1 0.5127868738712472 0.4872131261287529 0.9029766231869957 0.09702337681300437 0.934828237615565 0.06517176238443485 0.9 0.1 0.9605090501615965 0.03949094983840353 0.9 0.1 0.9005315600128396 0.09946843998716022 0.9 0.1 0.9009906152270585 0.09900938477294141 0.9 0.1 0.9125982130998403 0.08740178690015958 0.9055055911542584 0.09449440884574145 0.9002251340481416 0.09977486595185839 0.9 0.1 0.9001639827338754 0.09983601726612457 0.9 0.1 0.9001635241740901 0.0998364758259099 0.9 0.1 0.900088489118144 0.0999115108818561 0.9 0.1 0.6016535169215564 0.3983464830784434 0.9041256384206618 0.09587436157933801 0.8883382027755865 0.1116617972244135 0.9 0.1 0.923308785984474 0.07669121401552606 0.9 0.1 0.886609520415908 0.113390479584092 0.9 0.1 0.8429168706965559 0.1570831293034442 0.9 0.1 0.9065212788204411 0.09347872117955906 0.9016108090965409 0.09838919090345899 0.8914244407021227 0.1085755592978772 0.9 0.1 0.8738956676265999 0.1261043323734002 0.9 0.1 0.8155777986111498 0.1844222013888502 0.9 0.1 0.8689574586179933 0.1310425413820067 0.9 0.1 0.8926291173439808 0.1073708826560193 0.9030118177368589 0.09698818226314106 0.8958778100694633 0.1041221899305366 0.9 0.1 0.8958953317853957 0.1041046682146043 0.9 0.1 0.882040073364331 0.117959926635669 0.9 0.1 0.8977857695848462 0.1022142304151539 0.9 0.1 0.8875985442935013 0.1124014557064987 0.9022435612957671 0.09775643870423285 0.9031480472141297 0.09685195278587037 0.9 0.1 0.9003249352400894 0.09967506475991067 0.9333333333333332 0.06666666666666667 0.9001261794917751 0.09987382050822492 0.9 0.1 0.4994135821871545 0.5005864178128455 0.9 0.1 0.8701008414056208 0.1298991585943791 0.9015221433496162 0.09847785665038379 0.9003671412076713 0.09963285879232865 0.9 0.1 0.901228313160677 0.09877168683932308 0.9 0.1 0.9005315600128396 0.09946843998716022 0.9 0.1 0.9019918671432968 0.09800813285670322 0.9 0.1 0.9067400634861771 0.09325993651382285 0.9028480285100273 0.09715197148997266 0.9000250790639063 0.09997492093609357 0.9 0.1 0.9000675011800221 0.099932498819978 0.9 0.1 0.9001635241740901 0.0998364758259099 0.9 0.1 0.9001794016423492 0.09982059835765078 0.9 0.1 0.6008349837456797 0.3991650162543203 0.9021207358041926 0.09787926419580735 0.9031480472141297 0.09685195278587037 0.9 0.1 0.9003249352400894 0.09967506475991067 0.9 0.1 0.9001261794917751 0.09987382050822492 0.9 0.1 0.8251081305448454 0.1748918694551545 0.9 0.1 0.7921836046187498 0.2078163953812502 0.9037035371115366 0.09629646288846332 0.9003671412076713 0.09963285879232865 0.9 0.1 0.901228313160677 0.09877168683932308 0.9 0.1 0.9005315600128396 0.09946843998716022 0.9 0.1 0.9017164551779714 0.0982835448220286 0.9 0.1 0.9153325199088168 0.08466748009118308 0.9068108033576445 0.09318919664235553 0.9000250790639063 0.09997492093609357 0.9 0.1 0.9000675011800221 0.099932498819978 0.9 0.1 0.9001635241740901 0.0998364758259099 0.9 0.1 0.9001542442750219 0.09984575572497817 0.9 0.1 0.9011546705896386 0.09884532941036138 0.9051197719689824 0.09488022803101764 0.9031480472141297 0.09685195278587037 0.9 0.1 0.9000930289486649 0.09990697105133496 0.9 0.1 0.9001261794917751 0.09987382050822492 0.9 0.1 0.8918962897777192 0.1081037102222808 0.9 0.1 0.8705103616949122 0.1294896383050878 0.9015055941385371 0.09849440586146273 0.9003671412076713 0.09963285879232865 0.9 0.1 0.9003537041286271 0.09964629587137289 0.9 0.1 0.9005315600128396 0.09946843998716022 0.9 0.1 0.9002816350896391 0.0997183649103608 0.9 0.1 0.9066702602331322 0.09332973976686772 0.9028174336290289 0.09718256637097097 0.9000250790639063 0.09997492093609357 0.9 0.1 0.9000192939642681 0.09998070603573195 0.9 0.1 0.9001635241740901 0.0998364758259099 0.9 0.1 0.9000250126611772 0.09997498733882271 0.9 0.1 0.9004629127810796 0.09953708721892048 0.9020978026415888 0.09790219735841119 0.9 0.1 0.9 0.1 0.9333333333333332 0.06666666666666667 0.9 0.1 0.9 0.1 0.9 0.1 0.9 0.1 0.9 0.1 0.9 0.1 0.9 0.1 0.9 0.1 0.9 0.1 0.8285714285714285 0.1714285714285714 0.9 0.1 0.96 0.04000000000000001 0.9 0.1 0.9 0.1 0.9 0.1 0.9 0.1 0.9 0.1 0.9 0.1 0.9 0.1 0.9 0.1 0.9 0.1 0.9 0.1 0.9 0.1 0.9 0.1 0.9 0.1 0.9 0.1 0.9 0.1 0.9 0.1 0.9 0.1 0.9 0.1 0.9 0.1 0.9 0.1 0.9 0.1 0.9 0.1 0.9 0.1 0.9 0.1 0.9 0.1 0.9 0.1 0.9 0.1 0.7 0.3 0.9 0.1 0.95 0.05 0.9 0.1 0.9 0.1 0.9 0.1 0.9 0.1 0.9 0.1 0.9 0.1 0.9 0.1 0.9 0.1 0.9 0.1 0.9 0.1 0.9 0.1 0.9 0.1 0.9 0.1 0.9 0.1 0.9 0.1 0.9 0.1 0.9 0.1 0.9333333333333332 0.06666666666666667 0.9 0.1 0.9 0.1 0.9 0.1 0.9 0.1 0.9 0.1 0.9 0.1 0.9 0.1 0.9 0.1 0.9 0.1 0.9 0.1 0.6 0.4 0.9 0.1 0.9 0.1 0.9 0.1 0.9 0.1 0.9 0.1 0.9 0.1 0.9 0.1 0.9 0.1 0.9 0.1 0.9 0.1 0.9 0.1 0.9 0.1 0.9 0.1 0.9 0.1 0.9 0.1 0.9 0.1 0.9 0.1 0.9 0.1 0.9 0.1 0.9 0.1 0.9 0.1 0.9 0.1 0.9 0.1 0.6 0.4 0.9 0.1 0.9 0.1 0.9 0.1 0.9 0.1 0.9 0.1 0.9 0.1 0.9 0.1 0.9 0.1 0.9 0.1 0.9 0.1 0.9 0.1 0.9 0.1 0.9 0.1 0.9 0.1 0.9 0.1 0.9 0.1 0.9 0.1 0.9 0.1 0.9 0.1 0.9 0.1 0.9 0.1 0.9 0.1 0.9 0.1 0.9 0.1 0.9 0.1 0.9 0.1 0.9 0.1 0.9 0.1 0.9 0.1 0.9 0.1 0.9 0.1 0.9 0.1 0.9 0.1 0.9 0.1 0.9 0.1 0.9 0.1 0.9 0.1 0.9 0.1 0.9 0.1 0.9 0.1 0.9 0.1 0.9 0.1 0.9 0.1 0.9 0.1 0.9 0.1 0.9 0.1 0.9 0.1 0.9 0.1 0.9 0.1 0.9 0.1 0.9 0.1 0.9 0.1 0.9333333333333332 0.06666666666666667 0.9 0.1 0.9 0.1 0.9 0.1 0.9 0.1 0.9 0.1 0.9 0.1 0.9 0.1 0.9 0.1 0.9 0.1 0.9 0.1 0.9 0.1 0.9 0.1 0.9 0.1 0.9 0.1 0.9 0.1 0.9 0.1 0.9 0.1 0.9 0.1 0.9 0.1 0.9 0.1 0.9 0.1 0.9 0.1 0.9 0.1 0.9 0.1 0.9 0.1 0.9 0.1 0.9 0.1 0.9 0.1 0.9 0.1 0.9 0.1 0.9 0.1 0.9 0.1 0.9 0.1 0.9 0.1 0.9 0.1 0.9 0.1 0.9 0.1 0.9 0.1 0.9 0.1 0.9 0.1 0.9 0.1 0.9 0.1 0.9 0.1 0.9 0.1 0.9 0.1 0.9333333333333332 0.06666666666666667 0.9 0.1 0.9333333333333332 0.06666666666666667 0.9 0.1 0.9 0.1 0.9 0.1 0.9 0.1 0.9 0.1 0.9 0.1 0.9 0.1 0.9 0.1 0.9 0.1 0.9 0.1 0.9 0.1 0.9 0.1 0.9333333333333332 0.06666666666666667 0.9 0.1 0.9 0.1 0.9 0.1 0.9 0.1 0.9 0.1 0.9 0.1 0.9 0.1 0.9 0.1 0.9 0.1 0.9 0.1 0.9 0.1 0.9 0.1 0.9 0.1 0.9 0.1 0.9 0.1 0.9 0.1 0.9333333333333332 0.06666666666666667 0.9 0.1 0.9 0.1 0.9 0.1 0.9 0.1 0.9 0.1 0.9 0.1 0.9 0.1 0.9 0.1 0.9 0.1 0.9 0.1 0.9 0.1 0.9 0.1 0.9 0.1 0.9 0.1 0.9 0.1 0.9 0.1 0.9 0.1 0.9 0.1 0.9 0.1 0.9333333333333332 0.06666666666666667 0.9 0.1 0.9 0.1 0.9 0.1 0.9 0.1 0.9 0.1 0.9 0.1 0.9 0.1 0.9 0.1 0.9 0.1 0.9 0.1 0.9 0.1 0.9 0.1 0.9 0.1 0.9 0.1 0.9 0.1 0.9 0.1 0.9 0.1 0.9 0.1 0.9 0.1 0.9 0.1 0.9 0.1 0.9 0.1 0.9 0.1 0.9 0.1 0.9 0.1 0.9 0.1 0.9 0.1 0.9 0.1 0.9 0.1 0.9 0.1 0.9 0.1 0.9 0.1 0.9 0.1 0.9 0.1 0.9 0.1 0.9 0.1 0.9 0.1 0.9 0.1 0.9 0.1 0.9 0.1 0.9 0.1 0.9 0.1 0.9 0.1 0.9 0.1 0.9 0.1 0.9 0.1 0.9 0.1 0.9 0.1 0.9 0.1 0.9 0.1 0.9 0.1 0.9 0.1 0.9 0.1 0.95 0.05 0.9 0.1 0.9 0.1 0.9 0.1 0.9 0.1 0.9 0.1 0.9 0.1 0.9 0.1 0.9 0.1 0.9 0.1 0.9 0.1 0.9 0.1 0.9 0.1 0.9 0.1 0.9042963305043478 0.09570366949565222 0.9 0.1 0.9 0.1 0.9 0.1 0.9 0.1 0.9 0.1 0.9 0.1 0.9 0.1 0.9 0.1 0.9 0.1 0.9 0.1 0.9 0.1 0.9 0.1 0.9 0.1 0.9199570187542785 0.08004298124572144 0.9 0.1 0.9333333333333332 0.06666666666666667 0.9 0.1 0.9 0.1 0.9 0.1 0.9 0.1 0.9 0.1 0.9 0.1 0.9 0.1 0.9181526580063604 0.08184734199363963 0.9 0.1 0.9 0.1 0.9 0.1 0.9 0.1 0.9 0.1 0.9139126125664203 0.0860873874335796 0.9 0.1 0.9 0.1 0.9 0.1 0.9028073557377312 0.09719264426226865 0.9 0.1 0.9 0.1 0.9 0.1 0.9 0.1 0.9 0.1 0.9 0.1 0.9 0.1 0.9 0.1 0.9 0.1 0.9 0.1 0.9 0.1 0.9 0.1 0.9 0.1 0.9333333333333332 0.06666666666666667 0.9 0.1 0.9 0.1 0.9 0.1 0.9 0.1 0.9 0.1 0.9 0.1 0.9 0.1 0.9 0.1 0.9 0.1 0.9 0.1 0.9 0.1 0.914457541872058 0.08554245812794199 0.9 0.1 0.9 0.1 0.9 0.1 0.9 0.1 0.9 0.1 0.9 0.1 0.9 0.1 0.9 0.1 0.9 0.1 0.9 0.1 0.9 0.1 0.9 0.1 0.9 0.1 0.9 0.1 0.9 0.1 0.9 0.1 0.9 0.1 0.9 0.1 0.9 0.1 0.9 0.1 0.9 0.1 0.9 0.1 0.9 0.1 0.9 0.1 0.9 0.1 0.9 0.1 0.9 0.1 0.9 0.1 0.9333333333333332 0.06666666666666667 0.9366926530891156 0.06330734691088433 0.9333333333333332 0.06666666666666667 0.9 0.1 0.9 0.1 0.9 0.1 0.9 0.1 0.9 0.1 0.9 0.1 0.9 0.1 0.9 0.1 0.9 0.1 0.9 0.1 0.9 0.1 0.9 0.1 0.9 0.1 0.9 0.1 0.9 0.1 0.9 0.1 0.9 0.1 0.9 0.1 0.9 0.1 0.9 0.1 0.9 0.1 0.9333333333333332 0.06666666666666667 0.9 0.1 0.9 0.1 0.9 0.1 0.9 0.1 0.9 0.1 0.9 0.1 0.9042963305043478 0.09570366949565222 0.9 0.1 0.6 0.4 0.9 0.1 0.9 0.1 0.9 0.1 0.9 0.1 0.9 0.1 0.9 0.1 0.9 0.1 0.9 0.1 0.9 0.1 0.9 0.1 0.9 0.1 0.6191948896141691 0.3808051103858308 0.9 0.1 0.9392742126643094 0.06072578733569054 0.9083416204126059 0.09165837958739409 0.9212683617058826 0.07873163829411736 0.9093904460504321 0.09060955394956792 0.7342521994615017 0.2657478005384983 0.5716114664409485 0.4283885335590515 0.7949013697840897 0.2050986302159104 0.9333333333333332 0.06666666666666667 0.8547974211130486 0.1452025788869513 0.9 0.1 0.9094256558081385 0.09057434419186165 0.9 0.1 0.6101589747483248 0.3898410252516751 0.9 0.1 0.8616610566507447 0.1383389433492552 0.9 0.1 0.9344446970495344 0.06555530295046552 0.9 0.1 0.8868411633215265 0.1131588366784734 0.9 0.1 0.9 0.1 0.9 0.1 0.9 0.1 0.9 0.1 0.9 0.1 0.9 0.1 0.9005378527743111 0.09946214722568875 0.9 0.1 0.7740506916437185 0.2259493083562815 0.7 0.3 0.903354485714289 0.09664551428571094 0.9035266316655383 0.09647336833446171 0.6923806196940486 0.3076193803059515 0.7343073616646748 0.2656926383353251 0.7815320277733974 0.2184679722266026 0.5614255562584032 0.4385744437415969 0.9 0.1 0.9333333333333332 0.06666666666666667 0.9081663436353421 0.0918336563646579 0.9 0.1 0.9268718177855567 0.07312818221444332 0.9 0.1 0.9464788906383581 0.05352110936164172 0.9 0.1 0.8550435361999611 0.144956463800039 0.9333333333333332 0.06666666666666667 0.6209200020069252 0.3790799979930748 0.9 0.1 0.9 0.1 0.9 0.1 0.9 0.1 0.9 0.1 0.9 0.1 0.9 0.1 0.9 0.1 0.9 0.1 0.9 0.1 0.9 0.1 0.5884516572153288 0.4115483427846712 0.9 0.1 0.9113530346787122 0.08864696532128773 0.9389850639294144 0.06101493607058553 0.6866374597015165 0.3133625402984836 0.9480613486568865 0.05193865134311342 0.8359572096341205 0.1640427903658795 0.5007633418246752 0.4992366581753249 0.96 0.04000000000000001 0.9 0.1 0.95 0.05 0.9 0.1 0.891775111471122 0.1082248885288782 0.9 0.1 0.6321849358533265 0.3678150641466736 0.95 0.05 0.8342982328846198 0.1657017671153802 0.9 0.1 0.943773551951878 0.05622644804812193 0.9 0.1 0.9 0.1 0.9 0.1 0.9 0.1 0.9 0.1 0.9008609181739758 0.09913908182602427 0.9 0.1 0.9 0.1 0.9 0.1 0.9 0.1 0.9 0.1 0.8309740723328802 0.1690259276671197 0.9 0.1 0.7319447972380541 0.268055202761946 0.6518679299535581 0.3481320700464419 0.8117615915454723 0.1882384084545277 0.9544811794546707 0.04551882054532921 0.6793880580901427 0.3206119419098573 0.9381832819517559 0.0618167180482441 0.9 0.1 0.9333333333333332 0.06666666666666667 0.9 0.1 0.9 0.1 0.7475320528910878 0.2524679471089123 0.9333333333333332 0.06666666666666667 0.9095409120935434 0.09045908790645658 0.9 0.1 0.8803699361437626 0.1196300638562374 0.9 0.1 0.9124650158506468 0.08753498414935312 0.9 0.1 0.9 0.1 0.9 0.1 0.9 0.1 0.9 0.1 0.9 0.1 0.9 0.1 0.9 0.1 0.9 0.1 0.9 0.1 0.9 0.1 0.9216297467203964 0.07837025327960354 0.9 0.1 0.9009416178967353 0.09905838210326473 0.9009910766231604 0.09900892337683956 0.8954520593506741 0.104547940649326 0.9015625213413216 0.09843747865867827 0.9050592011888881 0.09494079881111189 0.8959073421739064 0.1040926578260936 0.6 0.4 0.9 0.1 0.9 0.1 0.9 0.1 0.8955012321223822 0.1044987678776177 0.9 0.1 0.9008837441941108 0.0991162558058892 0.9 0.1 0.5869161120261688 0.4130838879738312 0.9 0.1 0.9070926523764512 0.09290734762354866 0.9 0.1 0.9 0.1 0.9 0.1 0.9 0.1 0.9 0.1 0.9 0.1 0.9 0.1 0.9 0.1 0.9 0.1 0.9 0.1 0.9 0.1 0.9309952456054599 0.06900475439454008 0.9024857333762955 0.09751426662370444 0.907414915482756 0.09258508451724405 0.9350009076970607 0.06499909230293932 0.9031960633444891 0.09680393665551092 0.9007484107882521 0.09925158921174804 0.9353414668234471 0.06465853317655286 0.9023400021606465 0.09765999783935343 0.913422463850831 0.08657753614916891 0.9034251904852317 0.0965748095147683 0.9 0.1 0.90679636536099 0.09320363463901014 0.9018134594017543 0.09818654059824578 0.8925836639965586 0.1074163360034414 0.9007517756572974 0.09924822434270261 0.9007584631108225 0.09924153688917753 0.9 0.1 0.9 0.1 0.9 0.1 0.9 0.1 0.9 0.1 0.9 0.1 0.9 0.1 0.9 0.1 0.9 0.1 0.9 0.1 0.9 0.1 0.9 0.1 0.9 0.1 0.9 0.1 0.9339392765544166 0.06606072344558343 0.9190359680543564 0.08096403194564354 0.6 0.4 0.9506332757181279 0.04936672428187203 0.9372001337062685 0.06279986629373142 0.9410001576195334 0.05899984238046662 0.9428119247134946 0.0571880752865054 0.954066452312254 0.045933547687746 0.7 0.3 0.9168429242433206 0.08315707575667934 0.9333333333333332 0.06666666666666667 0.9284750615504903 0.07152493844950973 0.9146603528024183 0.08533964719758164 0.9254475178486339 0.07455248215136608 0.9082128183481575 0.09178718165184249 0.9082808510887886 0.09171914891121129 0.9 0.1 0.9333333333333332 0.06666666666666667 0.9 0.1 0.9 0.1 0.9 0.1 0.9 0.1 0.9 0.1 0.9 0.1 0.9 0.1 0.9 0.1 0.9 0.1 0.9 0.1 0.9 0.1 0.9 0.1 0.8963736493843749 0.103626350615625 0.9536363213246035 0.0463636786753964 0.76 0.24 0.9664974031608572 0.03350259683914276 0.912272481669141 0.08772751833085893 0.9622191426640229 0.03778085733597711 0.503187016150185 0.4968129838498149 0.7767636449471212 0.2232363550528788 0.9 0.1 0.5833401719794221 0.4166598280205779 0.9333333333333332 0.06666666666666667 0.9303465943266269 0.06965340567337301 0.9186539462506998 0.0813460537493001 0.7040656715271486 0.2959343284728513 0.9122691948655427 0.08773080513445719 0.9392197560136915 0.06078024398630841 0.9 0.1 0.7 0.3 0.9 0.1 0.9333333333333332 0.06666666666666667 0.9 0.1 0.9 0.1 0.9 0.1 0.9 0.1 0.9 0.1 0.9 0.1 0.9 0.1 0.9 0.1 0.9 0.1 0.9 0.1 0.7963135352940377 0.2036864647059624 0.7727642421239391 0.2272357578760608 0.9 0.1 0.6461190059770991 0.3538809940229008 0.9417195210807421 0.05828047891925782 0.9173029189597688 0.08269708104023114 0.9349116232498058 0.0650883767501943 0.8563407070451613 0.1436592929548388 0.95 0.05 0.9134573947742155 0.08654260522578439 0.9 0.1 0.9325448574540163 0.06745514254598366 0.9070385208789468 0.09296147912105333 0.8625021104010059 0.1374978895989943 0.9549306496994333 0.0450693503005667 0.9174990519452508 0.08250094805474911 0.9 0.1 0.9 0.1 0.6 0.4 0.6 0.4 0.9 0.1 0.9 0.1 0.9 0.1 0.9 0.1 0.9 0.1 0.9 0.1 0.9 0.1 0.9 0.1 0.9 0.1 0.9 0.1 0.866343572917903 0.133656427082097 0.9350144876128375 0.06498551238716237 0.9 0.1 0.9009385153150606 0.09906148468493929 0.9042428755756017 0.09575712442439836 0.9042232564869473 0.0957767435130527 0.8985535439459956 0.1014464560540043 0.9005910066177866 0.09940899338221328 0.6 0.4 0.9028202354465862 0.09717976455341384 0.9 0.1 0.9379198201807466 0.06208017981925336 0.9004689757574234 0.09953102424257665 0.8981932336911698 0.1018067663088302 0.9042416442068849 0.09575835579311499 0.9042781727610879 0.09572182723891204 0.9 0.1 0.9 0.1 0.9 0.1 0.9 0.1 0.9 0.1 0.9 0.1 0.9 0.1 0.9 0.1 0.9 0.1 0.9 0.1 0.9 0.1 0.9 0.1 0.9 0.1 0.9 0.1 0.9043959727141808 0.09560402728581907 0.9 0.1 0.901132632570697 0.09886736742930297 0.9 0.1 0.9001635492798093 0.09983645072019064 0.9 0.1 0.9017665162262076 0.09823348377379237 0.9 0.1 0.9018839706272388 0.0981160293727612 0.9 0.1 0.9 0.1 0.9118390237975942 0.08816097620240569 0.9 0.1 0.9054503806535821 0.09454961934641794 0.9 0.1 0.9 0.1 0.9 0.1 0.9 0.1 0.9 0.1 0.9 0.1 0.9 0.1 0.9 0.1 0.9 0.1 0.9 0.1 0.9 0.1 0.9 0.1 0.9 0.1 0.9 0.1 0.9 0.1 0.9 0.1 0.901442410667934 0.09855758933206599 0.9 0.1 0.9018422356427387 0.09815776435726124 0.9 0.1 0.9006673947074315 0.09933260529256857 0.9 0.1 0.9343182920223596 0.06568170797764034 0.9 0.1 0.9025001176233807 0.09749988237661938 0.9 0.1 0.9 0.1 0.9040784467240476 0.09592155327595249 0.9 0.1 0.9086502855818709 0.09134971441812903 0.9 0.1 0.9 0.1 0.9 0.1 0.9 0.1 0.9 0.1 0.9 0.1 0.9 0.1 0.9 0.1 0.9 0.1 0.9 0.1 0.9 0.1 0.9 0.1 0.9 0.1 0.9 0.1 0.9 0.1 0.9 0.1 0.9043959727141808 0.09560402728581907 0.9 0.1 0.9039063147135811 0.09609368528641894 0.9 0.1 0.9005710037238319 0.09942899627616801 0.9 0.1 0.9017665162262076 0.09823348377379237 0.9 0.1 0.9018839706272388 0.0981160293727612 0.9 0.1 0.9 0.1 0.9118390237975942 0.08816097620240569 0.9 0.1 0.9415907148877418 0.05840928511225818 0.9 0.1 0.9 0.1 0.9 0.1 0.9 0.1 0.9 0.1 0.9 0.1 0.9 0.1 0.9 0.1 0.9 0.1 0.9 0.1 0.9 0.1 0.9 0.1 0.9 0.1 0.9 0.1 0.9 0.1 0.9 0.1 0.9050024367579944 0.09499756324200559 0.9 0.1 0.9015232889446948 0.09847671105530517 0.9 0.1 0.9010599680413626 0.09894003195863735 0.9 0.1 0.9018757161043787 0.09812428389562135 0.9 0.1 0.9037071280922048 0.09629287190779524 0.9 0.1 0.9 0.1 0.9133401643196379 0.08665983568036201 0.9 0.1 0.9072319924063775 0.0927680075936224 0.9 0.1 0.9 0.1 0.9 0.1 0.9 0.1 0.9 0.1 0.9 0.1 0.9 0.1 0.9 0.1 0.9 0.1 0.9 0.1 0.9 0.1 0.9 0.1 0.9 0.1 0.9 0.1 0.9 0.1 0.9 0.1 0.9011898753372277 0.09881012466277223 0.9 0.1 0.901132632570697 0.09886736742930297 0.9 0.1 0.9001635492798093 0.09983645072019064 0.9 0.1 0.900510442246341 0.09948955775365899 0.9 0.1 0.9018839706272388 0.0981160293727612 0.9 0.1 0.9 0.1 0.9033785533299422 0.09662144667005768 0.9 0.1 0.9054503806535821 0.09454961934641794 0.9 0.1 0.9 0.1 0.9 0.1 0.9 0.1 0.9 0.1 0.9 0.1 0.9 0.1 0.9 0.1 0.9 0.1 0.9 0.1 0.9 0.1 0.9 0.1 0.9 0.1 0.9 0.1 0.9 0.1 0.9 0.1 0.9035896190281426 0.09641038097185745 0.8810337612855004 0.1189662387144997 0.9 0.1 0.9 0.1 0.9 0.1 0.8943620374722943 0.1056379625277057 0.9 0.1 0.9 0.1 0.9 0.1 0.9009156377590933 0.09908436224090654 0.9 0.1 0.9 0.1 0.865035627233526 0.134964372766474 0.9 0.1 0.9027662804663814 0.09723371953361865 0.9012781009666448 0.09872189903335515 0.9 0.1 0.9414530810367218 0.0585469189632782 0.9 0.1 0.9 0.1 0.9 0.1 0.9 0.1 0.9 0.1 0.9 0.1 0.9 0.1 0.9 0.1 0.9 0.1 0.9 0.1 0.9 0.1 0.9 0.1 0.9126673749291897 0.08733262507081024 0.8862980230292611 0.113701976970739 0.9 0.1 0.9 0.1 0.9 0.1 0.8943620374722943 0.1056379625277057 0.9 0.1 0.9 0.1 0.9 0.1 0.9074154051208787 0.09258459487912131 0.9 0.1 0.9333333333333332 0.06666666666666667 0.866294990869601 0.1337050091303989 0.9 0.1 0.9027662804663814 0.09723371953361865 0.9012781009666448 0.09872189903335515 0.9 0.1 0.9121562649682785 0.08784373503172142 0.9333333333333332 0.06666666666666667 0.9 0.1 0.9 0.1 0.9 0.1 0.9 0.1 0.9 0.1 0.9 0.1 0.9 0.1 0.9 0.1 0.9 0.1 0.9 0.1 0.9 0.1 0.9060430689815664 0.09395693101843365 0.8631432178006401 0.1368567821993598 0.9 0.1 0.9 0.1 0.7747983238692692 0.2252016761307309 0.8458217383081024 0.1541782616918975 0.9 0.1 0.9 0.1 0.9 0.1 0.9170446309846979 0.08295536901530211 0.9 0.1 0.9333333333333332 0.06666666666666667 0.7627233060771732 0.2372766939228268 0.9333333333333332 0.06666666666666667 0.7491565472537524 0.2508434527462477 0.9421911893728656 0.05780881062713428 0.9 0.1 0.9121858613673369 0.08781413863266298 0.76 0.24 0.7999999999999999 0.2 0.9 0.1 0.9 0.1 0.9 0.1 0.9 0.1 0.8974336859571297 0.1025663140428703 0.9 0.1 0.9 0.1 0.9 0.1 0.9 0.1 0.9 0.1 0.9220110671521827 0.07798893284781713 0.6743387825561562 0.3256612174438439 0.9067908169677769 0.09320918303222325 0.9 0.1 0.9079121364261095 0.09208786357389048 0.7692227812069621 0.230777218793038 0.9085990012165542 0.09140099878344582 0.9 0.1 0.9153318343200461 0.08466816567995394 0.916384970353848 0.08361502964615196 0.9333333333333332 0.06666666666666667 0.9 0.1 0.7306810443515998 0.2693189556484002 0.9 0.1 0.9265419407796048 0.07345805922039517 0.9139761472245977 0.08602385277540207 0.9 0.1 0.7406368215560177 0.2593631784439823 0.9 0.1 0.9333333333333332 0.06666666666666667 0.6 0.4 0.9 0.1 0.9 0.1 0.9 0.1 0.9 0.1 0.9 0.1 0.9 0.1 0.9 0.1 0.9 0.1 0.9 0.1 0.9035896190281426 0.09641038097185745 0.8810337612855004 0.1189662387144997 0.9 0.1 0.9 0.1 0.9 0.1 0.8525676672486491 0.1474323327513509 0.9 0.1 0.9 0.1 0.9 0.1 0.9009156377590933 0.09908436224090654 0.9 0.1 0.9 0.1 0.8920045549600815 0.1079954450399186 0.9 0.1 0.9153255699828839 0.0846744300171159 0.9075613556707903 0.09243864432920969 0.9333333333333332 0.06666666666666667 0.916767644533579 0.08323235546642099 0.9 0.1 0.9 0.1 0.9 0.1 0.9 0.1 0.9 0.1 0.9 0.1 0.9 0.1 0.9 0.1 0.9 0.1 0.9 0.1 0.9 0.1 0.9 0.1 0.8903018686920231 0.1096981313079769 0.8962578981343789 0.103742101865621 0.9111767437715339 0.08882325622846596 0.9177986345470038 0.08220136545299606 0.9046532479644402 0.09534675203555977 0.9404498777270642 0.05955012227293582 0.886131438141884 0.1138685618581158 0.9363585012099722 0.0636414987900278 0.9245436901290801 0.0754563098709199 0.9028338563289844 0.0971661436710155 0.9333333333333332 0.06666666666666667 0.903047035052391 0.09695296494760886 0.9112959480975735 0.08870405190242645 0.9243615442704984 0.07563845572950148 0.9 0.1 0.92172548531766 0.07827451468234002 0.6 0.4 0.9042332708000471 0.09576672919995285 0.8889439513484169 0.1110560486515832 0.580729839348445 0.4192701606515549 0.9 0.1 0.9000076362150939 0.09999236378490602 0.9 0.1 0.8975437217170309 0.1024562782829691 0.9 0.1 0.9000210743333058 0.09997892566669413 0.9 0.1 0.9000276134492003 0.09997238655079972 0.9 0.1 0.9000064363167135 0.09999356368328642 0.9314090542312139 0.0685909457687861 0.7528311547573194 0.2471688452426807 0.9457716283897091 0.05422837161029086 0.9285380245385363 0.07146197546146379 0.9384436187835306 0.06155638121646945 0.7000166390331842 0.2999833609668158 0.905340529569106 0.09465947043089377 0.8546780638632971 0.1453219361367029 0.6380553692930795 0.3619446307069206 0.7727714293959828 0.2272285706040172 0.9333333333333332 0.06666666666666667 0.97487928351677 0.02512071648323009 0.925409048915759 0.07459095108424089 0.8708294673039347 0.1291705326960653 0.96 0.04000000000000001 0.9393621987735483 0.06063780122645183 0.76 0.24 0.6553846344716073 0.3446153655283927 0.9172427682536456 0.08275723174635448 0.9262129762870366 0.07378702371296336 0.9 0.1 0.9000445726909823 0.09995542730901774 0.9 0.1 0.8932936523855756 0.1067063476144244 0.9 0.1 0.9000518228358505 0.09994817716414948 0.9 0.1 0.9000983659310422 0.09990163406895781 0.9 0.1 0.9000182653370951 0.09998173466290494 0.3677932148842272 0.6322067851157727 0.7514371484136547 0.2485628515863453 0.9423855621446708 0.0576144378553291 0.7248312239090048 0.2751687760909952 0.5260097154889223 0.4739902845110777 0.7123358697790036 0.2876641302209964 0.7284894383950292 0.2715105616049707 0.8769811244101854 0.1230188755898147 0.8993001234662352 0.1006998765337649 0.5787720414414576 0.4212279585585423 0.96 0.04000000000000001 0.9753215684242131 0.02467843157578699 0.9188659427620075 0.0811340572379925 0.9241883663048155 0.07581163369518452 0.9201125159841723 0.07988748401582758 0.8243178506812283 0.1756821493187716 0.7 0.3 0.9774163243920129 0.0225836756079872 0.6627071593790499 0.3372928406209501 0.68010501430161 0.3198949856983901 0.9 0.1 0.9000543888108893 0.09994561118911061 0.9 0.1 0.8954723508210212 0.1045276491789789 0.9020176794300045 0.09798232056999533 0.9000691008138214 0.09993089918617866 0.9 0.1 0.9001236401005543 0.09987635989944563 0.9 0.1 0.9000191745825615 0.09998082541743847 0.8654110307769997 0.1345889692230003 0.9537509048486297 0.04624909515137037 0.9428875972262983 0.05711240277370175 0.8476724679230008 0.1523275320769993 0.9545350164620774 0.04546498353792251 0.8715101221822901 0.1284898778177101 0.7216723660437731 0.2783276339562269 0.7954339890441761 0.204566010955824 0.7334648737467443 0.2665351262532556 0.4102784795951547 0.5897215204048453 0.6 0.4 0.6390850644708919 0.3609149355291083 0.9429856184107513 0.05701438158924874 0.8802939899319806 0.1197060100680194 0.9 0.1 0.8502188024991786 0.1497811975008214 0.95 0.05 0.8422886692795337 0.1577113307204663 0.6529889172350788 0.3470110827649211 0.9558895656131106 0.04411043438688936 0.9 0.1 0.9000227528298042 0.0999772471701959 0.9 0.1 0.8951696188145439 0.104830381185456 0.9 0.1 0.9000816000646683 0.09991839993533176 0.9 0.1 0.9000958104172897 0.09990418958271036 0.9 0.1 0.9000290466976247 0.09997095330237513 0.8955294047305642 0.1044705952694358 0.5968932996631648 0.4031067003368353 0.9041692462759022 0.09583075372409772 0.9285865084605245 0.07141349153947546 0.9032974809780291 0.09670251902197083 0.5608102681617119 0.4391897318382881 0.8926378927425771 0.1073621072574228 0.9209157923267126 0.07908420767328742 0.893075309823915 0.106924690176085 0.6019800218137423 0.3980199781862578 0.9 0.1 0.9014874418130677 0.09851255818693236 0.9352976587247541 0.06470234127524575 0.8936248335651562 0.1063751664348438 0.9 0.1 0.9255795883319129 0.07442041166808711 0.9 0.1 0.902406718317876 0.09759328168212393 0.8959954070221271 0.1040045929778729 0.895745746752995 0.1042542532470049 0.9 0.1 0.9000036751608399 0.0999963248391602 0.9 0.1 0.8991561144319484 0.1008438855680517 0.9 0.1 0.9000147476414319 0.09998525235856816 0.9 0.1 0.9000154379926046 0.09998456200739531 0.9 0.1 0.9000024698562914 0.09999753014370855 0.9 0.1 0.9 0.1 0.9 0.1 0.9 0.1 0.9 0.1 0.9 0.1 0.9 0.1 0.9 0.1 0.9 0.1 0.9 0.1 0.9 0.1 0.9 0.1 0.9 0.1 0.9 0.1 0.9056849438714208 0.09431505612857921 0.9 0.1 0.9 0.1 0.9 0.1 0.9 0.1 0.9 0.1 0.9 0.1 0.9 0.1 0.9 0.1 0.9 0.1 0.9 0.1 0.9 0.1 0.9 0.1 0.9 0.1 0.9 0.1 0.9 0.1 0.9 0.1 0.9 0.1 0.9 0.1 0.9 0.1 0.9 0.1 0.9 0.1 0.9 0.1 0.9 0.1 0.9 0.1 0.9 0.1 0.9 0.1 0.9 0.1 0.9 0.1 0.9 0.1 0.920565295173657 0.07943470482634285 0.9 0.1 0.9 0.1 0.9 0.1 0.9 0.1 0.9 0.1 0.9 0.1 0.9 0.1 0.9 0.1 0.9 0.1 0.9 0.1 0.9 0.1 0.9 0.1 0.9 0.1 0.9 0.1 0.9 0.1 0.9 0.1 0.9 0.1 0.9 0.1 0.9 0.1 0.9 0.1 0.9 0.1 0.9 0.1 0.9 0.1 0.9 0.1 0.9 0.1 0.9 0.1 0.9 0.1 0.9 0.1 0.9 0.1 0.9056849438714208 0.09431505612857921 0.9 0.1 0.9 0.1 0.9 0.1 0.9 0.1 0.9 0.1 0.9 0.1 0.9 0.1 0.9 0.1 0.9 0.1 0.9 0.1 0.9 0.1 0.9 0.1 0.9 0.1 0.9 0.1 0.9 0.1 0.9 0.1 0.9 0.1 0.9 0.1 0.9 0.1 0.9 0.1 0.9 0.1 0.9 0.1 0.9 0.1 0.9 0.1 0.9 0.1 0.9 0.1 0.9 0.1 0.9 0.1 0.9 0.1 0.9056849438714208 0.09431505612857921 0.9 0.1 0.9 0.1 0.9 0.1 0.9333333333333332 0.06666666666666667 0.9 0.1 0.9 0.1 0.9 0.1 0.9 0.1 0.9 0.1 0.9 0.1 0.9 0.1 0.9 0.1 0.9 0.1 0.9 0.1 0.9 0.1 0.9 0.1 0.9 0.1 0.9 0.1 0.9 0.1 0.9 0.1 0.9 0.1 0.9 0.1 0.9 0.1 0.9 0.1 0.9 0.1 0.9 0.1 0.9 0.1 0.9 0.1 0.9 0.1 0.9056849438714208 0.09431505612857921 0.9 0.1 0.9 0.1 0.9 0.1 0.9 0.1 0.9 0.1 0.9 0.1 0.9 0.1 0.9 0.1 0.9 0.1 0.9 0.1 0.9 0.1 0.9 0.1 0.9 0.1 0.9 0.1 0.9 0.1 0.9027380958479202 0.09726190415207973 0.9 0.1 0.905987215673226 0.0940127843267739 0.9 0.1 0.904681369878256 0.09531863012174389 0.9 0.1 0.9006289680666383 0.09937103193336176 0.9 0.1 0.90079414025411 0.09920585974589007 0.9 0.1 0.9 0.1 0.9 0.1 0.9 0.1 0.9 0.1 0.9 0.1 0.9 0.1 0.9 0.1 0.9 0.1 0.8781977147178266 0.1218022852821734 0.9 0.1 0.9 0.1 0.9 0.1 0.9 0.1 0.9 0.1 0.9 0.1 0.9 0.1 0.9 0.1 0.9 0.1 0.9 0.1 0.9 0.1 0.9027380958479202 0.09726190415207973 0.9 0.1 0.9023205747928579 0.0976794252071421 0.9 0.1 0.9033457104670441 0.09665428953295584 0.9 0.1 0.9006289680666383 0.09937103193336176 0.9 0.1 0.9031521646886979 0.09684783531130207 0.9 0.1 0.9 0.1 0.9 0.1 0.9 0.1 0.9 0.1 0.9 0.1 0.9 0.1 0.9 0.1 0.9 0.1 0.7421084522284301 0.2578915477715698 0.9 0.1 0.9 0.1 0.9 0.1 0.9 0.1 0.9 0.1 0.9 0.1 0.9 0.1 0.9 0.1 0.9 0.1 0.9 0.1 0.9 0.1 0.9006289175293974 0.09937108247060245 0.9 0.1 0.9023205747928579 0.0976794252071421 0.9 0.1 0.9005718093135259 0.09942819068647422 0.9 0.1 0.9036710322611129 0.09632896773888694 0.9 0.1 0.9031521646886979 0.09684783531130207 0.9 0.1 0.9 0.1 0.9 0.1 0.9 0.1 0.9 0.1 0.9 0.1 0.9 0.1 0.9 0.1 0.9 0.1 0.7421084522284301 0.2578915477715698 0.9 0.1 0.9 0.1 0.9 0.1 0.9 0.1 0.9 0.1 0.9 0.1 0.9 0.1 0.9 0.1 0.9 0.1 0.9 0.1 0.9 0.1 0.9027380958479202 0.09726190415207973 0.9 0.1 0.9003932690001462 0.09960673099985383 0.9 0.1 0.9019762298089434 0.09802377019105667 0.9 0.1 0.9021710554310614 0.09782894456893867 0.9 0.1 0.90079414025411 0.09920585974589007 0.9 0.1 0.9 0.1 0.9 0.1 0.9 0.1 0.9 0.1 0.9 0.1 0.9 0.1 0.9 0.1 0.9 0.1 0.8781977147178266 0.1218022852821734 0.9 0.1 0.9 0.1 0.9 0.1 0.9 0.1 0.9 0.1 0.9 0.1 0.9 0.1 0.9 0.1 0.9 0.1 0.9 0.1 0.9 0.1 0.9006289175293974 0.09937108247060245 0.9 0.1 0.9003932690001462 0.09960673099985383 0.9 0.1 0.9005718093135259 0.09942819068647422 0.9 0.1 0.9006289680666383 0.09937103193336176 0.9 0.1 0.90079414025411 0.09920585974589007 0.9 0.1 0.9 0.1 0.9 0.1 0.9 0.1 0.9 0.1 0.9 0.1 0.9 0.1 0.9 0.1 0.9 0.1 0.8781977147178266 0.1218022852821734 0.9 0.1 0.9 0.1 0.9 0.1 0.9 0.1 0.9 0.1 0.9 0.1 0.9 0.1 0.9 0.1 0.9 0.1 0.9 0.1 0.9 0.1 0.9 0.1 0.9165832610505127 0.08341673894948723 0.9 0.1 0.9115949951270673 0.08840500487293254 0.9 0.1 0.9083896217841794 0.09161037821582056 0.9073436651873682 0.09265633481263175 0.9044697868174952 0.09553021318250467 0.9 0.1 0.9030701120060897 0.09692988799391036 0.9 0.1 0.9 0.1 0.9 0.1 0.9 0.1 0.9 0.1 0.9 0.1 0.9 0.1 0.9 0.1 0.9 0.1 0.9 0.1 0.9 0.1 0.9 0.1 0.9 0.1 0.9 0.1 0.9 0.1 0.9 0.1 0.9 0.1 0.9 0.1 0.9 0.1 0.9 0.1 0.9 0.1 0.9 0.1 0.9 0.1 0.9 0.1 0.9 0.1 0.9333333333333332 0.06666666666666667 0.9185966694305288 0.08140333056947119 0.9 0.1 0.9 0.1 0.9 0.1 0.9 0.1 0.9 0.1 0.9 0.1 0.9 0.1 0.9 0.1 0.9 0.1 0.9 0.1 0.9 0.1 0.9 0.1 0.9 0.1 0.9 0.1 0.9 0.1 0.9 0.1 0.9 0.1 0.9 0.1 0.9 0.1 0.9 0.1 0.9 0.1 0.9 0.1 0.9 0.1 0.9 0.1 0.9 0.1 0.9 0.1 0.9 0.1 0.9 0.1 0.9 0.1 0.9060236348027695 0.09397636519723052 0.9 0.1 0.9 0.1 0.9 0.1 0.9 0.1 0.9 0.1 0.9 0.1 0.9 0.1 0.9 0.1 0.9 0.1 0.9 0.1 0.9 0.1 0.9 0.1 0.9 0.1 0.9 0.1 0.9 0.1 0.9 0.1 0.9 0.1 0.9 0.1 0.9 0.1 0.9 0.1 0.9 0.1 0.9 0.1 0.9 0.1 0.9 0.1 0.9 0.1 0.9 0.1 0.9 0.1 0.9 0.1 0.9 0.1 0.9060236348027695 0.09397636519723052 0.9 0.1 0.9 0.1 0.6 0.4 0.9 0.1 0.9 0.1 0.9 0.1 0.9 0.1 0.9 0.1 0.9 0.1 0.9 0.1 0.9 0.1 0.9 0.1 0.9 0.1 0.9 0.1 0.9 0.1 0.9 0.1 0.9 0.1 0.9 0.1 0.9 0.1 0.9 0.1 0.9 0.1 0.9 0.1 0.9 0.1 0.9 0.1 0.9 0.1 0.9 0.1 0.9 0.1 0.9 0.1 0.9 0.1 0.9060236348027695 0.09397636519723052 0.9 0.1 0.9 0.1 0.9 0.1 0.9 0.1 0.9 0.1 0.9 0.1 0.9 0.1 0.9 0.1 0.9 0.1 0.9 0.1 0.9 0.1 0.9 0.1 0.9 0.1 0.9 0.1 0.9 0.1 0.9 0.1 0.9 0.1 0.9 0.1 0.9 0.1 0.9 0.1 0.9 0.1 0.9 0.1 0.9 0.1 0.9 0.1 0.9 0.1 0.9 0.1 0.9 0.1 0.9 0.1 0.9 0.1 0.9 0.1 0.9 0.1 0.9 0.1 0.9 0.1 0.9 0.1 0.9 0.1 0.9 0.1 0.9 0.1 0.9 0.1 0.9 0.1 0.9 0.1 0.9 0.1 0.9 0.1 0.9 0.1 0.9 0.1 0.9 0.1 0.9 0.1 0.9 0.1 0.9 0.1 0.9 0.1 0.9 0.1 0.9 0.1 0.9 0.1 0.9 0.1 0.9 0.1 0.9 0.1 0.9 0.1 0.9 0.1 0.9 0.1 0.9 0.1 0.9 0.1 0.9 0.1 0.9 0.1 0.9 0.1 0.9 0.1 0.9 0.1 0.9 0.1 0.9 0.1 0.9 0.1 0.9 0.1 0.6 0.4 0.9 0.1 0.9 0.1 0.9 0.1 0.9 0.1 0.9 0.1 0.9 0.1 0.9 0.1 0.9 0.1 0.9 0.1 0.9 0.1 0.9 0.1 0.9 0.1 0.9 0.1 0.9 0.1 0.9 0.1 0.9 0.1 0.9 0.1 0.9 0.1 0.9 0.1 0.9 0.1 0.9 0.1 0.9 0.1 0.9 0.1 0.9 0.1 0.9 0.1 0.9 0.1 0.9 0.1 0.9 0.1 0.9 0.1 0.9 0.1 0.9 0.1 0.9 0.1 0.9 0.1 0.9 0.1 0.9 0.1 0.9 0.1 0.9 0.1 0.9 0.1 0.9 0.1 0.9 0.1 0.9 0.1 0.9 0.1 0.9 0.1 0.9 0.1 0.9 0.1 0.9 0.1 0.9 0.1 0.9 0.1 0.9 0.1 0.9 0.1 0.9 0.1 0.9 0.1 0.9 0.1 0.9 0.1 0.9 0.1 0.9 0.1 0.9 0.1 0.9 0.1 0.9 0.1 0.9 0.1 0.9 0.1 0.9 0.1 0.9 0.1 0.9 0.1 0.9 0.1 0.9 0.1 0.9 0.1 0.9 0.1 0.9 0.1 0.9 0.1 0.9 0.1 0.9 0.1 0.9 0.1 0.9 0.1 0.9 0.1 0.9 0.1 0.9 0.1 0.9 0.1 0.9 0.1 0.9 0.1 0.9 0.1 0.9 0.1 0.9 0.1 0.9 0.1 0.9 0.1 0.9 0.1 0.9 0.1 0.9 0.1 0.9 0.1 0.9 0.1 0.9 0.1 0.9 0.1 0.9 0.1 0.9 0.1 0.9 0.1 0.9 0.1 0.9 0.1 0.9 0.1 0.9 0.1 0.9 0.1 0.9 0.1 0.9 0.1 0.9 0.1 0.9093969041403329 0.09060309585966704 0.9 0.1 0.9047272866366998 0.09527271336330011 0.9128294432011638 0.08717055679883617 0.9093653041689302 0.09063469583106973 0.9 0.1 0.6280372428690505 0.3719627571309495 0.9058714087621945 0.09412859123780545 0.9248667519632071 0.0751332480367928 0.9 0.1 0.9 0.1 0.9 0.1 0.9 0.1 0.9034998144601797 0.09650018553982025 0.8723229933376463 0.1276770066623537 0.9 0.1 0.9 0.1 0.9 0.1 0.9 0.1 0.9 0.1 0.9 0.1 0.9 0.1 0.9 0.1 0.9002092886264966 0.09979071137350336 0.9 0.1 0.9 0.1 0.9 0.1 0.9 0.1 0.9 0.1 0.9 0.1 0.9 0.1 0.9333333333333332 0.06666666666666667 0.9 0.1 0.9055676196083725 0.0944323803916275 0.9133855681232532 0.08661443187674672 0.9 0.1 0.9083575992347751 0.09164240076522473 0.9077889558898139 0.09221104411018596 0.9540919788316307 0.0459080211683694 0.9 0.1 0.9 0.1 0.9333333333333332 0.06666666666666667 0.9 0.1 0.9014401603857196 0.09855983961428039 0.8787465400046394 0.1212534599953606 0.9 0.1 0.9 0.1 0.9 0.1 0.6 0.4 0.9333333333333332 0.06666666666666667 0.9 0.1 0.9 0.1 0.9 0.1 0.9000846087664608 0.09991539123353928 0.9 0.1 0.9 0.1 0.9 0.1 0.9 0.1 0.9 0.1 0.9 0.1 0.6 0.4 0.9 0.1 0.9333333333333332 0.06666666666666667 0.6367260553428682 0.3632739446571318 0.9165155210880743 0.08348447891192558 0.9333333333333332 0.06666666666666667 0.7249734033895536 0.2750265966104463 0.9175616995501561 0.08243830044984379 0.9383431164398496 0.06165688356015023 0.9 0.1 0.9 0.1 0.9 0.1 0.9 0.1 0.905092577456136 0.09490742254386397 0.6931358045169729 0.3068641954830271 0.9 0.1 0.9 0.1 0.9 0.1 0.9 0.1 0.9 0.1 0.9 0.1 0.9 0.1 0.9 0.1 0.9003088255829317 0.0996911744170683 0.9 0.1 0.9 0.1 0.9 0.1 0.9 0.1 0.9 0.1 0.9 0.1 0.9 0.1 0.9 0.1 0.9333333333333332 0.06666666666666667 0.6800227410441696 0.3199772589558303 0.9082688245820513 0.09173117541794866 0.9 0.1 0.9398903558674709 0.06010964413252902 0.7713815567041062 0.2286184432958937 0.9058575275658169 0.09414247243418306 0.9 0.1 0.9 0.1 0.9 0.1 0.9333333333333332 0.06666666666666667 0.93861127420341 0.06138872579658997 0.839021915144237 0.1609780848557631 0.9 0.1 0.9 0.1 0.95 0.05 0.9 0.1 0.9 0.1 0.9 0.1 0.9 0.1 0.9 0.1 0.9007131740936888 0.09928682590631115 0.9 0.1 0.9 0.1 0.9 0.1 0.9 0.1 0.9 0.1 0.9 0.1 0.9 0.1 0.9 0.1 0.9 0.1 0.901586310108148 0.09841368989185191 0.9007572116125785 0.09924278838742148 0.9 0.1 0.9016624803972254 0.09833751960277448 0.9015424516034001 0.09845754839659981 0.9032373598160642 0.09676264018393571 0.9 0.1 0.9 0.1 0.6 0.4 0.9 0.1 0.9003991857482442 0.09960081425175576 0.8964418045694289 0.1035581954305711 0.9 0.1 0.9 0.1 0.9 0.1 0.9 0.1 0.9 0.1 0.9 0.1 0.9 0.1 0.9 0.1 0.9000232464835999 0.09997675351640002 0.9 0.1 0.9 0.1 0.9 0.1 0.9 0.1 0.9 0.1 0.9 0.1 0.9025276943172201 0.09747230568277993 0.9 0.1 0.8905050071484758 0.1094949928515242 0.9017406684411549 0.0982593315588451 0.9007603688395018 0.09923963116049817 0.8947278008925629 0.105272199107437 0.8929775371458165 0.1070224628541834 0.9021169939221815 0.09788300607781847 0.9029203668685961 0.09707963313140383 0.9 0.1 0.9 0.1 0.9 0.1 0.9 0.1 0.9 0.1 0.9 0.1 0.9 0.1 0.9 0.1 0.9 0.1 0.9 0.1 0.9333333333333332 0.06666666666666667 0.9 0.1 0.9 0.1 0.9 0.1 0.9 0.1 0.9 0.1 0.9 0.1 0.9 0.1 0.9 0.1 0.9 0.1 0.9 0.1 0.7155906462992103 0.2844093537007897 0.7 0.3 0.7210789036930192 0.2789210963069808 0.9684988197600437 0.03150118023995637 0.9372410758861451 0.06275892411385479 0.490739109509765 0.509260890490235 0.8639049395726706 0.1360950604273295 0.9083371023949319 0.09166289760506796 0.9105521783687721 0.08944782163122782 0.9333333333333332 0.06666666666666667 0.9 0.1 0.7722653399142927 0.2277346600857072 0.6 0.4 0.8560164791602618 0.1439835208397382 0.9 0.1 0.8467646933731722 0.1532353066268279 0.9 0.1 0.8351091824633414 0.1648908175366585 0.9 0.1 0.8982751796461481 0.1017248203538519 0.9 0.1 0.9 0.1 0.9 0.1 0.9 0.1 0.9 0.1 0.9 0.1 0.9 0.1 0.9 0.1 0.9 0.1 0.9 0.1 0.9396583893813627 0.06034161061863715 0.95 0.05 0.9282501443300906 0.07174985566990945 0.9633790230496113 0.03662097695038864 0.9123943843302059 0.08760561566979408 0.5753670474290782 0.4246329525709218 0.4885980404356262 0.511401959564374 0.9487367885589925 0.05126321144100762 0.9408876631731186 0.0591123368268813 0.6 0.4 0.9333333333333332 0.06666666666666667 0.9078218142838241 0.09217818571617575 0.9 0.1 0.9389675270198966 0.06103247298010325 0.9 0.1 0.9063708435189758 0.09362915648102411 0.9333333333333332 0.06666666666666667 0.9262533241209672 0.07374667587903283 0.9 0.1 0.9088231506797314 0.09117684932026857 0.9 0.1 0.9 0.1 0.9 0.1 0.9 0.1 0.9 0.1 0.9 0.1 0.9 0.1 0.9012027650505671 0.09879723494943296 0.9 0.1 0.9 0.1 0.9144604182638524 0.08553958173614765 0.95 0.05 0.8489211626997878 0.1510788373002124 0.906769095350751 0.09323090464924899 0.9175361409873763 0.0824638590126236 0.2923088893482239 0.7076911106517761 0.8133810639527355 0.1866189360472645 0.9402994502909708 0.05970054970902913 0.9388617069623246 0.0611382930376754 0.9 0.1 0.9 0.1 0.9333333333333332 0.06666666666666667 0.9 0.1 0.95 0.05 0.9333333333333332 0.06666666666666667 0.6 0.4 0.9 0.1 0.9333333333333332 0.06666666666666667 0.9333333333333332 0.06666666666666667 0.9 0.1 0.9 0.1 0.9 0.1 0.9 0.1 0.9 0.1 0.9 0.1 0.9 0.1 0.9 0.1 0.9 0.1 0.9 0.1 0.9 0.1 0.9036749606176488 0.09632503938235118 0.9 0.1 0.8977160592070569 0.1022839407929431 0.9004499308232694 0.09955006917673044 0.9042885785140176 0.0957114214859825 0.5461247929325111 0.4538752070674889 0.8983315818021658 0.1016684181978341 0.9005338686768747 0.09946613132312532 0.9024025803299049 0.09759741967009501 0.9 0.1 0.9 0.1 0.9 0.1 0.9 0.1 0.9 0.1 0.9 0.1 0.9 0.1 0.9 0.1 0.9 0.1 0.9 0.1 0.9 0.1 0.9 0.1 0.9 0.1 0.9 0.1 0.9 0.1 0.9 0.1 0.9 0.1 0.9 0.1 0.9 0.1 0.9 0.1 0.9 0.1 0.9 0.1 0.9 0.1 0.9 0.1 0.9 0.1 0.9 0.1 0.9 0.1 0.9 0.1 0.9 0.1 0.9 0.1 0.9 0.1 0.9 0.1 0.9 0.1 0.9 0.1 0.9 0.1 0.9 0.1 0.9 0.1 0.9 0.1 0.9 0.1 0.9 0.1 0.9 0.1 0.9 0.1 0.9 0.1 0.9 0.1 0.9 0.1 0.9 0.1 0.9 0.1 0.9 0.1 0.9 0.1 0.9 0.1 0.9 0.1 0.9 0.1 0.9 0.1 0.9 0.1 0.9 0.1 0.9 0.1 0.9 0.1 0.9 0.1 0.9 0.1 0.9 0.1 0.9 0.1 0.9 0.1 0.9039306454708652 0.09606935452913462 0.9 0.1 0.9114485351952152 0.08855146480478482 0.9 0.1 0.9106155710166556 0.08938442898334431 0.9 0.1 0.9126145853730798 0.08738541462692019 0.9 0.1 0.906251147036308 0.09374885296369194 0.9 0.1 0.9 0.1 0.9 0.1 0.9 0.1 0.9 0.1 0.9 0.1 0.9 0.1 0.9 0.1 0.9 0.1 0.9 0.1 0.9 0.1 0.9 0.1 0.9 0.1 0.9 0.1 0.9 0.1 0.9 0.1 0.9 0.1 0.9 0.1 0.9 0.1 0.9 0.1 0.9 0.1 0.9 0.1 0.9 0.1 0.9 0.1 0.9 0.1 0.9 0.1 0.9 0.1 0.9 0.1 0.9 0.1 0.9 0.1 0.9 0.1 0.9 0.1 0.9 0.1 0.9 0.1 0.9 0.1 0.9 0.1 0.9 0.1 0.9 0.1 0.9 0.1 0.9 0.1 0.9333333333333332 0.06666666666666667 0.9077719009658345 0.0922280990341654 0.9 0.1 0.9063240643701934 0.09367593562980658 0.9 0.1 0.9093777615373522 0.09062223846264771 0.9 0.1 0.9042115288325533 0.09578847116744665 0.9 0.1 0.9167203024621469 0.08327969753785311 0.9 0.1 0.9 0.1 0.9 0.1 0.9 0.1 0.9 0.1 0.9 0.1 0.9 0.1 0.9 0.1 0.9 0.1 0.9 0.1 0.9 0.1 0.9 0.1 0.9 0.1 0.9 0.1 0.9 0.1 0.9 0.1 0.9 0.1 0.9 0.1 0.9 0.1 0.9 0.1 0.9 0.1 0.9 0.1 0.9 0.1 0.9 0.1 0.9 0.1 0.9 0.1 0.9 0.1 0.9 0.1 0.9 0.1 0.9 0.1 0.9 0.1 0.9 0.1 0.9 0.1 0.9 0.1 0.9 0.1 0.9 0.1 0.9 0.1 0.9 0.1 0.9 0.1 0.9 0.1 0.9 0.1 0.9 0.1 0.9 0.1 0.9 0.1 0.9 0.1 0.9 0.1 0.9 0.1 0.9 0.1 0.9 0.1 0.9 0.1 0.9 0.1 0.9 0.1 0.9 0.1 0.9 0.1 0.9 0.1 0.9 0.1 0.9047256950669414 0.09527430493305858 0.9 0.1 0.8977685516623901 0.1022314483376097 0.8963327442165728 0.1036672557834271 0.9 0.1 0.9333333333333332 0.06666666666666667 0.9 0.1 0.9333333333333332 0.06666666666666667 0.8947924436313168 0.1052075563686833 0.9 0.1 0.9038150110058649 0.09618498899413515 0.9 0.1 0.8983548882559587 0.1016451117440413 0.9 0.1 0.9 0.1 0.9 0.1 0.9 0.1 0.9 0.1 0.9 0.1 0.9 0.1 0.9006299462451172 0.09937005375488288 0.9 0.1 0.8999470808865311 0.1000529191134691 0.9 0.1 0.9 0.1 0.9333333333333332 0.06666666666666667 0.9 0.1 0.9 0.1 0.9 0.1 0.9 0.1 0.9032882560853582 0.0967117439146417 0.9 0.1 0.9234737123226794 0.07652628767732061 0.8587115029737522 0.1412884970262478 0.9 0.1 0.9 0.1 0.9 0.1 0.9 0.1 0.8947924436313168 0.1052075563686833 0.9 0.1 0.9026476512013 0.09735234879870008 0.9 0.1 0.8841100913818564 0.1158899086181436 0.9333333333333332 0.06666666666666667 0.9 0.1 0.9 0.1 0.9 0.1 0.9 0.1 0.9 0.1 0.9 0.1 0.9004332661584182 0.09956673384158164 0.9 0.1 0.899542994079825 0.1004570059201751 0.9 0.1 0.6 0.4 0.9 0.1 0.9 0.1 0.9333333333333332 0.06666666666666667 0.9 0.1 0.9 0.1 0.6060079350376691 0.393992064962331 0.9 0.1 0.8224003897643056 0.1775996102356943 0.7297534150971089 0.2702465849028912 0.9 0.1 0.9 0.1 0.9 0.1 0.9 0.1 0.7066294831917539 0.2933705168082462 0.9 0.1 0.9026547332442036 0.0973452667557962 0.9 0.1 0.8497108022082718 0.1502891977917282 0.9 0.1 0.9 0.1 0.9 0.1 0.9 0.1 0.9 0.1 0.9 0.1 0.9 0.1 0.9004344486750021 0.09956555132499773 0.9 0.1 0.8988326463369655 0.1011673536630344 0.9 0.1 0.9 0.1 0.9 0.1 0.9333333333333332 0.06666666666666667 0.9333333333333332 0.06666666666666667 0.9333333333333332 0.06666666666666667 0.9 0.1 0.9374379183413365 0.06256208165866349 0.9 0.1 0.5156247302561615 0.4843752697438385 0.7435300631964961 0.2564699368035039 0.9 0.1 0.7 0.3 0.9 0.1 0.9 0.1 0.926663550864389 0.07333644913561095 0.9 0.1 0.9366571018655262 0.06334289813447376 0.9 0.1 0.8529038825696751 0.1470961174303249 0.9 0.1 0.9 0.1 0.9 0.1 0.9 0.1 0.9 0.1 0.9 0.1 0.9 0.1 0.9012000959264563 0.09879990407354369 0.9 0.1 0.8988863947015909 0.101113605298409 0.9 0.1 0.9 0.1 0.9333333333333332 0.06666666666666667 0.9 0.1 0.9 0.1 0.9 0.1 0.9 0.1 0.9047006212223851 0.0952993787776148 0.9333333333333332 0.06666666666666667 0.8977685516623901 0.1022314483376097 0.8963327442165728 0.1036672557834271 0.9 0.1 0.9 0.1 0.9 0.1 0.9 0.1 0.8570856428779187 0.1429143571220813 0.9 0.1 0.903794595351588 0.09620540464841208 0.9 0.1 0.8983548882559587 0.1016451117440413 0.9 0.1 0.9 0.1 0.9 0.1 0.9 0.1 0.9 0.1 0.9 0.1 0.9 0.1 0.9006264757813155 0.09937352421868441 0.9 0.1 0.8999470808865311 0.1000529191134691 0.9 0.1 0.9 0.1 0.9253821282187831 0.07461787178121684 0.9035586911291273 0.09644130887087267 0.9480631583762984 0.05193684162370159 0.8932994922371288 0.1067005077628713 0.5762455726273882 0.4237544273726119 0.9507583326084087 0.04924166739159137 0.8963119476949511 0.1036880523050489 0.8955699198235694 0.1044300801764306 0.9559969314257987 0.0440030685742013 0.9013052558856796 0.0986947441143205 0.9395285618560066 0.06047143814399336 0.9136585292513731 0.08634147074862683 0.9451210006617535 0.05487899933824652 0.9051476313943589 0.09485236860564114 0.9370485551578697 0.06295144484213039 0.9347619279373534 0.06523807206264669 0.9162918223613445 0.0837081776386555 0.902098721595241 0.09790127840475904 0.9150417431374859 0.0849582568625141 0.9 0.1 0.9 0.1 0.9 0.1 0.9060187876214408 0.09398121237855916 0.9 0.1 0.8996781511658124 0.1003218488341876 0.9001038160978001 0.09989618390219984 0.900150340672881 0.09984965932711888 0.9 0.1 0.9 0.1 0.9333333333333332 0.06666666666666667 0.9792528789937075 0.02074712100629257 0.9629976018668441 0.03700239813315596 0.9804525069741539 0.01954749302584596 0.6812239288371552 0.3187760711628449 0.6000627087847953 0.3999372912152046 0.8331568798743351 0.166843120125665 0.749193125396734 0.2508068746032661 0.5781395885248219 0.4218604114751782 0.4108104771981665 0.5891895228018335 0.9416018975182285 0.05839810248177141 0.9501493779225294 0.04985062207747051 0.9613233796420874 0.03867662035791263 0.9254926610419918 0.0745073389580083 0.915129474348521 0.0848705256514789 0.8979260734411113 0.1020739265588887 0.954923441476383 0.04507655852361691 0.9526967591470857 0.04730324085291428 0.717976607623463 0.282023392376537 0.9064111576545036 0.09358884234549653 0.9 0.1 0.9049405896248613 0.0950594103751386 0.9 0.1 0.9296000408004523 0.07039995919954765 0.9 0.1 0.9049879934937332 0.0950120065062668 0.9003691771806386 0.09963082281936125 0.9384462923230169 0.06155370767698302 0.9 0.1 0.902078461484955 0.09792153851504513 0.9777777777777779 0.02222222222222222 0.8312805782991222 0.1687194217008778 0.938619702654912 0.0613802973450879 0.5788102788775555 0.4211897211224444 0.5621784231760075 0.4378215768239926 0.5647524215300785 0.4352475784699215 0.968157613644925 0.03184238635507508 0.9715158735411056 0.02848412645889444 0.8857078852478668 0.1142921147521331 0.783957778333923 0.216042221666077 0.6551132184977956 0.3448867815022045 0.9612715912708342 0.0387284087291658 0.9475035151332447 0.05249648486675534 0.9082184062360547 0.0917815937639454 0.9195901716541592 0.08040982834584069 0.9589244387772701 0.04107556122273003 0.6454958152287315 0.3545041847712685 0.9588337713292099 0.04116622867079015 0.9406250197443844 0.05937498025561562 0.7597750092141492 0.2402249907858507 0.9 0.1 0.9 0.1 0.9 0.1 0.9104378013828756 0.08956219861712436 0.9 0.1 0.8989373072309811 0.1010626927690188 0.9004637461713014 0.09953625382869852 0.9024343881847311 0.09756561181526884 0.9 0.1 0.9 0.1 0.6857142857142856 0.3142857142857143 0.9638799995216174 0.03612000047838256 0.7361234052185731 0.2638765947814268 0.7636991707077467 0.2363008292922533 0.9199304482085698 0.08006955179143012 0.9396777166060108 0.06032228339398917 0.4760156101871977 0.5239843898128024 0.7358242686342402 0.2641757313657598 0.4107226551811999 0.5892773448188002 0.6107105973005643 0.3892894026994355 0.9101066902041425 0.08989330979585752 0.9031246868068498 0.09687531319315033 0.9299052534888731 0.07009474651112689 0.7674906598004128 0.2325093401995873 0.9225500759373765 0.07744992406262337 0.8023465769416004 0.1976534230583997 0.9550389349312122 0.04496106506878786 0.968322402712763 0.03167759728723688 0.6461882212897169 0.3538117787102833 0.4494175428298546 0.5505824571701453 0.9 0.1 0.9 0.1 0.9 0.1 0.9110401798816112 0.08895982011838871 0.9 0.1 0.8918455158191285 0.1081544841808715 0.9003596085939302 0.09964039140606973 0.900520233675974 0.09947976632402591 0.9 0.1 0.9 0.1 0.9333333333333332 0.06666666666666667 0.9029483607230394 0.09705163927696048 0.8813286572389712 0.1186713427610288 0.9013162710172735 0.09868372898272651 0.9312333669481271 0.06876663305187286 0.54250069722538 0.4574993027746202 0.9016064967337939 0.09839350326620626 0.5426451000737299 0.4573548999262702 0.8983400322943078 0.1016599677056922 0.9346857705791196 0.0653142294208803 0.9006319847090857 0.0993680152909143 0.900517202397572 0.09948279760242795 0.9051779840301816 0.0948220159698183 0.9016824137674597 0.09831758623254032 0.9036528016668978 0.09634719833310221 0.887430661887553 0.112569338112447 0.9017405126667338 0.09825948733326613 0.9022987819488388 0.09770121805116114 0.9008147309666403 0.09918526903335977 0.8999644833972287 0.1000355166027713 0.9 0.1 0.9 0.1 0.9 0.1 0.9021736707786013 0.09782632922139869 0.9 0.1 0.8997749788716434 0.1002250211283565 0.9000580583449131 0.09994194165508674 0.9000840921997751 0.09991590780022486 0.9 0.1 0.9 0.1</probabilities>
		</cpt>
		<cpt id="Honesty">
			<state id="State0" />
			<state id="State1" />
			<state id="State2" />
			<state id="State3" />
			<parents>CB_Offending</parents>
			<probabilities>0.1529332483432994 0.3120685333170204 0.3202525507565626 0.2147456675831175 0.1940402019942532 0.3573476515062136 0.2676493226454291 0.1809628238541041</probabilities>
			<property id="DSL_OUTCOME_ORDER">1</property>
		</cpt>
		<cpt id="A1_1_PhotoSharing">
			<state id="State0" />
			<state id="State1" />
			<parents>CB_Offending Honesty</parents>
			<probabilities>0.682738892973051 0.3172611070269489 0.6604707854309817 0.3395292145690184 0.6276160678806258 0.3723839321193742 0.6853614115627482 0.3146385884372518 0.6521725013368252 0.3478274986631748 0.6818177932000093 0.3181822067999907 0.61764696011541 0.38235303988459 0.6666666334588148 0.3333333665411851</probabilities>
		</cpt>
		<cpt id="A1_2_Sociable">
			<state id="State0" />
			<state id="State1" />
			<parents>CB_Offending Honesty</parents>
			<probabilities>0.6922048604225505 0.3077951395774495 0.731660014157242 0.2683399858427581 0.6855249476409616 0.3144750523590384 0.6751617754232109 0.3248382245767891 0.782606073911247 0.217393926088753 0.6704541811250091 0.3295458188749908 0.61764696011541 0.38235303988459 0.6874999626411669 0.3125000373588332</probabilities>
		</cpt>
		<cpt id="A1_3_MatthewMeme">
			<state id="State0" />
			<state id="State1" />
			<state id="State2" />
			<parents>CB_Offending Honesty</parents>
			<probabilities>0.3789126031677932 0.2322245139535377 0.388862882878669 0.2081696856429199 0.3638278938486125 0.4280024205084677 0.1459092336214225 0.382767847554969 0.4713229188236085 0.1540820152359835 0.2585227449680813 0.5873952397959352 0.4492742867328192 0.2536239278711867 0.297101785395994 0.4329498846938771 0.35249036244113 0.2145597528649928 0.2871796645014945 0.256410551946935 0.4564097835515706 0.3263888902725494 0.2847222319078457 0.388888877819605</probabilities>
		</cpt>
		<cpt id="A3_1_pirated_Content">
			<state id="State0" />
			<state id="State1" />
			<parents>CB_Offending Honesty</parents>
			<probabilities>0.3934259051540033 0.6065740948459968 0.3372020040100208 0.6627979959899793 0.2226647408165288 0.7773352591834711 0.2133760984991254 0.7866239015008745 0.6647016359874514 0.3352983640125485 0.4779223225905862 0.5220776774094138 0.3105243264720561 0.6894756735279439 0.4525145008418861 0.5474854991581138</probabilities>
		</cpt>
		<cpt id="A3_2_Pol_Pola">
			<state id="State0" />
			<state id="State1" />
			<state id="State2" />
			<parents>CB_Offending Honesty</parents>
			<probabilities>0.4006734114871605 0.4643059662475744 0.1350206222652651 0.5072458712718387 0.2161554300763394 0.2765986986518218 0.6058552530657626 0.1463179529497148 0.2478267939845225 0.7341669872403804 0.08298039854342681 0.1828526142161928 0.4090108656616182 0.4615894060944399 0.1293997282439421 0.4660989954256914 0.3315309765870336 0.202370027987275 0.5490371768039546 0.2254814115980227 0.2254814115980227 0.5975891077477178 0.231346712456676 0.1710641797956061</probabilities>
		</cpt>
		<cpt id="A3_3_time_overrun">
			<state id="State0" />
			<state id="State1" />
			<parents>CB_Offending Honesty</parents>
			<probabilities>0.5954479346322424 0.4045520653677574 0.4202027009412969 0.5797972990587031 0.3244428602141128 0.6755571397858873 0.2489382987727198 0.7510617012272802 0.747749055450076 0.2522509445499241 0.6974959352101763 0.3025040647898238 0.4437497032046379 0.5562502967953622 0.6032208324945605 0.3967791675054396</probabilities>
		</cpt>
		<cpt id="A3_4_Pol_Bullied">
			<state id="State0" />
			<state id="State1" />
			<state id="State2" />
			<parents>CB_Offending Honesty</parents>
			<probabilities>0.3154476287372931 0.2413480062011804 0.4432043650615264 0.1020294717958341 0.3336616777920746 0.5643088504120914 0.07952145153818883 0.2191997219510113 0.7012788265108 0.06875551843398918 0.1472904139425986 0.7839540676234122 0.38132839250741 0.2678120940149828 0.3508595134776072 0.2852736673860296 0.3831953560269372 0.3315309765870332 0.14803235073506 0.2887979630825849 0.5631696861823551 0.2660351781118339 0.2313467124566759 0.5026181094314902</probabilities>
		</cpt>
		<cpt id="A3_5_remind_Matthew">
			<state id="State0" />
			<state id="State1" />
			<state id="State2" />
			<parents>CB_Offending Honesty</parents>
			<probabilities>0.3579785823116595 0.3691047425254136 0.272916675162927 0.3510315625896635 0.5261887913816834 0.122779646028653 0.4516733879738338 0.4878898751769848 0.0604367368491813 0.3674780007321795 0.5566540407791124 0.075867958488708 0.2954945671691909 0.3785419866318154 0.3259634461989938 0.3315309765870336 0.3444470714470094 0.3240219519659569 0.3943255488901888 0.3943255488901886 0.2113489022196227 0.4121943104398854 0.3519117777788155 0.235893911781299</probabilities>
		</cpt>
		<cpt id="A3_6_Talk_Pol">
			<state id="State0" />
			<state id="State1" />
			<parents>CB_Offending Honesty</parents>
			<probabilities>0.443146007138262 0.556853992861738 0.3265223474992182 0.673477652500782 0.2403097033830746 0.7596902966169254 0.262081441139762 0.737918558860238 0.4499282883328599 0.5500717116671401 0.3146336135603222 0.6853663864396778 0.4636560615900433 0.5363439384099568 0.3016713281007161 0.6983286718992838</probabilities>
		</cpt>
		<cpt id="A3_7_Help_Pol">
			<state id="State0" />
			<state id="State1" />
			<state id="State2" />
			<state id="State3" />
			<parents>CB_Offending Honesty</parents>
			<probabilities>0.5052262415922908 0.1541819990026355 0.1119805916472973 0.2286111677577765 0.545999235404088 0.2503096710067926 0.1167360644061021 0.08695502918301716 0.6415183549753962 0.2516890847619705 0.06124755135232203 0.0455450089103114 0.6903064574266876 0.2453806303165798 0.03230548358171757 0.03200742867501513 0.3766609336006325 0.2077796887997891 0.2077796887997891 0.2077796887997891 0.5414384133136378 0.2131289715753414 0.09688411783555879 0.148548497275462 0.5876416511312925 0.2429803687638396 0.116347265794715 0.05303071431015278 0.3212282487371708 0.3468223157430827 0.1056921850988034 0.2262572504209431</probabilities>
		</cpt>
	</nodes>
	<extensions>
		<genie version="1.0" app="GeNIe 4.0.2919.0 ACADEMIC" name="Network1">
			<node id="Age">
				<name>Age</name>
				<interior color="e5f6f7" />
				<outline color="000080" />
				<font color="000000" name="Arial" size="8" />
				<position>186 451 227 476</position>
				<barchart active="true" width="128" height="108" />
			</node>
			<node id="Gender">
				<name>Gender</name>
				<interior color="e5f6f7" />
				<outline color="000080" />
				<font color="000000" name="Arial" size="8" />
				<position>108 287 160 319</position>
				<barchart active="true" width="128" height="72" />
			</node>
			<node id="CB_Offending">
				<name>CB_Offending</name>
				<interior color="e5f6f7" />
				<outline color="000080" />
				<font color="000000" name="Arial" size="8" />
				<position>689 384 769 434</position>
				<barchart active="true" width="128" height="64" />
			</node>
			<node id="Empathy">
				<name>Empathy</name>
				<interior color="e5f6f7" />
				<outline color="000080" />
				<font color="000000" name="Arial" size="8" />
				<position>398 471 454 506</position>
				<barchart active="true" width="128" height="64" />
			</node>
			<node id="Hours_Internet">
				<name>Hours_Internet</name>
				<interior color="e5f6f7" />
				<outline color="000080" />
				<font color="000000" name="Arial" size="8" />
				<position>178 113 234 158</position>
				<barchart active="true" width="128" height="108" />
			</node>
			<node id="Family_Support">
				<name>Family_Support</name>
				<interior color="e5f6f7" />
				<outline color="000080" />
				<font color="000000" name="Arial" size="8" />
				<position>496 28 551 76</position>
				<barchart active="true" width="128" height="72" />
			</node>
			<node id="Social_Support">
				<name>Social_Support</name>
				<interior color="e5f6f7" />
				<outline color="000080" />
				<font color="000000" name="Arial" size="8" />
				<position>782 89 840 133</position>
				<barchart active="true" width="128" height="72" />
			</node>
			<node id="A1_1_PhotoSharing">
				<name>A1_1_PhotoSharing</name>
				<interior color="e5f6f7" />
				<outline color="000080" />
				<font color="000000" name="Arial" size="8" />
				<position>213 628 275 681</position>
				<barchart active="true" width="128" height="64" />
			</node>
			<node id="A1_2_Sociable">
				<name>A1_2_Sociable</name>
				<interior color="e5f6f7" />
				<outline color="000080" />
				<font color="000000" name="Arial" size="8" />
				<position>352 628 414 679</position>
				<barchart active="true" width="128" height="64" />
			</node>
			<node id="A1_3_MatthewMeme">
				<name>A1_3_MatthewMeme</name>
				<interior color="e5f6f7" />
				<outline color="000080" />
				<font color="000000" name="Arial" size="8" />
				<position>494 629 556 680</position>
				<barchart active="true" width="128" height="72" />
			</node>
			<node id="A3_1_pirated_Content">
				<name>A3_1_pirated_Content</name>
				<interior color="e5f6f7" />
				<outline color="000080" />
				<font color="000000" name="Arial" size="8" />
				<position>627 626 688 673</position>
				<barchart active="true" width="128" height="64" />
			</node>
			<node id="A3_2_Pol_Pola">
				<name>A3_2_Pol_Pola</name>
				<interior color="e5f6f7" />
				<outline color="000080" />
				<font color="000000" name="Arial" size="8" />
				<position>777 628 830 677</position>
				<barchart active="true" width="128" height="72" />
			</node>
			<node id="A3_3_time_overrun">
				<name>A3_3_time_overrun</name>
				<interior color="e5f6f7" />
				<outline color="000080" />
				<font color="000000" name="Arial" size="8" />
				<position>907 629 965 678</position>
				<barchart active="true" width="128" height="64" />
			</node>
			<node id="A3_4_Pol_Bullied">
				<name>A3_4_Pol_Bullied</name>
				<interior color="e5f6f7" />
				<outline color="000080" />
				<font color="000000" name="Arial" size="8" />
				<position>1047 624 1097 672</position>
				<barchart active="true" width="128" height="72" />
			</node>
			<node id="A3_5_remind_Matthew">
				<name>A3_5_remind_Matthew</name>
				<interior color="e5f6f7" />
				<outline color="000080" />
				<font color="000000" name="Arial" size="8" />
				<position>1177 621 1232 672</position>
				<barchart active="true" width="128" height="72" />
			</node>
			<node id="A3_6_Talk_Pol">
				<name>A3_6_Talk_Pol</name>
				<interior color="e5f6f7" />
				<outline color="000080" />
				<font color="000000" name="Arial" size="8" />
				<position>1308 621 1364 671</position>
				<barchart active="true" width="128" height="64" />
			</node>
			<node id="A3_7_Help_Pol">
				<name>A3_7_Help_Pol</name>
				<interior color="e5f6f7" />
				<outline color="000080" />
				<font color="000000" name="Arial" size="8" />
				<position>1442 623 1495 671</position>
				<barchart active="true" width="128" height="90" />
			</node>
			<node id="Honesty">
				<name>Honesty</name>
				<interior color="e5f6f7" />
				<outline color="000080" />
				<font color="000000" name="Arial" size="8" />
				<position>700 760 756 795</position>
				<barchart active="true" width="128" height="90" />
			</node>
			<node id="Self_Esteem">
				<name>Self-Esteem</name>
				<interior color="e5f6f7" />
				<outline color="000080" />
				<font color="000000" name="Arial" size="8" />
				<position>1038 423 1109 467</position>
				<barchart active="true" width="128" height="72" />
			</node>
		</genie>
	</extensions>
</smile>
