<?xml version="1.0" encoding="UTF-8"?>
<!-- This network was created in GeNIe Academic, which can be used for academic teaching and research purposes only -->
<smile version="1.0" id="Network1" numsamples="10000" discsamples="10000">
	<nodes>
		<cpt id="Age">
			<state id="Age_12" />
			<state id="Age_13" />
			<state id="Age_14" />
			<state id="Age_15" />
			<state id="Age_16" />
			<probabilities>0.2 0.2 0.2 0.2 0.2</probabilities>
			<property id="DSL_OUTCOME_ORDER">1</property>
		</cpt>
		<cpt id="Gender">
			<state id="Male" />
			<state id="Female" />
			<state id="NonBinary" />
			<probabilities>0.48 0.48 0.04</probabilities>
		</cpt>
		<cpt id="Sexual_Orientation">
			<state id="Heterosexual" />
			<state id="NonHeterosexual" />
			<probabilities>0.8046537685208636 0.1953462314791364</probabilities>
		</cpt>
		<cpt id="Migratory_background">
			<state id="State0" />
			<state id="State1" />
			<state id="State2" />
			<probabilities>0.6718000615884213 0.1301945984154979 0.1980053399960807</probabilities>
			<property id="DSL_OUTCOME_ORDER">1</property>
		</cpt>
		<cpt id="Self_Esteem">
			<state id="State0" />
			<state id="State1" />
			<state id="State2" />
			<probabilities>0.1937158464208729 0.4073719940651158 0.3989121595140113</probabilities>
			<property id="DSL_OUTCOME_ORDER">1</property>
		</cpt>
		<cpt id="Social_Support">
			<state id="State0" />
			<state id="State1" />
			<state id="State2" />
			<probabilities>0.06334201170180007 0.2278998348310518 0.7087581534671482</probabilities>
			<property id="DSL_OUTCOME_ORDER">1</property>
		</cpt>
		<cpt id="Family_Support">
			<state id="State0" />
			<state id="State1" />
			<state id="State2" />
			<parents>Gender Age</parents>
			<probabilities>0.1274659583115535 0.1075114892588791 0.7650225524295674 0.0004096798329703838 0.08032065976617994 0.9192696604008497 0.05437536457796367 0.3435424308180046 0.6020822046040317 0.06687873192971021 0.2594089398431073 0.6737123282271825 0.06290637548623224 0.1848501696493877 0.7522434548643799 0.1167268914572686 0.1673742252391031 0.7158988833036283 0.1149639877856075 0.1883337773064712 0.6967022349079214 0.1420853911788188 0.2814962968807689 0.5764183119404123 0.1810696550647644 0.2440459484871176 0.5748843964481182 0.03013805829037525 0.4747667632229393 0.4950951784866855 0.421582026168997 0.3479459088734724 0.2304720649575307 0.05862972854035072 0.06066245770158673 0.8807078137580625 0.5393870140570435 0.05474177076452118 0.4058712151784354 0.07537038964302986 0.1805345409117021 0.7440950694452682 0.88024768265946 0.05726717313985855 0.06248514420068149</probabilities>
			<property id="DSL_OUTCOME_ORDER">1</property>
		</cpt>
		<cpt id="Hours_Internet">
			<state id="State0" />
			<state id="State1" />
			<state id="State2" />
			<state id="State3" />
			<state id="State4" />
			<parents>Family_Support Social_Support Age</parents>
			<probabilities>0.8275037793213995 0.1177744326697181 0.01824059600296082 0.01824059600296082 0.01824059600296082 0.315558529132922 0.3878412290818599 0.129763168080127 0.129763168080127 0.0370739056249642 0.1008740569872101 0.5965037720511597 0.1008740569872101 0.1008740569872101 0.1008740569872101 0.05678965850403169 0.05795929865063391 0.5831646649716028 0.2859740628198963 0.01611231505383521 0.5638874005018929 0.02116571424823741 0.1110443258391777 0.2828196072544629 0.02108295215622912 0.03085943421730282 0.386236925836442 0.03161419302437416 0.5204300127045781 0.03085943421730282 0.6621926392532562 0.1852469747643942 0.05136799708310569 0.05059619444962198 0.05059619444962198 0.03700765989505761 0.03700765989505761 0.7561358435356852 0.132841176779142 0.03700765989505761 0.009654173397355354 0.23932071445368 0.05483139459848996 0.6865395441531194 0.009654173397355354 0.03626121385484074 0.03626121385484074 0.04135830865670654 0.3755503459505262 0.5105689176830858 0.08543094690806938 0.02674299613305591 0.4864473147054975 0.3775266740488392 0.02385206820453797 0.04765400417369406 0.07938443591908263 0.7728496859014093 0.05245786983212017 0.04765400417369406 0.02338559573282021 0.3004013156861087 0.2848013231078279 0.3680261697404229 0.02338559573282021 0.2390620102201823 0.09376174549070102 0.3223953435535156 0.3240979969853976 0.02068290375020346 0.1405631599852953 0.1673183090915512 0.1405631599852953 0.4109922109525629 0.1405631599852953 0.1105378584450194 0.4432980041748993 0.02978522231866254 0.3865936927427563 0.02978522231866254 0.7928489979642458 0.08879472741075239 0.08879472741075239 0.01478077360712469 0.01478077360712469 0.3916782995251207 0.3499996562754238 0.01666366900379289 0.2249947061918697 0.01666366900379289 0.07998921256950695 0.07998921256950695 0.4800394046227665 0.2799929576687126 0.07998921256950695 0.05550023476508172 0.2500829811857108 0.583416314519044 0.05550023476508172 0.05550023476508172 0.1434592064044645 0.2260605831146459 0.3402960640591665 0.2718580460627332 0.01832610035898999 0.3320203966952807 0.01039827592964543 0.3503105201609355 0.3044125850181632 0.00285822219597497 0.01053675132551463 0.4749766823364924 0.4951303494460287 0.01783894747991169 0.001517269412052575 0.09435077596066752 0.2015445368297231 0.4080554880456507 0.2951729327497508 0.0008762664142079269 0.1203204995831684 0.8109417717846276 0.01727724005783164 0.04675000651462475 0.004710482059747553 0.01676291994720345 0.5107732555371154 0.0287923355413773 0.4269085690271003 0.01676291994720345 0.04540374012289362 0.0448404981150143 0.7360841820008795 0.1609323447845075 0.01273923497670486 0.002886480608762393 0.002886480608762393 0.4496655709828886 0.3961294583990773 0.1484320094005095 0.1461397410293901 0.1447133156774016 0.1456421073596158 0.4135436274018032 0.1499612085317893 0.002569091702873684 0.2158150816338933 0.7124586899337749 0.0665880450265843 0.002569091702873684 0.5314867750825988 0.07207895767960018 0.2522763518786006 0.07207895767960018 0.07207895767960018 0.3416657305234542 0.101282195304084 0.3544876835642938 0.101282195304084 0.101282195304084 0.1365794440929226 0.35313224102397 0.0785780369295687 0.35313224102397 0.0785780369295687 0.09027013305568769 0.6981825103350453 0.07051578553642235 0.07051578553642235 0.07051578553642235 0.02104823296116517 0.2133906422247989 0.3916814701704515 0.3573703935280312 0.01650926111555332 0.005627683798648951 0.1053475840667615 0.4392954280933554 0.2810812801760717 0.1686480238651623 0.005516756761526582 0.2147086371715179 0.7546544610012009 0.0236423126236356 0.001477832442118858 0.006305349904521512 0.07364817666484462 0.1169230067379738 0.7602392041141701 0.04288426257848999 0.002979765942073793 0.0128963544041812 0.5466204561610778 0.4367412796779263 0.0007621438147409379 0.01144710736899559 0.2255251830235627 0.6166974605783745 0.1364489857610119 0.009881263268055071 0.0006744878269610674 0.489587739510072 0.394601635821049 0.1148256362521095 0.0003105005898085987 0.168691180919816 0.4888110592051476 0.1273432415859432 0.2147747432652772 0.0003797750238161593 0.07741914653019145 0.3190576618503141 0.07502825188872057 0.5274325208851167 0.001062418845657269 0.05910340853534589 0.219709314334344 0.5191986909805009 0.2016726627019331 0.0003159234478761738 0.1716488630221747 0.1554810770778667 0.2966592341683122 0.3755001062006713 0.0007107195309749573</probabilities>
			<property id="DSL_OUTCOME_ORDER">1</property>
		</cpt>
		<cpt id="Previous_Victimization">
			<state id="State0" />
			<state id="State1" />
			<parents>Self_Esteem Sexual_Orientation Migratory_background Social_Support Family_Support Hours_Internet Gender Age</parents>
			<probabilities>0.4 0.6 0.9 0.1 0.9 0.1 0.9 0.1 0.9 0.1 0.9 0.1 0.9 0.1 0.9 0.1 0.9293888173977107 0.07061118260228917 0.9 0.1 0.9 0.1 0.9 0.1 0.9 0.1 0.9 0.1 0.9 0.1 0.9 0.1 0.9 0.1 0.9 0.1 0.9 0.1 0.9 0.1 0.9 0.1 0.9 0.1 0.9 0.1 0.9 0.1 0.9 0.1 0.9 0.1 0.9 0.1 0.9 0.1 0.9 0.1 0.9 0.1 0.9 0.1 0.9 0.1 0.9 0.1 0.9 0.1 0.9 0.1 0.9 0.1 0.9 0.1 0.9 0.1 0.6130235748288492 0.3869764251711509 0.9 0.1 0.9 0.1 0.9 0.1 0.9 0.1 0.9 0.1 0.9 0.1 0.9 0.1 0.6 0.4 0.9 0.1 0.8903089535932338 0.1096910464067664 0.4154782218989305 0.5845217781010694 0.9 0.1 0.9 0.1 0.9 0.1 0.4049266607244673 0.5950733392755327 0.9 0.1 0.9 0.1 0.9 0.1 0.9 0.1 0.8933471768244985 0.1066528231755014 0.9 0.1 0.9 0.1 0.9 0.1 0.9 0.1 0.9 0.1 0.6130235748288492 0.3869764251711509 0.9 0.1 0.9 0.1 0.9 0.1 0.9 0.1 0.9 0.1 0.9 0.1 0.9 0.1 0.9 0.1 0.9 0.1 0.9 0.1 0.8533933259531371 0.146606674046863 0.9183385695879874 0.08166143041201254 0.9 0.1 0.9 0.1 0.9 0.1 0.9 0.1 0.9 0.1 0.9 0.1 0.9 0.1 0.9 0.1 0.9 0.1 0.9 0.1 0.9 0.1 0.9 0.1 0.9 0.1 0.8543753845322931 0.145624615467707 0.907573482992586 0.09242651700741393 0.9 0.1 0.9 0.1 0.9 0.1 0.9 0.1 0.9 0.1 0.9 0.1 0.9 0.1 0.9 0.1 0.9 0.1 0.9 0.1 0.9 0.1 0.9 0.1 0.9 0.1 0.8902323768746041 0.109767623125396 0.907573482992586 0.09242651700741393 0.9 0.1 0.9 0.1 0.9 0.1 0.9 0.1 0.9 0.1 0.9 0.1 0.6 0.4 0.4 0.6 0.9 0.1 0.9 0.1 0.9 0.1 0.6 0.4 0.9 0.1 0.3954449399370675 0.6045550600629326 0.9013257672497521 0.0986742327502478 0.9 0.1 0.9 0.1 0.9 0.1 0.6882775465458475 0.3117224534541526 0.9 0.1 0.9 0.1 0.9 0.1 0.9 0.1 0.8952221427050927 0.1047778572949072 0.9 0.1 0.9 0.1 0.9 0.1 0.9 0.1 0.8902323768746041 0.109767623125396 0.9013257672497521 0.0986742327502478 0.9 0.1 0.9 0.1 0.9 0.1 0.9 0.1 0.9 0.1 0.9 0.1 0.9 0.1 0.9 0.1 0.9 0.1 0.9 0.1 0.9 0.1 0.9 0.1 0.9 0.1 0.9 0.1 0.9 0.1 0.9 0.1 0.9 0.1 0.8913078058088363 0.1086921941911637 0.9 0.1 0.9 0.1 0.9 0.1 0.9 0.1 0.9 0.1 0.9 0.1 0.9 0.1 0.9 0.1 0.9 0.1 0.9 0.1 0.9 0.1 0.9 0.1 0.9 0.1 0.9 0.1 0.8044622582842132 0.1955377417157867 0.9 0.1 0.9 0.1 0.9 0.1 0.9 0.1 0.9 0.1 0.9 0.1 0.9 0.1 0.9 0.1 0.9 0.1 0.9 0.1 0.9 0.1 0.9293888173977107 0.07061118260228917 0.9 0.1 0.9 0.1 0.8676900171043759 0.1323099828956242 0.9 0.1 0.9 0.1 0.9 0.1 0.9 0.1 0.9 0.1 0.9 0.1 0.9 0.1 0.9 0.1 0.9 0.1 0.9 0.1 0.9 0.1 0.9 0.1 0.6 0.4 0.9 0.1 0.450463560095314 0.5495364399046861 0.9 0.1 0.9 0.1 0.9 0.1 0.9 0.1 0.9 0.1 0.9 0.1 0.9 0.1 0.9 0.1 0.9 0.1 0.9 0.1 0.9 0.1 0.9 0.1 0.9 0.1 0.9 0.1 0.8925168924566401 0.10748310754336 0.9 0.1 0.9 0.1 0.9 0.1 0.9 0.1 0.9 0.1 0.9 0.1 0.9 0.1 0.9 0.1 0.9 0.1 0.9 0.1 0.9 0.1 0.9 0.1 0.9 0.1 0.8954063749695106 0.1045936250304894 0.9 0.1 0.9 0.1 0.9 0.1 0.9 0.1 0.8919005081514749 0.1080994918485251 0.8855741198303642 0.1144258801696358 0.9 0.1 0.9 0.1 0.9 0.1 0.9 0.1 0.9 0.1 0.9 0.1 0.9 0.1 0.9 0.1 0.8814381605686263 0.1185618394313737 0.9 0.1 0.9 0.1 0.9 0.1 0.9 0.1 0.8602906900082692 0.1397093099917308 0.8855741198303642 0.1144258801696358 0.9 0.1 0.9 0.1 0.9 0.1 0.9 0.1 0.9 0.1 0.9 0.1 0.9 0.1 0.9 0.1 0.5411532392130469 0.4588467607869531 0.9 0.1 0.9 0.1 0.9 0.1 0.9 0.1 0.8581045676007925 0.1418954323992075 0.8839160381540008 0.1160839618459992 0.9 0.1 0.9 0.1 0.9 0.1 0.9 0.1 0.9 0.1 0.9 0.1 0.9 0.1 0.9 0.1 0.4435670390885693 0.5564329609114307 0.9 0.1 0.4 0.6 0.9 0.1 0.9 0.1 0.6451832256334187 0.3548167743665813 0.9271381617563388 0.07286183824366112 0.9 0.1 0.9 0.1 0.9 0.1 0.9 0.1 0.9 0.1 0.9 0.1 0.9 0.1 0.9 0.1 0.8954063749695106 0.1045936250304894 0.9 0.1 0.9 0.1 0.9 0.1 0.9 0.1 0.8919005081514749 0.1080994918485251 0.6659648719943618 0.3340351280056383 0.9 0.1 0.9 0.1 0.9 0.1 0.9 0.1 0.9 0.1 0.9069136982281782 0.09308630177182187 0.9347916528833312 0.06520834711666885 0.9 0.1 0.8894245754015502 0.1105754245984499 0.585864626757726 0.4141353732422741 0.9 0.1 0.9 0.1 0.9 0.1 0.92282619115648 0.07717380884351988 0.8818464005966051 0.118153599403395 0.9 0.1 0.9 0.1 0.9 0.1 0.9 0.1 0.9 0.1 0.6239837415317927 0.3760162584682074 0.8850213889894353 0.1149786110105646 0.9 0.1 0.8738150714685068 0.1261849285314934 0.3155612490694303 0.6844387509305697 0.9 0.1 0.9 0.1 0.9 0.1 0.5723061967791379 0.4276938032208621 0.4796780984761854 0.5203219015238146 0.9 0.1 0.9 0.1 0.9 0.1 0.9 0.1 0.9 0.1 0.9159258474822191 0.08407415251778089 0.8168013625354209 0.1831986374645791 0.9 0.1 0.2393227888668152 0.760677211133185 0.943002934450441 0.05699706554955904 0.7373140569318906 0.2626859430681094 0.9 0.1 0.9 0.1 0.744093448733945 0.255906551266055 0.8750801518614287 0.1249198481385712 0.9 0.1 0.9 0.1 0.9 0.1 0.9 0.1 0.9 0.1 0.908775225319929 0.09122477468007099 0.6700652928754084 0.3299347071245916 0.9 0.1 0.8668268938500979 0.133173106149902 0.9131611342543821 0.08683886574561797 0.9497487283663568 0.05025127163364305 0.9 0.1 0.9 0.1 0.9356365845752259 0.06436341542477425 0.911741391247145 0.08825860875285498 0.9 0.1 0.9 0.1 0.9 0.1 0.9 0.1 0.9004349737029574 0.09956502629704252 0.9042542471764788 0.0957457528235211 0.8962200803589792 0.1037799196410208 0.9 0.1 0.8975442097111217 0.1024557902888785 0.9323801677019409 0.06761983229805923 0.9 0.1 0.9 0.1 0.9 0.1 0.8968928567404294 0.1031071432595706 0.895335788072514 0.1046642119274859 0.9 0.1 0.9 0.1 0.9 0.1 0.9 0.1 0.9 0.1 0.9 0.1 0.9 0.1 0.9 0.1 0.8915441766676337 0.1084558233323662 0.9 0.1 0.9 0.1 0.9 0.1 0.9 0.1 0.9 0.1 0.9 0.1 0.9 0.1 0.9 0.1 0.9 0.1 0.9 0.1 0.9 0.1 0.9 0.1 0.9333333333333332 0.06666666666666667 0.9 0.1 0.9068985884304805 0.09310141156951947 0.9 0.1 0.9 0.1 0.9 0.1 0.9 0.1 0.9 0.1 0.6977206210467048 0.3022793789532951 0.9 0.1 0.9 0.1 0.9 0.1 0.9 0.1 0.9 0.1 0.9 0.1 0.9333333333333332 0.06666666666666667 0.9 0.1 0.6955593438604858 0.3044406561395142 0.6977206210467048 0.3022793789532951 0.9 0.1 0.9 0.1 0.9 0.1 0.9628598910191226 0.03714010898087733 0.3139987832165632 0.6860012167834368 0.9 0.1 0.9 0.1 0.9 0.1 0.9 0.1 0.9 0.1 0.8276256985527807 0.1723743014472193 0.9 0.1 0.9333333333333332 0.06666666666666667 0.7762786706701293 0.2237213293298707 0.9555555555555557 0.04444444444444445 0.9 0.1 0.9 0.1 0.6 0.4 0.9 0.1 0.9 0.1 0.9 0.1 0.9 0.1 0.9 0.1 0.9 0.1 0.9 0.1 0.9 0.1 0.9 0.1 0.9 0.1 0.897958628558397 0.102041371441603 0.9 0.1 0.9 0.1 0.9 0.1 0.9 0.1 0.9 0.1 0.9 0.1 0.9 0.1 0.9 0.1 0.9 0.1 0.9 0.1 0.9 0.1 0.9333333333333332 0.06666666666666667 0.9 0.1 0.9 0.1 0.9 0.1 0.9 0.1 0.8710862765739057 0.1289137234260944 0.9 0.1 0.9 0.1 0.9 0.1 0.9 0.1 0.9 0.1 0.9 0.1 0.9 0.1 0.9 0.1 0.9 0.1 0.9 0.1 0.9 0.1 0.9 0.1 0.9 0.1 0.9 0.1 0.892430377068243 0.1075696229317571 0.9 0.1 0.9555555555555555 0.04444444444444445 0.9 0.1 0.9 0.1 0.9 0.1 0.9 0.1 0.9 0.1 0.9 0.1 0.9 0.1 0.9 0.1 0.9 0.1 0.9 0.1 0.9 0.1 0.9 0.1 0.2270379726816885 0.7729620273183115 0.9 0.1 0.9 0.1 0.9497487283663568 0.05025127163364305 0.9 0.1 0.9 0.1 0.9 0.1 0.9 0.1 0.9 0.1 0.9 0.1 0.9 0.1 0.9 0.1 0.9 0.1 0.9 0.1 0.9 0.1 0.8079967329110652 0.1920032670889347 0.9 0.1 0.9 0.1 0.9497487283663568 0.05025127163364305 0.9 0.1 0.9 0.1 0.9 0.1 0.9 0.1 0.9 0.1 0.9 0.1 0.9 0.1 0.9 0.1 0.9 0.1 0.9 0.1 0.9 0.1 0.893299807197814 0.106700192802186 0.9 0.1 0.9 0.1 0.9 0.1 0.9 0.1 0.9 0.1 0.9 0.1 0.9 0.1 0.9 0.1 0.9 0.1 0.9 0.1 0.9069753115116794 0.0930246884883206 0.8963489304022662 0.1036510695977339 0.9095819110893434 0.09041808891065657 0.9009505621698974 0.09904943783010264 0.9 0.1 0.9 0.1 0.9 0.1 0.9293888173977107 0.07061118260228917 0.9 0.1 0.9 0.1 0.9 0.1 0.9 0.1 0.9 0.1 0.9 0.1 0.9 0.1 0.9068913294071734 0.09310867059282651 0.8963489304022662 0.1036510695977339 0.3154094277158659 0.6845905722841341 0.9077305113066222 0.09226948869337789 0.9497487283663568 0.05025127163364305 0.9 0.1 0.9 0.1 0.9 0.1 0.9 0.1 0.9 0.1 0.9 0.1 0.9 0.1 0.9 0.1 0.9 0.1 0.9 0.1 0.9383728500781792 0.06162714992182087 0.7599646392478833 0.2400353607521168 0.6267333509846639 0.3732666490153362 0.9184757470649372 0.08152425293506271 0.9 0.1 0.9 0.1 0.3020804957674355 0.6979195042325645 0.9 0.1 0.9 0.1 0.9 0.1 0.9 0.1 0.9 0.1 0.9 0.1 0.9 0.1 0.9500643647698628 0.04993563523013712 0.9222201813052584 0.0777798186947417 0.5066376614832716 0.4933623385167285 0.9446850664569265 0.05531493354307366 0.640803648415594 0.359196351584406 0.9 0.1 0.9 0.1 0.9 0.1 0.4647248482104668 0.5352751517895331 0.3847473537168839 0.615252646283116 0.9 0.1 0.9 0.1 0.9 0.1 0.9 0.1 0.9 0.1 0.9 0.1 0.9020194823031025 0.09798051769689756 0.8727946821717478 0.1272053178282522 0.9586398542203074 0.04136014577969246 0.9009505621698974 0.09904943783010264 0.9 0.1 0.9 0.1 0.9 0.1 0.9 0.1 0.9 0.1 0.9 0.1 0.9 0.1 0.9 0.1 0.9 0.1 0.9 0.1 0.8999139569475447 0.1000860430524554 0.87588722829337 0.1241127717066302 0.8884967936570236 0.1115032063429763 0.8731643170283924 0.1268356829716075 0.8905782612238944 0.1094217387761056 0.9 0.1 0.4 0.6 0.9 0.1 0.9033593227817013 0.09664067721829868 0.9 0.1 0.9 0.1 0.9 0.1 0.9 0.1 0.9 0.1 0.9 0.1 0.9144044067796743 0.0855955932203257 0.6807391333593553 0.3192608666406447 0.893463807194699 0.106536192805301 0.3225047394290418 0.6774952605709581 0.8899131558531189 0.1100868441468812 0.9529889801550732 0.04701101984492673 0.9333333333333332 0.06666666666666667 0.9 0.1 0.9361513689813968 0.06384863101860326 0.417017941549028 0.582982058450972 0.9 0.1 0.9 0.1 0.9 0.1 0.9 0.1 0.9 0.1 0.859637332105617 0.1403626678943829 0.7648077928718514 0.2351922071281486 0.8822462388337574 0.1177537611662428 0.4684071496561673 0.5315928503438327 0.8832467825247207 0.1167532174752794 0.9 0.1 0.9 0.1 0.9 0.1 0.9146825159134652 0.08531748408653472 0.95 0.05 0.9 0.1 0.9 0.1 0.9 0.1 0.9 0.1 0.9 0.1 0.9023734587788943 0.09762654122110576 0.8271442395789553 0.1728557604210446 0.8837881675004865 0.1162118324995135 0.7189786769426731 0.281021323057327 0.915987612404077 0.08401238759592311 0.9 0.1 0.9 0.1 0.6 0.4 0.9115806542168798 0.08841934578312026 0.6130235748288492 0.3869764251711509 0.9 0.1 0.9 0.1 0.9 0.1 0.9 0.1 0.9 0.1 0.899981652601147 0.100018347398853 0.5953694854216184 0.4046305145783816 0.8982212964514016 0.1017787035485984 0.8899827656326007 0.1100172343673994 0.8988655152376196 0.1011344847623804 0.9 0.1 0.9 0.1 0.9333333333333332 0.06666666666666667 0.901932235134086 0.09806776486591388 0.9 0.1 0.9 0.1 0.9 0.1 0.9 0.1 0.9 0.1 0.9 0.1 0.9 0.1 0.9 0.1 0.9 0.1 0.9 0.1 0.9 0.1 0.9 0.1 0.9 0.1 0.9 0.1 0.9 0.1 0.9 0.1 0.9 0.1 0.9 0.1 0.9 0.1 0.9 0.1 0.9 0.1 0.9 0.1 0.9 0.1 0.9 0.1 0.9 0.1 0.9 0.1 0.9 0.1 0.9 0.1 0.9 0.1 0.9 0.1 0.9 0.1 0.9 0.1 0.9 0.1 0.9 0.1 0.9 0.1 0.9 0.1 0.9 0.1 0.9 0.1 0.9 0.1 0.9 0.1 0.9 0.1 0.9 0.1 0.9 0.1 0.9 0.1 0.9 0.1 0.9 0.1 0.9 0.1 0.9 0.1 0.9 0.1 0.9 0.1 0.9 0.1 0.9 0.1 0.9 0.1 0.9 0.1 0.9 0.1 0.9 0.1 0.9 0.1 0.9 0.1 0.9 0.1 0.9 0.1 0.9 0.1 0.9 0.1 0.9 0.1 0.9 0.1 0.9 0.1 0.9 0.1 0.9 0.1 0.9 0.1 0.9 0.1 0.9 0.1 0.9 0.1 0.9 0.1 0.9 0.1 0.9 0.1 0.9 0.1 0.9 0.1 0.9 0.1 0.9 0.1 0.9 0.1 0.9 0.1 0.9 0.1 0.9 0.1 0.9 0.1 0.9 0.1 0.9 0.1 0.9 0.1 0.9 0.1 0.9 0.1 0.9 0.1 0.9 0.1 0.9 0.1 0.9 0.1 0.9 0.1 0.9 0.1 0.9 0.1 0.9 0.1 0.9 0.1 0.9 0.1 0.9 0.1 0.9 0.1 0.9 0.1 0.9 0.1 0.9 0.1 0.9 0.1 0.9 0.1 0.9 0.1 0.9 0.1 0.9 0.1 0.9 0.1 0.9 0.1 0.9 0.1 0.9 0.1 0.9 0.1 0.9 0.1 0.9 0.1 0.9 0.1 0.9 0.1 0.9 0.1 0.9 0.1 0.9 0.1 0.9 0.1 0.9 0.1 0.9 0.1 0.9 0.1 0.9 0.1 0.9 0.1 0.9 0.1 0.9 0.1 0.9 0.1 0.9 0.1 0.9 0.1 0.9 0.1 0.9 0.1 0.9 0.1 0.9 0.1 0.9 0.1 0.9 0.1 0.9 0.1 0.9 0.1 0.9 0.1 0.9 0.1 0.9 0.1 0.9 0.1 0.9 0.1 0.9 0.1 0.9 0.1 0.9 0.1 0.9 0.1 0.9 0.1 0.9 0.1 0.9 0.1 0.9 0.1 0.9 0.1 0.9 0.1 0.9 0.1 0.9 0.1 0.9 0.1 0.9 0.1 0.9 0.1 0.9 0.1 0.9 0.1 0.9 0.1 0.9 0.1 0.9 0.1 0.9 0.1 0.9 0.1 0.9 0.1 0.9 0.1 0.9 0.1 0.9 0.1 0.9 0.1 0.9 0.1 0.9 0.1 0.9 0.1 0.9 0.1 0.9 0.1 0.9 0.1 0.9 0.1 0.9 0.1 0.9 0.1 0.9 0.1 0.9 0.1 0.9 0.1 0.9 0.1 0.9 0.1 0.9 0.1 0.9 0.1 0.9 0.1 0.9 0.1 0.9 0.1 0.9 0.1 0.9 0.1 0.9 0.1 0.9 0.1 0.9 0.1 0.9 0.1 0.9 0.1 0.9 0.1 0.9 0.1 0.9 0.1 0.9 0.1 0.9 0.1 0.9 0.1 0.9 0.1 0.9 0.1 0.9 0.1 0.9 0.1 0.9 0.1 0.9 0.1 0.9 0.1 0.9 0.1 0.9 0.1 0.9 0.1 0.9 0.1 0.9 0.1 0.9 0.1 0.9 0.1 0.9 0.1 0.9 0.1 0.9 0.1 0.9 0.1 0.9 0.1 0.9 0.1 0.9 0.1 0.9 0.1 0.9 0.1 0.9 0.1 0.9 0.1 0.9 0.1 0.9 0.1 0.9 0.1 0.9 0.1 0.9 0.1 0.9 0.1 0.9 0.1 0.9 0.1 0.9 0.1 0.4261197455533323 0.5738802544466677 0.9 0.1 0.9 0.1 0.9 0.1 0.9 0.1 0.9 0.1 0.9 0.1 0.9 0.1 0.9 0.1 0.9 0.1 0.9 0.1 0.9 0.1 0.9 0.1 0.9 0.1 0.9 0.1 0.8509466963154426 0.1490533036845574 0.9 0.1 0.9 0.1 0.9 0.1 0.9 0.1 0.9 0.1 0.9 0.1 0.9 0.1 0.9 0.1 0.9 0.1 0.9 0.1 0.9 0.1 0.9 0.1 0.9 0.1 0.9 0.1 0.8891145143834501 0.1108854856165498 0.9 0.1 0.9 0.1 0.9 0.1 0.9 0.1 0.9 0.1 0.9 0.1 0.9 0.1 0.9 0.1 0.9 0.1 0.9 0.1 0.9 0.1 0.9 0.1 0.9 0.1 0.9 0.1 0.8892666242528696 0.1107333757471304 0.9 0.1 0.6130235748288492 0.3869764251711509 0.9 0.1 0.9 0.1 0.9 0.1 0.9 0.1 0.9 0.1 0.9 0.1 0.9 0.1 0.9 0.1 0.9 0.1 0.9 0.1 0.9 0.1 0.9 0.1 0.8892666242528696 0.1107333757471304 0.9 0.1 0.9 0.1 0.9 0.1 0.9 0.1 0.9 0.1 0.9 0.1 0.9 0.1 0.9 0.1 0.9 0.1 0.8990327686647105 0.1009672313352895 0.9 0.1 0.9 0.1 0.9 0.1 0.6 0.4 0.9 0.1 0.8796080407833646 0.1203919592166353 0.8580494835253671 0.1419505164746329 0.9 0.1 0.9 0.1 0.9 0.1 0.9 0.1 0.9 0.1 0.9 0.1 0.9 0.1 0.8997595809925765 0.1002404190074235 0.9 0.1 0.9 0.1 0.6167059264490824 0.3832940735509177 0.9 0.1 0.9 0.1 0.5139335487160918 0.4860664512839083 0.8685349488935463 0.1314650511064538 0.9 0.1 0.9 0.1 0.9 0.1 0.9 0.1 0.9 0.1 0.9 0.1 0.9 0.1 0.8988856827333727 0.1011143172666275 0.9 0.1 0.9 0.1 0.9 0.1 0.9 0.1 0.9 0.1 0.763288760402385 0.236711239597615 0.8441646195035646 0.1558353804964354 0.9 0.1 0.9 0.1 0.9 0.1 0.9 0.1 0.9 0.1 0.9 0.1 0.9 0.1 0.6685434016946565 0.3314565983053436 0.9 0.1 0.6 0.4 0.9 0.1 0.9 0.1 0.6 0.4 0.8623121352160649 0.1376878647839352 0.732437028481071 0.267562971518929 0.9 0.1 0.9 0.1 0.9 0.1 0.9 0.1 0.9 0.1 0.9 0.1 0.9 0.1 0.8999577705477423 0.1000422294522577 0.9 0.1 0.9 0.1 0.9 0.1 0.9 0.1 0.9 0.1 0.8974833815048485 0.1025166184951515 0.8914794026546008 0.1085205973453993 0.9 0.1 0.9 0.1 0.9 0.1 0.9 0.1 0.9 0.1 0.9 0.1 0.9 0.1 0.9 0.1 0.9 0.1 0.9 0.1 0.9 0.1 0.9 0.1 0.8918865307631773 0.1081134692368227 0.9 0.1 0.9 0.1 0.9 0.1 0.9 0.1 0.9 0.1 0.9 0.1 0.9 0.1 0.9 0.1 0.9 0.1 0.9 0.1 0.9 0.1 0.9 0.1 0.9 0.1 0.9 0.1 0.7267043132250456 0.2732956867749544 0.9 0.1 0.9 0.1 0.9 0.1 0.9 0.1 0.9 0.1 0.9 0.1 0.9 0.1 0.9 0.1 0.9 0.1 0.9 0.1 0.9 0.1 0.9333333333333332 0.06666666666666667 0.9 0.1 0.9 0.1 0.8246633357664668 0.1753366642335331 0.9 0.1 0.9 0.1 0.9 0.1 0.9 0.1 0.9 0.1 0.9 0.1 0.9 0.1 0.9 0.1 0.9 0.1 0.9 0.1 0.9 0.1 0.9 0.1 0.9 0.1 0.9 0.1 0.8550941728197957 0.1449058271802042 0.9 0.1 0.9 0.1 0.9 0.1 0.9 0.1 0.9 0.1 0.9 0.1 0.9 0.1 0.9 0.1 0.9 0.1 0.9 0.1 0.9 0.1 0.9 0.1 0.9 0.1 0.9 0.1 0.8979733188957733 0.1020266811042267 0.9 0.1 0.9 0.1 0.9 0.1 0.9 0.1 0.9 0.1 0.9 0.1 0.9 0.1 0.9 0.1 0.9 0.1 0.9 0.1 0.9 0.1 0.9 0.1 0.9 0.1 0.9 0.1 0.8795427865190261 0.1204572134809739 0.9 0.1 0.9 0.1 0.9 0.1 0.9 0.1 0.9 0.1 0.9 0.1 0.9 0.1 0.9 0.1 0.9 0.1 0.9 0.1 0.9 0.1 0.9 0.1 0.9 0.1 0.9 0.1 0.8603939046265455 0.1396060953734544 0.9 0.1 0.9 0.1 0.9 0.1 0.9 0.1 0.9 0.1 0.9 0.1 0.9 0.1 0.9 0.1 0.9 0.1 0.9 0.1 0.9 0.1 0.9 0.1 0.9 0.1 0.9 0.1 0.4342602364425655 0.5657397635574345 0.9 0.1 0.9 0.1 0.9 0.1 0.9 0.1 0.9 0.1 0.9 0.1 0.9 0.1 0.9 0.1 0.9 0.1 0.9 0.1 0.9 0.1 0.9 0.1 0.9 0.1 0.9 0.1 0.8766123127191143 0.1233876872808857 0.9 0.1 0.9 0.1 0.9 0.1 0.9 0.1 0.9 0.1 0.9 0.1 0.9 0.1 0.9 0.1 0.9 0.1 0.9 0.1 0.9 0.1 0.9 0.1 0.9 0.1 0.9 0.1 0.8795427865190261 0.1204572134809739 0.9 0.1 0.9 0.1 0.9 0.1 0.9 0.1 0.9 0.1 0.9 0.1 0.9 0.1 0.9 0.1 0.9 0.1 0.9 0.1 0.9 0.1 0.9 0.1 0.9 0.1 0.9 0.1 0.889817716119948 0.110182283880052 0.9 0.1 0.9 0.1 0.9 0.1 0.9 0.1 0.9 0.1 0.9 0.1 0.9 0.1 0.9 0.1 0.9 0.1 0.9 0.1 0.9 0.1 0.9 0.1 0.9 0.1 0.9 0.1 0.8937310116734498 0.1062689883265502 0.9 0.1 0.9 0.1 0.9 0.1 0.9 0.1 0.9 0.1 0.9 0.1 0.9 0.1 0.9 0.1 0.9 0.1 0.9 0.1 0.9 0.1 0.9 0.1 0.6 0.4 0.9 0.1 0.8792392913148116 0.1207607086851885 0.9 0.1 0.9 0.1 0.9 0.1 0.9 0.1 0.9 0.1 0.9 0.1 0.9 0.1 0.9 0.1 0.9 0.1 0.9 0.1 0.9 0.1 0.9 0.1 0.9 0.1 0.6 0.4 0.6184959373830001 0.3815040626169999 0.9 0.1 0.9 0.1 0.9 0.1 0.9 0.1 0.9 0.1 0.9 0.1 0.9 0.1 0.9 0.1 0.9 0.1 0.9 0.1 0.9333333333333332 0.06666666666666667 0.9 0.1 0.9 0.1 0.9 0.1 0.8974982996507674 0.1025017003492327 0.9 0.1 0.9 0.1 0.9 0.1 0.9 0.1 0.9 0.1 0.9 0.1 0.9 0.1 0.9 0.1 0.9314273672574326 0.06857263274256746 0.9 0.1 0.9 0.1 0.9 0.1 0.9 0.1 0.9 0.1 0.9 0.1 0.9 0.1 0.9 0.1 0.9 0.1 0.9 0.1 0.9 0.1 0.9 0.1 0.9 0.1 0.9 0.1 0.8379287275884636 0.1620712724115363 0.9 0.1 0.9 0.1 0.9 0.1 0.9 0.1 0.9 0.1 0.9 0.1 0.9555555555555555 0.04444444444444445 0.9 0.1 0.9 0.1 0.9 0.1 0.9 0.1 0.9 0.1 0.9 0.1 0.9 0.1 0.7354439962950461 0.2645560037049539 0.9 0.1 0.9 0.1 0.9 0.1 0.9 0.1 0.9 0.1 0.9 0.1 0.9 0.1 0.9 0.1 0.9 0.1 0.9 0.1 0.9 0.1 0.9 0.1 0.9 0.1 0.9 0.1 0.8848915249886387 0.1151084750113614 0.9 0.1 0.9333333333333332 0.06666666666666667 0.9 0.1 0.9 0.1 0.9 0.1 0.9 0.1 0.9 0.1 0.9 0.1 0.9 0.1 0.9 0.1 0.9 0.1 0.9 0.1 0.9 0.1 0.9 0.1 0.8980532470610765 0.1019467529389236 0.9 0.1 0.9 0.1 0.9 0.1 0.9 0.1 0.9 0.1 0.9 0.1 0.9 0.1 0.9 0.1 0.9 0.1 0.9 0.1 0.9 0.1 0.9 0.1 0.9 0.1 0.9 0.1 0.4190867164897338 0.5809132835102663 0.9 0.1 0.9 0.1 0.9 0.1 0.9 0.1 0.9 0.1 0.9 0.1 0.9 0.1 0.9 0.1 0.9 0.1 0.9 0.1 0.9 0.1 0.9 0.1 0.9 0.1 0.9 0.1 0.854330511039986 0.1456694889600141 0.6 0.4 0.9 0.1 0.9 0.1 0.9 0.1 0.9 0.1 0.9 0.1 0.9 0.1 0.9 0.1 0.9 0.1 0.9 0.1 0.9 0.1 0.9 0.1 0.9 0.1 0.9 0.1 0.895139182062994 0.1048608179370059 0.9 0.1 0.9 0.1 0.9 0.1 0.9 0.1 0.9 0.1 0.9 0.1 0.9 0.1 0.9 0.1 0.9 0.1 0.9 0.1 0.9 0.1 0.9 0.1 0.9 0.1 0.9 0.1 0.895139182062994 0.1048608179370059 0.9 0.1 0.9 0.1 0.9 0.1 0.9149168825192444 0.08508311748075553 0.9 0.1 0.9 0.1 0.9 0.1 0.9293888173977107 0.07061118260228917 0.9118365006725258 0.08816349932747426 0.9 0.1 0.9 0.1 0.9 0.1 0.9 0.1 0.9098427560907295 0.09015724390927049 0.895139182062994 0.1048608179370059 0.9 0.1 0.9 0.1 0.9 0.1 0.9 0.1 0.9 0.1 0.9 0.1 0.9 0.1 0.9 0.1 0.9 0.1 0.9 0.1 0.9 0.1 0.9 0.1 0.9 0.1 0.9 0.1 0.9 0.1 0.9 0.1 0.9 0.1 0.9 0.1 0.9 0.1 0.9 0.1 0.9 0.1 0.9 0.1 0.9 0.1 0.9 0.1 0.9 0.1 0.9 0.1 0.9 0.1 0.9 0.1 0.9 0.1 0.9498216877311205 0.05017831226887944 0.9 0.1 0.9 0.1 0.9 0.1 0.9 0.1 0.9 0.1 0.9 0.1 0.9 0.1 0.9 0.1 0.9 0.1 0.9 0.1 0.9 0.1 0.9 0.1 0.9 0.1 0.9 0.1 0.9 0.1 0.9 0.1 0.9 0.1 0.9 0.1 0.9 0.1 0.9 0.1 0.9 0.1 0.9 0.1 0.9 0.1 0.9 0.1 0.9 0.1 0.9 0.1 0.9 0.1 0.9 0.1 0.9 0.1 0.9 0.1 0.9 0.1 0.9 0.1 0.9 0.1 0.9 0.1 0.9 0.1 0.9 0.1 0.9 0.1 0.9 0.1 0.9 0.1 0.9 0.1 0.9 0.1 0.9 0.1 0.9 0.1 0.9 0.1 0.9 0.1 0.9 0.1 0.9 0.1 0.9 0.1 0.9 0.1 0.9 0.1 0.9 0.1 0.9 0.1 0.9 0.1 0.9 0.1 0.9 0.1 0.9 0.1 0.9 0.1 0.9 0.1 0.9 0.1 0.9 0.1 0.9 0.1 0.9 0.1 0.9 0.1 0.9 0.1 0.9 0.1 0.9 0.1 0.8889427864461158 0.1110572135538843 0.9 0.1 0.9 0.1 0.9 0.1 0.9 0.1 0.9 0.1 0.9 0.1 0.9 0.1 0.9 0.1 0.9 0.1 0.9 0.1 0.9 0.1 0.9 0.1 0.9 0.1 0.9 0.1 0.7283942005234333 0.2716057994765667 0.9 0.1 0.9 0.1 0.9 0.1 0.9 0.1 0.9 0.1 0.9 0.1 0.9 0.1 0.9 0.1 0.9 0.1 0.9 0.1 0.9 0.1 0.9 0.1 0.9 0.1 0.9 0.1 0.8926924081104793 0.1073075918895207 0.9 0.1 0.9 0.1 0.9 0.1 0.9 0.1 0.9 0.1 0.9 0.1 0.9 0.1 0.9 0.1 0.9 0.1 0.9 0.1 0.9 0.1 0.9 0.1 0.9 0.1 0.9 0.1 0.7283942005234333 0.2716057994765667 0.9 0.1 0.9 0.1 0.9 0.1 0.9 0.1 0.9 0.1 0.9 0.1 0.9 0.1 0.9 0.1 0.9 0.1 0.9 0.1 0.9 0.1 0.9 0.1 0.9 0.1 0.9 0.1 0.8926924081104793 0.1073075918895207 0.9 0.1 0.9 0.1 0.9 0.1 0.9 0.1 0.9 0.1 0.9 0.1 0.9 0.1 0.888587521247689 0.1114124787523109 0.9 0.1 0.9 0.1 0.9 0.1 0.9 0.1 0.9 0.1 0.9 0.1 0.9 0.1 0.8943596595217357 0.1056403404782643 0.9 0.1 0.9 0.1 0.9 0.1 0.9 0.1 0.9 0.1 0.9 0.1 0.6300993494944432 0.3699006505055566 0.9 0.1 0.9 0.1 0.9 0.1 0.9 0.1 0.9 0.1 0.9 0.1 0.9 0.1 0.8761956739705781 0.1238043260294219 0.9 0.1 0.9 0.1 0.9 0.1 0.9 0.1 0.9 0.1 0.9 0.1 0.8883440744360682 0.1116559255639318 0.9 0.1 0.9 0.1 0.9 0.1 0.9 0.1 0.9 0.1 0.9 0.1 0.9 0.1 0.8735247015058332 0.1264752984941669 0.9 0.1 0.9 0.1 0.9 0.1 0.9 0.1 0.9 0.1 0.9 0.1 0.5828218933998897 0.4171781066001103 0.9 0.1 0.9 0.1 0.9 0.1 0.9 0.1 0.9 0.1 0.9 0.1 0.9 0.1 0.6294100412782928 0.3705899587217072 0.9 0.1 0.9 0.1 0.9 0.1 0.9 0.1 0.9 0.1 0.9 0.1 0.888587521247689 0.1114124787523109 0.9 0.1 0.9 0.1 0.9 0.1 0.9 0.1 0.9 0.1 0.9 0.1 0.9 0.1 0.8943596595217357 0.1056403404782643 0.9 0.1 0.9 0.1 0.9 0.1 0.9 0.1 0.9 0.1 0.9 0.1 0.888611872947664 0.1113881270523361 0.8938359074931982 0.1061640925068019 0.9 0.1 0.9 0.1 0.8608193382483068 0.1391806617516931 0.9 0.1 0.9 0.1 0.9 0.1 0.8807870053704189 0.1192129946295812 0.7952801993500618 0.2047198006499381 0.9 0.1 0.9 0.1 0.9 0.1 0.9 0.1 0.9 0.1 0.7641526561335883 0.2358473438664117 0.8977918315023378 0.1022081684976623 0.9333333333333332 0.06666666666666667 0.9 0.1 0.6927077293177013 0.3072922706822988 0.9201648496882019 0.07983515031179809 0.9 0.1 0.9 0.1 0.8725820199823318 0.1274179800176682 0.4907535428029899 0.5092464571970101 0.9038817982166498 0.0961182017833502 0.9 0.1 0.9 0.1 0.9 0.1 0.9 0.1 0.85428406458252 0.14571593541748 0.9291173203956323 0.07088267960436767 0.9 0.1 0.9 0.1 0.8082625981662332 0.1917374018337666 0.9 0.1 0.9 0.1 0.9 0.1 0.4787316412860179 0.5212683587139821 0.8088189116063857 0.1911810883936143 0.9 0.1 0.9 0.1 0.9 0.1 0.9 0.1 0.9 0.1 0.6567734315859871 0.3432265684140129 0.4538143770111852 0.5461856229888148 0.9 0.1 0.9 0.1 0.9459057768520291 0.05409422314797084 0.9233725852701188 0.07662741472988122 0.9169613715715113 0.08303862842848869 0.9045808201311357 0.09541917986886432 0.8638322753674454 0.1361677246325546 0.9159875733248344 0.08401242667516565 0.9028745505090366 0.09712544949096324 0.9 0.1 0.9 0.1 0.9 0.1 0.9 0.1 0.8936827420771862 0.1063172579228138 0.8994171452759323 0.1005828547240677 0.9 0.1 0.9 0.1 0.8839940643431834 0.1160059356568166 0.9 0.1 0.9 0.1 0.9 0.1 0.8956387998269272 0.1043612001730729 0.8836879973321544 0.1163120026678457 0.9 0.1 0.9 0.1 0.9 0.1 0.9 0.1 0.9 0.1 0.9 0.1 0.9 0.1 0.9 0.1 0.9 0.1 0.9 0.1 0.9 0.1 0.9 0.1 0.9 0.1 0.9019202746953662 0.09807972530463373 0.9 0.1 0.9 0.1 0.9 0.1 0.9 0.1 0.9 0.1 0.9 0.1 0.9 0.1 0.9293888173977107 0.07061118260228917 0.9 0.1 0.9 0.1 0.9 0.1 0.9 0.1 0.6 0.4 0.9 0.1 0.907821843148588 0.09217815685141195 0.9 0.1 0.9 0.1 0.9 0.1 0.9 0.1 0.9 0.1 0.9 0.1 0.9 0.1 0.9333333333333332 0.06666666666666667 0.9 0.1 0.9 0.1 0.9 0.1 0.9 0.1 0.6 0.4 0.9333333333333332 0.06666666666666667 0.9183601019735926 0.08163989802640731 0.9 0.1 0.9 0.1 0.9 0.1 0.9 0.1 0.9 0.1 0.9 0.1 0.9 0.1 0.9 0.1 0.9 0.1 0.9 0.1 0.9 0.1 0.9 0.1 0.9 0.1 0.9 0.1 0.9599767291744596 0.04002327082554043 0.9 0.1 0.9 0.1 0.9 0.1 0.9 0.1 0.9 0.1 0.9 0.1 0.9 0.1 0.9 0.1 0.9 0.1 0.9 0.1 0.9 0.1 0.9 0.1 0.9 0.1 0.9 0.1 0.9004952028577272 0.09950479714227289 0.9 0.1 0.9 0.1 0.9 0.1 0.9 0.1 0.9 0.1 0.9 0.1 0.9 0.1 0.9 0.1 0.9 0.1 0.9 0.1 0.9 0.1 0.9 0.1 0.9 0.1 0.9 0.1 0.9 0.1 0.9 0.1 0.9 0.1 0.9 0.1 0.9 0.1 0.9 0.1 0.9 0.1 0.9 0.1 0.9 0.1 0.9 0.1 0.9 0.1 0.9 0.1 0.9 0.1 0.9 0.1 0.9 0.1 0.9 0.1 0.9 0.1 0.9 0.1 0.9 0.1 0.9 0.1 0.9 0.1 0.9 0.1 0.9 0.1 0.9 0.1 0.9 0.1 0.9 0.1 0.9 0.1 0.9 0.1 0.9 0.1 0.9 0.1 0.9 0.1 0.9 0.1 0.9 0.1 0.9 0.1 0.9 0.1 0.9 0.1 0.9 0.1 0.9 0.1 0.9 0.1 0.9 0.1 0.9 0.1 0.9 0.1 0.9 0.1 0.9 0.1 0.6130235748288492 0.3869764251711509 0.9 0.1 0.9 0.1 0.9 0.1 0.9 0.1 0.9 0.1 0.9 0.1 0.9 0.1 0.9 0.1 0.9 0.1 0.9 0.1 0.9 0.1 0.9 0.1 0.9 0.1 0.9 0.1 0.9 0.1 0.9 0.1 0.9 0.1 0.9 0.1 0.9 0.1 0.9 0.1 0.9 0.1 0.9 0.1 0.9 0.1 0.9 0.1 0.9 0.1 0.9333333333333332 0.06666666666666667 0.9006921730343042 0.09930782696569584 0.9006694271489983 0.09933057285100154 0.9012469778247039 0.09875302217529625 0.9001229331703304 0.09987706682966968 0.8854425472319853 0.1145574527680146 0.900147859619837 0.09985214038016291 0.9 0.1 0.9 0.1 0.9 0.1 0.9 0.1 0.9 0.1 0.9 0.1 0.9 0.1 0.9 0.1 0.9 0.1 0.9057254833787957 0.09427451662120429 0.9028044217332946 0.09719557826670533 0.6022085639997695 0.3977914360002305 0.9001229331703304 0.09987706682966968 0.891253208754845 0.1087467912451549 0.9012619951176752 0.09873800488232477 0.9 0.1 0.9 0.1 0.9 0.1 0.9 0.1 0.9 0.1 0.9 0.1 0.9 0.1 0.9 0.1 0.9 0.1 0.9140785569086736 0.0859214430913265 0.9011447859028676 0.09885521409713247 0.9030955751955086 0.09690442480449125 0.9023303226594003 0.09766967734059971 0.8911903343060974 0.1088096656939026 0.9032935803331241 0.09670641966687579 0.9 0.1 0.9 0.1 0.9 0.1 0.9 0.1 0.9 0.1 0.9 0.1 0.6 0.4 0.9 0.1 0.9 0.1 0.9150230408870981 0.08497695911290183 0.9037364153037868 0.09626358469621316 0.9040708273691922 0.09592917263080786 0.9016908076316054 0.09830919236839475 0.6501891639644359 0.3498108360355641 0.903554450559562 0.09644554944043802 0.9 0.1 0.9 0.1 0.9 0.1 0.9 0.1 0.9 0.1 0.9 0.1 0.9 0.1 0.9555555555555555 0.04444444444444445 0.9 0.1 0.9006921730343042 0.09930782696569584 0.9006694271489983 0.09933057285100154 0.9003541826927979 0.09964581730720201 0.9007598405320787 0.09924015946792121 0.8855439822272447 0.1144560177727553 0.900147859619837 0.09985214038016291 0.9 0.1 0.9 0.1 0.9 0.1 0.9 0.1 0.9 0.1 0.9 0.1 0.9 0.1 0.9 0.1 0.9 0.1 0.9 0.1 0.9 0.1 0.9 0.1 0.9 0.1 0.9 0.1 0.9 0.1 0.9 0.1 0.9 0.1 0.9 0.1 0.9 0.1 0.9 0.1 0.9 0.1 0.9 0.1 0.9 0.1 0.9201412786238543 0.07985872137614564 0.9 0.1 0.9 0.1 0.9 0.1 0.9 0.1 0.91329433999555 0.08670566000444996 0.9 0.1 0.9 0.1 0.9 0.1 0.9 0.1 0.9009922324189126 0.09900776758108754 0.9 0.1 0.9 0.1 0.9333333333333332 0.06666666666666667 0.9 0.1 0.9 0.1 0.9 0.1 0.9 0.1 0.84 0.16 0.9333333333333332 0.06666666666666667 0.9 0.1 0.9 0.1 0.9 0.1 0.9 0.1 0.9 0.1 0.9 0.1 0.9 0.1 0.9 0.1 0.9 0.1 0.9 0.1 0.9 0.1 0.9 0.1 0.9 0.1 0.9 0.1 0.9 0.1 0.9 0.1 0.9502146790100929 0.04978532098990705 0.9 0.1 0.9 0.1 0.9 0.1 0.9 0.1 0.9 0.1 0.9 0.1 0.9 0.1 0.9 0.1 0.9 0.1 0.9 0.1 0.9 0.1 0.9 0.1 0.9 0.1 0.9 0.1 0.9 0.1 0.9 0.1 0.9 0.1 0.9 0.1 0.9 0.1 0.9 0.1 0.9 0.1 0.9 0.1 0.9 0.1 0.9 0.1 0.9 0.1 0.9 0.1 0.9 0.1 0.9 0.1 0.9077315195303709 0.09226848046962904 0.9 0.1 0.9 0.1 0.9 0.1 0.9 0.1 0.9 0.1 0.9 0.1 0.9 0.1 0.9 0.1 0.9 0.1 0.9 0.1 0.9 0.1 0.9333333333333332 0.06666666666666667 0.9 0.1 0.9 0.1 0.9333333333333332 0.06666666666666667 0.9 0.1 0.9 0.1 0.9 0.1 0.9 0.1 0.9 0.1 0.9 0.1 0.9 0.1 0.9 0.1 0.9 0.1 0.9 0.1 0.9 0.1 0.9 0.1 0.9 0.1 0.9 0.1 0.8722052365581521 0.1277947634418479 0.9 0.1 0.9 0.1 0.9 0.1 0.9 0.1 0.9 0.1 0.9 0.1 0.9 0.1 0.9 0.1 0.9 0.1 0.9 0.1 0.8513181461592066 0.1486818538407933 0.9 0.1 0.9 0.1 0.9 0.1 0.9 0.1 0.9 0.1 0.9 0.1 0.9 0.1 0.9 0.1 0.9 0.1 0.9 0.1 0.9 0.1 0.9 0.1 0.9 0.1 0.9 0.1 0.8722052365581521 0.1277947634418479 0.9 0.1 0.9 0.1 0.9 0.1 0.9 0.1 0.9 0.1 0.9 0.1 0.9 0.1 0.9 0.1 0.9 0.1 0.9 0.1 0.9 0.1 0.9043598353080194 0.09564016469198056 0.9 0.1 0.9 0.1 0.9 0.1 0.9 0.1 0.9 0.1 0.9 0.1 0.9 0.1 0.9 0.1 0.9 0.1 0.9 0.1 0.9 0.1 0.9 0.1 0.9 0.1 0.9 0.1 0.9016503312776919 0.09834966872230815 0.9 0.1 0.9 0.1 0.6 0.4 0.9 0.1 0.9 0.1 0.9 0.1 0.9 0.1 0.9 0.1 0.9 0.1 0.9 0.1 0.9 0.1 0.9 0.1 0.9 0.1 0.9 0.1 0.9016503312776919 0.09834966872230815 0.9 0.1 0.9 0.1 0.9 0.1 0.9 0.1 0.9 0.1 0.9 0.1 0.9 0.1 0.9 0.1 0.9 0.1 0.9 0.1 0.9 0.1 0.9 0.1 0.9 0.1 0.8931383959767055 0.1068616040232944 0.9002758674171586 0.09972413258284135 0.4 0.6 0.9 0.1 0.9 0.1 0.878455395881069 0.1215446041189309 0.9 0.1 0.9 0.1 0.9 0.1 0.9 0.1 0.8990469528532966 0.1009530471467033 0.9 0.1 0.9 0.1 0.9 0.1 0.9 0.1 0.9 0.1 0.9002758674171586 0.09972413258284135 0.9 0.1 0.9 0.1 0.9 0.1 0.9 0.1 0.9 0.1 0.9 0.1 0.9 0.1 0.9 0.1 0.9 0.1 0.9 0.1 0.9 0.1 0.9 0.1 0.9 0.1 0.9 0.1 0.9 0.1 0.9 0.1 0.9 0.1 0.9 0.1 0.9 0.1 0.9 0.1 0.9 0.1 0.9 0.1 0.9 0.1 0.9 0.1 0.9 0.1 0.9 0.1 0.9 0.1 0.9 0.1 0.9 0.1 0.9 0.1 0.9 0.1 0.9 0.1 0.9 0.1 0.9 0.1 0.9 0.1 0.9 0.1 0.9 0.1 0.9 0.1 0.9 0.1 0.9 0.1 0.9 0.1 0.9 0.1 0.9 0.1 0.9 0.1 0.9077315195303709 0.09226848046962904 0.9 0.1 0.9 0.1 0.9 0.1 0.9 0.1 0.9 0.1 0.9 0.1 0.9 0.1 0.9 0.1 0.9 0.1 0.9 0.1 0.9 0.1 0.9 0.1 0.9 0.1 0.9 0.1 0.9 0.1 0.9 0.1 0.9 0.1 0.9 0.1 0.9 0.1 0.9 0.1 0.9 0.1 0.9 0.1 0.9 0.1 0.9 0.1 0.9 0.1 0.9 0.1 0.9 0.1 0.9 0.1 0.9 0.1 0.9 0.1 0.9 0.1 0.9 0.1 0.9 0.1 0.9 0.1 0.9 0.1 0.9 0.1 0.9 0.1 0.9 0.1 0.9 0.1 0.9 0.1 0.9 0.1 0.9 0.1 0.9 0.1 0.9 0.1 0.9 0.1 0.9 0.1 0.9 0.1 0.9 0.1 0.9 0.1 0.9 0.1 0.9 0.1 0.9 0.1 0.8972961519849332 0.1027038480150667 0.9 0.1 0.9 0.1 0.9 0.1 0.9 0.1 0.9 0.1 0.9 0.1 0.9 0.1 0.9 0.1 0.9 0.1 0.9 0.1 0.9 0.1 0.9 0.1 0.9 0.1 0.9 0.1 0.8972961519849332 0.1027038480150667 0.9 0.1 0.9 0.1 0.9 0.1 0.9 0.1 0.9 0.1 0.9 0.1 0.9 0.1 0.9 0.1 0.9 0.1 0.9 0.1 0.9 0.1 0.9 0.1 0.9 0.1 0.9 0.1 0.8970179687483631 0.1029820312516369 0.8967831304218936 0.1032168695781065 0.8975830909995564 0.1024169090004436 0.4090690039563202 0.5909309960436799 0.8944417494071569 0.1055582505928431 0.88162629468731 0.1183737053126899 0.9 0.1 0.9 0.1 0.9 0.1 0.9 0.1 0.9 0.1 0.9 0.1 0.9 0.1 0.9 0.1 0.91582092285132 0.08417907714868007 0.9070517213818694 0.09294827861813069 0.9 0.1 0.9 0.1 0.9 0.1 0.9 0.1 0.9 0.1 0.9 0.1 0.9 0.1 0.9 0.1 0.9 0.1 0.9 0.1 0.9 0.1 0.9 0.1 0.9 0.1 0.9 0.1 0.8765083509542185 0.1234916490457815 0.9 0.1 0.9 0.1 0.9 0.1 0.9 0.1 0.9 0.1 0.9 0.1 0.9149213536079739 0.0850786463920261 0.9 0.1 0.9 0.1 0.9 0.1 0.9 0.1 0.9 0.1 0.9 0.1 0.9043391422738229 0.09566085772617709 0.8966770467725614 0.1033229532274385 0.9 0.1 0.9 0.1 0.9 0.1 0.9 0.1 0.9 0.1 0.9 0.1 0.9 0.1 0.9 0.1 0.9 0.1 0.8602936863428815 0.1397063136571185 0.9 0.1 0.9 0.1 0.6 0.4 0.861819846427226 0.1381801535727741 0.8575871096480532 0.1424128903519468 0.9 0.1 0.9 0.1 0.9 0.1 0.9 0.1 0.9 0.1 0.9 0.1 0.9 0.1 0.9 0.1 0.865673057764053 0.134326942235947 0.9142782378274588 0.08572176217254117 0.3811578255333566 0.6188421744666432 0.9 0.1 0.9 0.1 0.8650083484684716 0.1349916515315284 0.8956220312206857 0.1043779687793142 0.9 0.1 0.9 0.1 0.9 0.1 0.9 0.1 0.9 0.1 0.9 0.1 0.9 0.1 0.45 0.55 0.9 0.1 0.9037400980940435 0.09625990190595639 0.9157240712543244 0.08427592874567559 0.9 0.1 0.9 0.1 0.9065652111526974 0.09343478884730259 0.9026437259661538 0.09735627403384629 0.9 0.1 0.9 0.1 0.9 0.1 0.9 0.1 0.9000899377122416 0.09991006228775845 0.9 0.1 0.9 0.1 0.9 0.1 0.9 0.1 0.9 0.1 0.9 0.1 0.9 0.1 0.9 0.1 0.899009492498792 0.100990507501208 0.8990691121686439 0.1009308878313562 0.9 0.1 0.9 0.1 0.9 0.1 0.9 0.1 0.9 0.1 0.9 0.1 0.9 0.1 0.9 0.1 0.9 0.1 0.9 0.1 0.9 0.1 0.9 0.1 0.9 0.1 0.9019154378974177 0.09808456210258241 0.9 0.1 0.9004144487302167 0.09958555126978336 0.9006584821284687 0.09934151787153141 0.900101984053633 0.09989801594636701 0.9004831840205118 0.09951681597948825 0.900204635087822 0.09979536491217801 0.9 0.1 0.9 0.1 0.9 0.1 0.9078793353060346 0.0921206646939655 0.9 0.1 0.9 0.1 0.9 0.1 0.9 0.1 0.9078031041416783 0.09219689585832165 0.8789677267740426 0.1210322732259574 0.9022064691236809 0.09779353087631912 0.9062468988875234 0.09375310111247658 0.9011562504804547 0.09884374951954544 0.9020416820835607 0.09795831791643927 0.9007511295805403 0.09924887041945968 0.9 0.1 0.4 0.6 0.9 0.1 0.9 0.1 0.8789677267740426 0.1210322732259574 0.9 0.1 0.9 0.1 0.9 0.1 0.9302460344210124 0.0697539655789876 0.8315944459330697 0.1684055540669303 0.9022678807534908 0.09773211924650904 0.9081424348267625 0.09185756517323743 0.9018580244255823 0.09814197557441769 0.9050307255470078 0.09496927445299215 0.9012345555488571 0.09876544445114298 0.6347782162219114 0.3652217837780885 0.9 0.1 0.9 0.1 0.9555555555555557 0.04444444444444445 0.9 0.1 0.7544576198369569 0.245542380163043 0.9 0.1 0.4 0.6 0.9141826390689547 0.08581736093104525 0.9 0.1 0.9017402156075902 0.09825978439240982 0.9027733059465486 0.09722669405345141 0.9034009200501918 0.09659907994980821 0.9037704934564557 0.0962295065435444 0.9008398450806215 0.09916015491937841 0.9 0.1 0.9 0.1 0.9 0.1 0.9 0.1 0.9 0.1 0.9 0.1 0.9 0.1 0.9333333333333332 0.06666666666666667 0.9004939413603704 0.09950605863962958 0.9 0.1 0.9005947688775572 0.0994052311224428 0.9001739217748329 0.09982607822516701 0.9006306980666036 0.09936930193339646 0.900123555495878 0.09987644450412209 0.900168118277835 0.09983188172216499 0.9 0.1 0.9 0.1 0.9 0.1 0.9 0.1 0.9 0.1 0.9 0.1 0.9 0.1 0.9 0.1 0.9 0.1 0.9 0.1 0.9 0.1 0.9 0.1 0.8869785969504071 0.1130214030495928 0.9 0.1 0.9 0.1 0.9 0.1 0.9 0.1 0.9 0.1 0.9 0.1 0.9 0.1 0.9 0.1 0.9 0.1 0.9 0.1 0.9 0.1 0.9 0.1 0.9 0.1 0.9 0.1 0.8153244613382371 0.1846755386617629 0.9 0.1 0.9 0.1 0.9 0.1 0.9 0.1 0.9 0.1 0.9 0.1 0.9 0.1 0.8638245528614822 0.136175447138518 0.9 0.1 0.9555555555555555 0.04444444444444445 0.9157240712543244 0.08427592874567559 0.9 0.1 0.9 0.1 0.9 0.1 0.8345126948136947 0.1654873051863053 0.9 0.1 0.9 0.1 0.9 0.1 0.9 0.1 0.9 0.1 0.9 0.1 0.9 0.1 0.9 0.1 0.9 0.1 0.9 0.1 0.9157240712543244 0.08427592874567559 0.9 0.1 0.9 0.1 0.9 0.1 0.6985896168201319 0.3014103831798682 0.9 0.1 0.9 0.1 0.9 0.1 0.9 0.1 0.9 0.1 0.9 0.1 0.9 0.1 0.9 0.1 0.9 0.1 0.9 0.1 0.9 0.1 0.9 0.1 0.9 0.1 0.9 0.1 0.8869785969504071 0.1130214030495928 0.9 0.1 0.9 0.1 0.9 0.1 0.9 0.1 0.9 0.1 0.9 0.1 0.9 0.1 0.9 0.1 0.9 0.1 0.9 0.1 0.9077315195303709 0.09226848046962904 0.8985925832541217 0.1014074167458782 0.9 0.1 0.9 0.1 0.9 0.1 0.9 0.1 0.9 0.1 0.9 0.1 0.9 0.1 0.9 0.1 0.8603900567339222 0.1396099432660777 0.9 0.1 0.9157240712543244 0.08427592874567559 0.9 0.1 0.9 0.1 0.9 0.1 0.8477465699765998 0.1522534300234003 0.9 0.1 0.9 0.1 0.9 0.1 0.9 0.1 0.9 0.1 0.9 0.1 0.9 0.1 0.9 0.1 0.8712028847708942 0.1287971152291058 0.9 0.1 0.9 0.1 0.9 0.1 0.9498937037905337 0.05010629620946622 0.9 0.1 0.6053989234627781 0.3946010765372218 0.9 0.1 0.9 0.1 0.9 0.1 0.9 0.1 0.9 0.1 0.9418201846223728 0.0581798153776273 0.9 0.1 0.9 0.1 0.9 0.1 0.9 0.1 0.9 0.1 0.9 0.1 0.9 0.1 0.3358975206133639 0.6641024793866361 0.4176038029815587 0.5823961970184413 0.9 0.1 0.9 0.1 0.9 0.1 0.9 0.1 0.9 0.1 0.9 0.1 0.9 0.1 0.9 0.1 0.9 0.1 0.9 0.1 0.9 0.1 0.9 0.1 0.9 0.1 0.9 0.1 0.8985925832541217 0.1014074167458782 0.9 0.1 0.9 0.1 0.9 0.1 0.9 0.1 0.9 0.1 0.9 0.1 0.9011315145267969 0.09886848547320316 0.9 0.1 0.9 0.1 0.9 0.1 0.8966606364506693 0.1033393635493307 0.9 0.1 0.8931397980924263 0.1068602019075737 0.8825397748548041 0.117460225145196 0.9 0.1 0.9 0.1 0.9 0.1 0.9 0.1 0.9 0.1 0.9 0.1 0.9555555555555557 0.04444444444444445 0.9031159425636053 0.09688405743639472 0.9 0.1 0.9 0.1 0.9 0.1 0.7387959355188115 0.2612040644811884 0.9 0.1 0.8698177819612427 0.1301822180387572 0.8173699736497706 0.1826300263502294 0.8468153968240073 0.1531846031759927 0.9 0.1 0.9 0.1 0.9 0.1 0.9 0.1 0.9 0.1 0.9 0.1 0.9022874358774591 0.09771256412254103 0.9 0.1 0.9217614655720987 0.07823853442790141 0.9 0.1 0.4142203071022912 0.5857796928977088 0.8721383771925196 0.1278616228074803 0.6048231904576219 0.3951768095423782 0.7248358965064118 0.2751641034935883 0.8720616981937098 0.1279383018062902 0.9 0.1 0.9 0.1 0.9 0.1 0.902021043053142 0.09797895694685795 0.9 0.1 0.9 0.1 0.9024246954661538 0.09757530453384623 0.9 0.1 0.9 0.1 0.9077799722838704 0.09222002771612955 0.8689869274660826 0.1310130725339174 0.9 0.1 0.8460549530105038 0.1539450469894961 0.7987562827020009 0.2012437172979991 0.8722052365581521 0.1277947634418479 0.6 0.4 0.9 0.1 0.9 0.1 0.9 0.1 0.9 0.1 0.9 0.1 0.8741446666509506 0.1258553333490494 0.9 0.1 0.9 0.1 0.9 0.1 0.8984522834007209 0.1015477165992791 0.9 0.1 0.8954578436062198 0.1045421563937802 0.8906842897085036 0.1093157102914965 0.9 0.1 0.9 0.1 0.9 0.1 0.9 0.1 0.9 0.1 0.9 0.1 0.9 0.1 0.9 0.1 0.9 0.1 0.9 0.1 0.9034163769232562 0.09658362307674373 0.9 0.1 0.9 0.1 0.9 0.1 0.9 0.1 0.9062172132086274 0.0937827867913726 0.9 0.1 0.9 0.1 0.9 0.1 0.9 0.1 0.904526549212465 0.09547345078753489 0.9 0.1 0.9 0.1 0.9 0.1 0.9 0.1 0.901502130658975 0.09849786934102511 0.9 0.1 0.9 0.1 0.9 0.1 0.9 0.1 0.9027697319606264 0.09723026803937358 0.9 0.1 0.9 0.1 0.9 0.1 0.9 0.1 0.902000528507243 0.09799947149275699 0.9 0.1 0.9 0.1 0.9 0.1 0.9 0.1 0.9014725222467137 0.09852747775328628 0.9 0.1 0.9 0.1 0.9 0.1 0.9 0.1 0.9027156685405677 0.09728433145943238 0.9 0.1 0.9 0.1 0.9 0.1 0.9 0.1 0.9019612461376632 0.09803875386233682 0.9 0.1 0.9 0.1 0.9 0.1 0.9 0.1 0.9036985057138293 0.09630149428617073 0.9 0.1 0.9 0.1 0.9 0.1 0.9 0.1 0.9067179434640262 0.09328205653597384 0.9 0.1 0.9 0.1 0.9 0.1 0.9 0.1 0.9048967270814579 0.09510327291854209 0.9 0.1 0.9 0.1 0.9 0.1 0.9 0.1 0.9014524883390094 0.09854751166099057 0.9 0.1 0.9 0.1 0.9 0.1 0.9 0.1 0.9026790849177636 0.09732091508223648 0.9 0.1 0.9 0.1 0.9 0.1 0.9 0.1 0.901934665808665 0.09806533419133494 0.9 0.1 0.9 0.1 0.9 0.1 0.9 0.1 0.9 0.1 0.9 0.1 0.9 0.1 0.9 0.1 0.9 0.1 0.9 0.1 0.9 0.1 0.9 0.1 0.9 0.1 0.9 0.1 0.9 0.1 0.9 0.1 0.9 0.1 0.9 0.1 0.9 0.1 0.9 0.1 0.9 0.1 0.9 0.1 0.9 0.1 0.9 0.1 0.9 0.1 0.9 0.1 0.9 0.1 0.9 0.1 0.9 0.1 0.9 0.1 0.9 0.1 0.9 0.1 0.9 0.1 0.9 0.1 0.9 0.1 0.9 0.1 0.9 0.1 0.9 0.1 0.9 0.1 0.9 0.1 0.9 0.1 0.9 0.1 0.9 0.1 0.9 0.1 0.9 0.1 0.9 0.1 0.9 0.1 0.9 0.1 0.9 0.1 0.9 0.1 0.9 0.1 0.9 0.1 0.9 0.1 0.9 0.1 0.9 0.1 0.9 0.1 0.9 0.1 0.9 0.1 0.9 0.1 0.9 0.1 0.9 0.1 0.9 0.1 0.9 0.1 0.9 0.1 0.9 0.1 0.9 0.1 0.9 0.1 0.9 0.1 0.9 0.1 0.9 0.1 0.9 0.1 0.9 0.1 0.9 0.1 0.9 0.1 0.9 0.1 0.9 0.1 0.9 0.1 0.9 0.1 0.9 0.1 0.9 0.1 0.9 0.1 0.9 0.1 0.9 0.1 0.9 0.1 0.9 0.1 0.9 0.1 0.9 0.1 0.9 0.1 0.9 0.1 0.9 0.1 0.9 0.1 0.9 0.1 0.9 0.1 0.9 0.1 0.9 0.1 0.9 0.1 0.9 0.1 0.9 0.1 0.9 0.1 0.9 0.1 0.9 0.1 0.9 0.1 0.9 0.1 0.9 0.1 0.9 0.1 0.9 0.1 0.9 0.1 0.9 0.1 0.9 0.1 0.9 0.1 0.9 0.1 0.9 0.1 0.9 0.1 0.9 0.1 0.9 0.1 0.9 0.1 0.9 0.1 0.9 0.1 0.9 0.1 0.9 0.1 0.9 0.1 0.9 0.1 0.9 0.1 0.9 0.1 0.9 0.1 0.9 0.1 0.9 0.1 0.9 0.1 0.9 0.1 0.9 0.1 0.9 0.1 0.9 0.1 0.9 0.1 0.9 0.1 0.9 0.1 0.9 0.1 0.9 0.1 0.9 0.1 0.9 0.1 0.9 0.1 0.9 0.1 0.9 0.1 0.9 0.1 0.9 0.1 0.9 0.1 0.9 0.1 0.9 0.1 0.9 0.1 0.9 0.1 0.9 0.1 0.9 0.1 0.9 0.1 0.9 0.1 0.9 0.1 0.9 0.1 0.9 0.1 0.9 0.1 0.8916242469307232 0.1083757530692769 0.9 0.1 0.9 0.1 0.9 0.1 0.9 0.1 0.9 0.1 0.9 0.1 0.9 0.1 0.9 0.1 0.9 0.1 0.9 0.1 0.9 0.1 0.9 0.1 0.9 0.1 0.9 0.1 0.8916242469307232 0.1083757530692769 0.9 0.1 0.9 0.1 0.9 0.1 0.9 0.1 0.9 0.1 0.9 0.1 0.9 0.1 0.9 0.1 0.9 0.1 0.9 0.1 0.9 0.1 0.9 0.1 0.9 0.1 0.9 0.1 0.4195211267689327 0.5804788732310674 0.9 0.1 0.9 0.1 0.9 0.1 0.9 0.1 0.9 0.1 0.9 0.1 0.9 0.1 0.9 0.1 0.9 0.1 0.9 0.1 0.9 0.1 0.9 0.1 0.9 0.1 0.9 0.1 0.8629329934017375 0.1370670065982625 0.8722052365581521 0.1277947634418479 0.9 0.1 0.9 0.1 0.9 0.1 0.9 0.1 0.9 0.1 0.9 0.1 0.9 0.1 0.9 0.1 0.9 0.1 0.9 0.1 0.9 0.1 0.9 0.1 0.9 0.1 0.8916242469307232 0.1083757530692769 0.9 0.1 0.9 0.1 0.9 0.1 0.9 0.1 0.9 0.1 0.9 0.1 0.9 0.1 0.8869634193999577 0.1130365806000422 0.8943648544744789 0.1056351455255211 0.893557555767755 0.1064424442322451 0.88829794362756 0.11170205637244 0.8706870791536908 0.1293129208463092 0.8587497377126345 0.1412502622873656 0.9 0.1 0.9 0.1 0.9 0.1 0.9 0.1 0.9 0.1 0.9 0.1 0.9 0.1 0.9 0.1 0.9 0.1 0.885513844682103 0.1144861553178971 0.8978206919435406 0.1021793080564594 0.8720816212768111 0.1279183787231889 0.883871596678245 0.1161284033217551 0.8354414451916827 0.1645585548083173 0.7976248951979167 0.2023751048020833 0.9 0.1 0.9 0.1 0.9 0.1 0.9 0.1 0.9 0.1 0.9 0.1 0.9 0.1 0.9 0.1 0.9 0.1 0.8628743854966651 0.137125614503335 0.8912406791747962 0.1087593208252037 0.8703750903275085 0.1296249096724915 0.8546569154420866 0.1453430845579134 0.8605090003140738 0.1394909996859262 0.730439873795227 0.269560126204773 0.9 0.1 0.9 0.1 0.9 0.1 0.9 0.1 0.9 0.1 0.9 0.1 0.9 0.1 0.9 0.1 0.9 0.1 0.8905947600052679 0.1094052399947321 0.8732257035419033 0.1267742964580967 0.8916244202549237 0.1083755797450762 0.8647166955665575 0.1352833044334425 0.8830379762019593 0.1169620237980407 0.8437941236667 0.1562058763333001 0.9 0.1 0.9 0.1 0.9 0.1 0.9 0.1 0.9 0.1 0.9 0.1 0.9 0.1 0.9 0.1 0.9 0.1 0.892452440056844 0.107547559943156 0.8994085743104154 0.1005914256895845 0.8991256840848479 0.1008743159151522 0.8972007203233712 0.1027992796766287 0.8914504609709878 0.1085495390290121 0.8781604558661531 0.1218395441338469 0.9 0.1 0.9 0.1 0.9 0.1 0.9 0.1 0.9 0.1 0.9 0.1 0.9 0.1 0.9 0.1 0.9 0.1 0.9 0.1 0.9 0.1 0.9 0.1 0.9 0.1 0.9 0.1 0.9 0.1 0.9 0.1 0.9 0.1 0.9 0.1 0.9 0.1 0.9 0.1 0.9 0.1 0.9 0.1 0.9 0.1 0.9 0.1 0.9 0.1 0.9 0.1 0.9 0.1 0.9 0.1 0.9 0.1 0.9 0.1 0.9 0.1 0.9 0.1 0.9 0.1 0.9 0.1 0.9 0.1 0.9 0.1 0.9 0.1 0.9 0.1 0.9 0.1 0.9 0.1 0.9 0.1 0.9 0.1 0.9 0.1 0.9 0.1 0.9 0.1 0.9 0.1 0.9 0.1 0.9 0.1 0.9 0.1 0.9 0.1 0.9 0.1 0.9 0.1 0.9 0.1 0.9 0.1 0.9 0.1 0.9 0.1 0.9 0.1 0.9 0.1 0.9 0.1 0.9 0.1 0.9 0.1 0.9 0.1 0.9 0.1 0.9 0.1 0.9 0.1 0.9 0.1 0.9 0.1 0.9 0.1 0.9 0.1 0.9 0.1 0.9 0.1 0.9 0.1 0.9 0.1 0.9 0.1 0.9 0.1 0.9 0.1 0.9 0.1 0.9 0.1 0.9 0.1 0.9 0.1 0.9 0.1 0.9 0.1 0.9 0.1 0.9 0.1 0.9 0.1 0.9 0.1 0.9 0.1 0.9 0.1 0.9 0.1 0.9 0.1 0.9 0.1 0.9 0.1 0.9 0.1 0.9 0.1 0.9 0.1 0.9 0.1 0.9 0.1 0.9 0.1 0.9 0.1 0.9 0.1 0.9 0.1 0.9 0.1 0.9 0.1 0.9 0.1 0.9 0.1 0.9 0.1 0.9 0.1 0.9 0.1 0.9 0.1 0.9 0.1 0.9 0.1 0.9 0.1 0.9 0.1 0.9 0.1 0.9 0.1 0.9 0.1 0.9 0.1 0.9 0.1 0.9 0.1 0.9 0.1 0.9 0.1 0.9 0.1 0.9 0.1 0.9 0.1 0.9 0.1 0.9 0.1 0.9 0.1 0.9 0.1 0.9 0.1 0.9 0.1 0.9 0.1 0.4 0.6 0.9 0.1 0.9 0.1 0.9 0.1 0.9 0.1 0.9 0.1 0.9 0.1 0.9 0.1 0.9 0.1 0.9 0.1 0.9 0.1 0.9 0.1 0.9 0.1 0.9 0.1 0.9 0.1 0.9 0.1 0.9 0.1 0.9 0.1 0.9 0.1 0.9 0.1 0.9 0.1 0.9 0.1 0.9 0.1 0.9 0.1 0.9 0.1 0.9 0.1 0.9 0.1 0.9 0.1 0.9 0.1 0.9 0.1 0.9 0.1 0.9 0.1 0.9 0.1 0.9 0.1 0.9 0.1 0.9 0.1 0.9112437236009259 0.08875627639907419 0.9008783569431417 0.09912164305685831 0.9 0.1 0.9 0.1 0.9 0.1 0.9 0.1 0.9 0.1 0.9 0.1 0.9 0.1 0.9 0.1 0.9 0.1 0.9 0.1 0.9 0.1 0.9 0.1 0.9 0.1 0.9099089384525875 0.09009106154741255 0.911163090271895 0.088836909728105 0.9 0.1 0.9 0.1 0.9 0.1 0.9 0.1 0.9 0.1 0.9 0.1 0.9 0.1 0.9 0.1 0.9 0.1 0.9 0.1 0.9 0.1 0.9 0.1 0.9 0.1 0.9099748577810914 0.09002514221890867 0.9419910057612954 0.05800899423870467 0.9 0.1 0.9 0.1 0.9 0.1 0.9 0.1 0.9 0.1 0.9 0.1 0.9 0.1 0.9 0.1 0.9 0.1 0.9 0.1 0.9 0.1 0.9 0.1 0.9 0.1 0.9371283552934826 0.06287164470651728 0.9183742255544256 0.08162577444557426 0.9 0.1 0.9 0.1 0.9 0.1 0.9 0.1 0.9 0.1 0.9 0.1 0.9 0.1 0.9 0.1 0.9 0.1 0.9 0.1 0.9 0.1 0.9 0.1 0.9 0.1 0.9123197790238303 0.08768022097616962 0.9008783569431417 0.09912164305685831 0.9 0.1 0.9 0.1 0.9 0.1 0.9 0.1 0.9 0.1 0.9 0.1 0.9 0.1 0.9 0.1 0.9 0.1 0.9 0.1 0.9 0.1 0.9 0.1 0.9 0.1 0.9 0.1 0.9 0.1 0.9 0.1 0.8506807860953476 0.1493192139046523 0.9 0.1 0.9 0.1 0.9 0.1 0.9 0.1 0.9 0.1 0.9 0.1 0.9 0.1 0.9 0.1 0.9 0.1 0.9 0.1 0.9 0.1 0.9 0.1 0.9 0.1 0.9 0.1 0.4895615376775057 0.5104384623224942 0.9 0.1 0.9 0.1 0.9 0.1 0.5529108761364222 0.4470891238635779 0.8016663730941309 0.198333626905869 0.7799698029577078 0.2200301970422922 0.8228478195784158 0.1771521804215841 0.8285925097127281 0.1714074902872719 0.9 0.1 0.9 0.1 0.9 0.1 0.9 0.1 0.9 0.1 0.9 0.1 0.8249660768292096 0.1750339231707904 0.9 0.1 0.9 0.1 0.9 0.1 0.9 0.1 0.9 0.1 0.9 0.1 0.9 0.1 0.9 0.1 0.9 0.1 0.9 0.1 0.9 0.1 0.9 0.1 0.9 0.1 0.9 0.1 0.7881974289289823 0.2118025710710178 0.9555555555555555 0.04444444444444445 0.9 0.1 0.9 0.1 0.9 0.1 0.9 0.1 0.9 0.1 0.9 0.1 0.9 0.1 0.9 0.1 0.9 0.1 0.9 0.1 0.9 0.1 0.9 0.1 0.9 0.1 0.8958090299356964 0.1041909700643035 0.9 0.1 0.9 0.1 0.9 0.1 0.9 0.1 0.9 0.1 0.9 0.1 0.9 0.1 0.8320967294047668 0.1679032705952332 0.9 0.1 0.9 0.1 0.9 0.1 0.9 0.1 0.8529693412807177 0.1470306587192824 0.9 0.1 0.9 0.1 0.9 0.1 0.9 0.1 0.8640367635731093 0.1359632364268906 0.9 0.1 0.9 0.1 0.9 0.1 0.9 0.1 0.8773474055314668 0.1226525944685331 0.9 0.1 0.9 0.1 0.9 0.1 0.9 0.1 0.8832694915263163 0.1167305084736836 0.9 0.1 0.9 0.1 0.6 0.4 0.9 0.1 0.8866890450203954 0.1133109549796047 0.9 0.1 0.9 0.1 0.9 0.1 0.9 0.1 0.877899089058231 0.122100910941769 0.9 0.1 0.9 0.1 0.9 0.1 0.9 0.1 0.8836579251677379 0.116342074832262 0.9 0.1 0.9 0.1 0.9 0.1 0.9 0.1 0.8869891714005125 0.1130108285994876 0.9 0.1 0.9 0.1 0.9 0.1 0.9 0.1 0.8620651939400037 0.1379348060599963 0.9 0.1 0.9 0.1 0.9 0.1 0.9077315195303709 0.09226848046962904 0.8522928851038561 0.1477071148961439 0.9 0.1 0.9 0.1 0.9 0.1 0.9 0.1 0.8636156979026746 0.1363843020973255 0.9 0.1 0.9 0.1 0.9 0.1 0.9 0.1 0.8862828072105544 0.1137171927894455 0.9 0.1 0.9 0.1 0.9 0.1 0.9 0.1 0.8839146001177004 0.1160853998822997 0.9 0.1 0.9 0.1 0.9 0.1 0.9 0.1 0.8871885266358573 0.1128114733641428 0.8852082738188041 0.1147917261811959 0.9 0.1 0.9 0.1 0.9 0.1 0.9 0.1 0.9 0.1 0.9 0.1 0.9 0.1 0.9 0.1 0.9 0.1 0.6 0.4 0.9 0.1 0.9 0.1 0.9 0.1 0.9 0.1 0.9047179624995682 0.09528203750043195 0.9 0.1 0.9 0.1 0.9 0.1 0.9 0.1 0.9 0.1 0.9 0.1 0.9 0.1 0.9 0.1 0.9 0.1 0.9 0.1 0.9 0.1 0.9 0.1 0.9 0.1 0.9 0.1 0.8971457309921426 0.1028542690078575 0.9 0.1 0.9 0.1 0.9 0.1 0.9 0.1 0.9 0.1 0.9 0.1 0.9 0.1 0.9 0.1 0.9 0.1 0.9 0.1 0.9 0.1 0.9 0.1 0.9 0.1 0.9 0.1 0.6153486068208329 0.3846513931791671 0.9 0.1 0.9 0.1 0.9 0.1 0.9 0.1 0.9 0.1 0.9 0.1 0.9 0.1 0.9 0.1 0.9 0.1 0.9 0.1 0.9 0.1 0.9 0.1 0.9 0.1 0.9 0.1 0.8971457309921426 0.1028542690078575 0.9 0.1 0.9 0.1 0.9 0.1 0.9 0.1 0.9 0.1 0.9 0.1 0.9 0.1 0.9 0.1 0.9 0.1 0.9 0.1 0.9 0.1 0.9 0.1 0.9 0.1 0.9 0.1 0.9 0.1 0.9 0.1 0.9 0.1 0.9 0.1 0.9 0.1 0.9 0.1 0.9 0.1 0.9 0.1 0.9 0.1 0.9 0.1 0.9 0.1 0.9 0.1 0.9 0.1 0.9 0.1 0.9 0.1 0.9 0.1 0.9 0.1 0.9 0.1 0.9 0.1 0.9 0.1 0.9 0.1 0.9 0.1 0.9 0.1 0.9 0.1 0.9 0.1 0.9 0.1 0.9 0.1 0.9 0.1 0.9 0.1 0.9 0.1 0.9 0.1 0.9 0.1 0.9 0.1 0.9 0.1 0.9 0.1 0.9 0.1 0.9 0.1 0.9 0.1 0.9 0.1 0.9 0.1 0.9 0.1 0.9 0.1 0.9 0.1 0.9 0.1 0.9 0.1 0.9 0.1 0.9 0.1 0.9 0.1 0.9 0.1 0.9 0.1 0.9 0.1 0.9 0.1 0.9 0.1 0.9 0.1 0.9 0.1 0.9 0.1 0.9 0.1 0.9 0.1 0.9 0.1 0.9 0.1 0.9 0.1 0.9 0.1 0.9 0.1 0.9 0.1 0.9 0.1 0.9 0.1 0.9 0.1 0.9 0.1 0.9 0.1 0.9 0.1 0.9 0.1 0.9 0.1 0.9 0.1 0.9 0.1 0.9 0.1 0.8976339316392687 0.1023660683607312 0.9 0.1 0.9 0.1 0.9 0.1 0.9 0.1 0.9 0.1 0.9 0.1 0.9 0.1 0.9 0.1 0.9 0.1 0.9 0.1 0.9 0.1 0.9 0.1 0.9 0.1 0.9 0.1 0.869164373552645 0.1308356264473549 0.9 0.1 0.9 0.1 0.9 0.1 0.9 0.1 0.9 0.1 0.9 0.1 0.9 0.1 0.9 0.1 0.9 0.1 0.9 0.1 0.9 0.1 0.9 0.1 0.9 0.1 0.9 0.1 0.8975855807564183 0.1024144192435817 0.9 0.1 0.9 0.1 0.9 0.1 0.9 0.1 0.9 0.1 0.9 0.1 0.9 0.1 0.9 0.1 0.9 0.1 0.9 0.1 0.9 0.1 0.9 0.1 0.9 0.1 0.9 0.1 0.863666613664975 0.1363333863350251 0.9 0.1 0.9 0.1 0.9 0.1 0.9 0.1 0.9 0.1 0.9 0.1 0.9 0.1 0.9 0.1 0.9 0.1 0.9 0.1 0.9 0.1 0.9 0.1 0.9 0.1 0.9 0.1 0.8976339316392687 0.1023660683607312 0.9 0.1 0.9 0.1 0.9 0.1 0.9 0.1 0.9 0.1 0.9 0.1 0.9 0.1 0.9 0.1 0.9 0.1 0.9 0.1 0.9 0.1 0.9 0.1 0.9 0.1 0.9 0.1 0.9 0.1 0.9 0.1 0.9 0.1 0.9 0.1 0.6717700428993969 0.3282299571006032 0.9 0.1 0.9 0.1 0.9 0.1 0.8952681726782962 0.1047318273217038 0.9 0.1 0.9 0.1 0.9 0.1 0.9 0.1 0.9 0.1 0.9 0.1 0.9028074029095563 0.09719259709044364 0.9 0.1 0.9 0.1 0.9 0.1 0.5802602092371785 0.4197397907628216 0.9048705879132087 0.0951294120867912 0.9 0.1 0.9 0.1 0.8687933446171804 0.1312066553828197 0.9 0.1 0.9008228301460426 0.09917716985395733 0.9 0.1 0.9 0.1 0.9 0.1 0.9 0.1 0.9 0.1 0.9 0.1 0.9555555555555555 0.04444444444444445 0.9 0.1 0.8073093312399662 0.192690668760034 0.9 0.1 0.9 0.1 0.9 0.1 0.6227107974040649 0.3772892025959351 0.9333333333333332 0.06666666666666667 0.9 0.1 0.9 0.1 0.9 0.1 0.9 0.1 0.9 0.1 0.9041928229697029 0.09580717703029708 0.9 0.1 0.9 0.1 0.9 0.1 0.8587688468047304 0.1412311531952696 0.9042824709817592 0.09571752901824077 0.9 0.1 0.9 0.1 0.8891691475668 0.1108308524332001 0.9 0.1 0.9006048565647197 0.09939514343528026 0.9 0.1 0.9 0.1 0.9 0.1 0.9 0.1 0.9 0.1 0.9 0.1 0.9 0.1 0.9 0.1 0.8836197915878767 0.1163802084121233 0.9 0.1 0.9 0.1 0.9 0.1 0.898813110708094 0.1011868892919059 0.9 0.1 0.9 0.1 0.9 0.1 0.9 0.1 0.9 0.1 0.9 0.1 0.9 0.1 0.9 0.1 0.9 0.1 0.9 0.1 0.9 0.1 0.9 0.1 0.9 0.1 0.9 0.1 0.9 0.1 0.9 0.1 0.9 0.1 0.9 0.1 0.9 0.1 0.9 0.1 0.9 0.1 0.9 0.1 0.9077315195303709 0.09226848046962904 0.9 0.1 0.9 0.1 0.9 0.1 0.9 0.1 0.9 0.1 0.9 0.1 0.9 0.1 0.9 0.1 0.9 0.1 0.9 0.1 0.9 0.1 0.9 0.1 0.9 0.1 0.9 0.1 0.9 0.1 0.9 0.1 0.9 0.1 0.9 0.1 0.9 0.1 0.9 0.1 0.9 0.1 0.9 0.1 0.9 0.1 0.9 0.1 0.9 0.1 0.9 0.1 0.9 0.1 0.9 0.1 0.9 0.1 0.9 0.1 0.9 0.1 0.9 0.1 0.9 0.1 0.9 0.1 0.9 0.1 0.9 0.1 0.9 0.1 0.9 0.1 0.9 0.1 0.9 0.1 0.9 0.1 0.9 0.1 0.9 0.1 0.9 0.1 0.9 0.1 0.9 0.1 0.9 0.1 0.9 0.1 0.9 0.1 0.9 0.1 0.9 0.1 0.9 0.1 0.9 0.1 0.9 0.1 0.9 0.1 0.9 0.1 0.9 0.1 0.9 0.1 0.9 0.1 0.9 0.1 0.9 0.1 0.9 0.1 0.9 0.1 0.9 0.1 0.9043170416819321 0.09568295831806803 0.9 0.1 0.4 0.6 0.9 0.1 0.9 0.1 0.9 0.1 0.9 0.1 0.9 0.1 0.9 0.1 0.9 0.1 0.9 0.1 0.9 0.1 0.9 0.1 0.9 0.1 0.9 0.1 0.9071477466276407 0.09285225337235919 0.9 0.1 0.9 0.1 0.9 0.1 0.9 0.1 0.9 0.1 0.9 0.1 0.9 0.1 0.9 0.1 0.9 0.1 0.9 0.1 0.9 0.1 0.9 0.1 0.9 0.1 0.9 0.1 0.9220235352911043 0.07797646470889565 0.9 0.1 0.9 0.1 0.9 0.1 0.9 0.1 0.9 0.1 0.9 0.1 0.9 0.1 0.9 0.1 0.9 0.1 0.9 0.1 0.9 0.1 0.9 0.1 0.9 0.1 0.9 0.1 0.904793241399297 0.09520675860070299 0.8722052365581521 0.1277947634418479 0.9 0.1 0.9 0.1 0.9 0.1 0.9 0.1 0.9 0.1 0.9 0.1 0.9 0.1 0.9 0.1 0.9 0.1 0.9 0.1 0.9 0.1 0.9 0.1 0.9 0.1 0.9043170416819321 0.09568295831806803 0.9 0.1 0.9 0.1 0.9 0.1 0.9 0.1 0.9 0.1 0.9 0.1 0.9 0.1 0.9 0.1 0.9 0.1 0.9 0.1 0.9 0.1 0.9 0.1 0.9001433791917072 0.09985662080829276 0.9001386450560531 0.09986135494394685 0.9002593264536483 0.09974067354635179 0.9006473010207235 0.09935269897927651 0.8972819894934775 0.1027180105065226 0.9000305102572341 0.09996948974276575 0.9 0.1 0.9 0.1 0.9 0.1 0.9 0.1 0.9 0.1 0.9 0.1 0.9 0.1 0.9 0.1 0.9 0.1 0.9012303339563302 0.09876966604366974 0.6010531270327025 0.3989468729672975 0.900255972912705 0.09974402708729502 0.9006473010207235 0.09935269897927651 0.898302276801469 0.1016977231985311 0.9002624780011673 0.09973752199883269 0.9 0.1 0.9 0.1 0.9 0.1 0.9 0.1 0.9 0.1 0.9 0.1 0.9 0.1 0.9 0.1 0.9 0.1 0.9032295694094519 0.09677043059054807 0.9002379005203328 0.0997620994796673 0.4007769781852315 0.5992230218147685 0.9177000390968888 0.08229996090311109 0.8982907908065987 0.1017092091934013 0.9006951401809691 0.09930485981903095 0.9 0.1 0.9 0.1 0.9 0.1 0.9 0.1 0.9 0.1 0.9 0.1 0.9 0.1 0.9 0.1 0.9 0.1 0.9034733007521329 0.0965266992478671 0.9007911703885759 0.09920882961142413 0.9008641087229302 0.0991358912770698 0.9184828252657077 0.08151717473429232 0.8752222740241409 0.1247777259758592 0.9007516422741656 0.09924835772583437 0.9 0.1 0.9 0.1 0.9 0.1 0.9 0.1 0.9 0.1 0.9 0.1 0.9 0.1 0.9 0.1 0.9 0.1 0.9001433791917072 0.09985662080829276 0.9001386450560531 0.09986135494394685 0.9000731909659637 0.09992680903403622 0.9052917015350904 0.09470829846490968 0.8972988944591187 0.1027011055408812 0.9000305102572341 0.09996948974276575 0.9 0.1 0.9 0.1 0.9 0.1 0.9 0.1 0.9 0.1 0.9 0.1 0.9 0.1 0.9 0.1 0.9 0.1 0.9 0.1 0.9 0.1 0.9 0.1 0.7670313988454013 0.2329686011545987 0.9 0.1 0.9 0.1 0.9 0.1 0.9 0.1 0.9 0.1 0.9 0.1 0.9 0.1 0.9 0.1 0.9 0.1 0.9 0.1 0.9048638708144146 0.09513612918558556 0.9 0.1 0.9 0.1 0.9 0.1 0.8699503977988684 0.1300496022011317 0.9030303251699018 0.09696967483009812 0.9 0.1 0.9 0.1 0.9 0.1 0.9 0.1 0.9002059740271818 0.09979402597281822 0.9 0.1 0.9 0.1 0.9 0.1 0.9 0.1 0.9 0.1 0.9 0.1 0.9 0.1 0.9 0.1 0.561591186081325 0.438408813918675 0.9 0.1 0.9 0.1 0.9 0.1 0.9 0.1 0.9 0.1 0.9 0.1 0.9 0.1 0.9 0.1 0.9 0.1 0.9 0.1 0.9 0.1 0.9 0.1 0.9 0.1 0.9 0.1 0.7854300702439306 0.2145699297560694 0.9 0.1 0.9146994412047453 0.08530055879525469 0.9 0.1 0.9 0.1 0.9 0.1 0.9 0.1 0.9 0.1 0.9 0.1 0.9 0.1 0.9 0.1 0.9 0.1 0.9 0.1 0.9 0.1 0.9 0.1 0.8954334051004662 0.1045665948995337 0.9 0.1 0.9 0.1 0.9 0.1 0.9 0.1 0.9 0.1 0.9 0.1 0.9 0.1 0.9 0.1 0.9 0.1 0.9 0.1 0.8868416680742234 0.1131583319257766 0.4154782218989305 0.5845217781010694 0.9 0.1 0.9333333333333332 0.06666666666666667 0.9 0.1 0.9 0.1 0.9 0.1 0.9 0.1 0.9 0.1 0.9 0.1 0.9 0.1 0.417017941549028 0.582982058450972 0.9 0.1 0.9 0.1 0.9 0.1 0.8863070548706603 0.1136929451293397 0.9 0.1 0.9 0.1 0.9 0.1 0.9 0.1 0.9 0.1 0.9 0.1 0.9 0.1 0.9 0.1 0.9 0.1 0.9 0.1 0.9 0.1 0.9 0.1 0.9 0.1 0.9 0.1 0.2520870388526341 0.7479129611473659 0.9 0.1 0.9 0.1 0.9 0.1 0.9 0.1 0.9 0.1 0.9 0.1 0.9 0.1 0.9 0.1 0.9 0.1 0.9 0.1 0.4154782218989305 0.5845217781010694 0.9 0.1 0.9 0.1 0.9 0.1 0.8446719948530964 0.1553280051469036 0.9 0.1 0.9 0.1 0.9 0.1 0.9 0.1 0.9 0.1 0.9 0.1 0.9 0.1 0.9 0.1 0.9 0.1 0.9 0.1 0.9 0.1 0.9 0.1 0.9 0.1 0.9 0.1 0.8965644950755093 0.1034355049244907 0.9 0.1 0.9 0.1 0.9 0.1 0.9 0.1 0.9 0.1 0.9 0.1 0.9 0.1 0.9 0.1 0.9 0.1 0.9 0.1 0.9 0.1 0.9 0.1 0.9 0.1 0.9 0.1 0.9 0.1 0.9 0.1 0.9 0.1 0.9 0.1 0.9333333333333332 0.06666666666666667 0.9 0.1 0.9 0.1 0.9 0.1 0.9 0.1 0.9 0.1 0.9 0.1 0.9 0.1 0.9 0.1 0.9 0.1 0.9 0.1 0.9 0.1 0.9 0.1 0.9 0.1 0.9 0.1 0.9 0.1 0.9 0.1 0.9 0.1 0.9 0.1 0.9 0.1 0.9 0.1 0.9 0.1 0.9 0.1 0.9 0.1 0.9 0.1 0.9 0.1 0.9 0.1 0.9 0.1 0.9 0.1 0.9 0.1 0.9 0.1 0.9 0.1 0.9 0.1 0.9 0.1 0.9 0.1 0.9 0.1 0.9 0.1 0.9 0.1 0.9 0.1 0.9 0.1 0.9 0.1 0.6130235748288492 0.3869764251711509 0.9 0.1 0.9 0.1 0.9 0.1 0.9 0.1 0.9 0.1 0.9 0.1 0.9 0.1 0.9 0.1 0.9 0.1 0.9 0.1 0.9 0.1 0.9 0.1 0.9 0.1 0.9 0.1 0.9 0.1 0.9 0.1 0.9 0.1 0.9 0.1 0.9 0.1 0.9 0.1 0.9 0.1 0.9 0.1 0.9 0.1 0.9 0.1 0.9 0.1 0.9 0.1 0.9 0.1 0.9 0.1 0.9 0.1 0.9 0.1 0.9 0.1 0.9 0.1 0.9 0.1 0.9 0.1 0.9 0.1 0.9 0.1 0.9 0.1 0.9 0.1 0.9 0.1 0.9 0.1 0.9 0.1 0.9 0.1 0.9 0.1 0.9 0.1 0.9 0.1 0.9 0.1 0.9 0.1 0.9 0.1 0.9 0.1 0.9 0.1 0.4154782218989305 0.5845217781010694 0.9 0.1 0.9 0.1 0.9 0.1 0.9 0.1 0.9 0.1 0.9 0.1 0.9 0.1 0.9 0.1 0.9 0.1 0.9 0.1 0.9 0.1 0.9 0.1 0.9 0.1 0.9 0.1 0.9555555555555555 0.04444444444444445 0.9 0.1 0.9 0.1 0.9 0.1 0.9 0.1 0.9 0.1 0.9 0.1 0.9 0.1 0.9 0.1 0.9 0.1 0.9502146790100929 0.04978532098990705 0.9 0.1 0.9 0.1 0.9 0.1 0.9 0.1 0.9 0.1 0.9 0.1 0.9 0.1 0.9 0.1 0.9 0.1 0.9 0.1 0.9 0.1 0.9 0.1 0.9 0.1 0.9 0.1 0.9 0.1 0.9 0.1 0.9 0.1 0.9 0.1 0.9 0.1 0.9 0.1 0.9 0.1 0.9 0.1 0.9 0.1 0.9 0.1 0.9 0.1 0.9 0.1 0.9 0.1 0.9 0.1 0.9 0.1 0.9 0.1 0.9 0.1 0.9 0.1 0.9 0.1 0.8914801438060983 0.1085198561939018 0.9 0.1 0.9 0.1 0.9 0.1 0.9 0.1 0.9 0.1 0.9 0.1 0.707334055791218 0.2926659442087819 0.9 0.1 0.9 0.1 0.9 0.1 0.9 0.1 0.5191375442426022 0.4808624557573978 0.9 0.1 0.9 0.1 0.8536730841424267 0.1463269158575733 0.9 0.1 0.887605153250007 0.112394846749993 0.9 0.1 0.9 0.1 0.9 0.1 0.9 0.1 0.9 0.1 0.9 0.1 0.9 0.1 0.9 0.1 0.9 0.1 0.9 0.1 0.9 0.1 0.9 0.1 0.8559961235087346 0.1440038764912654 0.9 0.1 0.9 0.1 0.9 0.1 0.9 0.1 0.9 0.1 0.9 0.1 0.9 0.1 0.9 0.1 0.9 0.1 0.9 0.1 0.9 0.1 0.9 0.1 0.9 0.1 0.9 0.1 0.3252941679998467 0.6747058320001534 0.9 0.1 0.9 0.1 0.9 0.1 0.9 0.1 0.9 0.1 0.9 0.1 0.9 0.1 0.9 0.1 0.9 0.1 0.9 0.1 0.9333333333333332 0.06666666666666667 0.9 0.1 0.9 0.1 0.9 0.1 0.8914801438060983 0.1085198561939018 0.4154782218989305 0.5845217781010694 0.9 0.1 0.9 0.1 0.9 0.1 0.9 0.1 0.9 0.1 0.8567315406175366 0.1432684593824634 0.8897632044865158 0.1102367955134842 0.9340616185330461 0.06593838146695385 0.3228448343597894 0.6771551656402106 0.2643502706759404 0.7356497293240597 0.9 0.1 0.888551655404404 0.111448344595596 0.567947219882852 0.432052780117148 0.8886573480731353 0.1113426519268647 0.9211862483643934 0.07881375163560651 0.9 0.1 0.9 0.1 0.9 0.1 0.9 0.1 0.900517314444054 0.09948268555594594 0.4345078704174331 0.565492129582567 0.8932335900085917 0.1067664099914082 0.4776597804922294 0.5223402195077705 0.8225540377084717 0.1774459622915284 0.9293888173977107 0.07061118260228917 0.9066244779687853 0.09337552203121464 0.8995469353170348 0.1004530646829653 0.7239668160974837 0.2760331839025164 0.9156719953175038 0.08432800468249628 0.5512623300332811 0.4487376699667189 0.9 0.1 0.9 0.1 0.9 0.1 0.9 0.1 0.9 0.1 0.4702664273547349 0.5297335726452651 0.8692538531509557 0.1307461468490443 0.9349725264644949 0.06502747353550511 0.2095615022121947 0.7904384977878053 0.7543518337100223 0.2456481662899776 0.9292768713426725 0.07072312865732766 0.8883525319330042 0.1116474680669958 0.9322584184878712 0.06774158151212879 0.4503062926555086 0.5496937073444913 0.9 0.1 0.9 0.1 0.9 0.1 0.9 0.1 0.9 0.1 0.9 0.1 0.8195479369447762 0.1804520630552238 0.5362219039797594 0.4637780960202405 0.9284607666006209 0.07153923339937895 0.9747909959133023 0.02520900408669761 0.9 0.1 0.9 0.1 0.7106575508246584 0.2893424491753416 0.8348469073879041 0.1651530926120959 0.9404498743006979 0.05955012569930196 0.9 0.1 0.9 0.1 0.9 0.1 0.9 0.1 0.9 0.1 0.9 0.1 0.8911289242052096 0.1088710757947904 0.8982146131163308 0.1017853868836692 0.8992647837922284 0.1007352162077716 0.9009401434613921 0.09905985653860788 0.6130235748288492 0.3869764251711509 0.9 0.1 0.8989571459782688 0.1010428540217312 0.8962413127077847 0.1037586872922153 0.5965163377742063 0.4034836622257938 0.9 0.1 0.9 0.1 0.9 0.1 0.9 0.1 0.9 0.1 0.9 0.1 0.9315664238739924 0.06843357612600762 0.9 0.1 0.9 0.1 0.902574383248972 0.09742561675102798 0.8819855309381607 0.1180144690618393 0.9051222961782353 0.09487770382176468 0.898510195947672 0.1014898040523279 0.9007367816643416 0.09926321833565838 0.9 0.1 0.9 0.1 0.9 0.1 0.9 0.1 0.9 0.1 0.9 0.1 0.9 0.1 0.938506568071239 0.06149343192876097 0.9403056081888379 0.05969439181116202 0.9372286592249658 0.0627713407750342 0.9670135543618288 0.03298644563817119 0.9317804751980834 0.06821952480191668 0.9249832006340644 0.07501679936593579 0.86297193430718 0.1370280656928201 0.9079371509636925 0.09206284903630749 0.9 0.1 0.9 0.1 0.9 0.1 0.9 0.1 0.9 0.1 0.9 0.1 0.9 0.1 0.68752317229084 0.3124768277091599 0.84 0.16 0.5599999999999999 0.4400000000000001 0.5755186637085906 0.4244813362914094 0.2781777104960654 0.7218222895039346 0.7183922748751659 0.2816077251248341 0.4485883194986405 0.5514116805013594 0.9392048042662875 0.0607951957337125 0.7165133783396338 0.2834866216603663 0.9 0.1 0.9 0.1 0.9 0.1 0.9 0.1 0.9 0.1 0.9 0.1 0.9448344714198763 0.05516552858012368 0.6 0.4 0.9 0.1 0.519856453798756 0.4801435462012439 0.8595471803356802 0.1404528196643197 0.9364946307078735 0.06350536929212648 0.8924388117915001 0.1075611882084998 0.7291224699261234 0.2708775300738767 0.9 0.1 0.6130235748288492 0.3869764251711509 0.9 0.1 0.9 0.1 0.9 0.1 0.9 0.1 0.9 0.1 0.9065341466673353 0.09346585333266473 0.9 0.1 0.9 0.1 0.9006438330588686 0.09935616694113124 0.5876924831080544 0.4123075168919456 0.9131746102763721 0.08682538972362787 0.8996180636052156 0.1003819363947843 0.9044409215150839 0.0955590784849161 0.9 0.1 0.9 0.1 0.9 0.1 0.9 0.1 0.9 0.1 0.9 0.1 0.9 0.1 0.9039537101641876 0.09604628983581248 0.9009279154452254 0.09907208455477455 0.9001540094666529 0.09984599053334701 0.9017657627689132 0.09823423723108682 0.9015554074726505 0.09844459252734943 0.9 0.1 0.9 0.1 0.9 0.1 0.9 0.1 0.9 0.1 0.9 0.1 0.9 0.1 0.9 0.1 0.9 0.1 0.9 0.1 0.9012810108139913 0.0987189891860087 0.9015649437309119 0.09843505626908811 0.9006582778302173 0.0993417221697826 0.9306059117154516 0.06939408828454843 0.9018506929964588 0.09814930700354124 0.9 0.1 0.9 0.1 0.9 0.1 0.9 0.1 0.9 0.1 0.9 0.1 0.9 0.1 0.9 0.1 0.9 0.1 0.9 0.1 0.9062139068775821 0.09378609312241784 0.9053918430635949 0.09460815693640506 0.9005567718843105 0.09944322811568962 0.9017657627689132 0.09823423723108682 0.9015554074726505 0.09844459252734943 0.9 0.1 0.6130235748288492 0.3869764251711509 0.9 0.1 0.9 0.1 0.9 0.1 0.9 0.1 0.9 0.1 0.9 0.1 0.9 0.1 0.9 0.1 0.904116704253206 0.0958832957467939 0.9010332805799168 0.09896671942008324 0.9010999562914993 0.09890004370850076 0.9018076446301495 0.09819235536985041 0.9044079401402801 0.09559205985971991 0.9 0.1 0.9 0.1 0.9 0.1 0.9 0.1 0.9 0.1 0.9 0.1 0.9 0.1 0.9 0.1 0.9 0.1 0.9 0.1 0.9011446290385895 0.0988553709614105 0.9009279154452254 0.09907208455477455 0.9001540094666529 0.09984599053334701 0.9005094950683442 0.09949050493165586 0.9015554074726505 0.09844459252734943 0.9 0.1 0.9 0.1 0.9 0.1 0.9 0.1 0.9 0.1 0.9 0.1 0.9 0.1 0.9 0.1 0.9 0.1 0.9 0.1 0.9 0.1 0.9 0.1 0.9011773483029394 0.09882265169706049 0.9 0.1 0.9 0.1 0.9 0.1 0.9 0.1 0.9 0.1 0.8774912116416297 0.1225087883583704 0.9 0.1 0.9 0.1 0.9 0.1 0.9 0.1 0.9 0.1 0.9 0.1 0.9 0.1 0.9 0.1 0.9011773483029394 0.09882265169706049 0.9 0.1 0.9 0.1 0.9 0.1 0.9 0.1 0.9 0.1 0.8853395303382612 0.1146604696617388 0.417017941549028 0.582982058450972 0.9 0.1 0.9 0.1 0.9 0.1 0.9 0.1 0.9 0.1 0.9 0.1 0.9 0.1 0.9444225875924893 0.05557741240751059 0.9 0.1 0.9 0.1 0.9333333333333332 0.06666666666666667 0.4154782218989305 0.5845217781010694 0.4 0.6 0.8852436062296535 0.1147563937703466 0.4878413949318493 0.5121586050681508 0.9 0.1 0.9 0.1 0.9 0.1 0.9 0.1 0.9 0.1 0.9114598111333431 0.08854018886665692 0.9072426362727128 0.092757363727287 0.9543898879579918 0.04561011204200812 0.9155624701720684 0.08443752982793169 0.9161351395771937 0.08386486042280629 0.9 0.1 0.9 0.1 0.9 0.1 0.4075131101319308 0.5924868898680693 0.6 0.4 0.9 0.1 0.9 0.1 0.9 0.1 0.9 0.1 0.9 0.1 0.9 0.1 0.9 0.1 0.9070915908557496 0.09290840914425043 0.9 0.1 0.9 0.1 0.9 0.1 0.9 0.1 0.9 0.1 0.9233924041128536 0.07660759588714632 0.9 0.1 0.9 0.1 0.9 0.1 0.9 0.1 0.9 0.1 0.9 0.1 0.8932364709656504 0.1067635290343498 0.8747208911000827 0.1252791088999173 0.9428016144438205 0.05719838555617941 0.91782911705078 0.08217088294922011 0.9497293356658717 0.05027066433412835 0.9029958669772284 0.09700413302277174 0.9520713313347532 0.04792866866524679 0.944991048949217 0.05500895105078293 0.6219480617703351 0.378051938229665 0.8229882215351073 0.1770117784648927 0.9000066121691203 0.09999338783087972 0.8993608413622519 0.1006391586377481 0.9000665772754167 0.09993342272458333 0.9000239789583826 0.09997602104161736 0.9000144551573046 0.0999855448426954 0.5215640144369654 0.4784359855630346 0.9106347959231964 0.08936520407680359 0.9762249497152338 0.02377505028476621 0.7424684156322998 0.2575315843677003 0.6344622021345379 0.3655377978654621 0.9782017461675412 0.02179825383245877 0.9265587360187878 0.0734412639812122 0.9811158681190797 0.0188841318809204 0.9604536661286763 0.03954633387132367 0.7650035383887432 0.2349964616112567 0.9000477967281347 0.09995220327186541 0.8980458562490157 0.1019541437509845 0.9000443651236792 0.0999556348763207 0.9001824027058477 0.09981759729415245 0.9000177010418298 0.09998229895817026 0.5318354707030604 0.4681645292969396 0.544335295427563 0.4556647045724369 0.7488786638710423 0.2511213361289577 0.9090534711551165 0.09094652884488355 0.8124918328454599 0.1875081671545402 0.8457017073425682 0.1542982926574318 0.9162974022762008 0.08370259772379908 0.6805449629193219 0.3194550370806781 0.9609941839104266 0.03900581608957346 0.9042161039509006 0.09578389604909947 0.9000849002266792 0.09991509977332086 0.8986252444422556 0.1013747555577444 0.9001042814885839 0.09989571851141617 0.9001913300845664 0.09980866991543362 0.9000260589193683 0.09997394108063186 0.9229812229570182 0.07701877704298181 0.7470388663379314 0.2529611336620687 0.7147635821085438 0.2852364178914562 0.2430840802233789 0.7569159197766211 0.5437977381279641 0.456202261872036 0.4106942054004041 0.5893057945995959 0.9095536713362546 0.0904463286637454 0.9856036166729679 0.01439638332703213 0.3191985823777277 0.6808014176222722 0.8633211725734854 0.1366788274265147 0.9000193440526565 0.09998065594734355 0.898530150668551 0.1014698493314489 0.9000972104157705 0.09990278958422959 0.900116348414955 0.09988365158504495 0.9000356274793108 0.09996437252068942 0.896903388576756 0.1030966114232441 0.8933958892338325 0.1066041107661675 0.5840493527438763 0.4159506472561238 0.925258681901868 0.07474131809813207 0.6118078054390247 0.3881921945609753 0.9014524089560159 0.09854759104398415 0.9003849552674185 0.09961504473258155 0.8746740870459803 0.1253259129540197 0.9026619311787881 0.09733806882121204 0.8826009134618632 0.1173990865381369 0.9000031560119746 0.09999684398802558 0.8997412582989501 0.1002587417010499 0.9000128822873527 0.09998711771264734 0.9000136166519915 0.09998638334800847 0.9000022656802071 0.09999773431979292 0.9 0.1 0.9 0.1 0.9 0.1 0.9 0.1 0.9 0.1 0.9 0.1 0.9293786780657427 0.07062132193425731 0.9 0.1 0.9 0.1 0.9175329787742685 0.0824670212257315 0.9000000000000001 0.1 0.9 0.1 0.9 0.1 0.9 0.1 0.9 0.1 0.9 0.1 0.9 0.1 0.9 0.1 0.9 0.1 0.9 0.1 0.9 0.1 0.9 0.1 0.9 0.1 0.9 0.1 0.905712818000146 0.094287181999854 0.9 0.1 0.9 0.1 0.9 0.1 0.9 0.1 0.9 0.1 0.9 0.1 0.6 0.4 0.9 0.1 0.9 0.1 0.9 0.1 0.9 0.1 0.9 0.1 0.9 0.1 0.9 0.1 0.9098113238320015 0.09018867616799857 0.9 0.1 0.9 0.1 0.9 0.1 0.9 0.1 0.9 0.1 0.9 0.1 0.9 0.1 0.9 0.1 0.9 0.1 0.9 0.1 0.9 0.1 0.9 0.1 0.9 0.1 0.9 0.1 0.9306187329996168 0.06938126700038311 0.9 0.1 0.9 0.1 0.9 0.1 0.9 0.1 0.9 0.1 0.9 0.1 0.9 0.1 0.9 0.1 0.9 0.1 0.9 0.1 0.9 0.1 0.9 0.1 0.9 0.1 0.9 0.1 0.9055296344346122 0.09447036556538785 0.9 0.1 0.9 0.1 0.9 0.1 0.9 0.1 0.9 0.1 0.9 0.1 0.9 0.1 0.9 0.1 0.9 0.1 0.9 0.1 0.9 0.1 0.9666666666666668 0.03333333333333334 0.9497487283663568 0.05025127163364305 0.9 0.1 0.9 0.1 0.9 0.1 0.9 0.1 0.9 0.1 0.9 0.1 0.9 0.1 0.9 0.1 0.9 0.1 0.9 0.1 0.9 0.1 0.9 0.1 0.9 0.1 0.6 0.4 0.9 0.1 0.9 0.1 0.9 0.1 0.9 0.1 0.9 0.1 0.9 0.1 0.9 0.1 0.9 0.1 0.9 0.1 0.9 0.1 0.9 0.1 0.9 0.1 0.9 0.1 0.9 0.1 0.9 0.1 0.9 0.1 0.9 0.1 0.9 0.1 0.9 0.1 0.9 0.1 0.9 0.1 0.9 0.1 0.9 0.1 0.9 0.1 0.9 0.1 0.9 0.1 0.9 0.1 0.9 0.1 0.9 0.1 0.9 0.1 0.9 0.1 0.9 0.1 0.9 0.1 0.9 0.1 0.9 0.1 0.9 0.1 0.9 0.1 0.9 0.1 0.9 0.1 0.9 0.1 0.9 0.1 0.9 0.1 0.9 0.1 0.9 0.1 0.9 0.1 0.9 0.1 0.9 0.1 0.9 0.1 0.9 0.1 0.9 0.1 0.9 0.1 0.9 0.1 0.9 0.1 0.9 0.1 0.9 0.1 0.9 0.1 0.9 0.1 0.9 0.1 0.9 0.1 0.9 0.1 0.9 0.1 0.9 0.1 0.9 0.1 0.9 0.1 0.9 0.1 0.9 0.1 0.9 0.1 0.9 0.1 0.9 0.1 0.9 0.1 0.9 0.1 0.9 0.1 0.9 0.1 0.9 0.1 0.9 0.1 0.9 0.1 0.9 0.1 0.9 0.1 0.9 0.1 0.9 0.1 0.9 0.1 0.9 0.1 0.9 0.1 0.9 0.1 0.9 0.1 0.9 0.1 0.9 0.1 0.9 0.1 0.9 0.1 0.9 0.1 0.9 0.1 0.9 0.1 0.9 0.1 0.9 0.1 0.9 0.1 0.9 0.1 0.9 0.1 0.9 0.1 0.9 0.1 0.9 0.1 0.9 0.1 0.9 0.1 0.9 0.1 0.9 0.1 0.9 0.1 0.9 0.1 0.9 0.1 0.9 0.1 0.9 0.1 0.9 0.1 0.9 0.1 0.9 0.1 0.9 0.1 0.9 0.1 0.9 0.1 0.9 0.1 0.9 0.1 0.9 0.1 0.9 0.1 0.9 0.1 0.9 0.1 0.9 0.1 0.9 0.1 0.9 0.1 0.9 0.1 0.9 0.1 0.9 0.1 0.9 0.1 0.9 0.1 0.9333333333333332 0.06666666666666667 0.9 0.1 0.9 0.1 0.9 0.1 0.9 0.1 0.9 0.1 0.9 0.1 0.9 0.1 0.9 0.1 0.9 0.1 0.9 0.1 0.9 0.1 0.9 0.1 0.9 0.1 0.9 0.1 0.9 0.1 0.9 0.1 0.9 0.1 0.9 0.1 0.9 0.1 0.9 0.1 0.9 0.1 0.9 0.1 0.9 0.1 0.9 0.1 0.9 0.1 0.9 0.1 0.9 0.1 0.9 0.1 0.9 0.1 0.9 0.1 0.9333333333333332 0.06666666666666667 0.9 0.1 0.9 0.1 0.9 0.1 0.9 0.1 0.9 0.1 0.9 0.1 0.9 0.1 0.9 0.1 0.9 0.1 0.9 0.1 0.9 0.1 0.9 0.1 0.9 0.1 0.9 0.1 0.9 0.1 0.9 0.1 0.9 0.1 0.9 0.1 0.9 0.1 0.9 0.1 0.9 0.1 0.9 0.1 0.9 0.1 0.9 0.1 0.9 0.1 0.9 0.1 0.9 0.1 0.9 0.1 0.9 0.1 0.9 0.1 0.9 0.1 0.9 0.1 0.9 0.1 0.9 0.1 0.9 0.1 0.9 0.1 0.9 0.1 0.9 0.1 0.9 0.1 0.9 0.1 0.9 0.1 0.9 0.1 0.9 0.1 0.9333333333333332 0.06666666666666667 0.8773063121704302 0.1226936878295697 0.9055424590066073 0.0944575409933926 0.9 0.1 0.9 0.1 0.9 0.1 0.9 0.1 0.8586483055627574 0.1413516944372426 0.9091087837583642 0.09089121624163568 0.9 0.1 0.9 0.1 0.9 0.1 0.9 0.1 0.9 0.1 0.9 0.1 0.9 0.1 0.7479673316478834 0.2520326683521167 0.9079951682828274 0.09200483171717255 0.9 0.1 0.9 0.1 0.9 0.1 0.9555555555555555 0.04444444444444445 0.837910010719241 0.1620899892807589 0.9377048460244436 0.06229515397555627 0.9 0.1 0.9 0.1 0.9 0.1 0.9 0.1 0.9 0.1 0.6130235748288492 0.3869764251711509 0.9555555555555557 0.04444444444444445 0.7402236188287111 0.2597763811712889 0.9441671274069526 0.05583287259304751 0.9 0.1 0.9 0.1 0.4 0.6 0.7 0.3 0.8998242953746021 0.1001757046253979 0.9090859642298112 0.09091403577018883 0.9 0.1 0.9 0.1 0.9 0.1 0.9 0.1 0.9 0.1 0.9 0.1 0.9 0.1 0.8555569202341954 0.1444430797658046 0.9134978071152562 0.08650219288474389 0.9 0.1 0.9 0.1 0.9 0.1 0.9 0.1 0.7352031356718731 0.2647968643281269 0.9049619282957054 0.09503807170429449 0.9 0.1 0.9 0.1 0.9 0.1 0.9 0.1 0.9 0.1 0.9333333333333332 0.06666666666666667 0.9 0.1 0.8972398619637854 0.1027601380362146 0.9014344234876681 0.09856557651233191 0.9 0.1 0.9 0.1 0.9 0.1 0.9 0.1 0.8946155184180469 0.1053844815819531 0.9025108258548697 0.09748917414513032 0.9 0.1 0.9 0.1 0.9 0.1 0.9 0.1 0.9 0.1 0.7984186714817008 0.2015813285182994 0.8557323195353418 0.1442676804646583 0.8868304831858245 0.1131695168141756 0.8381309083390156 0.1618690916609844 0.7601554054337858 0.2398445945662142 0.9 0.1 0.9016681807855369 0.09833181921446303 0.8973186383330805 0.1026813616669196 0.9 0.1 0.9 0.1 0.9 0.1 0.9 0.1 0.9 0.1 0.9 0.1 0.9 0.1 0.9 0.1 0.9 0.1 0.9214807939315469 0.07851920606845321 0.9 0.1 0.9 0.1 0.9 0.1 0.914775159409534 0.08522484059046587 0.8595973578466348 0.1404026421533652 0.6 0.4 0.9 0.1 0.9 0.1 0.9 0.1 0.9 0.1 0.9 0.1 0.9 0.1 0.9 0.1 0.9 0.1 0.8449505834278166 0.1550494165721833 0.9555555555555557 0.04444444444444445 0.9 0.1 0.9 0.1 0.9188124663739837 0.08118753362601616 0.8190170101219858 0.1809829898780142 0.9 0.1 0.9 0.1 0.9 0.1 0.9 0.1 0.9 0.1 0.9 0.1 0.9 0.1 0.6 0.4 0.7 0.3 0.4741839422756844 0.5258160577243156 0.9 0.1 0.9 0.1 0.9 0.1 0.9068467992751185 0.09315320072488155 0.6769099395156006 0.3230900604843993 0.9 0.1 0.9 0.1 0.9 0.1 0.9 0.1 0.9 0.1 0.9 0.1 0.9 0.1 0.9 0.1 0.9 0.1 0.8865859176699679 0.1134140823300322 0.9 0.1 0.9 0.1 0.4 0.6 0.9004432026418977 0.0995567973581024 0.8810051326550052 0.1189948673449948 0.9 0.1 0.9 0.1 0.9 0.1 0.9 0.1 0.9 0.1 0.9 0.1 0.9 0.1 0.9 0.1 0.9 0.1 0.9 0.1 0.9 0.1 0.9 0.1 0.9 0.1 0.9 0.1 0.9 0.1 0.9 0.1 0.9 0.1 0.9 0.1 0.9 0.1 0.9 0.1 0.9 0.1 0.9 0.1 0.9 0.1 0.9 0.1 0.9 0.1 0.9 0.1 0.9 0.1 0.9 0.1 0.9 0.1 0.9 0.1 0.9 0.1 0.9 0.1 0.9 0.1 0.9 0.1 0.9 0.1 0.9 0.1 0.9 0.1 0.9 0.1 0.9 0.1 0.9 0.1 0.9 0.1 0.9 0.1 0.9 0.1 0.9 0.1 0.9 0.1 0.9 0.1 0.9 0.1 0.9 0.1 0.9 0.1 0.9 0.1 0.9 0.1 0.9 0.1 0.9 0.1 0.9 0.1 0.9 0.1 0.9 0.1 0.9 0.1 0.9 0.1 0.9 0.1 0.9 0.1 0.9 0.1 0.9 0.1 0.9 0.1 0.9 0.1 0.9 0.1 0.9 0.1 0.9 0.1 0.9 0.1 0.9 0.1 0.9 0.1 0.9 0.1 0.9 0.1 0.9 0.1 0.9 0.1 0.9 0.1 0.9 0.1 0.9 0.1 0.9 0.1 0.9 0.1 0.9 0.1 0.9 0.1 0.9 0.1 0.903953480602766 0.09604651939723415 0.9 0.1 0.9 0.1 0.9 0.1 0.9 0.1 0.9 0.1 0.9 0.1 0.9033154572138455 0.09668454278615454 0.9 0.1 0.9 0.1 0.9 0.1 0.9 0.1 0.9 0.1 0.9 0.1 0.9 0.1 0.9206869658520601 0.07931303414794001 0.9 0.1 0.9 0.1 0.9 0.1 0.9 0.1 0.9 0.1 0.9 0.1 0.9033154572138455 0.09668454278615454 0.9 0.1 0.9 0.1 0.9 0.1 0.9 0.1 0.9 0.1 0.9 0.1 0.9 0.1 0.9066558641583764 0.09334413584162365 0.9 0.1 0.9 0.1 0.9 0.1 0.9 0.1 0.9 0.1 0.9 0.1 0.9414780759016452 0.05852192409835471 0.9 0.1 0.2298231646022589 0.7701768353977412 0.9 0.1 0.9 0.1 0.9 0.1 0.9 0.1 0.9 0.1 0.940600881952786 0.059399118047214 0.9 0.1 0.9 0.1 0.9 0.1 0.9 0.1 0.9 0.1 0.9 0.1 0.9335145758747061 0.06648542412529383 0.9 0.1 0.9 0.1 0.9 0.1 0.9 0.1 0.9 0.1 0.9 0.1 0.9 0.1 0.903953480602766 0.09604651939723415 0.9 0.1 0.9 0.1 0.9 0.1 0.9 0.1 0.9 0.1 0.9 0.1 0.9179363706622818 0.08206362933771816 0.9 0.1 0.9 0.1 0.9 0.1 0.9 0.1 0.9 0.1 0.9 0.1 0.9 0.1 0.9 0.1 0.8587423654062172 0.1412576345937829 0.9 0.1 0.9 0.1 0.9 0.1 0.9 0.1 0.9055683706230807 0.09443162937691918 0.9 0.1 0.9 0.1 0.9 0.1 0.9 0.1 0.9 0.1 0.9 0.1 0.9 0.1 0.9 0.1 0.6 0.4 0.7242278228254924 0.2757721771745076 0.9 0.1 0.9 0.1 0.9 0.1 0.9 0.1 0.9143978001657186 0.08560219983428137 0.9 0.1 0.9333333333333332 0.06666666666666667 0.9 0.1 0.9 0.1 0.9 0.1 0.9 0.1 0.9 0.1 0.9 0.1 0.9140401380581717 0.08595986194182821 0.4352695477819851 0.564730452218015 0.4730768815504758 0.5269231184495242 0.9351558028923078 0.06484419710769215 0.6100816458331326 0.3899183541668675 0.9 0.1 0.9108524501628679 0.08914754983713225 0.9 0.1 0.9 0.1 0.9 0.1 0.9 0.1 0.9 0.1 0.9 0.1 0.9 0.1 0.9 0.1 0.9 0.1 0.8943293451860231 0.1056706548139769 0.6 0.4 0.9 0.1 0.4 0.6 0.9 0.1 0.9114438381848367 0.08855616181516346 0.6 0.4 0.9293888173977107 0.07061118260228917 0.9 0.1 0.9 0.1 0.9 0.1 0.9 0.1 0.9 0.1 0.9 0.1 0.6 0.4 0.8877060931618358 0.1122939068381642 0.9 0.1 0.9 0.1 0.9 0.1 0.9 0.1 0.9021407477473969 0.09785925225260309 0.9333333333333332 0.06666666666666667 0.9 0.1 0.9 0.1 0.9 0.1 0.9 0.1 0.9 0.1 0.9 0.1 0.9 0.1 0.9 0.1 0.9 0.1 0.9 0.1 0.9 0.1 0.4903063303653583 0.5096936696346416 0.9 0.1 0.9333333333333332 0.06666666666666667 0.9 0.1 0.9 0.1 0.9 0.1 0.9 0.1 0.9 0.1 0.9 0.1 0.9 0.1 0.9 0.1 0.9 0.1 0.9333333333333332 0.06666666666666667 0.9 0.1 0.9 0.1 0.9221703714072678 0.07782962859273232 0.9 0.1 0.9333333333333332 0.06666666666666667 0.9 0.1 0.9 0.1 0.9 0.1 0.9 0.1 0.9 0.1 0.9 0.1 0.9 0.1 0.9 0.1 0.9 0.1 0.9 0.1 0.9 0.1 0.9 0.1 0.8729420142967517 0.1270579857032483 0.9 0.1 0.9 0.1 0.9 0.1 0.9 0.1 0.9 0.1 0.9 0.1 0.9 0.1 0.9 0.1 0.9 0.1 0.9 0.1 0.9 0.1 0.9 0.1 0.9 0.1 0.9 0.1 0.7933263236910773 0.2066736763089228 0.9 0.1 0.9 0.1 0.9 0.1 0.9 0.1 0.9 0.1 0.9 0.1 0.9 0.1 0.9 0.1 0.9 0.1 0.9 0.1 0.9 0.1 0.9 0.1 0.9 0.1 0.9 0.1 0.8876782095886687 0.1123217904113314 0.9 0.1 0.9 0.1 0.9 0.1 0.9 0.1 0.9 0.1 0.9 0.1 0.9 0.1 0.9 0.1 0.9 0.1 0.9 0.1 0.9 0.1 0.9555555555555555 0.04444444444444445 0.9 0.1 0.9 0.1 0.9 0.1 0.9 0.1 0.9478508880207763 0.05214911197922363 0.9333333333333332 0.06666666666666667 0.9 0.1 0.9 0.1 0.9 0.1 0.9 0.1 0.9 0.1 0.9 0.1 0.9 0.1 0.9 0.1 0.9 0.1 0.9 0.1 0.9 0.1 0.9 0.1 0.9 0.1 0.9333333333333332 0.06666666666666667 0.9666666666666666 0.03333333333333333 0.9 0.1 0.9 0.1 0.9 0.1 0.9 0.1 0.9 0.1 0.9 0.1 0.9 0.1 0.9 0.1 0.9333333333333332 0.06666666666666667 0.9 0.1 0.9 0.1 0.9 0.1 0.9 0.1 0.6 0.4 0.9 0.1 0.9 0.1 0.9 0.1 0.9 0.1 0.9 0.1 0.9 0.1 0.9 0.1 0.9 0.1 0.9 0.1 0.9 0.1 0.9 0.1 0.9 0.1 0.9 0.1 0.9 0.1 0.9 0.1 0.9 0.1 0.9 0.1 0.9 0.1 0.9 0.1 0.9 0.1 0.9 0.1 0.9 0.1 0.9 0.1 0.9 0.1 0.9 0.1 0.9 0.1 0.9 0.1 0.9 0.1 0.9 0.1 0.9 0.1 0.9 0.1 0.9 0.1 0.9 0.1 0.9 0.1 0.9 0.1 0.9 0.1 0.9 0.1 0.9 0.1 0.9 0.1 0.9 0.1 0.9 0.1 0.9 0.1 0.9 0.1 0.9 0.1 0.9 0.1 0.9 0.1 0.9 0.1 0.9 0.1 0.9 0.1 0.9 0.1 0.9 0.1 0.9 0.1 0.9 0.1 0.9 0.1 0.9 0.1 0.9 0.1 0.9 0.1 0.9 0.1 0.9 0.1 0.9 0.1 0.9 0.1 0.417017941549028 0.582982058450972 0.9 0.1 0.9 0.1 0.9 0.1 0.9 0.1 0.9 0.1 0.9 0.1 0.9 0.1 0.9 0.1 0.9 0.1 0.9 0.1 0.9 0.1 0.9 0.1 0.9 0.1 0.9 0.1 0.9 0.1 0.9 0.1 0.9 0.1 0.9 0.1 0.9 0.1 0.9 0.1 0.9 0.1 0.9 0.1 0.9 0.1 0.9 0.1 0.9 0.1 0.9 0.1 0.9 0.1 0.9 0.1 0.9 0.1 0.9 0.1 0.9 0.1 0.9 0.1 0.9 0.1 0.9 0.1 0.9 0.1 0.9 0.1 0.9 0.1 0.9 0.1 0.9 0.1 0.9 0.1 0.9 0.1 0.9 0.1 0.9 0.1 0.9 0.1 0.9 0.1 0.9 0.1 0.9 0.1 0.9 0.1 0.9 0.1 0.9 0.1 0.9 0.1 0.9 0.1 0.9333333333333332 0.06666666666666667 0.9 0.1 0.9 0.1 0.9 0.1 0.9 0.1 0.9 0.1 0.9 0.1 0.9 0.1 0.9 0.1 0.9 0.1 0.9 0.1 0.9 0.1 0.9 0.1 0.9 0.1 0.9 0.1 0.9333333333333332 0.06666666666666667 0.9 0.1 0.9 0.1 0.9 0.1 0.9 0.1 0.9 0.1 0.9 0.1 0.9 0.1 0.9 0.1 0.9 0.1 0.9 0.1 0.9 0.1 0.9 0.1 0.9 0.1 0.9 0.1 0.9 0.1 0.9 0.1 0.9 0.1 0.9 0.1 0.9 0.1 0.9 0.1 0.9 0.1 0.9 0.1 0.9 0.1 0.9 0.1 0.9 0.1 0.9 0.1 0.9 0.1 0.9 0.1 0.9 0.1 0.9 0.1 0.9 0.1 0.9 0.1 0.9 0.1 0.9 0.1 0.9 0.1 0.9333333333333332 0.06666666666666667 0.9333333333333332 0.06666666666666667 0.9 0.1 0.9 0.1 0.9 0.1 0.9 0.1 0.9 0.1 0.9 0.1 0.9 0.1 0.9 0.1 0.9 0.1 0.9 0.1 0.9 0.1 0.9 0.1 0.9 0.1 0.9 0.1 0.9 0.1 0.9 0.1 0.9 0.1 0.9 0.1 0.9 0.1 0.9 0.1 0.9 0.1 0.9 0.1 0.9 0.1 0.8989365839482978 0.1010634160517022 0.9356781402584514 0.06432185974154866 0.9 0.1 0.9555555555555557 0.04444444444444445 0.9 0.1 0.9 0.1 0.9 0.1 0.9 0.1 0.9 0.1 0.9 0.1 0.9 0.1 0.9 0.1 0.9 0.1 0.9 0.1 0.9 0.1 0.7327717069146502 0.2672282930853497 0.9070889948099334 0.09291100519006672 0.9 0.1 0.9 0.1 0.9 0.1 0.9 0.1 0.9 0.1 0.9 0.1 0.9 0.1 0.9 0.1 0.9 0.1 0.9 0.1 0.9 0.1 0.9333333333333332 0.06666666666666667 0.9 0.1 0.8835018343230666 0.1164981656769334 0.9400189491590796 0.05998105084092043 0.9 0.1 0.9 0.1 0.9 0.1 0.6 0.4 0.9 0.1 0.9333333333333332 0.06666666666666667 0.9 0.1 0.9 0.1 0.9 0.1 0.9 0.1 0.9 0.1 0.9 0.1 0.3 0.7 0.8971198660497671 0.102880133950233 0.6382145478348188 0.3617854521651812 0.9 0.1 0.9 0.1 0.9293888173977107 0.07061118260228917 0.9 0.1 0.9 0.1 0.9 0.1 0.9 0.1 0.9 0.1 0.9 0.1 0.9 0.1 0.9 0.1 0.9 0.1 0.9 0.1 0.8999065335223996 0.1000934664776004 0.9012805890983494 0.09871941090165054 0.9 0.1 0.9 0.1 0.9 0.1 0.9 0.1 0.9 0.1 0.9 0.1 0.9 0.1 0.9 0.1 0.9 0.1 0.9 0.1 0.9 0.1 0.9 0.1 0.9035876612746938 0.09641233872530632 0.9006727045804259 0.09932729541957404 0.929693768691624 0.07030623130837606 0.9 0.1 0.9 0.1 0.9 0.1 0.9 0.1 0.9 0.1 0.9 0.1 0.9 0.1 0.9 0.1 0.9 0.1 0.9 0.1 0.9 0.1 0.9478508880207763 0.05214911197922363 0.6669966476719433 0.3330033523280566 0.9075046367127014 0.09249536328729846 0.8558330329001516 0.1441669670998486 0.6 0.4 0.9 0.1 0.9555555555555555 0.04444444444444445 0.9 0.1 0.9 0.1 0.9 0.1 0.9 0.1 0.9 0.1 0.9 0.1 0.9 0.1 0.9 0.1 0.9333333333333332 0.06666666666666667 0.9732155855256349 0.02678441447436499 0.9113555013173494 0.08864449868265045 0.3758965282564213 0.6241034717435787 0.9333333333333332 0.06666666666666667 0.9 0.1 0.9 0.1 0.9 0.1 0.9 0.1 0.9 0.1 0.9 0.1 0.9 0.1 0.9 0.1 0.9 0.1 0.9 0.1 0.9333333333333332 0.06666666666666667 0.9139552676068688 0.0860447323931311 0.919459781739363 0.08054021826063684 0.8313794627173663 0.1686205372826337 0.6 0.4 0.9 0.1 0.9 0.1 0.9 0.1 0.9 0.1 0.9 0.1 0.9 0.1 0.9 0.1 0.9 0.1 0.9 0.1 0.9 0.1 0.9 0.1 0.9009407261245402 0.09905927387545981 0.9040652192817781 0.09593478071822191 0.8980664275262974 0.1019335724737027 0.9 0.1 0.9 0.1 0.9 0.1 0.9 0.1 0.9 0.1 0.9 0.1 0.9 0.1 0.9 0.1 0.9 0.1 0.9 0.1 0.9 0.1 0.9 0.1 0.9 0.1 0.9 0.1 0.9 0.1 0.9 0.1 0.9105149939886443 0.08948500601135563 0.9 0.1 0.9 0.1 0.9 0.1 0.9 0.1 0.9 0.1 0.9 0.1 0.9 0.1 0.9 0.1 0.9 0.1 0.9 0.1 0.9 0.1 0.9 0.1 0.9 0.1 0.9 0.1 0.9035393499099563 0.09646065009004362 0.9 0.1 0.9 0.1 0.9 0.1 0.9 0.1 0.9 0.1 0.9 0.1 0.9 0.1 0.9 0.1 0.9 0.1 0.9 0.1 0.9 0.1 0.9 0.1 0.9 0.1 0.9 0.1 0.9159981017356889 0.08400189826431109 0.9 0.1 0.9 0.1 0.9 0.1 0.9 0.1 0.9 0.1 0.9 0.1 0.9 0.1 0.9 0.1 0.9 0.1 0.9 0.1 0.9 0.1 0.9 0.1 0.9 0.1 0.9 0.1 0.910923406394257 0.08907659360574298 0.9 0.1 0.9 0.1 0.9 0.1 0.9 0.1 0.9 0.1 0.9 0.1 0.9 0.1 0.9 0.1 0.9 0.1 0.9 0.1 0.9 0.1 0.9 0.1 0.9 0.1 0.9 0.1 0.9031686629946531 0.09683133700534693 0.9 0.1 0.9 0.1 0.9 0.1 0.9 0.1 0.9 0.1 0.9 0.1 0.9 0.1 0.9 0.1 0.9 0.1 0.9 0.1 0.9 0.1 0.9 0.1 0.9 0.1 0.9008803221720479 0.09911967782795202 0.9 0.1 0.9034518104808831 0.09654818951911684 0.9 0.1 0.9 0.1 0.9 0.1 0.9 0.1 0.9 0.1 0.9 0.1 0.9 0.1 0.9 0.1 0.9 0.1 0.9 0.1 0.9 0.1 0.9 0.1 0.9111895789951134 0.08881042100488659 0.9 0.1 0.9033966060665281 0.09660339393347189 0.9 0.1 0.9 0.1 0.9 0.1 0.9 0.1 0.9 0.1 0.9 0.1 0.9 0.1 0.9 0.1 0.9 0.1 0.9 0.1 0.9 0.1 0.9 0.1 0.9419680481839362 0.05803195181606374 0.9 0.1 0.913358269801012 0.08664173019898801 0.9 0.1 0.9 0.1 0.9612037560450785 0.03879624395492161 0.9 0.1 0.9 0.1 0.9 0.1 0.9 0.1 0.9 0.1 0.9 0.1 0.9 0.1 0.9 0.1 0.9 0.1 0.918391902305944 0.08160809769405598 0.6130235748288492 0.3869764251711509 0.9210535257081078 0.07894647429189207 0.9 0.1 0.9 0.1 0.9 0.1 0.9 0.1 0.9 0.1 0.9 0.1 0.9 0.1 0.9 0.1 0.9 0.1 0.9 0.1 0.9 0.1 0.9 0.1 0.9008803221720479 0.09911967782795202 0.9 0.1 0.9008161071199298 0.09918389288007022 0.9 0.1 0.9 0.1 0.9 0.1 0.9 0.1 0.9 0.1 0.9 0.1 0.9 0.1 0.9 0.1 0.9020708054113862 0.09792919458861382 0.8425354935949176 0.1574645064050822 0.9 0.1 0.9222235039094541 0.07777649609054588 0.9 0.1 0.9293888173977107 0.07061118260228917 0.9 0.1 0.8993473416320864 0.1006526583679135 0.9 0.1 0.9 0.1 0.9 0.1 0.9 0.1 0.9 0.1 0.9 0.1 0.9 0.1 0.9439902954501286 0.05600970454987154 0.4840201726489875 0.5159798273510126 0.9081094548630175 0.0918905451369824 0.8657439463735525 0.1342560536264477 0.9084873252414062 0.09151267475859388 0.9690641423171428 0.03093585768285705 0.915204839548218 0.08479516045178197 0.9127219068150386 0.08727809318496142 0.9094519898023274 0.09054801019767264 0.9124681700472626 0.08753182995273752 0.9 0.1 0.9 0.1 0.9 0.1 0.9 0.1 0.9 0.1 0.3255867561663063 0.6744132438336937 0.4776389160123878 0.5223610839876122 0.6 0.4 0.2687864845493065 0.7312135154506935 0.9 0.1 0.7841256795886704 0.2158743204113296 0.543654519906918 0.4563454800930821 0.8248495503485126 0.1751504496514873 0.4932446398810358 0.506755360118964 0.8961904372156433 0.1038095627843567 0.9 0.1 0.9 0.1 0.9 0.1 0.9 0.1 0.9 0.1 0.9403742353775442 0.0596257646224557 0.2852286977971875 0.7147713022028126 0.8141282930921393 0.1858717069078607 0.8272353952100755 0.1727646047899247 0.633205543470116 0.3667944565298838 0.8884909877896232 0.1115090122103768 0.3718579837264577 0.6281420162735423 0.7243562818275471 0.2756437181724529 0.873913547746921 0.1260864522530791 0.8588009590666246 0.1411990409333754 0.9 0.1 0.9 0.1 0.9 0.1 0.9 0.1 0.9 0.1 0.9007870234837833 0.09921297651621686 0.594096360595828 0.4059036394041719 0.9 0.1 0.8981716268614589 0.1018283731385412 0.9 0.1 0.9 0.1 0.9333333333333332 0.06666666666666667 0.8996055650355397 0.1003944349644603 0.9 0.1 0.9 0.1 0.9 0.1 0.9 0.1 0.9 0.1 0.9 0.1 0.9 0.1 0.6 0.4 0.9 0.1 0.9 0.1 0.8972405245256343 0.1027594754743656 0.8513181461592066 0.1486818538407933 0.9 0.1 0.9 0.1 0.9 0.1 0.9 0.1 0.9 0.1 0.9 0.1 0.9 0.1 0.9 0.1 0.9 0.1 0.8468153968240073 0.1531846031759927 0.9 0.1 0.9 0.1 0.9 0.1 0.8971404271299274 0.1028595728700727 0.9 0.1 0.9 0.1 0.9 0.1 0.9 0.1 0.9 0.1 0.9 0.1 0.9 0.1 0.9 0.1 0.9 0.1 0.9 0.1 0.9 0.1 0.9 0.1 0.9 0.1 0.9 0.1 0.8135845738319825 0.1864154261680177 0.9 0.1 0.9 0.1 0.9 0.1 0.9 0.1 0.9 0.1 0.9 0.1 0.9 0.1 0.9 0.1 0.9 0.1 0.9 0.1 0.8513181461592066 0.1486818538407933 0.9 0.1 0.9 0.1 0.9 0.1 0.889869558114219 0.1101304418857812 0.9 0.1 0.9 0.1 0.9 0.1 0.9 0.1 0.9 0.1 0.9 0.1 0.9 0.1 0.9 0.1 0.9 0.1 0.9 0.1 0.9 0.1 0.9 0.1 0.9 0.1 0.9 0.1 0.8992433343534684 0.1007566656465315 0.9 0.1 0.9 0.1 0.9 0.1 0.9 0.1 0.9 0.1 0.9 0.1 0.9 0.1 0.9 0.1 0.9 0.1 0.9 0.1 0.9 0.1 0.9 0.1 0.9 0.1 0.9 0.1 0.9 0.1 0.9 0.1 0.9 0.1 0.6 0.4 0.9 0.1 0.9 0.1 0.9 0.1 0.9 0.1 0.9 0.1 0.9 0.1 0.9 0.1 0.9 0.1 0.9 0.1 0.9 0.1 0.9 0.1 0.9 0.1 0.9 0.1 0.9 0.1 0.9 0.1 0.9 0.1 0.9 0.1 0.9 0.1 0.9 0.1 0.9 0.1 0.9 0.1 0.9 0.1 0.9 0.1 0.9 0.1 0.9 0.1 0.9 0.1 0.9 0.1 0.9 0.1 0.9 0.1 0.9 0.1 0.9 0.1 0.9 0.1 0.9 0.1 0.9 0.1 0.9 0.1 0.9 0.1 0.9 0.1 0.9 0.1 0.9 0.1 0.9 0.1 0.9 0.1 0.8722052365581521 0.1277947634418479 0.9 0.1 0.9 0.1 0.9 0.1 0.9 0.1 0.9 0.1 0.9 0.1 0.9 0.1 0.9 0.1 0.9 0.1 0.9 0.1 0.9 0.1 0.9 0.1 0.9 0.1 0.9 0.1 0.9 0.1 0.9 0.1 0.9 0.1 0.9 0.1 0.9 0.1 0.9 0.1 0.9 0.1 0.9 0.1 0.9 0.1 0.9 0.1 0.9 0.1 0.9 0.1 0.9333333333333332 0.06666666666666667 0.9 0.1 0.9 0.1 0.9 0.1 0.9 0.1 0.9 0.1 0.9 0.1 0.9 0.1 0.9 0.1 0.9 0.1 0.9 0.1 0.9 0.1 0.9 0.1 0.9 0.1 0.9 0.1 0.9 0.1 0.9 0.1 0.9 0.1 0.9 0.1 0.9 0.1 0.9 0.1 0.9 0.1 0.9 0.1 0.9 0.1 0.8513181461592066 0.1486818538407933 0.9 0.1 0.9 0.1 0.9 0.1 0.9 0.1 0.9 0.1 0.9 0.1 0.9 0.1 0.9 0.1 0.9 0.1 0.9 0.1 0.9 0.1 0.9 0.1 0.9 0.1 0.9 0.1 0.9 0.1 0.9 0.1 0.9 0.1 0.9 0.1 0.9 0.1 0.9 0.1 0.9 0.1 0.9 0.1 0.9 0.1 0.9 0.1 0.9146994412047453 0.08530055879525469 0.9 0.1 0.9 0.1 0.9 0.1 0.9 0.1 0.9 0.1 0.9 0.1 0.9 0.1 0.9 0.1 0.9 0.1 0.9 0.1 0.9 0.1 0.9 0.1 0.9 0.1 0.9 0.1 0.9 0.1 0.9 0.1 0.9 0.1 0.9 0.1 0.9 0.1 0.9 0.1 0.9 0.1 0.9 0.1 0.9 0.1 0.9 0.1 0.9 0.1 0.9 0.1 0.9 0.1 0.9 0.1 0.9 0.1 0.9 0.1 0.9 0.1 0.9 0.1 0.9 0.1 0.8992254254394715 0.1007745745605286 0.9 0.1 0.9 0.1 0.9 0.1 0.9 0.1 0.9 0.1 0.9 0.1 0.8793659835724181 0.1206340164275818 0.9 0.1 0.9 0.1 0.9 0.1 0.9 0.1 0.8603388950365829 0.1396611049634172 0.9 0.1 0.9 0.1 0.8971197938478352 0.1028802061521648 0.9 0.1 0.8976230142962763 0.1023769857037237 0.9 0.1 0.9 0.1 0.9 0.1 0.9 0.1 0.9 0.1 0.9 0.1 0.9 0.1 0.9 0.1 0.9 0.1 0.9 0.1 0.9 0.1 0.9 0.1 0.8968748537018122 0.1031251462981879 0.9 0.1 0.9 0.1 0.9 0.1 0.9 0.1 0.9 0.1 0.9 0.1 0.9 0.1 0.9 0.1 0.9 0.1 0.9 0.1 0.9 0.1 0.9 0.1 0.9 0.1 0.9 0.1 0.8826657586277046 0.1173342413722954 0.9 0.1 0.9 0.1 0.9 0.1 0.9 0.1 0.9 0.1 0.9 0.1 0.9 0.1 0.9 0.1 0.9 0.1 0.9 0.1 0.9 0.1 0.9 0.1 0.9 0.1 0.9 0.1 0.8992254254394715 0.1007745745605286 0.8513181461592066 0.1486818538407933 0.9 0.1 0.9 0.1 0.9 0.1 0.9 0.1 0.9 0.1 0.6387924555056732 0.3612075444943269 0.9 0.1 0.9 0.1 0.8292795448615894 0.1707204551384106 0.8381415196376533 0.1618584803623468 0.8037539589038798 0.1962460410961202 0.9 0.1 0.9 0.1 0.8978146322192374 0.1021853677807626 0.905163577214225 0.09483642278577487 0.8959864314473328 0.1040135685526673 0.9 0.1 0.9 0.1 0.9 0.1 0.900107025438173 0.09989297456182694 0.8874416298098275 0.1125583701901724 0.9 0.1 0.9 0.1 0.9376103256772971 0.06238967432270302 0.9077315195303709 0.09226848046962904 0.9014331325307241 0.09856686746927598 0.9004294321707523 0.0995705678292477 0.9033776218679156 0.09662237813208432 0.9042950544649557 0.09570494553504415 0.8667179388475171 0.1332820611524829 0.9 0.1 0.9 0.1 0.9 0.1 0.9 0.1 0.9 0.1 0.8774593982565461 0.1225406017434539 0.9 0.1 0.9 0.1 0.6244625786040837 0.3755374213959162 0.8832980332786309 0.1167019667213692 0.9369497050870971 0.06305029491290297 0.9 0.1 0.9 0.1 0.8549656788326445 0.1450343211673555 0.9 0.1 0.9 0.1 0.9 0.1 0.9 0.1 0.9 0.1 0.9 0.1 0.8879152453399892 0.1120847546600108 0.8773140373248541 0.1226859626751459 0.9 0.1 0.9145004650831478 0.08549953491685226 0.9 0.1 0.9 0.1 0.9 0.1 0.9 0.1 0.8929269205371573 0.1070730794628428 0.9 0.1 0.9 0.1 0.9 0.1 0.9 0.1 0.9 0.1 0.9 0.1 0.8987708730481885 0.1012291269518115 0.9 0.1 0.9 0.1 0.9 0.1 0.8722052365581521 0.1277947634418479 0.9 0.1 0.9 0.1 0.9 0.1 0.8707548835762562 0.1292451164237438 0.9 0.1 0.9 0.1 0.9 0.1 0.9 0.1 0.9 0.1 0.9 0.1 0.9077198099594109 0.092280190040589 0.9 0.1 0.9 0.1 0.9 0.1 0.9 0.1 0.902369382270139 0.09763061772986095 0.9003321410658943 0.09966785893410579 0.9 0.1 0.9 0.1 0.9 0.1 0.9 0.1 0.9 0.1 0.9 0.1 0.9 0.1 0.9 0.1 0.9333333333333332 0.06666666666666667 0.9 0.1 0.9 0.1 0.9140201892099035 0.08597981079009648 0.9 0.1 0.9119557130697801 0.08804428693021982 0.6061015922811341 0.3938984077188658 0.9 0.1 0.9 0.1 0.9 0.1 0.9 0.1 0.9 0.1 0.9 0.1 0.9 0.1 0.9 0.1 0.9 0.1 0.9 0.1 0.9 0.1 0.8907792455323523 0.1092207544676478 0.9 0.1 0.9122097179111066 0.08779028208889339 0.9042835100803417 0.09571648991965828 0.9 0.1 0.8603435765176322 0.1396564234823678 0.9 0.1 0.9 0.1 0.9 0.1 0.9 0.1 0.9 0.1 0.9 0.1 0.9333333333333332 0.06666666666666667 0.9 0.1 0.9 0.1 0.9175847752543115 0.08241522474568864 0.908079904968946 0.09192009503105396 0.9142245893632377 0.08577541063676242 0.9014178908585442 0.09858210914145572 0.9 0.1 0.9 0.1 0.8722052365581521 0.1277947634418479 0.9 0.1 0.9 0.1 0.9 0.1 0.9 0.1 0.9 0.1 0.9 0.1 0.9 0.1 0.9 0.1 0.9 0.1 0.8739600213683488 0.1260399786316511 0.9033840319860618 0.09661596801393818 0.9000874495894383 0.09991255041056163 0.9 0.1 0.9 0.1 0.9 0.1 0.9 0.1 0.9 0.1 0.9 0.1 0.9 0.1 0.9 0.1 0.9 0.1 0.9 0.1 0.9 0.1 0.9 0.1 0.9 0.1 0.9 0.1 0.9 0.1 0.9 0.1 0.9 0.1 0.9 0.1 0.9 0.1 0.9 0.1 0.9 0.1 0.9 0.1 0.9 0.1 0.9 0.1 0.9 0.1 0.9 0.1 0.9077237442214874 0.09227625577851262 0.9 0.1 0.9 0.1 0.9 0.1 0.9 0.1 0.9 0.1 0.9 0.1 0.9 0.1 0.9 0.1 0.9 0.1 0.9 0.1 0.9 0.1 0.9 0.1 0.9 0.1 0.9 0.1 0.9 0.1 0.9 0.1 0.9 0.1 0.8722052365581521 0.1277947634418479 0.9 0.1 0.9 0.1 0.9 0.1 0.9 0.1 0.9 0.1 0.9 0.1 0.9 0.1 0.9 0.1 0.9 0.1 0.9 0.1 0.9 0.1 0.9 0.1 0.9 0.1 0.9 0.1 0.9 0.1 0.9 0.1 0.9 0.1 0.9 0.1 0.9 0.1 0.9 0.1 0.9 0.1 0.9 0.1 0.9 0.1 0.9 0.1 0.9 0.1 0.9 0.1 0.9 0.1 0.9 0.1 0.9 0.1 0.9 0.1 0.9 0.1 0.9 0.1 0.9 0.1 0.9 0.1 0.9 0.1 0.9 0.1 0.9 0.1 0.9 0.1 0.8942966205840045 0.1057033794159955 0.9 0.1 0.9009367096024005 0.09906329039759959 0.9 0.1 0.9 0.1 0.9 0.1 0.9 0.1 0.9 0.1 0.9555555555555555 0.04444444444444445 0.9 0.1 0.9 0.1 0.9 0.1 0.9 0.1 0.9 0.1 0.9 0.1 0.5300362941118554 0.4699637058881446 0.9 0.1 0.9009367096024005 0.09906329039759959 0.9 0.1 0.9 0.1 0.9333333333333332 0.06666666666666667 0.9 0.1 0.9 0.1 0.9 0.1 0.8468153968240073 0.1531846031759927 0.9 0.1 0.9 0.1 0.9 0.1 0.9 0.1 0.9 0.1 0.8893190225087615 0.1106809774912385 0.9 0.1 0.9205935718255415 0.07940642817445849 0.9 0.1 0.9 0.1 0.9 0.1 0.8513181461592066 0.1486818538407933 0.9 0.1 0.9 0.1 0.3625075139981181 0.6374924860018818 0.9 0.1 0.9 0.1 0.9 0.1 0.9 0.1 0.9 0.1 0.7046456162198156 0.2953543837801845 0.9 0.1 0.9251429497304529 0.07485705026954717 0.9 0.1 0.9 0.1 0.9 0.1 0.9 0.1 0.9 0.1 0.9 0.1 0.9 0.1 0.6 0.4 0.9 0.1 0.9 0.1 0.9 0.1 0.9 0.1 0.8942966205840045 0.1057033794159955 0.9 0.1 0.9068935677694935 0.09310643223050655 0.9 0.1 0.9 0.1 0.9 0.1 0.9 0.1 0.9 0.1 0.9 0.1 0.9 0.1 0.9 0.1 0.9 0.1 0.9 0.1 0.9 0.1 0.9 0.1 0.8981079029665254 0.1018920970334746 0.9015911034312668 0.09840889656873325 0.9024751761096089 0.09752482389039095 0.9011959113938073 0.09880408860619271 0.9165356090399742 0.08346439096002574 0.9000533626750935 0.09994663732490666 0.9158452594133965 0.08415474058660351 0.9002843590788168 0.09971564092118321 0.8715559917257703 0.1284440082742298 0.3938458943847858 0.6061541056152141 0.9000013614243924 0.0999986385756076 0.9000311331076791 0.09996886689232097 0.9000135624360542 0.09998643756394572 0.9000049365564703 0.09999506344352967 0.900002950151675 0.09999704984832497 0.9203182339746231 0.07968176602537695 0.9314162679092604 0.06858373209073972 0.9023535699858624 0.09764643001413759 0.9024694730947109 0.0975305269052891 0.9010464822911363 0.09895351770886378 0.9646653005951991 0.03533469940480101 0.9003874558907029 0.0996125441092971 0.907743491322988 0.09225650867701196 0.9208266461891618 0.07917335381083827 0.8928911037616736 0.1071088962383263 0.9000098148196016 0.09999018518039834 0.9000620693068867 0.09993793069311334 0.9000091296228716 0.09999087037712846 0.9000373096935794 0.09996269030642073 0.9000036432639068 0.09999635673609322 0.8747841534779554 0.1252158465220446 0.9031537556174538 0.0968462443825462 0.9268789041426503 0.07312109585734983 0.9233932478061474 0.0766067521938526 0.9269150970210033 0.07308490297899674 0.711292619315786 0.288707380684214 0.9003372369017066 0.09966276309829332 0.9157164376022215 0.08428356239777843 0.9395575558058487 0.06044244419415132 0.8924588720389645 0.1075411279610357 0.9000173805524925 0.09998261944750771 0.9000526400993213 0.09994735990067874 0.901432451725069 0.09856754827493092 0.93335946188415 0.06664053811584993 0.9000053379505762 0.09999466204942382 0.8944050325092912 0.1055949674907089 0.9032955140405888 0.09670448595941122 0.9050342838804687 0.09496571611953128 0.8518033492742063 0.1481966507257938 0.8823514358348603 0.1176485641651399 0.6002845587156835 0.3997154412843165 0.9003475458307478 0.09965245416925217 0.9004441854497558 0.09955581455024415 0.8793332044974635 0.1206667955025365 0.9352894918213869 0.06471050817861307 0.9000039835660515 0.09999601643394854 0.9000538035179455 0.09994619648205449 0.9000199419969271 0.09998005800307277 0.9000238819591774 0.09997611804082272 0.9000073122139237 0.09999268778607628 0.8991049609002891 0.1008950390997109 0.900533283778607 0.0994667162213929 0.9008413923490163 0.09915860765098372 0.9003799857324019 0.09962001426759821 0.8727500658748253 0.1272499341251748 0.9000254906867058 0.09997450931329417 0.9000361439111212 0.0999638560888788 0.9000721206677981 0.0999278793322018 0.9000336611832216 0.09996633881677851 0.8994345761086737 0.1005654238913264 0.9000006498307191 0.09999935016928092 0.9000053432152956 0.0999946567847044 0.9000026498192892 0.09999735018071074 0.9000028031335178 0.09999719686648223 0.9000004662669702 0.0999995337330299 0.9019434376190772 0.09805656238092279 0.9007053550816119 0.09929464491838821 0.9001223343497711 0.09987766565022896 0.900337588807426 0.09966241119257403 0.9015570148670619 0.09844298513293805 0.9349788494405324 0.06502115055946764 0.9103684419160941 0.08963155808390581 0.9005166356396468 0.09948336436035315 0.9009051849202188 0.09909481507978132 0.9051338982810416 0.09486610171895836 0.9002309549574866 0.09976904504251345 0.9001392808548092 0.0998607191451908 0.9001706412809489 0.09982935871905114 0.9000773234695554 0.09992267653044459 0.900985538678914 0.09901446132108598 0.8900046298960653 0.1099953701039346 0.8928347188662866 0.1071652811337135 0.8964821103866522 0.1035178896133478 0.8971452079441984 0.1028547920558017 0.8939908163388818 0.1060091836611183 0.9243415097615318 0.07565849023846824 0.6541734303272828 0.3458265696727172 0.8785984006809591 0.1214015993190409 0.8921936584962541 0.1078063415037458 0.8972230445820358 0.1027769554179643 0.8990092032819953 0.1009907967180048 0.898751534003727 0.1012484659962731 0.89492739531511 0.10507260468489 0.8994317995000561 0.1005682004999439 0.8967183131683905 0.1032816868316096 0.9001813201663593 0.09981867983364059 0.9002909962092562 0.09970900379074372 0.9001223343497711 0.09987766565022896 0.9007885437424953 0.0992114562575046 0.900665350103635 0.09933464989636506 0.9003292612024028 0.09967073879759725 0.9011955716722705 0.09880442832772944 0.9005166356396468 0.09948336436035315 0.902101772407091 0.09789822759290898 0.902621251631073 0.09737874836892702 0.9000217101758569 0.09997828982414317 0.9000573112493202 0.0999426887506798 0.9001706412809489 0.09982935871905114 0.9001811059439615 0.09981889405603861 0.900420046620466 0.0995799533795339 0.9001813201663593 0.09981867983364059 0.9002909962092562 0.09970900379074372 0.9001223343497711 0.09987766565022896 0.9005785503262677 0.09942144967373238 0.9016876575611662 0.09831234243883383 0.9003292612024028 0.09967073879759725 0.9011955716722705 0.09880442832772944 0.9005166356396468 0.09948336436035315 0.9015463497790273 0.09845365022097263 0.9088189205668968 0.09118107943310323 0.9000217101758569 0.09997828982414317 0.9000573112493202 0.0999426887506798 0.9001706412809489 0.09982935871905114 0.9001327076704095 0.09986729232959041 0.9010686276030436 0.09893137239695649 0.9001813201663593 0.09981867983364059 0.9000832735825703 0.0999167264174296 0.9001223343497711 0.09987766565022896 0.9000965179698068 0.0999034820301931 0.9006562406379448 0.0993437593620552 0.9003292612024028 0.09967073879759725 0.9003438734590096 0.09965612654099043 0.9005166356396468 0.09948336436035315 0.9002596203137171 0.0997403796862828 0.901679065892159 0.09832093410784104 0.9000217101758569 0.09997828982414317 0.9000163792877945 