<?xml version="1.0" encoding="UTF-8"?>
<!-- This network was created in GeNIe Academic, which can be used for academic teaching and research purposes only -->
<smile version="1.0" id="Network1" numsamples="10000" discsamples="10000">
	<nodes>
		<cpt id="Age">
			<state id="Age_12" />
			<state id="Age_13" />
			<state id="Age_14" />
			<state id="Age_15" />
			<state id="Age_16" />
			<probabilities>0.2 0.2 0.2 0.2 0.2</probabilities>
			<property id="DSL_OUTCOME_ORDER">1</property>
		</cpt>
		<cpt id="Gender">
			<state id="Male" />
			<state id="Female" />
			<state id="NonBinary" />
			<probabilities>0.48 0.48 0.04</probabilities>
		</cpt>
		<cpt id="Self_Esteem">
			<state id="State0" />
			<state id="State1" />
			<state id="State2" />
			<probabilities>0.2131099353321575 0.4247501469723692 0.3621399176954733</probabilities>
			<property id="DSL_OUTCOME_ORDER">1</property>
		</cpt>
		<cpt id="Social_Support">
			<state id="State0" />
			<state id="State1" />
			<state id="State2" />
			<probabilities>0.07289829512051735 0.3586125808348031 0.5684891240446796</probabilities>
			<property id="DSL_OUTCOME_ORDER">1</property>
		</cpt>
		<cpt id="Family_Support">
			<state id="State0" />
			<state id="State1" />
			<state id="State2" />
			<parents>Gender Age</parents>
			<probabilities>0.06938738694088402 0.2261346732808414 0.7044779397782746 0.05691208080690088 0.203058197245117 0.7400297219479821 0.02448275863268638 0.2283814584393813 0.7471357829279323 0.03660036018049097 0.2995095346517229 0.663890105167786 0.07766796102438603 0.3284613392864911 0.5938706996891229 0.10529602177441 0.2910749018185322 0.6036290764070579 0.1306506708008237 0.3146347046099945 0.5547146245891817 0.07468100436042605 0.345152460500924 0.58016653513865 0.1642595788771617 0.3157829024696862 0.5199575186531521 0.0782073509272217 0.3532359291732165 0.5685567198995619 0.1361541058150136 0.518789168671752 0.3450567255132344 0.1424558283723142 0.138401950984564 0.7191422206431219 0.5578761195376937 0.1115101665982289 0.3306137138640775 0.1588247803258763 0.3570972356480424 0.4840779840260814 0.738511736649041 0.12428827417745 0.1371999891735091</probabilities>
			<property id="DSL_OUTCOME_ORDER">1</property>
		</cpt>
		<cpt id="Hours_Internet">
			<state id="State0" />
			<state id="State1" />
			<state id="State2" />
			<state id="State3" />
			<state id="State4" />
			<parents>Family_Support Social_Support Age</parents>
			<probabilities>0.4666805632912638 0.3682557704852171 0.05502122207450641 0.05502122207450641 0.05502122207450641 0.3304916869713655 0.3578857653959326 0.1363357122156518 0.1363357122156518 0.0389511232013983 0.1242951376244446 0.5028194495022218 0.1242951376244446 0.1242951376244446 0.1242951376244446 0.1711452932742413 0.1839830766786603 0.299203332983424 0.2971956276602864 0.04847266940338812 0.2340619054306102 0.1492209500428839 0.1378883050920693 0.340711936418942 0.1381169030154947 0.09025797354186317 0.3614029484921968 0.09667815593187995 0.3614029484921968 0.09025797354186317 0.4780636715378014 0.2784688853572854 0.08460881550560005 0.07942931379965652 0.07942931379965652 0.08523479678846461 0.08523479678846461 0.4453500594761818 0.2989455501584242 0.08523479678846461 0.04916232581020363 0.1728236202573419 0.1806825063519915 0.5481692217702594 0.04916232581020363 0.07685265449966147 0.07685265449966147 0.1152775855882583 0.2691838304629882 0.4618332749494306 0.2669048656965055 0.09218069942013102 0.2669048656965055 0.2986428033220987 0.07536676586475911 0.1163027129169513 0.1996884977279693 0.4107287065834399 0.156977369854688 0.1163027129169513 0.06204254881938688 0.2533057878235453 0.2173886229258569 0.4052204916118239 0.06204254881938688 0.2201130418726242 0.262969144237713 0.2201130418726242 0.2339885974369509 0.06281617458008765 0.1570261969196714 0.2087111337870115 0.1570261969196714 0.3202102754539744 0.1570261969196714 0.2801032108760056 0.2801032108760056 0.07984518368599167 0.2801032108760055 0.07984518368599167 0.533703426505986 0.1998640983491158 0.1998640983491158 0.03328418839789122 0.03328418839789122 0.4250559662790918 0.2999970632669142 0.04998621541376063 0.1749745396264726 0.04998621541376063 0.07998356592264219 0.07998356592264219 0.4800612689979193 0.2799880332341541 0.07998356592264219 0.09983706709106434 0.3502443993634035 0.3502443993634035 0.09983706709106434 0.09983706709106434 0.1447151520462895 0.255293337321614 0.3351696554857487 0.1740097307363702 0.09081212440997746 0.1616952045903681 0.06536184592146972 0.2407925829540152 0.5142020350877546 0.01794833144639246 0.1062867645658421 0.3082609562728756 0.3981822117298706 0.1722837043591253 0.01498636307228638 0.1223274877960054 0.1589266395370663 0.3987288613320809 0.2904638590902136 0.02955315224463379 0.2127404425000407 0.340709478378994 0.2454565056424091 0.1307487656077216 0.07034480787083461 0.07535036672923 0.2904885177864874 0.1297675600676425 0.4290431886874101 0.07535036672923 0.137467154045052 0.1380023187358667 0.3359277555979917 0.3493925120932126 0.03921025952787718 0.02542445745845024 0.02542445745845024 0.5081677175314303 0.2869995310160257 0.1539838365356436 0.1925999272621221 0.1270245519201517 0.1288388027555048 0.3676228131043749 0.1839139049578464 0.01917298945804826 0.166610093840935 0.4487874014809962 0.3462565257619724 0.01917298945804826 0.428294035957666 0.08795476369882063 0.3078416729458722 0.08795476369882063 0.08795476369882063 0.1903092579315063 0.124567806472076 0.4359873226522658 0.124567806472076 0.124567806472076 0.1312302723199591 0.3380453805004413 0.09633948333957922 0.3380453805004413 0.09633948333957922 0.1469245418565197 0.4658877044029244 0.1290625845801852 0.1290625845801852 0.1290625845801852 0.07305848167147086 0.2317206029767007 0.2317206029767007 0.3973069268564765 0.06619338551865143 0.04905615069746277 0.2715203413300007 0.2933592153460686 0.3127265063536588 0.07333778627280921 0.03667552304113399 0.332133874324523 0.4705591401156997 0.1512393019383355 0.009392160580307786 0.01702100042823588 0.1904632472357688 0.3020760946864681 0.3986509020052489 0.09178875564427851 0.04554428943119408 0.1873388803014266 0.4059493849404816 0.3499248622304263 0.01124258309647143 0.06198846647893164 0.2407931661500018 0.381204982271161 0.2658076379919017 0.05020574710800368 0.05986538688956142 0.3302427017245376 0.4079358600637451 0.1739372217402297 0.02801882958192609 0.128869491489433 0.3390133065125692 0.2382052821519065 0.249467383456353 0.0444445363897383 0.08820065931959904 0.21276481591508 0.2792822489972218 0.3600995619095096 0.05965271385858935 0.07589223890325568 0.2770645807221424 0.3417810935451451 0.2638774272698539 0.04138465955960299 0.08701997356451026 0.2424660627597 0.2514579381258222 0.3866176848344666 0.03243834071550091</probabilities>
			<property id="DSL_OUTCOME_ORDER">1</property>
		</cpt>
		<cpt id="Empathy">
			<state id="State0" />
			<state id="State1" />
			<parents>Age Family_Support Social_Support Gender</parents>
			<probabilities>0.6764521969752509 0.3235478030247491 0.8126408107098889 0.1873591892901112 0.504909171870542 0.495090828129458 0.7142251361289997 0.2857748638710003 0.4192555079159778 0.5807444920840221 0.5070013092249898 0.4929986907750103 0.7433354202759914 0.2566645797240086 0.393021494536188 0.6069785054638119 0.5 0.5 0.5869990774485255 0.4130009225514745 0.3716927669018474 0.6283072330981526 0.3264599967709038 0.6735400032290962 0.6623042931369227 0.3376957068630773 0.5499907133221689 0.450009286677831 0.5042945447092119 0.4957054552907883 0.3098278835962908 0.6901721164037093 0.2671112594114365 0.7328887405885635 0.6666666666666666 0.3333333333333333 0.4397738184941031 0.5602261815058969 0.5 0.5 0.5 0.5 0.5090945922387319 0.4909054077612681 0.3658202241113216 0.6341797758886782 0.5337462976372281 0.4662537023627718 0.4135568975424873 0.5864431024575127 0.3422410160777213 0.6577589839222787 0.6441670547650226 0.3558329452349775 0.5075828702671752 0.492417129732825 0.8430922325472104 0.1569077674527896 0.5050536891004144 0.4949463108995856 0.8 0.2 0.3333333333333333 0.6666666666666666 0.4935681581176939 0.5064318418823061 0.5129969921443438 0.4870030078556563 0.319073191229868 0.680926808770132 0.5 0.5 0.8091745264617015 0.1908254735382985 0.8 0.2 0.5 0.5 0.3343739711367084 0.6656260288632916 0.676995965388037 0.3230040346119631 0.4935372268138874 0.5064627731861124 0.4403328247920095 0.5596671752079904 0.2421668692419166 0.7578331307580833 0.5 0.5 0.3114195161801899 0.6885804838198101 0.5 0.5 0.5 0.5 0.3992063111876391 0.6007936888123608 0.3020015754492029 0.697998424550797 0.5789154291683354 0.4210845708316646 0.3372120297128321 0.6627879702871678 0.3969260086976268 0.6030739913023733 0.2193644816514061 0.7806355183485938 0.5127896021183259 0.4872103978816741 0.6890019529656011 0.3109980470343989 0.34803860602904 0.6519613939709601 0.6666666666666666 0.3333333333333333 0.5 0.5 0.3727101348864859 0.6272898651135141 0.3221432211158181 0.6778567788841819 0.1911712011930696 0.8088287988069304 0.6666666666666666 0.3333333333333333 0.6904035610887033 0.3095964389112967 0.8571428571428571 0.1428571428571428 0.5 0.5 0.4891111542354183 0.5108888457645818 0.7464179714926501 0.25358202850735 0.503284315610195 0.4967156843898048 0.5133913730767046 0.4866086269232955 0.6584155716297648 0.3415844283702352 0.5007955616224632 0.4992044383775369 0.2412711746205103 0.7587288253794897 0.6666666666666666 0.3333333333333333 0.5 0.5 0.3031873968023711 0.6968126031976289 0.4516923216390509 0.5483076783609491 0.5368477763147749 0.463152223685225 0.2272306455460053 0.7727693544539948 0.1815935660936497 0.8184064339063503 0.3254116380867832 0.6745883619132167 0.7479155798107651 0.2520844201892348 0.4467941952318494 0.5532058047681506 0.4979721410685953 0.5020278589314044 0.5 0.5 0.5833333333333333 0.4166666666666666 0.4846655634446072 0.5153344365553927 0.6635949711076282 0.3364050288923718 0.5679941758522072 0.4320058241477928 0.5 0.5 0.3670638029343571 0.6329361970656429 0.3333333333333333 0.6666666666666666 0.3333333333333333 0.6666666666666666 0.5707652945433174 0.4292347054566827 0.5787037681696494 0.4212962318303506 0.5 0.5 0.4033321484730619 0.5966678515269379 0.301925075281366 0.6980749247186341 0.5160971128628313 0.4839028871371685 0.6546875509069738 0.3453124490930262 0.6666666666666666 0.3333333333333333 0.5 0.5 0.4785112897265852 0.5214887102734147 0.3108288797854102 0.6891711202145897 0.5470143074180263 0.4529856925819737 0.459094109890631 0.540905890109369 0.3544629253505967 0.6455370746494032 0.3065833233762112 0.6934166766237887 0.8258274339303729 0.1741725660696271 0.6684063294609015 0.3315936705390985 0.6878019615569841 0.3121980384430159 0.3333333333333333 0.6666666666666666 0.6000000000000001 0.4 0.4545636864610837 0.5454363135389163 0.4686694099104572 0.5313305900895428 0.4693937053814906 0.5306062946185094 0.5 0.5 0.3704449952978928 0.6295550047021072 0.5 0.5 0.5 0.5 0.6793456205601651 0.3206543794398349 0.7527823056479342 0.2472176943520657 0.505127149887812 0.494872850112188 0.6329892940831116 0.3670107059168884 0.4528477907630166 0.5471522092369835 0.5034720292033745 0.4965279707966254 0.3967074216727924 0.6032925783272077 0.75 0.25 0.5 0.5 0.5820615548736985 0.4179384451263015 0.4042843632496955 0.5957156367503046 0.5153452952299609 0.4846547047700392 0.3625184903644799 0.6374815096355201 0.3975836044248895 0.6024163955751104 0.4891784083093681 0.5108215916906319</probabilities>
			<property id="DSL_OUTCOME_ORDER">1</property>
		</cpt>
		<cpt id="CB_Offending">
			<state id="State0" />
			<state id="State1" />
			<parents>Self_Esteem Social_Support Family_Support Hours_Internet Gender Age Empathy</parents>
			<probabilities>0.9333232767646846 0.06667672323531537 0.8980234181346951 0.1019765818653049 0.9 0.1 0.9 0.1 0.9 0.1 0.9 0.1 0.9 0.1 0.9 0.1 0.904570969048653 0.09542903095134703 0.9022355771223902 0.09776442287760979 0.9 0.1 0.9 0.1 0.9 0.1 0.9 0.1 0.9 0.1 0.9 0.1 0.9300551274228358 0.0699448725771642 0.9 0.1 0.9037454666314612 0.0962545333685387 0.9042077100642356 0.09579228993576439 0.9 0.1 0.9 0.1 0.9 0.1 0.9 0.1 0.9 0.1 0.9 0.1 0.9 0.1 0.9 0.1 0.9030540665825937 0.09694593341740625 0.9031497691074784 0.09685023089252168 0.9 0.1 0.8984620693317859 0.1015379306682143 0.6480667852350213 0.3519332147649787 0.9 0.1 0.9 0.1 0.9 0.1 0.9 0.1 0.9 0.1 0.9029593998602614 0.09704060013973857 0.9014362595628397 0.0985637404371604 0.6081088613202743 0.3918911386797257 0.9 0.1 0.9 0.1 0.9 0.1 0.9 0.1 0.9 0.1 0.9 0.1 0.9234794983828809 0.07652050161711896 0.9024183142829209 0.09758168571707927 0.9027208856913737 0.09727911430862642 0.9 0.1 0.9 0.1 0.9 0.1 0.9 0.1 0.9 0.1 0.9309164948719594 0.06908350512804055 0.9 0.1 0.9 0.1 0.901967403850803 0.098032596149197 0.9020296637715582 0.09797033622844177 0.9 0.1 0.8997809883686616 0.1002190116313385 0.9 0.1 0.9 0.1 0.9 0.1 0.9 0.1 0.9 0.1 0.9 0.1 0.9027398542259226 0.09726014577407741 0.9013283222931666 0.09867167770683337 0.9 0.1 0.9 0.1 0.9 0.1 0.9 0.1 0.9 0.1 0.9 0.1 0.8629551300602563 0.1370448699397438 0.9 0.1 0.9022380798564029 0.09776192014359707 0.9025186142152376 0.09748138578476245 0.9 0.1 0.9 0.1 0.9 0.1 0.9 0.1 0.9 0.1 0.9 0.1 0.9 0.1 0.9 0.1 0.9018202134528083 0.09817978654719184 0.9018778898949986 0.09812211010500139 0.9 0.1 0.8997809883686616 0.1002190116313385 0.9 0.1 0.9333223609778332 0.0666776390221667 0.9 0.1 0.9 0.1 0.9 0.1 0.8865119608569356 0.1134880391430644 0.7864794212219578 0.213520578778042 0.9032300631621367 0.09676993683786313 0.9 0.1 0.9 0.1 0.9 0.1 0.9 0.1 0.9 0.1 0.9 0.1 0.9 0.1 0.6626553797568668 0.3373446202431331 0.9175856071920584 0.08241439280794165 0.9060307009844951 0.09396929901550492 0.9 0.1 0.9 0.1 0.9 0.1 0.9 0.1 0.9 0.1 0.9 0.1 0.9 0.1 0.8905885941110989 0.1094114058889012 0.9147008736028328 0.08529912639716726 0.9045339852659955 0.09546601473400454 0.9 0.1 0.8997809883686616 0.1002190116313385 0.9 0.1 0.9 0.1 0.9 0.1 0.9 0.1 0.9 0.1 0.9 0.1 0.930038387952242 0.06996161204775786 0.901330480789278 0.09866951921072209 0.9 0.1 0.9 0.1 0.9 0.1 0.9 0.1 0.9 0.1 0.9 0.1 0.9 0.1 0.9 0.1 0.9022416865969607 0.09775831340303934 0.9025226624546607 0.09747733754533913 0.9 0.1 0.9 0.1 0.9 0.1 0.9 0.1 0.9 0.1 0.9 0.1 0.9 0.1 0.9 0.1 0.9018231580620405 0.09817684193795953 0.9018809261536074 0.09811907384639248 0.913235554024115 0.08676444597588492 0.9 0.1 0.9211141216202045 0.07888587837979558 0.9 0.1 0.9 0.1 0.9 0.1 0.9 0.1 0.9 0.1 0.9 0.1 0.9 0.1 0.9 0.1 0.9 0.1 0.9 0.1 0.9 0.1 0.9 0.1 0.9 0.1 0.9 0.1 0.9 0.1 0.9 0.1 0.9 0.1 0.9 0.1 0.9333275014364295 0.06667249856357055 0.9 0.1 0.9 0.1 0.9 0.1 0.9 0.1 0.9 0.1 0.9 0.1 0.9 0.1 0.9 0.1 0.913235554024115 0.08676444597588492 0.9333173352996378 0.06668266470036215 0.9090011982686924 0.09099880173130749 0.9 0.1 0.9 0.1 0.9 0.1 0.9 0.1 0.9 0.1 0.9 0.1 0.8629551300602563 0.1370448699397438 0.9 0.1 0.9 0.1 0.9 0.1 0.9 0.1 0.9 0.1 0.9 0.1 0.9 0.1 0.9 0.1 0.9 0.1 0.9 0.1 0.9 0.1 0.9 0.1 0.9 0.1 0.9 0.1 0.9 0.1 0.9 0.1 0.9 0.1 0.9 0.1 0.9 0.1 0.9 0.1 0.9041376985541736 0.09586230144582644 0.9 0.1 0.9090011982686924 0.09099880173130749 0.9 0.1 0.9 0.1 0.9 0.1 0.9 0.1 0.9 0.1 0.9 0.1 0.9 0.1 0.9 0.1 0.9 0.1 0.9 0.1 0.9 0.1 0.9 0.1 0.9 0.1 0.9 0.1 0.917407119756279 0.08259288024372109 0.9 0.1 0.9311404615328505 0.06885953846714954 0.9 0.1 0.9 0.1 0.9 0.1 0.9 0.1 0.9 0.1 0.9 0.1 0.9 0.1 0.8629551300602563 0.1370448699397438 0.9 0.1 0.9 0.1 0.913235554024115 0.08676444597588492 0.8374879612309108 0.1625120387690892 0.9016076239476177 0.09839237605238217 0.9 0.1 0.933320401030215 0.06667959896978501 0.9 0.1 0.9 0.1 0.9 0.1 0.9 0.1 0.9 0.1 0.9 0.1 0.7200230566702233 0.2799769433297766 0.9 0.1 0.9 0.1 0.9 0.1 0.9 0.1 0.9 0.1 0.9 0.1 0.9 0.1 0.9 0.1 0.9 0.1 0.8854371179630531 0.114562882036947 0.9 0.1 0.9 0.1 0.9 0.1 0.9 0.1 0.9 0.1 0.9 0.1 0.9 0.1 0.9 0.1 0.9041376985541736 0.09586230144582644 0.9 0.1 0.9016076239476177 0.09839237605238217 0.9 0.1 0.9 0.1 0.9 0.1 0.9 0.1 0.9 0.1 0.9 0.1 0.9 0.1 0.9 0.1 0.9 0.1 0.9 0.1 0.9 0.1 0.9 0.1 0.9 0.1 0.9 0.1 0.9 0.1 0.9 0.1 0.9 0.1 0.9 0.1 0.9 0.1 0.9 0.1 0.9 0.1 0.9 0.1 0.9 0.1 0.9 0.1 0.9 0.1 0.9 0.1 0.9 0.1 0.9 0.1 0.9 0.1 0.9 0.1 0.9 0.1 0.9 0.1 0.9 0.1 0.9 0.1 0.9 0.1 0.9 0.1 0.9012518974462511 0.09874810255374898 0.9 0.1 0.9 0.1 0.9 0.1 0.9 0.1 0.9060090923322468 0.09399090766775328 0.9 0.1 0.9 0.1 0.9 0.1 0.9 0.1 0.9 0.1 0.9 0.1 0.9 0.1 0.9 0.1 0.9 0.1 0.9 0.1 0.9 0.1 0.9 0.1 0.9 0.1 0.9 0.1 0.9 0.1 0.9 0.1 0.9 0.1 0.9 0.1 0.9 0.1 0.9 0.1 0.9 0.1 0.9 0.1 0.9 0.1 0.9 0.1 0.9038886831460871 0.09611131685391298 0.9 0.1 0.9 0.1 0.9 0.1 0.9 0.1 0.9142566398524231 0.08574336014757696 0.9 0.1 0.9 0.1 0.9 0.1 0.9 0.1 0.9 0.1 0.9 0.1 0.9 0.1 0.9 0.1 0.9 0.1 0.9 0.1 0.9 0.1 0.9 0.1 0.9 0.1 0.9 0.1 0.9 0.1 0.9 0.1 0.9 0.1 0.9 0.1 0.9130661715595885 0.0869338284404116 0.9 0.1 0.9 0.1 0.9 0.1 0.9 0.1 0.9 0.1 0.9038886831460871 0.09611131685391298 0.9 0.1 0.9 0.1 0.9 0.1 0.9 0.1 0.9044779192085752 0.0955220807914247 0.9 0.1 0.9 0.1 0.9 0.1 0.9 0.1 0.9 0.1 0.9 0.1 0.9 0.1 0.9 0.1 0.9 0.1 0.9 0.1 0.9 0.1 0.9 0.1 0.9 0.1 0.9 0.1 0.9 0.1 0.9 0.1 0.9 0.1 0.9 0.1 0.9 0.1 0.9 0.1 0.7105635776332623 0.2894364223667377 0.9 0.1 0.9 0.1 0.9 0.1 0.9065234458425651 0.09347655415743505 0.9 0.1 0.9 0.1 0.9 0.1 0.9 0.1 0.9142566398524231 0.08574336014757696 0.9 0.1 0.9 0.1 0.9 0.1 0.9 0.1 0.9 0.1 0.9 0.1 0.9 0.1 0.9 0.1 0.9 0.1 0.9 0.1 0.9 0.1 0.9 0.1 0.9 0.1 0.9 0.1 0.9 0.1 0.9 0.1 0.9 0.1 0.9 0.1 0.9 0.1 0.9 0.1 0.9 0.1 0.9 0.1 0.9 0.1 0.9 0.1 0.9011355742778637 0.09886442572213622 0.9 0.1 0.9 0.1 0.9 0.1 0.9 0.1 0.9044779192085752 0.0955220807914247 0.9 0.1 0.9 0.1 0.9 0.1 0.9 0.1 0.9 0.1 0.9 0.1 0.9 0.1 0.9 0.1 0.9 0.1 0.9 0.1 0.9 0.1 0.9 0.1 0.9 0.1 0.9 0.1 0.9 0.1 0.8789245494877471 0.1210754505122529 0.9 0.1 0.9 0.1 0.9 0.1 0.9 0.1 0.9 0.1 0.9008448243071524 0.09915517569284761 0.9 0.1 0.9 0.1 0.9 0.1 0.9 0.1 0.9 0.1 0.9 0.1 0.9185689290827187 0.08143107091728133 0.904045687022726 0.09595431297727408 0.9 0.1 0.9 0.1 0.9054118816979551 0.09458811830204503 0.9 0.1 0.8976992721469532 0.1023007278530467 0.9 0.1 0.9 0.1 0.9 0.1 0.9 0.1 0.9 0.1 0.9 0.1 0.9 0.1 0.9 0.1 0.9 0.1 0.9 0.1 0.7519833083144291 0.248016691685571 0.9 0.1 0.9 0.1 0.9 0.1 0.9 0.1 0.9 0.1 0.9029213395225995 0.09707866047740048 0.9 0.1 0.9 0.1 0.9 0.1 0.9 0.1 0.9 0.1 0.9 0.1 0.9116464142095693 0.08835358579043072 0.904045687022726 0.09595431297727408 0.9 0.1 0.9 0.1 0.9169248392564486 0.08307516074355138 0.9 0.1 0.8976992721469532 0.1023007278530467 0.9 0.1 0.9 0.1 0.9 0.1 0.9 0.1 0.9 0.1 0.9 0.1 0.9 0.1 0.9 0.1 0.9 0.1 0.9 0.1 0.8771398066397131 0.1228601933602868 0.9 0.1 0.9 0.1 0.9 0.1 0.9 0.1 0.9 0.1 0.9030510545760713 0.09694894542392879 0.9323304226527883 0.06766957734721157 0.9 0.1 0.9 0.1 0.9 0.1 0.9 0.1 0.9 0.1 0.9038186860314263 0.09618131396857353 0.9182852790583175 0.08171472094168256 0.9 0.1 0.9 0.1 0.917569942917161 0.08243005708283893 0.9 0.1 0.8965165989286742 0.1034834010713258 0.9 0.1 0.9013574539399937 0.09864254606000629 0.9 0.1 0.9012783757840185 0.09872162421598142 0.9 0.1 0.9253414398730158 0.07465856012698421 0.9 0.1 0.9030482100322015 0.0969517899677985 0.9 0.1 0.9090356774846285 0.09096432251537155 0.7519833083144291 0.248016691685571 0.9 0.1 0.9 0.1 0.9 0.1 0.9 0.1 0.9 0.1 0.9088193865898372 0.09118061341016283 0.9 0.1 0.9 0.1 0.9 0.1 0.9 0.1 0.6025528649621761 0.397447135037824 0.9 0.1 0.9035924025431252 0.09640759745687476 0.912993651514347 0.08700634848565318 0.9 0.1 0.9558714053755527 0.04412859462444732 0.9398522988725667 0.06014770112743326 0.9151295043343743 0.08487049566562556 0.891551152981651 0.1084488470183491 0.9 0.1 0.9 0.1 0.9 0.1 0.9 0.1 0.9 0.1 0.9 0.1 0.9 0.1 0.9 0.1 0.9 0.1 0.9 0.1 0.8789245494877471 0.1210754505122529 0.9 0.1 0.9 0.1 0.9 0.1 0.9 0.1 0.9 0.1 0.9008448243071524 0.09915517569284761 0.9 0.1 0.9 0.1 0.9 0.1 0.9 0.1 0.9 0.1 0.9 0.1 0.9035924025431252 0.09640759745687476 0.904045687022726 0.09595431297727408 0.9 0.1 0.9 0.1 0.9054118816979551 0.09458811830204503 0.9 0.1 0.8847884455150179 0.1152115544849822 0.9 0.1 0.9 0.1 0.9 0.1 0.9 0.1 0.9 0.1 0.9 0.1 0.9 0.1 0.9 0.1 0.9 0.1 0.9 0.1 0.9021007765242461 0.09789922347575375 0.8526259305152128 0.1473740694847872 0.8995498462043582 0.1004501537956419 0.9304699656513038 0.06953003434869631 0.8995116856171224 0.1004883143828776 0.9 0.1 0.9023990593833513 0.09760094061664866 0.9 0.1 0.9079649617717845 0.09203503822821545 0.6018758945323343 0.3981241054676657 0.9274396480351645 0.07256035196483546 0.9065553125155665 0.09344468748443348 0.9 0.1 0.9 0.1 0.9051343755612324 0.09486562443876759 0.9 0.1 0.9092760642641075 0.09072393573589242 0.8914114952704179 0.1085885047295822 0.8954652311473518 0.1045347688526483 0.8905521711645468 0.1094478288354533 0.9 0.1 0.9 0.1 0.9 0.1 0.9 0.1 0.9 0.1 0.9 0.1 0.9 0.1 0.9 0.1 0.9 0.1 0.9 0.1 0.9320597518785209 0.06794024812147907 0.8331784914076609 0.1668215085923392 0.899818480238632 0.1001815197613681 0.897490157625806 0.1025098423741939 0.9308589883327008 0.06914101166729932 0.9 0.1 0.9031002289435256 0.0968997710564745 0.9 0.1 0.9157583561827617 0.08424164381723839 0.8921229591785282 0.1078770408214719 0.9 0.1 0.9296842996093403 0.07031570039065971 0.9 0.1 0.9 0.1 0.7220244095724138 0.2779755904275862 0.7096401929470698 0.2903598070529302 0.9305706500514955 0.06942934994850457 0.8888183623554957 0.1111816376445042 0.9161261459363041 0.08387385406369581 0.8850224926332458 0.1149775073667541 0.9 0.1 0.9044864255166577 0.09551357448334237 0.9 0.1 0.9 0.1 0.9 0.1 0.9 0.1 0.9 0.1 0.9 0.1 0.9 0.1 0.9 0.1 0.9047236398677401 0.09527636013225989 0.7278344890951012 0.2721655109048988 0.8993276943626636 0.1006723056373365 0.9283472485130835 0.07165275148691644 0.8981546932673148 0.1018453067326852 0.9332212462328455 0.06677875376715439 0.9209152127959807 0.07908478720401947 0.9 0.1 0.8780070257669055 0.1219929742330945 0.7609733266918507 0.2390266733081494 0.6993972924811498 0.3006027075188502 0.9399541386368688 0.0600458613631312 0.9 0.1 0.9 0.1 0.9170086584441479 0.08299134155585224 0.9 0.1 0.6367224586609542 0.3632775413390457 0.9201045197797788 0.07989548022022108 0.9309252963045609 0.06907470369543908 0.8891123636753574 0.1108876363246426 0.9 0.1 0.9 0.1 0.9 0.1 0.9 0.1 0.9 0.1 0.9 0.1 0.9 0.1 0.9 0.1 0.9 0.1 0.9 0.1 0.8787557853921887 0.1212442146078113 0.8967969151384149 0.1032030848615851 0.8985554883240499 0.1014445116759503 0.9197404109441053 0.08025958905589457 0.5557230565436719 0.4442769434563282 0.9 0.1 0.9358161401578947 0.06418385984210521 0.9 0.1 0.9403168865435889 0.05968311345641112 0.8967280679401595 0.1032719320598405 0.7365952854761391 0.2634047145238609 0.9349765017084738 0.06502349829152616 0.9328611811325174 0.06713881886748264 0.8884376356150377 0.1115623643849622 0.9080747129666891 0.0919252870333109 0.8968328630555735 0.1031671369444264 0.6132940718441388 0.3867059281558612 0.9193872157722088 0.08061278422779128 0.9100770506130519 0.08992294938694806 0.9292481992119141 0.07075180078808595 0.8884183666258719 0.111581633374128 0.9 0.1 0.9 0.1 0.9 0.1 0.9 0.1 0.9 0.1 0.9 0.1 0.9 0.1 0.9002692737960751 0.09973072620392474 0.9 0.1 0.9013276853495049 0.09867231465049503 0.8739640737286491 0.1260359262713509 0.8999502091513526 0.1000497908486474 0.8993050621990399 0.1006949378009601 0.8999315168314599 0.1000684831685402 0.9 0.1 0.900587394301135 0.09941260569886505 0.9 0.1 0.9027670003962849 0.09723299960371518 0.5972164448020323 0.4027835551979677 0.9 0.1 0.904203534969112 0.09579646503088815 0.9 0.1 0.9 0.1 0.9007522748095161 0.09924772519048375 0.9 0.1 0.8970703198005332 0.1029296801994669 0.8979487473404196 0.1020512526595803 0.8985304299719773 0.1014695700280227 0.8968485207239769 0.1031514792760231 0.9 0.1 0.9 0.1 0.9 0.1 0.9 0.1 0.9 0.1 0.9 0.1 0.9 0.1 0.9 0.1 0.9 0.1 0.9 0.1 0.9 0.1 0.9 0.1 0.9 0.1 0.9 0.1 0.9 0.1 0.9 0.1 0.8906517549594275 0.1093482450405725 0.9 0.1 0.9 0.1 0.9 0.1 0.9 0.1 0.9 0.1 0.9 0.1 0.901759636177082 0.09824036382291795 0.9 0.1 0.9 0.1 0.901020151712453 0.09897984828754715 0.9006918302564134 0.0993081697435866 0.9 0.1 0.9 0.1 0.9004015921173092 0.09959840788269082 0.9 0.1 0.9006782058968097 0.09932179410319034 0.9 0.1 0.9001350463426683 0.0998649536573316 0.9 0.1 0.900537122959713 0.09946287704028703 0.9 0.1 0.9001956392561049 0.09980436074389518 0.9 0.1 0.9 0.1 0.9 0.1 0.9499823892877068 0.05001761071229333 0.9 0.1 0.9 0.1 0.9 0.1 0.9014914205019471 0.09850857949805296 0.9 0.1 0.9 0.1 0.9 0.1 0.9 0.1 0.9 0.1 0.9 0.1 0.9400831892232671 0.05991681077673307 0.9 0.1 0.9 0.1 0.9040720216303118 0.09592797836968835 0.9027944261813537 0.09720557381864624 0.8975452673726452 0.1024547326273549 0.9 0.1 0.9021899721165654 0.09781002788343467 0.9 0.1 0.9058555094660969 0.09414449053390299 0.9 0.1 0.901493184198112 0.09850681580188793 0.9 0.1 0.9021745116013585 0.09782548839864161 0.9 0.1 0.900755910576854 0.09924408942314589 0.9 0.1 0.9 0.1 0.9 0.1 0.6901970468460118 0.3098029531539882 0.933260728885292 0.066739271114708 0.9 0.1 0.9 0.1 0.6405660502686663 0.3594339497313337 0.9 0.1 0.917407119756279 0.08259288024372109 0.9009905443588313 0.09900945564116861 0.9 0.1 0.9 0.1 0.94995113857751 0.05004886142249001 0.9189696341824372 0.08103036581756291 0.9 0.1 0.9333310384907896 0.06666896150921045 0.9305931022236701 0.06940689777632995 0.873074351216668 0.126925648783332 0.9 0.1 0.9247227393180042 0.07527726068199588 0.9023622765144759 0.09763772348552412 0.9 0.1 0.9081134901478551 0.09188650985214493 0.9 0.1 0.9023409730230886 0.09765902697691133 0.9 0.1 0.9045981903367557 0.09540180966324437 0.9 0.1 0.9011921001144025 0.09880789988559735 0.9 0.1 0.8478215631489385 0.1521784368510615 0.9188832249091207 0.08111677509087933 0.9 0.1 0.9 0.1 0.9330820667334364 0.06691793326656362 0.9 0.1 0.8237924583841754 0.1762075416158246 0.9 0.1 0.9333133159433782 0.06668668405662173 0.9 0.1 0.9 0.1 0.9205211811586419 0.07947881884135809 0.9 0.1 0.9069082719692605 0.09309172803073956 0.8953713947621553 0.1046286052378447 0.7505087714788268 0.2494912285211731 0.9073656351801684 0.09263436481983157 0.6189312467356944 0.3810687532643054 0.9 0.1 0.9 0.1 0.9025142345177506 0.09748576548224949 0.900876744190541 0.09912325580945891 0.9027421426424443 0.09725785735755572 0.9 0.1 0.9030762191923869 0.09692378080761305 0.9 0.1 0.903995055971718 0.09600494402828189 0.9 0.1 0.9008338978333831 0.09916610216661692 0.9 0.1 0.9 0.1 0.9 0.1 0.9 0.1 0.9 0.1 0.9 0.1 0.9 0.1 0.8978288841347856 0.1021711158652144 0.9 0.1 0.9 0.1 0.9 0.1 0.9 0.1 0.9 0.1 0.9 0.1 0.90045589892367 0.09954410107633001 0.9 0.1 0.9333297183682563 0.06667028163174357 0.9002534632048583 0.09974653679514157 0.9001713800366203 0.09982861996337963 0.9 0.1 0.9 0.1 0.900599947256323 0.09940005274367698 0.9 0.1 0.9001744473460668 0.09982555265393316 0.9 0.1 0.9007225063238261 0.09927749367617404 0.9 0.1 0.9001329868485185 0.09986701315148147 0.9 0.1 0.9001584606318207 0.09984153936817937 0.9 0.1 0.9322545371309326 0.06774546286906731 0.9 0.1 0.9 0.1 0.9 0.1 0.9 0.1 0.9 0.1 0.9 0.1 0.9 0.1 0.9 0.1 0.9 0.1 0.9117526325483403 0.0882473674516598 0.9 0.1 0.9048191793455957 0.09518082065440421 0.9053392578912739 0.09466074210872602 0.9 0.1 0.9 0.1 0.631150854359859 0.368849145640141 0.9 0.1 0.9 0.1 0.9 0.1 0.9 0.1 0.9 0.1 0.9 0.1 0.9 0.1 0.902749648484293 0.09725035151570713 0.9 0.1 0.9 0.1 0.9 0.1 0.9 0.1 0.9 0.1 0.9 0.1 0.9 0.1 0.9 0.1 0.9 0.1 0.9 0.1 0.9 0.1 0.9 0.1 0.9 0.1 0.9 0.1 0.9 0.1 0.9043645319550402 0.0956354680449597 0.9 0.1 0.9080251892552974 0.09197481074470261 0.9088606849512243 0.09113931504877582 0.9 0.1 0.933320764473071 0.06667923552692888 0.9 0.1 0.9 0.1 0.9 0.1 0.9 0.1 0.9 0.1 0.9 0.1 0.9 0.1 0.9 0.1 0.9104282023160731 0.08957179768392677 0.9 0.1 0.9 0.1 0.9 0.1 0.9 0.1 0.9 0.1 0.9 0.1 0.9 0.1 0.9 0.1 0.9 0.1 0.9 0.1 0.9 0.1 0.9 0.1 0.9 0.1 0.9 0.1 0.9 0.1 0.9117526325483403 0.0882473674516598 0.9328233096711687 0.06717669032883131 0.915322358280419 0.08467764171958118 0.9167841282798322 0.08321587172016766 0.9 0.1 0.9333132796034027 0.06668672039659725 0.9191075776338758 0.08089242236612418 0.9 0.1 0.9 0.1 0.9 0.1 0.9 0.1 0.9 0.1 0.9 0.1 0.9 0.1 0.9090713567396633 0.09092864326033671 0.9 0.1 0.9 0.1 0.9 0.1 0.9 0.1 0.9 0.1 0.9 0.1 0.9 0.1 0.9 0.1 0.9 0.1 0.9 0.1 0.9330646575746516 0.06693534242534827 0.9 0.1 0.9 0.1 0.9 0.1 0.9 0.1 0.9129822620957566 0.08701773790424341 0.9 0.1 0.9064068213719487 0.09359317862805112 0.9070861637464247 0.09291383625357541 0.9 0.1 0.9327721223292486 0.06722787767075133 0.9 0.1 0.926410632677921 0.07358936732207896 0.9 0.1 0.9 0.1 0.9 0.1 0.9 0.1 0.9 0.1 0.9 0.1 0.9157774580027921 0.08422254199720794 0.9 0.1 0.9 0.1 0.9 0.1 0.9 0.1 0.9 0.1 0.9 0.1 0.9 0.1 0.9 0.1 0.9 0.1 0.9 0.1 0.9 0.1 0.9 0.1 0.9 0.1 0.9 0.1 0.9 0.1 0.903594171127803 0.09640582887219697 0.9 0.1 0.9048191793455957 0.09518082065440421 0.9053392578912739 0.09466074210872602 0.9 0.1 0.9 0.1 0.9 0.1 0.9 0.1 0.9 0.1 0.9 0.1 0.9 0.1 0.9 0.1 0.9 0.1 0.9 0.1 0.902749648484293 0.09725035151570713 0.9 0.1 0.9 0.1 0.9 0.1 0.9 0.1 0.9 0.1 0.9 0.1 0.9 0.1 0.9 0.1 0.9063756603512992 0.09362433964870068 0.8958393596764564 0.1041606403235436 0.9 0.1 0.9 0.1 0.9358826406333884 0.06411735936661148 0.9014052458500618 0.09859475414993824 0.9 0.1 0.9 0.1 0.9008156130382226 0.09918438696177734 0.9 0.1 0.9077702109003462 0.09222978909965392 0.9012129008749484 0.0987870991250515 0.9001531810860052 0.09984681891399493 0.908772123659517 0.09122787634048293 0.6381354686701066 0.3618645313298934 0.8965738953322027 0.1034261046677974 0.8965543236070124 0.1034456763929877 0.9 0.1 0.9 0.1 0.9 0.1 0.9 0.1 0.9 0.1 0.9 0.1 0.9 0.1 0.9 0.1 0.9 0.1 0.9 0.1 0.9 0.1 0.9 0.1 0.9 0.1 0.9063990385245219 0.09360096147547804 0.8958393596764564 0.1041606403235436 0.9 0.1 0.9 0.1 0.636822094456838 0.3631779055431621 0.9111219366352306 0.08887806336476944 0.9 0.1 0.9333317160460743 0.06666828395392568 0.9347350328760955 0.06526496712390446 0.9 0.1 0.9369847434313643 0.06301525656863582 0.9012129008749484 0.0987870991250515 0.9001531810860052 0.09984681891399493 0.9059430626680831 0.09405693733191678 0.8712020573197684 0.1287979426802316 0.8618011332735251 0.1381988667264749 0.861468505598633 0.1385314944013671 0.9 0.1 0.9 0.1 0.9 0.1 0.9 0.1 0.9 0.1 0.9 0.1 0.9 0.1 0.9 0.1 0.9 0.1 0.9 0.1 0.9 0.1 0.9 0.1 0.9 0.1 0.9143747967196367 0.08562520328036324 0.7244835429656035 0.2755164570343966 0.9 0.1 0.93213119815645 0.06786880184355006 0.9059894521081613 0.09401054789183876 0.9459370757496292 0.05406292425037081 0.9 0.1 0.9 0.1 0.9013973184758045 0.09860268152419556 0.9 0.1 0.9414657107345935 0.05853428926540646 0.942367152600515 0.05763284739948515 0.9187052500460147 0.08129474995398538 0.9060223394158914 0.0939776605841087 0.8707020295686788 0.1292979704313212 0.7304146295903214 0.2695853704096786 0.7278910597975614 0.2721089402024386 0.9 0.1 0.9 0.1 0.9 0.1 0.9 0.1 0.9 0.1 0.9 0.1 0.9 0.1 0.9 0.1 0.9 0.1 0.9 0.1 0.9 0.1 0.939140196226749 0.06085980377325099 0.9330567039460906 0.06694329605390935 0.9148717734573586 0.0851282265426415 0.8290901504680227 0.1709098495319774 0.6010976241422842 0.3989023758577158 0.9 0.1 0.9155197357033008 0.08448026429669922 0.9208201811313793 0.07917981886862079 0.7764377154074407 0.2235622845925592 0.9 0.1 0.9353662570054242 0.06463374299457569 0.9 0.1 0.9177960106741579 0.08220398932584203 0.9122998068125681 0.08770019318743186 0.9017045523838305 0.09829544761616944 0.9155974682567869 0.08440253174321305 0.7206280616151293 0.2793719383848706 0.6869765250232203 0.3130234749767797 0.8886981436362859 0.1113018563637141 0.9 0.1 0.9 0.1 0.9 0.1 0.9 0.1 0.9 0.1 0.9 0.1 0.9 0.1 0.9 0.1 0.9 0.1 0.9 0.1 0.9 0.1 0.9 0.1 0.9 0.1 0.9018961417586515 0.09810385824134846 0.9301608670276452 0.06983913297235472 0.9 0.1 0.9 0.1 0.9372507069839568 0.0627492930160431 0.9014052458500618 0.09859475414993824 0.9 0.1 0.9 0.1 0.9008156130382226 0.09918438696177734 0.9 0.1 0.9023329337146702 0.09766706628532991 0.9069650063945933 0.09303499360540669 0.9009217278298304 0.09907827217016957 0.9084018549563614 0.09159814504363861 0.8535889454923009 0.1464110545076992 0.8965738953322027 0.1034261046677974 0.8965543236070124 0.1034456763929877 0.9 0.1 0.9 0.1 0.9 0.1 0.9 0.1 0.9 0.1 0.9 0.1 0.9 0.1 0.9 0.1 0.9 0.1 0.9 0.1 0.933442298007115 0.06655770199288503 0.9054208669432107 0.09457913305678918 0.906390321958443 0.09360967804155698 0.9031868531438448 0.09681314685615527 0.9002120472484314 0.09978795275156876 0.9 0.1 0.8824395858144324 0.1175604141855676 0.895497217496751 0.104502782503249 0.900265043755996 0.09973495624400404 0.9 0.1 0.8867171322749539 0.113282867725046 0.9 0.1 0.9 0.1 0.9333045062491261 0.0666954937508738 0.9041487009578408 0.09585129904215921 0.8878712314007204 0.1121287685992796 0.9015707144874261 0.09842928551257389 0.8865143770305836 0.1134856229694165 0.9 0.1 0.9 0.1 0.9 0.1 0.9 0.1 0.9 0.1 0.8960683951778485 0.1039316048221515 0.9 0.1 0.9 0.1 0.9 0.1 0.9 0.1 0.9 0.1 0.9 0.1 0.9320310988002359 0.06796890119976397 0.9243938599608618 0.07560614003913825 0.9153482004363599 0.08465179956364011 0.9080235752688699 0.09197642473113012 0.9005111503206181 0.09948884967938196 0.9 0.1 0.7511901112057611 0.248809888794239 0.8328401295165652 0.1671598704834348 0.9007377532902953 0.09926224670970463 0.9 0.1 0.7714330145534291 0.228566985446571 0.9330636111164067 0.06693638888359331 0.9 0.1 0.9332394754671639 0.06676052453283599 0.9095185389524596 0.0904814610475403 0.9183305077100694 0.08166949228993046 0.8953969338747108 0.1046030661252893 0.834409419329541 0.1655905806704589 0.9 0.1 0.8953713947621553 0.1046286052378447 0.9 0.1 0.9 0.1 0.9 0.1 0.8890594893922992 0.1109405106077009 0.9 0.1 0.9 0.1 0.8993079563859698 0.1006920436140301 0.9 0.1 0.9 0.1 0.9 0.1 0.901665495571532 0.09833450442846799 0.9509804800876612 0.04901951991233865 0.911250481823064 0.08874951817693602 0.9394799214075811 0.06052007859241913 0.9006696203184733 0.09933037968152676 0.9106490854060919 0.08935091459390816 0.7620874401022201 0.2379125598977798 0.9128665497053 0.08713345029469993 0.9007644695164296 0.09923553048357021 0.9065476632504018 0.09345233674959814 0.717545734704503 0.2824542652954971 0.9056082999430904 0.09439170005690954 0.9314731046340602 0.06852689536593978 0.9394201434863185 0.06057985651368138 0.9383901422775592 0.06160985772244078 0.8617428548773891 0.1382571451226109 0.9067170476502759 0.09328295234972402 0.8643151836399067 0.1356848163600933 0.9 0.1 0.9475435649151333 0.05245643508486672 0.9 0.1 0.9 0.1 0.9 0.1 0.892523603927742 0.107476396072258 0.9 0.1 0.9 0.1 0.9 0.1 0.9019254207993043 0.09807457920069566 0.9 0.1 0.9 0.1 0.9007154181199547 0.09928458188004514 0.9143875457593239 0.08561245424067609 0.9117191575188331 0.0882808424811669 0.9060079990578802 0.09399200094211983 0.9008623489215951 0.09913765107840482 0.933252245707903 0.06674775429209691 0.8092984163666634 0.1907015836333366 0.8826002800078125 0.1173997199921874 0.9338578983209558 0.0661421016790443 0.9 0.1 0.851448333599892 0.148551666400108 0.9 0.1 0.9 0.1 0.9 0.1 0.9151877344981948 0.08481226550180525 0.7074791251214996 0.2925208748785004 0.905264088757009 0.09473591124299093 0.8354430421670471 0.1645569578329528 0.917407119756279 0.08259288024372109 0.9110062723150369 0.08899372768496294 0.9332394754671639 0.06676052453283599 0.9 0.1 0.9 0.1 0.8921517269757402 0.1078482730242599 0.9 0.1 0.9333078076419735 0.06669219235802648 0.9 0.1 0.9 0.1 0.9 0.1 0.9 0.1 0.9001158096129594 0.09988419038704061 0.9026032664939928 0.09739673350600707 0.9170914341231062 0.08290856587689382 0.901118259636658 0.09888174036334184 0.9001436775416304 0.09985632245836959 0.9 0.1 0.8910501609685385 0.1089498390314616 0.89759296403018 0.10240703596982 0.9000991407586345 0.09990085924136562 0.9 0.1 0.8941458169646209 0.1058541830353792 0.9 0.1 0.9 0.1 0.9 0.1 0.902843700880253 0.09715629911974699 0.9297114427693446 0.07028855723065552 0.9008613473120135 0.09913865268798645 0.8930346529177187 0.1069653470822814 0.9 0.1 0.9 0.1 0.9 0.1 0.9 0.1 0.9 0.1 0.8986746535228622 0.1013253464771376 0.9 0.1 0.9 0.1 0.9 0.1 0.9 0.1 0.9 0.1 0.9 0.1 0.626892434103247 0.3731075658967529 0.9 0.1 0.8986485211103415 0.1013514788896584 0.9 0.1 0.8997809353347339 0.1002190646652662 0.9 0.1 0.8699741587273243 0.1300258412726757 0.9 0.1 0.9085442515201274 0.09145574847987266 0.9025613885581886 0.09743861144181148 0.5909217660271089 0.4090782339728911 0.9 0.1 0.9530656903246437 0.04693430967535627 0.9 0.1 0.8990973449334644 0.1009026550665356 0.9 0.1 0.8982164691578729 0.1017835308421271 0.9 0.1 0.9023298038009797 0.0976701961990204 0.9048081007347853 0.09519189926521462 0.8996245620535303 0.1003754379464698 0.9 0.1 0.8997216758287472 0.1002783241712528 0.9 0.1 0.8997175524825048 0.1002824475174952 0.9 0.1 0.8998417939900099 0.1001582060099901 0.9 0.1 0.8939071173646451 0.1060928826353548 0.9036043570948573 0.09639564290514263 0.9095048317915913 0.0904951682084088 0.9 0.1 0.6962212230596684 0.3037787769403317 0.9 0.1 0.9007940878903065 0.09920591210969339 0.9 0.1 0.8692557981628369 0.130744201837163 0.9 0.1 0.9024404807746229 0.09755951922537709 0.9016473494138564 0.09835265058614359 0.9329615052352148 0.06703849476478514 0.9 0.1 0.9353546712554417 0.06464532874455846 0.9 0.1 0.9031981586934971 0.09680184130650288 0.9 0.1 0.9016868874381027 0.09831311256189726 0.9 0.1 0.903474389417623 0.09652561058237696 0.9031153825520934 0.0968846174479067 0.9002664236265653 0.09973357637343472 0.9 0.1 0.9002708932703405 0.0997291067296595 0.9 0.1 0.9010216700141715 0.09897832998582844 0.9 0.1 0.9001531644721468 0.09984683552785326 0.9 0.1 0.9007938243359497 0.09920617566405034 0.9023261061149543 0.09767389388504553 0.9008582354795001 0.09914176452049987 0.9 0.1 0.899445908017779 0.1005540919822209 0.9329406030770231 0.06705939692297685 0.8997809353347339 0.1002190646652662 0.9 0.1 0.8225066264565585 0.1774933735434415 0.9 0.1 0.8757196470153723 0.1242803529846277 0.9015237699474821 0.098476230052518 0.899336918925681 0.100663081074319 0.9 0.1 0.8978612229999701 0.10213877700003 0.9 0.1 0.8990973449334644 0.1009026550665356 0.9 0.1 0.8968451677085629 0.1031548322914371 0.9 0.1 0.9013755745971069 0.09862442540289305 0.9028845732191482 0.09711542678085178 0.8999558072858364 0.1000441927141636 0.9 0.1 0.8998853450836108 0.1001146549163893 0.9 0.1 0.8997175524825048 0.1002824475174952 0.9 0.1 0.8997227415217671 0.1002772584782328 0.9 0.1 0.9294683748852587 0.07053162511474136 0.9021526060391645 0.09784739396083549 0.9008582354795001 0.09914176452049987 0.9 0.1 0.899445908017779 0.1005540919822209 0.9 0.1 0.8997809353347339 0.1002190646652662 0.9 0.1 0.8368442968111803 0.1631557031888197 0.9 0.1 0.8170366886395092 0.1829633113604908 0.9036958166498668 0.0963041833501333 0.899336918925681 0.100663081074319 0.9 0.1 0.8978612229999701 0.10213877700003 0.9 0.1 0.8990973449334644 0.1009026550665356 0.9 0.1 0.8968709025945637 0.1031290974054363 0.9 0.1 0.9033900484530706 0.09660995154692935 0.906874045389912 0.09312595461008792 0.8999558072858364 0.1000441927141636 0.9 0.1 0.8998853450836108 0.1001146549163893 0.9 0.1 0.8997175524825048 0.1002824475174952 0.9 0.1 0.8997249424048694 0.1002750575951304 0.9 0.1 0.8979465598230376 0.1020534401769623 0.9051785680822541 0.094821431917746 0.9008582354795001 0.09914176452049987 0.9 0.1 0.8998421701708239 0.100157829829176 0.9 0.1 0.8997809353347339 0.1002190646652662 0.9 0.1 0.8928233581855763 0.1071766418144236 0.9 0.1 0.8756717573292316 0.1243282426707684 0.9015262416747298 0.09847375832527018 0.899336918925681 0.100663081074319 0.9 0.1 0.8993959369057022 0.1006040630942979 0.9 0.1 0.8990973449334644 0.1009026550665356 0.9 0.1 0.8994997953204331 0.1005002046795668 0.9 0.1 0.9013778288290198 0.09862217117098014 0.9028891941079916 0.09711080589200836 0.8999558072858364 0.1000441927141636 0.9 0.1 0.8999672632475849 0.1000327367524151 0.9 0.1 0.8997175524825048 0.1002824475174952 0.9 0.1 0.8999552384228025 0.1000447615771975 0.9 0.1 0.8991763250763368 0.1008236749236631 0.9021560777733428 0.09784392222665714 0.9 0.1 0.9 0.1 0.9332567846272221 0.06674321537277794 0.9 0.1 0.9 0.1 0.9 0.1 0.9 0.1 0.9 0.1 0.9 0.1 0.9 0.1 0.9 0.1 0.9 0.1 0.6835168445829448 0.3164831554170553 0.9 0.1 0.947320827728053 0.05267917227194685 0.9 0.1 0.9 0.1 0.9 0.1 0.9 0.1 0.9 0.1 0.9 0.1 0.9 0.1 0.9 0.1 0.9 0.1 0.9 0.1 0.9 0.1 0.9 0.1 0.9 0.1 0.9 0.1 0.9 0.1 0.9 0.1 0.9 0.1 0.9 0.1 0.9 0.1 0.9 0.1 0.9 0.1 0.9 0.1 0.9 0.1 0.9 0.1 0.9 0.1 0.9 0.1 0.9 0.1 0.9124758234142325 0.08752417658576751 0.9 0.1 0.9479764803946211 0.05202351960537886 0.9 0.1 0.9 0.1 0.9 0.1 0.9 0.1 0.9 0.1 0.9 0.1 0.9 0.1 0.9 0.1 0.9 0.1 0.9 0.1 0.9 0.1 0.9 0.1 0.9 0.1 0.9 0.1 0.9 0.1 0.9 0.1 0.9 0.1 0.9333224529152853 0.06667754708471468 0.9 0.1 0.9 0.1 0.9 0.1 0.9 0.1 0.9 0.1 0.9 0.1 0.9 0.1 0.9 0.1 0.9 0.1 0.9 0.1 0.917407119756279 0.08259288024372109 0.9 0.1 0.9 0.1 0.9 0.1 0.9 0.1 0.9 0.1 0.9 0.1 0.9 0.1 0.9 0.1 0.9 0.1 0.9 0.1 0.9 0.1 0.9 0.1 0.9 0.1 0.9 0.1 0.9 0.1 0.9 0.1 0.9 0.1 0.9 0.1 0.9 0.1 0.9 0.1 0.9 0.1 0.9 0.1 0.9 0.1 0.8629551300602563 0.1370448699397438 0.9 0.1 0.9 0.1 0.9 0.1 0.9 0.1 0.9 0.1 0.9 0.1 0.9 0.1 0.9 0.1 0.9 0.1 0.9 0.1 0.9 0.1 0.9 0.1 0.9 0.1 0.9 0.1 0.9 0.1 0.9 0.1 0.9 0.1 0.9 0.1 0.9 0.1 0.9 0.1 0.9 0.1 0.9 0.1 0.9 0.1 0.9 0.1 0.9 0.1 0.9 0.1 0.9 0.1 0.9 0.1 0.9 0.1 0.9 0.1 0.9 0.1 0.9 0.1 0.9 0.1 0.9 0.1 0.9 0.1 0.9 0.1 0.9 0.1 0.9 0.1 0.9 0.1 0.9 0.1 0.9 0.1 0.9 0.1 0.9 0.1 0.9 0.1 0.9 0.1 0.9 0.1 0.9 0.1 0.9 0.1 0.9 0.1 0.9 0.1 0.9 0.1 0.9 0.1 0.9332283376165094 0.06677166238349058 0.9 0.1 0.9 0.1 0.9 0.1 0.9 0.1 0.9 0.1 0.9 0.1 0.9 0.1 0.9 0.1 0.9 0.1 0.9 0.1 0.9 0.1 0.9 0.1 0.9 0.1 0.9 0.1 0.9 0.1 0.9 0.1 0.9 0.1 0.9 0.1 0.9 0.1 0.9 0.1 0.9 0.1 0.9 0.1 0.9 0.1 0.9 0.1 0.9 0.1 0.9 0.1 0.9 0.1 0.9 0.1 0.9 0.1 0.9 0.1 0.9 0.1 0.9 0.1 0.9 0.1 0.9 0.1 0.9 0.1 0.9 0.1 0.9 0.1 0.9 0.1 0.9 0.1 0.9 0.1 0.9 0.1 0.9 0.1 0.9 0.1 0.9 0.1 0.9 0.1 0.6114275354065337 0.3885724645934662 0.9 0.1 0.9151295043343743 0.08487049566562556 0.9 0.1 0.9 0.1 0.9 0.1 0.9 0.1 0.9 0.1 0.9 0.1 0.9 0.1 0.9 0.1 0.9 0.1 0.9 0.1 0.9 0.1 0.9 0.1 0.9333191359696286 0.06668086403037146 0.9 0.1 0.9 0.1 0.9 0.1 0.9 0.1 0.9 0.1 0.9 0.1 0.9 0.1 0.9 0.1 0.9 0.1 0.9 0.1 0.9 0.1 0.9 0.1 0.9 0.1 0.9 0.1 0.9 0.1 0.9 0.1 0.931610793668413 0.06838920633158695 0.9 0.1 0.9 0.1 0.9 0.1 0.9 0.1 0.9 0.1 0.9 0.1 0.9 0.1 0.9 0.1 0.9 0.1 0.9 0.1 0.9 0.1 0.9 0.1 0.9 0.1 0.9 0.1 0.9 0.1 0.9 0.1 0.9 0.1 0.9 0.1 0.9 0.1 0.9307343473541368 0.06926565264586312 0.9 0.1 0.9 0.1 0.9 0.1 0.9 0.1 0.9 0.1 0.9 0.1 0.9 0.1 0.9 0.1 0.9 0.1 0.9 0.1 0.9 0.1 0.9 0.1 0.9 0.1 0.9 0.1 0.9 0.1 0.9 0.1 0.9 0.1 0.9 0.1 0.9 0.1 0.9 0.1 0.9 0.1 0.9 0.1 0.9 0.1 0.9 0.1 0.9 0.1 0.9 0.1 0.9 0.1 0.9 0.1 0.9 0.1 0.9 0.1 0.9 0.1 0.9 0.1 0.9 0.1 0.9 0.1 0.9 0.1 0.9 0.1 0.9 0.1 0.9 0.1 0.9 0.1 0.9 0.1 0.9 0.1 0.9 0.1 0.9 0.1 0.9 0.1 0.9 0.1 0.9 0.1 0.9 0.1 0.9 0.1 0.9 0.1 0.9 0.1 0.9 0.1 0.9 0.1 0.9 0.1 0.9454815334207081 0.05451846657929198 0.9 0.1 0.9 0.1 0.9 0.1 0.9 0.1 0.9 0.1 0.9 0.1 0.9 0.1 0.9 0.1 0.9 0.1 0.9 0.1 0.9 0.1 0.9 0.1 0.9 0.1 0.9021512687778668 0.09784873122213324 0.9 0.1 0.9 0.1 0.9 0.1 0.9 0.1 0.9 0.1 0.9 0.1 0.9 0.1 0.9 0.1 0.9 0.1 0.9 0.1 0.9 0.1 0.9 0.1 0.9 0.1 0.9198157315618005 0.08018426843819941 0.9 0.1 0.7248273014210721 0.2751726985789278 0.9 0.1 0.9 0.1 0.9 0.1 0.9 0.1 0.9 0.1 0.9 0.1 0.9 0.1 0.918012573447676 0.08198742655232412 0.9 0.1 0.9 0.1 0.9 0.1 0.9 0.1 0.9 0.1 0.9072028809667526 0.09279711903324749 0.9 0.1 0.9 0.1 0.9 0.1 0.9027381971010209 0.09726180289897918 0.9 0.1 0.9 0.1 0.9 0.1 0.9 0.1 0.9 0.1 0.9 0.1 0.9 0.1 0.9 0.1 0.9 0.1 0.9 0.1 0.9 0.1 0.9 0.1 0.9 0.1 0.7273153530409953 0.2726846469590047 0.9 0.1 0.9 0.1 0.9 0.1 0.9 0.1 0.9 0.1 0.9 0.1 0.9 0.1 0.9 0.1 0.9 0.1 0.9 0.1 0.9 0.1 0.9075077622274067 0.09249223777259327 0.9 0.1 0.9 0.1 0.9 0.1 0.9 0.1 0.9 0.1 0.9 0.1 0.9 0.1 0.9 0.1 0.9 0.1 0.9 0.1 0.9 0.1 0.9 0.1 0.9 0.1 0.9 0.1 0.9 0.1 0.9 0.1 0.9 0.1 0.9 0.1 0.9 0.1 0.9 0.1 0.9 0.1 0.9 0.1 0.9 0.1 0.9 0.1 0.9 0.1 0.9 0.1 0.9 0.1 0.9 0.1 0.9140524442301574 0.08594755576984253 0.919924055124382 0.08007594487561795 0.9333316747411892 0.06666832525881085 0.9 0.1 0.9 0.1 0.9 0.1 0.9 0.1 0.9 0.1 0.9 0.1 0.9 0.1 0.9 0.1 0.9 0.1 0.9 0.1 0.9 0.1 0.9 0.1 0.9 0.1 0.9 0.1 0.9 0.1 0.9 0.1 0.9 0.1 0.9 0.1 0.9 0.1 0.9 0.1 0.9 0.1 0.9328762257941703 0.06712377420582968 0.9 0.1 0.9 0.1 0.9 0.1 0.9 0.1 0.9 0.1 0.9 0.1 0.9021512687778668 0.09784873122213324 0.9 0.1 0.9307343473541368 0.06926565264586312 0.9 0.1 0.9 0.1 0.9 0.1 0.9 0.1 0.9 0.1 0.9 0.1 0.9 0.1 0.9 0.1 0.9 0.1 0.9 0.1 0.9 0.1 0.8844194607640925 0.1155805392359075 0.9 0.1 0.9379229127218118 0.06207708727818817 0.8955583078122807 0.1044416921877192 0.6407055976199175 0.3592944023800825 0.8553265724518517 0.1446734275481482 0.9516332577262828 0.04836674227371732 0.8976918864435743 0.1023081135564257 0.9451824798847329 0.05481752011526707 0.9190597942922336 0.08094020570776646 0.9391206265208187 0.0608793734791812 0.9 0.1 0.9334310230193994 0.06656897698060056 0.9 0.1 0.9317065535568274 0.06829344644317259 0.9 0.1 0.9017088119726524 0.09829118802734774 0.9 0.1 0.92408724095849 0.07591275904151007 0.9 0.1 0.9018377579112065 0.09816224208879357 0.9 0.1 0.9 0.1 0.9 0.1 0.9 0.1 0.9 0.1 0.9 0.1 0.9 0.1 0.900431103134549 0.09956889686545091 0.9 0.1 0.8144737777773396 0.1855262222226604 0.7194597472650134 0.2805402527349866 0.9037299188118848 0.09627008118811524 0.8982580935381763 0.1017419064618237 0.6409578978439061 0.3590421021560939 0.9048576867913141 0.09514231320868591 0.9621804062244146 0.03781959377558532 0.6061723668511966 0.3938276331488035 0.9 0.1 0.9272773680163252 0.07272263198367473 0.9071987311943275 0.09280126880567259 0.9 0.1 0.9348248137686338 0.06517518623136612 0.9 0.1 0.9419316418624697 0.05806835813753034 0.9 0.1 0.9072309279551083 0.09276907204489167 0.9272773680163252 0.07272263198367473 0.9295224764623621 0.07047752353763784 0.9 0.1 0.9 0.1 0.9 0.1 0.9 0.1 0.9 0.1 0.9 0.1 0.9 0.1 0.9 0.1 0.9 0.1 0.9 0.1 0.9 0.1 0.7758420927104398 0.2241579072895603 0.9 0.1 0.9126125793684724 0.08738742063152762 0.6079105718526229 0.3920894281473771 0.5899345387291799 0.41006546127082 0.7778317083988709 0.2221682916011291 0.9310601310508276 0.06893986894917224 0.9607499452662194 0.0392500547337807 0.7627390270179769 0.2372609729820232 0.9 0.1 0.7186984341289695 0.2813015658710304 0.9 0.1 0.9259230505276067 0.07407694947239341 0.9 0.1 0.9607772161561686 0.03922278384383133 0.624479219917732 0.3755207800822679 0.9358591878198086 0.06414081218019134 0.9 0.1 0.8782706717942879 0.1217293282057122 0.9 0.1 0.9 0.1 0.9 0.1 0.9 0.1 0.9 0.1 0.900632122840251 0.0993678771597489 0.9 0.1 0.9 0.1 0.9 0.1 0.9 0.1 0.9 0.1 0.8520225411432586 0.1479774588567415 0.9 0.1 0.6113465716718938 0.3886534283281063 0.5756953222077558 0.4243046777922443 0.7991093983718193 0.2008906016281808 0.9294607534486926 0.07053924655130747 0.8333316279694477 0.1666683720305523 0.9419588204999124 0.05804117950008766 0.9 0.1 0.6029302873879294 0.3970697126120706 0.9 0.1 0.9 0.1 0.9360248882645236 0.06397511173547644 0.9332295908139521 0.06677040918604792 0.9034355844924966 0.0965644155075034 0.9 0.1 0.8997611419878255 0.1002388580121746 0.9 0.1 0.9052218876037976 0.09477811239620242 0.9 0.1 0.9 0.1 0.9 0.1 0.9 0.1 0.9 0.1 0.9 0.1 0.9 0.1 0.9 0.1 0.9 0.1 0.9 0.1 0.9 0.1 0.9240104110331429 0.07598958896685716 0.9 0.1 0.9010496166217998 0.09895038337820017 0.899528506567872 0.100471493432128 0.8948564356209825 0.1051435643790176 0.8952382705212045 0.1047617294787953 0.9035837465821898 0.0964162534178104 0.900513016021969 0.09948698397803117 0.7679733518722652 0.2320266481277346 0.9 0.1 0.9 0.1 0.9 0.1 0.9002053056096483 0.09979469439035177 0.9 0.1 0.9003078967738357 0.09969210322616444 0.9 0.1 0.9275043309874174 0.07249566901258263 0.9 0.1 0.9028657236765636 0.09713427632343626 0.9 0.1 0.9 0.1 0.9 0.1 0.9 0.1 0.9 0.1 0.9 0.1 0.9 0.1 0.9 0.1 0.9 0.1 0.9 0.1 0.9 0.1 0.6188304561515658 0.3811695438484341 0.9027143281825244 0.09728567181747558 0.9043910637226734 0.0956089362773266 0.919306533391002 0.08069346660899795 0.899697088836802 0.100302911163198 0.8962168724423141 0.1037831275576858 0.9308165064512413 0.06918349354875886 0.9007849501761156 0.09921504982388445 0.9083689004632084 0.09163109953679156 0.9027695016886291 0.09723049831137094 0.9 0.1 0.8976296759430327 0.1023703240569673 0.9013350906325727 0.09866490936742736 0.9031894533684556 0.09681054663154438 0.8953773283380413 0.1046226716619587 0.9003191562146382 0.09968084378536188 0.9 0.1 0.9 0.1 0.9 0.1 0.9 0.1 0.9 0.1 0.9 0.1 0.9 0.1 0.9 0.1 0.9 0.1 0.9 0.1 0.9 0.1 0.9 0.1 0.9 0.1 0.9 0.1 0.947777681040441 0.05222231895955911 0.9206095722948211 0.07939042770517897 0.6017905971833625 0.3982094028166375 0.8797032056624404 0.1202967943375596 0.9211791517605673 0.07882084823943272 0.9159925740413529 0.08400742595864714 0.8780638329811301 0.1219361670188699 0.6907310658585775 0.3092689341414225 0.6995990168886652 0.3004009831113347 0.9150056869883215 0.08499431301167835 0.9112674422370861 0.08873255776291389 0.8852261309290256 0.1147738690709745 0.911019520682142 0.08898047931785802 0.9567953600584665 0.04320463994153342 0.8174376062080367 0.1825623937919632 0.903447761596298 0.09655223840370189 0.9 0.1 0.9318097984871463 0.06819020151285357 0.9 0.1 0.9 0.1 0.9 0.1 0.9 0.1 0.9 0.1 0.9 0.1 0.9 0.1 0.9 0.1 0.9 0.1 0.9 0.1 0.9 0.1 0.9 0.1 0.9516852580846042 0.04831474191539575 0.945111348560456 0.05488865143954389 0.9596312433716179 0.04036875662838219 0.5107193844622238 0.4892806155377761 0.8561055862680054 0.1438944137319946 0.8710768630906679 0.1289231369093321 0.659420191267275 0.3405798087327248 0.9459232453719337 0.05407675462806617 0.9 0.1 0.9603864707667266 0.03961352923327342 0.9333310384907896 0.06666896150921045 0.8838432626776037 0.1161567373223961 0.9149745881784553 0.08502541182154455 0.9303238994042463 0.06967610059575356 0.7270702189842971 0.2729297810157028 0.9358141382021593 0.06418586179784079 0.9 0.1 0.8937456276924356 0.1062543723075645 0.9 0.1 0.9332778587893549 0.06672214121064503 0.9 0.1 0.9 0.1 0.9 0.1 0.9 0.1 0.9 0.1 0.9 0.1 0.9 0.1 0.9 0.1 0.9 0.1 0.9 0.1 0.9384821888119989 0.06151781118800122 0.4569959541069628 0.5430040458930373 0.9 0.1 0.8601217286766477 0.1398782713233523 0.9055421538215289 0.09445784617847106 0.7018006531661345 0.2981993468338656 0.9224681331108487 0.07753186688915117 0.9725079385159006 0.02749206148409949 0.7439770962458265 0.2560229037541734 0.9109701438701208 0.08902985612987928 0.9 0.1 0.8825937585214402 0.11740624147856 0.9053015935458115 0.09469840645418849 0.9120530916311216 0.08794690836887824 0.8952070499747636 0.1047929500252364 0.9069157435915428 0.09308425640845724 0.9 0.1 0.9 0.1 0.917407119756279 0.08259288024372109 0.9333207820027659 0.066679217997234 0.9 0.1 0.9 0.1 0.9 0.1 0.9 0.1 0.9 0.1 0.9 0.1 0.9 0.1 0.9 0.1 0.9 0.1 0.9 0.1 0.9034353764123167 0.09656462358768325 0.9351437662027017 0.06485623379729828 0.9 0.1 0.8976042895723397 0.1023957104276604 0.8887390206680978 0.1112609793319021 0.8763065396152859 0.1236934603847142 0.897784063749857 0.1022159362501431 0.9001945353084314 0.09980546469156862 0.9307343473541368 0.06926565264586312 0.9022530651839035 0.09774693481609656 0.9 0.1 0.9159379100851229 0.08406208991487696 0.9003449274279479 0.09965507257205201 0.9008343919948559 0.09916560800514404 0.8699888347144975 0.1300111652855025 0.9016902018253059 0.09830979817469422 0.9 0.1 0.9 0.1 0.9 0.1 0.9 0.1 0.9 0.1 0.9 0.1 0.9 0.1 0.9 0.1 0.9 0.1 0.9 0.1 0.9 0.1 0.9 0.1 0.9 0.1 0.9 0.1 0.8685851038271912 0.1314148961728087 0.9 0.1 0.8935181932437185 0.1064818067562815 0.9 0.1 0.8991085672449775 0.1008914327550225 0.9 0.1 0.8894584975743521 0.1105415024256478 0.9 0.1 0.888645665690845 0.111354334309155 0.9 0.1 0.9 0.1 0.9090671671362005 0.09093283286379958 0.9 0.1 0.8772949405563935 0.1227050594436066 0.9 0.1 0.9 0.1 0.9 0.1 0.9 0.1 0.9 0.1 0.9 0.1 0.9 0.1 0.9 0.1 0.9 0.1 0.9 0.1 0.9 0.1 0.9 0.1 0.9 0.1 0.9 0.1 0.9 0.1 0.9 0.1 0.89071751886052 0.1092824811394802 0.9 0.1 0.8884114741441905 0.1115885258558094 0.9 0.1 0.8962711910408457 0.1037288089591542 0.9 0.1 0.9248147860847654 0.07518521391523453 0.9 0.1 0.8844247622264008 0.1155752377735992 0.9 0.1 0.9 0.1 0.9033102571148802 0.09668974288511985 0.9 0.1 0.8551263999875183 0.1448736000124817 0.9 0.1 0.9 0.1 0.9 0.1 0.9 0.1 0.9 0.1 0.9 0.1 0.9 0.1 0.9 0.1 0.9 0.1 0.9 0.1 0.9 0.1 0.9 0.1 0.9 0.1 0.9 0.1 0.9 0.1 0.9 0.1 0.8685851038271912 0.1314148961728087 0.9 0.1 0.8734835578643957 0.1265164421356044 0.9 0.1 0.8968145948944861 0.1031854051055139 0.9 0.1 0.8894584975743521 0.1105415024256478 0.9 0.1 0.888645665690845 0.111354334309155 0.9 0.1 0.9 0.1 0.9090671671362005 0.09093283286379958 0.9 0.1 0.8813734379646121 0.1186265620353879 0.9 0.1 0.9 0.1 0.9 0.1 0.9 0.1 0.9 0.1 0.9 0.1 0.9 0.1 0.9 0.1 0.9 0.1 0.9 0.1 0.9 0.1 0.9 0.1 0.9 0.1 0.9 0.1 0.9 0.1 0.9 0.1 0.8638007446701369 0.136199255329863 0.9 0.1 0.8910795558701131 0.1089204441298868 0.9 0.1 0.8939177771058224 0.1060822228941777 0.9 0.1 0.888731277695834 0.1112687223041659 0.9 0.1 0.8743235139658451 0.1256764860341549 0.9 0.1 0.9 0.1 0.9100450696438805 0.08995493035611944 0.9 0.1 0.8672210206257185 0.1327789793742814 0.9 0.1 0.9 0.1 0.9 0.1 0.9 0.1 0.9 0.1 0.9 0.1 0.9 0.1 0.9 0.1 0.9 0.1 0.9 0.1 0.9 0.1 0.9 0.1 0.9 0.1 0.9 0.1 0.9 0.1 0.9 0.1 0.8925187874333286 0.1074812125666713 0.9 0.1 0.8935181932437185 0.1064818067562815 0.9 0.1 0.8991085672449775 0.1008914327550225 0.9 0.1 0.8971744763036571 0.102825523696343 0.9 0.1 0.888645665690845 0.111354334309155 0.9 0.1 0.9 0.1 0.9027212588767273 0.09727874112327271 0.9 0.1 0.8772949405563935 0.1227050594436066 0.9 0.1 0.9 0.1 0.9 0.1 0.9 0.1 0.9 0.1 0.9 0.1 0.9 0.1 0.9 0.1 0.9 0.1 0.9 0.1 0.9 0.1 0.9 0.1 0.9 0.1 0.9 0.1 0.9 0.1 0.9 0.1 0.9004519473453214 0.09954805265467856 0.8811021649235111 0.1188978350764889 0.9 0.1 0.9 0.1 0.9 0.1 0.8990390105824724 0.1009609894175275 0.9 0.1 0.9 0.1 0.9 0.1 0.8993729310740763 0.1006270689259236 0.9 0.1 0.9 0.1 0.9063929390607354 0.09360706093926464 0.9 0.1 0.8939625305770255 0.1060374694229746 0.9009860585590104 0.09901394144098948 0.9 0.1 0.9276558350631159 0.0723441649368841 0.9 0.1 0.9 0.1 0.9 0.1 0.9 0.1 0.9 0.1 0.9 0.1 0.9 0.1 0.9 0.1 0.9 0.1 0.9 0.1 0.9 0.1 0.9 0.1 0.9019131734255459 0.09808682657445407 0.8847950575359329 0.1152049424640672 0.9 0.1 0.9 0.1 0.9 0.1 0.8990390105824724 0.1009609894175275 0.9 0.1 0.9 0.1 0.9 0.1 0.8942765512330327 0.1057234487669672 0.9 0.1 0.9333303957130832 0.06666960428691672 0.9064163765810329 0.09358362341896709 0.9 0.1 0.8939625305770255 0.1060374694229746 0.9009860585590104 0.09901394144098948 0.9 0.1 0.8919929892021341 0.1080070107978661 0.9257214447596633 0.07427855524033666 0.9 0.1 0.9 0.1 0.9 0.1 0.9 0.1 0.9 0.1 0.9 0.1 0.9 0.1 0.9 0.1 0.9 0.1 0.9 0.1 0.9 0.1 0.9007988356178503 0.09920116438214961 0.8633479987724748 0.1366520012275251 0.9 0.1 0.9 0.1 0.8514198373102567 0.1485801626897433 0.9237414466553835 0.07625855334461665 0.9 0.1 0.9 0.1 0.9 0.1 0.8829525789021152 0.1170474210978847 0.9 0.1 0.933025894355527 0.0669741056444729 0.9144106270647671 0.08558937293523282 0.9332257424997136 0.06677425750028639 0.4117992174449984 0.5882007825550016 0.9414186890961357 0.0585813109038642 0.9 0.1 0.8918732095465309 0.1081267904534691 0.8916418126585864 0.1083581873414136 0.4189673704919914 0.5810326295080085 0.9 0.1 0.9 0.1 0.9 0.1 0.9 0.1 0.8986118309852723 0.1013881690147276 0.9 0.1 0.9 0.1 0.9 0.1 0.9 0.1 0.9 0.1 0.9092230245759148 0.0907769754240854 0.6743756774574898 0.3256243225425102 0.9068461598370039 0.09315384016299613 0.9 0.1 0.9073427068306257 0.09265729316937429 0.888489814169968 0.1115101858300319 0.9094833541348092 0.0905166458651908 0.9 0.1 0.9145991366422852 0.08540086335771489 0.8873143476938987 0.1126856523061012 0.9324034588972694 0.06759654110273064 0.9 0.1 0.9149086389439131 0.08509136105608707 0.9 0.1 0.774335295954758 0.2256647040452419 0.9101918577991817 0.08980814220081847 0.9 0.1 0.8999062195263156 0.1000937804736843 0.9 0.1 0.9325863516525362 0.06741364834746369 0.9333316607282331 0.0666683392717668 0.9 0.1 0.9 0.1 0.9 0.1 0.9 0.1 0.9 0.1 0.9 0.1 0.9 0.1 0.9 0.1 0.9 0.1 0.9004519473453214 0.09954805265467856 0.8811021649235111 0.1188978350764889 0.9 0.1 0.9 0.1 0.9 0.1 0.8940000901655434 0.1059999098344567 0.9 0.1 0.9 0.1 0.9 0.1 0.8993729310740763 0.1006270689259236 0.9 0.1 0.9 0.1 0.901901506366905 0.09809849363309481 0.9 0.1 0.8510566526370423 0.1489433473629577 0.9057177574356865 0.09428224256431343 0.8674440055461879 0.132555994453812 0.8880721113166956 0.1119278886833043 0.9 0.1 0.9 0.1 0.9 0.1 0.9 0.1 0.9 0.1 0.9 0.1 0.9 0.1 0.9 0.1 0.9 0.1 0.9 0.1 0.9 0.1 0.9 0.1 0.9089242993384163 0.0910757006615837 0.8916048273488486 0.1083951726511514 0.8791882984221612 0.1208117015778388 0.9246071336757704 0.07539286632422955 0.9044068403721049 0.09559315962789491 0.7157189750828109 0.2842810249171891 0.8816584419060512 0.1183415580939488 0.9449180493969802 0.05508195060301989 0.8787702121457588 0.1212297878542412 0.8991192016044046 0.1008807983955955 0.9097326371652776 0.09026736283472236 0.8578732681712401 0.1421267318287598 0.8853345813918577 0.1146654186081422 0.9329760737318958 0.06702392626810422 0.9 0.1 0.9346435204323432 0.06535647956765665 0.93213119815645 0.06786880184355006 0.9017168238295985 0.09828317617040158 0.8971061883014687 0.1028938116985313 0.5925812585342992 0.4074187414657006 0.9 0.1 0.90000258877925 0.09999741122074994 0.9 0.1 0.9003199909601246 0.09968000903987528 0.9 0.1 0.9000069195850025 0.09999308041499748 0.9 0.1 0.9000089795415378 0.09999102045846213 0.9 0.1 0.9000021452333388 0.09999785476666116 0.9584801472396161 0.041519852760384 0.642664356183824 0.3573356438161761 0.8977013181669078 0.1022986818330923 0.9404478645137558 0.0595521354862441 0.6193873114103803 0.3806126885896197 0.7726189138042825 0.2273810861957176 0.7797588123392427 0.2202411876607573 0.5542991426563222 0.4457008573436778 0.8506624608218483 0.1493375391781517 0.9502112077712254 0.04978879222877473 0.6018937924310306 0.3981062075689693 0.9436052502921535 0.05639474970784637 0.8515600508982053 0.1484399491017945 0.9216899658501496 0.07831003414985044 0.9599688023316207 0.0400311976683791 0.9314801800084587 0.06851981999154132 0.8996031969661559 0.1003968030338442 0.9035461511327102 0.0964538488672898 0.9295012184700195 0.07049878152998042 0.8988335474228115 0.1011664525771884 0.9 0.1 0.9000142724446613 0.09998572755533877 0.9 0.1 0.9008376276916199 0.09916237230838021 0.9 0.1 0.9000167173064793 0.09998328269352066 0.9 0.1 0.9000327271778529 0.09996727282214714 0.9 0.1 0.9000059929408216 0.09999400705917845 0.9608977881609829 0.03910221183901701 0.9426598303225394 0.05734016967746063 0.5539328828154375 0.4460671171845625 0.7739225299787619 0.226077470021238 0.5372564285094514 0.4627435714905485 0.3873735682197206 0.6126264317802792 0.8925536270367651 0.1074463729632349 0.6442620323019554 0.3557379676980445 0.773821024337725 0.2261789756622748 0.8819812223983169 0.1180187776016832 0.9579005751866414 0.04209942481335874 0.923726338760569 0.07627366123943108 0.8696088378294002 0.1303911621705998 0.9403742190128228 0.05962578098717721 0.9196941636660514 0.08030583633394879 0.9240346972858915 0.07596530271410856 0.905095736155104 0.09490426384489599 0.9704672003029433 0.02953279969705671 0.9246535920240371 0.07534640797596297 0.9505439665902692 0.04945603340973083 0.9 0.1 0.9000176266650913 0.09998237333490875 0.9 0.1 0.9005896061576838 0.09941039384231624 0.90200532414679 0.09799467585320991 0.9000219265987707 0.09997807340122926 0.9 0.1 0.9000403730145903 0.09995962698540972 0.9 0.1 0.9000062113343499 0.0999937886656502 0.9223999206992414 0.07760007930075864 0.9060590974830797 0.09394090251692021 0.9110541535915587 0.08894584640844132 0.8568382738802341 0.1431617261197659 0.9504282462420491 0.04957175375795098 0.7183408981884165 0.2816591018115835 0.4998244818441109 0.5001755181558891 0.9248222777734184 0.07517772222658166 0.7915969155953998 0.2084030844046002 0.4933736761436462 0.5066263238563538 0.9333055087739512 0.06669449122604876 0.860102541077266 0.1398974589227341 0.9194985624938771 0.08050143750612294 0.9127331262283763 0.0872668737716237 0.9 0.1 0.9732821443157562 0.02671785568424372 0.9166591066502103 0.08334089334978978 0.5997092455557093 0.4002907544442906 0.7162409789388303 0.2837590210611697 0.9382138912392181 0.06178610876078187 0.9 0.1 0.900007515838904 0.09999248416109596 0.9 0.1 0.9006169637046818 0.09938303629531819 0.9 0.1 0.9000282785255647 0.09997172147443527 0.9 0.1 0.9000311857484775 0.0999688142515224 0.9 0.1 0.9000095425115495 0.09999045748845062 0.9043620255963957 0.09563797440360434 0.9147095745093194 0.08529042549068051 0.8935848098816839 0.1064151901183162 0.9304381666607994 0.0695618333392006 0.9030228991327871 0.09697710086721277 0.9234641704298252 0.07653582957017481 0.8906759899827238 0.1093240100172762 0.8807337285358774 0.1192662714641226 0.8948460715247236 0.1051539284752764 0.7293235633850332 0.2706764366149667 0.9 0.1 0.8833500315362068 0.1166499684637931 0.9311605409657989 0.06883945903420111 0.9007857221625125 0.09921427783748749 0.9 0.1 0.9339993085116594 0.06600069148834063 0.9 0.1 0.9009420154521888 0.09905798454781135 0.89893613905014 0.1010638609498599 0.8984175289191204 0.1015824710808797 0.9 0.1 0.9000012110351683 0.09999878896483175 0.9 0.1 0.900110507730411 0.0998894922695889 0.9 0.1 0.9000046860946902 0.09999531390530972 0.9 0.1 0.9000048915786419 0.0999951084213581 0.9 0.1 0.9000008014010152 0.09999919859898471 0.9 0.1 0.9 0.1 0.9 0.1 0.9 0.1 0.9 0.1 0.9 0.1 0.9 0.1 0.9 0.1 0.9 0.1 0.9 0.1 0.9 0.1 0.9 0.1 0.9 0.1 0.9 0.1 0.9030975387931005 0.09690246120689944 0.9 0.1 0.9 0.1 0.9 0.1 0.9 0.1 0.9 0.1 0.9 0.1 0.9 0.1 0.9 0.1 0.9 0.1 0.9 0.1 0.9 0.1 0.9 0.1 0.9 0.1 0.9 0.1 0.9 0.1 0.9 0.1 0.9 0.1 0.9 0.1 0.9 0.1 0.9 0.1 0.9 0.1 0.9 0.1 0.9 0.1 0.9 0.1 0.9 0.1 0.9 0.1 0.9 0.1 0.9 0.1 0.9 0.1 0.9115330681573727 0.08846693184262727 0.9 0.1 0.9 0.1 0.9 0.1 0.9 0.1 0.9 0.1 0.9 0.1 0.9 0.1 0.9 0.1 0.9 0.1 0.9 0.1 0.9 0.1 0.9 0.1 0.9 0.1 0.9 0.1 0.9 0.1 0.9 0.1 0.9 0.1 0.9 0.1 0.9 0.1 0.9 0.1 0.9 0.1 0.9 0.1 0.9 0.1 0.9 0.1 0.9 0.1 0.9 0.1 0.9 0.1 0.9 0.1 0.9 0.1 0.9030975387931005 0.09690246120689944 0.9 0.1 0.9 0.1 0.9 0.1 0.9 0.1 0.9 0.1 0.9 0.1 0.9 0.1 0.9 0.1 0.9 0.1 0.9 0.1 0.9 0.1 0.9 0.1 0.9 0.1 0.9 0.1 0.9 0.1 0.9 0.1 0.9 0.1 0.9 0.1 0.9 0.1 0.9 0.1 0.9 0.1 0.9 0.1 0.9 0.1 0.9 0.1 0.9 0.1 0.9 0.1 0.9 0.1 0.9 0.1 0.9 0.1 0.9030975387931005 0.09690246120689944 0.9 0.1 0.9 0.1 0.9 0.1 0.9151295043343743 0.08487049566562556 0.9 0.1 0.9 0.1 0.9 0.1 0.9 0.1 0.9 0.1 0.9 0.1 0.9 0.1 0.9 0.1 0.9 0.1 0.9 0.1 0.9 0.1 0.9 0.1 0.9 0.1 0.9 0.1 0.9 0.1 0.9 0.1 0.9 0.1 0.9 0.1 0.9 0.1 0.9 0.1 0.9 0.1 0.9 0.1 0.9 0.1 0.9 0.1 0.9 0.1 0.9030975387931005 0.09690246120689944 0.9 0.1 0.9 0.1 0.9 0.1 0.9 0.1 0.9 0.1 0.9 0.1 0.9 0.1 0.9 0.1 0.9 0.1 0.9 0.1 0.9 0.1 0.9 0.1 0.9 0.1 0.9 0.1 0.9 0.1 0.8952840379593383 0.1047159620406615 0.9 0.1 0.8882487589895595 0.1117512410104404 0.9 0.1 0.8912185334115591 0.1087814665884409 0.9 0.1 0.8989177380256027 0.1010822619743974 0.9 0.1 0.8984994997044481 0.101500500295552 0.9 0.1 0.9 0.1 0.9 0.1 0.9 0.1 0.9 0.1 0.9 0.1 0.9 0.1 0.9 0.1 0.9 0.1 0.9039241483816191 0.09607585161838096 0.9 0.1 0.9 0.1 0.9 0.1 0.9 0.1 0.9 0.1 0.9 0.1 0.9 0.1 0.9 0.1 0.9 0.1 0.9 0.1 0.9 0.1 0.8952840379593383 0.1047159620406615 0.9 0.1 0.8958540258688091 0.1041459741311908 0.9 0.1 0.893933437728723 0.1060665622712769 0.9 0.1 0.8989177380256027 0.1010822619743974 0.9 0.1 0.8945620648633279 0.1054379351366721 0.9 0.1 0.9 0.1 0.9 0.1 0.9 0.1 0.9 0.1 0.9 0.1 0.9 0.1 0.9 0.1 0.9 0.1 0.912643766432834 0.08735623356716612 0.9 0.1 0.9 0.1 0.9 0.1 0.9 0.1 0.9 0.1 0.9 0.1 0.9 0.1 0.9 0.1 0.9 0.1 0.9 0.1 0.9 0.1 0.8986929490188881 0.101307050981112 0.9 0.1 0.8958540258688091 0.1041459741311908 0.9 0.1 0.8990307488845198 0.1009692511154802 0.9 0.1 0.8931921260666645 0.1068078739333354 0.9 0.1 0.8945620648633279 0.1054379351366721 0.9 0.1 0.9 0.1 0.9 0.1 0.9 0.1 0.9 0.1 0.9 0.1 0.9 0.1 0.9 0.1 0.9 0.1 0.912643766432834 0.08735623356716612 0.9 0.1 0.9 0.1 0.9 0.1 0.9 0.1 0.9 0.1 0.9 0.1 0.9 0.1 0.9 0.1 0.9 0.1 0.9 0.1 0.9 0.1 0.8952840379593383 0.1047159620406615 0.9 0.1 0.8993292819399334 0.1006707180600664 0.9 0.1 0.8965356494891805 0.1034643505108195 0.9 0.1 0.8961221631124355 0.1038778368875645 0.9 0.1 0.8984994997044481 0.101500500295552 0.9 0.1 0.9 0.1 0.9 0.1 0.9 0.1 0.9 0.1 0.9 0.1 0.9 0.1 0.9 0.1 0.9 0.1 0.9039241483816191 0.09607585161838096 0.9 0.1 0.9 0.1 0.9 0.1 0.9 0.1 0.9 0.1 0.9 0.1 0.9 0.1 0.9 0.1 0.9 0.1 0.9 0.1 0.9 0.1 0.8986929490188881 0.101307050981112 0.9 0.1 0.8993292819399334 0.1006707180600664 0.9 0.1 0.8990307488845198 0.1009692511154802 0.9 0.1 0.8989177380256027 0.1010822619743974 0.9 0.1 0.8984994997044481 0.101500500295552 0.9 0.1 0.9 0.1 0.9 0.1 0.9 0.1 0.9 0.1 0.9 0.1 0.9 0.1 0.9 0.1 0.9 0.1 0.9039241483816191 0.09607585161838096 0.9 0.1 0.9 0.1 0.9 0.1 0.9 0.1 0.9 0.1 0.9 0.1 0.9 0.1 0.9 0.1 0.9 0.1 0.9 0.1 0.9 0.1 0.9 0.1 0.7264797460897 0.2735202539103 0.9 0.1 0.8291515457925696 0.1708484542074304 0.9 0.1 0.8515172174542256 0.1484827825457745 0.8861299016638793 0.1138700983361207 0.8819461984880378 0.1180538015119622 0.9 0.1 0.8864172530372284 0.1135827469627715 0.9 0.1 0.9 0.1 0.9 0.1 0.9 0.1 0.9 0.1 0.9 0.1 0.9 0.1 0.9 0.1 0.9 0.1 0.9 0.1 0.9 0.1 0.9 0.1 0.9 0.1 0.9 0.1 0.9 0.1 0.9 0.1 0.9 0.1 0.9 0.1 0.9 0.1 0.9 0.1 0.9 0.1 0.9 0.1 0.9 0.1 0.9 0.1 0.9 0.1 0.9273289187497742 0.07267108125022588 0.8404849636885917 0.1595150363114083 0.9 0.1 0.9 0.1 0.9 0.1 0.9 0.1 0.9 0.1 0.9 0.1 0.9 0.1 0.9 0.1 0.9 0.1 0.9 0.1 0.9 0.1 0.9 0.1 0.9 0.1 0.9 0.1 0.9 0.1 0.9 0.1 0.9 0.1 0.9 0.1 0.9 0.1 0.9 0.1 0.9 0.1 0.9 0.1 0.9 0.1 0.9 0.1 0.9 0.1 0.9 0.1 0.9 0.1 0.9 0.1 0.9 0.1 0.8879913869731731 0.1120086130268268 0.9 0.1 0.9 0.1 0.9 0.1 0.9 0.1 0.9 0.1 0.9 0.1 0.9 0.1 0.9 0.1 0.9 0.1 0.9 0.1 0.9 0.1 0.9 0.1 0.9 0.1 0.9 0.1 0.9 0.1 0.9 0.1 0.9 0.1 0.9 0.1 0.9 0.1 0.9 0.1 0.9 0.1 0.9 0.1 0.9 0.1 0.9 0.1 0.9 0.1 0.9 0.1 0.9 0.1 0.9 0.1 0.9 0.1 0.8879913869731731 0.1120086130268268 0.9 0.1 0.9 0.1 0.6858184384913841 0.3141815615086157 0.9 0.1 0.9 0.1 0.9 0.1 0.9 0.1 0.9 0.1 0.9 0.1 0.9 0.1 0.9 0.1 0.9 0.1 0.9 0.1 0.9 0.1 0.9 0.1 0.9 0.1 0.9 0.1 0.9 0.1 0.9 0.1 0.9 0.1 0.9 0.1 0.9 0.1 0.9 0.1 0.9 0.1 0.9 0.1 0.9 0.1 0.9 0.1 0.9 0.1 0.9 0.1 0.8879913869731731 0.1120086130268268 0.9 0.1 0.9 0.1 0.9 0.1 0.9 0.1 0.9 0.1 0.9 0.1 0.9 0.1 0.9 0.1 0.9 0.1 0.9 0.1 0.9 0.1 0.9 0.1 0.9 0.1 0.9 0.1 0.9 0.1 0.9 0.1 0.9 0.1 0.9 0.1 0.9 0.1 0.9 0.1 0.9 0.1 0.9 0.1 0.9 0.1 0.9 0.1 0.9 0.1 0.9 0.1 0.9 0.1 0.9 0.1 0.9 0.1 0.9 0.1 0.9 0.1 0.9 0.1 0.9 0.1 0.9 0.1 0.9 0.1 0.9 0.1 0.9 0.1 0.9 0.1 0.9 0.1 0.9 0.1 0.9 0.1 0.9 0.1 0.9 0.1 0.9 0.1 0.9 0.1 0.9 0.1 0.9 0.1 0.9 0.1 0.9 0.1 0.9 0.1 0.9 0.1 0.9 0.1 0.9 0.1 0.9 0.1 0.9 0.1 0.9 0.1 0.9 0.1 0.9 0.1 0.9 0.1 0.9 0.1 0.9 0.1 0.9 0.1 0.9 0.1 0.9 0.1 0.9 0.1 0.9 0.1 0.9 0.1 0.9 0.1 0.9 0.1 0.8857197027496295 0.1142802972503705 0.9 0.1 0.9 0.1 0.9 0.1 0.9 0.1 0.9 0.1 0.9 0.1 0.9 0.1 0.9 0.1 0.9 0.1 0.9 0.1 0.9 0.1 0.9 0.1 0.9 0.1 0.9 0.1 0.9 0.1 0.9 0.1 0.9 0.1 0.9 0.1 0.9 0.1 0.9 0.1 0.9 0.1 0.9 0.1 0.9 0.1 0.9 0.1 0.9 0.1 0.9 0.1 0.9 0.1 0.9 0.1 0.9 0.1 0.9 0.1 0.9 0.1 0.9 0.1 0.9 0.1 0.9 0.1 0.9 0.1 0.9 0.1 0.9 0.1 0.9 0.1 0.9 0.1 0.9 0.1 0.9 0.1 0.9 0.1 0.9 0.1 0.9 0.1 0.9 0.1 0.9 0.1 0.9 0.1 0.9 0.1 0.9 0.1 0.9 0.1 0.9 0.1 0.9 0.1 0.9 0.1 0.9 0.1 0.9 0.1 0.9 0.1 0.9 0.1 0.9 0.1 0.9 0.1 0.9 0.1 0.9 0.1 0.9 0.1 0.9 0.1 0.9 0.1 0.9 0.1 0.9 0.1 0.9 0.1 0.9 0.1 0.9 0.1 0.9 0.1 0.9 0.1 0.9 0.1 0.9 0.1 0.9 0.1 0.9 0.1 0.9 0.1 0.9 0.1 0.9 0.1 0.9 0.1 0.9 0.1 0.9 0.1 0.9 0.1 0.9 0.1 0.9 0.1 0.9 0.1 0.9 0.1 0.9 0.1 0.9 0.1 0.9 0.1 0.9 0.1 0.9 0.1 0.9 0.1 0.9 0.1 0.9 0.1 0.9 0.1 0.9 0.1 0.9 0.1 0.9 0.1 0.9 0.1 0.9 0.1 0.9 0.1 0.9 0.1 0.9 0.1 0.9084806417791563 0.09151935822084364 0.9 0.1 0.9044561089542484 0.09554389104575156 0.9127346084914385 0.08726539150856147 0.9092225108995545 0.09077748910044545 0.9 0.1 0.9106634547114525 0.08933654528854745 0.8728160778747855 0.1271839221252145 0.9240403532523906 0.07595964674760941 0.9 0.1 0.9 0.1 0.9 0.1 0.9 0.1 0.9034089798128546 0.09659102018714542 0.9039130970371434 0.09608690296285666 0.9 0.1 0.9 0.1 0.9 0.1 0.9 0.1 0.9 0.1 0.9 0.1 0.9 0.1 0.9 0.1 0.9002017579943907 0.09979824200560936 0.9 0.1 0.9 0.1 0.9 0.1 0.9 0.1 0.9 0.1 0.9 0.1 0.9 0.1 0.9333013668697452 0.0666986331302547 0.9 0.1 0.9055273766423784 0.09447262335762174 0.9128585850428039 0.0871414149571961 0.9 0.1 0.8972828486609548 0.1027171513390453 0.8623211319715506 0.1376788680284494 0.6679709970512963 0.3320290029487038 0.9 0.1 0.9 0.1 0.9331762299537358 0.06682377004626411 0.9 0.1 0.9014031134830168 0.09859688651698316 0.934418833226877 0.06558116677312313 0.9 0.1 0.9 0.1 0.9 0.1 0.917407119756279 0.08259288024372109 0.9332911608332422 0.06670883916675772 0.9 0.1 0.9 0.1 0.9 0.1 0.9000816225039862 0.09991837749601382 0.9 0.1 0.9 0.1 0.9 0.1 0.9 0.1 0.9 0.1 0.9 0.1 0.6002176524524107 0.3997823475475893 0.9 0.1 0.8964495421160017 0.1035504578839982 0.7364939769305222 0.2635060230694777 0.9160461128340188 0.08395388716598104 0.7139761880695499 0.2860238119304502 0.6731470820955809 0.3268529179044189 0.7562837595968683 0.2437162404031318 0.9386097497618018 0.06139025023819827 0.9 0.1 0.9 0.1 0.9 0.1 0.9 0.1 0.9050069097738417 0.09499309022615826 0.913338971877474 0.08666102812252591 0.9 0.1 0.9 0.1 0.9 0.1 0.9 0.1 0.9 0.1 0.9 0.1 0.9 0.1 0.9 0.1 0.9003005120903519 0.09969948790964821 0.9 0.1 0.9 0.1 0.9 0.1 0.9 0.1 0.9 0.1 0.9 0.1 0.9 0.1 0.9 0.1 0.9231994254255739 0.07680057457442607 0.6753093943924057 0.3246906056075944 0.9075744245596047 0.09242557544039522 0.9 0.1 0.591403646336501 0.4085963536634989 0.9442367764203549 0.05576322357964516 0.9062676446085048 0.0937323553914951 0.9 0.1 0.9 0.1 0.9 0.1 0.9322397323855945 0.06776026761440536 0.9377641638906703 0.06223583610932963 0.9061966328479411 0.09380336715205909 0.9 0.1 0.9 0.1 0.9306820834491021 0.06931791655089788 0.9 0.1 0.9 0.1 0.9 0.1 0.9 0.1 0.9 0.1 0.9006397086571536 0.09936029134284644 0.9 0.1 0.9 0.1 0.9 0.1 0.9 0.1 0.9 0.1 0.9 0.1 0.9 0.1 0.9 0.1 0.9 0.1 0.9015743943761187 0.0984256056238812 0.9007024816953069 0.09929751830469317 0.9 0.1 0.8994945636890034 0.1005054363109967 0.8943841074706776 0.1056158925293224 0.9034535555042744 0.09654644449572558 0.9 0.1 0.9 0.1 0.9315290610741367 0.06847093892586331 0.9 0.1 0.9003888105702124 0.09961118942978765 0.9005675676901741 0.09943243230982594 0.9 0.1 0.9 0.1 0.9 0.1 0.9 0.1 0.9 0.1 0.9 0.1 0.9 0.1 0.9 0.1 0.9000224249474148 0.09997757505258528 0.9 0.1 0.9 0.1 0.9 0.1 0.9 0.1 0.9 0.1 0.9 0.1 0.9009261347196225 0.09907386528037752 0.9 0.1 0.8947640909382788 0.1052359090617214 0.9006957695974654 0.0993042304025345 0.9007461830357928 0.09925381696420722 0.8964815786286997 0.1035184213713004 0.9022009600731183 0.09779903992688156 0.8998182730151625 0.1001817269848375 0.902824356894378 0.09717564310562196 0.9 0.1 0.9 0.1 0.9 0.1 0.9 0.1 0.9 0.1 0.9 0.1 0.9 0.1 0.9 0.1 0.9 0.1 0.9 0.1 0.9333275014364295 0.06667249856357055 0.9 0.1 0.9 0.1 0.9 0.1 0.9 0.1 0.9 0.1 0.9 0.1 0.9 0.1 0.9 0.1 0.9 0.1 0.9 0.1 0.9484392213812706 0.05156077861872945 0.9495133599239369 0.0504866400760632 0.8281264588029802 0.1718735411970198 0.8126832355162108 0.1873167644837893 0.9352688665754485 0.06473113342455154 0.5355442190815365 0.4644557809184634 0.9085182925742192 0.09148170742578086 0.899237140288716 0.100762859711284 0.9102161322161777 0.0897838677838224 0.9274396480351645 0.07256035196483546 0.9 0.1 0.8668718364980157 0.1331281635019843 0.9332780934480792 0.06672190655192069 0.9146780579118229 0.08532194208817717 0.9 0.1 0.8827266827341318 0.1172733172658681 0.9 0.1 0.8805789457008804 0.1194210542991198 0.9 0.1 0.9143580282907957 0.08564197170920421 0.9 0.1 0.9 0.1 0.9 0.1 0.9 0.1 0.9 0.1 0.9 0.1 0.9 0.1 0.9 0.1 0.9 0.1 0.9 0.1 0.9303178684762659 0.06968213152373413 0.6999668095817962 0.3000331904182038 0.6802442684206954 0.3197557315793045 0.9603221380240182 0.03967786197598185 0.9118594077665853 0.08814059223341487 0.7004043372996052 0.2995956627003948 0.8904293488537658 0.1095706511462342 0.9361872057613014 0.06381279423869872 0.9406696910649039 0.059330308935096 0.9330378202469644 0.06696217975303564 0.9333310956410734 0.0666689043589265 0.9076881381905247 0.09231186180947519 0.9 0.1 0.9378734240534355 0.06212657594656459 0.9 0.1 0.9066307032250129 0.09336929677498715 0.8857197027496295 0.1142802972503705 0.9179506912088381 0.08204930879116186 0.9 0.1 0.9087464605411349 0.09125353945886519 0.9 0.1 0.9 0.1 0.9 0.1 0.9 0.1 0.9 0.1 0.9 0.1 0.9 0.1 0.900548628252379 0.09945137174762095 0.9 0.1 0.9 0.1 0.9057178516056363 0.09428214839436369 0.9485708875355283 0.05142911246447178 0.87492033645293 0.1250796635470699 0.902819063894729 0.09718093610527105 0.9151572843647303 0.08484271563526981 0.9033820864796998 0.09661791352030027 0.914907402260467 0.08509259773953291 0.928250977453982 0.07174902254601814 0.9376156097678171 0.06238439023218287 0.9 0.1 0.9 0.1 0.9327727621326171 0.06722723786738294 0.9 0.1 0.9468102292635201 0.05318977073647998 0.917407119756279 0.08259288024372109 0.9332900685297278 0.06670993147027207 0.9 0.1 0.9333055087739512 0.06669449122604876 0.9322757635609541 0.06772423643904578 0.9 0.1 0.9 0.1 0.9 0.1 0.9 0.1 0.9 0.1 0.9 0.1 0.9 0.1 0.9 0.1 0.9 0.1 0.9 0.1 0.9 0.1 0.9013818989636126 0.09861810103638727 0.9 0.1 0.8987040037541904 0.1012959962458097 0.9001788675701504 0.0998211324298495 0.9038990253202545 0.09610097467974556 0.757606202001527 0.242393797998473 0.9005511242582851 0.0994488757417149 0.8999553992563443 0.1000446007436558 0.9022979153861618 0.09770208461383825 0.9 0.1 0.9 0.1 0.9 0.1 0.9 0.1 0.9 0.1 0.9 0.1 0.9 0.1 0.9 0.1 0.9 0.1 0.9 0.1 0.9 0.1 0.9 0.1 0.9 0.1 0.9 0.1 0.9 0.1 0.9 0.1 0.9 0.1 0.9 0.1 0.9 0.1 0.9 0.1 0.9 0.1 0.9 0.1 0.9 0.1 0.9 0.1 0.9 0.1 0.9 0.1 0.9 0.1 0.9 0.1 0.9 0.1 0.9 0.1 0.9 0.1 0.9 0.1 0.9 0.1 0.9 0.1 0.9 0.1 0.9 0.1 0.9 0.1 0.9 0.1 0.9 0.1 0.9 0.1 0.9 0.1 0.9 0.1 0.9 0.1 0.9 0.1 0.9 0.1 0.9 0.1 0.9 0.1 0.9 0.1 0.9 0.1 0.9 0.1 0.9 0.1 0.9 0.1 0.9 0.1 0.9 0.1 0.9 0.1 0.9 0.1 0.9 0.1 0.9 0.1 0.9 0.1 0.9 0.1 0.9 0.1 0.9 0.1 0.9018312530004349 0.09816874699956521 0.9 0.1 0.9053375628296844 0.09466243717031561 0.9 0.1 0.9046300112018457 0.09536998879815425 0.9 0.1 0.9055933837069778 0.09440661629302216 0.9 0.1 0.9026673490848411 0.09733265091515886 0.9 0.1 0.9 0.1 0.9 0.1 0.9 0.1 0.9 0.1 0.9 0.1 0.9 0.1 0.9 0.1 0.9 0.1 0.9 0.1 0.9 0.1 0.9 0.1 0.9 0.1 0.9 0.1 0.9 0.1 0.9 0.1 0.9 0.1 0.9 0.1 0.9 0.1 0.9 0.1 0.9 0.1 0.9 0.1 0.9 0.1 0.9 0.1 0.9 0.1 0.9 0.1 0.9 0.1 0.9 0.1 0.9 0.1 0.9 0.1 0.9 0.1 0.9 0.1 0.9 0.1 0.9 0.1 0.9 0.1 0.9 0.1 0.9 0.1 0.9 0.1 0.9 0.1 0.9 0.1 0.9332098869731069 0.06679011302689297 0.9064656587859335 0.09353434121406648 0.9 0.1 0.9053454532502041 0.09465454674979586 0.9 0.1 0.9080542532680487 0.09194574673195136 0.9 0.1 0.9035978489401465 0.09640215105985356 0.9 0.1 0.9148024515840602 0.08519754841593986 0.9 0.1 0.9 0.1 0.9 0.1 0.9 0.1 0.9 0.1 0.9 0.1 0.9 0.1 0.9 0.1 0.9 0.1 0.9 0.1 0.9 0.1 0.9 0.1 0.9 0.1 0.9 0.1 0.9 0.1 0.9 0.1 0.9 0.1 0.9 0.1 0.9 0.1 0.9 0.1 0.9 0.1 0.9 0.1 0.9 0.1 0.9 0.1 0.9 0.1 0.9 0.1 0.9 0.1 0.9 0.1 0.9 0.1 0.9 0.1 0.9 0.1 0.9 0.1 0.9 0.1 0.9 0.1 0.9 0.1 0.9 0.1 0.9 0.1 0.9 0.1 0.9 0.1 0.9 0.1 0.9 0.1 0.9 0.1 0.9 0.1 0.9 0.1 0.9 0.1 0.9 0.1 0.9 0.1 0.9 0.1 0.9 0.1 0.9 0.1 0.9 0.1 0.9 0.1 0.9 0.1 0.9 0.1 0.9 0.1 0.9 0.1 0.9017248292700785 0.0982751707299216 0.9 0.1 0.9002239679834001 0.0997760320165999 0.896315801144039 0.103684198855961 0.9 0.1 0.9296894317612164 0.07031056823878351 0.9 0.1 0.660178958516126 0.3398210414838739 0.9027687603326523 0.09723123966734772 0.9 0.1 0.9013655665606036 0.09863443343939626 0.9 0.1 0.9001723715341612 0.09982762846583888 0.9 0.1 0.9 0.1 0.9 0.1 0.9 0.1 0.9 0.1 0.9 0.1 0.9 0.1 0.9002219014674089 0.09977809853259101 0.9 0.1 0.9000056313055544 0.09999436869444549 0.9 0.1 0.9 0.1 0.9270902515882862 0.0729097484117138 0.9 0.1 0.9 0.1 0.9 0.1 0.9 0.1 0.9011421772229756 0.09885782277702433 0.9 0.1 0.9340508081223003 0.06594919187769953 0.8580645742646924 0.1419354257353075 0.9 0.1 0.9 0.1 0.9 0.1 0.9 0.1 0.9027687603326523 0.09723123966734772 0.9 0.1 0.9009034018466869 0.09909659815331293 0.9 0.1 0.9014794496847877 0.09852055031521226 0.9207696630666776 0.07923033693332235 0.9 0.1 0.9 0.1 0.9 0.1 0.9 0.1 0.9 0.1 0.9 0.1 0.9001463565146032 0.09985364348539692 0.9 0.1 0.9000489117874422 0.09995108821255777 0.9 0.1 0.6000194727552941 0.3999805272447059 0.9 0.1 0.9 0.1 0.9331299297082098 0.06687007029179003 0.9 0.1 0.9 0.1 0.7569537907722449 0.2430462092277551 0.9 0.1 0.9050045269244067 0.09499547307559317 0.7090239313227243 0.2909760686772757 0.9 0.1 0.9 0.1 0.9 0.1 0.9 0.1 0.9371101730180106 0.06288982698198932 0.9 0.1 0.9009160511192678 0.09908394888073224 0.9 0.1 0.9038919748549 0.09610802514510002 0.9 0.1 0.9 0.1 0.9 0.1 0.9 0.1 0.9 0.1 0.9 0.1 0.9 0.1 0.9001484186799923 0.09985158132000761 0.9 0.1 0.9001315931848306 0.09986840681516942 0.9 0.1 0.9 0.1 0.9 0.1 0.601791773068926 0.3982082269310739 0.9308951146941908 0.06910488530580916 0.9333122770611446 0.06668772293885546 0.9 0.1 0.9343369927708645 0.06566300722913557 0.9 0.1 0.8692907719492622 0.1307092280507378 0.7752225542225138 0.2247774457774863 0.9 0.1 0.9450766712925276 0.05492332870747241 0.9 0.1 0.9 0.1 0.4968407101710628 0.5031592898289372 0.9 0.1 0.8675098952011941 0.1324901047988059 0.9 0.1 0.9030315560429311 0.09696844395706902 0.9 0.1 0.9 0.1 0.9 0.1 0.9 0.1 0.9 0.1 0.9 0.1 0.9 0.1 0.9004226251552919 0.0995773748447082 0.9 0.1 0.9001016719820897 0.09989832801791028 0.9 0.1 0.9 0.1 0.9292809817353916 0.0707190182646083 0.9 0.1 0.9 0.1 0.9 0.1 0.9 0.1 0.9016470050124025 0.09835299498759753 0.932251503197894 0.06774849680210604 0.9002239679834001 0.0997760320165999 0.896315801144039 0.103684198855961 0.9 0.1 0.9 0.1 0.9 0.1 0.9 0.1 0.9148825013934897 0.08511749860651037 0.9 0.1 0.9013037887879303 0.09869621121206977 0.9 0.1 0.9001723715341612 0.09982762846583888 0.9 0.1 0.9 0.1 0.9 0.1 0.9 0.1 0.9 0.1 0.9 0.1 0.9 0.1 0.9002117793952353 0.09978822060476462 0.9 0.1 0.9000056313055544 0.09999436869444549 0.9 0.1 0.9 0.1 0.6527718387256168 0.3472281612743831 0.6007438272700397 0.3992561727299602 0.901305589962164 0.09869441003783593 0.9048528040450782 0.0951471959549219 0.4167975872285566 0.5832024127714435 0.9255741555489311 0.0744258444510689 0.9316502032686567 0.06834979673134341 0.8938914900511976 0.1061085099488025 0.3546883646548987 0.6453116353451015 0.901273708687534 0.09872629131246594 0.9134911045224112 0.08650889547758887 0.8868569403818497 0.1131430596181503 0.8895146590460797 0.1104853409539201 0.9050200717812508 0.09497992821874933 0.8421014509715381 0.1578985490284619 0.9236963830160163 0.07630361698398369 0.8447127669382415 0.1552872330617587 0.9020073773517234 0.09799262264827653 0.8260134316715192 0.1739865683284809 0.9 0.1 0.9 0.1 0.9 0.1 0.9059928600888595 0.09400713991114053 0.9 0.1 0.9000284789945024 0.09997152100549767 0.9000403256696841 0.099959674330316 0.9001388655470708 0.0998611344529292 0.9 0.1 0.9 0.1 0.9333160081676087 0.06668399183239107 0.9628699235437034 0.03713007645629648 0.5375539697020549 0.462446030297945 0.7256383749738448 0.2743616250261552 0.6959195824811032 0.3040804175188968 0.8800650917612407 0.1199349082387593 0.8824412094586792 0.1175587905413209 0.6803014389700901 0.3196985610299099 0.9214158996813812 0.07858410031861869 0.742885443233662 0.257114556766338 0.9360660727195144 0.06393392728048561 0.95507587884737 0.04492412115262989 0.9225037309200569 0.07749626907994321 0.9308995476700774 0.06910045232992258 0.9143810381315699 0.08561896186843006 0.7466267666879489 0.2533732333120511 0.9248638213920204 0.07513617860797953 0.5227111173643522 0.4772888826356478 0.9447693419654107 0.05523065803458944 0.8764385652436072 0.1235614347563928 0.9 0.1 0.9048352108676548 0.09516478913234507 0.9 0.1 0.9294326183619183 0.0705673816380817 0.9 0.1 0.9056837472153232 0.09431625278467684 0.9001468527439669 0.09985314725603323 0.9320786767088904 0.06792132329110953 0.9 0.1 0.9020825377612429 0.09791746223875721 0.9742906675524475 0.02570933244755247 0.7377981175161096 0.2622018824838903 0.946630170859884 0.05336982914011593 0.7454911270286725 0.2545088729713274 0.6278550289601351 0.3721449710398648 0.4410725303029147 0.5589274696970854 0.865562709192778 0.134437290807222 0.9662456560327001 0.03375434396729986 0.8808382034645309 0.1191617965354691 0.9483432832160118 0.0516567167839882 0.9679322375689778 0.03206776243102233 0.9584835194369454 0.04151648056305463 0.926745481142537 0.07325451885746317 0.9037719537864504 0.09622804621354963 0.9180047329032374 0.08199526709676264 0.9462828914514118 0.05371710854858817 0.8901261752726711 0.1098738247273288 0.9241692035563664 0.07583079644363355 0.9271232115226498 0.07287678847735024 0.9522604144461967 0.04773958555380331 0.9 0.1 0.9 0.1 0.9 0.1 0.9105817985237019 0.08941820147629798 0.9 0.1 0.9000902110235984 0.09990978897640149 0.9001811136937119 0.09981888630628802 0.8967147780740906 0.1032852219259093 0.9 0.1 0.9 0.1 0.9509340461662635 0.04906595383373633 0.9456787161672265 0.05432128383277353 0.9564560600928618 0.04354393990713825 0.6024371019837926 0.3975628980162075 0.6350662953503705 0.3649337046496294 0.7277548974389099 0.2722451025610901 0.6727593876453499 0.32724061235465 0.9403172456291929 0.05968275437080698 0.4171233690983061 0.5828766309016939 0.6639521472192166 0.3360478527807835 0.9085121398569682 0.09148786014303187 0.9020530740119159 0.09794692598808405 0.8837344893438813 0.1162655106561186 0.9601871888571838 0.0398128111428163 0.9218324619533872 0.07816753804661285 0.6167507627177157 0.3832492372822844 0.8026196364465829 0.1973803635534171 0.9521426956980024 0.04785730430199768 0.9393379364931033 0.06066206350689669 0.9298149427039072 0.0701850572960927 0.9 0.1 0.9 0.1 0.9 0.1 0.9110258360925668 0.08897416390743305 0.9 0.1 0.8996661592760679 0.1003338407239321 0.9001399436292605 0.09986005637073946 0.9004808953239278 0.09951910467607211 0.9 0.1 0.9 0.1 0.600205568394888 0.3997944316051119 0.8928110507410878 0.1071889492589121 0.8945342078935143 0.1054657921064855 0.8717428617242219 0.1282571382757781 0.9348603630600285 0.06513963693997143 0.9257276239852044 0.07427237601479561 0.8749552969430071 0.1250447030569929 0.7633787569991136 0.2366212430008864 0.8977776224490732 0.1022223775509267 0.9319599416246942 0.06804005837530587 0.9005994565373586 0.09940054346264132 0.9003393732698054 0.09966062673019464 0.8957711098658528 0.1042288901341472 0.900730710901342 0.09926928909865811 0.9034498783539353 0.09655012164606476 0.8952763010981802 0.1047236989018198 0.9011108152847684 0.09888918471523167 0.8993783325647666 0.1006216674352333 0.9007584042520272 0.09924159574797284 0.898688388149799 0.1013116118502009 0.9 0.1 0.9 0.1 0.9 0.1 0.9021412584868832 0.0978587415131167 0.9 0.1 0.9000192876443578 0.09998071235564224 0.900021970355986 0.09997802964401407 0.9000756865905388 0.09992431340946119 0.9 0.1 0.9 0.1</probabilities>
		</cpt>
		<cpt id="Honesty">
			<state id="State0" />
			<state id="State1" />
			<state id="State2" />
			<state id="State3" />
			<parents>CB_Offending</parents>
			<probabilities>0.1774528106145497 0.2811509273990583 0.3387532052590099 0.2026430567273822 0.114658036735555 0.4843346763740097 0.1839133795709509 0.2170939073194846</probabilities>
			<property id="DSL_OUTCOME_ORDER">1</property>
		</cpt>
		<cpt id="A1_1_PhotoSharing">
			<state id="State0" />
			<state id="State1" />
			<parents>CB_Offending Honesty</parents>
			<probabilities>0.6714390475656847 0.3285609524343153 0.6769835711124864 0.3230164288875135 0.6245638667360065 0.3754361332639935 0.716217760601928 0.283782239398072 0.6819937744098581 0.318006225590142 0.6458305128482142 0.3541694871517858 0.6304923718736601 0.36950762812634 0.5714810200208649 0.428518979979135</probabilities>
		</cpt>
		<cpt id="A1_2_Sociable">
			<state id="State0" />
			<state id="State1" />
			<parents>CB_Offending Honesty</parents>
			<probabilities>0.7336112661086756 0.2663887338913244 0.6657072024933851 0.3342927975066148 0.63426307062964 0.3657369293703599 0.6737951404784708 0.3262048595215292 0.6513675601168923 0.3486324398831076 0.8116528376794394 0.1883471623205606 0.8929945227611363 0.1070054772388637 0.6916202025907213 0.3083797974092786</probabilities>
		</cpt>
		<cpt id="A1_3_MatthewMeme">
			<state id="State0" />
			<state id="State1" />
			<state id="State2" />
			<parents>CB_Offending Honesty</parents>
			<probabilities>0.4586975599712243 0.1325165941187458 0.40878584591003 0.160389512758848 0.3923527731189086 0.4472577141222433 0.1099157566740931 0.3721546270601602 0.5179296162657469 0.1144645115838328 0.2397638257083052 0.6457716627078621 0.09334399082079883 0.8037626638366883 0.1028933453425129 0.5090416718555544 0.2948634516306936 0.1960948765137519 0.5930771537874318 0.2515888023830388 0.1553340438295295 0.4463799838730809 0.342419304089165 0.2112007120377541</probabilities>
		</cpt>
		<cpt id="A3_1_pirated_Content">
			<state id="State0" />
			<state id="State1" />
			<parents>CB_Offending Honesty</parents>
			<probabilities>0.5615265826490913 0.4384734173509087 0.2260186683496766 0.7739813316503233 0.1908475078120725 0.8091524921879275 0.1419466031666138 0.8580533968333862 0.05007713458162744 0.9499228654183726 0.6975961113931223 0.3024038886068776 0.5515540589043455 0.4484459410956546 0.6484757388623827 0.3515242611376173</probabilities>
		</cpt>
		<cpt id="A3_2_Pol_Pola">
			<state id="State0" />
			<state id="State1" />
			<state id="State2" />
			<parents>CB_Offending Honesty</parents>
			<probabilities>0.3710324186668936 0.4732271097236744 0.155740471609432 0.5690595997898785 0.1016783917413481 0.3292620084687733 0.6734142555616269 0.05447946760880945 0.2721062768295637 0.8342240823986194 0.01405213655082828 0.1517237810505522 0.5572142996096012 0.4106910897972968 0.03209461059310181 0.3393217382283122 0.5609236844652461 0.09975457730644165 0.1045821928827337 0.8282532016452392 0.06716460547202704 0.2891396002149573 0.434552162346356 0.2763082374386866</probabilities>
		</cpt>
		<cpt id="A3_3_time_overrun">
			<state id="State0" />
			<state id="State1" />
			<parents>CB_Offending Honesty</parents>
			<probabilities>0.7482375383624295 0.2517624616375704 0.3543201258090364 0.6456798741909636 0.2832719952547973 0.7167280047452027 0.1542362225990724 0.8457637774009275 0.1380521990262858 0.8619478009737142 0.8067515155319185 0.1932484844680816 0.7441459506834919 0.2558540493165082 0.8565472162624899 0.14345278373751</probabilities>
		</cpt>
		<cpt id="A3_4_Pol_Bullied">
			<state id="State0" />
			<state id="State1" />
			<state id="State2" />
			<parents>CB_Offending Honesty</parents>
			<probabilities>0.3703410696493889 0.2461780868789652 0.383480843471646 0.06982806147094349 0.3003504091782863 0.6298215293507703 0.01673703771821211 0.208462910350778 0.7748000519310099 0.02400357963146743 0.1120026722596364 0.8639937481088961 0.1827775563332626 0.2529330828983879 0.5642893607683495 0.3321720224516984 0.448884735481137 0.2189432420671645 0.5579502791811897 0.3808133669369512 0.06123635388185911 0.3792646554286357 0.3336412804193004 0.287094064152064</probabilities>
		</cpt>
		<cpt id="A3_5_remind_Matthew">
			<state id="State0" />
			<state id="State1" />
			<state id="State2" />
			<parents>CB_Offending Honesty</parents>
			<probabilities>0.3332706350153624 0.3995717829728793 0.2671575820117582 0.4043827220785425 0.490808074146074 0.1048092037753836 0.4571204048670548 0.4681046298780929 0.07477496525485237 0.3716502640078546 0.5622564518969697 0.06609328409517552 0.372229922942768 0.2400719462705014 0.3876981307867307 0.2212712559963866 0.4398442680210806 0.3388844759825327 0.3439599039574043 0.4898689860734399 0.1661711099691559 0.391306948281008 0.3692995041796433 0.2393935475393488</probabilities>
		</cpt>
		<cpt id="A3_6_Talk_Pol">
			<state id="State0" />
			<state id="State1" />
			<parents>CB_Offending Honesty</parents>
			<probabilities>0.4384744066869647 0.5615255933130354 0.1719920645784714 0.8280079354215287 0.1866449670051656 0.8133550329948344 0.1484112268966609 0.8515887731033391 0.3038657610689528 0.6961342389310471 0.4276022461407463 0.5723977538592537 0.1799242073297108 0.8200757926702892 0.3291901734471201 0.6708098265528799</probabilities>
		</cpt>
		<cpt id="A3_7_Help_Pol">
			<state id="State0" />
			<state id="State1" />
			<state id="State2" />
			<state id="State3" />
			<parents>CB_Offending Honesty</parents>
			<probabilities>0.5002341995338214 0.1391860455769704 0.1454380612838052 0.215141693605403 0.6638289465775609 0.2220566121066228 0.07820625397470995 0.03590818734110649 0.6545072568087104 0.2707118664942226 0.04149999920179916 0.03328087749526791 0.7049219437995917 0.2563668661283679 0.01864929973087928 0.02006189034116112 0.3433269839708074 0.2992280621484807 0.1046648753462019 0.25278007853451 0.2959444098875926 0.2762635598894225 0.1796473851051933 0.2481446451177915 0.4866592460799105 0.123205177160467 0.258083734954252 0.1320518418053704 0.3371082890289031 0.2931178576573805 0.1377328898987143 0.2320409634150022</probabilities>
		</cpt>
	</nodes>
	<extensions>
		<genie version="1.0" app="GeNIe 4.0.2919.0 ACADEMIC" name="Network1">
			<node id="Age">
				<name>Age</name>
				<interior color="e5f6f7" />
				<outline color="000080" />
				<font color="000000" name="Arial" size="8" />
				<position>186 451 227 476</position>
				<barchart active="true" width="128" height="108" />
			</node>
			<node id="Gender">
				<name>Gender</name>
				<interior color="e5f6f7" />
				<outline color="000080" />
				<font color="000000" name="Arial" size="8" />
				<position>108 287 160 319</position>
				<barchart active="true" width="128" height="72" />
			</node>
			<node id="CB_Offending">
				<name>CB_Offending</name>
				<interior color="e5f6f7" />
				<outline color="000080" />
				<font color="000000" name="Arial" size="8" />
				<position>689 384 769 434</position>
				<barchart active="true" width="128" height="64" />
			</node>
			<node id="Empathy">
				<name>Empathy</name>
				<interior color="e5f6f7" />
				<outline color="000080" />
				<font color="000000" name="Arial" size="8" />
				<position>398 471 454 506</position>
				<barchart active="true" width="128" height="64" />
			</node>
			<node id="Hours_Internet">
				<name>Hours_Internet</name>
				<interior color="e5f6f7" />
				<outline color="000080" />
				<font color="000000" name="Arial" size="8" />
				<position>178 113 234 158</position>
				<barchart active="true" width="128" height="108" />
			</node>
			<node id="Family_Support">
				<name>Family_Support</name>
				<interior color="e5f6f7" />
				<outline color="000080" />
				<font color="000000" name="Arial" size="8" />
				<position>496 28 551 76</position>
				<barchart active="true" width="128" height="72" />
			</node>
			<node id="Social_Support">
				<name>Social_Support</name>
				<interior color="e5f6f7" />
				<outline color="000080" />
				<font color="000000" name="Arial" size="8" />
				<position>782 89 840 133</position>
				<barchart active="true" width="128" height="72" />
			</node>
			<node id="A1_1_PhotoSharing">
				<name>A1_1_PhotoSharing</name>
				<interior color="e5f6f7" />
				<outline color="000080" />
				<font color="000000" name="Arial" size="8" />
				<position>213 628 275 681</position>
				<barchart active="true" width="128" height="64" />
			</node>
			<node id="A1_2_Sociable">
				<name>A1_2_Sociable</name>
				<interior color="e5f6f7" />
				<outline color="000080" />
				<font color="000000" name="Arial" size="8" />
				<position>352 628 414 679</position>
				<barchart active="true" width="128" height="64" />
			</node>
			<node id="A1_3_MatthewMeme">
				<name>A1_3_MatthewMeme</name>
				<interior color="e5f6f7" />
				<outline color="000080" />
				<font color="000000" name="Arial" size="8" />
				<position>494 629 556 680</position>
				<barchart active="true" width="128" height="72" />
			</node>
			<node id="A3_1_pirated_Content">
				<name>A3_1_pirated_Content</name>
				<interior color="e5f6f7" />
				<outline color="000080" />
				<font color="000000" name="Arial" size="8" />
				<position>627 626 688 673</position>
				<barchart active="true" width="128" height="64" />
			</node>
			<node id="A3_2_Pol_Pola">
				<name>A3_2_Pol_Pola</name>
				<interior color="e5f6f7" />
				<outline color="000080" />
				<font color="000000" name="Arial" size="8" />
				<position>777 628 830 677</position>
				<barchart active="true" width="128" height="72" />
			</node>
			<node id="A3_3_time_overrun">
				<name>A3_3_time_overrun</name>
				<interior color="e5f6f7" />
				<outline color="000080" />
				<font color="000000" name="Arial" size="8" />
				<position>907 629 965 678</position>
				<barchart active="true" width="128" height="64" />
			</node>
			<node id="A3_4_Pol_Bullied">
				<name>A3_4_Pol_Bullied</name>
				<interior color="e5f6f7" />
				<outline color="000080" />
				<font color="000000" name="Arial" size="8" />
				<position>1047 624 1097 672</position>
				<barchart active="true" width="128" height="72" />
			</node>
			<node id="A3_5_remind_Matthew">
				<name>A3_5_remind_Matthew</name>
				<interior color="e5f6f7" />
				<outline color="000080" />
				<font color="000000" name="Arial" size="8" />
				<position>1177 621 1232 672</position>
				<barchart active="true" width="128" height="72" />
			</node>
			<node id="A3_6_Talk_Pol">
				<name>A3_6_Talk_Pol</name>
				<interior color="e5f6f7" />
				<outline color="000080" />
				<font color="000000" name="Arial" size="8" />
				<position>1308 621 1364 671</position>
				<barchart active="true" width="128" height="64" />
			</node>
			<node id="A3_7_Help_Pol">
				<name>A3_7_Help_Pol</name>
				<interior color="e5f6f7" />
				<outline color="000080" />
				<font color="000000" name="Arial" size="8" />
				<position>1442 623 1495 671</position>
				<barchart active="true" width="128" height="90" />
			</node>
			<node id="Honesty">
				<name>Honesty</name>
				<interior color="e5f6f7" />
				<outline color="000080" />
				<font color="000000" name="Arial" size="8" />
				<position>700 760 756 795</position>
				<barchart active="true" width="128" height="90" />
			</node>
			<node id="Self_Esteem">
				<name>Self-Esteem</name>
				<interior color="e5f6f7" />
				<outline color="000080" />
				<font color="000000" name="Arial" size="8" />
				<position>1038 423 1109 467</position>
				<barchart active="true" width="128" height="72" />
			</node>
		</genie>
	</extensions>
</smile>
