<?xml version="1.0" encoding="UTF-8"?>
<!-- This network was created in GeNIe Academic, which can be used for academic teaching and research purposes only -->
<smile version="1.0" id="Network1" numsamples="10000" discsamples="10000">
	<nodes>
		<cpt id="Age">
			<state id="Age_12" />
			<state id="Age_13" />
			<state id="Age_14" />
			<state id="Age_15" />
			<state id="Age_16" />
			<probabilities>0.2 0.2 0.2 0.2 0.2</probabilities>
			<property id="DSL_OUTCOME_ORDER">1</property>
		</cpt>
		<cpt id="Gender">
			<state id="Male" />
			<state id="Female" />
			<state id="NonBinary" />
			<probabilities>0.48 0.48 0.04</probabilities>
		</cpt>
		<cpt id="Sexual_Orientation">
			<state id="Heterosexual" />
			<state id="NonHeterosexual" />
			<probabilities>0.8290990253855851 0.1709009746144149</probabilities>
		</cpt>
		<cpt id="Migratory_background">
			<state id="State0" />
			<state id="State1" />
			<state id="State2" />
			<probabilities>0.6205173427395649 0.1346266901822457 0.2448559670781893</probabilities>
			<property id="DSL_OUTCOME_ORDER">1</property>
		</cpt>
		<cpt id="Self_Esteem">
			<state id="State0" />
			<state id="State1" />
			<state id="State2" />
			<probabilities>0.2131099353321575 0.4247501469723692 0.3621399176954733</probabilities>
			<property id="DSL_OUTCOME_ORDER">1</property>
		</cpt>
		<cpt id="Social_Support">
			<state id="State0" />
			<state id="State1" />
			<state id="State2" />
			<probabilities>0.07289829512051735 0.3586125808348031 0.5684891240446796</probabilities>
			<property id="DSL_OUTCOME_ORDER">1</property>
		</cpt>
		<cpt id="Family_Support">
			<state id="State0" />
			<state id="State1" />
			<state id="State2" />
			<parents>Gender Age</parents>
			<probabilities>0.06760705040357715 0.228104538147483 0.7042884114489399 0.05595670292335266 0.2029699292823297 0.7410733677943175 0.0235225026323163 0.2292045358878741 0.7472729614798097 0.03609019010743764 0.2992963733725117 0.6646134365200506 0.08089173469813032 0.3299477292908417 0.5891605360110279 0.1027272553168095 0.2875451718565057 0.6097275728266848 0.1367028100276126 0.3125953006339516 0.5507018893384358 0.07421126936284086 0.3467718575785186 0.5790168730586405 0.1661434090851142 0.31694388429967 0.5169127066152158 0.07769930865353861 0.3512812048776514 0.5710194864688101 0.1301102622217875 0.5236666357584536 0.346223102019759 0.1325634642297366 0.133949548066418 0.7334869877038454 0.5847394998712566 0.1090077901667506 0.3062527099619928 0.1483027513191991 0.3659534233437972 0.4857438253370036 0.7305925097778231 0.129016930647439 0.140390559574738</probabilities>
			<property id="DSL_OUTCOME_ORDER">1</property>
		</cpt>
		<cpt id="Hours_Internet">
			<state id="State0" />
			<state id="State1" />
			<state id="State2" />
			<state id="State3" />
			<state id="State4" />
			<parents>Family_Support Social_Support Age</parents>
			<probabilities>0.5360794798270077 0.313450389547785 0.05015671020840243 0.05015671020840243 0.05015671020840243 0.315558529132922 0.3878412290818599 0.129763168080127 0.129763168080127 0.0370739056249642 0.1293874848001022 0.4824500607995914 0.1293874848001022 0.1293874848001022 0.1293874848001022 0.1570576110700416 0.1602919184294824 0.3681635827107844 0.2696678345791506 0.04481905321054109 0.29881092423973 0.1286346320625405 0.1262045574368623 0.3218772279392221 0.1244726583216451 0.08369752166258854 0.3737987828499519 0.08500739097491923 0.3737987828499519 0.08369752166258854 0.5559713518678 0.2392103828752226 0.06885912894822876 0.06797956815437435 0.06797956815437435 0.06878732946916923 0.06878732946916923 0.5513166477296911 0.2423213638628012 0.06878732946916923 0.03538106426216434 0.1281349091518844 0.1364991309890482 0.6646038313347388 0.03538106426216434 0.072634672424089 0.072634672424089 0.07974919147668531 0.252263188597815 0.5227182750773217 0.2355518783941803 0.07474172373786338 0.3778912190937198 0.24511595910108 0.0666992196731564 0.09185821012003166 0.1521530234146778 0.5630997538168779 0.1010308025283809 0.09185821012003166 0.05846398933205053 0.2510032892152719 0.2120033077695698 0.4200654243510572 0.05846398933205053 0.2171860306605469 0.281285236472103 0.2171860306605469 0.2222939909561928 0.06204871125061038 0.1405631599852953 0.1673183090915512 0.1405631599852953 0.4109922109525629 0.1405631599852953 0.2088988122723538 0.2079668348023898 0.05883753676558252 0.4654592793940915 0.05883753676558252 0.5339102454195532 0.1997881366741929 0.1997881366741929 0.03325674061603055 0.03325674061603055 0.4250348985753622 0.2999989688262714 0.04999100701137869 0.1749841185756091 0.04999100701137869 0.07998921256950696 0.07998921256950696 0.4800394046227666 0.2799929576687127 0.07998921256950696 0.08325035214762258 0.3751244717785661 0.3751244717785661 0.08325035214762258 0.08325035214762258 0.1389599061901955 0.2559893084173775 0.3478242319025476 0.1736426913881669 0.08358386210171258 0.1414587198639019 0.05637181552356789 0.2142438758906924 0.5724090864959174 0.01551650222592032 0.09663973054021836 0.3588561260434721 0.3720294732695171 0.1587016498067186 0.01377302034007355 0.1124970210957893 0.1503553418457682 0.4303680283117899 0.2780132849213514 0.02876632382530125 0.1940139758809048 0.3857880801442977 0.2373895669853372 0.1189020928821538 0.0639062841073066 0.07380158043386822 0.3030909190613487 0.1266654187535127 0.4226405013174022 0.07380158043386822 0.1229867272929082 0.121474440574107 0.3092363368005914 0.4115973789690802 0.0347051163633132 0.02413927746482883 0.02413927746482883 0.466327521664877 0.3355787850390579 0.1498151383664074 0.177382007590704 0.1203317345300342 0.1210294878427429 0.40529893295965 0.175957837076869 0.01745441730802207 0.1492816964243541 0.3911630614975506 0.4246464074620512 0.01745441730802207 0.4104358545086105 0.09070217622944453 0.3174576168030558 0.09070217622944453 0.09070217622944453 0.2050754814266496 0.1222960797805155 0.4280362792318041 0.1222960797805155 0.1222960797805155 0.1142049728401517 0.3622832244250042 0.08061428915491997 0.3622832244250042 0.08061428915491997 0.1593640176238063 0.4543054989034184 0.1287768278242584 0.1287768278242584 0.1287768278242584 0.06647921272293866 0.2035966634482771 0.2035966634482771 0.4684853840274177 0.05784207635308963 0.05005430210961045 0.271451497438539 0.2783276077437514 0.3281357767932054 0.07203081591489355 0.03491948810276404 0.3472571875126797 0.4591148366772598 0.149516367117595 0.009192120589701615 0.01401356832464446 0.1601354502545604 0.2583078794773753 0.4805505039411375 0.08699259800228251 0.04105315455659191 0.1756165512926343 0.4438345754234174 0.3290208003302056 0.01047491839715072 0.06378459749051237 0.2342940302314167 0.387114696594847 0.2625292966021247 0.05227737908109929 0.05643625782132792 0.3270634529855715 0.423364378700208 0.1661075258172172 0.02702838467567519 0.1199357630979807 0.3347145898492859 0.2434528397453961 0.2583760264850382 0.04352078082229924 0.08478274645876532 0.2093488730817107 0.2984477556301341 0.3476257149995944 0.05979490982979528 0.07227477617861286 0.2749819993027288 0.3442871847612947 0.2673590366109778 0.04109700314638583 0.08340448827286739 0.2469681881080899 0.241763491927539 0.3963031523342721 0.03156067935723146</probabilities>
			<property id="DSL_OUTCOME_ORDER">1</property>
		</cpt>
		<cpt id="Previous_Victimization">
			<state id="State0" />
			<state id="State1" />
			<parents>Self_Esteem Sexual_Orientation Migratory_background Social_Support Family_Support Hours_Internet Gender Age</parents>
			<probabilities>0.6 0.4 0.9 0.1 0.9 0.1 0.9 0.1 0.9 0.1 0.9 0.1 0.9 0.1 0.9 0.1 0.9293888173977107 0.07061118260228917 0.9 0.1 0.9 0.1 0.9 0.1 0.9 0.1 0.9 0.1 0.9 0.1 0.9 0.1 0.9 0.1 0.9 0.1 0.9 0.1 0.9 0.1 0.9 0.1 0.9 0.1 0.9 0.1 0.9 0.1 0.9 0.1 0.9 0.1 0.9 0.1 0.9 0.1 0.9 0.1 0.9 0.1 0.9 0.1 0.9 0.1 0.9 0.1 0.9 0.1 0.9 0.1 0.9 0.1 0.9 0.1 0.9 0.1 0.6130235748288492 0.3869764251711509 0.9 0.1 0.9 0.1 0.9 0.1 0.9 0.1 0.9 0.1 0.9 0.1 0.9 0.1 0.6 0.4 0.9 0.1 0.897143353507764 0.1028566464922359 0.6130235748288492 0.3869764251711509 0.9 0.1 0.9 0.1 0.9 0.1 0.6021419586722493 0.3978580413277507 0.9 0.1 0.9 0.1 0.9 0.1 0.9 0.1 0.8980676370889329 0.101932362911067 0.9 0.1 0.9 0.1 0.9 0.1 0.9 0.1 0.9 0.1 0.6130235748288492 0.3869764251711509 0.9 0.1 0.9 0.1 0.9 0.1 0.9 0.1 0.9 0.1 0.9 0.1 0.9 0.1 0.9 0.1 0.9 0.1 0.9 0.1 0.8873680827501705 0.1126319172498296 0.9183385695879874 0.08166143041201254 0.9 0.1 0.9 0.1 0.9 0.1 0.9 0.1 0.9 0.1 0.9 0.1 0.9 0.1 0.9 0.1 0.9 0.1 0.9 0.1 0.9 0.1 0.9 0.1 0.9 0.1 0.8880836329323046 0.1119163670676954 0.907573482992586 0.09242651700741393 0.9 0.1 0.9 0.1 0.9 0.1 0.9 0.1 0.9 0.1 0.9 0.1 0.9 0.1 0.9 0.1 0.9 0.1 0.9 0.1 0.9 0.1 0.9 0.1 0.9 0.1 0.8975137775064159 0.1024862224935841 0.907573482992586 0.09242651700741393 0.9 0.1 0.9 0.1 0.9 0.1 0.9 0.1 0.9 0.1 0.9 0.1 0.6 0.4 0.6 0.4 0.9 0.1 0.9 0.1 0.9 0.1 0.6 0.4 0.9 0.1 0.5553535922690142 0.4446464077309859 0.9013257672497521 0.0986742327502478 0.9 0.1 0.9 0.1 0.9 0.1 0.6882775465458475 0.3117224534541526 0.9 0.1 0.9 0.1 0.9 0.1 0.9 0.1 0.8952221427050927 0.1047778572949072 0.9 0.1 0.9 0.1 0.9 0.1 0.9 0.1 0.8975137775064159 0.1024862224935841 0.9013257672497521 0.0986742327502478 0.9 0.1 0.9 0.1 0.9 0.1 0.9 0.1 0.9 0.1 0.9 0.1 0.9 0.1 0.9 0.1 0.9 0.1 0.9 0.1 0.9 0.1 0.9 0.1 0.9 0.1 0.9 0.1 0.9 0.1 0.9 0.1 0.9 0.1 0.8956546849427486 0.1043453150572514 0.9 0.1 0.9 0.1 0.9 0.1 0.9 0.1 0.9 0.1 0.9 0.1 0.9 0.1 0.9 0.1 0.9 0.1 0.9 0.1 0.9 0.1 0.9 0.1 0.9 0.1 0.9 0.1 0.8835162550159551 0.1164837449840449 0.9 0.1 0.9 0.1 0.9 0.1 0.9 0.1 0.9 0.1 0.9 0.1 0.9 0.1 0.9 0.1 0.9 0.1 0.9 0.1 0.9 0.1 0.9293888173977107 0.07061118260228917 0.9 0.1 0.9 0.1 0.8835162550159551 0.1164837449840449 0.9 0.1 0.9 0.1 0.9 0.1 0.9 0.1 0.9 0.1 0.9 0.1 0.9 0.1 0.9 0.1 0.9 0.1 0.9 0.1 0.9 0.1 0.9 0.1 0.6 0.4 0.9 0.1 0.619125569895888 0.380874430104112 0.9 0.1 0.9 0.1 0.9 0.1 0.9 0.1 0.9 0.1 0.9 0.1 0.9 0.1 0.9 0.1 0.9 0.1 0.9 0.1 0.9 0.1 0.9 0.1 0.9 0.1 0.9 0.1 0.8962613526073483 0.1037386473926517 0.9 0.1 0.9 0.1 0.9 0.1 0.9 0.1 0.9 0.1 0.9 0.1 0.9 0.1 0.9 0.1 0.9 0.1 0.9 0.1 0.9 0.1 0.9 0.1 0.9 0.1 0.898423590051693 0.1015764099483068 0.9 0.1 0.9 0.1 0.9 0.1 0.9 0.1 0.8921535589446978 0.1078464410553022 0.8855741198303642 0.1144258801696358 0.9 0.1 0.9 0.1 0.9 0.1 0.9 0.1 0.9 0.1 0.9 0.1 0.9 0.1 0.9 0.1 0.893734987888096 0.1062650121119039 0.9 0.1 0.9 0.1 0.9 0.1 0.9 0.1 0.8646133913054199 0.1353866086945801 0.8855741198303642 0.1144258801696358 0.9 0.1 0.9 0.1 0.9 0.1 0.9 0.1 0.9 0.1 0.9 0.1 0.9 0.1 0.9 0.1 0.5850672325814633 0.4149327674185367 0.9 0.1 0.9 0.1 0.9 0.1 0.9 0.1 0.8597154002621594 0.1402845997378406 0.8839160381540008 0.1160839618459992 0.9 0.1 0.9 0.1 0.9 0.1 0.9 0.1 0.9 0.1 0.9 0.1 0.9 0.1 0.9 0.1 0.6201780932393058 0.3798219067606942 0.9 0.1 0.6 0.4 0.9 0.1 0.9 0.1 0.8131742104293477 0.1868257895706524 0.8967401422426479 0.1032598577573521 0.9 0.1 0.9 0.1 0.9 0.1 0.9 0.1 0.9 0.1 0.9 0.1 0.9 0.1 0.9 0.1 0.898423590051693 0.1015764099483068 0.9 0.1 0.9 0.1 0.9 0.1 0.9 0.1 0.8921535589446978 0.1078464410553022 0.6659648719943618 0.3340351280056383 0.9 0.1 0.9 0.1 0.9 0.1 0.9 0.1 0.9 0.1 0.906913698228178 0.09308630177182185 0.9075885566742927 0.09241144332570729 0.9 0.1 0.891668092938055 0.108331907061945 0.5858646267577259 0.414135373242274 0.9 0.1 0.9 0.1 0.9 0.1 0.9225306708581227 0.0774693291418774 0.8818464005966051 0.118153599403395 0.9 0.1 0.9 0.1 0.9 0.1 0.9 0.1 0.9 0.1 0.6239837415317927 0.3760162584682074 0.8850213889894353 0.1149786110105646 0.9 0.1 0.8882503748829141 0.1117496251170858 0.4658923625477831 0.5341076374522169 0.9 0.1 0.9 0.1 0.9 0.1 0.6752157564075481 0.324784243592452 0.4796780984761854 0.5203219015238146 0.9 0.1 0.9 0.1 0.9 0.1 0.9 0.1 0.9 0.1 0.9159258474822191 0.08407415251778089 0.8168013625354209 0.1831986374645791 0.9 0.1 0.4648742040416164 0.5351257959583834 0.943002934450441 0.05699706554955904 0.7373140569318904 0.2626859430681094 0.9 0.1 0.9 0.1 0.6270184420484677 0.3729815579515323 0.8750801518614287 0.1249198481385712 0.9 0.1 0.9 0.1 0.9 0.1 0.9 0.1 0.9 0.1 0.908775225319929 0.09122477468007099 0.6700652928754084 0.3299347071245916 0.9 0.1 0.8846906444144416 0.1153093555855585 0.9131611342543821 0.08683886574561797 0.9293888173977107 0.07061118260228917 0.9 0.1 0.9 0.1 0.9343888102826344 0.06561118971736547 0.911741391247145 0.08825860875285498 0.9 0.1 0.9 0.1 0.9 0.1 0.9 0.1 0.9004349737029574 0.09956502629704252 0.9042542471764788 0.0957457528235211 0.8962200803589792 0.1037799196410208 0.9 0.1 0.8980812121481031 0.101918787851897 0.9323801677019409 0.06761983229805923 0.9 0.1 0.9 0.1 0.9 0.1 0.8967895208975102 0.1032104791024898 0.895335788072514 0.1046642119274859 0.9 0.1 0.9 0.1 0.9 0.1 0.9 0.1 0.9 0.1 0.9 0.1 0.9 0.1 0.9 0.1 0.8915441766676337 0.1084558233323662 0.9 0.1 0.9 0.1 0.9 0.1 0.9 0.1 0.9 0.1 0.9 0.1 0.9 0.1 0.9 0.1 0.9 0.1 0.9 0.1 0.9 0.1 0.9 0.1 0.9333333333333332 0.06666666666666667 0.9 0.1 0.9068985884304805 0.09310141156951947 0.9 0.1 0.9 0.1 0.9 0.1 0.9 0.1 0.9 0.1 0.6977206210467048 0.3022793789532951 0.9 0.1 0.9 0.1 0.9 0.1 0.9 0.1 0.9 0.1 0.9 0.1 0.9333333333333332 0.06666666666666667 0.9 0.1 0.6955593438604858 0.3044406561395142 0.6977206210467048 0.3022793789532951 0.9 0.1 0.9 0.1 0.9 0.1 0.9478179055451758 0.05218209445482427 0.4621676612500541 0.537832338749946 0.9 0.1 0.9 0.1 0.9 0.1 0.9 0.1 0.9 0.1 0.7414385478291711 0.2585614521708289 0.9 0.1 0.9333333333333332 0.06666666666666667 0.7762786706701293 0.2237213293298707 0.9333333333333332 0.06666666666666667 0.9 0.1 0.9 0.1 0.6 0.4 0.9 0.1 0.9 0.1 0.9 0.1 0.9 0.1 0.9 0.1 0.9 0.1 0.9 0.1 0.9 0.1 0.9 0.1 0.9 0.1 0.897958628558397 0.102041371441603 0.9 0.1 0.9 0.1 0.9 0.1 0.9 0.1 0.9 0.1 0.9 0.1 0.9 0.1 0.9 0.1 0.9 0.1 0.9 0.1 0.9 0.1 0.9333333333333332 0.06666666666666667 0.9 0.1 0.9 0.1 0.9 0.1 0.9 0.1 0.8831310550063213 0.1168689449936786 0.9 0.1 0.9 0.1 0.9 0.1 0.9 0.1 0.9 0.1 0.9 0.1 0.9 0.1 0.9 0.1 0.9 0.1 0.9 0.1 0.9 0.1 0.9 0.1 0.9 0.1 0.9 0.1 0.8956950448487502 0.1043049551512497 0.9 0.1 0.9333333333333332 0.06666666666666667 0.9 0.1 0.9 0.1 0.9 0.1 0.9 0.1 0.9 0.1 0.9 0.1 0.9 0.1 0.9 0.1 0.9 0.1 0.9 0.1 0.9 0.1 0.9 0.1 0.4664615280774718 0.5335384719225282 0.9 0.1 0.9 0.1 0.9293888173977107 0.07061118260228917 0.9 0.1 0.9 0.1 0.9 0.1 0.9 0.1 0.9 0.1 0.9 0.1 0.9 0.1 0.9 0.1 0.9 0.1 0.9 0.1 0.9 0.1 0.882043742133328 0.1179562578666719 0.9 0.1 0.9 0.1 0.9293888173977107 0.07061118260228917 0.9 0.1 0.9 0.1 0.9 0.1 0.9 0.1 0.9 0.1 0.9 0.1 0.9 0.1 0.9 0.1 0.9 0.1 0.9 0.1 0.9 0.1 0.8961923030050629 0.1038076969949371 0.9 0.1 0.9 0.1 0.9 0.1 0.9 0.1 0.9 0.1 0.9 0.1 0.9 0.1 0.9 0.1 0.9 0.1 0.9 0.1 0.9057131749095925 0.09428682509040753 0.8963489304022662 0.1036510695977339 0.9089821035377506 0.09101789646224931 0.9009505621698972 0.09904943783010262 0.9 0.1 0.9 0.1 0.9 0.1 0.9293888173977107 0.07061118260228917 0.9 0.1 0.9 0.1 0.9 0.1 0.9 0.1 0.9 0.1 0.9 0.1 0.9 0.1 0.9056449709771519 0.09435502902284798 0.8963489304022662 0.1036510695977339 0.4639078837657936 0.5360921162342064 0.9077305113066222 0.09226948869337789 0.9293888173977107 0.07061118260228917 0.9 0.1 0.9 0.1 0.9 0.1 0.9 0.1 0.9 0.1 0.9 0.1 0.9 0.1 0.9 0.1 0.9 0.1 0.9 0.1 0.9134396616413329 0.08656033835866689 0.7599646392478833 0.2400353607521168 0.6249329625993978 0.3750670374006024 0.9184757470649372 0.08152425293506271 0.9 0.1 0.9 0.1 0.4531207436511531 0.5468792563488468 0.9 0.1 0.9 0.1 0.9 0.1 0.9 0.1 0.9 0.1 0.9 0.1 0.9 0.1 0.9292768713426722 0.07072312865732765 0.9171756901004521 0.08282430989954795 0.5066376614832715 0.4933623385167284 0.9182203972182261 0.08177960278177378 0.640803648415594 0.359196351584406 0.9 0.1 0.9 0.1 0.9 0.1 0.643300294867545 0.356699705132455 0.384747353716884 0.6152526462831162 0.9 0.1 0.9 0.1 0.9 0.1 0.9 0.1 0.9 0.1 0.9 0.1 0.9016658802994774 0.09833411970052251 0.8727946821717478 0.1272053178282522 0.9375379006614212 0.06246209933857889 0.9009505621698972 0.09904943783010262 0.9 0.1 0.9 0.1 0.9 0.1 0.9 0.1 0.9 0.1 0.9 0.1 0.9 0.1 0.9 0.1 0.9 0.1 0.9 0.1 0.9004257627975497 0.0995742372024503 0.8873660947996022 0.1126339052003977 0.897888315891235 0.102111684108765 0.8816885754003607 0.1183114245996393 0.897350672444335 0.1026493275556651 0.9 0.1 0.6 0.4 0.9 0.1 0.9033593227817013 0.09664067721829868 0.9 0.1 0.9 0.1 0.9 0.1 0.9 0.1 0.9 0.1 0.9 0.1 0.9010135019598486 0.09898649804015131 0.7121751564998802 0.2878248435001197 0.8944387462953438 0.1055612537046563 0.4069558776259478 0.5930441223740522 0.8912503415418301 0.1087496584581699 0.9294834702326099 0.0705165297673901 0.9333333333333332 0.06666666666666667 0.9 0.1 0.9361513689813966 0.06384863101860325 0.6130235748288492 0.3869764251711509 0.9 0.1 0.9 0.1 0.9 0.1 0.9 0.1 0.9 0.1 0.9010991397653829 0.09890086023461697 0.791711260989837 0.208288739010163 0.8917169133912766 0.1082830866087234 0.6610616650187501 0.3389383349812499 0.8914693787659989 0.1085306212340012 0.9 0.1 0.9 0.1 0.9 0.1 0.9146825159134652 0.08531748408653472 0.95 0.05 0.9 0.1 0.9 0.1 0.9 0.1 0.9 0.1 0.9 0.1 0.9009747112878188 0.09902528871218103 0.8483205845132411 0.1516794154867588 0.8900104072053104 0.1099895927946896 0.7822549173767849 0.2177450826232152 0.9219062158551812 0.07809378414481886 0.9 0.1 0.9 0.1 0.7 0.3 0.9115806542168796 0.08841934578312025 0.6130235748288492 0.3869764251711509 0.9 0.1 0.9 0.1 0.9 0.1 0.9 0.1 0.9 0.1 0.9002155297661857 0.09978447023381437 0.5959582032364213 0.4040417967635787 0.898526757444313 0.101473242555687 0.8902915573054314 0.1097084426945685 0.8990285891940736 0.1009714108059264 0.9 0.1 0.9 0.1 0.9333333333333332 0.06666666666666667 0.901932235134086 0.09806776486591388 0.9 0.1 0.9 0.1 0.9 0.1 0.9 0.1 0.9 0.1 0.9 0.1 0.9 0.1 0.9 0.1 0.9 0.1 0.9 0.1 0.9 0.1 0.9 0.1 0.9 0.1 0.9 0.1 0.9 0.1 0.9 0.1 0.9 0.1 0.9 0.1 0.9 0.1 0.9 0.1 0.9 0.1 0.9 0.1 0.9 0.1 0.9 0.1 0.9 0.1 0.9 0.1 0.9 0.1 0.9 0.1 0.9 0.1 0.9 0.1 0.9 0.1 0.9 0.1 0.9 0.1 0.9 0.1 0.9 0.1 0.9 0.1 0.9 0.1 0.9 0.1 0.9 0.1 0.9 0.1 0.9 0.1 0.9 0.1 0.9 0.1 0.9 0.1 0.9 0.1 0.9 0.1 0.9 0.1 0.9 0.1 0.9 0.1 0.9 0.1 0.9 0.1 0.9 0.1 0.9 0.1 0.9 0.1 0.9 0.1 0.9 0.1 0.9 0.1 0.9 0.1 0.9 0.1 0.9 0.1 0.9 0.1 0.9 0.1 0.9 0.1 0.9 0.1 0.9 0.1 0.9 0.1 0.9 0.1 0.9 0.1 0.9 0.1 0.9 0.1 0.9 0.1 0.9 0.1 0.9 0.1 0.9 0.1 0.9 0.1 0.9 0.1 0.9 0.1 0.9 0.1 0.9 0.1 0.9 0.1 0.9 0.1 0.9 0.1 0.9 0.1 0.9 0.1 0.9 0.1 0.9 0.1 0.9 0.1 0.9 0.1 0.9 0.1 0.9 0.1 0.9 0.1 0.9 0.1 0.9 0.1 0.9 0.1 0.9 0.1 0.9 0.1 0.9 0.1 0.9 0.1 0.9 0.1 0.9 0.1 0.9 0.1 0.9 0.1 0.9 0.1 0.9 0.1 0.9 0.1 0.9 0.1 0.9 0.1 0.9 0.1 0.9 0.1 0.9 0.1 0.9 0.1 0.9 0.1 0.9 0.1 0.9 0.1 0.9 0.1 0.9 0.1 0.9 0.1 0.9 0.1 0.9 0.1 0.9 0.1 0.9 0.1 0.9 0.1 0.9 0.1 0.9 0.1 0.9 0.1 0.9 0.1 0.9 0.1 0.9 0.1 0.9 0.1 0.9 0.1 0.9 0.1 0.9 0.1 0.9 0.1 0.9 0.1 0.9 0.1 0.9 0.1 0.9 0.1 0.9 0.1 0.9 0.1 0.9 0.1 0.9 0.1 0.9 0.1 0.9 0.1 0.9 0.1 0.9 0.1 0.9 0.1 0.9 0.1 0.9 0.1 0.9 0.1 0.9 0.1 0.9 0.1 0.9 0.1 0.9 0.1 0.9 0.1 0.9 0.1 0.9 0.1 0.9 0.1 0.9 0.1 0.9 0.1 0.9 0.1 0.9 0.1 0.9 0.1 0.9 0.1 0.9 0.1 0.9 0.1 0.9 0.1 0.9 0.1 0.9 0.1 0.9 0.1 0.9 0.1 0.9 0.1 0.9 0.1 0.9 0.1 0.9 0.1 0.9 0.1 0.9 0.1 0.9 0.1 0.9 0.1 0.9 0.1 0.9 0.1 0.9 0.1 0.9 0.1 0.9 0.1 0.9 0.1 0.9 0.1 0.9 0.1 0.9 0.1 0.9 0.1 0.9 0.1 0.9 0.1 0.9 0.1 0.9 0.1 0.9 0.1 0.9 0.1 0.9 0.1 0.9 0.1 0.9 0.1 0.9 0.1 0.9 0.1 0.9 0.1 0.9 0.1 0.9 0.1 0.9 0.1 0.9 0.1 0.9 0.1 0.9 0.1 0.9 0.1 0.9 0.1 0.9 0.1 0.9 0.1 0.9 0.1 0.9 0.1 0.9 0.1 0.9 0.1 0.9 0.1 0.9 0.1 0.9 0.1 0.9 0.1 0.9 0.1 0.9 0.1 0.9 0.1 0.9 0.1 0.9 0.1 0.9 0.1 0.9 0.1 0.9 0.1 0.9 0.1 0.9 0.1 0.9 0.1 0.9 0.1 0.9 0.1 0.9 0.1 0.9 0.1 0.9 0.1 0.9 0.1 0.9 0.1 0.9 0.1 0.6125156420602725 0.3874843579397275 0.9 0.1 0.9 0.1 0.9 0.1 0.9 0.1 0.9 0.1 0.9 0.1 0.9 0.1 0.9 0.1 0.9 0.1 0.9 0.1 0.9 0.1 0.9 0.1 0.9 0.1 0.9 0.1 0.8838701887882158 0.1161298112117843 0.9 0.1 0.9 0.1 0.9 0.1 0.9 0.1 0.9 0.1 0.9 0.1 0.9 0.1 0.9 0.1 0.9 0.1 0.9 0.1 0.9 0.1 0.9 0.1 0.9 0.1 0.9 0.1 0.8962607280260176 0.1037392719739824 0.9 0.1 0.9 0.1 0.9 0.1 0.9 0.1 0.9 0.1 0.9 0.1 0.9 0.1 0.9 0.1 0.9 0.1 0.9 0.1 0.9 0.1 0.9 0.1 0.9 0.1 0.9 0.1 0.8963122951044964 0.1036877048955036 0.9 0.1 0.6130235748288492 0.3869764251711509 0.9 0.1 0.9 0.1 0.9 0.1 0.9 0.1 0.9 0.1 0.9 0.1 0.9 0.1 0.9 0.1 0.9 0.1 0.9 0.1 0.9 0.1 0.9 0.1 0.8963122951044964 0.1036877048955036 0.9 0.1 0.9 0.1 0.9 0.1 0.9 0.1 0.9 0.1 0.9 0.1 0.9 0.1 0.9 0.1 0.9 0.1 0.8990327686647105 0.1009672313352895 0.9 0.1 0.9 0.1 0.9 0.1 0.6 0.4 0.9 0.1 0.8796080407833646 0.1203919592166353 0.8580494835253671 0.1419505164746329 0.9 0.1 0.9 0.1 0.9 0.1 0.9 0.1 0.9 0.1 0.9 0.1 0.9 0.1 0.8997595809925765 0.1002404190074235 0.9 0.1 0.9 0.1 0.6167059264490824 0.3832940735509177 0.9 0.1 0.9 0.1 0.5139335487160918 0.4860664512839083 0.8685349488935463 0.1314650511064538 0.9 0.1 0.9 0.1 0.9 0.1 0.9 0.1 0.9 0.1 0.9 0.1 0.9 0.1 0.8988856827333727 0.1011143172666275 0.9 0.1 0.9 0.1 0.9 0.1 0.9 0.1 0.9 0.1 0.763288760402385 0.236711239597615 0.8441646195035646 0.1558353804964354 0.9 0.1 0.9 0.1 0.9 0.1 0.9 0.1 0.9 0.1 0.9 0.1 0.9 0.1 0.6685434016946565 0.3314565983053436 0.9 0.1 0.6 0.4 0.9 0.1 0.9 0.1 0.6 0.4 0.8623121352160649 0.1376878647839352 0.732437028481071 0.267562971518929 0.9 0.1 0.9 0.1 0.9 0.1 0.9 0.1 0.9 0.1 0.9 0.1 0.9 0.1 0.8999577705477423 0.1000422294522577 0.9 0.1 0.9 0.1 0.9 0.1 0.9 0.1 0.9 0.1 0.8974833815048483 0.1025166184951515 0.8914794026546008 0.1085205973453993 0.9 0.1 0.9 0.1 0.9 0.1 0.9 0.1 0.9 0.1 0.9 0.1 0.9 0.1 0.9 0.1 0.9 0.1 0.9 0.1 0.9 0.1 0.9 0.1 0.8918865307631773 0.1081134692368227 0.9 0.1 0.9 0.1 0.9 0.1 0.9 0.1 0.9 0.1 0.9 0.1 0.9 0.1 0.9 0.1 0.9 0.1 0.9 0.1 0.9 0.1 0.9 0.1 0.9 0.1 0.9 0.1 0.7267043132250456 0.2732956867749544 0.9 0.1 0.9 0.1 0.9 0.1 0.9 0.1 0.9 0.1 0.9 0.1 0.9 0.1 0.9 0.1 0.9 0.1 0.9 0.1 0.9 0.1 0.9333333333333332 0.06666666666666667 0.9 0.1 0.9 0.1 0.8246633357664668 0.1753366642335331 0.9 0.1 0.9 0.1 0.9 0.1 0.9 0.1 0.9 0.1 0.9 0.1 0.9 0.1 0.9 0.1 0.9 0.1 0.9 0.1 0.9 0.1 0.9 0.1 0.9 0.1 0.9 0.1 0.8550941728197957 0.1449058271802042 0.9 0.1 0.9 0.1 0.9 0.1 0.9 0.1 0.9 0.1 0.9 0.1 0.9 0.1 0.9 0.1 0.9 0.1 0.9 0.1 0.9 0.1 0.9 0.1 0.9 0.1 0.9 0.1 0.8979733188957733 0.1020266811042267 0.9 0.1 0.9 0.1 0.9 0.1 0.9 0.1 0.9 0.1 0.9 0.1 0.9 0.1 0.9 0.1 0.9 0.1 0.9 0.1 0.9 0.1 0.9 0.1 0.9 0.1 0.9 0.1 0.8810363181120549 0.1189636818879451 0.9 0.1 0.9 0.1 0.9 0.1 0.9 0.1 0.9 0.1 0.9 0.1 0.9 0.1 0.9 0.1 0.9 0.1 0.9 0.1 0.9 0.1 0.9 0.1 0.9 0.1 0.9 0.1 0.8631983575126125 0.1368016424873875 0.9 0.1 0.9 0.1 0.9 0.1 0.9 0.1 0.9 0.1 0.9 0.1 0.9 0.1 0.9 0.1 0.9 0.1 0.9 0.1 0.9 0.1 0.9 0.1 0.9 0.1 0.9 0.1 0.6476695133476856 0.3523304866523142 0.9 0.1 0.9 0.1 0.9 0.1 0.9 0.1 0.9 0.1 0.9 0.1 0.9 0.1 0.9 0.1 0.9 0.1 0.9 0.1 0.9 0.1 0.9 0.1 0.9 0.1 0.9 0.1 0.8782889004794155 0.1217110995205846 0.9 0.1 0.9 0.1 0.9 0.1 0.9 0.1 0.9 0.1 0.9 0.1 0.9 0.1 0.9 0.1 0.9 0.1 0.9 0.1 0.9 0.1 0.9 0.1 0.9 0.1 0.9 0.1 0.8810363181120549 0.1189636818879451 0.9 0.1 0.9 0.1 0.9 0.1 0.9 0.1 0.9 0.1 0.9 0.1 0.9 0.1 0.9 0.1 0.9 0.1 0.9 0.1 0.9 0.1 0.9 0.1 0.9 0.1 0.9 0.1 0.889817716119948 0.110182283880052 0.9 0.1 0.9 0.1 0.9 0.1 0.9 0.1 0.9 0.1 0.9 0.1 0.9 0.1 0.9 0.1 0.9 0.1 0.9 0.1 0.9 0.1 0.9 0.1 0.9 0.1 0.9 0.1 0.8937310116734498 0.1062689883265502 0.9 0.1 0.9 0.1 0.9 0.1 0.9 0.1 0.9 0.1 0.9 0.1 0.9 0.1 0.9 0.1 0.9 0.1 0.9 0.1 0.9 0.1 0.9 0.1 0.6 0.4 0.9 0.1 0.8792392913148116 0.1207607086851885 0.9 0.1 0.9 0.1 0.9 0.1 0.9 0.1 0.9 0.1 0.9 0.1 0.9 0.1 0.9 0.1 0.9 0.1 0.9 0.1 0.9 0.1 0.9 0.1 0.9 0.1 0.6 0.4 0.6184959373830001 0.3815040626169999 0.9 0.1 0.9 0.1 0.9 0.1 0.9 0.1 0.9 0.1 0.9 0.1 0.9 0.1 0.9 0.1 0.9 0.1 0.9 0.1 0.9333333333333332 0.06666666666666667 0.9 0.1 0.9 0.1 0.9 0.1 0.8974982996507674 0.1025017003492327 0.9 0.1 0.9 0.1 0.9 0.1 0.9 0.1 0.9 0.1 0.9 0.1 0.9 0.1 0.9 0.1 0.9314273672574326 0.06857263274256746 0.9 0.1 0.9 0.1 0.9 0.1 0.9 0.1 0.9 0.1 0.9 0.1 0.9 0.1 0.9 0.1 0.9 0.1 0.9 0.1 0.9 0.1 0.9 0.1 0.9 0.1 0.9 0.1 0.8379287275884636 0.1620712724115363 0.9 0.1 0.9 0.1 0.9 0.1 0.9 0.1 0.9 0.1 0.9 0.1 0.9333333333333332 0.06666666666666667 0.9 0.1 0.9 0.1 0.9 0.1 0.9 0.1 0.9 0.1 0.9 0.1 0.9 0.1 0.7354439962950461 0.2645560037049539 0.9 0.1 0.9 0.1 0.9 0.1 0.9 0.1 0.9 0.1 0.9 0.1 0.9 0.1 0.9 0.1 0.9 0.1 0.9 0.1 0.9 0.1 0.9 0.1 0.9 0.1 0.9 0.1 0.8848915249886387 0.1151084750113614 0.9 0.1 0.9333333333333332 0.06666666666666667 0.9 0.1 0.9 0.1 0.9 0.1 0.9 0.1 0.9 0.1 0.9 0.1 0.9 0.1 0.9 0.1 0.9 0.1 0.9 0.1 0.9 0.1 0.9 0.1 0.8980532470610765 0.1019467529389236 0.9 0.1 0.9 0.1 0.9 0.1 0.9 0.1 0.9 0.1 0.9 0.1 0.9 0.1 0.9 0.1 0.9 0.1 0.9 0.1 0.9 0.1 0.9 0.1 0.9 0.1 0.9 0.1 0.6174052263937302 0.3825947736062698 0.9 0.1 0.9 0.1 0.9 0.1 0.9 0.1 0.9 0.1 0.9 0.1 0.9 0.1 0.9 0.1 0.9 0.1 0.9 0.1 0.9 0.1 0.9 0.1 0.9 0.1 0.9 0.1 0.8713628321712122 0.128637167828788 0.6 0.4 0.9 0.1 0.9 0.1 0.9 0.1 0.9 0.1 0.9 0.1 0.9 0.1 0.9 0.1 0.9 0.1 0.9 0.1 0.9 0.1 0.9 0.1 0.9 0.1 0.9 0.1 0.897182372067182 0.1028176279328181 0.9 0.1 0.9 0.1 0.9 0.1 0.9 0.1 0.9 0.1 0.9 0.1 0.9 0.1 0.9 0.1 0.9 0.1 0.9 0.1 0.9 0.1 0.9 0.1 0.9 0.1 0.9 0.1 0.897182372067182 0.1028176279328181 0.9 0.1 0.9 0.1 0.9 0.1 0.9149168825192444 0.08508311748075553 0.9 0.1 0.9 0.1 0.9 0.1 0.9293888173977107 0.07061118260228917 0.9118365006725258 0.08816349932747426 0.9 0.1 0.9 0.1 0.9 0.1 0.9 0.1 0.9098427560907295 0.09015724390927049 0.897182372067182 0.1028176279328181 0.9 0.1 0.9 0.1 0.9 0.1 0.9 0.1 0.9 0.1 0.9 0.1 0.9 0.1 0.9 0.1 0.9 0.1 0.9 0.1 0.9 0.1 0.9 0.1 0.9 0.1 0.9 0.1 0.9 0.1 0.9 0.1 0.9 0.1 0.9 0.1 0.9 0.1 0.9 0.1 0.9 0.1 0.9 0.1 0.9 0.1 0.9 0.1 0.9 0.1 0.9 0.1 0.9 0.1 0.9 0.1 0.9 0.1 0.9294445897970609 0.07055541020293908 0.9 0.1 0.9 0.1 0.9 0.1 0.9 0.1 0.9 0.1 0.9 0.1 0.9 0.1 0.9 0.1 0.9 0.1 0.9 0.1 0.9 0.1 0.9 0.1 0.9 0.1 0.9 0.1 0.9 0.1 0.9 0.1 0.9 0.1 0.9 0.1 0.9 0.1 0.9 0.1 0.9 0.1 0.9 0.1 0.9 0.1 0.9 0.1 0.9 0.1 0.9 0.1 0.9 0.1 0.9 0.1 0.9 0.1 0.9 0.1 0.9 0.1 0.9 0.1 0.9 0.1 0.9 0.1 0.9 0.1 0.9 0.1 0.9 0.1 0.9 0.1 0.9 0.1 0.9 0.1 0.9 0.1 0.9 0.1 0.9 0.1 0.9 0.1 0.9 0.1 0.9 0.1 0.9 0.1 0.9 0.1 0.9 0.1 0.9 0.1 0.9 0.1 0.9 0.1 0.9 0.1 0.9 0.1 0.9 0.1 0.9 0.1 0.9 0.1 0.9 0.1 0.9 0.1 0.9 0.1 0.9 0.1 0.9 0.1 0.9 0.1 0.9 0.1 0.9 0.1 0.9 0.1 0.8889427864461158 0.1110572135538843 0.9 0.1 0.9 0.1 0.9 0.1 0.9 0.1 0.9 0.1 0.9 0.1 0.9 0.1 0.9 0.1 0.9 0.1 0.9 0.1 0.9 0.1 0.9 0.1 0.9 0.1 0.9 0.1 0.7283942005234333 0.2716057994765667 0.9 0.1 0.9 0.1 0.9 0.1 0.9 0.1 0.9 0.1 0.9 0.1 0.9 0.1 0.9 0.1 0.9 0.1 0.9 0.1 0.9 0.1 0.9 0.1 0.9 0.1 0.9 0.1 0.8926924081104793 0.1073075918895207 0.9 0.1 0.9 0.1 0.9 0.1 0.9 0.1 0.9 0.1 0.9 0.1 0.9 0.1 0.9 0.1 0.9 0.1 0.9 0.1 0.9 0.1 0.9 0.1 0.9 0.1 0.9 0.1 0.7283942005234333 0.2716057994765667 0.9 0.1 0.9 0.1 0.9 0.1 0.9 0.1 0.9 0.1 0.9 0.1 0.9 0.1 0.9 0.1 0.9 0.1 0.9 0.1 0.9 0.1 0.9 0.1 0.9 0.1 0.9 0.1 0.8926924081104793 0.1073075918895207 0.9 0.1 0.9 0.1 0.9 0.1 0.9 0.1 0.9 0.1 0.9 0.1 0.9 0.1 0.8928997481978448 0.1071002518021552 0.9 0.1 0.9 0.1 0.9 0.1 0.9 0.1 0.9 0.1 0.9 0.1 0.9 0.1 0.8943596595217357 0.1056403404782643 0.9 0.1 0.9 0.1 0.9 0.1 0.9 0.1 0.9 0.1 0.9 0.1 0.7404365693130355 0.2595634306869645 0.9 0.1 0.9 0.1 0.9 0.1 0.9 0.1 0.9 0.1 0.9 0.1 0.9 0.1 0.8761956739705781 0.1238043260294219 0.9 0.1 0.9 0.1 0.9 0.1 0.9 0.1 0.9 0.1 0.9 0.1 0.892769544420388 0.1072304555796118 0.9 0.1 0.9 0.1 0.9 0.1 0.9 0.1 0.9 0.1 0.9 0.1 0.9 0.1 0.8735247015058332 0.1264752984941669 0.9 0.1 0.9 0.1 0.9 0.1 0.9 0.1 0.9 0.1 0.9 0.1 0.7404365693130355 0.2595634306869645 0.9 0.1 0.9 0.1 0.9 0.1 0.9 0.1 0.9 0.1 0.9 0.1 0.9 0.1 0.6294100412782928 0.3705899587217072 0.9 0.1 0.9 0.1 0.9 0.1 0.9 0.1 0.9 0.1 0.9 0.1 0.8928997481978448 0.1071002518021552 0.9 0.1 0.9 0.1 0.9 0.1 0.9 0.1 0.9 0.1 0.9 0.1 0.9 0.1 0.8943596595217357 0.1056403404782643 0.9 0.1 0.9 0.1 0.9 0.1 0.9 0.1 0.9 0.1 0.9 0.1 0.888611872947664 0.1113881270523361 0.893835907493198 0.1061640925068019 0.9 0.1 0.9 0.1 0.8608193382483068 0.1391806617516931 0.9 0.1 0.9 0.1 0.9 0.1 0.8807870053704189 0.1192129946295812 0.8360637968798665 0.1639362031201336 0.9 0.1 0.9 0.1 0.9 0.1 0.9 0.1 0.9 0.1 0.7641526561335885 0.2358473438664117 0.8977918315023375 0.1022081684976623 0.9333333333333332 0.06666666666666667 0.9 0.1 0.6927077293177013 0.3072922706822988 0.9201648496882019 0.07983515031179809 0.9 0.1 0.9 0.1 0.8725820199823318 0.1274179800176682 0.7051884917191495 0.2948115082808504 0.9038817982166498 0.0961182017833502 0.9 0.1 0.9 0.1 0.9 0.1 0.9 0.1 0.85428406458252 0.14571593541748 0.9291173203956323 0.07088267960436767 0.9 0.1 0.9 0.1 0.8082625981662332 0.1917374018337666 0.9 0.1 0.9 0.1 0.9 0.1 0.4787316412860179 0.5212683587139821 0.8127099269676067 0.1872900730323933 0.9 0.1 0.9 0.1 0.9 0.1 0.9 0.1 0.9 0.1 0.656773431585987 0.3432265684140129 0.4538143770111852 0.5461856229888148 0.9 0.1 0.9 0.1 0.9188586652780437 0.08114133472195627 0.9233725852701188 0.07662741472988122 0.9169613715715113 0.08303862842848869 0.9045808201311357 0.09541917986886432 0.8638322753674454 0.1361677246325546 0.9216031359434763 0.07839686405652366 0.9028745505090366 0.09712544949096324 0.9 0.1 0.9 0.1 0.9 0.1 0.9 0.1 0.8936827420771862 0.1063172579228138 0.8994171452759323 0.1005828547240677 0.9 0.1 0.9 0.1 0.8839940643431834 0.1160059356568166 0.9 0.1 0.9 0.1 0.9 0.1 0.895638799826927 0.1043612001730729 0.8844181184656275 0.1155818815343725 0.9 0.1 0.9 0.1 0.9 0.1 0.9 0.1 0.9 0.1 0.9 0.1 0.9 0.1 0.9 0.1 0.9 0.1 0.9 0.1 0.9 0.1 0.9 0.1 0.9 0.1 0.9019202746953662 0.09807972530463373 0.9 0.1 0.9 0.1 0.9 0.1 0.9 0.1 0.9 0.1 0.9 0.1 0.9 0.1 0.9293888173977107 0.07061118260228917 0.9 0.1 0.9 0.1 0.9 0.1 0.9 0.1 0.6 0.4 0.9 0.1 0.907821843148588 0.09217815685141195 0.9 0.1 0.9 0.1 0.9 0.1 0.9 0.1 0.9 0.1 0.9 0.1 0.9 0.1 0.9333333333333332 0.06666666666666667 0.9 0.1 0.9 0.1 0.9 0.1 0.9 0.1 0.6 0.4 0.9333333333333332 0.06666666666666667 0.9183601019735926 0.08163989802640731 0.9 0.1 0.9 0.1 0.9 0.1 0.9 0.1 0.9 0.1 0.9 0.1 0.9 0.1 0.9 0.1 0.9 0.1 0.9 0.1 0.9 0.1 0.9 0.1 0.9 0.1 0.9 0.1 0.9399650937616892 0.06003490623831064 0.9 0.1 0.9 0.1 0.9 0.1 0.9 0.1 0.9 0.1 0.9 0.1 0.9 0.1 0.9 0.1 0.9 0.1 0.9 0.1 0.9 0.1 0.9 0.1 0.9 0.1 0.9 0.1 0.9004952028577272 0.09950479714227289 0.9 0.1 0.9 0.1 0.9 0.1 0.9 0.1 0.9 0.1 0.9 0.1 0.9 0.1 0.9 0.1 0.9 0.1 0.9 0.1 0.9 0.1 0.9 0.1 0.9 0.1 0.9 0.1 0.9 0.1 0.9 0.1 0.9 0.1 0.9 0.1 0.9 0.1 0.9 0.1 0.9 0.1 0.9 0.1 0.9 0.1 0.9 0.1 0.9 0.1 0.9 0.1 0.9 0.1 0.9 0.1 0.9 0.1 0.9 0.1 0.9 0.1 0.9 0.1 0.9 0.1 0.9 0.1 0.9 0.1 0.9 0.1 0.9 0.1 0.9 0.1 0.9 0.1 0.9 0.1 0.9 0.1 0.9 0.1 0.9 0.1 0.9 0.1 0.9 0.1 0.9 0.1 0.9 0.1 0.9 0.1 0.9 0.1 0.9 0.1 0.9 0.1 0.9 0.1 0.9 0.1 0.9 0.1 0.9 0.1 0.9 0.1 0.9 0.1 0.9 0.1 0.6130235748288492 0.3869764251711509 0.9 0.1 0.9 0.1 0.9 0.1 0.9 0.1 0.9 0.1 0.9 0.1 0.9 0.1 0.9 0.1 0.9 0.1 0.9 0.1 0.9 0.1 0.9 0.1 0.9 0.1 0.9 0.1 0.9 0.1 0.9 0.1 0.9 0.1 0.9 0.1 0.9 0.1 0.9 0.1 0.9 0.1 0.9 0.1 0.9 0.1 0.9 0.1 0.9 0.1 0.9333333333333332 0.06666666666666667 0.9006921730343042 0.09930782696569584 0.9006694271489983 0.09933057285100154 0.9012469778247036 0.09875302217529622 0.9001229331703304 0.09987706682966968 0.8854425472319853 0.1145574527680146 0.900147859619837 0.09985214038016291 0.9 0.1 0.9 0.1 0.9 0.1 0.9 0.1 0.9 0.1 0.9 0.1 0.9 0.1 0.9 0.1 0.9 0.1 0.9057254833787957 0.09427451662120429 0.9028044217332946 0.09719557826670533 0.6022085639997695 0.3977914360002305 0.9001229331703304 0.09987706682966968 0.891253208754845 0.1087467912451549 0.9012619951176752 0.09873800488232477 0.9 0.1 0.9 0.1 0.9 0.1 0.9 0.1 0.9 0.1 0.9 0.1 0.9 0.1 0.9 0.1 0.9 0.1 0.9140785569086733 0.08592144309132649 0.9011447859028676 0.09885521409713247 0.9030955751955086 0.09690442480449125 0.9023303226594003 0.09766967734059971 0.8911903343060974 0.1088096656939026 0.9032935803331241 0.09670641966687579 0.9 0.1 0.9 0.1 0.9 0.1 0.9 0.1 0.9 0.1 0.9 0.1 0.6 0.4 0.9 0.1 0.9 0.1 0.9150230408870981 0.08497695911290183 0.9037364153037868 0.09626358469621316 0.9040708273691922 0.09592917263080786 0.9016908076316051 0.09830919236839472 0.6501891639644359 0.3498108360355641 0.903554450559562 0.09644554944043802 0.9 0.1 0.9 0.1 0.9 0.1 0.9 0.1 0.9 0.1 0.9 0.1 0.9 0.1 0.9333333333333332 0.06666666666666667 0.9 0.1 0.9006921730343042 0.09930782696569584 0.9006694271489983 0.09933057285100154 0.9003541826927979 0.09964581730720201 0.9007598405320787 0.09924015946792121 0.8855439822272447 0.1144560177727553 0.900147859619837 0.09985214038016291 0.9 0.1 0.9 0.1 0.9 0.1 0.9 0.1 0.9 0.1 0.9 0.1 0.9 0.1 0.9 0.1 0.9 0.1 0.9 0.1 0.9 0.1 0.9 0.1 0.9 0.1 0.9 0.1 0.9 0.1 0.9 0.1 0.9 0.1 0.9 0.1 0.9 0.1 0.9 0.1 0.9 0.1 0.9 0.1 0.9 0.1 0.9201412786238543 0.07985872137614564 0.9 0.1 0.9 0.1 0.9 0.1 0.9 0.1 0.91329433999555 0.08670566000444996 0.9 0.1 0.9 0.1 0.9 0.1 0.9 0.1 0.9009922324189124 0.09900776758108751 0.9 0.1 0.9 0.1 0.9333333333333332 0.06666666666666667 0.9 0.1 0.9 0.1 0.9 0.1 0.9 0.1 0.76 0.24 0.9333333333333332 0.06666666666666667 0.9 0.1 0.9 0.1 0.9 0.1 0.9 0.1 0.9 0.1 0.9 0.1 0.9 0.1 0.9 0.1 0.9 0.1 0.9 0.1 0.9 0.1 0.9 0.1 0.9 0.1 0.9 0.1 0.9 0.1 0.9 0.1 0.9293888173977107 0.07061118260228917 0.9 0.1 0.9 0.1 0.9 0.1 0.9 0.1 0.9 0.1 0.9 0.1 0.9 0.1 0.9 0.1 0.9 0.1 0.9 0.1 0.9 0.1 0.9 0.1 0.9 0.1 0.9 0.1 0.9 0.1 0.9 0.1 0.9 0.1 0.9 0.1 0.9 0.1 0.9 0.1 0.9 0.1 0.9 0.1 0.9 0.1 0.9 0.1 0.9 0.1 0.9 0.1 0.9 0.1 0.9 0.1 0.9077315195303709 0.09226848046962904 0.9 0.1 0.9 0.1 0.9 0.1 0.9 0.1 0.9 0.1 0.9 0.1 0.9 0.1 0.9 0.1 0.9 0.1 0.9 0.1 0.9 0.1 0.9333333333333332 0.06666666666666667 0.9 0.1 0.9 0.1 0.9333333333333332 0.06666666666666667 0.9 0.1 0.9 0.1 0.9 0.1 0.9 0.1 0.9 0.1 0.9 0.1 0.9 0.1 0.9 0.1 0.9 0.1 0.9 0.1 0.9 0.1 0.9 0.1 0.9 0.1 0.9 0.1 0.8722052365581521 0.1277947634418479 0.9 0.1 0.9 0.1 0.9 0.1 0.9 0.1 0.9 0.1 0.9 0.1 0.9 0.1 0.9 0.1 0.9 0.1 0.9 0.1 0.8722052365581521 0.1277947634418479 0.9 0.1 0.9 0.1 0.9 0.1 0.9 0.1 0.9 0.1 0.9 0.1 0.9 0.1 0.9 0.1 0.9 0.1 0.9 0.1 0.9 0.1 0.9 0.1 0.9 0.1 0.9 0.1 0.8722052365581521 0.1277947634418479 0.9 0.1 0.9 0.1 0.9 0.1 0.9 0.1 0.9 0.1 0.9 0.1 0.9 0.1 0.9 0.1 0.9 0.1 0.9 0.1 0.9 0.1 0.9043598353080194 0.09564016469198056 0.9 0.1 0.9 0.1 0.9 0.1 0.9 0.1 0.9 0.1 0.9 0.1 0.9 0.1 0.9 0.1 0.9 0.1 0.9 0.1 0.9 0.1 0.9 0.1 0.9 0.1 0.9 0.1 0.9016503312776919 0.09834966872230815 0.9 0.1 0.9 0.1 0.6 0.4 0.9 0.1 0.9 0.1 0.9 0.1 0.9 0.1 0.9 0.1 0.9 0.1 0.9 0.1 0.9 0.1 0.9 0.1 0.9 0.1 0.9 0.1 0.9016503312776919 0.09834966872230815 0.9 0.1 0.9 0.1 0.9 0.1 0.9 0.1 0.9 0.1 0.9 0.1 0.9 0.1 0.9 0.1 0.9 0.1 0.9 0.1 0.9 0.1 0.9 0.1 0.9 0.1 0.8931383959767055 0.1068616040232944 0.9002758674171586 0.09972413258284135 0.6 0.4 0.9 0.1 0.9 0.1 0.878455395881069 0.1215446041189309 0.9 0.1 0.9 0.1 0.9 0.1 0.9 0.1 0.8990469528532966 0.1009530471467033 0.9 0.1 0.9 0.1 0.9 0.1 0.9 0.1 0.9 0.1 0.9002758674171586 0.09972413258284135 0.9 0.1 0.9 0.1 0.9 0.1 0.9 0.1 0.9 0.1 0.9 0.1 0.9 0.1 0.9 0.1 0.9 0.1 0.9 0.1 0.9 0.1 0.9 0.1 0.9 0.1 0.9 0.1 0.9 0.1 0.9 0.1 0.9 0.1 0.9 0.1 0.9 0.1 0.9 0.1 0.9 0.1 0.9 0.1 0.9 0.1 0.9 0.1 0.9 0.1 0.9 0.1 0.9 0.1 0.9 0.1 0.9 0.1 0.9 0.1 0.9 0.1 0.9 0.1 0.9 0.1 0.9 0.1 0.9 0.1 0.9 0.1 0.9 0.1 0.9 0.1 0.9 0.1 0.9 0.1 0.9 0.1 0.9 0.1 0.9 0.1 0.9 0.1 0.9077315195303709 0.09226848046962904 0.9 0.1 0.9 0.1 0.9 0.1 0.9 0.1 0.9 0.1 0.9 0.1 0.9 0.1 0.9 0.1 0.9 0.1 0.9 0.1 0.9 0.1 0.9 0.1 0.9 0.1 0.9 0.1 0.9 0.1 0.9 0.1 0.9 0.1 0.9 0.1 0.9 0.1 0.9 0.1 0.9 0.1 0.9 0.1 0.9 0.1 0.9 0.1 0.9 0.1 0.9 0.1 0.9 0.1 0.9 0.1 0.9 0.1 0.9 0.1 0.9 0.1 0.9 0.1 0.9 0.1 0.9 0.1 0.9 0.1 0.9 0.1 0.9 0.1 0.9 0.1 0.9 0.1 0.9 0.1 0.9 0.1 0.9 0.1 0.9 0.1 0.9 0.1 0.9 0.1 0.9 0.1 0.9 0.1 0.9 0.1 0.9 0.1 0.9 0.1 0.9 0.1 0.9 0.1 0.8972961519849332 0.1027038480150667 0.9 0.1 0.9 0.1 0.9 0.1 0.9 0.1 0.9 0.1 0.9 0.1 0.9 0.1 0.9 0.1 0.9 0.1 0.9 0.1 0.9 0.1 0.9 0.1 0.9 0.1 0.9 0.1 0.8972961519849332 0.1027038480150667 0.9 0.1 0.9 0.1 0.9 0.1 0.9 0.1 0.9 0.1 0.9 0.1 0.9 0.1 0.9 0.1 0.9 0.1 0.9 0.1 0.9 0.1 0.9 0.1 0.9 0.1 0.9 0.1 0.8970179687483631 0.1029820312516369 0.8972144802247225 0.1027855197752776 0.8976811263386258 0.1023188736613742 0.6126657171238499 0.38733428287615 0.8945799880453487 0.1054200119546512 0.8829908090146223 0.1170091909853776 0.9 0.1 0.9 0.1 0.9 0.1 0.9 0.1 0.9 0.1 0.9 0.1 0.9 0.1 0.9 0.1 0.9158209228513198 0.08417907714868006 0.899355681216408 0.1006443187835921 0.9 0.1 0.9 0.1 0.9 0.1 0.9 0.1 0.9 0.1 0.9 0.1 0.9 0.1 0.9 0.1 0.9 0.1 0.9 0.1 0.9 0.1 0.9 0.1 0.9 0.1 0.9 0.1 0.8765083509542185 0.1234916490457815 0.9 0.1 0.9 0.1 0.9 0.1 0.9 0.1 0.9 0.1 0.9 0.1 0.9078744589962369 0.09212554100376319 0.9 0.1 0.9 0.1 0.9 0.1 0.9 0.1 0.9 0.1 0.9 0.1 0.9043391422738229 0.09566085772617709 0.8966770467725614 0.1033229532274385 0.9 0.1 0.9 0.1 0.9 0.1 0.9 0.1 0.9 0.1 0.9 0.1 0.9 0.1 0.9 0.1 0.9 0.1 0.8806027938363685 0.1193972061636316 0.9 0.1 0.9 0.1 0.6 0.4 0.8746639253121409 0.1253360746878591 0.8575871096480532 0.1424128903519468 0.9 0.1 0.9 0.1 0.9 0.1 0.9 0.1 0.9 0.1 0.9 0.1 0.9 0.1 0.9 0.1 0.8806442534992851 0.1193557465007149 0.9142782378274588 0.08572176217254117 0.571736738300035 0.428263261699965 0.9 0.1 0.9 0.1 0.8650083484684716 0.1349916515315284 0.8956220312206857 0.1043779687793142 0.9 0.1 0.9 0.1 0.9 0.1 0.9 0.1 0.9 0.1 0.9 0.1 0.9 0.1 0.45 0.55 0.9 0.1 0.9037400980940435 0.09625990190595639 0.9077315195303709 0.09226848046962904 0.9 0.1 0.9 0.1 0.9065652111526974 0.09343478884730259 0.9026437259661538 0.09735627403384629 0.9 0.1 0.9 0.1 0.9 0.1 0.9 0.1 0.9000899377122416 0.09991006228775845 0.9 0.1 0.9 0.1 0.9 0.1 0.9 0.1 0.9 0.1 0.9 0.1 0.9 0.1 0.9 0.1 0.899009492498792 0.100990507501208 0.8990691121686439 0.1009308878313562 0.9 0.1 0.9 0.1 0.9 0.1 0.9 0.1 0.9 0.1 0.9 0.1 0.9 0.1 0.9 0.1 0.9 0.1 0.9 0.1 0.9 0.1 0.9 0.1 0.9 0.1 0.9019154378974175 0.09808456210258239 0.9 0.1 0.9004144487302167 0.09958555126978336 0.9006584821284687 0.09934151787153141 0.900101984053633 0.09989801594636701 0.9004831840205118 0.09951681597948825 0.900204635087822 0.09979536491217801 0.9 0.1 0.9 0.1 0.9 0.1 0.9078793353060346 0.0921206646939655 0.9 0.1 0.9 0.1 0.9 0.1 0.9 0.1 0.9078031041416783 0.09219689585832165 0.8789677267740426 0.1210322732259574 0.9022064691236809 0.09779353087631912 0.9062468988875234 0.09375310111247658 0.9011562504804544 0.09884374951954542 0.9020416820835607 0.09795831791643927 0.9007511295805403 0.09924887041945968 0.9 0.1 0.6 0.4 0.9 0.1 0.9 0.1 0.8789677267740426 0.1210322732259574 0.9 0.1 0.9 0.1 0.9 0.1 0.9236198609527717 0.07638013904722829 0.8549811800098953 0.1450188199901047 0.9022678807534908 0.09773211924650904 0.9081424348267625 0.09185756517323743 0.9018580244255823 0.09814197557441769 0.9050307255470078 0.09496927445299215 0.9012345555488571 0.09876544445114298 0.6347782162219114 0.3652217837780885 0.9 0.1 0.9 0.1 0.9333333333333332 0.06666666666666667 0.9 0.1 0.7544576198369569 0.245542380163043 0.9 0.1 0.6 0.4 0.9141826390689547 0.08581736093104525 0.9 0.1 0.9017402156075902 0.09825978439240982 0.9027733059465486 0.09722669405345141 0.9034009200501918 0.09659907994980821 0.9037704934564557 0.0962295065435444 0.9008398450806215 0.09916015491937841 0.9 0.1 0.9 0.1 0.9 0.1 0.9 0.1 0.9 0.1 0.9 0.1 0.9 0.1 0.9333333333333332 0.06666666666666667 0.9004939413603704 0.09950605863962958 0.9 0.1 0.9005947688775572 0.0994052311224428 0.9001739217748329 0.09982607822516701 0.9006306980666036 0.09936930193339646 0.900123555495878 0.09987644450412209 0.900168118277835 0.09983188172216499 0.9 0.1 0.9 0.1 0.9 0.1 0.9 0.1 0.9 0.1 0.9 0.1 0.9 0.1 0.9 0.1 0.9 0.1 0.9 0.1 0.9 0.1 0.9 0.1 0.8869785969504071 0.1130214030495928 0.9 0.1 0.9 0.1 0.9 0.1 0.9 0.1 0.9 0.1 0.9 0.1 0.9 0.1 0.9 0.1 0.9 0.1 0.9 0.1 0.9 0.1 0.9 0.1 0.9 0.1 0.9 0.1 0.8153244613382371 0.1846755386617629 0.9 0.1 0.9 0.1 0.9 0.1 0.9 0.1 0.9 0.1 0.9 0.1 0.9 0.1 0.8805688771797796 0.1194311228202203 0.9 0.1 0.9333333333333332 0.06666666666666667 0.9077315195303709 0.09226848046962904 0.9 0.1 0.9 0.1 0.9 0.1 0.8345126948136947 0.1654873051863053 0.9 0.1 0.9 0.1 0.9 0.1 0.9 0.1 0.9 0.1 0.9 0.1 0.9 0.1 0.9 0.1 0.9 0.1 0.9 0.1 0.9077315195303709 0.09226848046962904 0.9 0.1 0.9 0.1 0.9 0.1 0.6985896168201319 0.3014103831798682 0.9 0.1 0.9 0.1 0.9 0.1 0.9 0.1 0.9 0.1 0.9 0.1 0.9 0.1 0.9 0.1 0.9 0.1 0.9 0.1 0.9 0.1 0.9 0.1 0.9 0.1 0.9 0.1 0.8869785969504071 0.1130214030495928 0.9 0.1 0.9 0.1 0.9 0.1 0.9 0.1 0.9 0.1 0.9 0.1 0.9 0.1 0.9 0.1 0.9 0.1 0.9 0.1 0.9077315195303709 0.09226848046962904 0.8989411209318454 0.1010588790681547 0.9 0.1 0.9 0.1 0.9 0.1 0.9 0.1 0.9 0.1 0.9 0.1 0.9 0.1 0.9 0.1 0.8806838002729597 0.1193161997270404 0.9 0.1 0.9077315195303709 0.09226848046962904 0.9 0.1 0.9 0.1 0.9 0.1 0.8897654439219361 0.1102345560780637 0.9 0.1 0.9 0.1 0.9 0.1 0.9 0.1 0.9 0.1 0.9 0.1 0.9 0.1 0.9 0.1 0.8712028847708942 0.1287971152291058 0.9 0.1 0.9 0.1 0.9 0.1 0.9248405556858007 0.07515944431419933 0.9 0.1 0.8628822106885091 0.1371177893114909 0.9 0.1 0.9 0.1 0.9 0.1 0.9 0.1 0.9 0.1 0.9369497050870971 0.06305029491290297 0.9 0.1 0.9 0.1 0.9 0.1 0.9 0.1 0.9 0.1 0.9 0.1 0.9 0.1 0.5621611497150754 0.4378388502849245 0.4277712519184437 0.5722287480815563 0.9 0.1 0.9 0.1 0.9 0.1 0.9 0.1 0.9 0.1 0.9 0.1 0.9 0.1 0.9 0.1 0.9 0.1 0.9 0.1 0.9 0.1 0.9 0.1 0.9 0.1 0.9 0.1 0.8989411209318454 0.1010588790681547 0.9 0.1 0.9 0.1 0.9 0.1 0.9 0.1 0.9 0.1 0.9 0.1 0.9011315145267969 0.09886848547320316 0.9 0.1 0.9 0.1 0.9 0.1 0.8967571674190667 0.1032428325809334 0.9 0.1 0.8931397980924263 0.1068602019075737 0.8825397748548041 0.117460225145196 0.9 0.1 0.9 0.1 0.9 0.1 0.9 0.1 0.9 0.1 0.9 0.1 0.9333333333333332 0.06666666666666667 0.9031159425636053 0.09688405743639472 0.9 0.1 0.9 0.1 0.9 0.1 0.8838984999260313 0.1161015000739687 0.9 0.1 0.8698177819612427 0.1301822180387572 0.8173699736497706 0.1826300263502294 0.8722052365581521 0.1277947634418479 0.9 0.1 0.9 0.1 0.9 0.1 0.9 0.1 0.9 0.1 0.9 0.1 0.9022874358774591 0.09771256412254103 0.9 0.1 0.9217614655720985 0.07823853442790139 0.9 0.1 0.5303409693051624 0.4696590306948376 0.8721383771925196 0.1278616228074803 0.6048231904576219 0.3951768095423782 0.7248358965064117 0.2751641034935882 0.8720616981937098 0.1279383018062902 0.9 0.1 0.9 0.1 0.9 0.1 0.902021043053142 0.09797895694685795 0.9 0.1 0.9 0.1 0.9024246954661538 0.09757530453384623 0.9 0.1 0.9 0.1 0.9077799722838704 0.09222002771612955 0.8890639303931426 0.1109360696068574 0.9 0.1 0.8460549530105038 0.1539450469894961 0.7987562827020009 0.2012437172979991 0.8722052365581521 0.1277947634418479 0.6 0.4 0.9 0.1 0.9 0.1 0.9 0.1 0.9 0.1 0.9 0.1 0.8741446666509506 0.1258553333490494 0.9 0.1 0.9 0.1 0.9 0.1 0.8984961228947285 0.1015038771052716 0.9 0.1 0.8954578436062198 0.1045421563937802 0.8906842897085036 0.1093157102914965 0.9 0.1 0.9 0.1 0.9 0.1 0.9 0.1 0.9 0.1 0.9 0.1 0.9 0.1 0.9 0.1 0.9 0.1 0.9 0.1 0.9034163769232562 0.09658362307674373 0.9 0.1 0.9 0.1 0.9 0.1 0.9 0.1 0.9062172132086274 0.0937827867913726 0.9 0.1 0.9 0.1 0.9 0.1 0.9 0.1 0.904526549212465 0.09547345078753489 0.9 0.1 0.9 0.1 0.9 0.1 0.9 0.1 0.901502130658975 0.09849786934102511 0.9 0.1 0.9 0.1 0.9 0.1 0.9 0.1 0.9027697319606264 0.09723026803937358 0.9 0.1 0.9 0.1 0.9 0.1 0.9 0.1 0.902000528507243 0.09799947149275699 0.9 0.1 0.9 0.1 0.9 0.1 0.9 0.1 0.9014725222467137 0.09852747775328628 0.9 0.1 0.9 0.1 0.9 0.1 0.9 0.1 0.9027156685405677 0.09728433145943238 0.9 0.1 0.9 0.1 0.9 0.1 0.9 0.1 0.9019612461376632 0.09803875386233682 0.9 0.1 0.9 0.1 0.9 0.1 0.9 0.1 0.9036985057138293 0.09630149428617073 0.9 0.1 0.9 0.1 0.9 0.1 0.9 0.1 0.906717943464026 0.09328205653597382 0.9 0.1 0.9 0.1 0.9 0.1 0.9 0.1 0.9048967270814579 0.09510327291854209 0.9 0.1 0.9 0.1 0.9 0.1 0.9 0.1 0.9014524883390094 0.09854751166099057 0.9 0.1 0.9 0.1 0.9 0.1 0.9 0.1 0.9026790849177634 0.09732091508223645 0.9 0.1 0.9 0.1 0.9 0.1 0.9 0.1 0.901934665808665 0.09806533419133494 0.9 0.1 0.9 0.1 0.9 0.1 0.9 0.1 0.9 0.1 0.9 0.1 0.9 0.1 0.9 0.1 0.9 0.1 0.9 0.1 0.9 0.1 0.9 0.1 0.9 0.1 0.9 0.1 0.9 0.1 0.9 0.1 0.9 0.1 0.9 0.1 0.9 0.1 0.9 0.1 0.9 0.1 0.9 0.1 0.9 0.1 0.9 0.1 0.9 0.1 0.9 0.1 0.9 0.1 0.9 0.1 0.9 0.1 0.9 0.1 0.9 0.1 0.9 0.1 0.9 0.1 0.9 0.1 0.9 0.1 0.9 0.1 0.9 0.1 0.9 0.1 0.9 0.1 0.9 0.1 0.9 0.1 0.9 0.1 0.9 0.1 0.9 0.1 0.9 0.1 0.9 0.1 0.9 0.1 0.9 0.1 0.9 0.1 0.9 0.1 0.9 0.1 0.9 0.1 0.9 0.1 0.9 0.1 0.9 0.1 0.9 0.1 0.9 0.1 0.9 0.1 0.9 0.1 0.9 0.1 0.9 0.1 0.9 0.1 0.9 0.1 0.9 0.1 0.9 0.1 0.9 0.1 0.9 0.1 0.9 0.1 0.9 0.1 0.9 0.1 0.9 0.1 0.9 0.1 0.9 0.1 0.9 0.1 0.9 0.1 0.9 0.1 0.9 0.1 0.9 0.1 0.9 0.1 0.9 0.1 0.9 0.1 0.9 0.1 0.9 0.1 0.9 0.1 0.9 0.1 0.9 0.1 0.9 0.1 0.9 0.1 0.9 0.1 0.9 0.1 0.9 0.1 0.9 0.1 0.9 0.1 0.9 0.1 0.9 0.1 0.9 0.1 0.9 0.1 0.9 0.1 0.9 0.1 0.9 0.1 0.9 0.1 0.9 0.1 0.9 0.1 0.9 0.1 0.9 0.1 0.9 0.1 0.9 0.1 0.9 0.1 0.9 0.1 0.9 0.1 0.9 0.1 0.9 0.1 0.9 0.1 0.9 0.1 0.9 0.1 0.9 0.1 0.9 0.1 0.9 0.1 0.9 0.1 0.9 0.1 0.9 0.1 0.9 0.1 0.9 0.1 0.9 0.1 0.9 0.1 0.9 0.1 0.9 0.1 0.9 0.1 0.9 0.1 0.9 0.1 0.9 0.1 0.9 0.1 0.9 0.1 0.9 0.1 0.9 0.1 0.9 0.1 0.9 0.1 0.9 0.1 0.9 0.1 0.9 0.1 0.9 0.1 0.9 0.1 0.9 0.1 0.9 0.1 0.9 0.1 0.9 0.1 0.9 0.1 0.9 0.1 0.9 0.1 0.9 0.1 0.9 0.1 0.9 0.1 0.9 0.1 0.9 0.1 0.9 0.1 0.9 0.1 0.9 0.1 0.8962100045604378 0.1037899954395621 0.9 0.1 0.9 0.1 0.9 0.1 0.9 0.1 0.9 0.1 0.9 0.1 0.9 0.1 0.9 0.1 0.9 0.1 0.9 0.1 0.9 0.1 0.9 0.1 0.9 0.1 0.9 0.1 0.8962100045604378 0.1037899954395621 0.9 0.1 0.9 0.1 0.9 0.1 0.9 0.1 0.9 0.1 0.9 0.1 0.9 0.1 0.9 0.1 0.9 0.1 0.9 0.1 0.9 0.1 0.9 0.1 0.9 0.1 0.9 0.1 0.6131360406778215 0.3868639593221786 0.9 0.1 0.9 0.1 0.9 0.1 0.9 0.1 0.9 0.1 0.9 0.1 0.9 0.1 0.9 0.1 0.9 0.1 0.9 0.1 0.9 0.1 0.9 0.1 0.9 0.1 0.9 0.1 0.8828291664643914 0.1171708335356085 0.8722052365581521 0.1277947634418479 0.9 0.1 0.9 0.1 0.9 0.1 0.9 0.1 0.9 0.1 0.9 0.1 0.9 0.1 0.9 0.1 0.9 0.1 0.9 0.1 0.9 0.1 0.9 0.1 0.9 0.1 0.8962100045604378 0.1037899954395621 0.9 0.1 0.9 0.1 0.9 0.1 0.9 0.1 0.9 0.1 0.9 0.1 0.9 0.1 0.8869634193999577 0.1130365806000422 0.8943648544744789 0.1056351455255211 0.8935575557677548 0.1064424442322451 0.88829794362756 0.11170205637244 0.8706870791536908 0.1293129208463092 0.8587497377126345 0.1412502622873656 0.9 0.1 0.9 0.1 0.9 0.1 0.9 0.1 0.9 0.1 0.9 0.1 0.9 0.1 0.9 0.1 0.9 0.1 0.885513844682103 0.1144861553178971 0.8978206919435406 0.1021793080564594 0.8720816212768111 0.1279183787231889 0.883871596678245 0.1161284033217551 0.8354414451916825 0.1645585548083173 0.7976248951979167 0.2023751048020833 0.9 0.1 0.9 0.1 0.9 0.1 0.9 0.1 0.9 0.1 0.9 0.1 0.9 0.1 0.9 0.1 0.9 0.1 0.8628743854966651 0.137125614503335 0.8912406791747962 0.1087593208252037 0.8703750903275087 0.1296249096724915 0.8546569154420866 0.1453430845579134 0.8605090003140736 0.1394909996859262 0.730439873795227 0.269560126204773 0.9 0.1 0.9 0.1 0.9 0.1 0.9 0.1 0.9 0.1 0.9 0.1 0.9 0.1 0.9 0.1 0.9 0.1 0.8905947600052679 0.1094052399947321 0.8732257035419033 0.1267742964580967 0.8916244202549237 0.1083755797450762 0.8647166955665575 0.1352833044334425 0.8830379762019593 0.1169620237980407 0.8437941236667 0.1562058763333001 0.9 0.1 0.9 0.1 0.9 0.1 0.9 0.1 0.9 0.1 0.9 0.1 0.9 0.1 0.9 0.1 0.9 0.1 0.892452440056844 0.107547559943156 0.8994085743104154 0.1005914256895845 0.8991256840848479 0.1008743159151522 0.8972007203233712 0.1027992796766287 0.8914504609709878 0.1085495390290121 0.8781604558661531 0.1218395441338469 0.9 0.1 0.9 0.1 0.9 0.1 0.9 0.1 0.9 0.1 0.9 0.1 0.9 0.1 0.9 0.1 0.9 0.1 0.9 0.1 0.9 0.1 0.9 0.1 0.9 0.1 0.9 0.1 0.9 0.1 0.9 0.1 0.9 0.1 0.9 0.1 0.9 0.1 0.9 0.1 0.9 0.1 0.9 0.1 0.9 0.1 0.9 0.1 0.9 0.1 0.9 0.1 0.9 0.1 0.9 0.1 0.9 0.1 0.9 0.1 0.9 0.1 0.9 0.1 0.9 0.1 0.9 0.1 0.9 0.1 0.9 0.1 0.9 0.1 0.9 0.1 0.9 0.1 0.9 0.1 0.9 0.1 0.9 0.1 0.9 0.1 0.9 0.1 0.9 0.1 0.9 0.1 0.9 0.1 0.9 0.1 0.9 0.1 0.9 0.1 0.9 0.1 0.9 0.1 0.9 0.1 0.9 0.1 0.9 0.1 0.9 0.1 0.9 0.1 0.9 0.1 0.9 0.1 0.9 0.1 0.9 0.1 0.9 0.1 0.9 0.1 0.9 0.1 0.9 0.1 0.9 0.1 0.9 0.1 0.9 0.1 0.9 0.1 0.9 0.1 0.9 0.1 0.9 0.1 0.9 0.1 0.9 0.1 0.9 0.1 0.9 0.1 0.9 0.1 0.9 0.1 0.9 0.1 0.9 0.1 0.9 0.1 0.9 0.1 0.9 0.1 0.9 0.1 0.9 0.1 0.9 0.1 0.9 0.1 0.9 0.1 0.9 0.1 0.9 0.1 0.9 0.1 0.9 0.1 0.9 0.1 0.9 0.1 0.9 0.1 0.9 0.1 0.9 0.1 0.9 0.1 0.9 0.1 0.9 0.1 0.9 0.1 0.9 0.1 0.9 0.1 0.9 0.1 0.9 0.1 0.9 0.1 0.9 0.1 0.9 0.1 0.9 0.1 0.9 0.1 0.9 0.1 0.9 0.1 0.9 0.1 0.9 0.1 0.9 0.1 0.9 0.1 0.9 0.1 0.9 0.1 0.9 0.1 0.9 0.1 0.9 0.1 0.9 0.1 0.9 0.1 0.9 0.1 0.9 0.1 0.9 0.1 0.9 0.1 0.9 0.1 0.9 0.1 0.9 0.1 0.9 0.1 0.6 0.4 0.9 0.1 0.9 0.1 0.9 0.1 0.9 0.1 0.9 0.1 0.9 0.1 0.9 0.1 0.9 0.1 0.9 0.1 0.9 0.1 0.9 0.1 0.9 0.1 0.9 0.1 0.9 0.1 0.9 0.1 0.9 0.1 0.9 0.1 0.9 0.1 0.9 0.1 0.9 0.1 0.9 0.1 0.9 0.1 0.9 0.1 0.9 0.1 0.9 0.1 0.9 0.1 0.9 0.1 0.9 0.1 0.9 0.1 0.9 0.1 0.9 0.1 0.9 0.1 0.9 0.1 0.9 0.1 0.9 0.1 0.9082906530488754 0.09170934695112465 0.900836823686721 0.09916317631327892 0.9 0.1 0.9 0.1 0.9 0.1 0.9 0.1 0.9 0.1 0.9 0.1 0.9 0.1 0.9 0.1 0.9 0.1 0.9 0.1 0.9 0.1 0.9 0.1 0.9 0.1 0.9055795178197814 0.09442048218021852 0.9068235597602843 0.09317644023971572 0.9 0.1 0.9 0.1 0.9 0.1 0.9 0.1 0.9 0.1 0.9 0.1 0.9 0.1 0.9 0.1 0.9 0.1 0.9 0.1 0.9 0.1 0.9 0.1 0.9 0.1 0.9056104575803229 0.09438954241967711 0.9164418808755299 0.08355811912447002 0.9 0.1 0.9 0.1 0.9 0.1 0.9 0.1 0.9 0.1 0.9 0.1 0.9 0.1 0.9 0.1 0.9 0.1 0.9 0.1 0.9 0.1 0.9 0.1 0.9 0.1 0.9169522234903664 0.08304777650963346 0.9175677761919988 0.08243222380800114 0.9 0.1 0.9 0.1 0.9 0.1 0.9 0.1 0.9 0.1 0.9 0.1 0.9 0.1 0.9 0.1 0.9 0.1 0.9 0.1 0.9 0.1 0.9 0.1 0.9 0.1 0.9079986699518053 0.09200133004819466 0.900836823686721 0.09916317631327892 0.9 0.1 0.9 0.1 0.9 0.1 0.9 0.1 0.9 0.1 0.9 0.1 0.9 0.1 0.9 0.1 0.9 0.1 0.9 0.1 0.9 0.1 0.9 0.1 0.9 0.1 0.9 0.1 0.9 0.1 0.9 0.1 0.8865535896125629 0.113446410387437 0.9 0.1 0.9 0.1 0.9 0.1 0.9 0.1 0.9 0.1 0.9 0.1 0.9 0.1 0.9 0.1 0.9 0.1 0.9 0.1 0.9 0.1 0.9 0.1 0.9 0.1 0.9 0.1 0.6602635979665598 0.3397364020334403 0.9 0.1 0.9 0.1 0.9 0.1 0.6732537854220657 0.3267462145779342 0.8497567066125983 0.1502432933874017 0.8663562930568857 0.1336437069431144 0.856395390349977 0.143604609650023 0.8872837056654147 0.1127162943345851 0.9 0.1 0.9 0.1 0.9 0.1 0.9 0.1 0.9 0.1 0.9 0.1 0.8545759772201313 0.1454240227798687 0.9 0.1 0.9 0.1 0.9 0.1 0.9 0.1 0.9 0.1 0.9 0.1 0.9 0.1 0.9 0.1 0.9 0.1 0.9 0.1 0.9 0.1 0.9 0.1 0.9 0.1 0.9 0.1 0.8458842430135256 0.1541157569864743 0.9333333333333332 0.06666666666666667 0.9 0.1 0.9 0.1 0.9 0.1 0.9 0.1 0.9 0.1 0.9 0.1 0.9 0.1 0.9 0.1 0.9 0.1 0.9 0.1 0.9 0.1 0.9 0.1 0.9 0.1 0.8958684858556081 0.1041315141443918 0.9 0.1 0.9 0.1 0.9 0.1 0.9 0.1 0.9 0.1 0.9 0.1 0.9 0.1 0.8320967294047668 0.1679032705952332 0.9 0.1 0.9 0.1 0.9 0.1 0.9 0.1 0.8529693412807177 0.1470306587192824 0.9 0.1 0.9 0.1 0.9 0.1 0.9 0.1 0.8640367635731093 0.1359632364268906 0.9 0.1 0.9 0.1 0.9 0.1 0.9 0.1 0.8773474055314668 0.1226525944685331 0.9 0.1 0.9 0.1 0.9 0.1 0.9 0.1 0.8832694915263163 0.1167305084736836 0.9 0.1 0.9 0.1 0.6 0.4 0.9 0.1 0.8866890450203954 0.1133109549796047 0.9 0.1 0.9 0.1 0.9 0.1 0.9 0.1 0.877899089058231 0.122100910941769 0.9 0.1 0.9 0.1 0.9 0.1 0.9 0.1 0.8836579251677379 0.116342074832262 0.9 0.1 0.9 0.1 0.9 0.1 0.9 0.1 0.8869891714005123 0.1130108285994876 0.9 0.1 0.9 0.1 0.9 0.1 0.9 0.1 0.8620651939400037 0.1379348060599963 0.9 0.1 0.9 0.1 0.9 0.1 0.9077315195303709 0.09226848046962904 0.8522928851038561 0.1477071148961439 0.9 0.1 0.9 0.1 0.9 0.1 0.9 0.1 0.8636156979026746 0.1363843020973255 0.9 0.1 0.9 0.1 0.9 0.1 0.9 0.1 0.8862828072105544 0.1137171927894455 0.9 0.1 0.9 0.1 0.9 0.1 0.9 0.1 0.8839146001177004 0.1160853998822997 0.9 0.1 0.9 0.1 0.9 0.1 0.9 0.1 0.8871885266358573 0.1128114733641428 0.8852082738188041 0.1147917261811959 0.9 0.1 0.9 0.1 0.9 0.1 0.9 0.1 0.9 0.1 0.9 0.1 0.9 0.1 0.9 0.1 0.9 0.1 0.6 0.4 0.9 0.1 0.9 0.1 0.9 0.1 0.9 0.1 0.8957703816453734 0.1042296183546267 0.9 0.1 0.9 0.1 0.9 0.1 0.9 0.1 0.9 0.1 0.9 0.1 0.9 0.1 0.9 0.1 0.9 0.1 0.9 0.1 0.9 0.1 0.9 0.1 0.9 0.1 0.9 0.1 0.8971457309921426 0.1028542690078575 0.9 0.1 0.9 0.1 0.9 0.1 0.9 0.1 0.9 0.1 0.9 0.1 0.9 0.1 0.9 0.1 0.9 0.1 0.9 0.1 0.9 0.1 0.9 0.1 0.9 0.1 0.9 0.1 0.6153486068208329 0.3846513931791671 0.9 0.1 0.9 0.1 0.9 0.1 0.9 0.1 0.9 0.1 0.9 0.1 0.9 0.1 0.9 0.1 0.9 0.1 0.9 0.1 0.9 0.1 0.9 0.1 0.9 0.1 0.9 0.1 0.8971457309921426 0.1028542690078575 0.9 0.1 0.9 0.1 0.9 0.1 0.9 0.1 0.9 0.1 0.9 0.1 0.9 0.1 0.9 0.1 0.9 0.1 0.9 0.1 0.9 0.1 0.9 0.1 0.9 0.1 0.9 0.1 0.9 0.1 0.9 0.1 0.9 0.1 0.9 0.1 0.9 0.1 0.9 0.1 0.9 0.1 0.9 0.1 0.9 0.1 0.9 0.1 0.9 0.1 0.9 0.1 0.9 0.1 0.9 0.1 0.9 0.1 0.9 0.1 0.9 0.1 0.9 0.1 0.9 0.1 0.9 0.1 0.9 0.1 0.9 0.1 0.9 0.1 0.9 0.1 0.9 0.1 0.9 0.1 0.9 0.1 0.9 0.1 0.9 0.1 0.9 0.1 0.9 0.1 0.9 0.1 0.9 0.1 0.9 0.1 0.9 0.1 0.9 0.1 0.9 0.1 0.9 0.1 0.9 0.1 0.9 0.1 0.9 0.1 0.9 0.1 0.9 0.1 0.9 0.1 0.9 0.1 0.9 0.1 0.9 0.1 0.9 0.1 0.9 0.1 0.9 0.1 0.9 0.1 0.9 0.1 0.9 0.1 0.9 0.1 0.9 0.1 0.9 0.1 0.9 0.1 0.9 0.1 0.9 0.1 0.9 0.1 0.9 0.1 0.9 0.1 0.9 0.1 0.9 0.1 0.9 0.1 0.9 0.1 0.9 0.1 0.9 0.1 0.9 0.1 0.9 0.1 0.9 0.1 0.9 0.1 0.9 0.1 0.9 0.1 0.9 0.1 0.8986055874348714 0.1013944125651284 0.9 0.1 0.9 0.1 0.9 0.1 0.9 0.1 0.9 0.1 0.9 0.1 0.9 0.1 0.9 0.1 0.9 0.1 0.9 0.1 0.9 0.1 0.9 0.1 0.9 0.1 0.9 0.1 0.8822159881919075 0.1177840118080924 0.9 0.1 0.9 0.1 0.9 0.1 0.9 0.1 0.9 0.1 0.9 0.1 0.9 0.1 0.9 0.1 0.9 0.1 0.9 0.1 0.9 0.1 0.9 0.1 0.9 0.1 0.9 0.1 0.8985812675078036 0.1014187324921964 0.9 0.1 0.9 0.1 0.9 0.1 0.9 0.1 0.9 0.1 0.9 0.1 0.9 0.1 0.9 0.1 0.9 0.1 0.9 0.1 0.9 0.1 0.9 0.1 0.9 0.1 0.9 0.1 0.8822159881919075 0.1177840118080924 0.9 0.1 0.9 0.1 0.9 0.1 0.9 0.1 0.9 0.1 0.9 0.1 0.9 0.1 0.9 0.1 0.9 0.1 0.9 0.1 0.9 0.1 0.9 0.1 0.9 0.1 0.9 0.1 0.8986055874348714 0.1013944125651284 0.9 0.1 0.9 0.1 0.9 0.1 0.9 0.1 0.9 0.1 0.9 0.1 0.9 0.1 0.9 0.1 0.9 0.1 0.9 0.1 0.9 0.1 0.9 0.1 0.9 0.1 0.9 0.1 0.9 0.1 0.9 0.1 0.9 0.1 0.9 0.1 0.8616430579265799 0.1383569420734201 0.9 0.1 0.9 0.1 0.9 0.1 0.8952681726782962 0.1047318273217038 0.9 0.1 0.9 0.1 0.9 0.1 0.9 0.1 0.9 0.1 0.9 0.1 0.9028074029095563 0.09719259709044364 0.9 0.1 0.9 0.1 0.9 0.1 0.6980647415416529 0.3019352584583471 0.9048705879132087 0.0951294120867912 0.9 0.1 0.9 0.1 0.8687933446171804 0.1312066553828197 0.9 0.1 0.9008228301460426 0.09917716985395733 0.9 0.1 0.9 0.1 0.9 0.1 0.9 0.1 0.9 0.1 0.9 0.1 0.9333333333333332 0.06666666666666667 0.9 0.1 0.8105913734359286 0.1894086265640713 0.9 0.1 0.9 0.1 0.9 0.1 0.6227107974040649 0.3772892025959351 0.9333333333333332 0.06666666666666667 0.9 0.1 0.9 0.1 0.9 0.1 0.9 0.1 0.9 0.1 0.9041928229697029 0.09580717703029708 0.9 0.1 0.9 0.1 0.9 0.1 0.8669392894039031 0.133060710596097 0.9042824709817592 0.09571752901824077 0.9 0.1 0.9 0.1 0.8891691475668 0.1108308524332001 0.9 0.1 0.9006048565647197 0.09939514343528026 0.9 0.1 0.9 0.1 0.9 0.1 0.9 0.1 0.9 0.1 0.9 0.1 0.9 0.1 0.9 0.1 0.8842864173483778 0.1157135826516222 0.9 0.1 0.9 0.1 0.9 0.1 0.898813110708094 0.1011868892919059 0.9 0.1 0.9 0.1 0.9 0.1 0.9 0.1 0.9 0.1 0.9 0.1 0.9 0.1 0.9 0.1 0.9 0.1 0.9 0.1 0.9 0.1 0.9 0.1 0.9 0.1 0.9 0.1 0.9 0.1 0.9 0.1 0.9 0.1 0.9 0.1 0.9 0.1 0.9 0.1 0.9 0.1 0.9 0.1 0.9077315195303709 0.09226848046962904 0.9 0.1 0.9 0.1 0.9 0.1 0.9 0.1 0.9 0.1 0.9 0.1 0.9 0.1 0.9 0.1 0.9 0.1 0.9 0.1 0.9 0.1 0.9 0.1 0.9 0.1 0.9 0.1 0.9 0.1 0.9 0.1 0.9 0.1 0.9 0.1 0.9 0.1 0.9 0.1 0.9 0.1 0.9 0.1 0.9 0.1 0.9 0.1 0.9 0.1 0.9 0.1 0.9 0.1 0.9 0.1 0.9 0.1 0.9 0.1 0.9 0.1 0.9 0.1 0.9 0.1 0.9 0.1 0.9 0.1 0.9 0.1 0.9 0.1 0.9 0.1 0.9 0.1 0.9 0.1 0.9 0.1 0.9 0.1 0.9 0.1 0.9 0.1 0.9 0.1 0.9 0.1 0.9 0.1 0.9 0.1 0.9 0.1 0.9 0.1 0.9 0.1 0.9 0.1 0.9 0.1 0.9 0.1 0.9 0.1 0.9 0.1 0.9 0.1 0.9 0.1 0.9 0.1 0.9 0.1 0.9 0.1 0.9 0.1 0.9 0.1 0.9 0.1 0.9043170416819318 0.095682958318068 0.9 0.1 0.6 0.4 0.9 0.1 0.9 0.1 0.9 0.1 0.9 0.1 0.9 0.1 0.9 0.1 0.9 0.1 0.9 0.1 0.9 0.1 0.9 0.1 0.9 0.1 0.9 0.1 0.9071477466276407 0.09285225337235919 0.9 0.1 0.9 0.1 0.9 0.1 0.9 0.1 0.9 0.1 0.9 0.1 0.9 0.1 0.9 0.1 0.9 0.1 0.9 0.1 0.9 0.1 0.9 0.1 0.9 0.1 0.9 0.1 0.9220235352911043 0.07797646470889565 0.9 0.1 0.9 0.1 0.9 0.1 0.9 0.1 0.9 0.1 0.9 0.1 0.9 0.1 0.9 0.1 0.9 0.1 0.9 0.1 0.9 0.1 0.9 0.1 0.9 0.1 0.9 0.1 0.904793241399297 0.09520675860070299 0.8722052365581521 0.1277947634418479 0.9 0.1 0.9 0.1 0.9 0.1 0.9 0.1 0.9 0.1 0.9 0.1 0.9 0.1 0.9 0.1 0.9 0.1 0.9 0.1 0.9 0.1 0.9 0.1 0.9 0.1 0.9043170416819318 0.095682958318068 0.9 0.1 0.9 0.1 0.9 0.1 0.9 0.1 0.9 0.1 0.9 0.1 0.9 0.1 0.9 0.1 0.9 0.1 0.9 0.1 0.9 0.1 0.9 0.1 0.9001433791917072 0.09985662080829276 0.9001386450560531 0.09986135494394685 0.9002593264536483 0.09974067354635179 0.9006473010207235 0.09935269897927651 0.8972819894934773 0.1027180105065226 0.9000305102572341 0.09996948974276575 0.9 0.1 0.9 0.1 0.9 0.1 0.9 0.1 0.9 0.1 0.9 0.1 0.9 0.1 0.9 0.1 0.9 0.1 0.9012303339563302 0.09876966604366974 0.6010531270327025 0.3989468729672975 0.900255972912705 0.09974402708729502 0.9006473010207235 0.09935269897927651 0.898302276801469 0.1016977231985311 0.9002624780011673 0.09973752199883269 0.9 0.1 0.9 0.1 0.9 0.1 0.9 0.1 0.9 0.1 0.9 0.1 0.9 0.1 0.9 0.1 0.9 0.1 0.9032295694094519 0.09677043059054807 0.9002379005203328 0.0997620994796673 0.6011654672778473 0.3988345327221527 0.9177000390968888 0.08229996090311109 0.8982907908065987 0.1017092091934013 0.9006951401809691 0.09930485981903095 0.9 0.1 0.9 0.1 0.9 0.1 0.9 0.1 0.9 0.1 0.9 0.1 0.9 0.1 0.9 0.1 0.9 0.1 0.9034733007521329 0.0965266992478671 0.9007911703885759 0.09920882961142413 0.9008641087229302 0.0991358912770698 0.9184828252657077 0.08151717473429232 0.8752222740241407 0.1247777259758592 0.9007516422741656 0.09924835772583437 0.9 0.1 0.9 0.1 0.9 0.1 0.9 0.1 0.9 0.1 0.9 0.1 0.9 0.1 0.9 0.1 0.9 0.1 0.9001433791917072 0.09985662080829276 0.9001386450560531 0.09986135494394685 0.9000731909659637 0.09992680903403622 0.9052917015350904 0.09470829846490968 0.8972988944591187 0.1027011055408812 0.9000305102572341 0.09996948974276575 0.9 0.1 0.9 0.1 0.9 0.1 0.9 0.1 0.9 0.1 0.9 0.1 0.9 0.1 0.9 0.1 0.9 0.1 0.9 0.1 0.9 0.1 0.9 0.1 0.896578590594817 0.1034214094051829 0.9 0.1 0.9 0.1 0.9 0.1 0.9 0.1 0.9 0.1 0.9 0.1 0.9 0.1 0.9 0.1 0.9 0.1 0.9 0.1 0.9048638708144146 0.09513612918558556 0.9 0.1 0.9 0.1 0.9 0.1 0.8784560666748522 0.1215439333251478 0.9030303251699018 0.09696967483009812 0.9 0.1 0.9 0.1 0.9 0.1 0.9 0.1 0.9002059740271818 0.09979402597281822 0.9 0.1 0.9 0.1 0.9 0.1 0.9 0.1 0.9 0.1 0.9 0.1 0.9 0.1 0.9 0.1 0.6838895986014243 0.3161104013985758 0.9 0.1 0.9 0.1 0.9 0.1 0.9 0.1 0.9 0.1 0.9 0.1 0.9 0.1 0.9 0.1 0.9 0.1 0.9 0.1 0.9 0.1 0.9 0.1 0.9 0.1 0.9 0.1 0.8646408540300505 0.1353591459699494 0.9 0.1 0.9077315195303709 0.09226848046962904 0.9 0.1 0.9 0.1 0.9 0.1 0.9 0.1 0.9 0.1 0.9 0.1 0.9 0.1 0.9 0.1 0.9 0.1 0.9 0.1 0.9 0.1 0.9 0.1 0.8978574431838729 0.1021425568161271 0.9 0.1 0.9 0.1 0.9 0.1 0.9 0.1 0.9 0.1 0.9 0.1 0.9 0.1 0.9 0.1 0.9 0.1 0.9 0.1 0.8932900985204285 0.1067099014795713 0.6130235748288492 0.3869764251711509 0.9 0.1 0.9333333333333332 0.06666666666666667 0.9 0.1 0.9 0.1 0.9 0.1 0.9 0.1 0.9 0.1 0.9 0.1 0.9 0.1 0.6130235748288492 0.3869764251711509 0.9 0.1 0.9 0.1 0.9 0.1 0.8928889869682873 0.1071110130317127 0.9 0.1 0.9 0.1 0.9 0.1 0.9 0.1 0.9 0.1 0.9 0.1 0.9 0.1 0.9 0.1 0.9 0.1 0.9 0.1 0.9 0.1 0.9 0.1 0.9 0.1 0.9 0.1 0.4709854027201287 0.5290145972798713 0.9 0.1 0.9 0.1 0.9 0.1 0.9 0.1 0.9 0.1 0.9 0.1 0.9 0.1 0.9 0.1 0.9 0.1 0.9 0.1 0.6130235748288492 0.3869764251711509 0.9 0.1 0.9 0.1 0.9 0.1 0.8870747110777163 0.1129252889222836 0.9 0.1 0.9 0.1 0.9 0.1 0.9 0.1 0.9 0.1 0.9 0.1 0.9 0.1 0.9 0.1 0.9 0.1 0.9 0.1 0.9 0.1 0.9 0.1 0.9 0.1 0.9 0.1 0.8982650259522237 0.1017349740477763 0.9 0.1 0.9 0.1 0.9 0.1 0.9 0.1 0.9 0.1 0.9 0.1 0.9 0.1 0.9 0.1 0.9 0.1 0.9 0.1 0.9 0.1 0.9 0.1 0.9 0.1 0.9 0.1 0.9 0.1 0.9 0.1 0.9 0.1 0.9 0.1 0.9333333333333332 0.06666666666666667 0.9 0.1 0.9 0.1 0.9 0.1 0.9 0.1 0.9 0.1 0.9 0.1 0.9 0.1 0.9 0.1 0.9 0.1 0.9 0.1 0.9 0.1 0.9 0.1 0.9 0.1 0.9 0.1 0.9 0.1 0.9 0.1 0.9 0.1 0.9 0.1 0.9 0.1 0.9 0.1 0.9 0.1 0.9 0.1 0.9 0.1 0.9 0.1 0.9 0.1 0.9 0.1 0.9 0.1 0.9 0.1 0.9 0.1 0.9 0.1 0.9 0.1 0.9 0.1 0.9 0.1 0.9 0.1 0.9 0.1 0.9 0.1 0.9 0.1 0.9 0.1 0.9 0.1 0.9 0.1 0.6130235748288492 0.3869764251711509 0.9 0.1 0.9 0.1 0.9 0.1 0.9 0.1 0.9 0.1 0.9 0.1 0.9 0.1 0.9 0.1 0.9 0.1 0.9 0.1 0.9 0.1 0.9 0.1 0.9 0.1 0.9 0.1 0.9 0.1 0.9 0.1 0.9 0.1 0.9 0.1 0.9 0.1 0.9 0.1 0.9 0.1 0.9 0.1 0.9 0.1 0.9 0.1 0.9 0.1 0.9 0.1 0.9 0.1 0.9 0.1 0.9 0.1 0.9 0.1 0.9 0.1 0.9 0.1 0.9 0.1 0.9 0.1 0.9 0.1 0.9 0.1 0.9 0.1 0.9 0.1 0.9 0.1 0.9 0.1 0.9 0.1 0.9 0.1 0.9 0.1 0.9 0.1 0.9 0.1 0.9 0.1 0.9 0.1 0.9 0.1 0.9 0.1 0.9 0.1 0.6130235748288492 0.3869764251711509 0.9 0.1 0.9 0.1 0.9 0.1 0.9 0.1 0.9 0.1 0.9 0.1 0.9 0.1 0.9 0.1 0.9 0.1 0.9 0.1 0.9 0.1 0.9 0.1 0.9 0.1 0.9 0.1 0.9333333333333332 0.06666666666666667 0.9 0.1 0.9 0.1 0.9 0.1 0.9 0.1 0.9 0.1 0.9 0.1 0.9 0.1 0.9 0.1 0.9 0.1 0.9293888173977107 0.07061118260228917 0.9 0.1 0.9 0.1 0.9 0.1 0.9 0.1 0.9 0.1 0.9 0.1 0.9 0.1 0.9 0.1 0.9 0.1 0.9 0.1 0.9 0.1 0.9 0.1 0.9 0.1 0.9 0.1 0.9 0.1 0.9 0.1 0.9 0.1 0.9 0.1 0.9 0.1 0.9 0.1 0.9 0.1 0.9 0.1 0.9 0.1 0.9 0.1 0.9 0.1 0.9 0.1 0.9 0.1 0.9 0.1 0.9 0.1 0.9 0.1 0.9 0.1 0.9 0.1 0.9 0.1 0.891748438948938 0.1082515610510621 0.9 0.1 0.9 0.1 0.9 0.1 0.9 0.1 0.9 0.1 0.9 0.1 0.7186235142614317 0.2813764857385684 0.9 0.1 0.9 0.1 0.9 0.1 0.9 0.1 0.7539841569993099 0.2460158430006902 0.9 0.1 0.9 0.1 0.8627719362092819 0.1372280637907181 0.9 0.1 0.8903448545813153 0.1096551454186847 0.9 0.1 0.9 0.1 0.9 0.1 0.9 0.1 0.9 0.1 0.9 0.1 0.9 0.1 0.9 0.1 0.9 0.1 0.9 0.1 0.9 0.1 0.9 0.1 0.8578935886594641 0.1421064113405359 0.9 0.1 0.9 0.1 0.9 0.1 0.9 0.1 0.9 0.1 0.9 0.1 0.9 0.1 0.9 0.1 0.9 0.1 0.9 0.1 0.9 0.1 0.9 0.1 0.9 0.1 0.9 0.1 0.4835572436354519 0.5164427563645482 0.9 0.1 0.9 0.1 0.9 0.1 0.9 0.1 0.9 0.1 0.9 0.1 0.9 0.1 0.9 0.1 0.9 0.1 0.9 0.1 0.9333333333333332 0.06666666666666667 0.9 0.1 0.9 0.1 0.9 0.1 0.891748438948938 0.1082515610510621 0.6130235748288492 0.3869764251711509 0.9 0.1 0.9 0.1 0.9 0.1 0.9 0.1 0.9 0.1 0.8775472960929226 0.1224527039070775 0.8897632044865158 0.1102367955134842 0.9340616185330461 0.06593838146695385 0.4786553440336225 0.5213446559663776 0.5230530664544735 0.4769469335455265 0.9 0.1 0.888551655404404 0.111448344595596 0.567947219882852 0.432052780117148 0.8909904607943184 0.1090095392056815 0.9211862483643934 0.07881375163560651 0.9 0.1 0.9 0.1 0.9 0.1 0.9 0.1 0.900517314444054 0.09948268555594594 0.5120809938825149 0.4879190061174852 0.8932335900085917 0.1067664099914082 0.5747345061075163 0.4252654938924838 0.7464939829598926 0.2535060170401075 0.9293888173977107 0.07061118260228917 0.9066244779687853 0.09337552203121464 0.8995469353170348 0.1004530646829653 0.7239668160974836 0.2760331839025163 0.926190610373025 0.07380938962697493 0.5739920511969491 0.4260079488030508 0.9 0.1 0.9 0.1 0.9 0.1 0.9 0.1 0.9 0.1 0.5490005682442654 0.4509994317557346 0.8692538531509557 0.1307461468490443 0.9024587896967423 0.09754121030325769 0.3740008501255249 0.6259991498744752 0.7543518337100223 0.2456481662899776 0.9292768713426722 0.07072312865732765 0.8883525319330042 0.1116474680669958 0.9322584184878712 0.06774158151212879 0.6485214645489659 0.3514785354510341 0.9 0.1 0.9 0.1 0.9 0.1 0.9 0.1 0.9 0.1 0.9 0.1 0.885647661565684 0.1143523384343162 0.5362219039797594 0.4637780960202405 0.9284607666006209 0.07153923339937895 0.951787172487281 0.04821282751271894 0.9 0.1 0.9 0.1 0.7106575508246583 0.2893424491753416 0.8348469073879039 0.1651530926120959 0.9233690043703928 0.07663099562960698 0.9 0.1 0.9 0.1 0.9 0.1 0.9 0.1 0.9 0.1 0.9 0.1 0.8940539523785078 0.1059460476214922 0.8982146131163308 0.1017853868836692 0.8992647837922284 0.1007352162077716 0.9014616435966954 0.09853835640330459 0.6130235748288492 0.3869764251711509 0.9 0.1 0.8989571459782688 0.1010428540217312 0.8962413127077847 0.1037586872922153 0.5974637822531396 0.4025362177468604 0.9 0.1 0.9 0.1 0.9 0.1 0.9 0.1 0.9 0.1 0.9 0.1 0.9312080297356798 0.06879197026432005 0.9 0.1 0.9 0.1 0.902574383248972 0.09742561675102798 0.8831393789109599 0.1168606210890401 0.9049832851266153 0.09501671487338459 0.8991818325111526 0.1008181674888474 0.9007367816643416 0.09926321833565838 0.9 0.1 0.9 0.1 0.9 0.1 0.9 0.1 0.9 0.1 0.9 0.1 0.9 0.1 0.9224965677985532 0.07750343220144672 0.9403056081888379 0.05969439181116202 0.9372286592249658 0.0627713407750342 0.9670135543618288 0.03298644563817119 0.9013534658268967 0.09864653417310321 0.9228450731431006 0.0771549268568994 0.8978657845416406 0.1021342154583595 0.9079371509636925 0.09206284903630749 0.9 0.1 0.9 0.1 0.9 0.1 0.9 0.1 0.9 0.1 0.9 0.1 0.9 0.1 0.7760327219947174 0.2239672780052826 0.76 0.24 0.5599999999999999 0.4400000000000001 0.5755186637085906 0.4244813362914094 0.6132749555941532 0.3867250444058468 0.6498401608187645 0.3501598391812355 0.6528118891605181 0.3471881108394819 0.9392048042662875 0.0607951957337125 0.7165133783396338 0.2834866216603663 0.9 0.1 0.9 0.1 0.9 0.1 0.9 0.1 0.9 0.1 0.9 0.1 0.9346281710487397 0.06537182895126022 0.6 0.4 0.9 0.1 0.690895517751289 0.309104482248711 0.8775469405334572 0.1224530594665428 0.9265881331119259 0.07341186688807406 0.8954384864345735 0.1045615135654266 0.7291224699261233 0.2708775300738766 0.9 0.1 0.6130235748288492 0.3869764251711509 0.9 0.1 0.9 0.1 0.9 0.1 0.9 0.1 0.9 0.1 0.9060836846326281 0.09391631536737183 0.9 0.1 0.9 0.1 0.9006438330588686 0.09935616694113124 0.5899870679037238 0.4100129320962761 0.9070441313393487 0.09295586866065134 0.8997965882374196 0.1002034117625803 0.9044409215150839 0.0955590784849161 0.9 0.1 0.9 0.1 0.9 0.1 0.9 0.1 0.9 0.1 0.9 0.1 0.9 0.1 0.9039537101641876 0.09604628983581248 0.9009279154452254 0.09907208455477455 0.9001540094666529 0.09984599053334701 0.9017657627689132 0.09823423723108682 0.9015554074726505 0.09844459252734943 0.9 0.1 0.9 0.1 0.9 0.1 0.9 0.1 0.9 0.1 0.9 0.1 0.9 0.1 0.9 0.1 0.9 0.1 0.9 0.1 0.9012810108139913 0.0987189891860087 0.9015649437309119 0.09843505626908811 0.9006582778302173 0.0993417221697826 0.9306059117154516 0.06939408828454843 0.9018506929964588 0.09814930700354124 0.9 0.1 0.9 0.1 0.9 0.1 0.9 0.1 0.9 0.1 0.9 0.1 0.9 0.1 0.9 0.1 0.9 0.1 0.9 0.1 0.9062139068775821 0.09378609312241784 0.9053918430635949 0.09460815693640506 0.9005567718843103 0.09944322811568959 0.9017657627689132 0.09823423723108682 0.9015554074726505 0.09844459252734943 0.9 0.1 0.6130235748288492 0.3869764251711509 0.9 0.1 0.9 0.1 0.9 0.1 0.9 0.1 0.9 0.1 0.9 0.1 0.9 0.1 0.9 0.1 0.904116704253206 0.0958832957467939 0.9010332805799168 0.09896671942008324 0.9010999562914993 0.09890004370850076 0.9018076446301495 0.09819235536985041 0.9044079401402801 0.09559205985971991 0.9 0.1 0.9 0.1 0.9 0.1 0.9 0.1 0.9 0.1 0.9 0.1 0.9 0.1 0.9 0.1 0.9 0.1 0.9 0.1 0.9011446290385895 0.0988553709614105 0.9009279154452254 0.09907208455477455 0.9001540094666529 0.09984599053334701 0.9005094950683442 0.09949050493165586 0.9015554074726505 0.09844459252734943 0.9 0.1 0.9 0.1 0.9 0.1 0.9 0.1 0.9 0.1 0.9 0.1 0.9 0.1 0.9 0.1 0.9 0.1 0.9 0.1 0.9 0.1 0.9 0.1 0.90105066093681 0.09894933906319002 0.9 0.1 0.9 0.1 0.9 0.1 0.9 0.1 0.9 0.1 0.8774912116416295 0.1225087883583704 0.9 0.1 0.9 0.1 0.9 0.1 0.9 0.1 0.9 0.1 0.9 0.1 0.9 0.1 0.9 0.1 0.90105066093681 0.09894933906319002 0.9 0.1 0.9 0.1 0.9 0.1 0.9 0.1 0.9 0.1 0.8853395303382612 0.1146604696617388 0.6130235748288492 0.3869764251711509 0.9 0.1 0.9 0.1 0.9 0.1 0.9 0.1 0.9 0.1 0.9 0.1 0.9 0.1 0.9412356042074337 0.05876439579256618 0.9 0.1 0.9 0.1 0.9333333333333332 0.06666666666666667 0.6130235748288492 0.3869764251711509 0.6 0.4 0.8852436062296535 0.1147563937703466 0.4878413949318492 0.5121586050681507 0.9 0.1 0.9 0.1 0.9 0.1 0.9 0.1 0.9 0.1 0.9057230142156993 0.09427698578430059 0.906891998972867 0.09310800102713292 0.9172737728315624 0.08272622716843751 0.9090560011793272 0.09094399882067278 0.9156460169294171 0.08435398307058289 0.9 0.1 0.9 0.1 0.9 0.1 0.4075131101319307 0.5924868898680692 0.6 0.4 0.9 0.1 0.9 0.1 0.9 0.1 0.9 0.1 0.9 0.1 0.9 0.1 0.9 0.1 0.9059911897626258 0.0940088102373741 0.9 0.1 0.9 0.1 0.9 0.1 0.9 0.1 0.9 0.1 0.9233924041128536 0.07660759588714632 0.9 0.1 0.9 0.1 0.9 0.1 0.9 0.1 0.9 0.1 0.9 0.1 0.8949733701527711 0.1050266298472288 0.8811068095728138 0.1188931904271862 0.951380886345867 0.04861911365413302 0.9178212724799312 0.08217872752006881 0.9285273451288876 0.07147265487111229 0.9029863761453959 0.09701362385460399 0.9297752029030631 0.07022479709693692 0.9166947540363504 0.08330524596364954 0.621871524332354 0.3781284756676459 0.8183949391720959 0.181605060827904 0.9000061213945132 0.09999387860548681 0.8992708495317148 0.1007291504682853 0.9000157253280755 0.0999842746719246 0.9000218365209914 0.09997816347900852 0.900005370503982 0.09999462949601802 0.71278195155975 0.28721804844025 0.9177306230109303 0.08226937698906955 0.9651944710267382 0.03480552897326193 0.6418407576826314 0.3581592423173687 0.6342112068644664 0.3657887931355336 0.960586822072264 0.03941317792773597 0.900342890087057 0.09965710991294298 0.9622077586274161 0.03779224137258391 0.9582199093995687 0.04178009060043124 0.7621667755141794 0.2378332244858205 0.900035503530643 0.09996449646935705 0.897915621080401 0.1020843789195989 0.9000388830157409 0.09996111698425923 0.9000830362570896 0.09991696374291029 0.9000159047509521 0.09998409524904793 0.564349212468642 0.4356507875313579 0.6348717730477598 0.3651282269522402 0.6946647977879622 0.3053352022120378 0.7810518154195489 0.218948184580451 0.7285231801706044 0.2714768198293957 0.8425679061627372 0.1574320938372628 0.9117349380310857 0.0882650619689143 0.675758365625963 0.3242416343740371 0.8522297332407363 0.1477702667592637 0.8336610139193903 0.1663389860806098 0.9000458458182089 0.09995415418179115 0.8984942151126469 0.1015057848873529 0.9000552350415657 0.0999447649584342 0.900103961088951 0.09989603891104896 0.9000155663689176 0.09998443363108246 0.9268422373097949 0.07315776269020516 0.7895777731669769 0.2104222268330232 0.7571795825399216 0.2428204174600784 0.3587131314180843 0.6412868685819159 0.5405909426300736 0.4594090573699264 0.6159781889461007 0.3840218110538994 0.9027937721159073 0.09720622788409272 0.963928079049916 0.03607192095008394 0.4713655585822535 0.5286344414177464 0.7230047633438064 0.2769952366561935 0.9000180157844929 0.09998198421550712 0.8984010931889296 0.1015989068110704 0.9000646148898478 0.09993538511015218 0.9000807628524203 0.09991923714757964 0.9000254925479291 0.09997450745207101 0.897691248451133 0.102308751548867 0.8938089540875489 0.1061910459124513 0.5889517040665602 0.4110482959334399 0.9252533022799547 0.07474669772004525 0.6117370913109129 0.388262908689087 0.9014479426971551 0.09855205730284475 0.9003610246374393 0.09963897536256064 0.8746387694427765 0.1253612305572235 0.9026458390775643 0.0973541609224356 0.8825777877535523 0.1174222122464477 0.9000029317565245 0.09999706824347553 0.8997381251284687 0.1002618748715314 0.900011101361831 0.09998889863816884 0.9000124173668508 0.09998758263314916 0.9000020315730901 0.09999796842690982 0.9 0.1 0.9 0.1 0.9 0.1 0.9 0.1 0.9 0.1 0.9 0.1 0.9293786780657427 0.07062132193425731 0.9 0.1 0.9 0.1 0.9110405494231142 0.08895945057688573 0.9 0.1 0.9 0.1 0.9 0.1 0.9 0.1 0.9 0.1 0.9 0.1 0.9 0.1 0.9 0.1 0.9 0.1 0.9 0.1 0.9 0.1 0.9 0.1 0.9 0.1 0.9 0.1 0.905028792650003 0.09497120734999689 0.9 0.1 0.9 0.1 0.9 0.1 0.9 0.1 0.9 0.1 0.9 0.1 0.6 0.4 0.9 0.1 0.9 0.1 0.9 0.1 0.9 0.1 0.9 0.1 0.9 0.1 0.9 0.1 0.9049322806924371 0.09506771930756286 0.9 0.1 0.9 0.1 0.9 0.1 0.9 0.1 0.9 0.1 0.9 0.1 0.9 0.1 0.9 0.1 0.9 0.1 0.9 0.1 0.9 0.1 0.9 0.1 0.9 0.1 0.9 0.1 0.9118918110667871 0.08810818893321276 0.9 0.1 0.9 0.1 0.9 0.1 0.9 0.1 0.9 0.1 0.9 0.1 0.9 0.1 0.9 0.1 0.9 0.1 0.9 0.1 0.9 0.1 0.9 0.1 0.9 0.1 0.9 0.1 0.9048669464062647 0.09513305359373531 0.9 0.1 0.9 0.1 0.9 0.1 0.9 0.1 0.9 0.1 0.9 0.1 0.9 0.1 0.9 0.1 0.9 0.1 0.9 0.1 0.9 0.1 0.95 0.05 0.9293888173977107 0.07061118260228917 0.9 0.1 0.9 0.1 0.9 0.1 0.9 0.1 0.9 0.1 0.9 0.1 0.9 0.1 0.9 0.1 0.9 0.1 0.9 0.1 0.9 0.1 0.9 0.1 0.9 0.1 0.6 0.4 0.9 0.1 0.9 0.1 0.9 0.1 0.9 0.1 0.9 0.1 0.9 0.1 0.9 0.1 0.9 0.1 0.9 0.1 0.9 0.1 0.9 0.1 0.9 0.1 0.9 0.1 0.9 0.1 0.9 0.1 0.9 0.1 0.9 0.1 0.9 0.1 0.9 0.1 0.9 0.1 0.9 0.1 0.9 0.1 0.9 0.1 0.9 0.1 0.9 0.1 0.9 0.1 0.9 0.1 0.9 0.1 0.9 0.1 0.9 0.1 0.9 0.1 0.9 0.1 0.9 0.1 0.9 0.1 0.9 0.1 0.9 0.1 0.9 0.1 0.9 0.1 0.9 0.1 0.9 0.1 0.9 0.1 0.9 0.1 0.9 0.1 0.9 0.1 0.9 0.1 0.9 0.1 0.9 0.1 0.9 0.1 0.9 0.1 0.9 0.1 0.9 0.1 0.9 0.1 0.9 0.1 0.9 0.1 0.9 0.1 0.9 0.1 0.9 0.1 0.9 0.1 0.9 0.1 0.9 0.1 0.9 0.1 0.9 0.1 0.9 0.1 0.9 0.1 0.9 0.1 0.9 0.1 0.9 0.1 0.9 0.1 0.9 0.1 0.9 0.1 0.9 0.1 0.9 0.1 0.9 0.1 0.9 0.1 0.9 0.1 0.9 0.1 0.9 0.1 0.9 0.1 0.9 0.1 0.9 0.1 0.9 0.1 0.9 0.1 0.9 0.1 0.9 0.1 0.9 0.1 0.9 0.1 0.9 0.1 0.9 0.1 0.9 0.1 0.9 0.1 0.9 0.1 0.9 0.1 0.9 0.1 0.9 0.1 0.9 0.1 0.9 0.1 0.9 0.1 0.9 0.1 0.9 0.1 0.9 0.1 0.9 0.1 0.9 0.1 0.9 0.1 0.9 0.1 0.9 0.1 0.9 0.1 0.9 0.1 0.9 0.1 0.9 0.1 0.9 0.1 0.9 0.1 0.9 0.1 0.9 0.1 0.9 0.1 0.9 0.1 0.9 0.1 0.9 0.1 0.9 0.1 0.9 0.1 0.9 0.1 0.9 0.1 0.9 0.1 0.9 0.1 0.9 0.1 0.9 0.1 0.9 0.1 0.9 0.1 0.9 0.1 0.9 0.1 0.9333333333333332 0.06666666666666667 0.9 0.1 0.9 0.1 0.9 0.1 0.9 0.1 0.9 0.1 0.9 0.1 0.9 0.1 0.9 0.1 0.9 0.1 0.9 0.1 0.9 0.1 0.9 0.1 0.9 0.1 0.9 0.1 0.9 0.1 0.9 0.1 0.9 0.1 0.9 0.1 0.9 0.1 0.9 0.1 0.9 0.1 0.9 0.1 0.9 0.1 0.9 0.1 0.9 0.1 0.9 0.1 0.9 0.1 0.9 0.1 0.9 0.1 0.9 0.1 0.9333333333333332 0.06666666666666667 0.9 0.1 0.9 0.1 0.9 0.1 0.9 0.1 0.9 0.1 0.9 0.1 0.9 0.1 0.9 0.1 0.9 0.1 0.9 0.1 0.9 0.1 0.9 0.1 0.9 0.1 0.9 0.1 0.9 0.1 0.9 0.1 0.9 0.1 0.9 0.1 0.9 0.1 0.9 0.1 0.9 0.1 0.9 0.1 0.9 0.1 0.9 0.1 0.9 0.1 0.9 0.1 0.9 0.1 0.9 0.1 0.9 0.1 0.9 0.1 0.9 0.1 0.9 0.1 0.9 0.1 0.9 0.1 0.9 0.1 0.9 0.1 0.9 0.1 0.9 0.1 0.9 0.1 0.9 0.1 0.9 0.1 0.9 0.1 0.9 0.1 0.9333333333333332 0.06666666666666667 0.8773063121704302 0.1226936878295697 0.9054150792824582 0.09458492071754171 0.9 0.1 0.9 0.1 0.9 0.1 0.9 0.1 0.8586483055627574 0.1413516944372426 0.9074100173369667 0.09258998266303314 0.9 0.1 0.9 0.1 0.9 0.1 0.9 0.1 0.9 0.1 0.9 0.1 0.9 0.1 0.7479673316478834 0.2520326683521167 0.9059495777966445 0.09405042220335549 0.9 0.1 0.9 0.1 0.9 0.1 0.9333333333333332 0.06666666666666667 0.837910010719241 0.1620899892807589 0.9140173400586145 0.0859826599413855 0.9 0.1 0.9 0.1 0.9 0.1 0.9 0.1 0.9 0.1 0.6130235748288492 0.3869764251711509 0.9333333333333332 0.06666666666666667 0.7402236188287111 0.2597763811712889 0.9183350087934447 0.08166499120655524 0.9 0.1 0.9 0.1 0.6 0.4 0.7 0.3 0.8497364430619031 0.1502635569380969 0.9090108899066054 0.09098911009339467 0.9 0.1 0.9 0.1 0.9 0.1 0.9 0.1 0.9 0.1 0.9 0.1 0.9 0.1 0.8555569202341956 0.1444430797658046 0.9123556286915404 0.08764437130845955 0.9 0.1 0.9 0.1 0.9 0.1 0.9 0.1 0.7352031356718731 0.2647968643281269 0.904546831647261 0.095453168352739 0.9 0.1 0.9 0.1 0.9 0.1 0.9 0.1 0.9 0.1 0.9333333333333332 0.06666666666666667 0.9 0.1 0.8972398619637854 0.1027601380362146 0.9013806776574403 0.09861932234255966 0.9 0.1 0.9 0.1 0.9 0.1 0.9 0.1 0.8946155184180469 0.1053844815819531 0.9024785385314531 0.0975214614685468 0.9 0.1 0.9 0.1 0.9 0.1 0.9 0.1 0.9 0.1 0.7984186714817008 0.2015813285182994 0.8557323195353418 0.1442676804646583 0.8868304831858242 0.1131695168141756 0.8381309083390156 0.1618690916609844 0.7601554054337858 0.2398445945662142 0.9 0.1 0.9016681807855369 0.09833181921446303 0.8973186383330805 0.1026813616669196 0.9 0.1 0.9 0.1 0.9 0.1 0.9 0.1 0.9 0.1 0.9 0.1 0.9 0.1 0.9 0.1 0.9 0.1 0.9214807939315469 0.07851920606845321 0.9 0.1 0.9 0.1 0.9 0.1 0.914775159409534 0.08522484059046587 0.8595973578466346 0.1404026421533652 0.6 0.4 0.9 0.1 0.9 0.1 0.9 0.1 0.9 0.1 0.9 0.1 0.9 0.1 0.9 0.1 0.9 0.1 0.8449505834278166 0.1550494165721833 0.9333333333333332 0.06666666666666667 0.9 0.1 0.9 0.1 0.9188124663739837 0.08118753362601616 0.8190170101219858 0.1809829898780142 0.9 0.1 0.9 0.1 0.9 0.1 0.9 0.1 0.9 0.1 0.9 0.1 0.9 0.1 0.6 0.4 0.7 0.3 0.4741839422756844 0.5258160577243156 0.9 0.1 0.9 0.1 0.9 0.1 0.9068467992751185 0.09315320072488155 0.6769099395156006 0.3230900604843993 0.9 0.1 0.9 0.1 0.9 0.1 0.9 0.1 0.9 0.1 0.9 0.1 0.9 0.1 0.9 0.1 0.9 0.1 0.8865859176699679 0.1134140823300322 0.9 0.1 0.9 0.1 0.6 0.4 0.9004432026418975 0.09955679735810237 0.8810051326550052 0.1189948673449948 0.9 0.1 0.9 0.1 0.9 0.1 0.9 0.1 0.9 0.1 0.9 0.1 0.9 0.1 0.9 0.1 0.9 0.1 0.9 0.1 0.9 0.1 0.9 0.1 0.9 0.1 0.9 0.1 0.9 0.1 0.9 0.1 0.9 0.1 0.9 0.1 0.9 0.1 0.9 0.1 0.9 0.1 0.9 0.1 0.9 0.1 0.9 0.1 0.9 0.1 0.9 0.1 0.9 0.1 0.9 0.1 0.9 0.1 0.9 0.1 0.9 0.1 0.9 0.1 0.9 0.1 0.9 0.1 0.9 0.1 0.9 0.1 0.9 0.1 0.9 0.1 0.9 0.1 0.9 0.1 0.9 0.1 0.9 0.1 0.9 0.1 0.9 0.1 0.9 0.1 0.9 0.1 0.9 0.1 0.9 0.1 0.9 0.1 0.9 0.1 0.9 0.1 0.9 0.1 0.9 0.1 0.9 0.1 0.9 0.1 0.9 0.1 0.9 0.1 0.9 0.1 0.9 0.1 0.9 0.1 0.9 0.1 0.9 0.1 0.9 0.1 0.9 0.1 0.9 0.1 0.9 0.1 0.9 0.1 0.9 0.1 0.9 0.1 0.9 0.1 0.9 0.1 0.9 0.1 0.9 0.1 0.9 0.1 0.9 0.1 0.9 0.1 0.9 0.1 0.9 0.1 0.9 0.1 0.9 0.1 0.9 0.1 0.9 0.1 0.903483820228225 0.09651617977177492 0.9 0.1 0.9 0.1 0.9 0.1 0.9 0.1 0.9 0.1 0.9 0.1 0.9033154572138455 0.09668454278615454 0.9 0.1 0.9 0.1 0.9 0.1 0.9 0.1 0.9 0.1 0.9 0.1 0.9 0.1 0.9131781993637825 0.08682180063621736 0.9 0.1 0.9 0.1 0.9 0.1 0.9 0.1 0.9 0.1 0.9 0.1 0.9033154572138455 0.09668454278615454 0.9 0.1 0.9 0.1 0.9 0.1 0.9 0.1 0.9 0.1 0.9 0.1 0.9 0.1 0.9058627443577002 0.09413725564229986 0.9 0.1 0.9 0.1 0.9 0.1 0.9 0.1 0.9 0.1 0.9 0.1 0.9414780759016452 0.05852192409835471 0.9 0.1 0.4548957936254032 0.5451042063745968 0.9 0.1 0.9 0.1 0.9 0.1 0.9 0.1 0.9 0.1 0.9176104011550082 0.08238959884499163 0.9 0.1 0.9 0.1 0.9 0.1 0.9 0.1 0.9 0.1 0.9 0.1 0.9335145758747061 0.06648542412529383 0.9 0.1 0.9 0.1 0.9 0.1 0.9 0.1 0.9 0.1 0.9 0.1 0.9 0.1 0.903483820228225 0.09651617977177492 0.9 0.1 0.9 0.1 0.9 0.1 0.9 0.1 0.9 0.1 0.9 0.1 0.9179363706622818 0.08206362933771816 0.9 0.1 0.9 0.1 0.9 0.1 0.9 0.1 0.9 0.1 0.9 0.1 0.9 0.1 0.9 0.1 0.858742365406217 0.1412576345937829 0.9 0.1 0.9 0.1 0.9 0.1 0.9 0.1 0.9055683706230807 0.09443162937691918 0.9 0.1 0.9 0.1 0.9 0.1 0.9 0.1 0.9 0.1 0.9 0.1 0.9 0.1 0.9 0.1 0.6 0.4 0.7242278228254924 0.2757721771745076 0.9 0.1 0.9 0.1 0.9 0.1 0.9 0.1 0.9143978001657186 0.08560219983428137 0.9 0.1 0.9333333333333332 0.06666666666666667 0.9 0.1 0.9 0.1 0.9 0.1 0.9 0.1 0.9 0.1 0.9 0.1 0.9140401380581717 0.08595986194182821 0.6529043216729776 0.3470956783270224 0.4730768815504757 0.5269231184495241 0.9351558028923078 0.06484419710769215 0.6100816458331325 0.3899183541668674 0.9 0.1 0.9108524501628676 0.08914754983713223 0.9 0.1 0.9 0.1 0.9 0.1 0.9 0.1 0.9 0.1 0.9 0.1 0.9 0.1 0.9 0.1 0.9 0.1 0.8943293451860231 0.1056706548139769 0.6 0.4 0.9 0.1 0.6 0.4 0.9 0.1 0.9114438381848364 0.08855616181516344 0.6 0.4 0.9293888173977107 0.07061118260228917 0.9 0.1 0.9 0.1 0.9 0.1 0.9 0.1 0.9 0.1 0.9 0.1 0.6 0.4 0.8877060931618358 0.1122939068381642 0.9 0.1 0.9 0.1 0.9 0.1 0.9 0.1 0.9021407477473969 0.09785925225260309 0.9333333333333332 0.06666666666666667 0.9 0.1 0.9 0.1 0.9 0.1 0.9 0.1 0.9 0.1 0.9 0.1 0.9 0.1 0.9 0.1 0.9 0.1 0.9 0.1 0.9 0.1 0.6578039643687291 0.3421960356312709 0.9 0.1 0.9333333333333332 0.06666666666666667 0.9 0.1 0.9 0.1 0.9 0.1 0.9 0.1 0.9 0.1 0.9 0.1 0.9 0.1 0.9 0.1 0.9 0.1 0.9333333333333332 0.06666666666666667 0.9 0.1 0.9 0.1 0.9243211858643328 0.07567881413566732 0.9 0.1 0.9333333333333332 0.06666666666666667 0.9 0.1 0.9 0.1 0.9 0.1 0.9 0.1 0.9 0.1 0.9 0.1 0.9 0.1 0.9 0.1 0.9 0.1 0.9 0.1 0.9 0.1 0.9 0.1 0.8905098279687154 0.1094901720312845 0.9 0.1 0.9 0.1 0.9 0.1 0.9 0.1 0.9 0.1 0.9 0.1 0.9 0.1 0.9 0.1 0.9 0.1 0.9 0.1 0.9 0.1 0.9 0.1 0.9 0.1 0.9 0.1 0.8575305444607031 0.1424694555392968 0.9 0.1 0.9 0.1 0.9 0.1 0.9 0.1 0.9 0.1 0.9 0.1 0.9 0.1 0.9 0.1 0.9 0.1 0.9 0.1 0.9 0.1 0.9 0.1 0.9 0.1 0.9 0.1 0.8906691497644718 0.1093308502355281 0.9 0.1 0.9 0.1 0.9 0.1 0.9 0.1 0.9 0.1 0.9 0.1 0.9 0.1 0.9 0.1 0.9 0.1 0.9 0.1 0.9 0.1 0.9333333333333332 0.06666666666666667 0.9 0.1 0.9 0.1 0.9 0.1 0.9 0.1 0.9478508880207763 0.05214911197922363 0.9333333333333332 0.06666666666666667 0.9 0.1 0.9 0.1 0.9 0.1 0.9 0.1 0.9 0.1 0.9 0.1 0.9 0.1 0.9 0.1 0.9 0.1 0.9 0.1 0.9 0.1 0.9 0.1 0.9 0.1 0.9333333333333332 0.06666666666666667 0.95 0.05 0.9 0.1 0.9 0.1 0.9 0.1 0.9 0.1 0.9 0.1 0.9 0.1 0.9 0.1 0.9 0.1 0.9333333333333332 0.06666666666666667 0.9 0.1 0.9 0.1 0.9 0.1 0.9 0.1 0.6 0.4 0.9 0.1 0.9 0.1 0.9 0.1 0.9 0.1 0.9 0.1 0.9 0.1 0.9 0.1 0.9 0.1 0.9 0.1 0.9 0.1 0.9 0.1 0.9 0.1 0.9 0.1 0.9 0.1 0.9 0.1 0.9 0.1 0.9 0.1 0.9 0.1 0.9 0.1 0.9 0.1 0.9 0.1 0.9 0.1 0.9 0.1 0.9 0.1 0.9 0.1 0.9 0.1 0.9 0.1 0.9 0.1 0.9 0.1 0.9 0.1 0.9 0.1 0.9 0.1 0.9 0.1 0.9 0.1 0.9 0.1 0.9 0.1 0.9 0.1 0.9 0.1 0.9 0.1 0.9 0.1 0.9 0.1 0.9 0.1 0.9 0.1 0.9 0.1 0.9 0.1 0.9 0.1 0.9 0.1 0.9 0.1 0.9 0.1 0.9 0.1 0.9 0.1 0.9 0.1 0.9 0.1 0.9 0.1 0.9 0.1 0.9 0.1 0.9 0.1 0.9 0.1 0.9 0.1 0.9 0.1 0.9 0.1 0.6130235748288492 0.3869764251711509 0.9 0.1 0.9 0.1 0.9 0.1 0.9 0.1 0.9 0.1 0.9 0.1 0.9 0.1 0.9 0.1 0.9 0.1 0.9 0.1 0.9 0.1 0.9 0.1 0.9 0.1 0.9 0.1 0.9 0.1 0.9 0.1 0.9 0.1 0.9 0.1 0.9 0.1 0.9 0.1 0.9 0.1 0.9 0.1 0.9 0.1 0.9 0.1 0.9 0.1 0.9 0.1 0.9 0.1 0.9 0.1 0.9 0.1 0.9 0.1 0.9 0.1 0.9 0.1 0.9 0.1 0.9 0.1 0.9 0.1 0.9 0.1 0.9 0.1 0.9 0.1 0.9 0.1 0.9 0.1 0.9 0.1 0.9 0.1 0.9 0.1 0.9 0.1 0.9 0.1 0.9 0.1 0.9 0.1 0.9 0.1 0.9 0.1 0.9 0.1 0.9 0.1 0.9 0.1 0.9333333333333332 0.06666666666666667 0.9 0.1 0.9 0.1 0.9 0.1 0.9 0.1 0.9 0.1 0.9 0.1 0.9 0.1 0.9 0.1 0.9 0.1 0.9 0.1 0.9 0.1 0.9 0.1 0.9 0.1 0.9 0.1 0.9333333333333332 0.06666666666666667 0.9 0.1 0.9 0.1 0.9 0.1 0.9 0.1 0.9 0.1 0.9 0.1 0.9 0.1 0.9 0.1 0.9 0.1 0.9 0.1 0.9 0.1 0.9 0.1 0.9 0.1 0.9 0.1 0.9 0.1 0.9 0.1 0.9 0.1 0.9 0.1 0.9 0.1 0.9 0.1 0.9 0.1 0.9 0.1 0.9 0.1 0.9 0.1 0.9 0.1 0.9 0.1 0.9 0.1 0.9 0.1 0.9 0.1 0.9 0.1 0.9 0.1 0.9 0.1 0.9 0.1 0.9 0.1 0.9 0.1 0.9333333333333332 0.06666666666666667 0.9333333333333332 0.06666666666666667 0.9 0.1 0.9 0.1 0.9 0.1 0.9 0.1 0.9 0.1 0.9 0.1 0.9 0.1 0.9 0.1 0.9 0.1 0.9 0.1 0.9 0.1 0.9 0.1 0.9 0.1 0.9 0.1 0.9 0.1 0.9 0.1 0.9 0.1 0.9 0.1 0.9 0.1 0.9 0.1 0.9 0.1 0.9 0.1 0.9 0.1 0.8988050558173992 0.1011949441826008 0.9356024381586645 0.06439756184133544 0.9 0.1 0.9333333333333332 0.06666666666666667 0.9 0.1 0.9 0.1 0.9 0.1 0.9 0.1 0.9 0.1 0.9 0.1 0.9 0.1 0.9 0.1 0.9 0.1 0.9 0.1 0.9 0.1 0.6883582175325752 0.3116417824674247 0.9053459544161445 0.0946540455838555 0.9 0.1 0.9 0.1 0.9 0.1 0.9 0.1 0.9 0.1 0.9 0.1 0.9 0.1 0.9 0.1 0.9 0.1 0.9 0.1 0.9 0.1 0.9333333333333332 0.06666666666666667 0.9 0.1 0.8451898909661484 0.1548101090338516 0.9166821175806028 0.08331788241939724 0.9 0.1 0.9 0.1 0.9 0.1 0.6 0.4 0.9 0.1 0.9333333333333332 0.06666666666666667 0.9 0.1 0.9 0.1 0.9 0.1 0.9 0.1 0.9 0.1 0.9 0.1 0.45 0.55 0.8967765960472998 0.1032234039527002 0.6353953310158862 0.3646046689841138 0.9 0.1 0.9 0.1 0.9293888173977107 0.07061118260228917 0.9 0.1 0.9 0.1 0.9 0.1 0.9 0.1 0.9 0.1 0.9 0.1 0.9 0.1 0.9 0.1 0.9 0.1 0.9 0.1 0.8998766710660591 0.100123328933941 0.9012351304922753 0.09876486950772465 0.9 0.1 0.9 0.1 0.9 0.1 0.9 0.1 0.9 0.1 0.9 0.1 0.9 0.1 0.9 0.1 0.9 0.1 0.9 0.1 0.9 0.1 0.9 0.1 0.903528985389948 0.09647101461005188 0.9006727045804259 0.09932729541957404 0.9299613751076812 0.07003862489231881 0.9 0.1 0.9 0.1 0.9 0.1 0.9 0.1 0.9 0.1 0.9 0.1 0.9 0.1 0.9 0.1 0.9 0.1 0.9 0.1 0.9 0.1 0.9478508880207763 0.05214911197922363 0.6609235911843188 0.3390764088156812 0.9075046367127014 0.09249536328729846 0.8579790172496131 0.1420209827503869 0.6 0.4 0.9 0.1 0.9333333333333332 0.06666666666666667 0.9 0.1 0.9 0.1 0.9 0.1 0.9 0.1 0.9 0.1 0.9 0.1 0.9 0.1 0.9 0.1 0.9333333333333332 0.06666666666666667 0.9604021478362292 0.03959785216377068 0.9113555013173494 0.08864449868265045 0.4880656165188034 0.5119343834811967 0.9333333333333332 0.06666666666666667 0.9 0.1 0.9 0.1 0.9 0.1 0.9 0.1 0.9 0.1 0.9 0.1 0.9 0.1 0.9 0.1 0.9 0.1 0.9 0.1 0.9333333333333332 0.06666666666666667 0.9137387158236626 0.08626128417633738 0.919459781739363 0.08054021826063684 0.9320526245979808 0.0679473754020193 0.6 0.4 0.9 0.1 0.9 0.1 0.9 0.1 0.9 0.1 0.9 0.1 0.9 0.1 0.9 0.1 0.9 0.1 0.9 0.1 0.9 0.1 0.9 0.1 0.9009163680711137 0.09908363192888613 0.9040652192817781 0.09593478071822191 0.8981625066673391 0.101837493332661 0.9 0.1 0.9 0.1 0.9 0.1 0.9 0.1 0.9 0.1 0.9 0.1 0.9 0.1 0.9 0.1 0.9 0.1 0.9 0.1 0.9 0.1 0.9 0.1 0.9 0.1 0.9 0.1 0.9 0.1 0.9 0.1 0.9105149939886443 0.08948500601135563 0.9 0.1 0.9 0.1 0.9 0.1 0.9 0.1 0.9 0.1 0.9 0.1 0.9 0.1 0.9 0.1 0.9 0.1 0.9 0.1 0.9 0.1 0.9 0.1 0.9 0.1 0.9 0.1 0.9035393499099563 0.09646065009004362 0.9 0.1 0.9 0.1 0.9 0.1 0.9 0.1 0.9 0.1 0.9 0.1 0.9 0.1 0.9 0.1 0.9 0.1 0.9 0.1 0.9 0.1 0.9 0.1 0.9 0.1 0.9 0.1 0.9159981017356889 0.08400189826431109 0.9 0.1 0.9 0.1 0.9 0.1 0.9 0.1 0.9 0.1 0.9 0.1 0.9 0.1 0.9 0.1 0.9 0.1 0.9 0.1 0.9 0.1 0.9 0.1 0.9 0.1 0.9 0.1 0.910923406394257 0.08907659360574298 0.9 0.1 0.9 0.1 0.9 0.1 0.9 0.1 0.9 0.1 0.9 0.1 0.9 0.1 0.9 0.1 0.9 0.1 0.9 0.1 0.9 0.1 0.9 0.1 0.9 0.1 0.9 0.1 0.9031686629946531 0.09683133700534693 0.9 0.1 0.9 0.1 0.9 0.1 0.9 0.1 0.9 0.1 0.9 0.1 0.9 0.1 0.9 0.1 0.9 0.1 0.9 0.1 0.9 0.1 0.9 0.1 0.9 0.1 0.9008389614812913 0.09916103851870867 0.9 0.1 0.9034518104808831 0.09654818951911684 0.9 0.1 0.9 0.1 0.9 0.1 0.9 0.1 0.9 0.1 0.9 0.1 0.9 0.1 0.9 0.1 0.9 0.1 0.9 0.1 0.9 0.1 0.9 0.1 0.9068320085472852 0.09316799145271475 0.9 0.1 0.9033966060665281 0.09660339393347189 0.9 0.1 0.9 0.1 0.9 0.1 0.9 0.1 0.9 0.1 0.9 0.1 0.9 0.1 0.9 0.1 0.9 0.1 0.9 0.1 0.9 0.1 0.9 0.1 0.9164381848070947 0.08356181519290523 0.9 0.1 0.913358269801012 0.08664173019898801 0.9 0.1 0.9 0.1 0.9454684992075297 0.05453150079247026 0.9 0.1 0.9 0.1 0.9 0.1 0.9 0.1 0.9 0.1 0.9 0.1 0.9 0.1 0.9 0.1 0.9 0.1 0.9175618048773464 0.0824381951226535 0.6130235748288492 0.3869764251711509 0.9210535257081078 0.07894647429189207 0.9 0.1 0.9 0.1 0.9 0.1 0.9 0.1 0.9 0.1 0.9 0.1 0.9 0.1 0.9 0.1 0.9 0.1 0.9 0.1 0.9 0.1 0.9 0.1 0.9008389614812913 0.09916103851870867 0.9 0.1 0.9008161071199298 0.09918389288007022 0.9 0.1 0.9 0.1 0.9 0.1 0.9 0.1 0.9 0.1 0.9 0.1 0.9 0.1 0.9 0.1 0.9020708054113862 0.09792919458861382 0.8692975358462076 0.1307024641537925 0.9 0.1 0.9277269836065876 0.07227301639341241 0.9 0.1 0.9293888173977107 0.07061118260228917 0.9 0.1 0.8993473416320864 0.1006526583679135 0.9 0.1 0.9 0.1 0.9 0.1 0.9 0.1 0.9 0.1 0.9 0.1 0.9 0.1 0.9439902954501286 0.05600970454987154 0.5012684389032006 0.4987315610967994 0.9081094548630175 0.0918905451369824 0.8986531762130775 0.1013468237869223 0.9084873252414062 0.09151267475859388 0.9535962134757143 0.04640378652428558 0.915204839548218 0.08479516045178197 0.9127219068150386 0.08727809318496142 0.9094519898023272 0.09054801019767263 0.9124681700472623 0.08753182995273751 0.9 0.1 0.9 0.1 0.9 0.1 0.9 0.1 0.9 0.1 0.4883801342494595 0.5116198657505404 0.6120687172224275 0.3879312827775723 0.6 0.4 0.3727744404828473 0.6272255595171528 0.9 0.1 0.7995673376935829 0.2004326623064171 0.5512027283241056 0.4487972716758944 0.8285731807028024 0.1714268192971976 0.665754618871866 0.334245381128134 0.9246144362441943 0.07538556375580562 0.9 0.1 0.9 0.1 0.9 0.1 0.9 0.1 0.9 0.1 0.9479994923568394 0.05200050764316051 0.4463995007505496 0.5536004992494503 0.9055499266091974 0.09445007339080251 0.8816548333828856 0.1183451666171144 0.7135826469685399 0.2864173530314601 0.8873532729490166 0.1126467270509834 0.5517717386873512 0.448228261312649 0.6247853013191723 0.3752146986808276 0.8722061879178411 0.1277938120821588 0.8439116674875434 0.1560883325124566 0.9 0.1 0.9 0.1 0.9 0.1 0.9 0.1 0.9 0.1 0.9007870234837833 0.09921297651621686 0.5962990162872096 0.4037009837127902 0.9 0.1 0.8982091741433508 0.1017908258566493 0.9 0.1 0.9 0.1 0.9333333333333332 0.06666666666666667 0.8996055650355397 0.1003944349644603 0.9 0.1 0.9 0.1 0.9 0.1 0.9 0.1 0.9 0.1 0.9 0.1 0.9 0.1 0.6 0.4 0.9 0.1 0.9 0.1 0.898678812003605 0.101321187996395 0.8722052365581521 0.1277947634418479 0.9 0.1 0.9 0.1 0.9 0.1 0.9 0.1 0.9 0.1 0.9 0.1 0.9 0.1 0.9 0.1 0.9 0.1 0.8722052365581521 0.1277947634418479 0.9 0.1 0.9 0.1 0.9 0.1 0.8986037302224746 0.1013962697775252 0.9 0.1 0.9 0.1 0.9 0.1 0.9 0.1 0.9 0.1 0.9 0.1 0.9 0.1 0.9 0.1 0.9 0.1 0.9 0.1 0.9 0.1 0.9 0.1 0.9 0.1 0.9 0.1 0.8563323899931617 0.1436676100068383 0.9 0.1 0.9 0.1 0.9 0.1 0.9 0.1 0.9 0.1 0.9 0.1 0.9 0.1 0.9 0.1 0.9 0.1 0.9 0.1 0.8722052365581521 0.1277947634418479 0.9 0.1 0.9 0.1 0.9 0.1 0.8975544897303634 0.1024455102696367 0.9 0.1 0.9 0.1 0.9 0.1 0.9 0.1 0.9 0.1 0.9 0.1 0.9 0.1 0.9 0.1 0.9 0.1 0.9 0.1 0.9 0.1 0.9 0.1 0.9 0.1 0.9 0.1 0.899646683063425 0.100353316936575 0.9 0.1 0.9 0.1 0.9 0.1 0.9 0.1 0.9 0.1 0.9 0.1 0.9 0.1 0.9 0.1 0.9 0.1 0.9 0.1 0.9 0.1 0.9 0.1 0.9 0.1 0.9 0.1 0.9 0.1 0.9 0.1 0.9 0.1 0.6 0.4 0.9 0.1 0.9 0.1 0.9 0.1 0.9 0.1 0.9 0.1 0.9 0.1 0.9 0.1 0.9 0.1 0.9 0.1 0.9 0.1 0.9 0.1 0.9 0.1 0.9 0.1 0.9 0.1 0.9 0.1 0.9 0.1 0.9 0.1 0.9 0.1 0.9 0.1 0.9 0.1 0.9 0.1 0.9 0.1 0.9 0.1 0.9 0.1 0.9 0.1 0.9 0.1 0.9 0.1 0.9 0.1 0.9 0.1 0.9 0.1 0.9 0.1 0.9 0.1 0.9 0.1 0.9 0.1 0.9 0.1 0.9 0.1 0.9 0.1 0.9 0.1 0.9 0.1 0.9 0.1 0.9 0.1 0.8722052365581521 0.1277947634418479 0.9 0.1 0.9 0.1 0.9 0.1 0.9 0.1 0.9 0.1 0.9 0.1 0.9 0.1 0.9 0.1 0.9 0.1 0.9 0.1 0.9 0.1 0.9 0.1 0.9 0.1 0.9 0.1 0.9 0.1 0.9 0.1 0.9 0.1 0.9 0.1 0.9 0.1 0.9 0.1 0.9 0.1 0.9 0.1 0.9 0.1 0.9 0.1 0.9 0.1 0.9 0.1 0.9333333333333332 0.06666666666666667 0.9 0.1 0.9 0.1 0.9 0.1 0.9 0.1 0.9 0.1 0.9 0.1 0.9 0.1 0.9 0.1 0.9 0.1 0.9 0.1 0.9 0.1 0.9 0.1 0.9 0.1 0.9 0.1 0.9 0.1 0.9 0.1 0.9 0.1 0.9 0.1 0.9 0.1 0.9 0.1 0.9 0.1 0.9 0.1 0.9 0.1 0.8722052365581521 0.1277947634418479 0.9 0.1 0.9 0.1 0.9 0.1 0.9 0.1 0.9 0.1 0.9 0.1 0.9 0.1 0.9 0.1 0.9 0.1 0.9 0.1 0.9 0.1 0.9 0.1 0.9 0.1 0.9 0.1 0.9 0.1 0.9 0.1 0.9 0.1 0.9 0.1 0.9 0.1 0.9 0.1 0.9 0.1 0.9 0.1 0.9 0.1 0.9 0.1 0.9077315195303709 0.09226848046962904 0.9 0.1 0.9 0.1 0.9 0.1 0.9 0.1 0.9 0.1 0.9 0.1 0.9 0.1 0.9 0.1 0.9 0.1 0.9 0.1 0.9 0.1 0.9 0.1 0.9 0.1 0.9 0.1 0.9 0.1 0.9 0.1 0.9 0.1 0.9 0.1 0.9 0.1 0.9 0.1 0.9 0.1 0.9 0.1 0.9 0.1 0.9 0.1 0.9 0.1 0.9 0.1 0.9 0.1 0.9 0.1 0.9 0.1 0.9 0.1 0.9 0.1 0.9 0.1 0.9 0.1 0.8992254254394713 0.1007745745605286 0.9 0.1 0.9 0.1 0.9 0.1 0.9 0.1 0.9 0.1 0.9 0.1 0.8805381104035785 0.1194618895964215 0.9 0.1 0.9 0.1 0.9 0.1 0.9 0.1 0.8832851924051066 0.1167148075948934 0.9 0.1 0.9 0.1 0.8971197938478352 0.1028802061521648 0.9 0.1 0.8981348813429252 0.1018651186570747 0.9 0.1 0.9 0.1 0.9 0.1 0.9 0.1 0.9 0.1 0.9 0.1 0.9 0.1 0.9 0.1 0.9 0.1 0.9 0.1 0.9 0.1 0.9 0.1 0.8968748537018122 0.1031251462981879 0.9 0.1 0.9 0.1 0.9 0.1 0.9 0.1 0.9 0.1 0.9 0.1 0.9 0.1 0.9 0.1 0.9 0.1 0.9 0.1 0.9 0.1 0.9 0.1 0.9 0.1 0.9 0.1 0.8826657586277046 0.1173342413722954 0.9 0.1 0.9 0.1 0.9 0.1 0.9 0.1 0.9 0.1 0.9 0.1 0.9 0.1 0.9 0.1 0.9 0.1 0.9 0.1 0.9 0.1 0.9 0.1 0.9 0.1 0.9 0.1 0.8992254254394713 0.1007745745605286 0.8722052365581521 0.1277947634418479 0.9 0.1 0.9 0.1 0.9 0.1 0.9 0.1 0.9 0.1 0.6482921652776064 0.3517078347223936 0.9 0.1 0.9 0.1 0.8531943047821736 0.1468056952178263 0.8560472444191152 0.1439527555808849 0.8037539589038798 0.1962460410961202 0.9 0.1 0.9 0.1 0.8982534281376041 0.1017465718623959 0.905163577214225 0.09483642278577487 0.8959864314473328 0.1040135685526673 0.9 0.1 0.9 0.1 0.9 0.1 0.900107025438173 0.09989297456182694 0.8950965293409673 0.1049034706590326 0.9 0.1 0.9 0.1 0.9376103256772969 0.062389674322703 0.9077315195303709 0.09226848046962904 0.9014331325307239 0.09856686746927595 0.9004294321707523 0.0995705678292477 0.9033776218679156 0.09662237813208432 0.9066829307971817 0.0933170692028185 0.8686425454701393 0.1313574545298607 0.9 0.1 0.9 0.1 0.9 0.1 0.9 0.1 0.9 0.1 0.8857105902481064 0.1142894097518936 0.9 0.1 0.9 0.1 0.7164484494299718 0.2835515505700281 0.8832980332786307 0.1167019667213692 0.9369497050870971 0.06305029491290297 0.9 0.1 0.9 0.1 0.8751131415847413 0.1248868584152587 0.9 0.1 0.9 0.1 0.9 0.1 0.9 0.1 0.9 0.1 0.9 0.1 0.8987210717624046 0.1012789282375954 0.8773140373248541 0.1226859626751459 0.9 0.1 0.9075901019868504 0.09240989801314958 0.9 0.1 0.9 0.1 0.9 0.1 0.9 0.1 0.8959479638489913 0.1040520361510086 0.9 0.1 0.9 0.1 0.9 0.1 0.9 0.1 0.9 0.1 0.9 0.1 0.8994368037480829 0.1005631962519171 0.9 0.1 0.9 0.1 0.9 0.1 0.8722052365581521 0.1277947634418479 0.9 0.1 0.9 0.1 0.9 0.1 0.8708447514252272 0.1291552485747729 0.9 0.1 0.9 0.1 0.9 0.1 0.9 0.1 0.9 0.1 0.9 0.1 0.9077198099594109 0.092280190040589 0.9 0.1 0.9 0.1 0.9 0.1 0.9 0.1 0.902369382270139 0.09763061772986095 0.9003321410658941 0.09966785893410576 0.9 0.1 0.9 0.1 0.9 0.1 0.9 0.1 0.9 0.1 0.9 0.1 0.9 0.1 0.9 0.1 0.9333333333333332 0.06666666666666667 0.9 0.1 0.9 0.1 0.9140201892099035 0.08597981079009648 0.9 0.1 0.9119557130697801 0.08804428693021982 0.6061015922811341 0.3938984077188658 0.9 0.1 0.9 0.1 0.9 0.1 0.9 0.1 0.9 0.1 0.9 0.1 0.9 0.1 0.9 0.1 0.9 0.1 0.9 0.1 0.9 0.1 0.8907792455323523 0.1092207544676478 0.9 0.1 0.9122097179111066 0.08779028208889339 0.9042835100803417 0.09571648991965828 0.9 0.1 0.8603435765176322 0.1396564234823678 0.9 0.1 0.9 0.1 0.9 0.1 0.9 0.1 0.9 0.1 0.9 0.1 0.9333333333333332 0.06666666666666667 0.9 0.1 0.9 0.1 0.909643787405796 0.09035621259420401 0.908079904968946 0.09192009503105396 0.9142245893632375 0.0857754106367624 0.9014178908585442 0.09858210914145572 0.9 0.1 0.9 0.1 0.8722052365581521 0.1277947634418479 0.9 0.1 0.9 0.1 0.9 0.1 0.9 0.1 0.9 0.1 0.9 0.1 0.9 0.1 0.9 0.1 0.9 0.1 0.8739600213683488 0.1260399786316511 0.9033840319860618 0.09661596801393818 0.9000874495894383 0.09991255041056163 0.9 0.1 0.9 0.1 0.9 0.1 0.9 0.1 0.9 0.1 0.9 0.1 0.9 0.1 0.9 0.1 0.9 0.1 0.9 0.1 0.9 0.1 0.9 0.1 0.9 0.1 0.9 0.1 0.9 0.1 0.9 0.1 0.9 0.1 0.9 0.1 0.9 0.1 0.9 0.1 0.9 0.1 0.9 0.1 0.9 0.1 0.9 0.1 0.9 0.1 0.9 0.1 0.9077237442214874 0.09227625577851262 0.9 0.1 0.9 0.1 0.9 0.1 0.9 0.1 0.9 0.1 0.9 0.1 0.9 0.1 0.9 0.1 0.9 0.1 0.9 0.1 0.9 0.1 0.9 0.1 0.9 0.1 0.9 0.1 0.9 0.1 0.9 0.1 0.9 0.1 0.8722052365581521 0.1277947634418479 0.9 0.1 0.9 0.1 0.9 0.1 0.9 0.1 0.9 0.1 0.9 0.1 0.9 0.1 0.9 0.1 0.9 0.1 0.9 0.1 0.9 0.1 0.9 0.1 0.9 0.1 0.9 0.1 0.9 0.1 0.9 0.1 0.9 0.1 0.9 0.1 0.9 0.1 0.9 0.1 0.9 0.1 0.9 0.1 0.9 0.1 0.9 0.1 0.9 0.1 0.9 0.1 0.9 0.1 0.9 0.1 0.9 0.1 0.9 0.1 0.9 0.1 0.9 0.1 0.9 0.1 0.9 0.1 0.9 0.1 0.9 0.1 0.9 0.1 0.9 0.1 0.8942966205840045 0.1057033794159955 0.9 0.1 0.9009109543877004 0.09908904561229953 0.9 0.1 0.9 0.1 0.9 0.1 0.9 0.1 0.9 0.1 0.9333333333333332 0.06666666666666667 0.9 0.1 0.9 0.1 0.9 0.1 0.9 0.1 0.9 0.1 0.9 0.1 0.5300362941118554 0.4699637058881446 0.9 0.1 0.9009109543877004 0.09908904561229953 0.9 0.1 0.9 0.1 0.9333333333333332 0.06666666666666667 0.9 0.1 0.9 0.1 0.9 0.1 0.8722052365581521 0.1277947634418479 0.9 0.1 0.9 0.1 0.9 0.1 0.9 0.1 0.9 0.1 0.8893190225087615 0.1106809774912385 0.9 0.1 0.9196933449904831 0.08030665500951693 0.9 0.1 0.9 0.1 0.9 0.1 0.8722052365581521 0.1277947634418479 0.9 0.1 0.9 0.1 0.5437612709971772 0.4562387290028228 0.9 0.1 0.9 0.1 0.9 0.1 0.9 0.1 0.9 0.1 0.7046456162198155 0.2953543837801844 0.9 0.1 0.9199777873398173 0.08002221266018265 0.9 0.1 0.9 0.1 0.9 0.1 0.9 0.1 0.9 0.1 0.9 0.1 0.9 0.1 0.6 0.4 0.9 0.1 0.9 0.1 0.9 0.1 0.9 0.1 0.8942966205840045 0.1057033794159955 0.9 0.1 0.9066699204308802 0.09333007956911971 0.9 0.1 0.9 0.1 0.9 0.1 0.9 0.1 0.9 0.1 0.9 0.1 0.9 0.1 0.9 0.1 0.9 0.1 0.9 0.1 0.9 0.1 0.9 0.1 0.8981427934081192 0.1018572065918808 0.9014629488042082 0.09853705119579177 0.9012430418357459 0.09875695816425412 0.9006697607193943 0.09933023928060569 0.9083992539254806 0.09160074607451947 0.9000513854459732 0.09994861455402682 0.9078090734065849 0.09219092659341506 0.9000938802697727 0.09990611973022737 0.871548599596525 0.1284514004034749 0.5889926921769506 0.4110073078230495 0.900001261862154 0.09999873813784607 0.9000129856337249 0.09998701436627497 0.900003241833461 0.09999675816653908 0.9000045018721683 0.09999549812783169 0.900001107067976 0.09999889293202398 0.9088576811000384 0.09114231889996165 0.9176979440561648 0.08230205594383512 0.9022509253057129 0.09774907469428699 0.8883787642417472 0.1116212357582528 0.9010269074674964 0.09897309253250364 0.9401642559842377 0.05983574401576217 0.9002529608724411 0.09974703912755897 0.907732282716386 0.09226771728361391 0.9199568796093289 0.08004312039067091 0.8925270095399137 0.1074729904600864 0.9000073202030349 0.09999267979696509 0.9000361143563761 0.09996388564362378 0.900008017184619 0.09999198281538102 0.9000171263621689 0.09998287363783098 0.9000032788262575 0.09999672117374245 0.8958722271836207 0.1041277728163794 0.9030622874264764 0.09693771257352361 0.9259985026839884 0.07400149731601147 0.8817946624816293 0.1182053375183708 0.9181632507179771 0.08183674928202291 0.7111736475420714 0.2888263524579286 0.900182784451524 0.09981721554847606 0.9155289504184176 0.08447104958158229 0.9216437867412798 0.07835621325872012 0.8888872422955858 0.1111127577044142 0.9000094532918681 0.09999054670813175 0.9000263923803352 0.09997360761966485 0.9014226200601915 0.09857737993980852 0.9000214453116996 0.09997855468830047 0.9000032090598327 0.0999967909401674 0.8945150279229223 0.1054849720770778 0.903130135452733 0.096869864547267 0.9048871699512693 0.09511283004873064 0.8678253362139914 0.1321746637860086 0.882079241288086 0.1179207587119141 0.6002715699742132 0.3997284300257869 0.900193391395726 0.09980660860427411 0.9004017503228338 0.09959824967716628 0.8974077770678279 0.1025922229321721 0.9178377002104567 0.0821622997895432 0.9000037140793332 0.09999628592066664 0.9000279725695289 0.09997202743047096 0.9000133251900737 0.09998667480992628 0.9000166572008081 0.0999833427991919 0.9000052557437088 0.09999474425629128 0.8991209080658386 0.1008790919341615 0.9005284956387577 0.0994715043612423 0.9008287360393376 0.09917126396066241 0.9003751438500548 0.09962485614994532 0.8727433580140959 0.1272566419859042 0.9000245730063058 0.09997542699369419 0.9000323812042673 0.09996761879573263 0.90006624225232 0.09993375774768003 0.9000303183883622 0.09996968161163776 0.899430151866785 0.1005698481332148 0.900000604337677 0.09999939566232308 0.9000047091144678 0.09999529088553225 0.9000022885113109 0.09999771148868904 0.9000025598254566 0.09999744017454337 0.9000004187756917 0.09999958122430841 0.9019434376190772 0.09805656238092279 0.9007053550816116 0.09929464491838819 0.9001223343497711 0.09987766565022896 0.900337588807426 0.09966241119257403 0.9015570148670619 0.09844298513293805 0.9349788494405322 0.06502115055946762 0.9103684419160941 0.08963155808390581 0.9005166356396468 0.09948336436035315 0.9009051849202188 0.09909481507978132 0.9036394787593356 0.09636052124066445 0.9002309549574866 0.09976904504251345 0.9001392808548092 0.0998607191451908 0.9001706412809487 0.09982935871905112 0.9000773234695554 0.09992267653044459 0.900985538678914 0.09901446132108598 0.8900046298960653 0.1099953701039346 0.8928347188662866 0.1071652811337135 0.8964821103866522 0.1035178896133478 0.8971452079441984 0.1028547920558017 0.8939908163388818 0.1060091836611183 0.9243415097615318 0.07565849023846824 0.6541734303272828 0.3458265696727172 0.8785984006809591 0.1214015993190409 0.8921936584962541 0.1078063415037458 0.8970732083995496 0.1029267916004503 0.8990092032819953 0.1009907967180048 0.8987515340037268 0.1012484659962731 0.89492739531511 0.10507260468489 0.8994317995000561 0.1005682004999439 0.8967183131683905 0.1032816868316096 0.9001813201663593 0.09981867983364059 0.9002909962092562 0.09970900379074372 0.9001223343497711 0.09987766565022896 0.9007885437424953 0.0992114562575046 0.9006653501036348 0.09933464989636503 0.9003292612024028 0.09967073879759725 0.9011955716722705 0.09880442832772944 0.9005166356396468 0.09948336436035315 0.902101772407091 0.09789822759290898 0.9015610776873284 0.09843892231267143 0.9000217101758569 0.09997828982414317 0.9000573112493202 0.0999426887506798 0.9001706412809487 0.09982935871905112 0.9001811059439613 0.09981889405603858 0.900420046620466 0.0995799533795339 0.9001813201663593 0.09981867983364059 0.9002909962092562 0.09970900379074372 0.9001223343497711 0.09987766565022896 0.9005785503262677 0.09942144967373238 0.9016876575611662 0.09831234243883383 0.9003292612024028 0.09967073879759725 0.9011955716722705 0.09880442832772944 0.9005166356396468 0.09948336436035315 0.9015463497790273 0.09845365022097263 0.9039428615788186 0.09605713842118131 0.9000217101758569 0.09997828982414317 0.9000573112493202 0.0999426887506798 0.9001706412809487 0.09982935871905112 0.9001327076704095 0.09986729232959041 0.9010686276030434 0.09893137239695646 0.9001813201663593 0.09981867983364059 0.9000832735825703 0.0999167264174296 0.9001223343497711 0.09987766565022896 0.9000965179698068 0.0999034820301931 0.9006562406379448 0.0993437593620552 0.9003292612024028 0.09967073879759725 0.9003438734590096 0.09965612654099043 0.9005166356396468 0.09948336436035315 0.9002596203137171 0.0997403796862828 0.9015397500935369 0.09846024990646313 0.9000217101758569 0.09997828982414317 0.9000163792877945 0.09998362071220539 0.9001706412809487 0.09982935871905112 0.9000220750406431 0.09997792495935681 0.9004142847250923 0.09958571527490757 0.9 