<?xml version="1.0" encoding="UTF-8"?>
<!-- This network was created in GeNIe Academic, which can be used for academic teaching and research purposes only -->
<smile version="1.0" id="Network1" numsamples="10000" discsamples="10000">
	<nodes>
		<cpt id="Age">
			<state id="Age_12" />
			<state id="Age_13" />
			<state id="Age_14" />
			<state id="Age_15" />
			<state id="Age_16" />
			<probabilities>0.2 0.2 0.2 0.2 0.2</probabilities>
			<property id="DSL_OUTCOME_ORDER">1</property>
		</cpt>
		<cpt id="Gender">
			<state id="Male" />
			<state id="Female" />
			<state id="NonBinary" />
			<probabilities>0.48 0.48 0.04</probabilities>
		</cpt>
		<cpt id="Self_Esteem">
			<state id="State0" />
			<state id="State1" />
			<state id="State2" />
			<probabilities>0.2131099353321575 0.4247501469723692 0.3621399176954733</probabilities>
			<property id="DSL_OUTCOME_ORDER">1</property>
		</cpt>
		<cpt id="Social_Support">
			<state id="State0" />
			<state id="State1" />
			<state id="State2" />
			<probabilities>0.07289829512051735 0.3586125808348031 0.5684891240446796</probabilities>
			<property id="DSL_OUTCOME_ORDER">1</property>
		</cpt>
		<cpt id="Family_Support">
			<state id="State0" />
			<state id="State1" />
			<state id="State2" />
			<parents>Gender Age</parents>
			<probabilities>0.06896146542706773 0.2275598953799781 0.7034786391929541 0.05694509824876509 0.202736452430468 0.7403184493207668 0.02451792321091173 0.2295065571216889 0.7459755196673992 0.03703066150811596 0.2991355444747818 0.6638337940171022 0.07807443152976555 0.3277231439185356 0.5942024245516987 0.1047213695923335 0.287823430482115 0.6074551999255516 0.1304096116860976 0.313508302643285 0.5560820856706175 0.07506995990729083 0.3463600012179024 0.5785700388748068 0.1643806018418163 0.3175054274719533 0.5181139706862304 0.0777887088479593 0.3523555883577854 0.5698557027942553 0.1347658610352286 0.5235114739563929 0.3417226650083787 0.1427742686727701 0.1386079752216572 0.7186177561055728 0.5574992320067778 0.1113903106924105 0.3311104573008116 0.1670081599984576 0.3539605877668868 0.4790312522346555 0.7375596965883603 0.1245325910217327 0.137907712389907</probabilities>
			<property id="DSL_OUTCOME_ORDER">1</property>
		</cpt>
		<cpt id="Hours_Internet">
			<state id="State0" />
			<state id="State1" />
			<state id="State2" />
			<state id="State3" />
			<state id="State4" />
			<parents>Family_Support Social_Support Age</parents>
			<probabilities>0.4663810829784525 0.3684108044927188 0.05506937084294285 0.05506937084294285 0.05506937084294285 0.3307132014609424 0.3581517304283613 0.1361216322408579 0.1361216322408579 0.03889180362898052 0.1240813386397709 0.5036746454409163 0.1240813386397709 0.1240813386397709 0.1240813386397709 0.1698018584339318 0.1825624803096713 0.303995986301776 0.2956255957139244 0.04801407924069642 0.233905409867373 0.1499830351413067 0.1377276585649226 0.3404886149192838 0.1378952815071138 0.08975298885155074 0.3622282247340328 0.09603757282883296 0.3622282247340328 0.08975298885155074 0.4781071606298453 0.2784616232360448 0.08460007303634003 0.07941557154888487 0.07941557154888487 0.08528065105560931 0.08528065105560931 0.4450543997408219 0.2991036470923502 0.08528065105560931 0.0490698193898448 0.1726507380575725 0.180929889444152 0.548279733718586 0.0490698193898448 0.07693154883494736 0.07693154883494736 0.1152858509842383 0.2692607335706363 0.4615903177752307 0.2666112115626096 0.0930472706979833 0.2666112115626096 0.2977345997032606 0.07599570647353693 0.1174072106674974 0.1944870429197159 0.4139189204890178 0.1567796152562715 0.1174072106674974 0.06201834686287828 0.2535792719674044 0.2172990258365245 0.4050850084703146 0.06201834686287828 0.2196571551188085 0.2643524529478818 0.2196571551188085 0.2335740831563034 0.06275915365819784 0.1575425668041579 0.2090757771592788 0.1575425668041579 0.3182965224282475 0.1575425668041579 0.2800084692772268 0.2800084692772268 0.07998729608415987 0.2800084692772268 0.07998729608415987 0.5336348883309778 0.19989013159278 0.19989013159278 0.03329242424173109 0.03329242424173109 0.4250028150749897 0.2999998830018688 0.04999929150957861 0.1749987189039842 0.04999929150957861 0.07999915929495728 0.07999915929495728 0.4800031036877411 0.2799994184273871 0.07999915929495728 0.09981353924376646 0.3502796911343503 0.3502796911343503 0.09981353924376646 0.09981353924376646 0.1477430140766935 0.2578581012080811 0.3283256105019547 0.175099159385531 0.09097411482773976 0.161586784815162 0.06537933320613259 0.2405852460350664 0.5145085202139896 0.01794011572964932 0.1140295883169412 0.313544282680945 0.3840408799416106 0.1731957121753305 0.01518953688517283 0.1228699886334713 0.160921292702452 0.3945415409171418 0.2916680056775943 0.02999917206934081 0.2071120574646932 0.3437854962794166 0.2475687670460924 0.132237803277957 0.0692958759318405 0.07531473606778698 0.2903819229170616 0.1297219110364193 0.4292666939109453 0.07531473606778698 0.1374987610468308 0.1380288270876237 0.3359805689581026 0.3492721312025048 0.03921971170493806 0.02593086222390726 0.02593086222390726 0.4949559600178939 0.2946068558748972 0.1585754596593944 0.1915240106263501 0.1311030411012758 0.1275061186245714 0.3684241199811152 0.1814427096666875 0.01955755994426461 0.1689283756265209 0.4408661089580909 0.3510903955268589 0.01955755994426461 0.4332543141695691 0.08719164397391246 0.3051707539086936 0.08719164397391246 0.08719164397391246 0.1877891634041457 0.1249555133224391 0.4373442966285369 0.1249555133224391 0.1249555133224391 0.1284236599994313 0.3391428516957662 0.09664531830451814 0.3391428516957662 0.09664531830451814 0.1372764906512841 0.4934125187799135 0.1231036635229341 0.1231036635229341 0.1231036635229341 0.07212730565289678 0.2319245761025591 0.2319245761025591 0.3977982830223957 0.06622525911958928 0.04808569841351573 0.2726243024913261 0.2936649916984428 0.3123292066550204 0.07329580074169498 0.03729027193803198 0.3371388338232198 0.4646446960289 0.1514059916263871 0.009520206583461069 0.01748706433945685 0.1846996810309529 0.3026462568965059 0.4039439104006616 0.09122308733242263 0.04660667061701906 0.1889586150902796 0.3970024052692519 0.3560565999911092 0.01137570903234015 0.06240085871997754 0.2405354048578248 0.3810763863244611 0.2657717287561273 0.05021562134160936 0.0595228845803057 0.329872115838222 0.4079856656709731 0.1745773031825767 0.02804203072792253 0.1317835258401024 0.3281725274133349 0.2347545640655609 0.2600576818771629 0.04523170080383883 0.08886019815626635 0.2183652754092892 0.2784883440483322 0.3534297806360056 0.06085640175010688 0.07764895749915249 0.2745567930402741 0.34582454449602 0.25998998762321 0.04197971734134338 0.08223193472859504 0.2471834413271702 0.2542555947517413 0.3835303658641315 0.03279866332836186</probabilities>
			<property id="DSL_OUTCOME_ORDER">1</property>
		</cpt>
		<cpt id="Empathy">
			<state id="State0" />
			<state id="State1" />
			<parents>Age Family_Support Social_Support Gender</parents>
			<probabilities>0.6754160142004808 0.3245839857995192 0.8113405258193881 0.1886594741806119 0.5049835902473128 0.4950164097526873 0.7142178983005044 0.2857821016994955 0.4193066307729266 0.5806933692270734 0.5070653145553995 0.4929346854446006 0.741865399766614 0.258134600233386 0.3929554798536518 0.6070445201463482 0.5 0.5 0.5794500065846175 0.4205499934153825 0.3867796188023406 0.6132203811976593 0.3228240797937784 0.6771759202062215 0.6647835475983302 0.3352164524016698 0.5459964062638833 0.4540035937361167 0.5089599854359257 0.4910400145640743 0.309873759956588 0.6901262400434122 0.2671392853734415 0.7328607146265586 0.6666666666666666 0.3333333333333333 0.4359582198695623 0.5640417801304378 0.5 0.5 0.5 0.5 0.508526620214081 0.4914733797859189 0.364903959993143 0.6350960400068569 0.5335949796968431 0.4664050203031568 0.4139513692771442 0.5860486307228558 0.3396747399282783 0.6603252600717217 0.6439043575410365 0.3560956424589635 0.5083589080484238 0.4916410919515763 0.8436138053177656 0.1563861946822345 0.5051994360096423 0.4948005639903575 0.8 0.2 0.3333333333333333 0.6666666666666666 0.4935611278327776 0.5064388721672224 0.5133047316459508 0.4866952683540491 0.3194138570634515 0.6805861429365484 0.5 0.5 0.8091353215920385 0.1908646784079615 0.8 0.2 0.5 0.5 0.3337672990704901 0.6662327009295098 0.6774321430660887 0.3225678569339113 0.493515420018326 0.506484579981674 0.4401779398586925 0.5598220601413075 0.2421496114676029 0.7578503885323972 0.5 0.5 0.3123887833060978 0.6876112166939021 0.5 0.5 0.5 0.5 0.3993166744288884 0.6006833255711116 0.3021579375005036 0.6978420624994964 0.5791430667940274 0.4208569332059726 0.3366200307392535 0.6633799692607465 0.3918231946201114 0.6081768053798885 0.2197884304832623 0.7802115695167379 0.5130674700196535 0.4869325299803466 0.6895954790186641 0.3104045209813358 0.3483377344579838 0.6516622655420162 0.6666666666666666 0.3333333333333333 0.5 0.5 0.3730515421235741 0.6269484578764261 0.3230039528379428 0.6769960471620572 0.1910819460663444 0.8089180539336557 0.6666666666666666 0.3333333333333333 0.690513846926643 0.309486153073357 0.8571428571428571 0.1428571428571428 0.5 0.5 0.4928707818305339 0.5071292181694662 0.7461404468154843 0.2538595531845156 0.5031756275223707 0.4968243724776294 0.5136049421791995 0.4863950578208006 0.6582976824286029 0.3417023175713972 0.5007851569567953 0.4992148430432047 0.2420676922941094 0.7579323077058906 0.6666666666666666 0.3333333333333333 0.5 0.5 0.303317461998344 0.6966825380016559 0.4518849528361469 0.548115047163853 0.5370411884335703 0.4629588115664298 0.228535799592351 0.7714642004076491 0.181634692500341 0.818365307499659 0.3234540281686757 0.6765459718313243 0.7376609234581979 0.2623390765418022 0.4537832195285125 0.5462167804714875 0.48816371466656 0.5118362853334401 0.5 0.5 0.5833333333333333 0.4166666666666666 0.4838708823820694 0.5161291176179306 0.6653824089591179 0.3346175910408821 0.5676761484826959 0.4323238515173042 0.5 0.5 0.3671213194304257 0.6328786805695742 0.3333333333333333 0.6666666666666666 0.3333333333333333 0.6666666666666666 0.5702608575516879 0.4297391424483121 0.578640258486127 0.4213597415138731 0.5 0.5 0.4028992023826189 0.597100797617381 0.3022961778885393 0.6977038221114606 0.516007998274047 0.483992001725953 0.656910394604628 0.343089605395372 0.6666666666666666 0.3333333333333333 0.5 0.5 0.4787455072836138 0.5212544927163864 0.310910384719288 0.6890896152807121 0.5466344942473566 0.4533655057526436 0.4587489317937684 0.5412510682062316 0.3593746830539097 0.6406253169460903 0.3068552713369527 0.6931447286630473 0.8266440384427576 0.1733559615572423 0.6674876054735646 0.3325123945264355 0.6868321962100723 0.3131678037899277 0.3333333333333333 0.6666666666666666 0.6000000000000001 0.4 0.4546650169185341 0.5453349830814659 0.4692230498527246 0.5307769501472756 0.4692994326662909 0.530700567333709 0.5 0.5 0.3704882333980294 0.6295117666019706 0.5 0.5 0.5 0.5 0.6782559267193851 0.3217440732806149 0.7527749731795687 0.2472250268204314 0.5051411004407099 0.49485889955929 0.6330176882743616 0.3669823117256384 0.4527925127039102 0.5472074872960899 0.5034844737588257 0.4965155262411743 0.3971694497686425 0.6028305502313575 0.75 0.25 0.5 0.5 0.5822723600198807 0.4177276399801192 0.4045008750024879 0.5954991249975121 0.5154734031404326 0.4845265968595675 0.3624764354628993 0.6375235645371007 0.3951684564853151 0.6048315435146849 0.4886906310246045 0.5113093689753956</probabilities>
			<property id="DSL_OUTCOME_ORDER">1</property>
		</cpt>
		<cpt id="CB_Offending">
			<state id="State0" />
			<state id="State1" />
			<parents>Self_Esteem Social_Support Family_Support Hours_Internet Gender Age Empathy</parents>
			<probabilities>0.9329247533228873 0.06707524667711262 0.8851567444426267 0.1148432555573732 0.9 0.1 0.9 0.1 0.9 0.1 0.9 0.1 0.9 0.1 0.9 0.1 0.9045111452550629 0.09548885474493703 0.9025091619167387 0.09749083808326132 0.9 0.1 0.9 0.1 0.9 0.1 0.9 0.1 0.9 0.1 0.9 0.1 0.9313171254467725 0.06868287455322747 0.9 0.1 0.9036588530325151 0.09634114696748482 0.904699518610089 0.0953004813899109 0.9 0.1 0.9 0.1 0.9 0.1 0.9 0.1 0.9 0.1 0.9 0.1 0.9 0.1 0.9 0.1 0.9029928877464151 0.09700711225358494 0.9035350488715467 0.09646495112845332 0.9 0.1 0.8885468700184265 0.1114531299815736 0.9219260200767494 0.07807397992325056 0.9 0.1 0.9 0.1 0.9 0.1 0.9 0.1 0.9 0.1 0.9029353482596154 0.09706465174038471 0.9016220259282729 0.09837797407172705 0.6133035146516765 0.3866964853483233 0.9 0.1 0.9 0.1 0.9 0.1 0.9 0.1 0.9 0.1 0.9 0.1 0.6719032271470602 0.3280967728529397 0.9023741153627396 0.09762588463726043 0.9030598236132734 0.09694017638672663 0.9 0.1 0.9 0.1 0.9 0.1 0.9 0.1 0.9 0.1 0.9323854648178611 0.06761453518213886 0.9 0.1 0.9 0.1 0.9019377713365296 0.09806222866347053 0.9022928566263668 0.09770714337363307 0.9 0.1 0.8984079424864316 0.1015920575135685 0.9 0.1 0.9 0.1 0.9 0.1 0.9 0.1 0.9 0.1 0.9 0.1 0.9027000730875582 0.09729992691244178 0.9014905696840034 0.09850943031599649 0.9 0.1 0.9 0.1 0.9 0.1 0.9 0.1 0.9 0.1 0.9 0.1 0.8987397448798801 0.1012602551201199 0.9 0.1 0.9021829173227152 0.09781708267728488 0.9028148296472006 0.09718517035279933 0.9 0.1 0.9 0.1 0.9 0.1 0.9 0.1 0.9 0.1 0.9 0.1 0.9 0.1 0.9 0.1 0.9017811403095829 0.09821885969041705 0.902108075448836 0.09789192455116393 0.9 0.1 0.8984079424864316 0.1015920575135685 0.9 0.1 0.933259447669716 0.066740552330284 0.9 0.1 0.9 0.1 0.9 0.1 0.9002715171660416 0.09972848283395851 0.9138405531528089 0.08615944684719122 0.903611999892886 0.09638800010711399 0.9 0.1 0.9 0.1 0.9 0.1 0.9 0.1 0.9 0.1 0.9 0.1 0.9 0.1 0.9042847188066139 0.09571528119338613 0.9172363586021811 0.08276364139781898 0.9067050953711259 0.09329490462887433 0.9 0.1 0.9 0.1 0.9 0.1 0.9 0.1 0.9 0.1 0.9 0.1 0.9 0.1 0.9001971922158349 0.09980280778416512 0.9144415858142402 0.08555841418575975 0.9050676256029546 0.09493237439704531 0.9 0.1 0.8984079424864316 0.1015920575135685 0.9 0.1 0.9 0.1 0.9 0.1 0.9 0.1 0.9 0.1 0.9 0.1 0.9324357365195085 0.06756426348049147 0.901492317999932 0.09850768200006813 0.9 0.1 0.9 0.1 0.9 0.1 0.9 0.1 0.9 0.1 0.9 0.1 0.9 0.1 0.9 0.1 0.9021854615693203 0.09781453843067972 0.902818091094124 0.09718190890587604 0.9 0.1 0.9 0.1 0.9 0.1 0.9 0.1 0.9 0.1 0.9 0.1 0.9 0.1 0.9 0.1 0.9017832239547523 0.0982167760452478 0.9021105340605464 0.09788946593945363 0.9041702517226952 0.09582974827730481 0.9 0.1 0.9211347461838736 0.07886525381612641 0.9 0.1 0.9 0.1 0.9 0.1 0.9 0.1 0.9 0.1 0.9 0.1 0.9 0.1 0.9 0.1 0.9 0.1 0.9 0.1 0.9 0.1 0.9 0.1 0.9 0.1 0.9 0.1 0.9 0.1 0.9 0.1 0.9 0.1 0.9 0.1 0.9332774782346642 0.06672252176533575 0.9 0.1 0.9 0.1 0.9 0.1 0.9 0.1 0.9 0.1 0.9 0.1 0.9 0.1 0.9 0.1 0.9041702517226952 0.09582974827730481 0.9332775290104106 0.06672247098958932 0.9090132983373617 0.09098670166263835 0.9 0.1 0.9 0.1 0.9 0.1 0.9 0.1 0.9 0.1 0.9 0.1 0.8987397448798801 0.1012602551201199 0.9 0.1 0.9 0.1 0.9 0.1 0.9 0.1 0.9 0.1 0.9 0.1 0.9 0.1 0.9 0.1 0.9 0.1 0.9 0.1 0.9 0.1 0.9 0.1 0.9 0.1 0.9 0.1 0.9 0.1 0.9 0.1 0.9 0.1 0.9 0.1 0.9 0.1 0.9 0.1 0.9012388869691496 0.09876111303085035 0.9 0.1 0.9090132983373617 0.09098670166263835 0.9 0.1 0.9 0.1 0.9 0.1 0.9 0.1 0.9 0.1 0.9 0.1 0.9 0.1 0.9 0.1 0.9 0.1 0.9 0.1 0.9 0.1 0.9 0.1 0.9 0.1 0.9 0.1 0.9013695642302737 0.09863043576972622 0.9 0.1 0.9257462695490132 0.07425373045098675 0.9 0.1 0.9 0.1 0.9 0.1 0.9 0.1 0.9 0.1 0.9 0.1 0.9 0.1 0.8987397448798801 0.1012602551201199 0.9 0.1 0.9 0.1 0.9041702517226952 0.09582974827730481 0.9059157866478075 0.09408421335219244 0.9016101235543976 0.09838987644560249 0.9 0.1 0.924263713391664 0.07573628660833594 0.9 0.1 0.9 0.1 0.9 0.1 0.9 0.1 0.9 0.1 0.9 0.1 0.910367354741193 0.08963264525880699 0.9 0.1 0.9 0.1 0.9 0.1 0.9 0.1 0.9 0.1 0.9 0.1 0.9 0.1 0.9 0.1 0.9 0.1 0.9019070631033995 0.09809293689660055 0.9 0.1 0.9 0.1 0.9 0.1 0.9 0.1 0.9 0.1 0.9 0.1 0.9 0.1 0.9 0.1 0.9012388869691496 0.09876111303085035 0.9 0.1 0.9016101235543976 0.09838987644560249 0.9 0.1 0.9 0.1 0.9 0.1 0.9 0.1 0.9 0.1 0.9 0.1 0.9 0.1 0.9 0.1 0.9 0.1 0.9 0.1 0.9 0.1 0.9 0.1 0.9 0.1 0.9 0.1 0.9 0.1 0.9 0.1 0.9 0.1 0.9 0.1 0.9 0.1 0.9 0.1 0.9 0.1 0.9 0.1 0.9 0.1 0.9 0.1 0.9 0.1 0.9 0.1 0.9 0.1 0.9 0.1 0.9 0.1 0.9 0.1 0.9 0.1 0.9 0.1 0.9 0.1 0.9 0.1 0.9 0.1 0.9 0.1 0.9023187970228711 0.09768120297712873 0.9 0.1 0.9 0.1 0.9 0.1 0.9 0.1 0.9059738888112376 0.09402611118876229 0.9 0.1 0.9 0.1 0.9 0.1 0.9 0.1 0.9 0.1 0.9 0.1 0.9 0.1 0.9 0.1 0.9 0.1 0.9 0.1 0.9 0.1 0.9 0.1 0.9 0.1 0.9 0.1 0.9 0.1 0.9 0.1 0.9 0.1 0.9 0.1 0.9 0.1 0.9 0.1 0.9 0.1 0.9 0.1 0.9 0.1 0.9 0.1 0.9071222362993994 0.09287776370060059 0.9 0.1 0.9 0.1 0.9 0.1 0.9 0.1 0.9144582742177363 0.08554172578226371 0.9 0.1 0.9 0.1 0.9 0.1 0.9 0.1 0.9 0.1 0.9 0.1 0.9 0.1 0.9 0.1 0.9 0.1 0.9 0.1 0.9 0.1 0.9 0.1 0.9 0.1 0.9 0.1 0.9 0.1 0.9 0.1 0.9 0.1 0.9 0.1 0.9204315349346454 0.07956846506535462 0.9 0.1 0.9 0.1 0.9 0.1 0.9 0.1 0.9 0.1 0.9071222362993994 0.09287776370060059 0.9 0.1 0.9 0.1 0.9 0.1 0.9 0.1 0.9045477394212761 0.095452260578724 0.9 0.1 0.9 0.1 0.9 0.1 0.9 0.1 0.9 0.1 0.9 0.1 0.9 0.1 0.9 0.1 0.9 0.1 0.9 0.1 0.9 0.1 0.9 0.1 0.9 0.1 0.9 0.1 0.9 0.1 0.9 0.1 0.9 0.1 0.9 0.1 0.9 0.1 0.9 0.1 0.9303523276564623 0.06964767234353775 0.9 0.1 0.9 0.1 0.9 0.1 0.911669340995664 0.08833065900433605 0.9 0.1 0.9 0.1 0.9 0.1 0.9 0.1 0.9144582742177363 0.08554172578226371 0.9 0.1 0.9 0.1 0.9 0.1 0.9 0.1 0.9 0.1 0.9 0.1 0.9 0.1 0.9 0.1 0.9 0.1 0.9 0.1 0.9 0.1 0.9 0.1 0.9 0.1 0.9 0.1 0.9 0.1 0.9 0.1 0.9 0.1 0.9 0.1 0.9 0.1 0.9 0.1 0.9 0.1 0.9 0.1 0.9 0.1 0.9 0.1 0.9021325789722227 0.0978674210277774 0.9 0.1 0.9 0.1 0.9 0.1 0.9 0.1 0.9045477394212761 0.095452260578724 0.9 0.1 0.9 0.1 0.9 0.1 0.9 0.1 0.9 0.1 0.9 0.1 0.9 0.1 0.9 0.1 0.9 0.1 0.9 0.1 0.9 0.1 0.9 0.1 0.9 0.1 0.9 0.1 0.9 0.1 0.8784993680316332 0.1215006319683667 0.9 0.1 0.9 0.1 0.9 0.1 0.9 0.1 0.9 0.1 0.901585467422035 0.09841453257796506 0.9 0.1 0.9 0.1 0.9 0.1 0.9 0.1 0.9 0.1 0.9 0.1 0.9193528070922918 0.08064719290770822 0.9040360876268984 0.0959639123731016 0.9 0.1 0.9 0.1 0.9062635173680196 0.09373648263198035 0.9 0.1 0.8998916406193863 0.1001083593806138 0.9 0.1 0.9 0.1 0.9 0.1 0.9 0.1 0.9 0.1 0.9 0.1 0.9 0.1 0.9 0.1 0.9 0.1 0.9 0.1 0.7463047005398998 0.2536952994601001 0.9 0.1 0.9 0.1 0.9 0.1 0.9 0.1 0.9 0.1 0.9053831639947498 0.09461683600525016 0.9 0.1 0.9 0.1 0.9 0.1 0.9 0.1 0.9 0.1 0.9 0.1 0.9121785515983462 0.08782144840165378 0.9040360876268984 0.0959639123731016 0.9 0.1 0.9 0.1 0.9192557904946042 0.08074420950539576 0.9 0.1 0.8998916406193863 0.1001083593806138 0.9 0.1 0.9 0.1 0.9 0.1 0.9 0.1 0.9 0.1 0.9 0.1 0.9 0.1 0.9 0.1 0.9 0.1 0.9 0.1 0.8766978538777966 0.1233021461222034 0.9 0.1 0.9 0.1 0.9 0.1 0.9 0.1 0.9 0.1 0.9056281252645177 0.09437187473548234 0.9281371919506133 0.07186280804938672 0.9 0.1 0.9 0.1 0.9 0.1 0.9 0.1 0.9 0.1 0.9040080256535027 0.09599197434649735 0.9182294069387446 0.08177059306125538 0.9 0.1 0.9 0.1 0.9200078571786259 0.07999214282137419 0.9 0.1 0.8998381563447436 0.1001618436552563 0.9 0.1 0.9013147577506189 0.09868524224938111 0.9 0.1 0.9012606935324324 0.09873930646756759 0.9 0.1 0.924994376703983 0.07500562329601698 0.9 0.1 0.9031594299479246 0.09684057005207541 0.9 0.1 0.9088925204196637 0.0911074795803362 0.7463047005398998 0.2536952994601001 0.9 0.1 0.9 0.1 0.9 0.1 0.9 0.1 0.9 0.1 0.9154299230256372 0.08457007697436293 0.9 0.1 0.9 0.1 0.9 0.1 0.9 0.1 0.6073941704760768 0.3926058295239231 0.9 0.1 0.903770721097541 0.09622927890245912 0.9129653776847623 0.08703462231523769 0.9 0.1 0.9534588580062927 0.04654114199370733 0.9437415656423206 0.05625843435767952 0.92494864784801 0.07505135215199001 0.8996273086276612 0.1003726913723388 0.9 0.1 0.9 0.1 0.9 0.1 0.9 0.1 0.9 0.1 0.9 0.1 0.9 0.1 0.9 0.1 0.9 0.1 0.9 0.1 0.8784993680316332 0.1215006319683667 0.9 0.1 0.9 0.1 0.9 0.1 0.9 0.1 0.9 0.1 0.901585467422035 0.09841453257796506 0.9 0.1 0.9 0.1 0.9 0.1 0.9 0.1 0.9 0.1 0.9 0.1 0.903770721097541 0.09622927890245912 0.9040360876268984 0.0959639123731016 0.9 0.1 0.9 0.1 0.9062635173680196 0.09373648263198035 0.9 0.1 0.8993737160761524 0.1006262839238478 0.9 0.1 0.9 0.1 0.9 0.1 0.9 0.1 0.9 0.1 0.9 0.1 0.9 0.1 0.9 0.1 0.9 0.1 0.9 0.1 0.9001928218495882 0.09980717815041174 0.8515107663398224 0.1484892336601777 0.8999786553370239 0.100021344662976 0.9398362296041062 0.06016377039589395 0.8999747953808001 0.1000252046191999 0.9 0.1 0.905236281947303 0.09476371805269694 0.9 0.1 0.9091037805064897 0.09089621949351019 0.6409474608386109 0.3590525391613892 0.9238685198086088 0.07613148019139104 0.9066939003611542 0.09330609963884574 0.9 0.1 0.9 0.1 0.9051258210605022 0.09487417893949786 0.9 0.1 0.905782365793802 0.09421763420619803 0.906422488684818 0.09357751131518198 0.8991789609603404 0.1008210390396595 0.9093244455554529 0.0906755544445472 0.9 0.1 0.9 0.1 0.9 0.1 0.9 0.1 0.9 0.1 0.9 0.1 0.9 0.1 0.9 0.1 0.9 0.1 0.9 0.1 0.9131954140522917 0.08680458594770835 0.8327739026990222 0.1672260973009777 0.8999913544077421 0.1000086455922579 0.9060550378700474 0.09394496212995258 0.9325346307765323 0.06746536922346771 0.9 0.1 0.9067597424972108 0.0932402575027891 0.9 0.1 0.9268345066610784 0.07316549333892168 0.9264723191420081 0.07352768085799194 0.9 0.1 0.9298077292017346 0.07019227079826526 0.9 0.1 0.9 0.1 0.9363486912235376 0.06365130877646237 0.663045045536594 0.3369549544634059 0.9398782511882566 0.06012174881174343 0.9082364615614648 0.09176353843853526 0.9291840067367492 0.07081599326325083 0.9146522129158354 0.08534778708416468 0.9 0.1 0.9045118978374252 0.09548810216257476 0.9 0.1 0.9 0.1 0.9 0.1 0.9 0.1 0.9 0.1 0.9 0.1 0.9 0.1 0.9 0.1 0.9004122608016323 0.09958773919836779 0.7337043748460816 0.2662956251539184 0.8999682026456515 0.1000317973543486 0.9424895881336706 0.05751041186632957 0.899915497916147 0.1000845020838532 0.9330172485785246 0.06698275142147535 0.9340257702337098 0.06597422976629022 0.9 0.1 0.9096822152896585 0.09031778471034141 0.9054663807229757 0.09453361927702433 0.7012877566654483 0.2987122433345518 0.9399349800580593 0.06006501994194073 0.9 0.1 0.9 0.1 0.9155304856815758 0.08446951431842423 0.9 0.1 0.6965689895702538 0.3034310104297462 0.9416885873799463 0.05831141262005368 0.9328493337933023 0.06715066620669768 0.9109623790839178 0.08903762091608214 0.9 0.1 0.9 0.1 0.9 0.1 0.9 0.1 0.9 0.1 0.9 0.1 0.9 0.1 0.9 0.1 0.9 0.1 0.9 0.1 0.9356854648800109 0.06431453511998922 0.9061337176639082 0.09386628233609176 0.8999321775819482 0.1000678224180519 0.9494110769850411 0.05058892301495881 0.6010891468639314 0.3989108531360686 0.9 0.1 0.9388471278447834 0.06115287215521661 0.9 0.1 0.9427622436800845 0.05723775631991553 0.9119965565040744 0.08800344349592575 0.9056002609109681 0.09439973908903197 0.9367046171426152 0.06329538285738467 0.9330838265191269 0.0669161734808731 0.898547447643146 0.1014525523568541 0.9076011837641234 0.09239881623587662 0.899569053724544 0.100430946275456 0.7916141368121413 0.2083858631878586 0.9393167961879286 0.06068320381207139 0.9181226867591349 0.08187731324086514 0.9323967850402013 0.06760321495979872 0.9008340281942253 0.09916597180577476 0.9 0.1 0.9 0.1 0.9 0.1 0.9 0.1 0.9 0.1 0.9 0.1 0.9 0.1 0.9004375139746295 0.0995624860253706 0.9 0.1 0.9001201640816284 0.09987983591837159 0.8739839826182066 0.1260160173817934 0.8999976266909433 0.1000023733090567 0.9017331281354057 0.09826687186459432 0.8999966403212991 0.1000033596787008 0.9 0.1 0.9013262122417335 0.0986737877582666 0.9 0.1 0.9032218401356514 0.09677815986434847 0.6165708843007274 0.3834291156992727 0.9 0.1 0.9042205781747302 0.09577942182526974 0.9 0.1 0.9 0.1 0.9007106663359143 0.09928933366408572 0.9 0.1 0.9009869283994655 0.09901307160053439 0.9016548202018294 0.09834517979817052 0.8997236929490344 0.1002763070509656 0.9033047189179 0.09669528108210014 0.9 0.1 0.9 0.1 0.9 0.1 0.9 0.1 0.9 0.1 0.9 0.1 0.9 0.1 0.9 0.1 0.9 0.1 0.9 0.1 0.9 0.1 0.9 0.1 0.9 0.1 0.9 0.1 0.9 0.1 0.9 0.1 0.8893764227254592 0.1106235772745408 0.9 0.1 0.9 0.1 0.9 0.1 0.9 0.1 0.9 0.1 0.9 0.1 0.9017876627513083 0.09821233724869168 0.9 0.1 0.9 0.1 0.9001048862337452 0.09989511376625468 0.901162184833633 0.09883781516636692 0.9 0.1 0.9 0.1 0.9003898205158252 0.09961017948417482 0.9 0.1 0.90068893892533 0.09931106107467015 0.9 0.1 0.9001384641793149 0.09986153582068509 0.9 0.1 0.9005419521409442 0.09945804785905575 0.9 0.1 0.9001975762088369 0.09980242379116319 0.9 0.1 0.9 0.1 0.9 0.1 0.9498547527037431 0.05014524729625693 0.9 0.1 0.9 0.1 0.9 0.1 0.8908378971534046 0.1091621028465956 0.9 0.1 0.9 0.1 0.9 0.1 0.9 0.1 0.9 0.1 0.9 0.1 0.940130892417229 0.05986910758277098 0.9 0.1 0.9 0.1 0.9004174504789256 0.09958254952107451 0.9045664481807798 0.09543355181922007 0.92918437352704 0.07081562647296 0.9 0.1 0.9021750812216787 0.09782491877832122 0.9 0.1 0.9059339472462178 0.0940660527537822 0.9 0.1 0.9014471634632865 0.09855283653671358 0.9 0.1 0.9021656958345151 0.09783430416548493 0.9 0.1 0.9007577918351877 0.0992422081648124 0.9 0.1 0.9 0.1 0.9 0.1 0.8308620221108196 0.1691379778891805 0.9301205539920261 0.06987944600797398 0.9 0.1 0.9 0.1 0.7138051720739392 0.2861948279260607 0.9 0.1 0.9013695642302737 0.09863043576972622 0.9247507920731858 0.07524920792681421 0.9 0.1 0.9 0.1 0.9499332406356662 0.05006675936433383 0.918736469566245 0.08126353043375491 0.9 0.1 0.9333184804582461 0.0666815195417539 0.9177351807933435 0.08226481920665658 0.9080819234184787 0.09191807658152128 0.9 0.1 0.9027667031610401 0.0972332968389599 0.9023394010816975 0.09766059891830256 0.9 0.1 0.9079997239578904 0.09200027604210961 0.9 0.1 0.9023524610264301 0.09764753897356983 0.9 0.1 0.9044499242402383 0.09555007575976175 0.9 0.1 0.9011958829008312 0.09880411709916885 0.9 0.1 0.9428041338320952 0.05719586616790485 0.918775414902086 0.08122458509791401 0.9 0.1 0.9 0.1 0.932864245870631 0.06713575412936904 0.9 0.1 0.837355833003814 0.162644166996186 0.9 0.1 0.9231906436765045 0.0768093563234955 0.9 0.1 0.9 0.1 0.9205360736499941 0.07946392635000578 0.9 0.1 0.906917371229832 0.09308262877016808 0.8645693631421136 0.1354306368578863 0.9049684922951898 0.09503150770481009 0.9007693618626561 0.09923063813734384 0.9367716521041091 0.06322834789589092 0.9 0.1 0.9 0.1 0.9024849494393727 0.09751505056062734 0.9008631682226786 0.09913683177732127 0.9027451884538843 0.09725481154611569 0.9 0.1 0.9031144615221094 0.09688553847789066 0.9 0.1 0.904013221442672 0.0959867785573279 0.9 0.1 0.900836746978896 0.09916325302110385 0.9 0.1 0.9 0.1 0.9 0.1 0.9 0.1 0.9 0.1 0.9 0.1 0.9 0.1 0.8975779613106061 0.1024220386893938 0.9 0.1 0.9 0.1 0.9 0.1 0.9 0.1 0.9 0.1 0.9 0.1 0.9004617979928615 0.09953820200713837 0.9 0.1 0.9332908040518283 0.06670919594817168 0.9000257159791692 0.09997428402083064 0.9002859010396546 0.09971409896034539 0.9 0.1 0.9 0.1 0.9005930943278404 0.09940690567215971 0.9 0.1 0.9001766649792736 0.09982333502072645 0.9 0.1 0.9007187344208903 0.09928126557910959 0.9 0.1 0.9001327533849142 0.09986724661508575 0.9 0.1 0.9001590576185233 0.09984094238147669 0.9 0.1 0.9333142055553201 0.06668579444467995 0.9 0.1 0.9 0.1 0.9 0.1 0.9 0.1 0.9 0.1 0.9 0.1 0.9 0.1 0.9 0.1 0.9 0.1 0.9116316967943894 0.08836830320561054 0.9 0.1 0.9054997525979297 0.09450024740207025 0.9051392473202766 0.09486075267972337 0.9 0.1 0.9 0.1 0.6202157739886285 0.3797842260113714 0.9 0.1 0.9 0.1 0.9 0.1 0.9 0.1 0.9 0.1 0.9 0.1 0.9 0.1 0.9028782927231384 0.09712170727686151 0.9 0.1 0.9 0.1 0.9 0.1 0.9 0.1 0.9 0.1 0.9 0.1 0.9 0.1 0.9 0.1 0.9 0.1 0.9 0.1 0.9 0.1 0.9 0.1 0.9 0.1 0.9 0.1 0.9 0.1 0.9043586668226639 0.09564133317733617 0.9 0.1 0.9088198748958795 0.09118012510412053 0.9082591377341231 0.09174086226587684 0.9 0.1 0.9332891792716493 0.06671082072835065 0.9 0.1 0.9 0.1 0.9 0.1 0.9 0.1 0.9 0.1 0.9 0.1 0.9 0.1 0.9 0.1 0.9108934145369741 0.08910658546302584 0.9 0.1 0.9 0.1 0.9 0.1 0.9 0.1 0.9 0.1 0.9 0.1 0.9 0.1 0.9 0.1 0.9 0.1 0.9 0.1 0.9 0.1 0.9 0.1 0.9 0.1 0.9 0.1 0.9 0.1 0.9116316967943894 0.08836830320561054 0.9329180211399849 0.06708197886001499 0.9172110924857199 0.08278890751428024 0.9162055092166959 0.08379449078330414 0.9 0.1 0.9332764766933381 0.06672352330666181 0.9231628587947547 0.07683714120524525 0.9 0.1 0.9 0.1 0.9 0.1 0.9 0.1 0.9 0.1 0.9 0.1 0.9 0.1 0.9094690801215535 0.09053091987844657 0.9 0.1 0.9 0.1 0.9 0.1 0.9 0.1 0.9 0.1 0.9 0.1 0.9 0.1 0.9 0.1 0.9 0.1 0.9 0.1 0.9324619083173113 0.06753809168268857 0.9 0.1 0.9 0.1 0.9 0.1 0.9 0.1 0.9128306847244282 0.0871693152755719 0.9 0.1 0.9072262392107618 0.09277376078923812 0.9067599681102404 0.09324003188975971 0.9 0.1 0.9331569579661954 0.06684304203380459 0.9 0.1 0.9231628587947547 0.07683714120524525 0.9 0.1 0.9 0.1 0.9 0.1 0.9 0.1 0.9 0.1 0.9 0.1 0.9164211923837708 0.08357880761622913 0.9 0.1 0.9 0.1 0.9 0.1 0.9 0.1 0.9 0.1 0.9 0.1 0.9 0.1 0.9 0.1 0.9 0.1 0.9 0.1 0.9 0.1 0.9 0.1 0.9 0.1 0.9 0.1 0.9 0.1 0.9035855347429148 0.09641446525708512 0.9 0.1 0.9054997525979297 0.09450024740207025 0.9051392473202766 0.09486075267972337 0.9 0.1 0.9 0.1 0.9 0.1 0.9 0.1 0.9 0.1 0.9 0.1 0.9 0.1 0.9 0.1 0.9 0.1 0.9 0.1 0.9028782927231384 0.09712170727686151 0.9 0.1 0.9 0.1 0.9 0.1 0.9 0.1 0.9 0.1 0.9 0.1 0.9 0.1 0.9 0.1 0.9063681751207836 0.09363182487921648 0.9001865719230485 0.09981342807695161 0.9 0.1 0.9 0.1 0.9255971302729857 0.07440286972701418 0.9014992939423701 0.09850070605762984 0.9 0.1 0.9 0.1 0.9007930400913945 0.09920695990860542 0.9 0.1 0.9077410085627999 0.09225899143720001 0.9012435700525546 0.09875642994744536 0.9001540743348172 0.09984592566518284 0.908720328066461 0.09127967193353904 0.5904501172105132 0.4095498827894867 0.8967054871464873 0.1032945128535128 0.8964484935224347 0.1035515064775654 0.9 0.1 0.9 0.1 0.9 0.1 0.9 0.1 0.9 0.1 0.9 0.1 0.9 0.1 0.9 0.1 0.9 0.1 0.9 0.1 0.9 0.1 0.9 0.1 0.9 0.1 0.9063912821077743 0.09360871789222561 0.9001865719230485 0.09981342807695161 0.9 0.1 0.9 0.1 0.6338235584670379 0.366176441532962 0.9117280719331996 0.08827192806680041 0.9 0.1 0.9333214946228152 0.06667850537718475 0.9346716017458685 0.06532839825413146 0.9 0.1 0.9368059385873003 0.06319406141269958 0.9012435700525546 0.09875642994744536 0.9001540743348172 0.09984592566518284 0.9061220310166442 0.09387796898335574 0.8736924720711884 0.1263075279288117 0.8639099850319831 0.136090014968017 0.8603263936238141 0.1396736063761859 0.9 0.1 0.9 0.1 0.9 0.1 0.9 0.1 0.9 0.1 0.9 0.1 0.9 0.1 0.9 0.1 0.9 0.1 0.9 0.1 0.9 0.1 0.9 0.1 0.9 0.1 0.9143581024192392 0.08564189758076084 0.9033817907130842 0.09661820928691588 0.9 0.1 0.9315834727379181 0.06841652726208187 0.8894911113123385 0.1105088886876615 0.9462088532131072 0.05379114678689299 0.9 0.1 0.9 0.1 0.9013589833691519 0.09864101663084815 0.9 0.1 0.9410701241983553 0.05892987580164452 0.9409886623975531 0.05901133760244689 0.9340173480846556 0.06598265191534437 0.905962484240399 0.09403751575960094 0.87455692685043 0.1254430731495701 0.7503891358575505 0.2496108641424495 0.7325967347776098 0.2674032652223903 0.9 0.1 0.9 0.1 0.9 0.1 0.9 0.1 0.9 0.1 0.9 0.1 0.9 0.1 0.9 0.1 0.9 0.1 0.9 0.1 0.9 0.1 0.9446764644157738 0.05532353558422625 0.9324756768333152 0.06752432316668459 0.9148483269388662 0.08515167306113373 0.902063128475543 0.09793687152445701 0.6033239335219569 0.3966760664780432 0.9 0.1 0.8632992614051814 0.1367007385948185 0.9218278923212763 0.07817210767872385 0.9301248646256846 0.06987513537431539 0.9 0.1 0.935274198913486 0.06472580108651413 0.9 0.1 0.9177274410349339 0.08227255896506611 0.9126775954235209 0.08732240457647912 0.9017294259300838 0.09827057406991617 0.9156167271515842 0.08438327284841586 0.6705638589124546 0.3294361410875454 0.6175359824246239 0.3824640175753761 0.8819513862203479 0.1180486137796521 0.9 0.1 0.9 0.1 0.9 0.1 0.9 0.1 0.9 0.1 0.9 0.1 0.9 0.1 0.9 0.1 0.9 0.1 0.9 0.1 0.9 0.1 0.9 0.1 0.9 0.1 0.901893865577583 0.09810613442241703 0.888740379555397 0.1112596204446031 0.9 0.1 0.9 0.1 0.9263533766169028 0.07364662338309719 0.9014992939423701 0.09850070605762984 0.9 0.1 0.9 0.1 0.9007930400913945 0.09920695990860542 0.9 0.1 0.9023237415968497 0.09767625840315036 0.9071930285738712 0.09280697142612881 0.9009355378163932 0.09906446218360682 0.9082935903829296 0.09170640961707045 0.8603469802300235 0.1396530197699765 0.8967054871464873 0.1032945128535128 0.8964484935224347 0.1035515064775654 0.9 0.1 0.9 0.1 0.9 0.1 0.9 0.1 0.9 0.1 0.9 0.1 0.9 0.1 0.9 0.1 0.9 0.1 0.9 0.1 0.9335096721148148 0.06649032788518533 0.9054067533901909 0.09459324660980895 0.9065838939882039 0.09341610601179604 0.9051352334276713 0.09486476657232874 0.900409890805784 0.09959010919421582 0.9 0.1 0.8815515313250749 0.1184484686749252 0.9006268145982079 0.09937318540179201 0.9004795494157138 0.09952045058428619 0.9 0.1 0.8868085669336356 0.1131914330663643 0.9 0.1 0.9 0.1 0.9324705382408685 0.06752946175913141 0.904122778266483 0.09587722173351686 0.9057552257436255 0.09424477425637451 0.9001259094013894 0.09987409059861062 0.8904787095388881 0.109521290461112 0.9 0.1 0.9 0.1 0.9 0.1 0.9 0.1 0.9 0.1 0.9038358991642419 0.09616410083575815 0.9 0.1 0.9 0.1 0.9 0.1 0.9 0.1 0.9 0.1 0.9 0.1 0.9316718901990971 0.06832810980090288 0.9244471219839476 0.07555287801605247 0.9150557475163779 0.08494425248362228 0.9119617674174874 0.0880382325825127 0.9010023645963727 0.09899763540362713 0.9 0.1 0.7997439572170871 0.200256042782913 0.9014446591674929 0.09855534083250714 0.9014282017430232 0.09857179825697676 0.9 0.1 0.7714472060142028 0.2285527939857972 0.9332251313737183 0.06677486862628165 0.9 0.1 0.9333059541847399 0.06669404581526009 0.9096138802302571 0.0903861197697429 0.9390481954893711 0.06095180451062888 0.8999172661818139 0.100082733818186 0.9016433754272785 0.09835662457272153 0.9 0.1 0.8645693631421136 0.1354306368578863 0.9 0.1 0.9 0.1 0.9 0.1 0.9090953122855328 0.09090468771446719 0.9 0.1 0.9 0.1 0.8999656112568379 0.1000343887431621 0.9 0.1 0.9 0.1 0.9 0.1 0.9031362634677388 0.09686373653226113 0.9509989221049844 0.04900107789501553 0.9112053962108146 0.08879460378918541 0.9407503617351344 0.05924963826486571 0.9012755836288037 0.09872441637119633 0.9105702305914062 0.08942976940859373 0.7543090113825334 0.2456909886174667 0.927466465376525 0.07253353462347496 0.9014682067223561 0.09853179327764391 0.9066027730671112 0.09339722693288882 0.7174821279576163 0.2825178720423836 0.9004441185077898 0.09955588149221017 0.9237792284280993 0.07622077157190066 0.9499384541147036 0.05006154588529643 0.9365516433210853 0.06344835667891478 0.9164331993205377 0.08356680067946233 0.9005365886401175 0.09946341135988251 0.881808050779389 0.118191949220611 0.9 0.1 0.9446739227238572 0.05532607727614283 0.9 0.1 0.9 0.1 0.9 0.1 0.9066568094107397 0.09334319058926033 0.9 0.1 0.9 0.1 0.9 0.1 0.9018776991989393 0.09812230080106062 0.9 0.1 0.9 0.1 0.9013647101112227 0.09863528988877736 0.9144861573990676 0.08551384260093225 0.9122699464660319 0.08773005353396805 0.9096884135936312 0.09031158640636877 0.9016131464400648 0.09838685355993515 0.9229104635386165 0.07708953646138339 0.8080856236625414 0.1919143763374586 0.9021222210727846 0.09787777892721536 0.9341927583246235 0.06580724167537658 0.9 0.1 0.8511268255874249 0.1488731744125751 0.9 0.1 0.9 0.1 0.9 0.1 0.9147563937081448 0.08524360629185515 0.7449373602762106 0.2550626397237893 0.9004094945897644 0.09959050541023565 0.8609755160246466 0.1390244839753534 0.9013695642302737 0.09863043576972622 0.9331741954695466 0.06682580453045336 0.9333059541847399 0.06669404581526009 0.9 0.1 0.9 0.1 0.9073224697620256 0.0926775302379744 0.9 0.1 0.9332614717862384 0.06673852821376157 0.9 0.1 0.9 0.1 0.9 0.1 0.9 0.1 0.9002214942730771 0.09977850572692291 0.9026154142011897 0.09738458579881019 0.9340918977948578 0.06590810220514233 0.901817959953687 0.0981820400463131 0.9002811305053602 0.0997188694946398 0.9 0.1 0.8907009367097398 0.1092990632902602 0.9003381552195728 0.09966184478042717 0.900191642271069 0.099808357728931 0.9 0.1 0.8941368458318334 0.1058631541681666 0.9 0.1 0.9 0.1 0.9 0.1 0.9028576576842046 0.09714234231579537 0.9351475158089864 0.06485248419101357 0.9000684621850239 0.09993153781497603 0.8950389853753056 0.1049610146246944 0.9 0.1 0.9 0.1 0.9 0.1 0.9 0.1 0.9 0.1 0.9013466288345681 0.09865337116543198 0.9 0.1 0.9 0.1 0.9 0.1 0.9 0.1 0.9 0.1 0.9 0.1 0.6098070451699625 0.3901929548300375 0.9 0.1 0.9002742688395838 0.09972573116041612 0.9 0.1 0.9000448181012195 0.09995518189878046 0.9 0.1 0.8666906413896345 0.1333093586103655 0.9 0.1 0.9111235147002192 0.08887648529978073 0.9024347586166791 0.09756524138332079 0.6072395689068595 0.3927604310931405 0.9 0.1 0.9588848437507315 0.04111515624926848 0.9 0.1 0.9001842506819706 0.09981574931802943 0.9 0.1 0.9003629446369271 0.09963705536307289 0.9 0.1 0.9074896093177952 0.09251039068220476 0.904562654193282 0.09543734580671792 0.9000759031800111 0.09992409681998896 0.9 0.1 0.9000570455345944 0.09994295446540546 0.9 0.1 0.9000576555377057 0.09994234446229416 0.9 0.1 0.9000331459417692 0.09996685405823078 0.9 0.1 0.8650546572639078 0.134945342736092 0.9034310976549997 0.09656890234500008 0.9047815354647375 0.09521846453526234 0.9 0.1 0.9134145318898197 0.0865854681101802 0.9 0.1 0.9016128733854367 0.09838712661456321 0.9 0.1 0.8653485807911174 0.1346514192088826 0.9 0.1 0.8804011265942736 0.1195988734057263 0.9015735852890149 0.09842641471098516 0.935703339489469 0.06429666051053098 0.9 0.1 0.9376833461580604 0.06231665384193977 0.9 0.1 0.9063501918858454 0.0936498081141546 0.9 0.1 0.903415790388944 0.09658420961105593 0.9 0.1 0.9065326495675825 0.09346735043241752 0.9029694965337814 0.09703050346621865 0.9005373242159591 0.0994626757840409 0.9 0.1 0.9005536312375125 0.09944636876248727 0.9 0.1 0.9020664967261717 0.09793350327382828 0.9 0.1 0.9003200364507624 0.0996799635492375 0.9 0.1 0.9016136060092913 0.09838639399070867 0.90222474874952 0.09777525125048002 0.9001635734292377 0.09983642657076226 0.9 0.1 0.9001130329751473 0.09988696702485277 0.9331888413819799 0.06681115861801998 0.9000448181012195 0.09995518189878046 0.9 0.1 0.7573338613010785 0.2426661386989215 0.9 0.1 0.8771831670355228 0.1228168329644772 0.901446008044777 0.09855399195522287 0.9001341737160419 0.09986582628395818 0.9 0.1 0.9004284657616819 0.0995715342383181 0.9 0.1 0.9001842506819706 0.09981574931802943 0.9 0.1 0.9006464023317797 0.0993535976682202 0.9 0.1 0.904535560174438 0.09546443982556184 0.9027315680127665 0.09726843198723338 0.9000089654073989 0.09999103459260102 0.9 0.1 0.9000234858259719 0.09997651417402811 0.9 0.1 0.9000576555377057 0.09994234446229416 0.9 0.1 0.9000591572262503 0.09994084277374965 0.9 0.1 0.9298781039811823 0.07012189601881781 0.90204536273017 0.09795463726982991 0.9001635734292377 0.09983642657076226 0.9 0.1 0.9001130329751473 0.09988696702485277 0.9 0.1 0.9000448181012195 0.09995518189878046 0.9 0.1 0.8290310283387303 0.1709689716612695 0.9 0.1 0.8249265865667506 0.1750734134332494 0.9035058490857754 0.09649415091422468 0.9001341737160419 0.09986582628395818 0.9 0.1 0.9004284657616819 0.0995715342383181 0.9 0.1 0.9001842506819706 0.09981574931802943 0.9 0.1 0.9006303624158946 0.09936963758410536 0.9 0.1 0.9105610461317801 0.08943895386821987 0.9065131168259419 0.09348688317405815 0.9000089654073989 0.09999103459260102 0.9 0.1 0.9000234858259719 0.09997651417402811 0.9 0.1 0.9000576555377057 0.09994234446229416 0.9 0.1 0.9000576804769322 0.09994231952306783 0.9 0.1 0.9004110909868924 0.09958890901310753 0.9049204882747268 0.09507951172527314 0.9001635734292377 0.09983642657076226 0.9 0.1 0.9000323159140261 0.09996768408597399 0.9 0.1 0.9000448181012195 0.09995518189878046 0.9 0.1 0.8921457385049527 0.1078542614950473 0.9 0.1 0.8771514009958574 0.1228485990041424 0.9014477046878739 0.09855229531212595 0.9001341737160419 0.09986582628395818 0.9 0.1 0.9001227191255844 0.09987728087441551 0.9 0.1 0.9001842506819706 0.09981574931802943 0.9 0.1 0.9001028532206652 0.09989714677933487 0.9 0.1 0.9045407233940779 0.0954592766059221 0.9027347351049667 0.09726526489503315 0.9000089654073989 0.09999103459260102 0.9 0.1 0.9000067111186772 0.09999328888132281 0.9 0.1 0.9000576555377057 0.09994234446229416 0.9 0.1 0.9000093753386262 0.09999062466137371 0.9 0.1 0.9001669070306604 0.09983309296933969 0.902047749389433 0.09795225061056706 0.9 0.1 0.9 0.1 0.9329648539047832 0.06703514609521666 0.9 0.1 0.9 0.1 0.9 0.1 0.9 0.1 0.9 0.1 0.9 0.1 0.9 0.1 0.9 0.1 0.9 0.1 0.9390152392318782 0.06098476076812172 0.9 0.1 0.9310813058368071 0.06891869416319288 0.9 0.1 0.9 0.1 0.9 0.1 0.9 0.1 0.9 0.1 0.9 0.1 0.9 0.1 0.9 0.1 0.9 0.1 0.9 0.1 0.9 0.1 0.9 0.1 0.9 0.1 0.9 0.1 0.9 0.1 0.9 0.1 0.9 0.1 0.9 0.1 0.9 0.1 0.9 0.1 0.9 0.1 0.9 0.1 0.9 0.1 0.9 0.1 0.9 0.1 0.9 0.1 0.9 0.1 0.7434072274518484 0.2565927725481515 0.9 0.1 0.9393090324477364 0.06069096755226353 0.9 0.1 0.9 0.1 0.9 0.1 0.9 0.1 0.9 0.1 0.9 0.1 0.9 0.1 0.9 0.1 0.9 0.1 0.9 0.1 0.9 0.1 0.9 0.1 0.9 0.1 0.9 0.1 0.9 0.1 0.9 0.1 0.9 0.1 0.9332601452944015 0.06673985470559834 0.9 0.1 0.9 0.1 0.9 0.1 0.9 0.1 0.9 0.1 0.9 0.1 0.9 0.1 0.9 0.1 0.9 0.1 0.9 0.1 0.9013695642302737 0.09863043576972622 0.9 0.1 0.9 0.1 0.9 0.1 0.9 0.1 0.9 0.1 0.9 0.1 0.9 0.1 0.9 0.1 0.9 0.1 0.9 0.1 0.9 0.1 0.9 0.1 0.9 0.1 0.9 0.1 0.9 0.1 0.9 0.1 0.9 0.1 0.9 0.1 0.9 0.1 0.9 0.1 0.9 0.1 0.9 0.1 0.9 0.1 0.8987397448798801 0.1012602551201199 0.9 0.1 0.9 0.1 0.9 0.1 0.9 0.1 0.9 0.1 0.9 0.1 0.9 0.1 0.9 0.1 0.9 0.1 0.9 0.1 0.9 0.1 0.9 0.1 0.9 0.1 0.9 0.1 0.9 0.1 0.9 0.1 0.9 0.1 0.9 0.1 0.9 0.1 0.9 0.1 0.9 0.1 0.9 0.1 0.9 0.1 0.9 0.1 0.9 0.1 0.9 0.1 0.9 0.1 0.9 0.1 0.9 0.1 0.9 0.1 0.9 0.1 0.9 0.1 0.9 0.1 0.9 0.1 0.9 0.1 0.9 0.1 0.9 0.1 0.9 0.1 0.9 0.1 0.9 0.1 0.9 0.1 0.9 0.1 0.9 0.1 0.9 0.1 0.9 0.1 0.9 0.1 0.9 0.1 0.9 0.1 0.9 0.1 0.9 0.1 0.9 0.1 0.9 0.1 0.9333139517787221 0.0666860482212779 0.9 0.1 0.9 0.1 0.9 0.1 0.9 0.1 0.9 0.1 0.9 0.1 0.9 0.1 0.9 0.1 0.9 0.1 0.9 0.1 0.9 0.1 0.9 0.1 0.9 0.1 0.9 0.1 0.9 0.1 0.9 0.1 0.9 0.1 0.9 0.1 0.9 0.1 0.9 0.1 0.9 0.1 0.9 0.1 0.9 0.1 0.9 0.1 0.9 0.1 0.9 0.1 0.9 0.1 0.9 0.1 0.9 0.1 0.9 0.1 0.9 0.1 0.9 0.1 0.9 0.1 0.9 0.1 0.9 0.1 0.9 0.1 0.9 0.1 0.9 0.1 0.9 0.1 0.9 0.1 0.9 0.1 0.9 0.1 0.9 0.1 0.9 0.1 0.9 0.1 0.6364102473314621 0.3635897526685379 0.9 0.1 0.92494864784801 0.07505135215199001 0.9 0.1 0.9 0.1 0.9 0.1 0.9 0.1 0.9 0.1 0.9 0.1 0.9 0.1 0.9 0.1 0.9 0.1 0.9 0.1 0.9 0.1 0.9 0.1 0.9332750076401579 0.06672499235984214 0.9 0.1 0.9 0.1 0.9 0.1 0.9 0.1 0.9 0.1 0.9 0.1 0.9 0.1 0.9 0.1 0.9 0.1 0.9 0.1 0.9 0.1 0.9 0.1 0.9 0.1 0.9 0.1 0.9 0.1 0.9 0.1 0.9288289564642499 0.07117104353575009 0.9 0.1 0.9 0.1 0.9 0.1 0.9 0.1 0.9 0.1 0.9 0.1 0.9 0.1 0.9 0.1 0.9 0.1 0.9 0.1 0.9 0.1 0.9 0.1 0.9 0.1 0.9 0.1 0.9 0.1 0.9 0.1 0.9 0.1 0.9 0.1 0.9 0.1 0.9301462700518224 0.06985372994817768 0.9 0.1 0.9 0.1 0.9 0.1 0.9 0.1 0.9 0.1 0.9 0.1 0.9 0.1 0.9 0.1 0.9 0.1 0.9 0.1 0.9 0.1 0.9 0.1 0.9 0.1 0.9 0.1 0.9 0.1 0.9 0.1 0.9 0.1 0.9 0.1 0.9 0.1 0.9 0.1 0.9 0.1 0.9 0.1 0.9 0.1 0.9 0.1 0.9 0.1 0.9 0.1 0.9 0.1 0.9 0.1 0.9 0.1 0.9 0.1 0.9 0.1 0.9 0.1 0.9 0.1 0.9 0.1 0.9 0.1 0.9 0.1 0.9 0.1 0.9 0.1 0.9 0.1 0.9 0.1 0.9 0.1 0.9 0.1 0.9 0.1 0.9 0.1 0.9 0.1 0.9 0.1 0.9 0.1 0.9 0.1 0.9 0.1 0.9 0.1 0.9 0.1 0.9 0.1 0.9 0.1 0.9436086582969372 0.05639134170306276 0.9 0.1 0.9 0.1 0.9 0.1 0.9 0.1 0.9 0.1 0.9 0.1 0.9 0.1 0.9 0.1 0.9 0.1 0.9 0.1 0.9 0.1 0.9 0.1 0.9 0.1 0.9009560719749021 0.09904392802509789 0.9 0.1 0.9 0.1 0.9 0.1 0.9 0.1 0.9 0.1 0.9 0.1 0.9 0.1 0.9 0.1 0.9 0.1 0.9 0.1 0.9 0.1 0.9 0.1 0.9 0.1 0.919671037789535 0.08032896221046512 0.9 0.1 0.9135181661757561 0.0864818338242439 0.9 0.1 0.9 0.1 0.9 0.1 0.9 0.1 0.9 0.1 0.9 0.1 0.9 0.1 0.9178905242520458 0.0821094757479542 0.9 0.1 0.9 0.1 0.9 0.1 0.9 0.1 0.9 0.1 0.9033070264541756 0.09669297354582423 0.9 0.1 0.9 0.1 0.9 0.1 0.9027041004376243 0.09729589956237568 0.9 0.1 0.9 0.1 0.9 0.1 0.9 0.1 0.9 0.1 0.9 0.1 0.9 0.1 0.9 0.1 0.9 0.1 0.9 0.1 0.9 0.1 0.9 0.1 0.9 0.1 0.6455613948570799 0.3544386051429201 0.9 0.1 0.9 0.1 0.9 0.1 0.9 0.1 0.9 0.1 0.9 0.1 0.9 0.1 0.9 0.1 0.9 0.1 0.9 0.1 0.9 0.1 0.9034617116159213 0.09653828838407867 0.9 0.1 0.9 0.1 0.9 0.1 0.9 0.1 0.9 0.1 0.9 0.1 0.9 0.1 0.9 0.1 0.9 0.1 0.9 0.1 0.9 0.1 0.9 0.1 0.9 0.1 0.9 0.1 0.9 0.1 0.9 0.1 0.9 0.1 0.9 0.1 0.9 0.1 0.9 0.1 0.9 0.1 0.9 0.1 0.9 0.1 0.9 0.1 0.9 0.1 0.9 0.1 0.9 0.1 0.9 0.1 0.929106925285855 0.07089307471414497 0.9099737821904957 0.09002621780950434 0.9333214946228152 0.06667850537718475 0.9 0.1 0.9 0.1 0.9 0.1 0.9 0.1 0.9 0.1 0.9 0.1 0.9 0.1 0.9 0.1 0.9 0.1 0.9 0.1 0.9 0.1 0.9 0.1 0.9 0.1 0.9 0.1 0.9 0.1 0.9 0.1 0.9 0.1 0.9 0.1 0.9 0.1 0.9 0.1 0.9 0.1 0.9332603836704543 0.06673961632954566 0.9 0.1 0.9 0.1 0.9 0.1 0.9 0.1 0.9 0.1 0.9 0.1 0.9009560719749021 0.09904392802509789 0.9 0.1 0.9301462700518224 0.06985372994817768 0.9 0.1 0.9 0.1 0.9 0.1 0.9 0.1 0.9 0.1 0.9 0.1 0.9 0.1 0.9 0.1 0.9 0.1 0.9 0.1 0.9 0.1 0.8369222639144627 0.1630777360855374 0.9 0.1 0.9317718603236183 0.06822813967638165 0.8992068518602174 0.1007931481397825 0.5546116396094848 0.4453883603905154 0.8610057769348519 0.1389942230651481 0.9446241845168369 0.05537581548316319 0.8708465845989314 0.1291534154010687 0.9248098583527109 0.075190141647289 0.9258026331756196 0.0741973668243804 0.94145430418691 0.05854569581308997 0.9 0.1 0.9338531206494594 0.06614687935054064 0.9 0.1 0.9285415072659819 0.07145849273401811 0.9 0.1 0.9048184660312757 0.09518153396872425 0.9 0.1 0.9177603234382752 0.08223967656172489 0.9 0.1 0.9028014862001178 0.09719851379988219 0.9 0.1 0.9 0.1 0.9 0.1 0.9 0.1 0.9 0.1 0.9 0.1 0.9 0.1 0.9005151778602521 0.09948482213974794 0.9 0.1 0.7845688591222222 0.2154311408777778 0.9331332889815096 0.06686671101849037 0.9036439821336226 0.0963560178663774 0.899685296646815 0.1003147033531851 0.686889266818129 0.3131107331818709 0.8515059435880686 0.1484940564119315 0.9536006127285109 0.04639938727148909 0.6123282484979207 0.3876717515020794 0.9 0.1 0.9238685198086088 0.07613148019139104 0.9071408662631175 0.09285913373688254 0.9 0.1 0.9353356452441577 0.06466435475584227 0.9 0.1 0.9398609084245104 0.06013909157548956 0.9 0.1 0.9109625162625602 0.08903748373743969 0.9238685198086088 0.07613148019139104 0.9380979097885593 0.06190209021144061 0.9 0.1 0.9 0.1 0.9 0.1 0.9 0.1 0.9 0.1 0.9 0.1 0.9 0.1 0.9 0.1 0.9 0.1 0.9 0.1 0.9 0.1 0.9154511251861012 0.08454887481389878 0.9 0.1 0.9123279415803173 0.08767205841968266 0.882554891799432 0.1174451082005679 0.6678560764028608 0.3321439235971391 0.8286695646920706 0.1713304353079294 0.9417449266171272 0.05825507338287272 0.9627742941266887 0.03722570587331148 0.8771005264372417 0.1228994735627585 0.9 0.1 0.9390605366201005 0.06093946337989953 0.9 0.1 0.908038288242883 0.0919617117571169 0.9 0.1 0.9640285209501752 0.03597147904982465 0.6064619015406172 0.3935380984593828 0.9400021174142744 0.05999788258572561 0.9 0.1 0.892161033010974 0.1078389669890259 0.9 0.1 0.9 0.1 0.9 0.1 0.9 0.1 0.9 0.1 0.9006197095194168 0.09938029048058303 0.9 0.1 0.9 0.1 0.9 0.1 0.9 0.1 0.9 0.1 0.835960997293278 0.164039002706722 0.9 0.1 0.6504765409286465 0.3495234590713536 0.5954805064434134 0.4045194935565866 0.8184881277554005 0.1815118722445996 0.9326182932994687 0.06738170670053141 0.9248207663148366 0.07517923368516335 0.9466606183453082 0.05333938165469184 0.9 0.1 0.8133805431378487 0.1866194568621513 0.9 0.1 0.9 0.1 0.9413334797365491 0.05866652026345101 0.9332833403681022 0.06671665963189775 0.90027618817438 0.09972381182561992 0.9 0.1 0.8819336372794049 0.1180663627205952 0.9 0.1 0.8967332725686021 0.1032667274313977 0.9 0.1 0.9 0.1 0.9 0.1 0.9 0.1 0.9 0.1 0.9 0.1 0.9 0.1 0.9 0.1 0.9 0.1 0.9 0.1 0.9 0.1 0.9215214763337033 0.07847852366629668 0.9 0.1 0.9010241636906083 0.09897583630939163 0.899914487862014 0.1000855121379859 0.8955140151805117 0.1044859848194883 0.8959393864969948 0.1040606135030052 0.9037047632687136 0.09629523673128632 0.9009907353559999 0.09900926464400003 0.8769528171366484 0.1230471828633515 0.9 0.1 0.9 0.1 0.9 0.1 0.9006793704119914 0.09932062958800855 0.9 0.1 0.9000248324928706 0.09997516750712936 0.9 0.1 0.9245955253331369 0.07540447466686308 0.9 0.1 0.8983300458647663 0.1016699541352337 0.9 0.1 0.9 0.1 0.9 0.1 0.9 0.1 0.9 0.1 0.9 0.1 0.9 0.1 0.9 0.1 0.9 0.1 0.9 0.1 0.9 0.1 0.6269618411619213 0.3730381588380786 0.9026713695552587 0.09732863044474112 0.9077130688836662 0.09228693111633367 0.9238707079515466 0.07612929204845351 0.9034945116119995 0.09650548838800056 0.8969978767743356 0.1030021232256644 0.9350514987982163 0.06494850120178378 0.9015158548642611 0.09848414513573887 0.9141389046788833 0.08586109532111671 0.9025576104239346 0.09744238957606557 0.9 0.1 0.9015301566582511 0.09846984334174898 0.9014331880245752 0.09856681197542483 0.9025208316477675 0.09747916835223251 0.8952794057761265 0.1047205942238734 0.9000747051654583 0.09992529483454173 0.9 0.1 0.9 0.1 0.9 0.1 0.9 0.1 0.9 0.1 0.9 0.1 0.9 0.1 0.9 0.1 0.9 0.1 0.9 0.1 0.9 0.1 0.9 0.1 0.9 0.1 0.9 0.1 0.9523367726897805 0.04766322731021955 0.9209664432632129 0.07903355673678709 0.6762223105400524 0.3237776894599476 0.859490832375463 0.140509167624537 0.9346914335592715 0.06530856644072844 0.9225499575082454 0.07745004249175468 0.926940166737492 0.07305983326250791 0.6849282383569459 0.315071761643054 0.7003968404627666 0.2996031595372334 0.9144905276331883 0.08550947236681171 0.9325995267868299 0.06740047321317014 0.9084550908825885 0.09154490911741144 0.9117320832013808 0.08826791679861914 0.9553962404244057 0.04460375957559429 0.8220974041684289 0.1779025958315711 0.9007759053809578 0.0992240946190423 0.9 0.1 0.9321729297360115 0.06782707026398835 0.9 0.1 0.9 0.1 0.9 0.1 0.9 0.1 0.9 0.1 0.9 0.1 0.9 0.1 0.9 0.1 0.9 0.1 0.9 0.1 0.9 0.1 0.9 0.1 0.9453042241638944 0.0546957758361056 0.9529256834057658 0.04707431659423425 0.9588727478620245 0.04112725213797557 0.7220499464395869 0.2779500535604131 0.9100629169121749 0.08993708308782519 0.9270772572222111 0.07292274277778869 0.8834409987139609 0.1165590012860391 0.9443012206167903 0.05569877938320975 0.9 0.1 0.9533370103115402 0.04666298968845978 0.9333184804582461 0.0666815195417539 0.9090827346568806 0.0909172653431195 0.9155050079320985 0.08449499206790136 0.9247910424174586 0.07520895758254142 0.7271277175755935 0.2728722824244066 0.9338919982944585 0.06610800170554147 0.9 0.1 0.8980651025010363 0.1019348974989637 0.9 0.1 0.9332601452944015 0.06673985470559834 0.9 0.1 0.9 0.1 0.9 0.1 0.9 0.1 0.9 0.1 0.9 0.1 0.9 0.1 0.9 0.1 0.9 0.1 0.9 0.1 0.9359469261296464 0.06405307387035365 0.4106341298797674 0.5893658701202324 0.9 0.1 0.9535921523866379 0.04640784761336209 0.937653722365295 0.06234627763470495 0.7675882783187606 0.2324117216812392 0.9431023167158012 0.0568976832841987 0.9727115533024553 0.02728844669754478 0.9328790029901504 0.06712099700984964 0.9101279984285975 0.08987200157140245 0.9 0.1 0.909637897397862 0.09036210260213792 0.9055974271202164 0.0944025728797836 0.9095703726446912 0.09042962735530867 0.8908172100115909 0.1091827899884091 0.9016598885406465 0.09834011145935348 0.9 0.1 0.9 0.1 0.9013695642302737 0.09863043576972622 0.9332308792570899 0.06676912074291011 0.9 0.1 0.9 0.1 0.9 0.1 0.9 0.1 0.9 0.1 0.9 0.1 0.9 0.1 0.9 0.1 0.9 0.1 0.9 0.1 0.903448605295546 0.09655139470445383 0.9351149477520254 0.06488505224797461 0.9 0.1 0.8971536623782139 0.1028463376217861 0.9032344703216505 0.09676552967834955 0.8824210889139791 0.1175789110860208 0.8995674796999997 0.1004325203000002 0.9003738289510367 0.09962617104896326 0.9301462700518224 0.06985372994817768 0.9020675627260165 0.0979324372739835 0.9 0.1 0.8147350875576621 0.1852649124423379 0.9003693593933577 0.09963064060664226 0.9006543808970592 0.0993456191029409 0.8703635947483065 0.1296364052516935 0.9003866147764403 0.09961338522355974 0.9 0.1 0.9 0.1 0.9 0.1 0.9 0.1 0.9 0.1 0.9 0.1 0.9 0.1 0.9 0.1 0.9 0.1 0.9 0.1 0.9 0.1 0.9 0.1 0.9 0.1 0.9 0.1 0.9005224537536444 0.09947754624635564 0.9 0.1 0.9001315377046183 0.0998684622953817 0.9 0.1 0.9000188299043153 0.09998117009568482 0.9 0.1 0.9002074499621997 0.0997925500378004 0.9 0.1 0.9002212229580711 0.09977877704192888 0.9 0.1 0.9 0.1 0.9076773928220222 0.0923226071779778 0.9 0.1 0.8999435499758091 0.1000564500241909 0.9 0.1 0.9 0.1 0.9 0.1 0.9 0.1 0.9 0.1 0.9 0.1 0.9 0.1 0.9 0.1 0.9 0.1 0.9 0.1 0.9 0.1 0.9 0.1 0.9 0.1 0.9 0.1 0.9 0.1 0.9 0.1 0.9001824653996806 0.09981753460031949 0.9 0.1 0.9002177905197892 0.09978220948021073 0.9 0.1 0.9000769840733481 0.09992301592665193 0.9 0.1 0.9302667518739808 0.06973324812601907 0.9 0.1 0.9002935830892178 0.09970641691078218 0.9 0.1 0.9 0.1 0.9028067548838629 0.09719324511613721 0.9 0.1 0.8999156888382643 0.1000843111617357 0.9 0.1 0.9 0.1 0.9 0.1 0.9 0.1 0.9 0.1 0.9 0.1 0.9 0.1 0.9 0.1 0.9 0.1 0.9 0.1 0.9 0.1 0.9 0.1 0.9 0.1 0.9 0.1 0.9 0.1 0.9 0.1 0.9005224537536444 0.09947754624635564 0.9 0.1 0.9004635713073378 0.0995364286926621 0.9 0.1 0.900065969889178 0.09993403011082208 0.9 0.1 0.9002074499621997 0.0997925500378004 0.9 0.1 0.9002212229580711 0.09977877704192888 0.9 0.1 0.9 0.1 0.9076773928220222 0.0923226071779778 0.9 0.1 0.9331410919875164 0.06685890801248348 0.9 0.1 0.9 0.1 0.9 0.1 0.9 0.1 0.9 0.1 0.9 0.1 0.9 0.1 0.9 0.1 0.9 0.1 0.9 0.1 0.9 0.1 0.9 0.1 0.9 0.1 0.9 0.1 0.9 0.1 0.9 0.1 0.9005833967617261 0.09941660323827393 0.9 0.1 0.9001756971732066 0.09982430282679343 0.9 0.1 0.9001229678707017 0.09987703212929835 0.9 0.1 0.900220594472388 0.09977940552761197 0.9 0.1 0.9004466128380285 0.09955338716197164 0.9 0.1 0.9 0.1 0.9085044132987339 0.0914955867012661 0.9 0.1 0.8999283735477265 0.1000716264522735 0.9 0.1 0.9 0.1 0.9 0.1 0.9 0.1 0.9 0.1 0.9 0.1 0.9 0.1 0.9 0.1 0.9 0.1 0.9 0.1 0.9 0.1 0.9 0.1 0.9 0.1 0.9 0.1 0.9 0.1 0.9 0.1 0.9001490334094471 0.09985096659055294 0.9 0.1 0.9001315377046183 0.0998684622953817 0.9 0.1 0.9000188299043153 0.09998117009568482 0.9 0.1 0.9000592882317373 0.0999407117682627 0.9 0.1 0.9002212229580711 0.09977877704192888 0.9 0.1 0.9 0.1 0.9023030241382735 0.0976969758617265 0.9 0.1 0.8999435499758091 0.1000564500241909 0.9 0.1 0.9 0.1 0.9 0.1 0.9 0.1 0.9 0.1 0.9 0.1 0.9 0.1 0.9 0.1 0.9 0.1 0.9 0.1 0.9 0.1 0.9 0.1 0.9 0.1 0.9 0.1 0.9 0.1 0.9 0.1 0.9032400435302107 0.0967599564697893 0.8810861538517168 0.1189138461482831 0.9 0.1 0.9 0.1 0.9 0.1 0.8970990768267606 0.1029009231732395 0.9 0.1 0.9 0.1 0.9 0.1 0.898036886456165 0.101963113543835 0.9 0.1 0.9 0.1 0.9063804939247528 0.09361950607524699 0.9 0.1 0.8938823212153216 0.1061176787846782 0.9010887867683783 0.09891121323162173 0.9 0.1 0.9329926720965377 0.06700732790346237 0.9 0.1 0.9 0.1 0.9 0.1 0.9 0.1 0.9 0.1 0.9 0.1 0.9 0.1 0.9 0.1 0.9 0.1 0.9 0.1 0.9 0.1 0.9 0.1 0.9115222224094458 0.08847777759055418 0.8861015813596429 0.113898418640357 0.9 0.1 0.9 0.1 0.9 0.1 0.8970990768267606 0.1029009231732395 0.9 0.1 0.9 0.1 0.9 0.1 0.8807517872020929 0.1192482127979071 0.9 0.1 0.9333176547410057 0.06668234525899425 0.9064036430226218 0.09359635697737834 0.9 0.1 0.8938823212153216 0.1061176787846782 0.9010887867683783 0.09891121323162173 0.9 0.1 0.8996365383286647 0.1003634616713352 0.9171314344408074 0.08286856555919264 0.9 0.1 0.9 0.1 0.9 0.1 0.9 0.1 0.9 0.1 0.9 0.1 0.9 0.1 0.9 0.1 0.9 0.1 0.9 0.1 0.9 0.1 0.9054649801439404 0.09453501985605957 0.8633049111734744 0.1366950888265256 0.9 0.1 0.9 0.1 0.8503049254793756 0.1496950745206243 0.8967661610917157 0.1032338389082842 0.9 0.1 0.9 0.1 0.9 0.1 0.8366621066325092 0.1633378933674909 0.9 0.1 0.9299871777791391 0.07001282222086094 0.9143838053991782 0.08561619460082191 0.9332859514788435 0.06671404852115637 0.4177546225717645 0.5822453774282355 0.9417553838784253 0.05824461612157461 0.9 0.1 0.8996462647028991 0.1003537352971009 0.9112600493110984 0.08873995068890156 0.5750613582044145 0.4249386417955854 0.9 0.1 0.9 0.1 0.9 0.1 0.9 0.1 0.8985981787734026 0.1014018212265974 0.9 0.1 0.9 0.1 0.9 0.1 0.9 0.1 0.9 0.1 0.9209922984572415 0.07900770154275866 0.6740742446097042 0.3259257553902957 0.9067410112232317 0.09325898877676826 0.9 0.1 0.9074736629109702 0.09252633708902985 0.856280018629628 0.143719981370372 0.9093578567640109 0.09064214323598917 0.9 0.1 0.9145676000063983 0.08543239999360176 0.8530836642507177 0.1469163357492824 0.9330127112916783 0.06698728870832169 0.9 0.1 0.9148747722608414 0.08512522773915851 0.9 0.1 0.7696512520858233 0.2303487479141768 0.9112474357209679 0.08875256427903194 0.9 0.1 0.9323007256155588 0.06769927438444115 0.9 0.1 0.9329647092019618 0.06703529079803808 0.9333213818331998 0.06667861816680015 0.9 0.1 0.9 0.1 0.9 0.1 0.9 0.1 0.9 0.1 0.9 0.1 0.9 0.1 0.9 0.1 0.9 0.1 0.9032400435302107 0.0967599564697893 0.8810861538517168 0.1189138461482831 0.9 0.1 0.9 0.1 0.9 0.1 0.8797331103547736 0.1202668896452264 0.9 0.1 0.9 0.1 0.9 0.1 0.898036886456165 0.101963113543835 0.9 0.1 0.9 0.1 0.9018976752275449 0.09810232477245497 0.9 0.1 0.8496055024410695 0.1503944975589304 0.906340484006398 0.09365951599360207 0.9314660823787265 0.06853391762127339 0.8995021319309522 0.1004978680690477 0.9 0.1 0.9 0.1 0.9 0.1 0.9 0.1 0.9 0.1 0.9 0.1 0.9 0.1 0.9 0.1 0.9 0.1 0.9 0.1 0.9 0.1 0.9 0.1 0.9019416040320628 0.09805839596793736 0.9015775324802304 0.09842246751976963 0.8807701591244568 0.1192298408755432 0.9135826787525377 0.08641732124746213 0.9039690518174454 0.09603094818255477 0.9183584535845143 0.08164154641548577 0.8939121240086618 0.1060878759913383 0.940351816445121 0.059648183554879 0.8331897279014504 0.1668102720985497 0.8979300474233854 0.1020699525766146 0.9204315349346454 0.07956846506535462 0.8601461359902889 0.139853864009711 0.8816874915134036 0.1183125084865963 0.9289720875305288 0.0710279124694712 0.9 0.1 0.9225099626005836 0.07749003739941648 0.9315834727379181 0.06841652726208187 0.9003316548829183 0.09966834511708175 0.8974614904508851 0.1025385095491148 0.610214502441201 0.389785497558799 0.9 0.1 0.9000048393172823 0.09999516068271778 0.9 0.1 0.9003933598046013 0.09960664019539872 0.9 0.1 0.900013295047115 0.09998670495288488 0.9 0.1 0.900017226198045 0.09998277380195507 0.9 0.1 0.9000038779789519 0.09999612202104821 0.9515558588161509 0.04844414118384919 0.7749107132244504 0.2250892867755497 0.9033945781445867 0.09660542185541329 0.921126295030971 0.07887370496902901 0.6176944887583715 0.3823055112416285 0.9420545599034396 0.05794544009656055 0.8238949283415684 0.1761050716584315 0.6220693936795707 0.3779306063204294 0.8899290960809744 0.1100709039190255 0.9351643327393585 0.06483566726064149 0.6074097072894949 0.392590292710505 0.9455439312624855 0.05445606873751446 0.8412835666001013 0.1587164333998986 0.9220365748857905 0.07796342511420948 0.9598915423553906 0.04010845764460935 0.9138915633645092 0.08610843663549085 0.9293161888346027 0.07068381116539738 0.912686234253304 0.08731376574669601 0.9297288159804554 0.07027118401954457 0.9444657248808839 0.05553427511911612 0.9 0.1 0.9000268263007843 0.09997317369921553 0.9 0.1 0.9009750515981995 0.09902494840180057 0.9 0.1 0.9000326820978325 0.09996731790216754 0.9 0.1 0.9000608257354399 0.09993917426456006 0.9 0.1 0.9000116489496406 0.09998835105035929 0.9504410545562493 0.04955894544375073 0.9593778577595444 0.04062214224045559 0.8531796824854444 0.1468203175145557 0.9444756563078274 0.05552434369217264 0.6969073067990906 0.3030926932009093 0.5595567801444469 0.4404432198555531 0.738454442351263 0.261545557648737 0.9047048115373237 0.09529518846267636 0.8103221937676469 0.1896778062323531 0.7652261067196909 0.2347738932803091 0.9589985865598157 0.04100141344018424 0.9161395732509706 0.08386042674902942 0.8628700754302758 0.1371299245697241 0.9394559788469374 0.06054402115306243 0.916808712270614 0.083191287729386 0.8264639723299813 0.1735360276700188 0.8744796350531345 0.1255203649468655 0.9671964992668797 0.03280350073312045 0.9290924801014306 0.07090751989856925 0.9570571184815476 0.04294288151845246 0.9 0.1 0.9000331643549446 0.09996683564505543 0.9 0.1 0.9006988720666557 0.09930112793334417 0.9016597870896865 0.09834021291031347 0.9000416907529335 0.09995830924706663 0.9 0.1 0.9000766945084264 0.09992330549157356 0.9 0.1 0.9000119796330366 0.0999880203669633 0.9051106677186034 0.09488933228139659 0.9514655952069864 0.04853440479301369 0.9075338828964324 0.09246611710356747 0.7952970894385978 0.2047029105614022 0.8567285292925311 0.1432714707074689 0.9419280021052955 0.05807199789470455 0.5723726891890878 0.4276273108109122 0.903913299920438 0.09608670007956199 0.7267427039861563 0.2732572960138437 0.4877388062361839 0.5122611937638161 0.9332254935411897 0.06677450645881021 0.8609651618875217 0.1390348381124783 0.9153331662967661 0.08466683370323388 0.9142319223519365 0.08576807764806339 0.9 0.1 0.9589548784515413 0.04104512154845874 0.9325165364325663 0.06748346356743379 0.6928571708615003 0.3071428291384996 0.8761576393179441 0.1238423606820558 0.9384384292034752 0.06156157079652481 0.9 0.1 0.9000141988779273 0.09998580112207267 0.9 0.1 0.9007731637768509 0.09922683622314918 0.9 0.1 0.9000528816999445 0.09994711830005541 0.9 0.1 0.9000576937435337 0.09994230625646636 0.9 0.1 0.9000180683524265 0.09998193164757355 0.9009442323790232 0.09905576762097669 0.7229600100871558 0.2770399899128442 0.8939697846636888 0.1060302153363112 0.925669544956097 0.07433045504390291 0.9027501194493368 0.09724988055066319 0.9336403900019893 0.06635960999801067 0.8967913513259094 0.1032086486740906 0.9282423459836923 0.07175765401630765 0.892862468741374 0.1071375312586259 0.6582451869191782 0.3417548130808218 0.9 0.1 0.8839767873037694 0.1160232126962307 0.9306133737943963 0.06938662620560374 0.9009721701921275 0.09902782980787257 0.9 0.1 0.9255577455816829 0.07444225441831719 0.9 0.1 0.9001799634914412 0.09982003650855868 0.8989991490454288 0.1010008509545711 0.902247869711597 0.09775213028840293 0.9 0.1 0.9000022809039889 0.09999771909601109 0.9 0.1 0.9001353402833169 0.09986465971668315 0.9 0.1 0.9000091083403031 0.09999089165969673 0.9 0.1 0.9000093143108315 0.09999068568916844 0.9 0.1 0.9000015457606155 0.09999845423938444 0.9 0.1 0.9 0.1 0.9 0.1 0.9 0.1 0.9 0.1 0.9 0.1 0.9 0.1 0.9 0.1 0.9 0.1 0.9 0.1 0.9 0.1 0.9 0.1 0.9 0.1 0.9 0.1 0.8942562065373425 0.1057437934626574 0.9 0.1 0.9 0.1 0.9 0.1 0.9 0.1 0.9 0.1 0.9 0.1 0.9 0.1 0.9 0.1 0.9 0.1 0.9 0.1 0.9 0.1 0.9 0.1 0.9 0.1 0.9 0.1 0.9 0.1 0.9 0.1 0.9 0.1 0.9 0.1 0.9 0.1 0.9 0.1 0.9 0.1 0.9 0.1 0.9 0.1 0.9 0.1 0.9 0.1 0.9 0.1 0.9 0.1 0.9 0.1 0.9 0.1 0.8737348867535126 0.1262651132464873 0.9 0.1 0.9 0.1 0.9 0.1 0.9 0.1 0.9 0.1 0.9 0.1 0.9 0.1 0.9 0.1 0.9 0.1 0.9 0.1 0.9 0.1 0.9 0.1 0.9 0.1 0.9 0.1 0.9 0.1 0.9 0.1 0.9 0.1 0.9 0.1 0.9 0.1 0.9 0.1 0.9 0.1 0.9 0.1 0.9 0.1 0.9 0.1 0.9 0.1 0.9 0.1 0.9 0.1 0.9 0.1 0.9 0.1 0.8942562065373425 0.1057437934626574 0.9 0.1 0.9 0.1 0.9 0.1 0.9 0.1 0.9 0.1 0.9 0.1 0.9 0.1 0.9 0.1 0.9 0.1 0.9 0.1 0.9 0.1 0.9 0.1 0.9 0.1 0.9 0.1 0.9 0.1 0.9 0.1 0.9 0.1 0.9 0.1 0.9 0.1 0.9 0.1 0.9 0.1 0.9 0.1 0.9 0.1 0.9 0.1 0.9 0.1 0.9 0.1 0.9 0.1 0.9 0.1 0.9 0.1 0.8942562065373425 0.1057437934626574 0.9 0.1 0.9 0.1 0.9 0.1 0.92494864784801 0.07505135215199001 0.9 0.1 0.9 0.1 0.9 0.1 0.9 0.1 0.9 0.1 0.9 0.1 0.9 0.1 0.9 0.1 0.9 0.1 0.9 0.1 0.9 0.1 0.9 0.1 0.9 0.1 0.9 0.1 0.9 0.1 0.9 0.1 0.9 0.1 0.9 0.1 0.9 0.1 0.9 0.1 0.9 0.1 0.9 0.1 0.9 0.1 0.9 0.1 0.9 0.1 0.8942562065373425 0.1057437934626574 0.9 0.1 0.9 0.1 0.9 0.1 0.9 0.1 0.9 0.1 0.9 0.1 0.9 0.1 0.9 0.1 0.9 0.1 0.9 0.1 0.9 0.1 0.9 0.1 0.9 0.1 0.9 0.1 0.9 0.1 0.8989748279629404 0.1010251720370596 0.9 0.1 0.8975350530853238 0.102464946914676 0.9 0.1 0.8981140672049245 0.1018859327950755 0.9 0.1 0.8997579181151042 0.1002420818848958 0.9 0.1 0.8996657721023004 0.1003342278976996 0.9 0.1 0.9 0.1 0.9 0.1 0.9 0.1 0.9 0.1 0.9 0.1 0.9 0.1 0.9 0.1 0.9 0.1 0.9045788213280254 0.0954211786719746 0.9 0.1 0.9 0.1 0.9 0.1 0.9 0.1 0.9 0.1 0.9 0.1 0.9 0.1 0.9 0.1 0.9 0.1 0.9 0.1 0.9 0.1 0.8989748279629404 0.1010251720370596 0.9 0.1 0.8990905409603838 0.1009094590396164 0.9 0.1 0.8986760226635659 0.1013239773364342 0.9 0.1 0.8997579181151042 0.1002420818848958 0.9 0.1 0.8988173052009035 0.1011826947990963 0.9 0.1 0.9 0.1 0.9 0.1 0.9 0.1 0.9 0.1 0.9 0.1 0.9 0.1 0.9 0.1 0.9 0.1 0.9145484553020927 0.08545154469790725 0.9 0.1 0.9 0.1 0.9 0.1 0.9 0.1 0.9 0.1 0.9 0.1 0.9 0.1 0.9 0.1 0.9 0.1 0.9 0.1 0.9 0.1 0.8997092370014131 0.1002907629985868 0.9 0.1 0.8990905409603838 0.1009094590396164 0.9 0.1 0.8997817133471823 0.1002182866528178 0.9 0.1 0.8985299434857261 0.1014700565142739 0.9 0.1 0.8988173052009035 0.1011826947990963 0.9 0.1 0.9 0.1 0.9 0.1 0.9 0.1 0.9 0.1 0.9 0.1 0.9 0.1 0.9 0.1 0.9 0.1 0.9145484553020927 0.08545154469790725 0.9 0.1 0.9 0.1 0.9 0.1 0.9 0.1 0.9 0.1 0.9 0.1 0.9 0.1 0.9 0.1 0.9 0.1 0.9 0.1 0.9 0.1 0.8989748279629404 0.1010251720370596 0.9 0.1 0.8998496483847329 0.1001503516152672 0.9 0.1 0.8992318651463366 0.1007681348536636 0.9 0.1 0.8991476269838898 0.10085237301611 0.9 0.1 0.8996657721023004 0.1003342278976996 0.9 0.1 0.9 0.1 0.9 0.1 0.9 0.1 0.9 0.1 0.9 0.1 0.9 0.1 0.9 0.1 0.9 0.1 0.9045788213280254 0.0954211786719746 0.9 0.1 0.9 0.1 0.9 0.1 0.9 0.1 0.9 0.1 0.9 0.1 0.9 0.1 0.9 0.1 0.9 0.1 0.9 0.1 0.9 0.1 0.8997092370014131 0.1002907629985868 0.9 0.1 0.8998496483847329 0.1001503516152672 0.9 0.1 0.8997817133471823 0.1002182866528178 0.9 0.1 0.8997579181151042 0.1002420818848958 0.9 0.1 0.8996657721023004 0.1003342278976996 0.9 0.1 0.9 0.1 0.9 0.1 0.9 0.1 0.9 0.1 0.9 0.1 0.9 0.1 0.9 0.1 0.9 0.1 0.9045788213280254 0.0954211786719746 0.9 0.1 0.9 0.1 0.9 0.1 0.9 0.1 0.9 0.1 0.9 0.1 0.9 0.1 0.9 0.1 0.9 0.1 0.9 0.1 0.9 0.1 0.9 0.1 0.7005702477165101 0.2994297522834898 0.9 0.1 0.8215574514017671 0.1784425485982331 0.9 0.1 0.8477167107888869 0.1522832892111131 0.8751068657697604 0.1248931342302397 0.8818243947580107 0.1181756052419894 0.9 0.1 0.8854395319461057 0.1145604680538942 0.9 0.1 0.9 0.1 0.9 0.1 0.9 0.1 0.9 0.1 0.9 0.1 0.9 0.1 0.9 0.1 0.9 0.1 0.9 0.1 0.9 0.1 0.9 0.1 0.9 0.1 0.9 0.1 0.9 0.1 0.9 0.1 0.9 0.1 0.9 0.1 0.9 0.1 0.9 0.1 0.9 0.1 0.9 0.1 0.9 0.1 0.9 0.1 0.9 0.1 0.9332970795371068 0.06670292046289306 0.7491540292952631 0.250845970704737 0.9 0.1 0.9 0.1 0.9 0.1 0.9 0.1 0.9 0.1 0.9 0.1 0.9 0.1 0.9 0.1 0.9 0.1 0.9 0.1 0.9 0.1 0.9 0.1 0.9 0.1 0.9 0.1 0.9 0.1 0.9 0.1 0.9 0.1 0.9 0.1 0.9 0.1 0.9 0.1 0.9 0.1 0.9 0.1 0.9 0.1 0.9 0.1 0.9 0.1 0.9 0.1 0.9 0.1 0.9 0.1 0.9 0.1 0.8781725397757463 0.1218274602242538 0.9 0.1 0.9 0.1 0.9 0.1 0.9 0.1 0.9 0.1 0.9 0.1 0.9 0.1 0.9 0.1 0.9 0.1 0.9 0.1 0.9 0.1 0.9 0.1 0.9 0.1 0.9 0.1 0.9 0.1 0.9 0.1 0.9 0.1 0.9 0.1 0.9 0.1 0.9 0.1 0.9 0.1 0.9 0.1 0.9 0.1 0.9 0.1 0.9 0.1 0.9 0.1 0.9 0.1 0.9 0.1 0.9 0.1 0.8781725397757463 0.1218274602242538 0.9 0.1 0.9 0.1 0.7657475351987215 0.2342524648012785 0.9 0.1 0.9 0.1 0.9 0.1 0.9 0.1 0.9 0.1 0.9 0.1 0.9 0.1 0.9 0.1 0.9 0.1 0.9 0.1 0.9 0.1 0.9 0.1 0.9 0.1 0.9 0.1 0.9 0.1 0.9 0.1 0.9 0.1 0.9 0.1 0.9 0.1 0.9 0.1 0.9 0.1 0.9 0.1 0.9 0.1 0.9 0.1 0.9 0.1 0.9 0.1 0.8781725397757463 0.1218274602242538 0.9 0.1 0.9 0.1 0.9 0.1 0.9 0.1 0.9 0.1 0.9 0.1 0.9 0.1 0.9 0.1 0.9 0.1 0.9 0.1 0.9 0.1 0.9 0.1 0.9 0.1 0.9 0.1 0.9 0.1 0.9 0.1 0.9 0.1 0.9 0.1 0.9 0.1 0.9 0.1 0.9 0.1 0.9 0.1 0.9 0.1 0.9 0.1 0.9 0.1 0.9 0.1 0.9 0.1 0.9 0.1 0.9 0.1 0.9 0.1 0.9 0.1 0.9 0.1 0.9 0.1 0.9 0.1 0.9 0.1 0.9 0.1 0.9 0.1 0.9 0.1 0.9 0.1 0.9 0.1 0.9 0.1 0.9 0.1 0.9 0.1 0.9 0.1 0.9 0.1 0.9 0.1 0.9 0.1 0.9 0.1 0.9 0.1 0.9 0.1 0.9 0.1 0.9 0.1 0.9 0.1 0.9 0.1 0.9 0.1 0.9 0.1 0.9 0.1 0.9 0.1 0.9 0.1 0.9 0.1 0.9 0.1 0.9 0.1 0.9 0.1 0.9 0.1 0.9 0.1 0.9 0.1 0.9 0.1 0.9 0.1 0.9 0.1 0.8163472078885299 0.1836527921114702 0.9 0.1 0.9 0.1 0.9 0.1 0.9 0.1 0.9 0.1 0.9 0.1 0.9 0.1 0.9 0.1 0.9 0.1 0.9 0.1 0.9 0.1 0.9 0.1 0.9 0.1 0.9 0.1 0.9 0.1 0.9 0.1 0.9 0.1 0.9 0.1 0.9 0.1 0.9 0.1 0.9 0.1 0.9 0.1 0.9 0.1 0.9 0.1 0.9 0.1 0.9 0.1 0.9 0.1 0.9 0.1 0.9 0.1 0.9 0.1 0.9 0.1 0.9 0.1 0.9 0.1 0.9 0.1 0.9 0.1 0.9 0.1 0.9 0.1 0.9 0.1 0.9 0.1 0.9 0.1 0.9 0.1 0.9 0.1 0.9 0.1 0.9 0.1 0.9 0.1 0.9 0.1 0.9 0.1 0.9 0.1 0.9 0.1 0.9 0.1 0.9 0.1 0.9 0.1 0.9 0.1 0.9 0.1 0.9 0.1 0.9 0.1 0.9 0.1 0.9 0.1 0.9 0.1 0.9 0.1 0.9 0.1 0.9 0.1 0.9 0.1 0.9 0.1 0.9 0.1 0.9 0.1 0.9 0.1 0.9 0.1 0.9 0.1 0.9 0.1 0.9 0.1 0.9 0.1 0.9 0.1 0.9 0.1 0.9 0.1 0.9 0.1 0.9 0.1 0.9 0.1 0.9 0.1 0.9 0.1 0.9 0.1 0.9 0.1 0.9 0.1 0.9 0.1 0.9 0.1 0.9 0.1 0.9 0.1 0.9 0.1 0.9 0.1 0.9 0.1 0.9 0.1 0.9 0.1 0.9 0.1 0.9 0.1 0.9 0.1 0.9 0.1 0.9 0.1 0.9 0.1 0.9 0.1 0.9 0.1 0.9 0.1 0.9 0.1 0.9 0.1 0.9084741463369435 0.09152585366305654 0.9 0.1 0.9043114536853573 0.09568854631464288 0.912807006972509 0.08719299302749096 0.9096763449852346 0.09032365501476536 0.9 0.1 0.8743719713954099 0.1256280286045902 0.888092147858719 0.1119078521412809 0.9230364141672623 0.07696358583273764 0.9 0.1 0.9 0.1 0.9 0.1 0.9 0.1 0.9035314439033163 0.09646855609668381 0.9048083494649819 0.09519165053501812 0.9 0.1 0.9 0.1 0.9 0.1 0.9 0.1 0.9 0.1 0.9 0.1 0.9 0.1 0.9 0.1 0.9002105820215184 0.09978941797848159 0.9 0.1 0.9 0.1 0.9 0.1 0.9 0.1 0.9 0.1 0.9 0.1 0.9 0.1 0.9332099160240992 0.06679008397590071 0.9 0.1 0.9055694997955297 0.09443050020447027 0.9128865514064008 0.0871134485935991 0.9 0.1 0.9042797604888531 0.09572023951114689 0.8839209501878414 0.1160790498121587 0.6459160810837152 0.3540839189162849 0.9 0.1 0.9 0.1 0.9332682872790135 0.06673171272098653 0.9 0.1 0.9014567461679538 0.09854325383204617 0.9284870849951508 0.0715129150048494 0.9 0.1 0.9 0.1 0.9 0.1 0.9013695642302737 0.09863043576972622 0.9285178880070626 0.07148211199293733 0.9 0.1 0.9 0.1 0.9 0.1 0.9000853278191812 0.0999146721808187 0.9 0.1 0.9 0.1 0.9 0.1 0.9 0.1 0.9 0.1 0.9 0.1 0.6022329710987198 0.3977670289012802 0.9 0.1 0.9331533327033972 0.06684666729660275 0.7601825012895224 0.2398174987104777 0.9153571573922331 0.08464284260776683 0.9329923339088202 0.06700766609117977 0.678898474547339 0.3211015254526611 0.8523691986713267 0.1476308013286733 0.9385198962647461 0.06148010373525385 0.9 0.1 0.9 0.1 0.9 0.1 0.9 0.1 0.90518330080503 0.09481669919496995 0.9146564790893497 0.08534352091065037 0.9 0.1 0.9 0.1 0.9 0.1 0.9 0.1 0.9 0.1 0.9 0.1 0.9 0.1 0.9 0.1 0.9003136054193992 0.09968639458060059 0.9 0.1 0.9 0.1 0.9 0.1 0.9 0.1 0.9 0.1 0.9 0.1 0.9 0.1 0.9 0.1 0.8241301206127787 0.1758698793872212 0.6753086143838503 0.3246913856161499 0.9075102164058905 0.0924897835941095 0.9 0.1 0.6145496188420615 0.3854503811579386 0.9526067115734451 0.04739328842655494 0.9062054362082848 0.09379456379171518 0.9 0.1 0.9 0.1 0.9 0.1 0.9326042178306763 0.06739578216932376 0.9382869027160508 0.06171309728394912 0.907140382972539 0.09285961702746091 0.9 0.1 0.9 0.1 0.9159651520951244 0.08403484790487567 0.9 0.1 0.9 0.1 0.9 0.1 0.9 0.1 0.9 0.1 0.900668212725522 0.09933178727447804 0.9 0.1 0.9 0.1 0.9 0.1 0.9 0.1 0.9 0.1 0.9 0.1 0.9 0.1 0.9 0.1 0.9 0.1 0.9015858221472317 0.09841417785276831 0.9007017018520346 0.0992982981479653 0.9 0.1 0.9008224273409892 0.09917757265901096 0.8972941466848537 0.1027058533151462 0.9033407788786767 0.0966592211213233 0.9 0.1 0.9 0.1 0.9232708478022718 0.07672915219772813 0.9 0.1 0.9004035500460443 0.09959644995395552 0.9006650295880428 0.09933497041195717 0.9 0.1 0.9 0.1 0.9 0.1 0.9 0.1 0.9 0.1 0.9 0.1 0.9 0.1 0.9 0.1 0.9000234278424041 0.09997657215759582 0.9 0.1 0.9 0.1 0.9 0.1 0.9 0.1 0.9 0.1 0.9 0.1 0.902267319816316 0.09773268018368392 0.9 0.1 0.894558681501648 0.1054413184983522 0.9016618541439406 0.09833814585605935 0.8999043267857225 0.1000956732142775 0.8957361981963893 0.1042638018036108 0.9022490286116696 0.09775097138833048 0.8986294990354017 0.1013705009645983 0.902315451348575 0.09768454865142483 0.9 0.1 0.9 0.1 0.9 0.1 0.9 0.1 0.9 0.1 0.9 0.1 0.9 0.1 0.9 0.1 0.9 0.1 0.9 0.1 0.9332774782346642 0.06672252176533575 0.9 0.1 0.9 0.1 0.9 0.1 0.9 0.1 0.9 0.1 0.9 0.1 0.9 0.1 0.9 0.1 0.9 0.1 0.9 0.1 0.9439837972396041 0.05601620276039581 0.9451057532464111 0.05489424675358884 0.8243158073946545 0.1756841926053454 0.8065564120314695 0.1934435879685304 0.9310730590728102 0.0689269409271898 0.844220605856542 0.155779394143458 0.9085885445652154 0.09141145543478456 0.8942527864000164 0.1057472135999836 0.9084261398671257 0.0915738601328742 0.9238685198086088 0.07613148019139104 0.9 0.1 0.8357046515524357 0.1642953484475643 0.9333251722614296 0.06667482773857036 0.8974190407999724 0.1025809592000275 0.9 0.1 0.8706872135310961 0.1293127864689038 0.9 0.1 0.8649631532063274 0.1350368467936726 0.9 0.1 0.898210133808679 0.101789866191321 0.9 0.1 0.9 0.1 0.9 0.1 0.9 0.1 0.9 0.1 0.9 0.1 0.9 0.1 0.9 0.1 0.9 0.1 0.9 0.1 0.9273046495428501 0.07269535045714993 0.6994074004419919 0.300592599558008 0.6876990577997135 0.3123009422002864 0.9263709321805491 0.07362906781945082 0.8981129115580135 0.1018870884419866 0.7970956093705459 0.202904390629454 0.9156558207594155 0.08434417924058442 0.9281278195187631 0.071872180481237 0.9393755118572171 0.06062448814278282 0.9327369069935145 0.06726309300648536 0.9333184804582461 0.0666815195417539 0.9077637814461799 0.09223621855382025 0.9 0.1 0.9387789528661294 0.06122104713387061 0.9 0.1 0.9066523490968119 0.09334765090318817 0.8163472078885299 0.1836527921114702 0.9104142151954736 0.08958578480452634 0.9 0.1 0.9087740562229618 0.09122594377703808 0.9 0.1 0.9 0.1 0.9 0.1 0.9 0.1 0.9 0.1 0.9 0.1 0.9 0.1 0.900056590826415 0.09994340917358498 0.9 0.1 0.9 0.1 0.9132354293117448 0.08676457068825501 0.9498694241367878 0.05013057586321228 0.8742377590835609 0.125762240916439 0.9064521190984195 0.09354788090158048 0.8973640413767143 0.1026359586232858 0.877797035505424 0.1222029644945761 0.9151371569029751 0.08486284309702471 0.9217454965628262 0.07825450343717379 0.936167456399448 0.06383254360055197 0.9 0.1 0.9 0.1 0.9312468177141844 0.06875318228581548 0.9 0.1 0.9495878603793699 0.0504121396206301 0.9013695642302737 0.09863043576972622 0.9332632460716497 0.06673675392835028 0.9 0.1 0.9332254935411897 0.06677450645881021 0.9330127112916783 0.06698728870832169 0.9 0.1 0.9 0.1 0.9 0.1 0.9 0.1 0.9 0.1 0.9 0.1 0.9 0.1 0.9 0.1 0.9 0.1 0.9 0.1 0.9 0.1 0.9034195145823755 0.09658048541762455 0.9 0.1 0.8986591040044621 0.1013408959955378 0.9004289330112648 0.09957106698873515 0.8994840246080626 0.1005159753919374 0.9179227806121641 0.08207721938783591 0.9005573529177628 0.09944264708223712 0.8996682595810324 0.1003317404189678 0.9018709205757925 0.09812907942420736 0.9 0.1 0.9 0.1 0.9 0.1 0.9 0.1 0.9 0.1 0.9 0.1 0.9 0.1 0.9 0.1 0.9 0.1 0.9 0.1 0.9 0.1 0.9 0.1 0.9 0.1 0.9 0.1 0.9 0.1 0.9 0.1 0.9 0.1 0.9 0.1 0.9 0.1 0.9 0.1 0.9 0.1 0.9 0.1 0.9 0.1 0.9 0.1 0.9 0.1 0.9 0.1 0.9 0.1 0.9 0.1 0.9 0.1 0.9 0.1 0.9 0.1 0.9 0.1 0.9 0.1 0.9 0.1 0.9 0.1 0.9 0.1 0.9 0.1 0.9 0.1 0.9 0.1 0.9 0.1 0.9 0.1 0.9 0.1 0.9 0.1 0.9 0.1 0.9 0.1 0.9 0.1 0.9 0.1 0.9 0.1 0.9 0.1 0.9 0.1 0.9 0.1 0.9 0.1 0.9 0.1 0.9 0.1 0.9 0.1 0.9 0.1 0.9 0.1 0.9 0.1 0.9 0.1 0.9 0.1 0.9 0.1 0.9 0.1 0.9001450630169263 0.09985493698307374 0.9 0.1 0.9004114130301688 0.09958858696983107 0.9 0.1 0.9003689194658091 0.09963108053419091 0.9 0.1 0.9004462503630882 0.09955374963691169 0.9 0.1 0.9002103458603343 0.09978965413966551 0.9 0.1 0.9 0.1 0.9 0.1 0.9 0.1 0.9 0.1 0.9 0.1 0.9 0.1 0.9 0.1 0.9 0.1 0.9 0.1 0.9 0.1 0.9 0.1 0.9 0.1 0.9 0.1 0.9 0.1 0.9 0.1 0.9 0.1 0.9 0.1 0.9 0.1 0.9 0.1 0.9 0.1 0.9 0.1 0.9 0.1 0.9 0.1 0.9 0.1 0.9 0.1 0.9 0.1 0.9 0.1 0.9 0.1 0.9 0.1 0.9 0.1 0.9 0.1 0.9 0.1 0.9 0.1 0.9 0.1 0.9 0.1 0.9 0.1 0.9 0.1 0.9 0.1 0.9 0.1 0.9326812908454596 0.06731870915454026 0.9064459503106606 0.0935540496893395 0.9 0.1 0.9053421160709461 0.0946578839290539 0.9 0.1 0.9080497895618423 0.09195021043815774 0.9 0.1 0.9036158115045448 0.09638418849545514 0.9 0.1 0.9147398943225206 0.08526010567747952 0.9 0.1 0.9 0.1 0.9 0.1 0.9 0.1 0.9 0.1 0.9 0.1 0.9 0.1 0.9 0.1 0.9 0.1 0.9 0.1 0.9 0.1 0.9 0.1 0.9 0.1 0.9 0.1 0.9 0.1 0.9 0.1 0.9 0.1 0.9 0.1 0.9 0.1 0.9 0.1 0.9 0.1 0.9 0.1 0.9 0.1 0.9 0.1 0.9 0.1 0.9 0.1 0.9 0.1 0.9 0.1 0.9 0.1 0.9 0.1 0.9 0.1 0.9 0.1 0.9 0.1 0.9 0.1 0.9 0.1 0.9 0.1 0.9 0.1 0.9 0.1 0.9 0.1 0.9 0.1 0.9 0.1 0.9 0.1 0.9 0.1 0.9 0.1 0.9 0.1 0.9 0.1 0.9 0.1 0.9 0.1 0.9 0.1 0.9 0.1 0.9 0.1 0.9 0.1 0.9 0.1 0.9 0.1 0.9 0.1 0.9 0.1 0.9032163301288871 0.09678366987111285 0.9 0.1 0.9000178717946919 0.09998212820530797 0.8987885339839194 0.1012114660160807 0.9 0.1 0.9285234146807557 0.07147658531924431 0.9 0.1 0.621374139572649 0.378625860427351 0.9022885221484928 0.09771147785150731 0.9 0.1 0.9025768541466922 0.09742314585330783 0.9 0.1 0.9000137510476008 0.09998624895239921 0.9 0.1 0.9 0.1 0.9 0.1 0.9 0.1 0.9 0.1 0.9 0.1 0.9 0.1 0.9004168248035465 0.09958317519645359 0.9 0.1 0.9000004508887315 0.09999954911126854 0.9 0.1 0.9 0.1 0.9327782375982323 0.06722176240176769 0.9 0.1 0.9 0.1 0.9 0.1 0.9 0.1 0.9022222167301871 0.0977777832698128 0.9 0.1 0.9309924624910172 0.06900753750898296 0.8886395285671279 0.1113604714328721 0.9 0.1 0.9 0.1 0.9 0.1 0.9 0.1 0.9022885221484928 0.09771147785150731 0.9 0.1 0.9017771020616316 0.09822289793836833 0.9 0.1 0.9001175418773699 0.09988245812262998 0.9298817864810546 0.07011821351894537 0.9 0.1 0.9 0.1 0.9 0.1 0.9 0.1 0.9 0.1 0.9 0.1 0.9002856856154312 0.09971431438456886 0.9 0.1 0.9000038920711586 0.09999610792884159 0.9 0.1 0.6000888847367544 0.3999111152632456 0.9 0.1 0.9 0.1 0.9332691401203357 0.06673085987966419 0.9 0.1 0.9 0.1 0.6609113691714272 0.3390886308285728 0.9 0.1 0.900387239453637 0.09961276054636298 0.8652352301382401 0.1347647698617599 0.9 0.1 0.9 0.1 0.9 0.1 0.9 0.1 0.9314646470976045 0.0685353529023955 0.9 0.1 0.9017289307640219 0.09827106923597799 0.9 0.1 0.9003006418145524 0.09969935818544762 0.9 0.1 0.9 0.1 0.9 0.1 0.9 0.1 0.9 0.1 0.9 0.1 0.9 0.1 0.9002778354608103 0.09972216453918974 0.9 0.1 0.9000101384894923 0.09998986151050759 0.9 0.1 0.9 0.1 0.9 0.1 0.6003659969530978 0.3996340030469022 0.9133095653520877 0.08669043464791233 0.9267641292033751 0.07323587079662482 0.9 0.1 0.9262313111259831 0.07376868887401677 0.9 0.1 0.8990465393577823 0.1009534606422177 0.8737066110564168 0.1262933889435832 0.9 0.1 0.9400915044399183 0.05990849556008167 0.9 0.1 0.9 0.1 0.4958393264790811 0.5041606735209189 0.9 0.1 0.9036443162316086 0.09635568376839138 0.9 0.1 0.9002413701419997 0.09975862985800028 0.9 0.1 0.9 0.1 0.9 0.1 0.9 0.1 0.9 0.1 0.9 0.1 0.9 0.1 0.9007986258015366 0.09920137419846339 0.9 0.1 0.9000080899174241 0.099991910082576 0.9 0.1 0.9 0.1 0.9331145937322729 0.06688540626772707 0.9 0.1 0.9 0.1 0.9 0.1 0.9 0.1 0.9030508373967945 0.09694916260320549 0.932931980784146 0.06706801921585401 0.9000178717946919 0.09998212820530797 0.8987885339839194 0.1012114660160807 0.9 0.1 0.9 0.1 0.9 0.1 0.9 0.1 0.9126365253850127 0.08736347461498724 0.9 0.1 0.9024435111890354 0.0975564888109645 0.9 0.1 0.9000137510476008 0.09998624895239921 0.9 0.1 0.9 0.1 0.9 0.1 0.9 0.1 0.9 0.1 0.9 0.1 0.9 0.1 0.9003948469033264 0.09960515309667363 0.9 0.1 0.9000004508887315 0.09999954911126854 0.9 0.1 0.9 0.1 0.8536245125788621 0.1463754874211379 0.9372625152939983 0.0627374847060017 0.9074636171399304 0.09253638286006961 0.9042528310774828 0.09574716892251717 0.4645080933036355 0.5354919066963645 0.9463962491024972 0.05360375089750283 0.9335984700588837 0.0664015299411162 0.9041259058882866 0.0958740941117133 0.3788887593361775 0.6211112406638224 0.9012687802903262 0.09873121970967375 0.9366962211336576 0.06330377886634256 0.8989653302517712 0.1010346697482288 0.9390155583430081 0.060984441656992 0.9047962824082719 0.09520371759172795 0.9323917692308396 0.06760823076916041 0.9306666760108334 0.06933332398916664 0.9121426698145854 0.08785733018541463 0.9019040485116179 0.09809595148838203 0.9084612117773323 0.09153878822266774 0.9 0.1 0.9 0.1 0.9 0.1 0.9049146063536584 0.09508539364634164 0.9 0.1 0.9000533848236152 0.09994661517638483 0.90000310193509 0.09999689806490997 0.9001448875625007 0.09985511243749935 0.9 0.1 0.9 0.1 0.9331764588724134 0.06682354112758657 0.9565457645985139 0.04345423540148599 0.683878831953373 0.3161211680466271 0.9267443606476359 0.0732556393523642 0.7095978150423107 0.2904021849576894 0.7856485234719582 0.2143514765280417 0.9442114142521497 0.05578858574785034 0.7807656039872014 0.2192343960127986 0.9299908195339436 0.07000918046605642 0.7828962636548197 0.2171037363451803 0.9413883802744427 0.05861161972555732 0.9455684944895769 0.0544315055104232 0.7793226004597331 0.2206773995402669 0.9123567427032477 0.08764325729675224 0.9144459032004745 0.08555409679952546 0.917069716740575 0.08293028325942496 0.9072737635797945 0.09272623642020543 0.8960842716172154 0.1039157283827846 0.9389883642865362 0.06101163571346382 0.8145403697488542 0.1854596302511457 0.9 0.1 0.9046101211221443 0.09538987887785562 0.9 0.1 0.9263826231177432 0.07361737688225682 0.9 0.1 0.9056845939591464 0.09431540604085374 0.9000109489959383 0.09998905100406187 0.9245173930509323 0.07548260694906776 0.9 0.1 0.9020495527649206 0.09795044723507934 0.9763508543810562 0.02364914561894385 0.743099612597753 0.2569003874022471 0.9621700266657246 0.03782997333427548 0.8654186618542018 0.1345813381457981 0.6246884622124581 0.3753115377875419 0.9528145766498587 0.04718542335014119 0.9617016403329812 0.03829835966701866 0.9596024260609053 0.04039757393909477 0.9118136660884928 0.08818633391150715 0.9607518627491768 0.03924813725082327 0.9672304274308986 0.03276957256910139 0.9485140967681656 0.05148590323183448 0.9362670700882399 0.06373292991176016 0.8787643496515822 0.1212356503484178 0.9173728691332533 0.08262713086674664 0.9268565556433854 0.0731434443566146 0.9143251837942649 0.08567481620573511 0.8909230060283569 0.1090769939716431 0.9269237797007945 0.0730762202992055 0.9440871932995187 0.05591280670048124 0.9 0.1 0.9 0.1 0.9 0.1 0.9084551807312981 0.09154481926870182 0.9 0.1 0.900167275544807 0.09983272445519287 0.9000138037051714 0.09998619629482854 0.8909845905552305 0.1090154094447695 0.9 0.1 0.9 0.1 0.9705516757754672 0.0294483242245329 0.9340290226935255 0.06597097730647437 0.9624250132446218 0.03757498675537834 0.6189225893948835 0.3810774106051164 0.630395757056572 0.369604242943428 0.9185592251064161 0.08144077489358396 0.828416031765369 0.171583968234631 0.9369499989241418 0.06305000107585822 0.4129583762572044 0.5870416237427957 0.8918168713531547 0.1081831286468452 0.9095345839720524 0.0904654160279476 0.8830083203188113 0.1169916796811887 0.9078657761440442 0.09213422385595568 0.9527488109854115 0.04725118901458845 0.9215370982421649 0.07846290175783507 0.657199576456636 0.3428004235433639 0.8754022971905786 0.1245977028094213 0.9410346424480198 0.05896535755198007 0.938066142119245 0.06193385788075505 0.9290110226347889 0.07098897736521106 0.9 0.1 0.9 0.1 0.9 0.1 0.9092819433769518 0.09071805662304809 0.9 0.1 0.9001874976581398 0.09981250234186018 0.900010385526387 0.09998961447361299 0.9004839652856791 0.0995160347143208 0.9 0.1 0.9 0.1 0.6000629671249569 0.399937032875043 0.8924427199113424 0.1075572800886576 0.9035766517112234 0.0964233482887767 0.8744111953303796 0.1255888046696205 0.9342822782843323 0.06571772171566781 0.9248201114260074 0.07517988857399255 0.9031003292235946 0.09689967077640542 0.8630209818162434 0.1369790181837566 0.9016822538872896 0.09831774611271026 0.9345850769750331 0.06541492302496681 0.9006015936735215 0.09939840632647849 0.8975306405992299 0.1024693594007702 0.8996457597506572 0.1003542402493427 0.8963469069877387 0.1036530930122613 0.9033309940139481 0.09666900598605198 0.8942054168995921 0.1057945831004078 0.9008363154802409 0.09916368451975924 0.899823798430909 0.1001762015690909 0.9007667670616833 0.09923323293831661 0.8974711998437839 0.102528800156216 0.9 0.1 0.9 0.1 0.9 0.1 0.9017386225394854 0.09826137746051451 0.9 0.1 0.9000365777269406 0.09996342227305928 0.900001677344004 0.09999832265599587 0.9000783824259704 0.09992161757402966 0.9 0.1 0.9 0.1</probabilities>
		</cpt>
		<cpt id="Honesty">
			<state id="State0" />
			<state id="State1" />
			<state id="State2" />
			<state id="State3" />
			<parents>CB_Offending</parents>
			<probabilities>0.1842707084796317 0.322196564361479 0.3082840172050643 0.185248709953825 0.05641141370220927 0.3337823480032118 0.2941749353512724 0.3156313029433065</probabilities>
			<property id="DSL_OUTCOME_ORDER">1</property>
		</cpt>
		<cpt id="A1_2_Sociable">
			<state id="State0" />
			<state id="State1" />
			<parents>CB_Offending Honesty</parents>
			<probabilities>0.7217816385705604 0.2782183614294396 0.6878327441138954 0.3121672558861046 0.6273933827934178 0.3726066172065821 0.6558736082719961 0.3441263917280039 0.6944227315299928 0.3055772684700072 0.8394522739807534 0.1605477260192467 0.8919843177646959 0.1080156822353042 0.7427156150945815 0.2572843849054185</probabilities>
		</cpt>
		<cpt id="A1_3_MatthewMeme">
			<state id="State0" />
			<state id="State1" />
			<state id="State2" />
			<parents>CB_Offending Honesty</parents>
			<probabilities>0.4187939803138008 0.2012239571166949 0.3799820625695043 0.2131772254722575 0.3688304885411708 0.4179922859865717 0.09478214176466203 0.3738477567425857 0.5313701014927521 0.09588291262122653 0.2448837406005388 0.6592333467782346 0.158268521353605 0.7434751752758471 0.09825630337054786 0.5724013155109109 0.31993955551415 0.1076591289749391 0.6048072532695998 0.2588888481400711 0.136303898590329 0.4820495395714354 0.3223281672341316 0.1956222931944331</probabilities>
		</cpt>
		<cpt id="A3_2_Pol_Pola">
			<state id="State0" />
			<state id="State1" />
			<state id="State2" />
			<parents>CB_Offending Honesty</parents>
			<probabilities>0.4279295061063831 0.4349708389960608 0.1370996548975561 0.5248807736607846 0.1971717819401088 0.2779474443991066 0.6801631419381781 0.0481830274692361 0.2716538305925857 0.8422418785031807 0.01292430710412791 0.1448338143926913 0.1304328699346318 0.7827556616707857 0.0868114683945824 0.3463894242760582 0.5107421212073571 0.1428684545165847 0.1314855093705031 0.7770881319504613 0.09142635867903572 0.2682928202271763 0.4340526785909091 0.2976545011819147</probabilities>
		</cpt>
		<cpt id="A3_3_time_overrun">
			<state id="State0" />
			<state id="State1" />
			<parents>CB_Offending Honesty</parents>
			<probabilities>0.6572257298507658 0.3427742701492343 0.4153316099985263 0.5846683900014739 0.2715872861246628 0.7284127138753372 0.1575584447594274 0.8424415552405725 0.3730446441979531 0.6269553558020469 0.9237549056444492 0.07624509435555066 0.7568025375603326 0.2431974624396675 0.8384964791553727 0.1615035208446274</probabilities>
		</cpt>
		<cpt id="A3_4_Pol_Bullied">
			<state id="State0" />
			<state id="State1" />
			<state id="State2" />
			<parents>CB_Offending Honesty</parents>
			<probabilities>0.3419892831006136 0.2242282213829896 0.4337824955163966 0.1022968127052417 0.3562653145032972 0.5414378727914612 0.01659665295923086 0.2098043630066841 0.7735989840340851 0.02548646614745448 0.1075299326621555 0.86698360119039 0.2588466359463477 0.5320784677652449 0.2090748962884074 0.4141478037327957 0.3069079762825186 0.2789442199846857 0.4988537723804081 0.3536352467172693 0.1475109809023226 0.3706246309619923 0.3460815401515476 0.2832938288864602</probabilities>
		</cpt>
		<cpt id="A3_5_remind_Matthew">
			<state id="State0" />
			<state id="State1" />
			<state id="State2" />
			<parents>CB_Offending Honesty</parents>
			<probabilities>0.3586097185564456 0.3583077802114726 0.2830825012320817 0.3903696794294935 0.4959679248628718 0.1136623957076348 0.4581633212483539 0.4742181840986074 0.06761849465303864 0.3828999905742535 0.5541629758322103 0.06293703359353621 0.1107465433234567 0.5167731711466205 0.3724802855299229 0.1209806214366587 0.3659876023196618 0.5130317762436795 0.3505498449799554 0.4543875172207421 0.1950626377993026 0.3544762751353122 0.3976536800839024 0.2478700447807854</probabilities>
		</cpt>
		<cpt id="A3_6_Talk_Pol">
			<state id="State0" />
			<state id="State1" />
			<parents>CB_Offending Honesty</parents>
			<probabilities>0.4218700769813974 0.5781299230186024 0.2340259159097831 0.7659740840902168 0.2205798858925088 0.7794201141074912 0.1765707572477971 0.823429242752203 0.4661101306063214 0.5338898693936786 0.4987129190279091 0.5012870809720908 0.2109244072250501 0.7890755927749499 0.3488306426169389 0.6511693573830613</probabilities>
		</cpt>
		<cpt id="A3_7_Help_Pol">
			<state id="State0" />
			<state id="State1" />
			<state id="State2" />
			<state id="State3" />
			<parents>CB_Offending Honesty</parents>
			<probabilities>0.5015185375918332 0.1633830217631446 0.1309905275889691 0.2041079130560531 0.6324751686175563 0.2627607490742769 0.07468951067354516 0.03007457163462161 0.6621038476267378 0.2703283164738342 0.04020751367180322 0.02736032222762484 0.7127310339556279 0.2529363579683678 0.01774851688300876 0.01658409119299561 0.1106277698397618 0.2303615681191605 0.2217924553896125 0.437218206651465 0.1085990631638105 0.1251895393133548 0.2912810789240354 0.4749303185987993 0.4650733709366904 0.1415058330813219 0.2402633363959975 0.1531574595859902 0.3148917778051315 0.3041994388208566 0.1396025776569188 0.2413062057170931</probabilities>
		</cpt>
	</nodes>
	<extensions>
		<genie version="1.0" app="GeNIe 4.0.2919.0 ACADEMIC" name="Network1">
			<node id="Age">
				<name>Age</name>
				<interior color="e5f6f7" />
				<outline color="000080" />
				<font color="000000" name="Arial" size="8" />
				<position>186 451 227 476</position>
				<barchart active="true" width="128" height="108" />
			</node>
			<node id="Gender">
				<name>Gender</name>
				<interior color="e5f6f7" />
				<outline color="000080" />
				<font color="000000" name="Arial" size="8" />
				<position>108 287 160 319</position>
				<barchart active="true" width="128" height="72" />
			</node>
			<node id="CB_Offending">
				<name>CB_Offending</name>
				<interior color="e5f6f7" />
				<outline color="000080" />
				<font color="000000" name="Arial" size="8" />
				<position>689 384 769 434</position>
				<barchart active="true" width="128" height="64" />
			</node>
			<node id="Empathy">
				<name>Empathy</name>
				<interior color="e5f6f7" />
				<outline color="000080" />
				<font color="000000" name="Arial" size="8" />
				<position>398 471 454 506</position>
				<barchart active="true" width="128" height="64" />
			</node>
			<node id="Hours_Internet">
				<name>Hours_Internet</name>
				<interior color="e5f6f7" />
				<outline color="000080" />
				<font color="000000" name="Arial" size="8" />
				<position>178 113 234 158</position>
				<barchart active="true" width="128" height="108" />
			</node>
			<node id="Family_Support">
				<name>Family_Support</name>
				<interior color="e5f6f7" />
				<outline color="000080" />
				<font color="000000" name="Arial" size="8" />
				<position>496 28 551 76</position>
				<barchart active="true" width="128" height="72" />
			</node>
			<node id="Social_Support">
				<name>Social_Support</name>
				<interior color="e5f6f7" />
				<outline color="000080" />
				<font color="000000" name="Arial" size="8" />
				<position>782 89 840 133</position>
				<barchart active="true" width="128" height="72" />
			</node>
			<node id="A1_2_Sociable">
				<name>A1_2_Sociable</name>
				<interior color="e5f6f7" />
				<outline color="000080" />
				<font color="000000" name="Arial" size="8" />
				<position>352 628 414 679</position>
				<barchart active="true" width="128" height="64" />
			</node>
			<node id="A1_3_MatthewMeme">
				<name>A1_3_MatthewMeme</name>
				<interior color="e5f6f7" />
				<outline color="000080" />
				<font color="000000" name="Arial" size="8" />
				<position>494 629 556 680</position>
				<barchart active="true" width="128" height="72" />
			</node>
			<node id="A3_2_Pol_Pola">
				<name>A3_2_Pol_Pola</name>
				<interior color="e5f6f7" />
				<outline color="000080" />
				<font color="000000" name="Arial" size="8" />
				<position>777 628 830 677</position>
				<barchart active="true" width="128" height="72" />
			</node>
			<node id="A3_3_time_overrun">
				<name>A3_3_time_overrun</name>
				<interior color="e5f6f7" />
				<outline color="000080" />
				<font color="000000" name="Arial" size="8" />
				<position>907 629 965 678</position>
				<barchart active="true" width="128" height="64" />
			</node>
			<node id="A3_4_Pol_Bullied">
				<name>A3_4_Pol_Bullied</name>
				<interior color="e5f6f7" />
				<outline color="000080" />
				<font color="000000" name="Arial" size="8" />
				<position>1047 624 1097 672</position>
				<barchart active="true" width="128" height="72" />
			</node>
			<node id="A3_5_remind_Matthew">
				<name>A3_5_remind_Matthew</name>
				<interior color="e5f6f7" />
				<outline color="000080" />
				<font color="000000" name="Arial" size="8" />
				<position>1177 621 1232 672</position>
				<barchart active="true" width="128" height="72" />
			</node>
			<node id="A3_6_Talk_Pol">
				<name>A3_6_Talk_Pol</name>
				<interior color="e5f6f7" />
				<outline color="000080" />
				<font color="000000" name="Arial" size="8" />
				<position>1308 621 1364 671</position>
				<barchart active="true" width="128" height="64" />
			</node>
			<node id="A3_7_Help_Pol">
				<name>A3_7_Help_Pol</name>
				<interior color="e5f6f7" />
				<outline color="000080" />
				<font color="000000" name="Arial" size="8" />
				<position>1442 623 1495 671</position>
				<barchart active="true" width="128" height="90" />
			</node>
			<node id="Honesty">
				<name>Honesty</name>
				<interior color="e5f6f7" />
				<outline color="000080" />
				<font color="000000" name="Arial" size="8" />
				<position>700 760 756 795</position>
				<barchart active="true" width="128" height="90" />
			</node>
			<node id="Self_Esteem">
				<name>Self-Esteem</name>
				<interior color="e5f6f7" />
				<outline color="000080" />
				<font color="000000" name="Arial" size="8" />
				<position>1038 423 1109 467</position>
				<barchart active="true" width="128" height="72" />
			</node>
		</genie>
	</extensions>
</smile>
